-- Efficiency --
91.74877
-- Weights --
{-0.37955165}
{0.76896006}
{-0.65792346}
{0.3167175}
{-0.35190916}
{-0.5386828}
{-0.2799363}
{0.8523025}
{-0.9234526}
{0.90479845}
{-0.83035046}
{-0.17627303}
{-0.87732434}
{0.6546503}
{0.5997388}
{-0.6839343}
{0.5544627}
{0.9143169}
{-0.69511783}
{0.12900688}
{0.026466545}
{-0.3292092}
{0.5459162}
{-0.605989}
{0.99874663}
{-0.028785795}
{-0.5392473}
{0.36035684}
{1.0142517}
{-0.21311077}
{-0.3950109}
{-0.23105115}
{-0.55874014}
{0.4567371}
{0.049944583}
{0.06859286}
{-0.19390368}
{-0.44440416}
{0.72024524}
{-0.985466}
{-0.09999118}
{-0.5221785}
{0.7430475}
{0.5343376}
{0.016219316}
{0.72090465}
{0.5076431}
{0.20746066}
{-0.3631246}
{-0.7197233}
{0.26418477}
{-0.40759206}
{-0.38290858}
{0.37102824}
{-0.27938005}
{-0.6124252}
{-0.48722032}
{0.8083572}
{-0.8343285}
{-0.87073433}
{0.07317153}
{-0.71321315}
{-0.4073835}
{-0.33301383}
{-0.9586444}
{-0.35440803}
{-0.87253094}
{0.17548268}
{-0.5355263}
{-0.6412187}
{0.85041094}
{0.7931205}
{0.8741429}
{0.9409617}
{-0.6478848}
{0.63857734}
{-0.6516843}
{-0.18625996}
{-0.8397742}
{0.48435962}
{0.45201087}
{-0.48167726}
{-0.41667527}
{0.65312445}
{0.9809394}
{-0.08206036}
{0.39103264}
{-0.6969983}
{-0.5851226}
{-0.6496093}
{0.8447769}
{0.68445414}
{-0.38717556}
{0.9296506}
{-0.24643168}
{0.31680796}
{0.8762312}
{-0.020803494}
{-0.36474794}
{0.60715336}
{-0.13206077}
{0.4053811}
{0.6561301}
{-0.9071909}
{0.19272518}
{0.35749927}
{0.77950656}
{0.5173305}
{0.104704976}
{-0.72397393}
{-0.91816247}
{-0.5031479}
{-0.61811066}
{0.51871336}
{-0.63196206}
{-0.36102885}
{0.45409703}
{0.3518489}
{-0.24137999}
{0.6424605}
{-0.23471117}
{-0.6233242}
{-0.1291618}
{-0.6832659}
{-0.10339602}
{-0.76516706}
{0.5454751}
{-0.084821634}
{0.86890316}
{0.62480813}
{0.84513545}
{0.6564042}
{-0.7609143}
{-0.529573}
{-0.36793172}
{0.10186263}
{0.64702964}
{0.5135009}
{0.48392966}
{0.28587675}
{-0.692204}
{0.7470298}
{0.8949914}
{0.028415278}
{-0.70942235}
{-0.8966737}
{0.74789995}
{-0.5500424}
{0.62294555}
{-0.8086048}
{-0.38719222}
{-0.50724256}
{-0.96709037}
{-0.14592505}
{0.7181042}
{0.07845117}
{-0.9312868}
{0.9038838}
{0.7783971}
{-0.5160697}
{0.23604083}
{-0.16906263}
{-0.6773648}
{-0.070678845}
{0.49578616}
{0.9903744}
{-0.3127129}
{-1.0109613}
{0.581316}
{-0.32555732}
{0.60253924}
{0.21613994}
{-0.550616}
{-0.9427024}
{-0.8413193}
{0.69933915}
{-0.4988384}
{0.7022901}
{0.5830885}
{-0.1965826}
{-0.1975851}
{0.37871653}
{0.08373591}
{0.84683275}
{0.23948956}
{-0.35894424}
{0.7058187}
{-0.23842888}
{0.14196175}
{-0.034293324}
{0.053632315}
{0.0795359}
{-0.35478377}
{0.59565926}
{0.65275013}
{0.60776037}
{-0.017320931}
{-0.17788988}
{-0.594989}
{0.12078619}
{1.0112269}
{-0.79881847}
{0.7880646}
{0.80595315}
{0.106084704}
{0.4987941}
{0.5129365}
{-0.4838111}
{0.11716735}
{-0.4764103}
{0.77925587}
{0.7777158}
{0.5130101}
{0.87742233}
{0.6956875}
{-0.99508417}
{0.1533768}
{-0.31291282}
{-0.86518174}
{-0.115490444}
{-0.05983626}
{0.51142025}
{0.92938936}
{0.37746078}
{0.2500136}
{0.16236025}
{0.8464819}
{-0.011360091}
{-0.19825935}
{0.32216442}
{0.07296396}
{0.3733825}
{-0.419142}
{-0.661223}
{0.9367979}
{-0.2998637}
{-0.9016905}
{-0.31092304}
{0.84845567}
{0.32633045}
{-0.28020835}
{0.19301488}
{-0.18217789}
{0.32432258}
{-0.5182347}
{-0.034441616}
{-0.6965598}
{-0.16462488}
{-0.17112565}
{0.7061138}
{0.71364695}
{0.09615993}
{0.37037754}
{0.51819503}
{0.8809842}
{0.33930796}
{0.36923504}
{0.23331125}
{0.93091404}
{0.6528636}
{0.6941786}
{-0.9903683}
{-0.5267029}
{-0.81507736}
{-0.24387097}
{0.27157974}
{0.13914232}
{-0.60670865}
{0.9933374}
{0.054325506}
{-0.69180787}
{0.910199}
{-0.07284701}
{0.04673687}
{-0.52005625}
{0.68176985}
{-0.66562796}
{0.66312164}
{-0.50901264}
{-0.22578356}
{0.8097575}
{0.43168962}
{0.90658855}
{0.29831448}
{0.42275667}
{-0.30607152}
{0.2719949}
{-0.79800487}
{-0.3135078}
{-0.2832222}
{-0.5544867}
{0.60730654}
{0.865751}
{0.910195}
{0.106431484}
{-0.11554921}
{0.7175801}
{-0.27378038}
{-0.80716884}
{0.6800971}
{-0.5170343}
{0.08713715}
{-0.29953006}
{0.6168911}
{-0.75791216}
{0.37032327}
{-0.7878413}
{-0.4844172}
{0.9032352}
{0.84331787}
{-0.9509807}
{0.88382536}
{0.6397066}
{0.34849292}
{-0.57410806}
{-0.8439993}
{0.0607776}
{0.75904155}
{-0.6926685}
{0.2699077}
{-0.28873563}
{-0.58587825}
{0.088560656}
{0.36221457}
{-0.017327607}
{-0.02775243}
{0.4566385}
{0.20142016}
{0.09438431}
{0.44816002}
{-0.8932268}
{0.3319215}
{1.0290043}
{0.040776208}
{0.34362403}
{-0.95927376}
{0.44498396}
{-0.24419023}
{0.13451922}
{-0.41214958}
{0.45847607}
{0.45198065}
{0.19158326}
{-0.60460573}
{-0.14067149}
{0.45886022}
{0.09411044}
{0.31941172}
{-0.5670793}
{-0.21274623}
{-0.4412267}
{-0.28038207}
{0.34807038}
{-0.9980789}
{-0.2225963}
{-0.38197923}
{0.78401136}
{0.17237444}
{-0.27044165}
{0.8003206}
{-0.58184886}
{-0.58514315}
{-0.7914552}
{-0.88631254}
{-0.24233198}
{-0.3762761}
{-0.8480715}
{-0.28054664}
{-0.30928373}
{0.76471406}
{0.9442733}
{-0.6980753}
{0.83728004}
{0.8691501}
{-0.32865822}
{0.63913244}
{-0.4473641}
{-0.6785883}
{0.013010455}
{-0.061564624}
{0.3901074}
{0.66192937}
{-0.68819004}
{0.4143787}
{0.5372503}
{-0.0047161747}
{-0.37072545}
{0.95515835}
{-0.6875739}
{0.41645592}
{0.7317618}
{-0.61497617}
{-0.6933229}
{-0.7822676}
{0.7409309}
{0.13169102}
{0.4993522}
{0.6643631}
{0.21020661}
{0.67592674}
{0.7436578}
{0.43907297}
{0.4322036}
{-0.8883542}
{0.28393316}
{0.9159722}
{-0.9785727}
{0.04338244}
{0.7426548}
{-0.5501286}
{0.4920744}
{-0.50196564}
{0.5770004}
{0.25275302}
{-0.29814222}
{0.53114265}
{0.6699443}
{-0.64408565}
{-0.027830156}
{-0.46778598}
{0.9648967}
{0.97715217}
{-0.7986271}
{-0.38901535}
{0.21938491}
{0.744136}
{0.851478}
{0.56410253}
{0.1819663}
{0.80617845}
{-0.31696218}
{0.17307802}
{0.7616637}
{-0.32844368}
{-0.10417144}
{-0.85883474}
{-0.8822973}
{0.28775352}
{0.6371386}
{0.6684674}
{0.049871862}
{-0.36112535}
{-0.20453116}
{-0.44837812}
{-0.13203287}
{0.05394417}
{0.70202076}
{-0.33774492}
{0.1255902}
{0.18146908}
{-0.99356705}
{0.08870087}
{-0.5085468}
{0.8325138}
{-0.5846295}
{0.5014965}
{0.026884492}
{-0.8037626}
{-0.45140234}
{0.69929826}
{-0.37090802}
{-0.66730684}
{0.44493136}
{-0.30614913}
{-0.41282248}
{-0.044565804}
{0.08309899}
{0.06784167}
{0.6901939}
{-0.016384184}
{0.89206684}
{0.36286405}
{-0.2566347}
{0.20179506}
{-0.95663434}
{-0.7927889}
{-0.6743777}
{-0.27782023}
{-0.9321119}
{0.7829452}
{-0.12530637}
{0.100351445}
{-0.99626803}
{0.95627284}
{0.5291477}
{0.67026955}
{-0.6923645}
{0.6719313}
{-0.06384528}
{0.5887348}
{-0.63000995}
{-0.92219526}
{0.027785715}
{0.49163115}
{0.32714483}
{-0.54391366}
{0.95669174}
{0.44313675}
{-0.29661837}
{0.43867505}
{-0.17884731}
{0.11835053}
{-0.080943726}
{0.2364363}
{-0.5938132}
{-0.7347832}
{-0.7163835}
{-0.34622017}
{-0.60979986}
{0.35389477}
{-1.0020598}
{-0.53387475}
{0.14867184}
{-0.6601223}
{0.6931605}
{-0.6285647}
{-0.16489339}
{-0.32828432}
{-0.8081217}
{-0.18872745}
{-0.6092949}
{0.72240925}
{-0.96308243}
{0.017620403}
{0.64382696}
{-0.3332318}
{0.92381376}
{-0.22351533}
{0.40950584}
{-0.7505506}
{0.92265}
{0.10337347}
{-0.2845204}
{-0.06305014}
{0.14063752}
{-0.44511467}
{0.09941208}
{0.8665343}
{-0.015155985}
{1.0266627}
{-0.00023537921}
{-0.58319336}
{-0.834668}
{-0.093775354}
{0.5827241}
{-0.67485666}
{-0.87902886}
{0.07383401}
{-0.8471329}
{0.06626695}
{-0.6351814}
{1.0340015}
{-0.0456849}
{0.24769929}
{-0.2637202}
{-0.7440888}
{0.5301831}
{0.94330436}
{0.09984586}
{-0.012980692}
{-0.5811615}
{-0.44642523}
{-0.7678263}
{0.4776162}
{0.9324391}
{-0.7319989}
{0.4450367}
{-1.0217962}
{-0.17385268}
{0.48821416}
{0.5896462}
{-0.52970225}
{-0.36636615}
{-0.6739362}
{-0.9853211}
{0.7029811}
{0.5249163}
{0.85739124}
{0.3863266}
{0.75957257}
{0.7318461}
{0.65042084}
{-0.87336946}
{-0.41270936}
{-0.20115876}
{-0.8261193}
{0.70022047}
{0.8302893}
{0.19505906}
{-0.55621725}
{0.4358918}
{-0.69958866}
{-0.3599019}
{0.9065392}
{0.7175985}
{0.6471669}
{-0.24739933}
{-0.18864617}
{0.35447174}
{-1.0220325}
{-0.6355212}
{0.38495022}
{0.34620973}
{0.43719232}
{0.9779577}
{0.1707495}
{-0.16025396}
{0.23289245}
{-0.704865}
{0.07983786}
{-0.30469865}
{-0.39137554}
{-0.4794301}
{0.22328606}
{0.8816685}
{-0.54151696}
{-0.94726944}
{-0.085287556}
{-0.21795453}
{-0.12859568}
{0.056525405}
{-0.94489056}
{0.8917637}
{0.2359706}
{-0.8544109}
{0.523066}
{0.64154476}
{-1.0070918}
{-0.6510725}
{-0.13334653}
{0.7182405}
{0.20794095}
{-0.3252201}
{0.69284374}
{0.5883684}
{-0.80959123}
{0.7218373}
{0.27116263}
{-0.020533998}
{-0.42859623}
{-0.8486407}
{-0.89771986}
{0.022398539}
{-0.78376824}
{0.4595859}
{0.5453135}
{0.3151012}
{-0.15792921}
{-0.13631964}
{0.24439853}
{0.42158407}
{-0.95886534}
{0.15159272}
{0.09586379}
{0.78985476}
{0.4450819}
{-0.92001987}
{0.14839686}
{0.44935054}
{0.45011678}
{-0.061755057}
{-0.06802126}
{-0.2097931}
{-0.76247495}
{0.5795064}
{0.9355819}
{-0.07936033}
{0.16676535}
{0.7453346}
{0.36217657}
{0.26319522}
{-0.67738205}
{-0.5243962}
{0.20009632}
{-0.2837718}
{-0.31408697}
{0.25867796}
{-0.81787544}
{-0.03833869}
{-0.708102}
{-0.08394444}
{-0.8801863}
{0.40976396}
{1.0990441}
{0.3599398}
{0.42406777}
{-0.110746264}
{-0.75562143}
{0.42609978}
{-0.020953216}
{-1.0084958}
{0.56365705}
{0.52725726}
{0.78250897}
{-0.21396615}
{-0.74480027}
{-0.35232353}
{0.3539259}
{0.71746916}
{0.879416}
{-0.69954824}
{-1.0223525}
{0.217285}
{-1.0105345}
{-0.48882872}
{-0.55477047}
{0.021680119}
{-0.30118245}
{0.9819262}
{-0.25191388}
{0.7708408}
{-0.68647236}
{0.68483424}
{-0.014462486}
{0.66566116}
{0.124579564}
{0.76476383}
{-0.80930746}
{-0.5226194}
{0.33489463}
{-0.3558414}
{-1.0426277}
{-0.3944462}
{0.75567806}
{-0.34191108}
{-0.8492277}
{0.3680154}
{0.20204325}
{0.91692805}
{-0.8855965}
{-0.742269}
{-0.30568305}
{-0.7887001}
{-0.9166207}
{0.7532715}
{-0.44156778}
{0.8143456}
{-0.9132261}
{0.013787927}
{-0.5490258}
{0.2080009}
{-0.84719056}
{-0.93059474}
{-0.2098174}
{0.64789057}
{-0.9456395}
{-0.3883174}
{0.4915709}
{-0.38048148}
{0.48307595}
{-0.362581}
{-0.7508118}
{-0.5911975}
{0.27088332}
{0.7578974}
{-0.26420298}
{-0.7438092}
{0.51249915}
{0.69665563}
{-0.99752253}
{-0.91428804}
{0.5405667}
{-0.23074813}
{0.30687392}
{-0.15025759}
{0.94814086}
{0.4308872}
{-0.051024053}
{0.64232373}
{0.017111765}
{-0.11325143}
{0.70319957}
{-0.5412669}
{0.8508288}
{-0.5710714}
{-0.15033346}
{-0.7251501}
{0.12104048}
{0.16085401}
{-0.5903867}
{0.6587076}
{0.47415584}
{-0.0030167787}
{-0.2076785}
{-0.64122486}
{-0.90435416}
{-0.7185757}
{0.013975673}
{0.7772584}
{-0.34440193}
{-0.21425907}
{1.0195563}
{-0.5670767}
{-0.62343115}
{0.1460464}
{-0.71325904}
{-0.63997865}
{-0.9160966}
{0.4386578}
{-0.22258335}
{0.36226463}
{-0.39543107}
{0.5311773}
{0.6560341}
{-0.9294143}
{-0.24965009}
{0.9219147}
{-0.39265314}
{-0.31151795}
{0.82796377}
{-0.5320341}
{0.32945374}
{0.9022958}
{0.40967306}
{-0.4434982}
{0.30262274}
{-0.3993318}
{-0.9395722}
{0.22540507}
{-0.29189956}
{0.38185644}
{0.8541823}
{-0.12104674}
{0.28704455}
{-0.60917306}
{0.7983184}
{-0.4648893}
{0.5885085}
{0.77134204}
{0.15796353}
{0.007873071}
{-0.45489955}
{-0.46209788}
{-0.6691947}
{0.53397655}
{0.22522283}
{0.5093409}
{-0.39408198}
{-0.20862956}
{0.40139025}
{0.14844224}
{0.6973297}
{0.1872212}
{-0.030384881}
{-0.0038281085}
{0.38623366}
{0.1454525}
{-0.23848268}
{-0.10506566}
{0.25012812}
{-0.6175683}
{0.90049815}
{0.92697716}
{0.45603153}
{0.49136877}
{0.286066}
{0.0271365}
{-0.8179373}
{-0.6835033}
{-0.7478652}
{-0.054402214}
{0.50309867}
{0.25200823}
{0.63046896}
{-0.5310941}
{-0.15279247}
{-0.28076085}
{0.5050782}
{-0.029662907}
{0.77694637}
{0.18500258}
{-0.92414486}
{0.050657213}
{0.8736256}
{-0.5128106}
{-0.37181938}
{-0.41073132}
{0.7421482}
{0.052315846}
{-0.6788325}
{0.96664214}
{-0.98351777}
{0.52125144}
{-0.11207347}
{0.1656847}
{0.5198389}
{-0.4789788}
{0.6862145}
{0.60707927}
{-0.35333002}
{-0.22048521}
{0.73248965}
{-0.067208886}
{0.074269004}
{0.7252995}
{-0.3089499}
{0.9276042}
{-0.19272248}
{-0.5058028}
{-0.74551207}
{0.030558046}
{-0.79087734}
{-0.16758433}
{-0.24231513}
{0.4244585}
{0.6136576}
{0.18395141}
{-0.12907088}
{0.76795197}
{0.11204882}
{-0.5630514}
{-0.24333215}
{0.10481489}
{-0.84849435}
{0.9366732}
{-0.42256457}
{0.63280654}
{0.56660074}
{0.2715905}
{-0.5976716}
{-0.061923858}
{-0.39534363}
{0.07644941}
{-0.48798072}
{-0.73549485}
{0.77759707}
{0.09577977}
{-0.19734126}
{-0.026762545}
{-0.7981134}
{-0.32033378}
{-0.5426382}
{-0.19077706}
{0.12163834}
{-0.20202592}
{0.3709634}
{-0.080925584}
{0.6164922}
{-0.88510597}
{-0.5269051}
{0.3824265}
{0.91060984}
{0.015430776}
{0.6790711}
{0.9736397}
{0.8455516}
{0.11816582}
{0.037673514}
{0.52899534}
{-0.38813078}
{0.024577985}
{0.8853324}
{0.5932429}
{0.88190657}
{0.44368246}
{-0.35359368}
{-0.7353351}
{-0.63961124}
{0.67130756}
{0.19603217}
{0.61757207}
{0.526437}
{-0.8094801}
{0.004666987}
{-0.31953263}
{-0.32975605}
{0.36491928}
{0.7826942}
{-0.17093658}
{0.38583925}
{-0.7780769}
{-0.19012508}
{-0.8577647}
{-0.5727203}
{0.71815085}
{-0.6965108}
{0.8306329}
{-0.87554}
{0.121857636}
{-0.8030164}
{0.6256192}
{0.30804715}
{-0.0064038946}
{0.8294875}
{0.6580646}
{0.40823546}
{-0.6983186}
{0.446495}
{-0.555491}
{-0.9275654}
{0.276367}
{0.15294589}
{-0.29492164}
{0.9133935}
{-0.46495056}
{0.67423946}
{0.95676756}
{0.3015405}
{-0.8350106}
{0.29467243}
{-0.55856824}
{-0.9047588}
{0.68186086}
{-0.8057155}
{-0.3313768}
{0.5239735}
{0.32794338}
{-0.74175113}
{-0.68075633}
{0.5205762}
{-0.75462615}
{0.693531}
{0.61833024}
{0.38126844}
{0.80967855}
{-1.0224777}
{0.3510461}
{0.39890125}
{-0.4969466}
{-0.9199803}
{0.45429897}
{-0.85091823}
{-0.72610766}
{-0.064082615}
{0.76472616}
{-0.53690195}
{-0.7327748}
{0.016462503}
{0.36184454}
{-0.3533577}
{0.23017028}
{0.37603813}
{1.0113685}
{0.06859731}
{-0.15907937}
{0.19890195}
{-0.4569168}
{-0.9495768}
{0.14823732}
{-0.4336358}
{0.23529577}
{-0.80481434}
{0.2491106}
{-0.08584705}
{1.0170128}
{-0.7559103}
{-0.5674245}
{0.24382865}
{-0.27157974}
{-0.9767134}
{0.68881845}
{0.42233664}
{-0.6705632}
{0.8998692}
{-0.77914095}
{-0.07156476}
{-0.7207606}
{-0.58744794}
{0.33097348}
{0.4327431}
{0.64637136}
{0.18106757}
{-0.11931135}
{0.37751347}
{-0.6388111}
{0.10560818}
{0.8333611}
{-0.127508}
{0.565043}
{-0.8748212}
{0.39774856}
{-0.5720683}
{-0.9277339}
{0.10756275}
{-0.10237633}
{-0.67616874}
{0.6031368}
{-0.2988967}
{0.4242196}
{0.11401848}
{0.549716}
{0.27988076}
{0.37895334}
{0.013886977}
{0.3483796}
{-0.6329441}
{0.45296502}
{-0.8963793}
{0.38453722}
{0.085467674}
{0.25710714}
{0.50404614}
{0.699677}
{-1.0415602}
{-0.9452186}
{0.22707748}
{0.5290325}
{-0.5789751}
{0.29400197}
{-0.98120004}
{-0.63524723}
{0.42115504}
{0.65101755}
{-0.85205215}
{0.4040687}
{0.835238}
{-0.62048453}
{0.6726461}
{0.9219239}
{0.88853294}
{-0.04618168}
{0.5343948}
{-0.7338865}
{0.80728877}
{-0.64988214}
{-0.18955122}
{0.23592734}
{0.32618085}
{0.048801515}
{-0.27111804}
{0.9205427}
{0.051680822}
{-0.36376554}
{0.7779392}
{0.5321748}
{0.6343648}
{0.73040813}
{0.3473908}
{-0.8594079}
{0.6662385}
{0.18768743}
{0.2033397}
{0.71297693}
{-0.97772324}
{-0.5790781}
{-0.88382834}
{0.8988149}
{0.3167851}
{-0.43751174}
{0.94187236}
{0.7474084}
{0.89746577}
{-0.6107623}
{-0.12506014}
{-0.1936307}
{0.7048952}
{0.52797514}
{0.64572966}
{0.10246146}
{-0.46590433}
{-0.84246147}
{-0.7607637}
{0.6648028}
{-0.67718863}
{0.90339357}
{-0.06495375}
{0.28850365}
{0.11337996}
{0.13656302}
{-0.94361174}
{0.50542635}
{0.5564789}
{0.057194717}
{-0.2974467}
{0.57849836}
{0.94580346}
{0.8309434}
{-0.17048448}
{0.86222863}
{0.04257998}
{-0.7148009}
{-0.40111598}
{0.8375187}
{0.7779641}
{0.5771058}
{-0.91476697}
{1.0157037}
{-0.75873494}
{0.88178}
{1.0346574}
{0.87633467}
{-0.21403696}
{-0.6723887}
{1.0944569}
{-0.63462234}
{-0.8316072}
{0.78996986}
{0.73197}
{0.7132523}
{-0.75383675}
{-0.76356995}
{0.8270357}
{-0.6076057}
{0.31514427}
{0.48952502}
{-0.5524436}
{-0.50428677}
{0.22855338}
{-0.44833487}
{0.30583224}
{0.2619245}
{0.4266306}
{-1.0753642}
{0.03435302}
{0.13157883}
{-0.39347622}
{0.609718}
{-0.31637728}
{-0.61023164}
{-0.43060687}
{-1.1055039}
{0.97944385}
{-0.65994024}
{-0.61815685}
{0.10907676}
{0.8768792}
{0.8962214}
{-0.9574409}
{-0.6671475}
{0.82746696}
{0.27690172}
{0.12325937}
{0.6478132}
{0.883819}
{-0.8918152}
{0.829158}
{-0.90980816}
{0.9045406}
{-0.26140904}
{0.794501}
{-0.058656644}
{0.04324536}
{-0.0066090226}
{-0.8641628}
{-0.10206128}
{-0.49956697}
{0.54244065}
{-0.038155068}
{0.6343463}
{-0.17429677}
{0.45690203}
{-0.5644459}
{-0.64077544}
{0.38965735}
{-0.20842266}
{0.7375425}
{0.24608806}
{-0.16741732}
{0.19432068}
{-0.28506157}
{0.07763749}
{0.9233307}
{-0.4935223}
{0.51299787}
{-0.83968884}
{-0.23245557}
{-0.13973951}
{0.3592652}
{-0.92618895}
{0.5606285}
{0.88116455}
{-0.8279439}
{0.31388885}
{-0.27275845}
{-0.099853374}
{0.30917042}
{0.4939506}
{0.5154243}
{0.048794687}
{-0.49140996}
{-0.07634199}
{0.5279493}
{-0.8839581}
{0.14038533}
{0.15407193}
{0.791451}
{-0.53372884}
{-0.7870997}
{0.40958172}
{-0.11500843}
{-0.32714248}
{0.7627706}
{0.8569536}
{0.8719265}
{0.07093947}
{-0.82324874}
{0.71015847}
{-0.39057657}
{0.50740516}
{0.9496658}
{-0.74291563}
{-0.8604388}
{-0.90691805}
{-0.7944952}
{-0.094420135}
{0.6517904}
{-0.16375494}
{0.6098526}
{0.050433632}
{0.41107965}
{-0.5447316}
{-0.97072124}
{-0.46751696}
{-0.37277785}
{0.59505844}
{-0.8294016}
{-0.8116935}
{0.017013226}
{0.8499949}
{0.20486006}
{0.35396144}
{-0.66941833}
{0.15180467}
{-0.10526794}
{0.89340186}
{0.22316469}
{0.24849248}
{0.3462321}
{0.7027006}
{0.52241355}
{0.4764638}
{0.728402}
{0.33157873}
{-0.546034}
{0.4115064}
{0.34769264}
{0.646666}
{-0.8680705}
{-0.31208014}
{0.4674256}
{-1.1384388}
{-0.88956654}
{-0.5843859}
{-0.023374218}
{0.5826722}
{0.76745886}
{0.78100085}
{0.5872758}
{-1.0995752}
{-0.75754446}
{-0.5031073}
{0.96797425}
{-0.53106225}
{-0.028133776}
{0.15831685}
{0.33143443}
{0.55304813}
{0.0041993167}
{-0.17390537}
{-0.002768346}
{-0.52291924}
{0.80057406}
{-0.76903033}
{0.50527674}
{0.7907418}
{0.8338842}
{0.8676431}
{0.11763543}
{0.40892768}
{-0.882548}
{-0.9458318}
{0.47346717}
{-0.26532486}
{0.2572712}
{0.13069476}
{-0.3589027}
{-0.45644078}
{0.9124278}
{0.033801015}
{-0.15804577}
{0.20475659}
{-0.7288616}
{-0.18332887}
{-0.42221418}
{-0.010381867}
{0.6198261}
{0.52414}
{0.1688475}
{0.5487572}
{0.017234419}
{0.18919563}
{-0.06851147}
{0.5923105}
{0.21156669}
{-0.38890696}
{-0.5369044}
{-0.83367264}
{0.15308549}
{-0.7837856}
{0.8325556}
{0.52596784}
{0.5610172}
{-0.1967001}
{0.8872031}
{-0.61753833}
{0.43448603}
{-0.9627216}
{0.6620265}
{-0.5538265}
{0.21641323}
{0.0936023}
{0.9505335}
{-0.61421335}
{-0.0056087645}
{0.4724579}
{0.8936652}
{0.8593546}
{-0.39017525}
{-0.7970426}
{-0.16675742}
{-0.8943461}
{-0.78627896}
{0.6290517}
{-0.7539459}
{0.2904741}
{-0.70816696}
{-0.27729797}
{0.09804013}
{-0.54187965}
{0.5305019}
{0.7240515}
{0.27418247}
{-0.13868076}
{-0.29638612}
{0.9928765}
{0.25275624}
{-0.023659196}
{0.3161494}
{-0.25132537}
{0.3278949}
{0.3157918}
{-0.8261057}
{0.4957411}
{0.6149664}
{0.80690616}
{-0.52159065}
{-0.47271544}
{0.6106162}
{-0.35827446}
{0.043434143}
{-0.78014994}
{0.2886537}
{0.56300527}
{-0.40549707}
{-0.6449182}
{-0.09084241}
{0.79600495}
{0.015576209}
{0.1520047}
{-0.9371956}
{-0.77891904}
{0.002639631}
{-0.3662331}
{0.34359732}
{0.6924095}
{0.6694035}
{0.5992942}
{0.6102456}
{-0.15545195}
{-0.27971596}
{0.8929608}
{0.2130592}
{-0.59611243}
{0.9138458}
{0.9598727}
{0.45102614}
{0.734156}
{0.28435153}
{-0.054417234}
{-0.0047880486}
{0.36314073}
{-0.026054194}
{-0.026897967}
{-0.9427413}
{0.28671163}
{0.25646824}
{0.18854308}
{-1.0201166}
{0.5509778}
{0.18044512}
{-0.3190186}
{-0.2255865}
{-1.1403642}
{0.34636092}
{-0.95758843}
{0.8381238}
{-0.23138519}
{-0.19964196}
{0.6991401}
{-0.12181059}
{0.17631754}
{-0.47861573}
{0.41381025}
{0.34638652}
{-0.22803597}
{-0.18433608}
{-0.6240649}
{-0.9252446}
{-0.7520684}
{-0.43368986}
{0.61860824}
{0.6767953}
{-0.9255791}
{-0.80579615}
{0.60630655}
{0.6004059}
{-0.06823145}
{-0.05378388}
{-0.89593863}
{0.07635108}
{-0.267833}
{1.0280234}
{0.8151171}
{-0.020128049}
{-0.30344272}
{-0.63064194}
{1.0062408}
{0.7889453}
{0.23224874}
{-0.014125092}
{-0.08890641}
{-0.12215183}
{-0.24914394}
{-0.20414066}
{-0.047367662}
{-0.16638158}
{-0.2709077}
{0.38413158}
{0.2753129}
{0.06796798}
{0.10215162}
{0.048828576}
{0.22117543}
{0.16208935}
{0.18174642}
{0.54119974}
{0.66876745}
{-0.45541027}
{-0.5659565}
{0.410042}
{0.083930396}
{0.6381847}
{0.46522868}
{-0.19670205}
{0.37733555}
{0.46808618}
{0.9385034}
{0.4563604}
{-0.9115479}
{0.20727482}
{0.7771954}
{-0.6711204}
{0.16295362}
{0.46372068}
{0.028575053}
{0.1227814}
{-0.48160094}
{-0.78099144}
{-0.05076065}
{-0.67399913}
{0.11814034}
{-0.3738952}
{-1.058673}
{-0.7273777}
{0.9689026}
{0.856516}
{0.17738454}
{-0.05535012}
{-0.707788}
{-0.68076813}
{0.03992924}
{-0.6559517}
{0.22482538}
{-0.056643892}
{0.6778246}
{-0.06424563}
{0.9720285}
{-0.35384932}
{0.6787182}
{0.39284727}
{0.8852763}
{0.64120793}
{-1.0015211}
{-0.47621715}
{-0.11459689}
{-0.6782394}
{-0.6775381}
{0.19121578}
{0.0067324033}
{0.62821096}
{-0.51696074}
{0.22006151}
{-0.35113811}
{-0.15354204}
{0.71854717}
{-0.6445484}
{-0.8788245}
{0.016060194}
{-0.71257424}
{-0.52821475}
{-0.41605616}
{0.38652486}
{-0.5448402}
{-0.054744177}
{-0.7053673}
{-0.631511}
{-0.23871738}
{-0.3866092}
{-0.8592882}
{-1.0066203}
{-0.5699834}
{-0.79608923}
{-0.15525317}
{-0.69143337}
{0.50357676}
{0.13671182}
{0.55190945}
{0.56619006}
{-0.55638283}
{-0.02194911}
{0.09198297}
{0.49844587}
{0.8916044}
{0.7806099}
{0.16218305}
{0.7914732}
{-0.6078363}
{-0.8170209}
{0.84317756}
{0.00400628}
{-0.060727436}
{0.6033872}
{0.6796763}
{0.58147883}
{0.47639486}
{-0.6867501}
{-0.40336585}
{-0.1779965}
{-1.0134209}
{-0.61619717}
{-0.5698507}
{0.9443242}
{0.5861369}
{-0.7875675}
{-0.6187465}
{-0.3676901}
{-0.055322953}
{0.1924455}
{0.73376584}
{0.6794752}
{0.2907853}
{0.78965425}
{-0.35783386}
{-0.09769457}
{-0.16174139}
{-0.47250977}
{0.012556253}
{-0.21244736}
{-0.42106783}
{-0.81648725}
{0.609061}
{-0.3517012}
{-0.6926329}
{0.30315796}
{-0.5112555}
{-0.4249623}
{0.6707723}
{-0.21177088}
{-0.55731654}
{0.37164837}
{-0.4900286}
{0.97031623}
{0.85757303}
{-0.62999356}
{0.06786167}
{0.32817382}
{0.51732326}
{-0.6224129}
{-0.5037621}
{0.8636344}
{0.4678731}
{0.2720366}
{0.9259714}
{-0.18067771}
{0.120840676}
{0.10889146}
{-0.50536394}
{0.63710356}
{-0.81281686}
{0.3383288}
{-0.0840863}
{-0.58012193}
{-0.82618046}
{0.117744416}
{-0.5138006}
{-0.58036876}
{0.90547466}
{-0.9018505}
{0.5857149}
{-0.6360466}
{0.6092663}
{0.588583}
{-0.33023965}
{-0.4561148}
{0.42065644}
{-0.73691744}
{0.8641099}
{0.86429846}
{0.8245013}
{-0.14152288}
{-0.025910506}
{-0.6878573}
{-0.6023989}
{0.119810134}
{-1.0721468}
{-0.6150346}
{-0.026039898}
{0.34685907}
{0.46219617}
{0.66900843}
{-0.0012720232}
{0.7872569}
{-0.62258035}
{-0.000018084655}
{-0.7836485}
{-0.08722186}
{-0.15314294}
{0.34753203}
{-0.32642245}
{-0.14086676}
{-0.8747244}
{-0.23834579}
{0.34597445}
{0.3766314}
{0.39929768}
{0.5506556}
{-0.7854235}
{-0.31709248}
{-0.103279926}
{0.13366067}
{-0.8938892}
{0.9439833}
{-0.23331477}
{-0.19814321}
{-0.3760271}
{0.9497269}
{-0.14706364}
{0.4763677}
{0.5768955}
{0.020689756}
{0.4211976}
{-0.28034127}
{-0.51574945}
{0.9262766}
{-0.47447306}
{0.5761043}
{-0.2653737}
{-0.40098548}
{0.24560063}
{-0.18829207}
{0.5040578}
{-0.2275153}
{0.10253878}
{-0.3268428}
{-0.71736455}
{-0.8854015}
{-0.90188885}
{-0.2613767}
{0.8476293}
{0.5865985}
{0.7057081}
{-0.42697874}
{0.033676084}
{0.10148534}
{-0.5602345}
{-0.19516498}
{-0.38088274}
{0.004431947}
{-0.6979387}
{0.6479727}
{0.38073087}
{-0.733486}
{0.6218728}
{0.09202796}
{0.21023631}
{0.16560279}
{-0.11679881}
{0.100969665}
{-0.32804704}
{0.24072152}
{-0.10408732}
{0.62253857}
{-0.8051603}
{0.5222864}
{-0.72740775}
{0.61374986}
{-0.929513}
{0.77416277}
{-0.5252639}
{-0.050947044}
{-0.12492085}
{0.7029848}
{0.805328}
{0.31426632}
{-0.5143337}
{0.44910046}
{-0.9059727}
{0.039320648}
{-0.40204096}
{0.9433106}
{0.39790046}
{-0.4802517}
{-0.96012354}
{-0.6528154}
{0.24390826}
{0.8375962}
{-0.7989023}
{0.092744336}
{-0.92123896}
{0.90316474}
{-0.62551856}
{0.12229024}
{-0.23668022}
{-0.2565002}
{-0.49553838}
{0.7900033}
{-0.8074709}
{0.9585733}
{0.43088555}
{-0.98991674}
{-0.3369522}
{-0.046941746}
{-0.85740256}
{-0.012138514}
{-0.16985662}
{-0.6864649}
{0.029179033}
{0.72729534}
{-0.44189784}
{-0.1794593}
{-0.3056934}
{-0.839509}
{0.1844126}
{-0.08545321}
{0.9141247}
{-0.94392836}
{0.42652375}
{-0.7168389}
{0.5598054}
{-0.44078612}
{-0.25934157}
{-0.2013565}
{-0.41080952}
{-0.8002515}
{-0.2231144}
{-0.54636586}
{-0.4683509}
{0.25401574}
{-0.39995506}
{0.43173063}
{-0.5163431}
{-0.4319015}
{-0.73072994}
{0.076442525}
{0.6505406}
{-0.817502}
{-1.0392376}
{-0.71919334}
{0.92580557}
{-0.5136767}
{-0.71390766}
{0.544752}
{0.059618413}
{0.44997883}
{0.07714987}
{0.5819425}
{0.38584924}
{-0.8005834}
{0.75857925}
{-0.361046}
{-0.565959}
{-0.7172869}
{-0.80926406}
{0.020704353}
{0.13519613}
{0.29842043}
{-0.24127208}
{0.22596663}
{-0.5448878}
{0.16010424}
{0.7301544}
{0.33992997}
{-0.17900085}
{-0.4299398}
{0.22934699}
{-0.282033}
{0.17342687}
{-0.62334126}
{-0.48112008}
{-0.83049566}
{-0.502841}
{0.5385957}
{-0.36823827}
{0.8817353}
{0.27648354}
{-0.0139116375}
{-0.337666}
{0.6432896}
{0.39276576}
{-0.8290905}
{0.5093533}
{-0.8391364}
{-0.4788045}
{0.5438867}
{0.901913}
{-0.05269127}
{0.029801305}
{-0.4472857}
{0.5619689}
{0.21433847}
{-0.34718513}
{0.4491588}
{-0.30742368}
{-0.8692298}
{-0.75590944}
{-0.084564365}
{-0.41933167}
{-0.49843687}
{0.4741559}
{-0.93442684}
{-0.24792416}
{-0.7311136}
{-0.39174485}
{0.20673698}
{0.23530015}
{-0.45655692}
{-0.93398833}
{0.49370188}
{0.77435917}
{-0.7521522}
{0.1823883}
{-0.9154068}
{-0.8677467}
{0.07376153}
{-0.64421916}
{-0.07697651}
{-0.022832103}
{0.8858264}
{-0.0011680727}
{-0.89443386}
{0.48218462}
{-0.3501261}
{-0.428622}
{-0.2549966}
{-0.81624043}
{-0.24307242}
{0.9781325}
{-0.04177271}
{0.7187354}
{-0.41849312}
{-0.51756954}
{0.34863284}
{-0.3964335}
{0.9517989}
{-0.38018465}
{-0.52276707}
{0.7372664}
{0.10002344}
{-0.2746241}
{0.008826367}
{0.063048005}
{0.14516526}
{0.98580647}
{-0.60037446}
{-0.3068636}
{-0.7886147}
{0.44582534}
{0.5407822}
{0.5600558}
{0.120298065}
{-0.20553899}
{0.11369184}
{-0.14466456}
{0.9981133}
{0.21130729}
{-0.61816484}
{0.29831994}
{0.93851435}
{0.40519476}
{-0.9248647}
{-0.96468395}
{0.76694226}
{0.042621553}
{0.74651116}
{0.5551891}
{0.5296859}
{-0.9562352}
{0.68237096}
{-0.74582255}
{0.39434698}
{-0.5218849}
{0.21590349}
{0.06342571}
{0.8778391}
{-0.2609141}
{0.23511542}
{-0.41133708}
{0.6785838}
{-0.86308694}
{-0.32682204}
{-0.6760511}
{-0.39075565}
{-0.019652188}
{0.8948547}
{-1.0476741}
{-0.17424823}
{-0.24553347}
{-0.9599308}
{0.28191394}
{0.30149218}
{0.8424289}
{0.60450315}
{-0.9099619}
{-0.6797837}
{-0.79349375}
{0.17864236}
{0.19529337}
{-0.6098907}
{0.57181597}
{-0.2610008}
{0.400542}
{0.9768271}
{0.48053002}
{0.92676705}
{-0.073518775}
{0.2763757}
{0.22664022}
{0.62207955}
{-0.81170046}
{-0.54338855}
{0.38643098}
{-0.04645879}
{0.39055282}
{0.1385268}
{-0.30453277}
{-0.09417041}
{0.3927333}
{0.427709}
{0.291476}
{-0.7935544}
{0.32695934}
{-0.67101187}
{-0.9013369}
{0.73194027}
{0.3984769}
{-0.91444975}
{-0.5498085}
{0.16795129}
{0.6705854}
{0.8004977}
{0.06840294}
{-0.28891176}
{-0.08647775}
{0.15086162}
{-0.86460614}
{-0.824676}
{0.0441925}
{0.25534347}
{-0.6320152}
{0.028422706}
{-0.9121598}
{-0.7746707}
{0.44224763}
{-0.28948286}
{-0.7425559}
{-0.7211908}
{-0.44089985}
{-0.32322088}
{0.018582819}
{0.7025196}
{0.340811}
{0.11815894}
{0.7832467}
{-0.44137195}
{-0.04671082}
{0.18711892}
{0.2949084}
{-0.09657969}
{-0.7281885}
{0.75058204}
{-0.2500655}
{0.7382943}
{0.78283095}
{0.47883618}
{-0.7448265}
{-0.77355963}
{0.039178073}
{0.030231211}
{0.24081334}
{-0.63791335}
{0.51100117}
{0.26361397}
{-0.20836987}
{0.7464477}
{-0.55407596}
{-0.49444726}
{0.091914766}
{-0.5737574}
{0.23373055}
{-0.8127246}
{0.40321633}
{0.573824}
{-0.34258175}
{-0.0054473733}
{-0.9249081}
{1.0213971}
{0.11033952}
{-0.96490633}
{0.44196835}
{-0.048640642}
{-0.26386714}
{-0.020257635}
{-0.6007273}
{0.5958345}
{-0.11500839}
{0.901123}
{-0.28514838}
{0.7086514}
{-0.91171765}
{-0.78689104}
{-0.8361852}
{-0.70033973}
{0.016180454}
{0.47526318}
{-0.92525417}
{-0.40106717}
{-0.7747252}
{0.2579795}
{0.12447007}
{-0.0936187}
{0.42690945}
{0.841145}
{-0.010098045}
{0.40805078}
{0.4509089}
{0.4679101}
{-1.0575815}
{0.6987349}
{0.568887}
{0.18289588}
{0.3861317}
{0.8255659}
{0.63069534}
{-0.090099275}
{-0.71522266}
{0.6788104}
{-0.7908418}
{-0.4154941}
{0.7579999}
{0.20871653}
{0.2879665}
{0.87376416}
{0.5079013}
{-0.9406058}
{-0.4831836}
{-0.81042427}
{-0.86982167}
{-0.37307256}
{0.8502097}
{-0.86579025}
{-0.2408682}
{0.499309}
{-0.3688631}
{-0.19949311}
{0.3782842}
{0.9135708}
{0.05743402}
{-0.7594959}
{0.5884616}
{0.03999238}
{-0.41238737}
{0.56948525}
{0.10890335}
{-0.12769961}
{-0.0558189}
{-0.0029832083}
{-0.68363774}
{-0.679394}
{0.4228437}
{-0.8739608}
{-0.71681666}
{0.45351332}
{0.45329142}
{0.23238644}
{0.3254396}
{0.691409}
{0.049665153}
{-0.96880066}
{-0.3784421}
{0.8935946}
{0.9980781}
{0.7834761}
{0.10240121}
{-0.7498627}
{0.77780795}
{0.7359565}
{-0.4631529}
{0.7653611}
{0.8458772}
{-0.21015163}
{-0.6454259}
{0.7520769}
{-0.8748882}
{-0.13011135}
{-1.1387249}
{-0.88737833}
{-0.85267353}
{0.60489434}
{-0.65889716}
{0.72232765}
{0.63056207}
{-0.36861143}
{0.23168807}
{0.37844443}
{0.8877442}
{-0.90254575}
{-0.31171092}
{-0.6038371}
{0.83648014}
{-0.043047547}
{-0.7091058}
{0.18840688}
{-0.41601515}
{0.5505548}
{0.27490628}
{-0.26445273}
{0.41385126}
{0.06834958}
{-0.23122755}
{1.0359}
{-0.7734761}
{0.2626895}
{-0.24397492}
{-0.2057011}
{-0.52403855}
{0.05913024}
{-0.44567925}
{0.24591401}
{-0.041487772}
{0.55994046}
{-0.81137335}
{-0.71838707}
{-0.25677705}
{-0.63129866}
{-1.1050254}
{0.20811482}
{0.15337346}
{0.4592217}
{-0.6310171}
{0.9586971}
{-0.27296162}
{-0.27209947}
{-0.19978599}
{0.94155276}
{0.32858706}
{0.16993894}
{-0.35766995}
{-0.3644925}
{-0.9412248}
{-0.81581527}
{0.17348057}
{0.19067262}
{0.13495055}
{-0.50482064}
{-0.57740766}
{-0.45224795}
{0.29341078}
{0.504811}
{-0.3969703}
{0.9012113}
{-0.106759146}
{0.25081843}
{-0.16152495}
{0.9298201}
{0.8080082}
{-0.089450486}
{-0.4041052}
{0.42787865}
{1.0292168}
{0.54537404}
{-0.9096418}
{0.36337003}
{-0.10412153}
{-0.6231273}
{-0.5564052}
{-0.7197841}
{0.74176764}
{-0.5417789}
{-0.67174083}
{0.5097862}
{-0.56889534}
{-0.30306336}
{0.38988724}
{0.48241138}
{0.65244865}
{-0.06327757}
{-0.13048103}
{-0.84829855}
{-0.22887707}
{0.9884919}
{-0.89097}
{0.62325156}
{-0.5363486}
{-0.74896693}
{0.8200637}
{0.97652847}
{0.5830815}
{0.8303786}
{0.34014612}
{0.6567601}
{0.18056369}
{-0.04700912}
{0.4251609}
{-0.74744475}
{-0.7525737}
{-0.572988}
{0.20849597}
{0.5879505}
{0.7350774}
{0.31404793}
{0.24449481}
{0.21539405}
{-0.4158504}
{-0.39173135}
{0.34709367}
{0.51045305}
{-0.6000056}
{0.41273418}
{0.32876807}
{0.15628108}
{0.23392415}
{0.8131148}
{0.71367925}
{-0.08375155}
{-0.63377094}
{0.51232505}
{-0.8491114}
{-0.6575074}
{0.7542701}
{-0.6646111}
{0.7622399}
{-0.3724049}
{0.1354696}
{0.74096763}
{-0.58660716}
{-0.77300805}
{-0.5924957}
{0.6466046}
{0.5784358}
{0.82495385}
{-0.6487968}
{-1.0254724}
{-0.3745341}
{0.6687665}
{1.0055046}
{-0.9752461}
{-0.502967}
{0.7535657}
{0.50401133}
{-0.49392194}
{-1.1547486}
{0.38297307}
{-0.3527782}
{0.3805677}
{0.7247994}
{1.0214893}
{-0.14624882}
{0.71138984}
{-0.5970589}
{0.33003014}
{-0.27600026}
{-0.9196834}
{-0.7982151}
{0.7679752}
{0.5399461}
{-0.5987777}
{0.6496758}
{0.7394477}
{0.5694847}
{-0.6534919}
{0.26291457}
{-0.11458176}
{-0.068766}
{-0.23060161}
{-0.22811672}
{-0.1015812}
{-0.36850715}
{0.3660617}
{0.04724108}
{0.46139222}
{-0.14343452}
{0.020273682}
{0.16426024}
{-0.3604022}
{0.9115925}
{-0.07060258}
{0.39792088}
{1.0504749}
{0.6149423}
{0.0894703}
{-0.45189908}
{0.47363603}
{0.06255454}
{-0.284598}
{0.24048029}
{0.47430915}
{0.57297444}
{-0.021683555}
{0.34904715}
{-0.2509414}
{0.57505226}
{-0.0892447}
{0.08878146}
{-0.28644496}
{-0.91180897}
{-0.6703109}
{0.95175415}
{-0.693263}
{-0.18373442}
{-0.72972625}
{-0.114984445}
{-0.3916779}
{0.3567376}
{-0.81686735}
{-0.4640489}
{-0.71019185}
{-0.7863529}
{0.10080657}
{-0.5609752}
{0.5786749}
{0.5170469}
{0.28839797}
{-0.1694098}
{0.08233694}
{0.8037734}
{-0.8046439}
{-0.68218505}
{-0.20258252}
{0.9189379}
{0.0035474028}
{0.13865237}
{0.7404656}
{0.70867014}
{0.59083235}
{0.23042455}
{-0.96367204}
{-0.36189246}
{-0.84362906}
{-0.15693875}
{0.9604861}
{0.89209795}
{-0.41685274}
{-0.8575038}
{-0.6574888}
{0.46396756}
{0.20300283}
{0.5223156}
{0.963394}
{-0.7110808}
{0.015458697}
{0.68227005}
{-0.8531548}
{-0.02095753}
{0.451827}
{-0.81299955}
{0.9963225}
{0.8469424}
{-0.9273166}
{-0.051498584}
{-0.20271999}
{-0.729825}
{-0.73012245}
{-0.7693553}
{0.5447265}
{-0.07915771}
{0.18997999}
{-0.9436167}
{0.8573496}
{-0.033786837}
{-0.12061987}
{-0.0948249}
{1.0039014}
{0.5047564}
{0.70410824}
{0.27730784}
{-0.8167215}
{-0.57794976}
{0.591374}
{-0.8334424}
{0.68630874}
{-0.90830684}
{-0.3001323}
{0.34936622}
{-0.13657406}
{0.5229882}
{0.7794432}
{0.5816666}
{1.0503435}
{-0.8052449}
{0.7640655}
{-1.0570048}
{0.45438424}
{-0.9464283}
{-0.6721133}
{-0.5637134}
{1.046642}
{0.087077275}
{0.23316842}
{-0.64669013}
{-0.4020128}
{0.2947774}
{0.5233829}
{-0.5940896}
{-0.11567661}
{-0.022577822}
{0.003306886}
{0.2592171}
{0.1854124}
{0.9259856}
{-0.2668371}
{0.46181208}
{-0.2531266}
{0.34087515}
{0.17668843}
{0.7820648}
{0.28756806}
{-0.3752129}
{-0.026916042}
{0.4348785}
{0.2808772}
{0.46136355}
{0.25520548}
{-0.16059706}
{0.16111399}
{0.88623214}
{0.68155366}
{0.84752697}
{-0.62481755}
{-0.8369508}
{-0.22276907}
{-0.9396392}
{0.5377693}
{-0.20825577}
{0.33717847}
{-0.90997434}
{0.16684562}
{0.20994782}
{0.611238}
{0.26880702}
{-0.25150537}
{-0.28846908}
{-0.24949433}
{0.07953754}
{-0.150134}
{-0.6812241}
{0.88283825}
{-0.6425896}
{-0.4124997}
{-0.32364488}
{-0.20170058}
{0.4072123}
{-0.2546417}
{-0.92737436}
{-0.5370759}
{-0.44426927}
{-0.5987851}
{0.93154764}
{-0.9083349}
{0.29695392}
{-0.023552435}
{0.96577525}
{0.9258885}
{0.12222188}
{-0.6237042}
{0.7424507}
{0.7014727}
{0.20596594}
{0.7463248}
{-0.90273}
{-0.561722}
{0.2671989}
{-0.60643166}
{0.12745632}
{-0.88155335}
{0.51958174}
{0.40702966}
{-0.81830287}
{0.5849747}
{0.740076}
{-0.83706945}
{0.18592024}
{-0.26248288}
{0.73768276}
{-0.17207728}
{-0.4827642}
{0.4499419}
{0.4427702}
{0.9831301}
{-0.90218353}
{0.78945}
{0.66938996}
{0.4069447}
{-0.8528359}
{0.3499423}
{0.73265606}
{0.39705357}
{-0.20636535}
{0.41263023}
{-1.1094489}
{-0.5349691}
{0.038817585}
{-0.115704976}
{-0.3830358}
{-0.73266375}
{0.023005186}
{0.108087055}
{-1.1004784}
{-0.037304867}
{0.619009}
{-0.9495029}
{-0.78064644}
{0.7101286}
{0.3624122}
{0.45821506}
{0.6337172}
{-0.8194422}
{-0.2833364}
{-0.32464334}
{0.70452476}
{-0.43660975}
{0.17663455}
{0.19560316}
{0.88157547}
{-0.6170562}
{-0.5011556}
{-0.08724572}
{0.06829647}
{-0.41528487}
{0.9451437}
{-0.9427799}
{-0.5349006}
{-0.72115606}
{-0.96507883}
{0.31716302}
{0.3938941}
{0.5316369}
{-0.69277835}
{0.4446377}
{-0.98279524}
{-0.637788}
{0.3637073}
{-0.44361827}
{-0.44663435}
{0.9051611}
{0.0064539304}
{-0.31249043}
{-1.074313}
{-0.23569395}
{0.5180928}
{-0.024827717}
{0.86558235}
{0.18042225}
{-0.58272934}
{-0.87721205}
{-0.65030587}
{-0.72271824}
{0.8070383}
{-0.7990091}
{0.1217795}
{0.3922632}
{-0.19777513}
{0.68413615}
{-0.32589343}
{0.69419694}
{-0.94584846}
{0.9688411}
{0.50556266}
{-0.8327764}
{0.19909024}
{0.42758086}
{-0.48757362}
{-0.8562597}
{-0.8261392}
{-0.53997076}
{0.8374589}
{-0.62164783}
{0.5634639}
{0.9351974}
{-0.35364863}
{-0.8360872}
{0.6116903}
{0.3976292}
{-0.42893124}
{0.51797414}
{0.6786573}
{-0.8248102}
{-0.41721177}
{-0.52645713}
{-0.95823264}
{0.16109024}
{0.39979947}
{0.6297225}
{0.7108512}
{0.7162}
{-0.16748363}
{0.6590846}
{0.8395264}
{0.20561208}
{0.80477685}
{-0.031121746}
{0.888577}
{-0.1412456}
{-0.2790516}
{0.37600893}
{0.85654235}
{0.49438864}
{-0.5923675}
{0.9819315}
{-0.27133298}
{-0.9602749}
{-0.75270504}
{-0.0067734774}
{-0.7970085}
{-0.37137923}
{0.71303934}
{-0.4349298}
{-0.7988353}
{-0.9774832}
{0.0856353}
{-0.22750442}
{0.37939835}
{-0.38745013}
{-0.430174}
{-0.66890734}
{0.16773677}
{-0.9322276}
{0.44053668}
{-0.8427409}
{0.3547399}
{0.72273403}
{-0.8565109}
{-0.003927474}
{-0.5636864}
{-0.5118668}
{0.086502664}
{0.6120423}
{0.87734723}
{0.89328694}
{0.28800857}
{-0.09606819}
{0.2669711}
{0.34587434}
{0.6853594}
{0.056023102}
{0.62817526}
{-0.5157562}
{-0.32874995}
{-0.35415027}
{-0.7216983}
{0.81217545}
{0.56709504}
{-0.33662474}
{-0.6727958}
{-0.5276115}
{-0.84121877}
{0.23550707}
{-0.1670723}
{-0.0760924}
{-0.12366075}
{-0.0029787612}
{0.026673492}
{-0.15803057}
{0.021274136}
{-0.3269053}
{-0.42452335}
{0.3323015}
{0.800039}
{-0.11967746}
{-0.10889537}
{0.815605}
{0.8597196}
{-0.4384063}
{-0.5986712}
{0.90590626}
{0.07775415}
{-0.6649962}
{0.9988966}
{-0.5046372}
{0.38814905}
{-0.39872947}
{-0.7990713}
{0.7467683}
{0.7942545}
{0.4338969}
{-0.8480687}
{0.16888732}
{-0.3147441}
{-0.5816651}
{0.21331143}
{-0.8695023}
{-0.37776557}
{0.34600583}
{0.9219837}
{-0.23165435}
{-0.4495741}
{0.244207}
{0.87899613}
{-0.1678661}
{0.41188914}
{-0.1599993}
{-0.7255659}
{0.9750674}
{0.9260298}
{0.7144537}
{-0.25319862}
{-0.72232944}
{-0.5750891}
{-0.8675614}
{0.8747499}
{-0.29836723}
{-0.92652667}
{0.6628891}
{-0.71243167}
{0.20602414}
{0.6144782}
{0.23615766}
{-0.9035778}
{-0.7772974}
{-0.1632123}
{-0.37415004}
{0.882704}
{0.09119214}
{-0.79581213}
{-0.09387788}
{-0.8439765}
{0.8100178}
{-0.5842071}
{-0.040970672}
{0.73448944}
{-0.37514132}
{-0.6912321}
{0.39242193}
{0.9275329}
{0.7146372}
{-0.44238785}
{-0.37382424}
{0.86002326}
{-0.8754497}
{-0.58814687}
{-0.1886517}
{0.30726862}
{0.24506742}
{-0.20228638}
{0.4441863}
{-0.63555336}
{-0.92831326}
{0.11195122}
{-0.79206294}
{-0.48108953}
{-0.06108379}
{-1.0299677}
{-0.02640377}
{-0.22182393}
{-0.011452813}
{-0.8356165}
{-0.70909756}
{-0.8422482}
{0.29613498}
{0.73385096}
{0.6680725}
{-0.32673478}
{0.65236104}
{0.060989715}
{0.24177957}
{-0.77423644}
{0.92810047}
{0.078315176}
{-0.24313112}
{-0.3077929}
{-0.05038316}
{0.3333675}
{-0.040006105}
{0.34758973}
{0.17785665}
{0.10160526}
{0.35788998}
{-0.8553436}
{-0.02197312}
{0.67049056}
{0.01750806}
{0.96206474}
{-0.701953}
{0.32618386}
{-0.44840145}
{0.6927531}
{0.35928094}
{-0.14387073}
{-0.5188584}
{-0.23410273}
{-0.17020309}
{-0.99147844}
{-0.44797283}
{-0.8040018}
{-0.080259986}
{0.7462248}
{-0.1623924}
{0.90673494}
{-0.6506369}
{0.548883}
{-0.26714757}
{-0.89175296}
{0.6016356}
{0.13053036}
{0.44973096}
{-0.70576024}
{-0.31093118}
{-0.11709005}
{0.68620986}
{0.05308813}
{-0.76641923}
{0.18184091}
{0.010494723}
{0.05516523}
{0.9183579}
{-0.25303558}
{0.25922716}
{-0.44074988}
{-0.8168404}
{-0.13268156}
{-0.15774544}
{0.5065001}
{-0.5237084}
{-0.1817768}
{0.68651175}
{-0.57000375}
{0.71429914}
{0.015898025}
{-0.27811202}
{-0.37283087}
{0.93108743}
{-0.31689763}
{-0.080878936}
{-0.5198314}
{-0.26493603}
{0.8075564}
{0.23359606}
{-0.5477667}
{-0.85546803}
{0.78303903}
{-0.88609666}
{0.39249492}
{-0.76323634}
{0.2864928}
{0.27840477}
{-0.9414425}
{-0.87602305}
{0.5146577}
{0.25418973}
{-0.51329803}
{-0.68976754}
{-0.09483764}
{0.6931182}
{-0.68755746}
{-0.78415936}
{-0.56155103}
{-0.27279112}
{0.3624792}
{0.14232881}
{0.7534953}
{0.67474216}
{0.0911373}
{-0.4797624}
{-0.97156405}
{-0.77863246}
{0.445359}
{-0.53844714}
{0.32407892}
{1.0194613}
{-0.10604675}
{-0.9321228}
{-0.5073226}
{-0.22688736}
{0.07705751}
{0.7512088}
{0.7903815}
{-0.2149722}
{0.7940347}
{-0.022968471}
{-0.18307059}
{-0.2409053}
{0.9735861}
{-0.84782135}
{-0.65088946}
{0.85590786}
{-0.19000983}
{-0.24429934}
{-0.476043}
{-0.72736603}
{-0.08346212}
{0.19738984}
{-0.926507}
{0.80429476}
{0.8132112}
{-0.7156804}
{-0.96456736}
{0.4382935}
{-0.06832874}
{-0.15725659}
{-0.5201781}
{1.0405006}
{0.6563623}
{-0.6182676}
{-0.89691454}
{0.2474613}
{0.96541905}
{-0.8788823}
{-0.87340564}
{0.15716837}
{-0.22671795}
{-0.61758757}
{0.2682881}
{0.47977477}
{-0.42731}
{0.9517339}
{0.76486754}
{0.49971512}
{-0.607167}
{0.7359999}
{-0.05048484}
{-0.39699984}
{0.87373924}
{0.36386552}
{-0.50687855}
{0.18001227}
{0.81563497}
{0.0572418}
{0.34079456}
{0.96443325}
{0.70606256}
{0.99710727}
{0.85079855}
{0.6629028}
{-0.5405984}
{-0.9071135}
{-0.5775376}
{-0.7374005}
{0.77617526}
{-0.85745835}
{-0.83455807}
{0.5554106}
{0.6872902}
{-0.008145675}
{-0.55279744}
{0.51178825}
{-0.51777744}
{0.24336444}
{0.14991903}
{0.579407}
{0.015327154}
{-0.47030634}
{-0.82504326}
{0.11113307}
{0.9203341}
{0.70339596}
{0.52570957}
{0.7516129}
{-0.51670384}
{-0.9771655}
{-0.2418096}
{-0.373672}
{0.42118382}
{-0.01233535}
{0.61332023}
{0.042064253}
{-0.86916757}
{0.8684261}
{-0.5007758}
{1.023361}
{0.9812794}
{0.9471639}
{-0.6119822}
{-0.77327603}
{-0.45342588}
{1.0048673}
{-0.3930733}
{0.9344906}
{-0.25695395}
{0.7148826}
{0.034331273}
{0.87000215}
{0.022860704}
{0.76553}
{0.25806117}
{-0.80862015}
{0.49753475}
{0.03423891}
{-0.9984092}
{-0.6632084}
{0.49962637}
{0.86238265}
{0.021425381}
{-0.63541806}
{0.7119138}
{0.8077278}
{-0.37137368}
{-0.026595913}
{-0.7853358}
{0.9317091}
{-0.98391455}
{0.75516653}
{-0.86554265}
{0.1173087}
{0.66021544}
{0.6856312}
{-0.36762452}
{0.5520509}
{-0.54385257}
{0.30161974}
{0.65127397}
{0.7102889}
{-0.33909684}
{-0.55305046}
{-0.037771534}
{-0.13078521}
{0.43203053}
{0.21914794}
{-0.115633525}
{-0.28600943}
{-0.6498497}
{0.5809581}
{0.17899132}
{0.10817404}
{0.47740015}
{0.92874765}
{-0.6786456}
{0.051990375}
{0.5522673}
{-0.39446792}
{-0.16959095}
{-0.5983601}
{-0.81597173}
{-0.2033217}
{-0.6247637}
{-0.32183415}
{-0.56864214}
{-0.56758946}
{0.5103176}
{-0.28507486}
{-0.03125847}
{-0.11143734}
{0.8762107}
{-0.37504554}
{-0.92138094}
{-0.600387}
{-0.41338968}
{-0.7087956}
{-1.0578316}
{0.7707243}
{0.66272926}
{0.76550907}
{-0.29468918}
{-0.19965397}
{-0.4333322}
{-0.15942512}
{-0.0009311438}
{-0.8390516}
{0.5158398}
{-0.03132274}
{-0.83236355}
{0.5131479}
{-0.4264195}
{0.7066297}
{-0.22491668}
{-0.083295576}
{1.0098076}
{-0.56891465}
{-0.8077401}
{0.82860076}
{-0.55714726}
{-0.7507549}
{0.5393812}
{0.90992427}
{0.6529255}
{-0.51831305}
{-0.83687645}
{0.16287938}
{-0.1872282}
{-0.9266223}
{0.08715519}
{0.111519955}
{0.34908295}
{-0.33737865}
{0.3024949}
{-0.6057175}
{-0.22761703}
{-0.48289952}
{-0.10608356}
{-0.005966001}
{0.38598156}
{-0.5608652}
{0.9240451}
{-0.92242676}
{-0.6301601}
{-0.9867745}
{0.3592584}
{-0.81222296}
{-0.8726671}
{-0.16553897}
{0.08112264}
{0.74208987}
{-0.9318223}
{-0.70203745}
{-0.018586945}
{-0.6121533}
{0.6759651}
{-0.8607003}
{-0.39129236}
{0.013101739}
{-0.3394165}
{-0.6056966}
{0.89590293}
{-0.30677816}
{-0.3179047}
{-0.77301186}
{-0.16325969}
{-0.21673772}
{-0.94740295}
{-0.806976}
{0.86047745}
{-0.30869204}
{-0.59250736}
{0.20526752}
{0.50924444}
{0.69910055}
{-0.77591753}
{-0.96488225}
{-0.16482064}
{0.03730241}
{0.52261674}
{0.9788211}
{-0.4475212}
{-0.68938494}
{-0.27038407}
{-0.13351654}
{0.47309914}
{0.93774724}
{-0.29805017}
{0.23950322}
{-0.054421794}
{0.06244148}
{0.919806}
{0.031047737}
{0.07876871}
{-0.32768118}
{-0.841594}
{-0.9841665}
{0.01990642}
{0.30025002}
{0.4914503}
{-0.5068416}
{0.67839915}
{-0.1878146}
{0.49325895}
{0.5547635}
{0.05987112}
{0.7041554}
{-0.7423489}
{-0.557221}
{0.88861257}
{-0.27709192}
{0.4736085}
{-0.06024352}
{0.34780443}
{1.0565816}
{0.47026682}
{-0.07006728}
{-0.87955576}
{0.09003931}
{-0.3713143}
{-0.700081}
{-0.69052875}
{-0.4635315}
{0.54612684}
{-0.86932343}
{0.92685777}
{-0.64173084}
{-0.29441142}
{0.57650524}
{-0.10352384}
{0.7498406}
{0.022857128}
{0.6060434}
{0.10424135}
{-0.4531511}
{0.2947669}
{0.5168793}
{0.11512772}
{0.85030836}
{-0.48945767}
{-0.23059867}
{-0.5550213}
{-0.6828946}
{-0.69440603}
{-0.86678785}
{0.5606663}
{0.28090224}
{-0.13001943}
{1.055759}
{0.3015873}
{-0.086710446}
{-0.61581945}
{0.40212095}
{-0.8782732}
{-0.3326278}
{-0.1618886}
{-0.5193819}
{0.094963215}
{0.30545905}
{-0.4169426}
{-0.5406912}
{-0.3312541}
{0.38157567}
{-0.38254428}
{0.32520998}
{-0.3885716}
{0.8075215}
{-0.33287072}
{0.6683634}
{-0.4022322}
{0.28645387}
{-0.1340065}
{-0.9976676}
{-0.31837115}
{0.020252997}
{-0.19441032}
{-0.8695928}
{-0.16757362}
{0.5365746}
{0.25440598}
{0.08540006}
{-0.022887807}
{-0.35151225}
{0.6404474}
{0.89966047}
{-0.85877115}
{-0.48635218}
{-0.1253469}
{-0.39965287}
{0.020804211}
{0.03941945}
{-0.06262934}
{0.52106273}
{0.14376405}
{-0.5505335}
{0.2507789}
{0.03088444}
{0.61366725}
{-0.8860933}
{-0.18610811}
{0.24351251}
{0.596639}
{0.66777456}
{0.23515677}
{0.61277115}
{0.12838654}
{0.49829236}
{0.2191279}
{-0.75372493}
{0.3175884}
{0.63485706}
{0.7474487}
{-0.80955344}
{-0.0046378262}
{-0.38325435}
{0.9725003}
{-0.8575717}
{-0.6920777}
{-0.41112554}
{-0.60920167}
{0.6909634}
{-0.40586567}
{0.23104993}
{-0.79983306}
{1.0007274}
{-0.31984833}
{0.81664807}
{-0.8687048}
{0.48594624}
{0.6833038}
{0.15575178}
{0.9150181}
{-0.57729185}
{0.7654968}
{-0.7064149}
{0.39877605}
{-0.67210066}
{-1.0020374}
{1.0551596}
{0.3372643}
{0.085135974}
{0.20506662}
{0.10715149}
{-0.56167936}
{0.3162872}
{0.47186527}
{-0.7502736}
{0.41909027}
{1.0422326}
{0.6369931}
{0.94746727}
{-0.60444903}
{-0.11619572}
{0.31361914}
{-0.29222333}
{-0.6203716}
{-0.8373955}
{-0.879278}
{0.87196445}
{-0.1635716}
{-0.9040211}
{-0.6526927}
{0.043679874}
{0.27808595}
{0.4982785}
{0.12518609}
{0.6782875}
{0.049138725}
{0.40397802}
{0.9833891}
{0.8068737}
{0.22887683}
{-0.0441512}
{0.6095836}
{0.96042526}
{0.07920876}
{0.14403452}
{-0.22444269}
{-0.90421724}
{0.4838338}
{-0.33021146}
{-0.5651166}
{0.93741935}
{0.42351413}
{0.43630028}
{0.28040737}
{-0.59571934}
{-0.5669694}
{0.5575907}
{0.87704283}
{0.91195655}
{-0.037034582}
{-0.9234041}
{-0.3774058}
{0.12467505}
{0.870425}
{0.7011281}
{-0.75333655}
{0.80615777}
{0.20626307}
{-0.32042366}
{-0.7087152}
{1.0027932}
{-0.62646174}
{0.12170868}
{0.8268189}
{0.80067706}
{0.5454962}
{0.623668}
{0.63041764}
{-0.3445663}
{0.31788158}
{-0.16058698}
{-0.12911722}
{-0.6491808}
{0.24569368}
{-0.31120196}
{-0.668661}
{0.5881405}
{0.28536105}
{0.8288999}
{0.59126234}
{0.4059943}
{0.40311098}
{0.7363671}
{0.057637114}
{-0.12638968}
{0.3511839}
{0.68171513}
{-0.33695847}
{-0.83173627}
{-0.2250781}
{-0.11835916}
{-0.7327721}
{0.25636476}
{0.65076065}
{-0.06747182}
{-0.9388403}
{0.81048566}
{0.029543813}
{-0.6731818}
{0.34850517}
{0.89544344}
{-0.7885165}
{0.52740896}
{-0.7142037}
{-0.85067505}
{-0.85765815}
{-0.52188385}
{-0.08294373}
{0.28961292}
{-0.20865297}
{-0.61033726}
{0.47967422}
{-0.9239847}
{0.89914846}
{0.6412362}
{-0.06613693}
{-0.51475763}
{0.7646251}
{0.3213412}
{-0.2202707}
{-0.1816301}
{0.60343933}
{1.0966672}
{-0.09001489}
{-0.5946007}
{0.28656173}
{-0.7925896}
{0.5237059}
{-0.43965057}
{0.7685602}
{-0.53898364}
{-0.19757095}
{-0.5629281}
{-0.7498009}
{0.7217998}
{-0.9723787}
{-0.4747059}
{0.38156533}
{-0.6358707}
{-0.7753536}
{0.8420999}
{0.32553482}
{1.0219287}
{-0.24840248}
{-0.35748723}
{-0.17569661}
{-0.8998812}
{0.45370406}
{-0.5816252}
{-0.24063706}
{0.922729}
{0.44940117}
{-0.49666482}
{0.8224466}
{0.47776312}
{-0.5477793}
{0.0040320465}
{0.45878196}
{-0.79343337}
{0.5230201}
{-0.5502865}
{0.5260182}
{-0.10023876}
{-0.32788736}
{-0.51922053}
{-0.14348316}
{0.12663418}
{0.2751105}
{-0.8667992}
{0.53814864}
{0.75882804}
{0.7361339}
{0.8662977}
{0.2692337}
{-0.93879914}
{-0.642836}
{-0.8273649}
{0.36246514}
{-0.08515701}
{0.108743034}
{0.16490112}
{-0.14491177}
{-0.88835526}
{-0.2567124}
{0.33499575}
{0.8445101}
{-0.9783201}
{0.34254494}
{-0.89972985}
{-0.45237136}
{-0.5547709}
{-0.6757645}
{0.8181503}
{-0.6459317}
{0.7729071}
{0.80827415}
{0.9458382}
{-0.09681093}
{-0.18689378}
{-0.80458516}
{-0.94412494}
{-0.3040285}
{-0.46083662}
{-0.41446212}
{0.90517503}
{-0.7449722}
{0.2508096}
{0.17084618}
{0.22657718}
{0.16614175}
{0.3662012}
{0.11055201}
{-0.1616935}
{0.14187998}
{-0.42226318}
{0.35124433}
{0.7096852}
{0.23769021}
{0.023422666}
{-0.93089515}
{-0.84948194}
{-0.620209}
{0.7071449}
{0.14571021}
{-0.23137875}
{-0.8516638}
{0.79124296}
{0.46873328}
{-0.36923507}
{0.012192903}
{-0.12459871}
{-0.82600045}
{-0.78143793}
{0.74686193}
{0.7828269}
{0.44961053}
{0.7121606}
{-0.53511405}
{-0.68664074}
{0.25267887}
{0.51239616}
{0.6763444}
{-0.8557657}
{0.8629128}
{-0.6511625}
{-0.56918}
{-0.7416955}
{0.47469607}
{-0.012562075}
{-0.506516}
{-0.5828663}
{-0.8730917}
{0.918016}
{-0.53872466}
{-0.0970289}
{-0.92267317}
{-0.4984524}
{-0.31455398}
{0.57751787}
{-0.73018545}
{-0.019553151}
{-0.8176079}
{-0.6796325}
{1.0392724}
{-0.24987103}
{0.8623159}
{0.29406625}
{0.043024037}
{-0.6598729}
{0.7418301}
{0.9372987}
{0.87467486}
{0.1920832}
{-0.6244364}
{0.94883925}
{-0.38264373}
{-0.4849248}
{-0.24227619}
{0.12097334}
{0.68704814}
{-0.41189215}
{-0.8252423}
{-0.006208474}
{-0.9662118}
{-0.82910854}
{-0.7004299}
{-0.83936626}
{-1.0091997}
{-0.9915196}
{-0.3423431}
{0.16953784}
{-0.70059717}
{0.66268945}
{-0.4804234}
{0.5695575}
{-0.4719889}
{0.9481068}
{-0.73162985}
{0.9021008}
{0.59531265}
{-0.5381485}
{-0.5477443}
{0.67111504}
{-0.08346821}
{-0.33555368}
{-0.14829421}
{0.43102416}
{-0.86915773}
{-0.14356546}
{0.48652387}
{-0.5102737}
{-0.7186536}
{-0.27637696}
{0.20450783}
{-0.8098366}
{0.924823}
{0.565959}
{-0.10089765}
{0.9573686}
{0.4191307}
{1.0131518}
{-0.106712416}
{0.886045}
{0.8323465}
{0.27336836}
{-0.51139045}
{-0.5949959}
{0.45789975}
{-0.56708956}
{0.66419554}
{-0.8087135}
{0.108359784}
{0.5819465}
{-0.35402513}
{-0.8993478}
{-0.54753083}
{-0.6382242}
{-0.07814777}
{0.73806536}
{-0.89677745}
{0.016808504}
{0.8738389}
{-0.4894704}
{-0.5596535}
{0.85489917}
{-0.84835005}
{0.8339929}
{0.7583243}
{0.69532627}
{0.9835708}
{0.59131706}
{0.22993577}
{0.19450913}
{-0.13481069}
{-0.32724178}
{0.91090095}
{0.1673802}
{0.79513955}
{-0.70888364}
{0.48492935}
{0.75612336}
{0.11321652}
{0.34359086}
{0.024555309}
{-0.027629206}
{0.4438324}
{-0.3283531}
{0.4388383}
{-0.8942669}
{-0.56132984}
{0.339928}
{0.77360445}
{0.45924056}
{-0.4670236}
{0.058507983}
{-0.39416924}
{0.51640445}
{-0.47273618}
{1.1256291}
{-0.060534984}
{-0.42169738}
{0.42684007}
{-0.57503384}
{-0.4581214}
{-0.045323234}
{0.009324013}
{-0.053418938}
{-0.2421609}
{-0.07878433}
{0.7758181}
{0.6670784}
{0.62656}
{-0.14377321}
{-0.65403533}
{1.0462158}
{-0.88198113}
{-0.6767606}
{-0.113181874}
{-0.11892261}
{-0.21305406}
{-0.5618271}
{-0.27886653}
{-0.91267836}
{-0.48813242}
{0.78363574}
{-0.47397715}
{-0.6432652}
{-0.6564815}
{-0.4110723}
{-0.6178324}
{0.80837226}
{0.42357123}
{0.91140556}
{0.8619878}
{0.7952514}
{0.52386224}
{-0.30820405}
{0.0018278952}
{0.69470036}
{0.68114364}
{0.583418}
{0.4579935}
{0.929117}
{0.76378876}
{-0.25555894}
{-0.64426947}
{-0.70117754}
{0.8359732}
{0.8532365}
{0.88602805}
{0.077845864}
{0.5541793}
{0.8341233}
{0.861604}
{0.38965446}
{-0.16904855}
{0.96921784}
{0.14819738}
{-0.7180607}
{-0.54485446}
{0.35553706}
{-0.65284085}
{-0.052934118}
{-0.8489405}
{0.48551032}
{-0.8307643}
{-0.49917692}
{-0.9169371}
{0.9559759}
{-0.29013276}
{-0.5196764}
{0.39537907}
{-0.8645799}
{0.57309914}
{0.11796227}
{-0.7174552}
{0.3382572}
{-0.21431708}
{-0.1317243}
{-0.14293242}
{-0.3587589}
{-0.6987703}
{0.61513525}
{-0.9204257}
{-0.08233688}
{-0.19772625}
{-0.39079136}
{0.45783436}
{-0.6903488}
{-0.6383786}
{-0.32653224}
{0.5397105}
{-0.54012084}
{-0.49799603}
{-0.5996663}
{0.855291}
{-0.6934902}
{-0.88459396}
{0.63159496}
{-0.98773456}
{-0.32322845}
{-0.42187166}
{-0.9250744}
{0.23753957}
{-0.015933504}
{0.49241304}
{0.53616554}
{-0.47988328}
{-0.5567251}
{-0.24360943}
{-0.13289265}
{-0.8537189}
{-0.21708868}
{0.20060802}
{-0.8546621}
{0.409693}
{0.109157816}
{-0.021877825}
{0.868008}
{-0.17321816}
{0.38588667}
{0.18041182}
{0.4647041}
{-0.021648573}
{0.88214296}
{0.39253116}
{-0.84580564}
{-0.63336366}
{-0.1753586}
{-0.81275105}
{0.56024796}
{0.22772175}
{-0.5417743}
{-0.83993053}
{0.17833799}
{0.87744963}
{-0.6084687}
{-0.69295}
{-0.48506877}
{-0.7512152}
{-0.31275368}
{-0.17799091}
{-0.18312594}
{-0.1885805}
{0.5394002}
{0.8651192}
{0.120518275}
{-0.005817799}
{-0.66027033}
{0.15564013}
{0.01876327}
{-0.038205396}
{-0.64144725}
{-0.86190677}
{1.0336109}
{0.28514463}
{0.5109708}
{0.5383177}
{0.58858263}
{0.23357554}
{-0.01807775}
{0.57044387}
{0.65429926}
{0.2564939}
{-0.3812546}
{-0.2915318}
{-0.14564821}
{0.3546751}
{-0.7240288}
{-0.6736913}
{-0.81734985}
{0.10922838}
{0.5383583}
{-0.7387898}
{-0.26316428}
{-0.38965935}
{0.7236041}
{-0.08927262}
{0.4499754}
{0.6958865}
{-0.8171496}
{-0.2808838}
{0.7754944}
{-0.056580324}
{0.25415075}
{-0.83273697}
{0.45953602}
{-0.44858825}
{0.61007106}
{0.28829408}
{0.82199335}
{0.1549415}
{0.74826604}
{-0.25358176}
{0.76280934}
{-0.2155317}
{0.65825784}
{0.30499387}
{0.7763352}
{0.21037877}
{-0.8613273}
{-0.16031408}
{-0.5279202}
{-0.6676674}
{-0.85183054}
{-0.30814624}
{0.9483607}
{0.65022737}
{-0.110743076}
{0.87936854}
{0.18756284}
{0.65565896}
{0.48882917}
{-0.16370916}
{0.73906547}
{0.9599854}
{-0.45516118}
{0.41126156}
{0.7288777}
{-0.37726146}
{0.6589737}
{0.6439018}
{-0.4974409}
{0.5903975}
{0.11692488}
{0.6500859}
{0.59059274}
{-0.16986552}
{0.28995568}
{0.23735237}
{-0.9379934}
{0.7186466}
{-0.302324}
{-0.6031821}
{0.27272925}
{0.22581403}
{-0.7859237}
{-0.4229555}
{0.5712046}
{0.49116358}
{0.07633972}
{-0.8529384}
{-0.6741848}
{-0.8846126}
{-0.9737342}
{-0.85560346}
{0.52688795}
{-0.2269854}
{0.12297085}
{-0.07362807}
{0.2706551}
{-0.33639017}
{0.10725114}
{-0.45420456}
{0.073892966}
{0.00028490022}
{0.7173755}
{0.9262488}
{-0.7244629}
{-0.90677774}
{-0.3274973}
{-0.25404286}
{-0.5719364}
{-0.06400599}
{1.0248572}
{0.65291476}
{-0.25746888}
{0.96171314}
{-0.7430776}
{-0.56617904}
{0.4665224}
{-0.32575333}
{-0.83302975}
{0.83807325}
{0.4225512}
{-0.60278094}
{0.06785907}
{0.96309876}
{0.639331}
{0.88729495}
{-0.57589555}
{0.5351913}
{-0.40315157}
{0.025812482}
{-0.46878663}
{0.63317704}
{-0.6816678}
{0.6590992}
{0.034744292}
{-0.72409153}
{0.81935227}
{-0.5697188}
{0.10142656}
{0.3373747}
{0.6113831}
{0.43686405}
{-0.43055916}
{0.123613484}
{-0.7138546}
{-0.62772584}
{0.09732664}
{0.71202207}
{0.5654229}
{0.16879395}
{0.7701435}
{-0.28956652}
