-- Efficiency --
94.4
-- Weights --
{-0.96053135}
{0.898349}
{0.26714218}
{-0.25389978}
{0.42721435}
{-0.4585839}
{0.69798106}
{-0.878694}
{-0.013490271}
{0.95318794}
{-0.78804606}
{0.16968866}
{-0.83080137}
{0.29918125}
{-0.006682191}
{-0.6614847}
{0.18008873}
{-0.9230199}
{0.56112826}
{-0.94363314}
{0.9068779}
{-0.7429007}
{-0.41556013}
{0.55054843}
{0.99266255}
{1.0182284}
{-0.3239303}
{0.5512181}
{0.8675834}
{-0.7180418}
{0.07247977}
{-0.89380765}
{0.32308766}
{-0.41019312}
{0.86437637}
{-0.63090956}
{-0.036129307}
{-0.69992656}
{0.42491}
{-0.546308}
{-0.5069071}
{-0.21773879}
{0.8919739}
{0.968196}
{-0.83425367}
{0.12372631}
{-0.765181}
{-0.8784388}
{-0.19801715}
{-0.02019851}
{0.99573165}
{-0.36793143}
{-0.8551761}
{-0.42242947}
{-0.7051478}
{-0.773046}
{0.2692065}
{-0.64005417}
{-0.79985404}
{-0.36322564}
{0.68483365}
{-0.4315348}
{-0.1077015}
{-0.21378511}
{0.95192707}
{-0.8221714}
{-0.4134831}
{0.09152608}
{-0.476975}
{0.52900517}
{-0.1599553}
{-0.12045016}
{-0.10487973}
{-0.36518422}
{0.4382681}
{-0.38222995}
{0.5634798}
{-0.34767744}
{0.027138576}
{0.1168537}
{0.54922473}
{0.21315177}
{0.72992665}
{-0.51948416}
{0.60819995}
{-0.44647703}
{0.92698}
{0.23203947}
{0.6913024}
{1.0446471}
{0.6239118}
{0.7140531}
{0.5825039}
{0.81208175}
{-0.17501695}
{0.19837902}
{-0.86749136}
{0.3133715}
{0.0040312577}
{0.70633024}
{-0.8141023}
{-0.6270623}
{0.53017974}
{0.6902436}
{-0.9515995}
{0.34142655}
{-0.41738105}
{-0.16350447}
{0.52619207}
{-0.58336943}
{-0.15914714}
{-0.4072552}
{0.8705691}
{0.8468667}
{-0.06477827}
{-0.47635427}
{0.37861702}
{-0.7558942}
{0.20595318}
{0.28947276}
{-0.84337676}
{0.8488197}
{-0.091254726}
{-0.20198046}
{-0.7180513}
{-0.7030681}
{0.028602839}
{-0.14410643}
{0.4872603}
{-0.9140556}
{-0.5738532}
{-0.6285931}
{-0.8714665}
{-0.6185162}
{-0.51377755}
{0.118455425}
{-0.51998055}
{0.28776175}
{-0.6129346}
{-0.14426951}
{0.864329}
{0.122111075}
{0.013594601}
{0.8524353}
{-0.64895284}
{-0.6745243}
{0.2219457}
{-0.23696175}
{-0.8712393}
{0.42649838}
{-0.5919085}
{-0.14296532}
{-0.85499346}
{0.6006132}
{-0.03017359}
{-0.5180311}
{0.6893252}
{-0.83596534}
{-0.021723278}
{0.9378465}
{1.0094498}
{0.86890984}
{-0.5194225}
{-0.78991437}
{0.310338}
{0.22689968}
{-0.6326097}
{0.32276443}
{0.47805426}
{0.28299022}
{0.91064996}
{-0.71390146}
{-0.37193277}
{0.8632006}
{0.38918793}
{0.95365226}
{0.5720912}
{0.08139341}
{0.1779451}
{0.68198925}
{0.6391655}
{0.06257657}
{-0.14184895}
{-0.13606255}
{-0.11693031}
{0.48847112}
{-0.51169103}
{-0.43119088}
{0.3327231}
{0.38044378}
{0.07488299}
{0.8938153}
{0.8463744}
{0.69892985}
{-0.37467158}
{-0.48620588}
{0.40402982}
{-0.23189344}
{0.5393632}
{0.9720894}
{0.19111034}
{-0.5028444}
{0.1296278}
{0.5738349}
{0.920668}
{0.7434089}
{0.93850577}
{0.11915786}
{0.13368861}
{-0.24455395}
{-0.2752405}
{-0.90889114}
{-0.49942812}
{-0.12994592}
{-0.94991535}
{-0.8591359}
{-0.67319787}
{0.8787977}
{0.642656}
{-0.37016037}
{-0.18520167}
{0.30079094}
{0.3311127}
{-0.71009344}
{0.86160314}
{-0.517797}
{-0.6791207}
{0.65565556}
{-0.29482344}
{0.07082191}
{-0.62954384}
{0.13936214}
{-0.7138754}
{-0.09303347}
{0.9519373}
{-0.6808903}
{0.204097}
{0.67690474}
{0.48735484}
{1.0274668}
{0.14341612}
{-0.6467136}
{0.45198324}
{0.63195527}
{0.09431041}
{-0.087806806}
{0.75497025}
{0.44486564}
{-0.43451908}
{-0.4257519}
{0.33575645}
{-0.10361133}
{-0.07580244}
{-0.033405922}
{0.7224929}
{0.76978606}
{-0.5851711}
{-0.26215}
{-0.7438828}
{0.7670715}
{-0.4238408}
{-0.8751686}
{0.2973417}
{0.5142998}
{0.678239}
{-0.2561409}
{0.92033124}
{0.16330455}
{-0.13694099}
{0.21254411}
{0.20888877}
{-0.39603245}
{0.504048}
{0.9744261}
{-0.002390304}
{0.33656773}
{-0.19995764}
{-0.7262737}
{0.4879625}
{0.52274334}
{-0.79817426}
{0.5323679}
{0.82207155}
{0.2144892}
{0.09967149}
{0.62303853}
{-0.42713752}
{0.23275004}
{0.6792127}
{0.37127516}
{-0.21577257}
{0.7368209}
{-0.12290959}
{-0.83892214}
{-0.93289685}
{-0.2554823}
{0.7739397}
{0.7413114}
{0.15777583}
{-0.72961015}
{-0.5496105}
{0.89202267}
{-0.43983468}
{-0.80480236}
{-0.7648276}
{-0.11807957}
{0.11291039}
{-0.74812484}
{-0.4369662}
{0.79920036}
{-0.1472807}
{0.9491023}
{-0.38157633}
{-0.6783106}
{-0.74895346}
{1.0026429}
{0.41883466}
{-0.2499393}
{-0.50782305}
{-0.7606861}
{-0.3288708}
{-0.07563524}
{0.3917848}
{-0.8156039}
{0.050297905}
{0.7561953}
{-0.70656806}
{0.65586495}
{-0.4756327}
{-0.90542936}
{-0.6373911}
{0.70145464}
{0.64761555}
{-0.71345556}
{0.80710775}
{0.005286692}
{0.1506562}
{-0.8697014}
{-0.1511645}
{-0.44068643}
{-0.36895278}
{0.8496382}
{0.92512906}
{-0.33642557}
{0.42861673}
{-0.7765868}
{0.35374084}
{-0.4349119}
{0.4879727}
{-0.6748569}
{1.0027542}
{0.7014302}
{0.44374105}
{-0.2337715}
{-0.24973653}
{-0.3345207}
{0.25069305}
{-0.92110175}
{-0.5701607}
{0.07844865}
{0.049410988}
{0.31898987}
{0.6376523}
{-0.22100668}
{-0.7558297}
{-0.82277477}
{0.13886058}
{0.080602996}
{0.51178294}
{-0.67376125}
{-0.6379919}
{-0.56240976}
{-0.008008551}
{-0.08327762}
{0.13942318}
{1.0363116}
{0.35838482}
{0.14041424}
{-0.24309087}
{-0.57281214}
{0.19790336}
{-0.46314648}
{-0.58873963}
{-0.63198936}
{0.13024822}
{0.7309259}
{0.06806826}
{0.39493158}
{0.48477766}
{1.0102656}
{0.092686206}
{0.9682979}
{0.0507447}
{-0.8779235}
{-0.4629463}
{0.19532116}
{-0.090387695}
{-0.8386392}
{0.11424246}
{0.6410253}
{0.97687566}
{-0.013259215}
{-0.65686303}
{-0.09053612}
{-0.689093}
{0.546656}
{-0.47695416}
{0.60566336}
{-0.33442643}
{0.9581079}
{0.55769354}
{-0.026057048}
{0.596274}
{-0.6562965}
{0.6832123}
{-0.33967736}
{0.678203}
{-0.30262095}
{-0.94389486}
{-0.47024003}
{-0.62644875}
{-0.025313836}
{-0.43257892}
{0.2484376}
{0.7445544}
{0.6871628}
{0.09080655}
{-0.25384426}
{-0.06397664}
{-0.49513412}
{0.3770193}
{0.25096738}
{0.8379744}
{0.7468911}
{-0.3483287}
{-0.51160896}
{-0.9603292}
{-0.104808874}
{-0.39813063}
{-0.8549473}
{0.24365827}
{0.7992204}
{0.7842868}
{0.612852}
{-0.39651588}
{0.48913327}
{-0.05835717}
{-0.71135134}
{-0.31250957}
{0.6605211}
{-0.80867636}
{0.74701446}
{0.27941486}
{-0.74327296}
{-0.07895195}
{0.4665114}
{0.65278137}
{-0.09130869}
{-0.70452553}
{-0.9259156}
{0.15540072}
{0.9176269}
{0.42119953}
{0.7538184}
{-0.66028845}
{-0.28084537}
{0.40257236}
{-0.43404737}
{0.7795526}
{0.8004918}
{0.92348045}
{-0.859983}
{-0.5773622}
{0.12676714}
{0.23929523}
{-0.59085584}
{0.27422282}
{-0.42952886}
{-0.06894594}
{-0.9136003}
{0.36722133}
{0.1159494}
{-0.29587424}
{-0.05997085}
{0.3726687}
{0.83799636}
{-0.8960881}
{0.3064911}
{0.6084415}
{-0.56944615}
{-0.89761186}
{0.13891439}
{-0.5437714}
{-0.59203887}
{-0.6790762}
{-0.4710571}
{0.3438637}
{-0.34632385}
{-0.1240652}
{0.1894791}
{-0.43499425}
{0.11284917}
{0.13047972}
{0.97556067}
{-0.34647635}
{-0.83206034}
{0.80974567}
{0.97363436}
{-0.017004084}
{0.02858115}
{-0.5480071}
{-0.64546543}
{-0.5551561}
{-0.12658384}
{0.287134}
{0.8099114}
{0.22196433}
{-0.4178363}
{-0.46446693}
{0.6778091}
{-0.6426724}
{-0.24432929}
{0.8427173}
{0.4770405}
{-0.03097279}
{-0.7348913}
{-0.6126061}
{-0.9288391}
{-0.27385405}
{-0.6454648}
{-0.779749}
{-0.61579025}
{-0.53580225}
{0.23840855}
{-0.6805806}
{0.2603631}
{0.1726043}
{0.39742172}
{0.48383242}
{-0.43678033}
{0.22947404}
{-0.8364472}
{-0.8851159}
{-0.84220856}
{0.85088074}
{0.421837}
{-0.52847475}
{-0.8363114}
{0.55201614}
{-0.6205925}
{0.6706071}
{0.06819746}
{-0.04896077}
{-0.5118611}
{0.12155486}
{0.93977237}
{-0.27281144}
{0.7258443}
{0.5806208}
{0.0010455019}
{-0.48533714}
{-0.47045425}
{-0.81052065}
{0.26204517}
{0.59754837}
{-0.7369841}
{0.55683404}
{-0.9174951}
{0.69549}
{0.12721203}
{-0.50144225}
{0.29841506}
{-0.42261985}
{0.8878953}
{-0.92302704}
{0.5259698}
{-0.41311362}
{-0.94366556}
{0.91731673}
{-0.6666578}
{-0.18215516}
{0.7138376}
{-0.83700645}
{-0.9418734}
{0.80245364}
{0.7965684}
{0.27790332}
{0.43839714}
{-0.24349287}
{-0.90452206}
{-0.93072724}
{-0.35734755}
{-0.12579325}
{0.05346963}
{0.120624594}
{-0.22857213}
{-0.7178813}
{0.09182914}
{-0.80431336}
{0.19970535}
{0.003848958}
{0.114540115}
{0.13103569}
{-0.53978735}
{-0.05237755}
{-0.18343161}
{-0.82279336}
{-0.77496666}
{-0.57806885}
{-0.2647111}
{0.76933146}
{0.25655836}
{-0.5771376}
{-0.16283663}
{-0.06565204}
{-0.07045256}
{0.90635884}
{0.6257758}
{-0.5275229}
{0.25051433}
{0.93115914}
{-0.64500546}
{0.12061705}
{1.0047967}
{-0.86035645}
{0.2953374}
{0.51518863}
{0.42776754}
{0.29497072}
{-0.16730273}
{-0.65393555}
{-0.0736241}
{0.4280593}
{-0.50562626}
{-0.22212107}
{-0.7104983}
{-0.9650351}
{0.02674669}
{-0.28354505}
{-0.904831}
{0.5472654}
{0.4710223}
{-0.22554514}
{-0.32009763}
{0.92243755}
{0.25361657}
{0.7375507}
{0.59651}
{-0.8896152}
{0.6998495}
{0.8898998}
{0.7958179}
{-0.0728234}
{-0.60926616}
{-0.7473464}
{-0.8030757}
{0.2938964}
{0.3553261}
{0.73159945}
{0.91947895}
{0.88828576}
{0.25834504}
{-0.14261323}
{0.8942856}
{0.77034247}
{-0.24296033}
{-0.772651}
{-0.1758873}
{0.65944993}
{0.86729646}
{0.53210247}
{0.7531456}
{-0.90327966}
{-0.6414307}
{-0.28257135}
{-0.22068995}
{0.1897895}
{-0.7989379}
{0.60904396}
{0.8817469}
{-0.620211}
{0.26170403}
{-0.26075917}
{-0.766899}
{-0.1829665}
{-0.75420636}
{-0.7983329}
{-0.5458692}
{0.52496874}
{0.6325753}
{0.8393371}
{-0.7713626}
{0.014256166}
{-0.2516787}
{1.0088816}
{-0.67838645}
{-0.84109056}
{-0.20165367}
{0.41566253}
{-0.44959942}
{1.0087947}
{-0.47061142}
{-0.14842899}
{0.44200426}
{-0.14244226}
{0.9587686}
{0.72497374}
{0.17956553}
{0.5811342}
{0.30353633}
{-0.34359568}
{0.38078684}
{0.2458367}
{-0.14900668}
{0.6495201}
{0.7542097}
{-0.6425265}
{0.3822229}
{0.9057329}
{0.029358093}
{-0.050116625}
{-0.40811592}
{-0.70179623}
{-0.677123}
{-0.2913461}
{-0.87979466}
{0.009651512}
{0.7652914}
{-0.53469384}
{0.35735968}
{0.27840364}
{-0.5197839}
{-0.94128025}
{0.939351}
{0.28464597}
{0.2853456}
{0.05757611}
{-0.8872598}
{-0.14074162}
{-0.47998443}
{-0.0327595}
{0.43589517}
{0.33643296}
{-0.70580405}
{-0.8833934}
{0.28521067}
{-0.082351185}
{0.8488483}
{0.36984465}
{0.18912536}
{-0.5315264}
{-0.86204493}
{-0.1260927}
{-0.4164839}
{0.055580508}
{-0.17122304}
{-0.42657164}
{0.71141946}
{0.7211544}
{-0.04264904}
{0.11859334}
{-0.5476456}
{0.6867758}
{-0.3137162}
{-0.9153918}
{-0.57848644}
{0.24676165}
{0.057791173}
{0.70527995}
{-0.15354215}
{-0.6373615}
{-0.22903845}
{0.943895}
{0.419708}
{0.24090852}
{0.10605884}
{-0.7766458}
{0.5319258}
{0.50470823}
{0.96259975}
{-0.27077082}
{0.03609271}
{0.72648513}
{0.97256565}
{-0.1288102}
{0.06187375}
{-0.79508656}
{-0.6347178}
{0.3865876}
{0.9876041}
{0.6410519}
{-0.78303754}
{-0.8807391}
{-0.3278549}
{-0.21561997}
{-0.92936826}
{0.03973644}
{0.8282055}
{0.8665225}
{0.62367445}
{0.3785765}
{0.84029806}
{-0.007084091}
{-0.17745838}
{0.30368325}
{-0.7267231}
{-0.88358575}
{-0.33508486}
{-0.3903127}
{0.1762925}
{-0.29803357}
{-0.073002726}
{1.0108396}
{-0.6329483}
{0.77775574}
{0.47349855}
{-0.014100384}
{-0.93998826}
{0.03370399}
{0.41685724}
{-0.5321783}
{-0.06496755}
{-0.7359625}
{-0.5898655}
{0.34572265}
{-0.05609142}
{0.3329696}
{0.36514962}
{-0.92185557}
{0.023043154}
{-0.45198226}
{0.58635426}
{-0.27950647}
{0.038423806}
{0.034392662}
{-0.8955731}
{0.9217187}
{-0.60613674}
{0.4228817}
{-0.37612164}
{-0.7467278}
{0.015509982}
{-0.41598445}
{0.9693675}
{-0.2466586}
{-0.011405194}
{-0.5121543}
{0.31011954}
{0.68733513}
{-0.24319336}
{0.89926946}
{0.2779347}
{0.02468102}
{0.531233}
{-0.4775408}
{-0.048538163}
{-0.318234}
{-0.12806655}
{0.68458503}
{1.0107942}
{-0.4419115}
{0.678198}
{-0.18513796}
{-0.705275}
{-0.6915432}
{0.5703272}
{-0.8222279}
{0.06044605}
{-0.9379014}
{-0.92961395}
{0.12890138}
{0.4370474}
{0.9176358}
{0.14254841}
{0.077252336}
{-0.79336125}
{-0.059674367}
{0.69976705}
{0.75277925}
{-0.7483965}
{-0.9459046}
{-0.7953975}
{-0.7327315}
{-0.33776256}
{-0.16447309}
{0.8465854}
{-0.6770523}
{1.0490708}
{0.3334169}
{0.87508905}
{-0.48835894}
{-0.49208742}
{-0.5057517}
{-0.7507795}
{0.23591267}
{0.23617728}
{-0.93709743}
{0.40989545}
{-0.6629449}
{-0.6929148}
{-0.024171185}
{-0.5813465}
{0.35971877}
{0.9914619}
{0.61558187}
{-0.34936768}
{-0.10421774}
{-0.83963805}
{0.47296092}
{0.06383}
{0.71076584}
{-0.37785295}
{-0.7596756}
{0.74216115}
{-0.9921542}
{0.41484788}
{0.27845046}
{-0.08615108}
{0.544162}
{0.8607331}
{-0.9193288}
{0.9805409}
{-0.14699665}
{-0.8016731}
{-0.3890114}
{-0.49123323}
{0.69726634}
{0.7271504}
{-0.9330529}
{-0.83945644}
{0.42860615}
{-0.38093042}
{-0.75579345}
{0.0152763}
{-0.6651304}
{0.2026387}
{0.78402364}
{0.0069065606}
{-0.520762}
{0.24558316}
{0.383867}
{0.33268383}
{0.5986226}
{-0.50931084}
{-0.9237336}
{0.30884966}
{0.10938898}
{0.93760175}
{-0.94956577}
{-0.59859556}
{-0.105472684}
{0.5055965}
{-0.66967404}
{-0.74862164}
{0.20764726}
{0.8906093}
{-0.5323366}
{0.70391613}
{0.8923286}
{0.9375069}
{-0.6826993}
{0.7360692}
{-0.8750405}
{0.8877195}
{1.015921}
{0.61662704}
{0.619769}
{0.937023}
{-0.18770626}
{0.4587867}
{-0.19547457}
{0.43559492}
{0.115351565}
{0.4479537}
{0.5437171}
{1.058535}
{-0.97279227}
{0.94749695}
{0.34815252}
{0.18437514}
{0.6193892}
{-0.66919017}
{-0.8465946}
{0.86733305}
{-0.6102432}
{-0.92430156}
{-0.6265093}
{-0.4607791}
{-0.3001614}
{0.7556391}
{-0.4567517}
{0.24138151}
{0.48169705}
{0.064173855}
{-0.49045274}
{0.6949538}
{0.313621}
{0.019958274}
{-0.7591265}
{0.45384526}
{-0.0944606}
{0.52275383}
{0.56948864}
{0.7331295}
{0.74291646}
{0.074683316}
{-0.22684436}
{0.13681431}
{-0.25915816}
{0.12752803}
{-0.041144904}
{-0.27893385}
{0.4595234}
{-0.21325}
{0.07376818}
{-0.92245805}
{0.43837878}
{0.6980048}
{0.4837589}
{-0.17294005}
{0.28379533}
{0.14913745}
{0.15712836}
{0.29404196}
{0.85665023}
{-0.32865825}
{-0.32961488}
{-0.56313264}
{0.017496752}
{-0.031754453}
{-0.3786667}
{0.07826408}
{0.3951387}
{-0.96067864}
{0.7271176}
{0.037451252}
{-0.23574165}
{-0.45228812}
{0.119164325}
{-0.32112205}
{-0.73081553}
{0.42880866}
{-0.85183626}
{0.3420797}
{0.5696527}
{0.20854902}
{0.58793855}
{-0.115971886}
{0.08758939}
{-0.0076809432}
{0.6800487}
{-0.19119145}
{-0.8329624}
{-0.84914577}
{-0.008314719}
{-0.6798372}
{-0.90163696}
{-0.7727872}
{0.54059684}
{0.16528241}
{-0.73783123}
{0.653549}
{0.9157455}
{0.018019523}
{0.8136505}
{0.23019372}
{0.15810123}
{-0.7286368}
{0.5824958}
{-0.5851655}
{-0.5519414}
{0.16775085}
{-0.6710087}
{0.19017254}
{-0.07803735}
{0.5309612}
{0.7744707}
{-0.84966564}
{0.46186388}
{0.20456398}
{-0.7394043}
{-0.8271211}
{0.25730538}
{-0.22643995}
{0.0026668787}
{-0.7230092}
{0.42549744}
{-0.43528175}
{0.45084926}
{0.521357}
{-0.90619063}
{-0.09785251}
{-0.61200774}
{0.33194456}
{-0.8370991}
{0.57463217}
{0.25398847}
{-0.90282583}
{-0.83195454}
{0.9875852}
{0.075166844}
{-0.929817}
{-0.005525886}
{-0.19068761}
{-0.8011881}
{0.7617036}
{0.79968154}
{-0.64410037}
{0.99463785}
{-0.63391167}
{-0.75930405}
{0.3413091}
{-0.602085}
{-0.955703}
{0.7524314}
{0.49573284}
{0.87538254}
{-0.7988501}
{-0.44958717}
{-0.09245711}
{-0.0986303}
{0.18449946}
{-0.25280058}
{-0.58908606}
{0.35030648}
{0.53976357}
{-0.04530706}
{0.7062402}
{0.62910783}
{-0.4594282}
{0.28294906}
{0.9821512}
{-0.61276734}
{-0.045872897}
{0.6914879}
{-0.86883557}
{-0.9585086}
{-0.47229695}
{0.8660473}
{0.26361072}
{-0.77897227}
{-0.7902822}
{0.17143328}
{0.23109888}
{-0.91796815}
{-0.8206308}
{-0.20060082}
{0.6462416}
{0.42219827}
{-0.07142409}
{-0.7032613}
{0.6403605}
{-0.2310355}
{0.98225427}
{0.7590745}
{0.47620174}
{-0.67672074}
{-0.34396094}
{0.24091925}
{0.23629844}
{0.16947886}
{-0.8837938}
{0.8608955}
{0.36527756}
{-0.5575236}
{0.8597674}
{0.5517381}
{-0.12991989}
{-0.6166209}
{0.44608128}
{-0.31726155}
{0.35423115}
{0.892696}
{-0.873408}
{0.24400982}
{-0.59472877}
{-0.094587915}
{-0.96729153}
{0.3232755}
{0.83209926}
{-0.8493401}
{0.09226207}
{0.43922246}
{0.6911633}
{-0.38101366}
{-0.13803042}
{-0.2724117}
{-0.23968732}
{0.8500174}
{0.07372839}
{0.52891785}
{-0.37776542}
{0.78499854}
{-0.59693295}
{-0.46519378}
{-0.27815208}
{-0.15210345}
{-0.33103424}
{0.059021942}
{0.71722656}
{-0.15442613}
{-0.5654737}
{0.40561777}
{0.02203441}
{-0.6448616}
{0.70801854}
{-0.028229974}
{-0.641982}
{0.06578033}
{-0.9561219}
{0.23934801}
{-0.54602647}
{-0.16513279}
{-0.30875096}
{-0.41117907}
{-0.33497933}
{0.36377355}
{-0.19738747}
{0.67311084}
{1.0741575}
{0.8018881}
{-1.0694447}
{-0.15980603}
{0.0051967837}
{0.2451677}
{-0.9224335}
{0.2928566}
{-0.87327236}
{0.22473118}
{-0.2402105}
{0.3597132}
{-0.09191736}
{0.14102717}
{-1.0598134}
{0.34283596}
{0.06226337}
{0.28888962}
{0.630569}
{0.44420812}
{0.38143328}
{0.4548702}
{-0.5714531}
{0.0887124}
{-0.8658065}
{0.24411914}
{-0.5622352}
{-0.26666847}
{-0.8529484}
{-0.8440994}
{-0.7524165}
{-0.9012003}
{0.7529402}
{0.56539404}
{-0.275979}
{0.6483872}
{-0.055990927}
{-0.936365}
{-0.4668575}
{0.1263267}
{-0.8748063}
{0.9807848}
{-0.091050565}
{-0.759767}
{0.18880416}
{0.1403448}
{-0.18981051}
{0.54577583}
{-0.60446906}
{0.23774573}
{-0.90054625}
{-0.25240427}
{-0.012210929}
{-0.19731048}
{1.0051979}
{0.92116266}
{-0.30514178}
{0.7119411}
{-0.46701223}
{0.2794129}
{-0.092830166}
{0.14366432}
{-0.89981115}
{0.8971791}
{-0.24661697}
{0.395102}
{0.93595064}
{0.6518173}
{0.0029136422}
{-0.20395401}
{-0.7909169}
{0.3589234}
{0.44386622}
{0.64046156}
{0.6116451}
{0.124410205}
{-0.67435724}
{0.4337258}
{0.4189481}
{0.6065255}
{0.9323815}
{-0.4365225}
{0.7510161}
{-0.44002217}
{-0.6120196}
{0.9730016}
{0.7543822}
{-0.31359464}
{0.3237857}
{0.069993176}
{0.8937662}
{-0.027842976}
{-0.4054033}
{0.14899275}
{-0.9144202}
{-0.05976683}
{-0.1886525}
{-0.49035522}
{-0.35749152}
{0.16529585}
{-0.57775664}
{-0.9224113}
{0.51418114}
{0.3089807}
{-0.24079849}
{-0.95978415}
{-0.7008854}
{-0.8280296}
{0.12575977}
{-0.09597003}
{-0.28844312}
{0.44612718}
{0.72082925}
{-0.32453373}
{-0.28189805}
{0.9244347}
{0.3557102}
{-0.09598433}
{-0.9423138}
{0.59783924}
{1.0568285}
{0.8073026}
{0.33207366}
{0.33681306}
{0.42109916}
{-0.756842}
{0.7741114}
{0.8982314}
{-0.5287731}
{0.8211709}
{-0.7559031}
{0.108355574}
{-0.7300836}
{-0.5646473}
{-0.7658891}
{0.9193451}
{-0.66269714}
{-0.7933594}
{-0.44318172}
{-0.5848941}
{-0.59167624}
{0.72629106}
{-0.0021329606}
{-0.47029057}
{-0.70599395}
{-0.3641837}
{-0.9384921}
{-0.84912956}
{-0.8670641}
{0.89749444}
{0.27460057}
{0.96524847}
{-0.7890701}
{0.37571976}
{-0.329297}
{-0.4769024}
{0.113085374}
{-0.15774468}
{0.6473326}
{0.09025962}
{0.7970215}
{0.2923076}
{0.38578078}
{-0.96634686}
{-0.7548295}
{0.22248837}
{0.7546973}
{0.947473}
{0.9431379}
{0.2126815}
{-0.054737933}
{-0.9229698}
{0.63744557}
{0.94124043}
{-0.14826602}
{-0.15708616}
{0.22059558}
{-0.74125755}
{0.21186768}
{-0.28786695}
{0.4539881}
{0.15419051}
{-0.46046045}
{0.48609343}
{0.7099271}
{0.1176411}
{-0.08732486}
{-0.5637181}
{-0.8204918}
{-0.07874667}
{0.8224118}
{-0.15428863}
{0.56510437}
{0.6878251}
{0.52662677}
{0.35742298}
{-0.9266482}
{-0.17060831}
{-0.8237216}
{-0.027073}
{0.28368476}
{-0.9087268}
{-0.030123414}
{0.9213439}
{-0.6701293}
{0.9233252}
{0.44505593}
{0.57177913}
{0.5291013}
{-0.7287704}
{0.9646878}
{-0.859664}
{-0.61287594}
{-0.43445924}
{-0.47222412}
{0.11265887}
{-0.2968734}
{-0.2623773}
{0.62496704}
{0.57605857}
{-0.2353707}
{0.17421147}
{0.29982856}
{-0.58361804}
{0.5279412}
{-0.45587447}
{-0.24313211}
{0.9768896}
{0.15271237}
{-0.67715585}
{0.30765945}
{0.4247187}
{-0.019979183}
{-0.9284655}
{0.29890844}
{0.20501256}
{0.33581725}
{0.70280683}
{-0.5308582}
{-0.7320893}
{1.0927986}
{-0.7173327}
{0.09429731}
{0.91611236}
{-0.6069636}
{0.7714921}
{-1.0417562}
{-0.33376378}
{-0.14649574}
{-0.17314032}
{-0.7353899}
{-0.9501183}
{0.44525024}
{-0.73942745}
{0.1305222}
{-0.42881975}
{0.2519303}
{0.88163006}
{-0.86266387}
{0.82636136}
{-0.7316359}
{-0.40947798}
{0.26466447}
{-0.77394426}
{1.1236659}
{0.33335134}
{-0.5852752}
{-0.45889708}
{-0.593967}
{0.6889509}
{0.27020183}
{1.0457107}
{0.02753503}
{-0.16070655}
{0.4933352}
{-0.92138505}
{1.1096841}
{-0.16307262}
{0.76703185}
{-0.64806056}
{0.600799}
{0.9852382}
{0.7299195}
{-0.6248152}
{0.4790328}
{-0.6394843}
{0.8159054}
{0.15168865}
{0.81745845}
{-0.63951266}
{0.8044375}
{-0.106752634}
{0.25399697}
{0.8783351}
{-0.91611844}
{0.51716846}
{0.53933144}
{0.35660955}
{-0.59517044}
{-0.23484714}
{1.0595685}
{-0.84909666}
{0.6885421}
{-0.04626946}
{0.706546}
{-0.1698077}
{-0.015315314}
{0.009097734}
{0.33912}
{-0.3580177}
{0.9392072}
{-0.17747627}
{-0.06416162}
{-0.9119531}
{1.0556314}
{0.55110925}
{-0.7697748}
{-0.19898108}
{-0.5083913}
{0.93438405}
{0.97336173}
{-0.3511577}
{0.7796635}
{-0.80678755}
{0.41670638}
{0.047146488}
{-0.8223647}
{0.76583713}
{-0.9166773}
{-0.81841457}
{0.37642875}
{0.5955002}
{-0.55879366}
{-0.9399756}
{-0.2160736}
{0.27917007}
{0.5026195}
{-0.1297045}
{-0.21622963}
{0.11639831}
{0.63465863}
{0.8401767}
{-0.24207707}
{0.30959845}
{-0.0887082}
{-0.05738006}
{0.67466456}
{-0.058428694}
{0.88849854}
{-0.29171494}
{0.6841926}
{-0.68900985}
{0.012698251}
{-0.3697684}
{0.2430069}
{-0.5085331}
{-0.12126827}
{0.90921533}
{-0.09022792}
{0.06793174}
{-0.20723245}
{-0.54836786}
{0.8310108}
{0.000031559262}
{-0.6593478}
{0.88703334}
{0.2711704}
{-0.3179}
{-0.15429871}
{-0.33737853}
{0.37251654}
{-0.5148188}
{0.43229392}
{-0.8770722}
{0.12657313}
{-0.5749943}
{1.0998707}
{-0.04916462}
{0.40442407}
{-0.0956558}
{0.69846034}
{-0.53272665}
{0.6829372}
{0.22544828}
{0.07873241}
{-0.19848707}
{-0.41135037}
{-1.0044822}
{-0.8087519}
{0.33520958}
{0.7611728}
{-0.85084647}
{0.63376}
{0.34425542}
{0.73070645}
{-0.043834962}
{0.30285966}
{-0.78746974}
{0.5982117}
{0.025256056}
{0.51958525}
{0.34962007}
{0.068159364}
{-0.6716027}
{-0.7659332}
{-0.012428116}
{0.6893209}
{-0.08710793}
{-0.113420114}
{0.6824511}
{0.8375301}
{0.41397667}
{0.6409379}
{0.19615671}
{-0.6749704}
{0.17969145}
{-0.5531041}
{-0.9676546}
{-0.6793008}
{-0.6704813}
{0.6641018}
{0.17402098}
{-0.64859486}
{0.9176111}
{-0.58865}
{-0.00007994147}
{-0.40155458}
{-0.8093699}
{0.39421418}
{-0.66437495}
{-0.39329913}
{0.60396475}
{-0.6599841}
{0.32287547}
{0.44316295}
{0.34689397}
{-0.17844108}
{-0.088578336}
{0.14777571}
{0.45635006}
{-0.78783506}
{-0.8172649}
{0.14773555}
{-0.45078135}
{0.33983126}
{-0.71228755}
{0.48363158}
{-0.735688}
{0.32331303}
{-0.9215027}
{0.29006156}
{0.46000487}
{0.5518076}
{-0.60416067}
{0.17480241}
{-0.19513576}
{-0.92956364}
{0.17797133}
{0.11299043}
{-0.9457863}
{0.1590361}
{-0.95768416}
{-0.22384724}
{0.6414645}
{-0.53393036}
{-0.16256645}
{0.03273959}
{0.2693021}
{-0.16604574}
{-0.17504767}
{-0.93513495}
{-0.37723586}
{0.053467937}
{-0.0351959}
{0.21185303}
{-0.6059094}
{0.42639786}
{0.019578384}
{0.13399854}
{-0.6133063}
{0.29903996}
{0.7736963}
{0.4991595}
{-0.9525746}
{-0.43098593}
{0.6024982}
{0.614424}
{-0.9376324}
{0.43445095}
{-0.8972691}
{-0.6255263}
{0.29515198}
{-0.24783404}
{0.3221576}
{-0.8886551}
{0.43058428}
{0.6328187}
{0.3039119}
{-0.06293279}
{0.3745074}
{1.0822407}
{0.440618}
{0.05590872}
{-0.6317138}
{-0.7979275}
{-0.77429664}
{-0.27559018}
{-0.3445592}
{-0.11685904}
{0.2556691}
{0.5836638}
{-0.019346349}
{-0.37906384}
{-0.22420123}
{-0.6669175}
{0.82745105}
{-0.5945918}
{0.87829053}
{0.3199078}
{-0.9117985}
{0.77906644}
{-0.6666428}
{0.64037555}
{0.34000838}
{-0.66994447}
{0.68767273}
{0.52100694}
{0.076577045}
{-0.27992252}
{0.0820557}
{-1.0520766}
{0.3959414}
{-0.5382084}
{-0.878173}
{-1.1181437}
{-0.045124628}
{-0.26649418}
{-0.17830399}
{0.044148292}
{0.3860285}
{-0.4712573}
{-0.5444509}
{0.64164186}
{0.66983473}
{0.956584}
{-0.5738038}
{-0.3987266}
{-0.66395754}
{1.0687727}
{-0.30175927}
{0.7177932}
{0.22207773}
{0.5532544}
{-0.43364194}
{-0.06375596}
{0.97664326}
{-0.5273693}
{-0.28086188}
{-0.49772584}
{-0.24859987}
{-0.65208054}
{0.16230342}
{0.2706409}
{-0.65306497}
{-0.45472747}
{-0.4081314}
{-0.39000604}
{0.5942521}
{0.4429179}
{-0.032839846}
{-0.4686178}
{0.30731687}
{0.8661297}
{-0.8672265}
{0.6506684}
{0.68660474}
{0.58133656}
{-0.35246637}
{-0.60901046}
{0.23833987}
{-0.7673302}
{-0.48891133}
{-0.693568}
{0.10835279}
{-0.31486648}
{0.2172701}
{-0.52203923}
{0.9308308}
{-0.74477494}
{-0.42354754}
{0.7570887}
{-0.4661686}
{0.681601}
{-0.543882}
{-0.011618174}
{-0.83364946}
{-0.0575357}
{-0.8464092}
{-0.069480024}
{-0.6848767}
{0.40278372}
{0.9861163}
{-0.4645267}
{-0.28949413}
{0.56820023}
{-0.35894588}
{-0.44276813}
{0.508666}
{-0.50972366}
{0.63182294}
{0.30644235}
{0.5920672}
{-0.0080105085}
{-0.5346638}
{0.8621324}
{-0.4005447}
{-0.8220301}
{0.6473979}
{-0.89723635}
{-0.14097068}
{0.62605184}
{-0.7374922}
{0.8150153}
{-0.34430248}
{0.98931265}
{0.7907857}
{-1.0019972}
{-0.9350718}
{-0.8022099}
{0.95846045}
{-0.8061083}
{0.09847162}
{1.00254}
{-0.80921805}
{0.28950724}
{0.5632435}
{1.1448058}
{0.6720153}
{-1.10917}
{0.7648752}
{-0.287592}
{-0.90838563}
{-0.30745265}
{-0.40187544}
{-0.5732172}
{-0.5042714}
{-0.99968606}
{0.0131969815}
{-0.6356289}
{-0.6204475}
{0.40099916}
{-0.14087072}
{0.78166115}
{0.76156795}
{-0.059777856}
{0.5609311}
{0.3046856}
{0.5889989}
{0.54643303}
{0.77075726}
{0.22675754}
{-0.6605352}
{0.3356163}
{0.6789948}
{0.038205903}
{0.6891831}
{0.75262064}
{0.972911}
{-0.8574097}
{-0.6621686}
{-0.01665575}
{0.8188635}
{-0.6389008}
{0.99434865}
{0.6919085}
{-0.18879983}
{0.32539707}
{0.2590885}
{-0.06305445}
{-0.8552844}
{0.18488376}
{-0.5171162}
{-0.34620908}
{-0.1726234}
{0.58848995}
{0.5335728}
{0.9464558}
{0.25595617}
{0.2627396}
{0.006355214}
{0.33300048}
{-0.8147171}
{-0.6890921}
{-0.4200168}
{-0.81452835}
{-0.3915747}
{-0.11290884}
{-0.61689055}
{-0.30003762}
{-0.38593787}
{-0.16970237}
{-0.34121445}
{-0.23770781}
{-0.65202236}
{0.002181088}
{-0.5022577}
{-0.6674554}
{0.02872384}
{0.9527389}
{0.43867275}
{0.058588825}
{-0.4426173}
{-0.6431278}
{-0.34257773}
{-0.99470073}
{0.6268611}
{-0.61752206}
{0.9279467}
{-0.44946748}
{0.36575916}
{0.65998924}
{-0.2572153}
{-0.2934215}
{0.5625626}
{0.064267516}
{-0.806877}
{-0.85985094}
{0.14645706}
{0.06642665}
{-0.73205173}
{0.3113732}
{-0.865331}
{-0.6862508}
{0.9827429}
{-0.943318}
{-0.82783604}
{0.8374917}
{0.79479206}
{0.49047813}
{-0.9291387}
{-0.53660786}
{0.78623307}
{0.51669663}
{0.55026263}
{0.0041353446}
{-0.7429482}
{-0.18313111}
{-0.42532125}
{-0.6209482}
{0.9666351}
{-0.35316786}
{0.57024544}
{0.057005316}
{-0.48299703}
{-0.648868}
{-0.5597674}
{0.9004539}
{0.7951158}
{-0.27587265}
{0.33978027}
{0.22834215}
{0.7709578}
{0.16267148}
{-0.27665904}
{0.8307097}
{0.2641804}
{-0.77731466}
{0.4378761}
{-0.49953076}
{0.67794836}
{-0.9991221}
{0.89230686}
{1.0917865}
{-0.44830778}
{-1.1146835}
{-0.94766927}
{-0.25278994}
{-0.58789694}
{0.38601536}
{0.025084486}
{0.5967483}
{-0.5593146}
{-1.0197992}
{0.76274323}
{-0.3478213}
{-0.28800824}
{-0.17864251}
{-0.28776735}
{0.65955853}
{0.56023824}
{0.26730943}
{-0.36845475}
{0.78951883}
{0.15151736}
{-0.56464267}
{-0.08531814}
{0.15970404}
{0.37135693}
{-0.83336794}
{0.12014771}
{-0.26361588}
{-0.26615694}
{0.012971083}
{-0.7759315}
{-0.7337778}
{-0.9177667}
{-0.2699985}
{-0.36029914}
{-0.24164991}
{0.85834587}
{0.9232265}
{-0.8645173}
{0.7779233}
{-0.067174785}
{0.3816766}
{-0.72290057}
{-0.73883396}
{-0.5626811}
{0.18598804}
{0.7899234}
{-0.750784}
{0.36618802}
{0.71841866}
{-0.8107865}
{0.43569738}
{0.33143732}
{0.58865225}
{-0.6437583}
{-0.030977631}
{-0.97331345}
{0.6280869}
{0.04703295}
{0.8665578}
{-0.8914448}
{-0.7470053}
{-0.3851809}
{0.58068264}
{-0.7072946}
{0.41195574}
{0.91437393}
{0.3710543}
{-0.6608423}
{-0.30332237}
{0.901899}
{0.8168245}
{0.7529963}
{0.55356914}
{0.97753376}
{0.049289092}
{0.5021433}
{0.40355638}
{-0.5958378}
{-0.16803756}
{0.04711883}
{0.36535513}
{0.19471125}
{1.0064218}
{-0.5200311}
{0.31145212}
{0.29577413}
{-0.064344086}
{0.42096254}
{-0.30674338}
{0.4125606}
{-0.6070482}
{-0.6879548}
{0.8776323}
{-0.10957836}
{0.16625865}
{0.5385982}
{-0.5499024}
{0.8533773}
{0.601125}
{-0.27324346}
{0.08000834}
{0.6517315}
{-0.7808891}
{-0.8586751}
{-0.5064561}
{0.4355275}
{0.62494916}
{0.09877122}
{-1.1021231}
{0.2221499}
{0.9225943}
{0.5747894}
{-0.23756668}
{0.88176346}
{0.109267265}
{-0.47365907}
{-1.1001642}
{-0.23507713}
{0.36523032}
{0.08340467}
{0.29344216}
{0.07019965}
{-0.61855763}
{0.6278516}
{-0.6360326}
{-0.5196429}
{-0.5123102}
{-0.34546378}
{-0.47199377}
{0.102262825}
{1.1883705}
{-0.7807652}
{-0.4783642}
{0.6900626}
{-0.5464223}
{0.31317827}
{-1.105714}
{-0.23428653}
{1.0038066}
{0.9630159}
{0.84310436}
{-0.15706804}
{-0.37115064}
{0.588662}
{-0.7046979}
{-0.4078164}
{0.7905408}
{-0.51529944}
{-0.73927087}
{0.26884583}
{0.148073}
{-0.5945648}
{-0.34690154}
{-0.6521248}
{0.5909825}
{0.3220863}
{0.73106897}
{0.535374}
{-0.7277628}
{-0.30322507}
{0.48549178}
{-0.7756043}
{0.92139137}
{0.2245135}
{-0.21605742}
{0.95354766}
{0.258708}
{-0.08521568}
{-0.13370605}
{-0.17779358}
{-0.121931106}
{-0.20531633}
{-0.3972021}
{0.62141156}
{1.0121794}
{0.08749927}
{0.082209095}
{-0.8998169}
{0.067286596}
{0.03015988}
{-0.7296096}
{-0.54023606}
{-0.81444764}
{-0.4027162}
{0.49203488}
{-0.9222887}
{-0.6594245}
{-0.17910579}
{0.7538895}
{0.79653996}
{-0.6796646}
{-0.026799511}
{-0.32667118}
{0.22666413}
{-0.7000364}
{-0.85077226}
{0.34636015}
{0.3687462}
{0.19474097}
{0.6384295}
{0.008883441}
{0.088198505}
{-0.47192034}
{-0.5468935}
{-0.8228675}
{-0.082955256}
{0.116116256}
{-0.73496115}
{-0.5567364}
{0.65386367}
{-0.6926455}
{0.648002}
{-0.9055406}
{-0.14051098}
{0.95985436}
{-0.7698339}
{-0.11757852}
{-0.016406141}
{1.1383755}
{0.42145583}
{-0.44575208}
{-0.014037602}
{0.16375233}
{-0.02533586}
{0.10087657}
{-0.71595246}
{0.53690404}
{0.3269932}
{-1.0677679}
{-0.2843326}
{-0.5274908}
{-0.8827995}
{-0.34831896}
{-0.055433765}
{0.42787543}
{0.03300898}
{-0.5989218}
{-0.9338954}
{0.25434446}
{-0.47602776}
{-0.87997884}
{-0.124461286}
{0.19563967}
{-0.16002873}
{0.42771706}
{-0.7186597}
{0.54308844}
{-0.049595203}
{-0.8888986}
{-0.718485}
{0.5094758}
{0.9236957}
{-0.3488821}
{-0.16370454}
{-0.6458217}
{0.022936987}
{0.35774183}
{-0.6020946}
{-0.1946129}
{0.40086195}
{-0.54155463}
{0.3426139}
{0.0057676844}
{0.26417467}
{0.67459327}
{-0.35571265}
{0.22888592}
{-0.677112}
{-0.15286395}
{-0.3487943}
{-0.50634444}
{-0.3585849}
{0.28521103}
{0.81790715}
{0.23229013}
{-0.94239986}
{-0.73204124}
{0.035526264}
{-0.7643306}
{0.33891723}
{0.9080311}
{0.25364655}
{0.049383186}
{0.0905968}
{0.87439114}
{-0.65310866}
{-0.23326685}
{0.6267897}
{-0.62095565}
{-0.5655652}
{1.1604933}
{-0.8560926}
{0.6670073}
{-0.28390497}
{1.0005941}
{0.8587476}
{0.4588399}
{0.97825}
{0.7692067}
{0.051030327}
{0.39084667}
{-0.8967176}
{-0.67326623}
{0.91164815}
{-0.2132758}
{-0.18348198}
{-0.110398814}
{-0.49525908}
{-0.05031432}
{-0.14283757}
{0.7149208}
{-0.82465017}
{-0.44231194}
{-0.4015554}
{0.14606737}
{0.6013769}
{-0.28613102}
{-0.22083938}
{0.96873987}
{0.9034165}
{0.51977015}
{-0.36935765}
{-0.8302649}
{0.5655819}
{-0.7539352}
{0.8065475}
{0.700461}
{-0.49860486}
{0.64163744}
{0.93932456}
{0.16933595}
{0.22548315}
{-0.05142496}
{-0.5052035}
{-0.65714604}
{0.65826166}
{-0.89161485}
{0.055183433}
{-0.5575129}
{-0.3909333}
{-0.1113038}
{0.9011909}
{0.050225943}
{-0.22535208}
{-0.2264665}
{-0.46093592}
{-0.2590815}
{0.54976714}
{-0.59792167}
{0.012344705}
{0.09442741}
{-0.6310297}
{0.38018635}
{-0.048504483}
{0.4090945}
{-0.105044946}
{0.7680919}
{0.80199677}
{-0.5661621}
{-0.0088923685}
{-0.8691364}
{-0.5244281}
{-0.74550897}
{0.85962117}
{0.60648906}
{-0.12785123}
{-0.08526997}
{-0.38452914}
{-1.1025455}
{0.6240426}
{0.059797954}
{-0.026577782}
{-0.47164556}
{0.0016665785}
{0.88200784}
{-0.095052116}
{-0.89760154}
{0.3837318}
{0.59748566}
{-0.44732478}
{0.59756374}
{0.37649935}
{0.9394717}
{-0.25516847}
{0.17921075}
{-0.8824649}
{-0.004666855}
{-0.32052734}
{0.27453086}
{0.3818277}
{-0.5205311}
{0.19264051}
{-0.40713248}
{-0.60604596}
{-0.672259}
{0.36506245}
{-0.13977267}
{-0.1030395}
{0.68489456}
{1.0013729}
{0.72368544}
{-0.21935454}
{-0.7534859}
{0.9636611}
{-0.90694565}
{-0.49984986}
{0.100712754}
{0.4564316}
{-0.74503213}
{0.796167}
{-0.42387646}
{0.5059482}
{0.806903}
{0.13127588}
{-0.78650033}
{-0.8412899}
{0.52829844}
{-0.547435}
{-0.009413772}
{0.4771354}
{0.2661771}
{-0.84658194}
{-0.06656441}
{-0.120074324}
{0.6378129}
{0.3585866}
{-0.6874618}
{-0.41609815}
{0.26385987}
{-0.15846522}
{-0.45314464}
{0.015905546}
{-0.7905224}
{0.523848}
{-0.16673069}
{0.019154714}
{0.38578564}
{0.8387247}
{1.0036016}
{0.9576515}
{-0.49614838}
{0.569776}
{-0.95288897}
{0.19788548}
{0.9439267}
{0.72522855}
{0.4497685}
{0.90036523}
{-0.42098314}
{0.5638025}
{-0.9979436}
{0.11443675}
{-0.5554443}
{0.17445791}
{-0.025984963}
{0.010824369}
{-0.042889457}
{-0.04762775}
{0.18957095}
{-0.102445714}
{-1.0373131}
{0.91951585}
{0.42732325}
{0.74283636}
{-0.5278469}
{0.651425}
{0.7404706}
{0.6036693}
{0.44079766}
{0.29394767}
{0.26475814}
{0.6975771}
{0.09383834}
{-0.78046054}
{0.9814546}
{-0.28904083}
{-0.5958897}
{0.81104183}
{-0.005421568}
{-0.6720866}
{-0.11732927}
{-0.8151632}
{-0.64098376}
{0.8795539}
{0.3553191}
{0.8830872}
{-0.2526468}
{0.82505286}
{-0.61809033}
{-0.8330058}
{1.1116499}
{-0.68414986}
{0.44387838}
{0.015292543}
{0.2576985}
{-0.36196783}
{-1.1227114}
{-0.8815292}
{-0.09822818}
{-0.36900523}
{0.55235326}
{-0.329468}
{0.32760555}
{0.95393884}
{-0.2938086}
{-0.59302}
{-0.45700294}
{0.3686199}
{-0.55129105}
{0.48380083}
{1.0233725}
{-0.7439724}
{-0.3120921}
{0.6459284}
{0.14919591}
{-0.09511816}
{-1.155747}
{0.20280856}
{-0.5736076}
{-0.24387386}
{-0.0042602755}
{-0.87845904}
{0.8670873}
{-0.42166808}
{-0.48285452}
{0.85046154}
{0.06583284}
{0.060513187}
{0.029801672}
{0.7143426}
{0.6547019}
{0.69360673}
{-0.49178857}
{-0.14389814}
{0.8125733}
{0.45199868}
{0.18121833}
{0.43823716}
{-0.5510541}
{0.6813179}
{-0.7424194}
{-0.8704793}
{0.2658467}
{-0.85433066}
{0.38733014}
{-0.29327044}
{0.23450567}
{0.40446994}
{-0.381601}
{-0.75221497}
{0.45266265}
{-0.9031731}
{-0.5018652}
{-0.8135624}
{0.27269697}
{-0.21791509}
{-0.71545255}
{-0.092192024}
{-0.85178673}
{-0.5430478}
{0.590979}
{-0.37735286}
{0.48037612}
{0.43610927}
{0.88963777}
{0.8118168}
{0.026495507}
{-0.7697798}
{0.91519797}
{0.48822248}
{0.20490055}
{-0.4183872}
{0.63759154}
{0.87279}
{-0.6067933}
{-0.5134419}
{-0.31372812}
{0.9276909}
{-0.7321653}
{0.19542858}
{0.19242041}
{0.5898994}
{-0.58467215}
{-0.08258998}
{0.061441123}
{-0.06527133}
{0.7003937}
{-0.33557394}
{-0.8322858}
{-0.32647347}
{-0.34178224}
{0.7133182}
{0.4659688}
{-0.28274435}
{-0.51797736}
{-0.7243482}
{0.8298727}
{-0.67099506}
{0.49401647}
{-0.8077911}
{-1.0371337}
{-0.5787967}
{0.91057897}
{0.79424655}
{-0.5572004}
{0.68813986}
{0.2072005}
{0.22824022}
{0.19772018}
{-0.90369695}
{-0.51624924}
{0.3486416}
{0.8117139}
{0.921858}
{-0.36950713}
{-0.119667344}
{-1.0835987}
{0.7801293}
{-0.26729068}
{-0.1231902}
{0.57351375}
{0.6219706}
{-0.37242916}
{0.10468949}
{0.7090014}
{0.31045502}
{-0.68130624}
{-0.26808932}
{-0.31611034}
{-0.39795122}
{0.29533085}
{-0.021611523}
{-0.77870035}
{0.44635537}
{0.34445876}
{-0.6941856}
{-0.1139528}
{-0.31932724}
{0.21010306}
{-0.039565634}
{-0.8451893}
{-0.03547537}
{0.103006646}
{-0.27848342}
{-1.2327414}
{0.09317137}
{-0.025971971}
{-0.51599944}
{-0.89412045}
{-0.4046877}
{0.57206595}
{0.7462057}
{-1.1465011}
{-0.054078534}
{0.66957563}
{0.3362784}
{-0.24974446}
{0.9345821}
{0.081889324}
{0.8347746}
{0.056915186}
{-0.31926468}
{-0.7519235}
{0.121948615}
{-0.9127028}
{-0.07101165}
{0.38803318}
{0.76668465}
{0.75987726}
{-0.4386531}
{0.91358536}
{0.7443439}
{0.20293528}
{-0.19116448}
{0.47572187}
{-0.8245503}
{-0.29573074}
{-0.20950192}
{1.0169146}
{-0.8216177}
{0.31894603}
{-0.8351811}
{0.590625}
{0.69367445}
{0.32467607}
{0.7177504}
{-0.8739214}
{-0.29045227}
{0.1400372}
{0.595955}
{0.6607963}
{0.45386693}
{-0.19340074}
{0.9670816}
{-0.67422}
{-0.89972246}
{0.6460871}
{-0.68321514}
{-0.22875513}
{-0.879599}
{-0.76809824}
{0.45791817}
{0.8505583}
{-0.9242395}
{0.08845633}
{0.3027114}
{-0.36241156}
{-0.90057194}
{0.50210255}
{-0.96645814}
{0.07094569}
{-0.8667642}
{0.51146716}
{-0.7020922}
{0.9512371}
{0.37114903}
{0.9161451}
{-0.28884694}
{-0.59637016}
{0.715742}
{-0.34547892}
{0.92805034}
{-0.8992641}
{0.50917226}
{0.6377452}
{-0.86191815}
{0.6747454}
{0.031046081}
{0.058444772}
{-0.9428422}
{-0.200977}
{-0.8345417}
{-0.56633013}
{-0.042036682}
{1.120482}
{-0.14732125}
{-0.6760438}
{-0.33042225}
{0.19946101}
{-0.28428486}
{0.38861278}
{-0.68328893}
{-0.09575318}
{-0.85591924}
{-1.0549073}
{-0.07498844}
{0.69913673}
{0.22397014}
{-0.91516286}
{-0.11221937}
{-0.27588674}
{0.85858524}
{0.4834209}
{0.25923887}
{0.725605}
{-0.490751}
{-0.5287065}
{-0.7685615}
{-0.7220641}
{-0.81187}
{0.30595636}
{-1.0111191}
{-0.24887651}
{0.61700904}
{-0.69634366}
{0.44990915}
{-0.49002102}
{0.2940652}
{-1.160583}
{0.8229774}
{0.09216041}
{-0.39800265}
{0.41950575}
{0.6530251}
{0.7846716}
{-0.17805389}
{0.53567463}
{-0.19452053}
{-0.5944962}
{1.0208539}
{-0.43083447}
{-0.7872797}
{-0.22661397}
{0.45911142}
{0.09789642}
{-0.5946305}
{0.27911526}
{-0.3203583}
{0.0941346}
{-0.40233117}
{0.6070377}
{-0.2213395}
{0.7997892}
{0.25061074}
{0.7448}
{0.5639123}
{-0.93186516}
{0.041841093}
{0.043832563}
{0.43112633}
{-0.8173985}
{0.8050609}
{0.49912137}
{-0.8690511}
{-0.7719542}
{-0.42792788}
{0.71714145}
{0.631075}
{0.091243654}
{0.18242046}
{0.6383412}
{0.90561354}
{-0.18070891}
{-0.64294785}
{-0.6637953}
{-0.5767745}
{0.18506542}
{0.9546229}
{-0.91739494}
{-0.74626315}
{-0.6471198}
{-0.44744697}
{0.66279083}
{0.6671592}
{-0.55941504}
{0.9123716}
{-0.61400336}
{-0.47626427}
{-0.48103982}
{-0.23079635}
{0.14532185}
{-0.83303964}
{-0.10997666}
{-0.08506003}
{-0.08673063}
{-0.6887747}
{-0.35608438}
{-0.115394674}
{-0.7626138}
{-0.7600485}
{0.11941201}
{-0.23475546}
{-0.50217575}
{-0.26186827}
{0.2203107}
{-0.41823134}
{0.15833794}
{0.4261417}
{-0.84562105}
{0.81606036}
{0.45490965}
{0.92401373}
{-0.7523116}
{0.22048666}
{0.9249306}
{-0.82730305}
{0.39383677}
{-0.9223747}
{0.9692661}
{-0.048454605}
{-0.9253427}
{0.72501844}
{-0.5779863}
{0.85028803}
{0.28006345}
{0.9767989}
{-0.2792384}
{-0.039615463}
{-0.969281}
{0.9413181}
{-0.44959176}
{-0.6307179}
{0.023178173}
{-0.016918618}
{0.016131964}
{-0.4406636}
{0.075746894}
{-0.26686564}
{-0.7163893}
{-0.08919894}
{0.6321775}
{-0.56293005}
{-0.4353076}
{0.06901709}
{0.32569802}
{-0.2634265}
{-0.44895574}
{0.23053357}
{0.7083346}
{0.5399117}
{-0.11373273}
{-0.54454744}
{-0.2009697}
{0.15984233}
{-0.028188776}
{-0.2929509}
{0.70952576}
{-0.46552813}
{-0.81412864}
{0.8112732}
{0.28892437}
{0.8535058}
{-0.5857348}
{0.044995952}
{-1.22314}
{0.721438}
{0.049911685}
{0.886835}
{-0.024085848}
{-0.27014917}
{0.54764}
{-0.007333588}
{-0.45397556}
{-0.30644694}
{-0.027279498}
{-0.33463982}
{-0.29702482}
{-0.88658714}
{-0.6251228}
{-0.51131976}
{0.86502534}
{-0.53223306}
{-0.20676951}
{-0.9519261}
{-0.29186356}
{0.013085194}
{-0.5215124}
{0.6522635}
{-0.20203416}
{0.19433476}
{0.20302723}
{0.053589273}
{0.20679277}
{0.53790593}
{-0.15120415}
{-0.4105704}
{0.44182104}
{0.63781154}
{0.5282679}
{-0.37668636}
{-0.6807489}
{-0.7177523}
{-0.06957826}
{-0.3960531}
{0.92457795}
{-0.5863255}
{0.8204658}
{-0.4848429}
{-0.0042446135}
{0.6141434}
{0.27999267}
{0.8111402}
{0.8890659}
{-0.1739491}
{-0.6057932}
{-0.7826599}
{0.61356145}
{0.3765727}
{-0.7448301}
{-0.16656688}
{0.69698286}
{0.47324422}
{0.6132594}
{-0.020685267}
{-0.22928278}
{0.47128978}
{0.026022954}
{0.9603108}
{-0.8802085}
{0.62347764}
{-0.48435333}
{0.53518283}
{-0.6020673}
{0.6594145}
{-0.50991404}
{0.12404645}
{-0.8564081}
{0.3760589}
{-0.6906369}
{-0.48097616}
{-0.8985403}
{-0.6685244}
{-0.867259}
{-0.35851792}
{0.41001305}
{-0.40856835}
{-0.32643208}
{0.7477046}
{0.8887182}
{-0.48234928}
{0.6890037}
{-0.3943415}
{-0.86666006}
{0.8353619}
{-0.55796003}
{0.36113235}
{0.3682305}
{-0.2036046}
{-0.05493709}
{0.8519212}
{-0.55875397}
{-0.01917775}
{-0.6140893}
{0.82166255}
{0.27253878}
{-0.7469149}
{0.15106992}
{0.4686415}
{0.32103935}
{-0.30379033}
{0.42312008}
{-0.73848045}
{0.24302787}
{-0.47263426}
{-0.89983964}
{-0.34989408}
{0.5542027}
{-0.6411612}
{0.8634799}
{0.11092485}
{0.1868581}
{0.1011078}
{0.12257845}
{-0.14730981}
{-0.20255154}
{-1.0223957}
{-0.30628964}
{-0.4644263}
{-0.32984897}
{0.03624562}
{0.9596221}
{0.96716106}
{0.28765717}
{-0.40711808}
{0.20606326}
{-0.9617399}
{0.7883753}
{0.5306846}
{-0.37183446}
{-0.7868916}
{0.7853086}
{0.4547847}
{-0.7041853}
{-0.5030066}
{-0.11253058}
{0.36457017}
{-0.34680653}
{-0.48415148}
{0.6798257}
{0.4803086}
{0.06981135}
{-0.8181411}
{-0.81044924}
{-0.34146032}
{0.17283793}
{-0.16525677}
{-0.2829452}
{-0.5848574}
{-0.46662575}
{-0.821118}
{0.6033763}
{0.63206863}
{0.5438071}
{-0.8004998}
{-0.5655708}
{0.7680617}
{0.52977526}
{-0.30152062}
{-0.5762031}
{-0.2665817}
{0.41045818}
{0.022478746}
{-0.40744942}
{0.19287954}
{-0.55455065}
{-0.4139476}
{-0.46325925}
{0.028481668}
{-0.8163384}
{-0.8333298}
{0.15035716}
{-0.7895028}
{-0.117594734}
{0.5432676}
{0.22812387}
{-0.41299516}
{0.53264564}
{0.9545232}
{0.94640887}
{0.37080532}
{-0.7918005}
{-0.9666196}
{-0.5459162}
{0.60950845}
{-0.6743499}
{0.5337008}
{0.1327303}
{0.955549}
{-0.43991402}
{-0.66103494}
{-0.5324186}
{-0.62377214}
{-0.38092363}
{-0.059813842}
{0.32873505}
{0.60506827}
{-0.34084088}
{0.9414762}
{0.960488}
{-0.003088583}
{-0.12278967}
{0.229449}
{0.5230884}
{0.7058181}
{-0.21226355}
{-0.79828274}
{0.57120746}
{-0.40538004}
{0.4407718}
{0.11710394}
{-0.79992133}
{-0.95476985}
{0.14538878}
{0.8429035}
{-0.8932573}
{0.15123954}
{-0.8434891}
{0.9305481}
{-0.0016190888}
{-0.3885169}
{0.45770073}
{0.75939524}
{0.46264288}
{0.18214768}
{0.7557207}
{0.36455962}
{-0.56506926}
{-0.64455605}
{-0.4860635}
{0.045667816}
{-0.96572}
{-0.51537687}
{0.8629202}
{0.69882405}
{0.51309985}
{0.2716664}
{-0.13587467}
{-0.07799279}
{0.062323786}
{-0.5144246}
{0.038223546}
{-0.90846}
{0.69669455}
{-0.49733844}
{-0.28968605}
{-0.32111147}
{-0.41502607}
{-0.4847323}
{0.3557224}
{0.92212546}
{-0.5063586}
{0.6733869}
{-0.5970463}
{0.8426026}
{0.21259129}
{0.26175743}
{-0.27616394}
{0.7652403}
{0.7893587}
{0.39447004}
{0.12417516}
{-0.40840343}
{0.7404375}
{0.1391128}
{-0.72795486}
{-0.41413453}
{0.61188716}
{-0.10994149}
{0.27909446}
{0.7352208}
{0.62599957}
{0.12626642}
{0.54906875}
{0.94858587}
{0.077933185}
{0.43485612}
{-0.029979857}
{-0.27793935}
{-0.4729565}
{-0.42372748}
{0.372246}
{0.70438373}
{0.14498578}
{-0.10826351}
{0.23029925}
{-0.022928547}
{0.42430964}
{-0.31988236}
{0.08688064}
{-0.32464698}
{0.31865188}
{-0.4261185}
{-0.22391723}
{0.41022393}
{0.077870436}
{0.2120712}
{0.497692}
{0.6969012}
{-0.023423042}
{-0.7160733}
{-0.56328547}
{-0.39771774}
{-0.9249253}
{-0.90367734}
{0.27627972}
{0.16702935}
{0.18328783}
{0.7708872}
{-0.36836702}
{-0.24364331}
{-0.22942793}
{0.5904318}
{0.65515536}
{-0.8637475}
{0.22168972}
{-0.81537604}
{0.86585647}
{0.6692194}
{0.18360832}
{-0.6098447}
{0.5344683}
{-0.87950075}
{-0.6735975}
{0.5220903}
{-0.039600845}
{0.17129084}
{-0.14954622}
{-0.38207954}
{0.93893224}
{0.623417}
{-0.44453967}
{0.55681086}
{-0.37735555}
{-0.49762374}
{0.11348459}
{-0.7104434}
{0.99705803}
{0.32404825}
{-0.22695808}
{-0.5573479}
{0.106378645}
{0.11236895}
{0.04524883}
{-0.43755788}
{-0.8500614}
{-0.52600276}
{-0.122820325}
{0.5206747}
{0.036243342}
{0.11914576}
{-0.5266227}
{0.8564244}
{-0.085103594}
{0.18572757}
{-0.9179756}
{0.08491145}
{-0.85427994}
{-0.57401884}
{0.22306165}
{0.50809103}
{0.95333505}
{0.66680944}
{0.5274858}
{0.45205185}
{0.455302}
{0.8838285}
{0.29918268}
{0.6889462}
{-0.83823997}
{-0.07407176}
{-0.5073564}
{0.74269205}
{-0.2966309}
{0.74705684}
{-0.22783777}
{-0.4252949}
{0.1412025}
{-0.95206606}
{0.34446365}
{0.43396086}
{-0.3234895}
{1.0077068}
{-0.16443329}
{0.21420956}
{-0.09460668}
{-0.26732615}
{0.17124727}
{0.105192825}
{-0.01708403}
{-0.018256735}
{-0.6727884}
{0.82459867}
{0.25053144}
{-0.6532842}
{-0.7455374}
{0.5705057}
{0.14710586}
{-0.8118428}
{-1.058237}
{0.8896481}
{0.4480609}
{-0.82378066}
{-0.67448384}
{-0.06633529}
{0.31094623}
{-0.96023023}
{0.56537825}
{0.16054682}
{0.17491396}
{-0.6822115}
{-1.0106626}
{-0.7066594}
{-0.06812565}
{0.026764799}
{-0.09005204}
{0.15886496}
{-0.057032518}
{0.95540655}
{0.46254873}
{-0.17616163}
{-0.08582746}
{-0.9120225}
{-0.060140405}
{0.91579705}
{-0.35799345}
{1.0171472}
{0.42002794}
{-0.44206953}
{-0.33521658}
{0.46935388}
{-0.69881725}
{0.60643464}
{-0.23758015}
{0.9647411}
{-0.43059438}
{-0.8178113}
{-0.21816623}
{0.5498191}
{-0.74241424}
{-0.4180885}
{0.36094457}
{0.04930489}
{0.42060748}
{0.6574729}
{0.26498547}
{0.49583885}
{-0.6205279}
{-1.019837}
{0.108209856}
{-0.93026507}
{0.90769666}
{-0.57246983}
{-0.5794886}
{0.29240748}
{-0.29287785}
{0.34436837}
{0.5782969}
{0.19670197}
{-0.12312501}
{-0.93371546}
{-0.24923798}
{0.31302592}
{-1.0576152}
{-0.011142185}
{-0.33999103}
{0.6647614}
{0.8295035}
{0.8213145}
{0.53795034}
{-0.35226968}
{0.77954596}
{-0.11346117}
{0.23327792}
{0.34511134}
{0.30590123}
{-0.64245397}
{0.27411643}
{0.6967205}
{0.27358574}
{-0.589452}
{0.91904086}
{-0.7013513}
{-0.44461617}
{0.19479223}
{-0.24918312}
{-0.17320326}
{0.007205625}
{-0.07610641}
{0.23428448}
{-0.31863907}
{0.57036185}
{0.59988785}
{-0.57223505}
{0.06610219}
{-0.07810234}
{-0.81025195}
{-0.57958174}
{-0.45023182}
{0.3499976}
{-1.0423204}
{-0.2274191}
{0.18534061}
{0.25796288}
{0.17143708}
{0.32513148}
{-0.16292337}
{-0.3752334}
{0.81255394}
{-0.53970426}
{0.7110108}
{0.24468656}
{-0.71914184}
{-0.83934253}
{0.94563377}
{-0.6408618}
{-0.86689407}
{0.12507887}
{-0.12441806}
{-0.91401035}
{0.015185651}
{-0.07988601}
{0.32310483}
{0.29936364}
{-0.038842022}
{-0.38218322}
{0.87955534}
{-0.8655375}
{0.41961014}
{-0.84402674}
{0.47559187}
{-0.3748646}
{0.58763915}
{-0.11071911}
{0.19099328}
{0.66916925}
{0.5878054}
{-0.7381313}
{0.14683864}
{0.92462987}
{0.46583623}
{-0.13117461}
{0.44856736}
{0.045488484}
{-0.6692452}
{0.45966035}
{-0.079490535}
{0.33230463}
{-0.030012865}
{-0.83426094}
{0.14700744}
{1.0171366}
{-0.9047104}
{-0.5215366}
{-0.2859464}
{0.69622856}
{-0.54780424}
{0.0026868726}
{-0.30875686}
{-0.41204035}
{0.6117222}
{0.34062982}
{0.43361375}
{0.4770972}
{0.78739387}
{0.29468244}
{0.4787645}
{-0.3220532}
{-0.1117493}
{0.17352648}
{0.8276473}
{-0.1243894}
{-0.8060619}
{-0.19288608}
{0.59574234}
{-0.7484849}
{0.43133515}
{0.4674704}
{0.8402108}
{-0.35803926}
{-0.20541641}
{-0.07511165}
{0.6096517}
{0.35852936}
{-0.8167756}
{0.9172042}
{0.2945864}
{0.08660544}
{-0.79476905}
{0.9769878}
{-0.8546976}
{0.6271465}
{0.86787814}
{-0.8659064}
{0.7660397}
{-0.5546726}
{0.76487494}
{-0.28420702}
{-0.43292573}
{0.079196736}
{0.10401047}
{-0.42479363}
{-0.81651795}
{-0.117064774}
{0.40338692}
{0.6092786}
{0.16903278}
{-0.19129185}
{-0.3867539}
{0.7112538}
{0.8067273}
{-0.32219934}
{-0.9029826}
{0.6920569}
{0.5516542}
{-0.22942212}
{0.56924194}
{0.38376558}
{0.68177235}
{0.41588944}
{0.8098514}
{0.7680387}
{0.10291303}
{-1.0018473}
{-0.6100626}
{-0.033516005}
{0.17739841}
{-0.47483972}
{0.46266925}
{0.7850721}
{-0.5634941}
{-0.9493836}
{0.68261236}
{-0.14127137}
{0.41097996}
{-0.3285514}
{0.55498123}
{0.20155157}
{-0.65816796}
{-0.08562612}
{-0.97091347}
{-0.076425366}
{0.6355208}
{-0.7620103}
{-0.9542278}
{-0.20189741}
{0.55553806}
{-0.46981195}
{0.40799907}
{0.9460926}
{0.22613165}
{0.84945154}
{0.9429353}
{-0.75938755}
{1.0135623}
{0.55270463}
{-0.1662812}
{0.5226583}
{-0.8739902}
{-0.13043393}
{-0.0033586929}
{0.17808929}
{-0.14418319}
{-0.096773475}
{0.49703225}
{-0.53154314}
{-0.41605905}
{1.0002469}
{-0.44511977}
{-0.826153}
{-0.25793388}
{0.6161977}
{-0.49851015}
{0.61456203}
{-0.40375522}
{-0.5726578}
{-0.49084583}
{-0.9211993}
{-0.2004092}
{0.40183505}
{-0.017376043}
{-0.051178005}
{0.6713282}
{-0.09907739}
{0.39662006}
{-0.6628731}
{0.39425012}
{0.75131935}
{0.9467229}
{0.00097134593}
{-0.57427895}
{0.9105531}
{0.683352}
{-0.6355872}
{0.96431196}
{-0.37863937}
{-0.8369263}
{0.9336288}
{0.7530483}
{-0.9233488}
{0.7053609}
{0.042295255}
{-0.9479848}
{0.6285712}
{0.97339404}
{-0.7793325}
{0.7637073}
{-0.013500854}
{0.10374176}
{0.2334967}
{-0.0044251196}
{-0.29974672}
{0.23928484}
{0.9350376}
{0.7764813}
{0.5288448}
{-0.72923386}
{-0.6815364}
{-0.6871704}
{-0.54213893}
{0.052854724}
{-0.09943346}
{1.0008675}
{0.05475916}
{0.18305516}
{-0.6066053}
{0.81941974}
{0.22484037}
{-0.08856293}
{-0.5650835}
{0.75266325}
{-0.39805835}
{-0.49005976}
{0.055671107}
{-0.1637316}
{0.78927594}
{0.33980525}
{0.67574173}
{-0.89255464}
{0.24804896}
{0.5569057}
{-0.56518143}
{-0.93259084}
{0.7301344}
{0.010236578}
{-0.62192416}
{-0.7932862}
{-0.57893974}
{-0.08279294}
{-0.61518}
{-0.20256999}
{-0.44252795}
{0.7899059}
{0.7348931}
{-0.0677489}
{0.50048816}
{0.5875212}
{-0.8908634}
{0.6222104}
{0.12851489}
{0.2857623}
{0.55121154}
{-0.36379483}
{0.7816653}
{-0.7991859}
{0.5602765}
{-0.9256793}
{-1.0321165}
{-0.0044541964}
{-0.11783603}
{0.85224426}
{-0.36654446}
{0.19560528}
{0.026597083}
{-0.45829585}
{-0.015508319}
{0.35583752}
{-0.9411454}
{-0.60492384}
{-0.84770644}
{-0.28855535}
{0.687319}
{0.23750374}
{-0.44851676}
{0.8369605}
{0.53466713}
{-0.8163594}
{0.23647451}
{-0.16985318}
{0.378609}
{-0.18146017}
{-0.4754721}
{-0.21329291}
{0.6387001}
{0.9406284}
{-0.33168393}
{0.6082823}
{-0.50627923}
{-0.3925822}
{0.91009086}
{-0.76506597}
{0.18644813}
{0.17270085}
{0.42292923}
{0.7497052}
{-0.533566}
{0.21081993}
{-0.23972574}
{0.016163286}
{0.65198356}
{0.46448323}
{-0.27567774}
{0.032694086}
{-0.33460045}
{0.054350782}
{-0.9048774}
{0.2960011}
{0.413336}
{-0.97458375}
{-0.37471285}
{0.44394922}
{-0.0036960323}
{0.73598707}
{-0.0768506}
{0.04666859}
{-0.9077097}
{-0.81836283}
{0.42964113}
{0.030817151}
{-0.80286306}
{0.24645111}
{0.44128895}
{0.09276539}
{0.086009964}
{-0.059960708}
{-0.7911523}
{-0.20841688}
{-0.9078848}
{0.83763635}
{-0.4783854}
{-0.8263954}
{-0.31272617}
{-0.25856426}
{-0.13317494}
{0.17365801}
{0.090412825}
{0.4729378}
{0.2162403}
{0.830455}
{-0.21425238}
{0.81933916}
{0.71148443}
{-0.84655267}
{0.04970032}
{0.8253137}
{0.848067}
{0.7031556}
{0.3651357}
{0.46720764}
{-0.3962253}
{-0.59896624}
{-0.44286156}
{0.9926127}
{-0.56688356}
{0.40733704}
{0.5338134}
{0.9860157}
{0.25521672}
{-0.84714246}
{-0.02019447}
{-0.01825459}
{0.32582593}
{-0.98152876}
{0.69188124}
{0.11438335}
{0.13113882}
{-0.90534216}
{-0.15189388}
{0.32890722}
{-0.2389218}
{0.09659933}
{-0.10633148}
{0.41531965}
{-0.68289036}
{0.3437486}
{0.6108811}
{0.743085}
{0.17374358}
{-0.93988717}
{0.7008135}
{0.3162782}
{0.5593017}
{-0.96469325}
{-0.18117976}
{-0.09242403}
{0.7816322}
{0.6649398}
{-0.7698526}
{0.16876814}
{0.8678792}
{-0.9212127}
{0.10713143}
{-0.45520046}
{-0.48536447}
{0.7041335}
{0.69635934}
{0.047431875}
{0.55752146}
{-0.16762303}
{-0.61830974}
{0.75331867}
{-0.7756527}
{0.33613342}
{0.7687432}
{0.62377393}
{0.5826766}
{-0.46304864}
{-0.38426894}
{0.008591819}
{-0.28995377}
{-0.75770795}
{-0.62691903}
{0.66608226}
{0.31982967}
{0.19709723}
{0.085452355}
{0.108683474}
{0.68241894}
{-0.63183826}
{-0.026540244}
{0.7499944}
{0.6556961}
{-0.21855602}
{-0.21479256}
{0.9955946}
{0.6361182}
{-0.9326947}
{0.40959188}
{-0.038764548}
{0.49647436}
{0.87781376}
{-0.7003459}
{-0.74956954}
{-0.5826745}
{0.018350484}
{0.74314725}
{0.56626093}
{0.9852587}
{-0.303433}
{-0.69341743}
{0.6628319}
{-0.68638164}
{0.17129987}
{1.0259316}
{0.13779753}
{-0.5733735}
{0.7732894}
{-0.69199455}
{-0.30595902}
{0.5663234}
{-0.3522649}
{-0.119647235}
{-0.533785}
{0.26298013}
{-0.8613663}
{-0.8967461}
{0.8128022}
{-0.4409082}
{-1.0037353}
{0.0064233136}
{0.6573957}
{0.9618852}
{0.88952816}
{-0.13815022}
{-0.66555583}
{0.7214558}
{0.31081447}
{-0.44944394}
{-0.5407368}
{-0.65071255}
{-0.24853891}
{0.9577815}
{1.0213181}
{0.17816076}
{-0.040429577}
{-0.44900277}
{-0.10310971}
{0.46871984}
{0.18336022}
{0.9052718}
{-0.6556901}
{0.86744833}
{-0.82222044}
{0.6611859}
{-0.197063}
{0.37051868}
{0.7991033}
{-0.12796257}
{-0.9723922}
{-0.29019144}
{0.6535987}
{-0.35418767}
{0.25265405}
{-0.029512785}
{0.76508915}
{-0.58821094}
{0.69663584}
{-0.07908877}
{0.37419108}
{-0.5561166}
{0.90277374}
{0.36878684}
{0.83100104}
{-0.33373836}
{-0.6271447}
{-0.4124416}
{-0.9398568}
{-0.7353434}
{0.42291638}
{0.8896325}
{0.5058145}
{-0.7731039}
{0.98596394}
{0.6941535}
{0.55531377}
{0.6108729}
{-0.37968543}
{-0.47759026}
{-0.64118373}
{0.14412175}
{-0.09514915}
{-0.41127652}
{-0.6860309}
{0.45915717}
{0.39285728}
{-0.047264714}
{0.1409362}
{0.54492915}
{0.49784344}
{-0.821757}
{-0.39561254}
{-0.5949322}
{0.12626113}
{0.44394082}
{0.38627797}
{-0.24268568}
{-0.3997369}
{0.33427748}
{0.00564711}
{-0.69278634}
{0.32087728}
{0.6451438}
{0.23900981}
{-0.7706668}
{0.9755827}
{0.8739614}
{-0.26410958}
{0.3832316}
{-0.20408538}
{0.96403253}
{0.10743519}
{0.970177}
{-0.8530668}
{1.0103952}
{0.8836599}
{-0.26963452}
{0.32622692}
{0.24487643}
{-0.55591583}
{0.6923547}
{-0.627272}
{-0.2055786}
{-0.95913726}
{-0.55585223}
{-0.18969443}
{0.23259462}
{-0.09593165}
{0.8140813}
{0.13407652}
{-0.9472855}
{0.41820556}
{0.7569004}
{0.7869135}
{0.8900893}
{0.026303139}
{-0.5365933}
{-0.18119505}
{-0.49765596}
{-0.6766468}
{-0.08761267}
{0.60875237}
{-0.11793921}
{-0.2496074}
{0.26418677}
{0.7407814}
{0.10585795}
{0.8882449}
{0.77971286}
{-0.44369033}
{-0.0908628}
{0.08692093}
{0.025154568}
{-0.96420515}
{0.4872789}
{0.5840234}
{-0.7838444}
{0.39156505}
{0.29581052}
{-0.33679503}
{0.06581932}
{0.11929525}
{-0.47504318}
{0.6560621}
{0.5425741}
{-0.61208}
{-0.65223706}
{-0.42008883}
{-0.66685444}
{0.4449515}
{-0.22371688}
{0.09025205}
{0.4415733}
{0.06848756}
{0.38595167}
{-0.42095956}
{-0.5590024}
{0.55376875}
{0.20976284}
{0.03785151}
{-0.24354716}
{-0.40235642}
{-0.45996302}
{-0.9640891}
{0.18627016}
{-0.8581542}
{0.05809278}
{0.24931239}
{0.6026478}
{0.20334741}
{0.08411873}
{0.5211672}
{-0.8179507}
{-0.52224267}
{0.46321592}
{0.17834842}
{0.5935707}
{-0.30125287}
{-0.9345592}
{0.4678072}
{0.9051701}
{0.17547938}
{-0.19358794}
{-0.16103524}
{0.54181194}
{0.3301818}
{-0.58738536}
{-0.13404413}
{-0.5779319}
{-0.7696928}
{-0.22864307}
{0.62482077}
{-0.8774693}
{-0.297879}
{-0.4268388}
{0.07270949}
{0.24569167}
{0.22225615}
{0.9976144}
{-0.6385134}
{0.5597663}
{0.7233759}
{-0.32032478}
{-0.3264676}
{0.52929217}
{0.29621956}
{-0.16581722}
{0.8256654}
{-0.13534415}
{-0.17760876}
{0.973681}
{-0.27798018}
{0.59761024}
{-0.30364063}
{-0.40999743}
{0.19700877}
{-0.23163645}
{0.06036918}
{0.49781963}
{-0.41001648}
{0.5634445}
{-0.7408973}
{-0.8911963}
{0.72102636}
{-0.8571446}
{0.84338796}
