-- Efficiency --
94.933334
-- Weights --
{-0.9585314}
{0.89929813}
{0.2669932}
{-0.25171942}
{0.42921436}
{-0.4570623}
{0.69812983}
{-0.8762862}
{-0.0114902705}
{0.9553997}
{-0.7874815}
{0.17190824}
{-0.8288014}
{0.30242822}
{-0.0052547418}
{-0.65910065}
{0.18208873}
{-0.92000014}
{0.56221026}
{-0.9423782}
{0.90887785}
{-0.7422105}
{-0.41713664}
{0.5489957}
{0.9946625}
{1.0186598}
{-0.32594606}
{0.5492258}
{0.86958337}
{-0.7158846}
{0.07170325}
{-0.89387023}
{0.32508767}
{-0.40622446}
{0.8646507}
{-0.6289174}
{-0.034129307}
{-0.698389}
{0.42268264}
{-0.54674715}
{-0.50490713}
{-0.21747212}
{0.8892447}
{0.9665174}
{-0.8322537}
{0.12625179}
{-0.7656122}
{-0.8779995}
{-0.19601715}
{-0.016386744}
{0.99613935}
{-0.36699033}
{-0.8531761}
{-0.41810793}
{-0.7044814}
{-0.7723245}
{0.2712065}
{-0.63643074}
{-0.7998858}
{-0.36373553}
{0.6868336}
{-0.43005243}
{-0.109301545}
{-0.21599686}
{0.95392704}
{-0.8210577}
{-0.4140635}
{0.0913378}
{-0.474975}
{0.52975774}
{-0.15979838}
{-0.11942272}
{-0.10287973}
{-0.36393717}
{0.4392485}
{-0.37947696}
{0.56547976}
{-0.348548}
{0.025491515}
{0.116947785}
{0.5512247}
{0.2127596}
{0.72761285}
{-0.52062154}
{0.6101999}
{-0.444375}
{0.925976}
{0.23143557}
{0.6933024}
{1.0477997}
{0.62328404}
{0.7124604}
{0.5845039}
{0.8159483}
{-0.17469537}
{0.19681828}
{-0.8654914}
{0.31699502}
{0.004148905}
{0.70447916}
{-0.8121023}
{-0.6238151}
{0.5303756}
{0.6888556}
{-0.9495995}
{0.342156}
{-0.41947523}
{-0.16615549}
{0.52819204}
{-0.5821931}
{-0.16048831}
{-0.40826696}
{0.8725691}
{0.8479411}
{-0.065782234}
{-0.47679347}
{0.38061702}
{-0.75564337}
{0.20475312}
{0.28897086}
{-0.8413768}
{0.84894496}
{-0.09199983}
{-0.20183925}
{-0.71605134}
{-0.702472}
{0.028155778}
{-0.14336911}
{0.48926032}
{-0.9132322}
{-0.57375914}
{-0.6260127}
{-0.86946654}
{-0.61812407}
{-0.51444423}
{0.120345615}
{-0.5179806}
{0.28914216}
{-0.61276984}
{-0.14204203}
{0.86632895}
{0.12671502}
{0.01659068}
{0.85664725}
{-0.64695287}
{-0.67170066}
{0.22286342}
{-0.23583232}
{-0.86923933}
{0.42738464}
{-0.5931634}
{-0.1443457}
{-0.8529935}
{0.60135055}
{-0.031844173}
{-0.5197961}
{0.6913252}
{-0.8332127}
{-0.02184876}
{0.9383952}
{1.0114498}
{0.8745493}
{-0.51730496}
{-0.78643227}
{0.312338}
{0.22897811}
{-0.6341786}
{0.32256052}
{0.48005426}
{0.28389215}
{0.9087517}
{-0.7150779}
{-0.36993277}
{0.86513025}
{0.38874093}
{0.95373875}
{0.5740912}
{0.08492285}
{0.17873725}
{0.6832441}
{0.6411655}
{0.066654995}
{-0.1408215}
{-0.13501154}
{-0.11493032}
{0.49123973}
{-0.51200485}
{-0.43269673}
{0.33472311}
{0.38114968}
{0.073039874}
{0.8912033}
{0.84837437}
{0.6998554}
{-0.3748599}
{-0.48612744}
{0.40602982}
{-0.23106202}
{0.53984964}
{0.97388536}
{0.19311035}
{-0.502264}
{0.12982386}
{0.57607794}
{0.922668}
{0.74143255}
{0.9355254}
{0.11805976}
{0.13568862}
{-0.2446324}
{-0.27704427}
{-0.90922064}
{-0.49742812}
{-0.12802431}
{-0.950457}
{-0.8590968}
{-0.6711979}
{0.8807426}
{0.64142466}
{-0.37208194}
{-0.18320167}
{0.30316746}
{0.32997555}
{-0.7127602}
{0.8636031}
{-0.51554585}
{-0.68023455}
{0.65298116}
{-0.29282343}
{0.07239838}
{-0.6310341}
{0.13650718}
{-0.71187544}
{-0.0926178}
{0.94993716}
{-0.68313336}
{0.206097}
{0.6780654}
{0.4864844}
{1.026988}
{0.14541613}
{-0.6459685}
{0.45090875}
{0.63177496}
{0.09631041}
{-0.087649964}
{0.7536603}
{0.44465396}
{-0.43251908}
{-0.42540672}
{0.33495656}
{-0.10334468}
{-0.07380244}
{-0.03295104}
{0.72207725}
{0.7703978}
{-0.5831711}
{-0.26209503}
{-0.74433774}
{0.76987153}
{-0.4218408}
{-0.87506646}
{0.2969966}
{0.51699793}
{0.68023896}
{-0.2547919}
{0.9208884}
{0.16648887}
{-0.13494098}
{0.21632442}
{0.21151617}
{-0.3917345}
{0.50604796}
{0.9767242}
{-0.001794226}
{0.33745387}
{-0.19795763}
{-0.724854}
{0.48729578}
{0.52168477}
{-0.7961743}
{0.53484625}
{0.82264423}
{0.21464609}
{0.10167149}
{0.62785405}
{-0.4245806}
{0.23511872}
{0.68121266}
{0.3761927}
{-0.21362354}
{0.73922855}
{-0.120909594}
{-0.83687484}
{-0.93386954}
{-0.255788}
{0.7759397}
{0.74331146}
{0.15765817}
{-0.73019814}
{-0.5476105}
{0.89519125}
{-0.43800715}
{-0.80367315}
{-0.76282763}
{-0.11496585}
{0.11470646}
{-0.7465956}
{-0.4349662}
{0.8010907}
{-0.14675517}
{0.9486944}
{-0.37957633}
{-0.67765164}
{-0.7499652}
{0.9998352}
{0.42083466}
{-0.24993925}
{-0.50917214}
{-0.7634548}
{-0.3268708}
{-0.074905865}
{0.39270246}
{-0.8145686}
{0.052297905}
{0.7577403}
{-0.70434827}
{0.6595356}
{-0.4736327}
{-0.90361005}
{-0.63496}
{0.70579195}
{0.6496155}
{-0.7153538}
{0.805233}
{0.0052945353}
{0.1526562}
{-0.8707524}
{-0.15274096}
{-0.440804}
{-0.36695278}
{0.84987354}
{0.9242505}
{-0.33652756}
{0.43061674}
{-0.7758496}
{0.35232127}
{-0.43666092}
{0.4899727}
{-0.67335105}
{1.0013891}
{0.6990772}
{0.44574106}
{-0.2328303}
{-0.2517443}
{-0.3379481}
{0.25269306}
{-0.92022353}
{-0.57227844}
{0.075656496}
{0.051410988}
{0.32039374}
{0.6373147}
{-0.22134392}
{-0.7538297}
{-0.820759}
{0.1397469}
{0.08211669}
{0.5137829}
{-0.67228687}
{-0.6374428}
{-0.56042546}
{-0.0060085505}
{-0.080885485}
{0.14061534}
{1.0389704}
{0.36038482}
{0.1429633}
{-0.24147518}
{-0.57012206}
{0.19990337}
{-0.4600877}
{-0.58660644}
{-0.62898535}
{0.13224822}
{0.7304789}
{0.06700156}
{0.3976374}
{0.48677766}
{1.0099123}
{0.09190973}
{0.9710272}
{0.0527447}
{-0.8765117}
{-0.4622874}
{0.19902308}
{-0.0883877}
{-0.8352119}
{0.11642284}
{0.6454721}
{0.97887564}
{-0.009063132}
{-0.6545651}
{-0.0879087}
{-0.687093}
{0.5499188}
{-0.47597376}
{0.60640055}
{-0.33242643}
{0.96140206}
{0.55919105}
{-0.025194298}
{0.598274}
{-0.65275127}
{0.68442005}
{-0.33861846}
{0.68020296}
{-0.2973268}
{-0.9415028}
{-0.46769866}
{-0.6244488}
{-0.022741286}
{-0.432422}
{0.24890037}
{0.7465544}
{0.68797827}
{0.09008498}
{-0.25560105}
{-0.061976638}
{-0.4927653}
{0.37883106}
{0.2514145}
{0.8399744}
{0.74976945}
{-0.345764}
{-0.5097344}
{-0.9583292}
{-0.10316181}
{-0.39690703}
{-0.8546962}
{0.24565828}
{0.7995497}
{0.7843103}
{0.61076576}
{-0.39451587}
{0.48627058}
{-0.061306182}
{-0.7161359}
{-0.31050956}
{0.65852123}
{-0.8091786}
{0.74653584}
{0.28141487}
{-0.74303764}
{-0.07666959}
{0.4699075}
{0.65478134}
{-0.08854793}
{-0.7004943}
{-0.91997826}
{0.15740073}
{0.9194542}
{0.42379564}
{0.75835174}
{-0.6582885}
{-0.28115132}
{0.40270573}
{-0.43249434}
{0.78155255}
{0.79903287}
{0.9216764}
{-0.8611676}
{-0.5753622}
{0.12592794}
{0.2371148}
{-0.5935227}
{0.27622283}
{-0.4284857}
{-0.0698322}
{-0.91520816}
{0.36922133}
{0.11662391}
{-0.29751343}
{-0.063006155}
{0.37466872}
{0.8391728}
{-0.89717823}
{0.3043734}
{0.61044145}
{-0.5675247}
{-0.89711034}
{0.13945559}
{-0.5417714}
{-0.5904702}
{-0.6776881}
{-0.4690492}
{0.3458637}
{-0.3436964}
{-0.1216338}
{0.19338505}
{-0.43299425}
{0.116496235}
{0.13372678}
{0.9802118}
{-0.34447634}
{-0.82897055}
{0.8123261}
{0.97712433}
{-0.0150040835}
{0.032471348}
{-0.5452778}
{-0.6417478}
{-0.55315614}
{-0.1263721}
{0.28663215}
{0.81350344}
{0.22396433}
{-0.4182991}
{-0.4655964}
{0.6806092}
{-0.64067245}
{-0.24280776}
{0.84302324}
{0.4810798}
{-0.02897279}
{-0.7311739}
{-0.6105747}
{-0.9243686}
{-0.27185404}
{-0.64053136}
{-0.77684706}
{-0.6129355}
{-0.5338023}
{0.24418895}
{-0.6770199}
{0.26266906}
{0.1746043}
{0.40392372}
{0.48805988}
{-0.4337687}
{0.23147404}
{-0.8322116}
{-0.8833511}
{-0.8415184}
{0.8528807}
{0.42538995}
{-0.5271023}
{-0.8355664}
{0.5540161}
{-0.6173217}
{0.67209727}
{0.068966106}
{-0.04696077}
{-0.5120022}
{0.12018232}
{0.9376467}
{-0.27081144}
{0.7250758}
{0.57971853}
{-0.00089175353}
{-0.48333713}
{-0.46947393}
{-0.80895996}
{0.26286077}
{0.59954834}
{-0.73407406}
{0.5607871}
{-0.9145774}
{0.69749}
{0.1299258}
{-0.4980303}
{0.29970926}
{-0.42061985}
{0.8846561}
{-0.9251604}
{0.52192265}
{-0.41111362}
{-0.94578326}
{0.9176852}
{-0.6665246}
{-0.18015516}
{0.71476305}
{-0.83309317}
{-0.9368145}
{0.8044536}
{0.7994465}
{0.2832366}
{0.44540107}
{-0.24149287}
{-0.9020826}
{-0.9263664}
{-0.35140252}
{-0.12379325}
{0.05321081}
{0.12163636}
{-0.22676037}
{-0.71588135}
{0.089248724}
{-0.80659574}
{0.19765043}
{0.005848958}
{0.11419505}
{0.1301807}
{-0.54162246}
{-0.05037755}
{-0.1813924}
{-0.82177365}
{-0.77547663}
{-0.5760689}
{-0.26147187}
{0.7711118}
{0.2570917}
{-0.5751376}
{-0.16144049}
{-0.065361865}
{-0.07114278}
{0.9083588}
{0.6286307}
{-0.52486414}
{0.25288296}
{0.9331591}
{-0.6419627}
{0.12438175}
{1.0089225}
{-0.8583565}
{0.2991492}
{0.5196906}
{0.43311656}
{0.29697073}
{-0.16284002}
{-0.6493787}
{-0.06808688}
{0.4300593}
{-0.5015399}
{-0.21809758}
{-0.7057217}
{-0.9630351}
{0.031107482}
{-0.28011757}
{-0.90073705}
{0.5492654}
{0.4707321}
{-0.22679217}
{-0.3170153}
{0.9244375}
{0.25170287}
{0.73480564}
{0.5981333}
{-0.8876152}
{0.69968486}
{0.88838583}
{0.79851604}
{-0.0708234}
{-0.60704666}
{-0.7468288}
{-0.799774}
{0.2958964}
{0.35716927}
{0.7311288}
{0.9198004}
{0.89028573}
{0.26141962}
{-0.1422603}
{0.8940583}
{0.77234244}
{-0.23828587}
{-0.7702669}
{-0.17494622}
{0.6614499}
{0.8703315}
{0.53277683}
{0.7523612}
{-0.9012797}
{-0.6357367}
{-0.2794341}
{-0.21888605}
{0.19178951}
{-0.7948203}
{0.61102825}
{0.8824528}
{-0.61821103}
{0.2629668}
{-0.26086906}
{-0.76867175}
{-0.1809665}
{-0.75328857}
{-0.7979958}
{-0.54711634}
{0.5269687}
{0.63295984}
{0.8400272}
{-0.77162945}
{0.016256167}
{-0.24774145}
{1.0138777}
{-0.67459065}
{-0.8390906}
{-0.1961008}
{0.42213333}
{-0.44519153}
{1.0107946}
{-0.47046235}
{-0.14711915}
{0.44143176}
{-0.14044225}
{0.957357}
{0.726103}
{0.1799342}
{0.5831342}
{0.3044147}
{-0.33962697}
{0.3853829}
{0.24783671}
{-0.14664589}
{0.6551749}
{0.76098615}
{-0.64052653}
{0.3831483}
{0.90939575}
{0.03400908}
{-0.048116624}
{-0.4108533}
{-0.70316094}
{-0.6777973}
{-0.2893461}
{-0.88112015}
{0.008639745}
{0.7634168}
{-0.53269386}
{0.35891265}
{0.2794626}
{-0.52029395}
{-0.9392803}
{0.9414608}
{0.2856185}
{0.28460845}
{0.05957611}
{-0.8836207}
{-0.13815339}
{-0.4786589}
{-0.030759498}
{0.43718162}
{0.33706066}
{-0.70608646}
{-0.88139343}
{0.28673238}
{-0.08093158}
{0.8495856}
{0.37184465}
{0.19145474}
{-0.52820075}
{-0.8587824}
{-0.124092706}
{-0.41286042}
{0.060607955}
{-0.16610931}
{-0.42457163}
{0.71487015}
{0.7253817}
{-0.038209822}
{0.12059334}
{-0.54384184}
{0.69031286}
{-0.30949664}
{-0.9133918}
{-0.57433754}
{0.2501264}
{0.061681345}
{0.7072799}
{-0.15440492}
{-0.6390399}
{-0.22598743}
{0.94589496}
{0.41808447}
{0.23846151}
{0.1080196}
{-0.7746458}
{0.53346336}
{0.50505304}
{0.9665211}
{-0.2687708}
{0.038994666}
{0.7275206}
{0.9758126}
{-0.1268102}
{0.06408551}
{-0.7957844}
{-0.6351415}
{0.3885876}
{0.9900119}
{0.6399305}
{-0.7846221}
{-0.8787391}
{-0.32490593}
{-0.21556512}
{-0.92991704}
{0.04173644}
{0.8309819}
{0.8662088}
{0.6220587}
{0.3805765}
{0.8433176}
{-0.007389972}
{-0.17911336}
{0.30568326}
{-0.7240327}
{-0.88447213}
{-0.3372182}
{-0.3883127}
{0.18090427}
{-0.29666114}
{-0.07367726}
{1.0128396}
{-0.6267287}
{0.7825165}
{0.47630647}
{-0.012100384}
{-0.93529016}
{0.037962824}
{0.4194532}
{-0.5301783}
{-0.061273444}
{-0.7316802}
{-0.5866966}
{0.34772265}
{-0.05248359}
{0.33681285}
{0.3669771}
{-0.9198556}
{0.025168646}
{-0.4485155}
{0.58784425}
{-0.27750647}
{0.036415968}
{0.0348868}
{-0.8958871}
{0.9237187}
{-0.6077131}
{0.42465433}
{-0.3747333}
{-0.74472785}
{0.01783155}
{-0.41013333}
{0.97532046}
{-0.24465859}
{-0.010965975}
{-0.50875044}
{0.3133823}
{0.6893351}
{-0.24605617}
{0.8975124}
{0.27531502}
{0.02668102}
{0.53056633}
{-0.47826225}
{-0.050530326}
{-0.316234}
{-0.12674895}
{0.68580073}
{1.0101904}
{-0.43991148}
{0.6771626}
{-0.18692619}
{-0.7080515}
{-0.68954325}
{0.5719348}
{-0.82124764}
{0.06000684}
{-0.9359014}
{-0.92715913}
{0.13092488}
{0.437973}
{0.9196358}
{0.14460336}
{0.078946464}
{-0.7922634}
{-0.057674367}
{0.70171994}
{0.7553519}
{-0.74652225}
{-0.94390464}
{-0.7931154}
{-0.72891986}
{-0.33486062}
{-0.16247308}
{0.84832615}
{-0.6743387}
{1.0509378}
{0.3354169}
{0.87839854}
{-0.4855119}
{-0.48924825}
{-0.50375175}
{-0.74568164}
{0.23948132}
{0.24007529}
{-0.93509746}
{0.41304055}
{-0.66110176}
{-0.6871187}
{-0.022171184}
{-0.58074266}
{0.35867557}
{0.9943872}
{0.61758184}
{-0.34764224}
{-0.10421774}
{-0.8364222}
{0.47496092}
{0.06459077}
{0.70904833}
{-0.37760976}
{-0.75767565}
{0.7428355}
{-0.99487555}
{0.41232225}
{0.28045046}
{-0.08538244}
{0.5408364}
{0.85670984}
{-0.91732883}
{0.98174053}
{-0.14916134}
{-0.8050221}
{-0.3870114}
{-0.4885509}
{0.69642705}
{0.7245072}
{-0.9310529}
{-0.83419365}
{0.4300414}
{-0.38111866}
{-0.7537935}
{0.017080218}
{-0.6677813}
{0.19877984}
{0.7860236}
{0.009965384}
{-0.5212562}
{0.24409297}
{0.385867}
{0.33962497}
{0.60357946}
{-0.50571066}
{-0.9217336}
{0.31584567}
{0.11585956}
{0.9428411}
{-0.9475658}
{-0.59326214}
{-0.10017859}
{0.5094002}
{-0.66767406}
{-0.74790776}
{0.2097335}
{0.8912054}
{-0.5303366}
{0.70300615}
{0.8926345}
{0.93593824}
{-0.68069935}
{0.7332067}
{-0.8752525}
{0.8863782}
{1.017921}
{0.617827}
{0.62415296}
{0.9407406}
{-0.18570626}
{0.46386907}
{-0.18709025}
{0.44339877}
{0.11735156}
{0.45033804}
{0.5484463}
{1.0626366}
{-0.9707923}
{0.947042}
{0.3481996}
{0.18323787}
{0.62138915}
{-0.6688137}
{-0.8466413}
{0.86567795}
{-0.6082432}
{-0.9212664}
{-0.62406254}
{-0.4598927}
{-0.2981614}
{0.7592705}
{-0.45388106}
{0.2424011}
{0.48369706}
{0.0665817}
{-0.48918995}
{0.69488317}
{0.31562102}
{0.021299448}
{-0.75875}
{0.4529042}
{-0.0924606}
{0.5245419}
{0.570226}
{0.7325726}
{0.74491644}
{0.07450289}
{-0.22690707}
{0.1350496}
{-0.25715816}
{0.12778686}
{-0.039905686}
{-0.27962407}
{0.4615234}
{-0.21265395}
{0.07482699}
{-0.9231013}
{0.4403788}
{0.69940084}
{0.4842687}
{-0.17310472}
{0.28579533}
{0.15242371}
{0.15831268}
{0.29524198}
{0.8586502}
{-0.3231602}
{-0.32645398}
{-0.5570543}
{0.019496752}
{-0.027432876}
{-0.3772707}
{0.0827033}
{0.3971387}
{-0.9599881}
{0.7247253}
{0.037200294}
{-0.23374164}
{-0.4562254}
{0.11168198}
{-0.32657298}
{-0.72881556}
{0.427742}
{-0.8573894}
{0.33746803}
{0.57165265}
{0.2086823}
{0.5836249}
{-0.12025425}
{0.08958939}
{-0.009649568}
{0.67385274}
{-0.19775616}
{-0.8309624}
{-0.8502204}
{-0.013444133}
{-0.68594724}
{-0.899637}
{-0.77081084}
{0.53832203}
{0.16216865}
{-0.73583126}
{0.65420777}
{0.9123337}
{0.014066582}
{0.81565046}
{0.2325467}
{0.15688561}
{-0.72962505}
{0.5844958}
{-0.5812281}
{-0.5502633}
{0.16957046}
{-0.66900873}
{0.19467449}
{-0.07423343}
{0.53401995}
{0.77647066}
{-0.8458067}
{0.4658875}
{0.20749728}
{-0.73740435}
{-0.8255447}
{0.26000345}
{-0.22475363}
{0.004666879}
{-0.7217699}
{0.42858768}
{-0.43324265}
{0.45284927}
{0.522353}
{-0.90234745}
{-0.09443291}
{-0.61000776}
{0.33472902}
{-0.8313735}
{0.57954973}
{0.25598848}
{-0.89959455}
{-0.8256957}
{0.9934047}
{0.07716684}
{-0.9272837}
{-0.001580789}
{-0.18760528}
{-0.79918814}
{0.76389205}
{0.8022619}
{-0.6429396}
{0.9966378}
{-0.6312138}
{-0.7575395}
{0.34159917}
{-0.600085}
{-0.9522997}
{0.75510573}
{0.4970349}
{0.8773825}
{-0.7955562}
{-0.44786158}
{-0.09211203}
{-0.096630305}
{0.1839426}
{-0.25519255}
{-0.5925294}
{0.3523065}
{0.5385794}
{-0.048734494}
{0.70199716}
{0.6311078}
{-0.45715374}
{0.2834432}
{0.9808099}
{-0.61076736}
{-0.044727795}
{0.6916998}
{-0.8709062}
{-0.95650864}
{-0.47495577}
{0.8636316}
{0.25815976}
{-0.7769723}
{-0.79187423}
{0.16948819}
{0.22679299}
{-0.9159682}
{-0.8215011}
{-0.20327528}
{0.6425004}
{0.42419827}
{-0.069400534}
{-0.70372415}
{0.6394585}
{-0.2290355}
{0.98568165}
{0.75961554}
{0.4791194}
{-0.67472076}
{-0.34119233}
{0.2403311}
{0.23804751}
{0.17147887}
{-0.88319755}
{0.8573033}
{0.36348146}
{-0.55552363}
{0.859179}
{0.54664797}
{-0.13352771}
{-0.6146209}
{0.44532043}
{-0.32254803}
{0.34910962}
{0.894696}
{-0.87179226}
{0.240653}
{-0.59838367}
{-0.09258792}
{-0.96863264}
{0.31711066}
{0.82509524}
{-0.8473401}
{0.09070128}
{0.43294013}
{0.6841122}
{-0.37901366}
{-0.13562256}
{-0.2741998}
{-0.24213444}
{0.8520174}
{0.075893044}
{0.52793723}
{-0.3787928}
{0.7869985}
{-0.59666616}
{-0.46764082}
{-0.28006572}
{-0.15010345}
{-0.332446}
{0.05600233}
{0.71552444}
{-0.15242612}
{-0.5651522}
{0.40488058}
{0.021422649}
{-0.6428616}
{0.70940673}
{-0.02676331}
{-0.6410565}
{0.06778032}
{-0.9547026}
{0.24154408}
{-0.54357946}
{-0.16313279}
{-0.30782554}
{-0.40874773}
{-0.33274403}
{0.36577356}
{-0.19697176}
{0.6755893}
{1.0766519}
{0.8038881}
{-1.0704566}
{-0.15811183}
{0.007667372}
{0.2471677}
{-0.91935897}
{0.29855072}
{-0.86691934}
{0.22673118}
{-0.23962222}
{0.36183077}
{-0.08946245}
{0.14302717}
{-1.0585117}
{0.34457713}
{0.06331435}
{0.29088962}
{0.6348591}
{0.44811395}
{0.38417056}
{0.4568702}
{-0.5669828}
{0.09212416}
{-0.86317915}
{0.24611914}
{-0.55982757}
{-0.26575866}
{-0.8528151}
{-0.8420994}
{-0.7506757}
{-0.9014121}
{0.751983}
{0.567394}
{-0.2744732}
{0.6480028}
{-0.057598766}
{-0.93436503}
{-0.46466142}
{0.12686788}
{-0.8765709}
{0.98278475}
{-0.090838775}
{-0.76092774}
{0.18480428}
{0.1423448}
{-0.19157514}
{0.543321}
{-0.61032784}
{0.23974574}
{-0.9033854}
{-0.25665516}
{-0.019105047}
{-0.19531047}
{1.0041707}
{0.91778237}
{-0.3098162}
{0.7139411}
{-0.46320045}
{0.2802679}
{-0.09281447}
{0.14566432}
{-0.897301}
{0.8967635}
{-0.2449229}
{0.397102}
{0.9370956}
{0.64947206}
{0.0027332495}
{-0.201954}
{-0.7896776}
{0.35578617}
{0.44254068}
{0.64246154}
{0.6145629}
{0.12241021}
{-0.67559636}
{0.4357258}
{0.41921481}
{0.6016552}
{0.9278168}
{-0.4345225}
{0.7499969}
{-0.44593596}
{-0.61816853}
{0.9750016}
{0.7511272}
{-0.32151628}
{0.31577766}
{0.07199317}
{0.8886683}
{-0.037482183}
{-0.41505048}
{0.15099275}
{-0.91525954}
{-0.064456984}
{-0.19251135}
{-0.48835522}
{-0.35735032}
{0.16282523}
{-0.57901186}
{-0.92041135}
{0.5090282}
{0.30192983}
{-0.24562983}
{-0.9577842}
{-0.70608556}
{-0.834155}
{0.12190093}
{-0.09397003}
{-0.29163527}
{0.4422839}
{0.7181942}
{-0.32253373}
{-0.28639212}
{0.9199249}
{0.35132596}
{-0.093984336}
{-0.94479215}
{0.5957372}
{1.0555496}
{0.80930257}
{0.3332345}
{0.3388524}
{0.4242208}
{-0.75484204}
{0.7722764}
{0.8980275}
{-0.5271337}
{0.8231709}
{-0.75679713}
{0.10905362}
{-0.7271661}
{-0.56264734}
{-0.76602244}
{0.9211648}
{-0.6581954}
{-0.7913594}
{-0.44289154}
{-0.5828158}
{-0.58781755}
{0.72829103}
{-0.0013094309}
{-0.46821994}
{-0.70389193}
{-0.3621837}
{-0.93711966}
{-0.8474669}
{-0.86597407}
{0.8994944}
{0.27692208}
{0.9668875}
{-0.78760344}
{0.37771976}
{-0.32691264}
{-0.47580448}
{0.113548145}
{-0.15574467}
{0.6500774}
{0.09182042}
{0.797853}
{0.2943076}
{0.38685533}
{-0.9658919}
{-0.75547254}
{0.22448838}
{0.7545327}
{0.9463593}
{0.93967885}
{0.2146815}
{-0.054965377}
{-0.9241622}
{0.6331553}
{0.9432404}
{-0.14963073}
{-0.16029395}
{0.21423484}
{-0.7392576}
{0.20998532}
{-0.29200813}
{0.44736063}
{0.15619051}
{-0.46082914}
{0.48270506}
{0.7054488}
{0.119641095}
{-0.08239939}
{-0.5619693}
{-0.8195584}
{-0.07674667}
{0.82396466}
{-0.1553161}
{0.56599075}
{0.68982506}
{0.5263368}
{0.35395607}
{-0.9280365}
{-0.16860831}
{-0.8225137}
{-0.030241633}
{0.28195146}
{-0.90672684}
{-0.026146943}
{0.9206302}
{-0.6702314}
{0.92532516}
{0.4486715}
{0.5705558}
{0.5280033}
{-0.7267704}
{0.96523666}
{-0.8634208}
{-0.6163193}
{-0.43245924}
{-0.4711104}
{0.10947451}
{-0.29935962}
{-0.2603773}
{0.6221434}
{0.5695956}
{-0.24064131}
{0.17621148}
{0.29543647}
{-0.59106904}
{0.52249825}
{-0.45387447}
{-0.24770461}
{0.9701996}
{0.14868885}
{-0.6751559}
{0.29792613}
{0.4140991}
{-0.027532116}
{-0.9264655}
{0.2929163}
{0.19932629}
{0.33375448}
{0.7048068}
{-0.5337993}
{-0.7349675}
{1.0928845}
{-0.71533275}
{0.08860318}
{0.9108497}
{-0.6103206}
{0.7734921}
{-1.0460624}
{-0.33810896}
{-0.14913103}
{-0.17114031}
{-0.7389507}
{-0.95325553}
{0.44443452}
{-0.7374275}
{0.12698491}
{-0.43125898}
{0.253099}
{0.88363004}
{-0.86410713}
{0.8264082}
{-0.72712594}
{-0.40747797}
{0.26353496}
{-0.7733638}
{1.1285286}
{0.33535135}
{-0.58585536}
{-0.4578616}
{-0.58922976}
{0.6909509}
{0.26856261}
{1.0455221}
{0.02889189}
{-0.15870655}
{0.49091157}
{-0.92297703}
{1.1086414}
{-0.16107261}
{0.7670006}
{-0.6482959}
{0.6006816}
{0.98723817}
{0.72963727}
{-0.6255603}
{0.47802883}
{-0.6374843}
{0.8154579}
{0.1509828}
{0.8161878}
{-0.6375127}
{0.8022884}
{-0.108807534}
{0.25125188}
{0.8803351}
{-0.9178595}
{0.51560766}
{0.53549606}
{0.35860956}
{-0.5964333}
{-0.23674524}
{1.0549486}
{-0.8470967}
{0.6848717}
{-0.052010622}
{0.69819283}
{-0.1678077}
{-0.018327074}
{0.0035369485}
{0.3315984}
{-0.3560177}
{0.9377878}
{-0.18176644}
{-0.06961261}
{-0.9099531}
{1.0591372}
{0.55143106}
{-0.7700964}
{-0.19698107}
{-0.508454}
{0.932619}
{0.97348714}
{-0.3491577}
{0.77858925}
{-0.81017584}
{0.4151456}
{0.04914649}
{-0.8241137}
{0.7609666}
{-0.91999483}
{-0.8164146}
{0.37661704}
{0.59199446}
{-0.5613428}
{-0.93797565}
{-0.21346177}
{0.27786812}
{0.50210947}
{-0.1277045}
{-0.21422955}
{0.11529242}
{0.6339526}
{0.8421767}
{-0.23982611}
{0.30877477}
{-0.08871605}
{-0.05538006}
{0.67300946}
{-0.06247575}
{0.8860437}
{-0.28971493}
{0.68322}
{-0.69235915}
{0.011749229}
{-0.3677684}
{0.24048923}
{-0.5122508}
{-0.121958494}
{0.9112153}
{-0.09700439}
{0.061421942}
{-0.21001676}
{-0.5463679}
{0.8256304}
{-0.0041880505}
{-0.6594418}
{0.8890333}
{0.26646453}
{-0.3212412}
{-0.15398498}
{-0.33537853}
{0.36691648}
{-0.5195402}
{0.4309998}
{-0.87507224}
{0.12128682}
{-0.5803274}
{1.0978312}
{-0.04716462}
{0.40083957}
{-0.09919303}
{0.6992995}
{-0.5307267}
{0.68159574}
{0.2252365}
{0.08470102}
{-0.19648707}
{-0.4131542}
{-1.0039964}
{-0.802093}
{0.33720958}
{0.75910217}
{-0.85012484}
{0.6408109}
{0.34625542}
{0.72584367}
{-0.04561535}
{0.30753422}
{-0.7854698}
{0.5938116}
{0.022510953}
{0.5208402}
{0.35162008}
{0.063014284}
{-0.6759008}
{-0.7678861}
{-0.010428116}
{0.6836188}
{-0.09280203}
{-0.11824366}
{0.6844511}
{0.8332553}
{0.4097021}
{0.63659275}
{0.19815671}
{-0.6787194}
{0.17699341}
{-0.5563431}
{-0.9656546}
{-0.6838813}
{-0.67395556}
{0.6598195}
{0.17602098}
{-0.6504535}
{0.9166621}
{-0.59119153}
{0.0019200586}
{-0.40092713}
{-0.80893075}
{0.39293572}
{-0.662375}
{-0.3944364}
{0.6019486}
{-0.66356057}
{0.32487547}
{0.4432413}
{0.34454885}
{-0.18236265}
{-0.08657834}
{0.14974432}
{0.45573038}
{-0.7895607}
{-0.81526494}
{0.1501669}
{-0.45127544}
{0.33881953}
{-0.7102876}
{0.48236886}
{-0.73784494}
{0.3236738}
{-0.91950274}
{0.2897949}
{0.45850694}
{0.5528976}
{-0.6021607}
{0.17240237}
{-0.19966912}
{-0.93183815}
{0.17997134}
{0.11052766}
{-0.95109606}
{0.15569496}
{-0.9556842}
{-0.2235257}
{0.63886815}
{-0.5353423}
{-0.16056645}
{0.032402337}
{0.26633728}
{-0.16800652}
{-0.17304766}
{-0.9378331}
{-0.3821927}
{0.05009539}
{-0.033195898}
{0.20923336}
{-0.60994846}
{0.42467234}
{0.021578385}
{0.13355154}
{-0.6148749}
{0.30078894}
{0.7756963}
{0.49723008}
{-0.9550922}
{-0.4291349}
{0.60449815}
{0.6103376}
{-0.9406601}
{0.43627843}
{-0.89526916}
{-0.62963605}
{0.29328528}
{-0.24475954}
{0.3241576}
{-0.89231783}
{0.42940003}
{0.63713235}
{0.3059119}
{-0.0650112}
{0.37333885}
{1.0860761}
{0.442618}
{0.05243421}
{-0.63608253}
{-0.79783344}
{-0.77229667}
{-0.27591974}
{-0.34600234}
{-0.11297669}
{0.2576691}
{0.5891383}
{-0.012663989}
{-0.3658796}
{-0.22220123}
{-0.66778046}
{0.8299136}
{-0.5838153}
{0.8802905}
{0.3156961}
{-0.9114768}
{0.7873172}
{-0.6646428}
{0.63603055}
{0.3400632}
{-0.6626739}
{0.6896727}
{0.5150538}
{0.0735653}
{-0.27656555}
{0.0840557}
{-1.058123}
{0.39180022}
{-0.5386083}
{-0.876173}
{-1.124685}
{-0.05045796}
{-0.27007857}
{-0.17630398}
{0.039497294}
{0.3820992}
{-0.4748887}
{-0.5424509}
{0.63732034}
{0.66791296}
{0.95420736}
{-0.5718038}
{-0.40240502}
{-0.6657064}
{1.0660902}
{-0.29975927}
{0.7180598}
{0.22375615}
{0.55415624}
{-0.43164194}
{-0.06024222}
{0.98116064}
{-0.5235103}
{-0.27886188}
{-0.49415728}
{-0.24550185}
{-0.64992374}
{0.16430342}
{0.27366847}
{-0.6517473}
{-0.45459422}
{-0.4061314}
{-0.3878334}
{0.5937894}
{0.44153747}
{-0.030839846}
{-0.4656296}
{0.30722284}
{0.8650473}
{-0.8652265}
{0.6500254}
{0.6863929}
{0.58525807}
{-0.35046637}
{-0.6083988}
{0.2389673}
{-0.76265585}
{-0.48691133}
{-0.6930425}
{0.10785081}
{-0.31176075}
{0.21927011}
{-0.5232391}
{0.927913}
{-0.74475944}
{-0.42154753}
{0.75606936}
{-0.46924326}
{0.6802831}
{-0.54188204}
{-0.014802484}
{-0.83877105}
{-0.06104157}
{-0.8444092}
{-0.075213365}
{-0.69217855}
{0.3977877}
{0.98811626}
{-0.4669973}
{-0.2931726}
{0.56795704}
{-0.35694587}
{-0.44287804}
{0.5075053}
{-0.5062492}
{0.6338229}
{0.306513}
{0.5915336}
{-0.0033203086}
{-0.5326638}
{0.86161494}
{-0.3999957}
{-0.8169165}
{0.64939785}
{-0.8970246}
{-0.13836674}
{0.6335027}
{-0.7354922}
{0.81415254}
{-0.34271803}
{0.9969598}
{0.79278564}
{-1.000209}
{-0.9322012}
{-0.79310393}
{0.9604604}
{-0.8071591}
{0.09576572}
{1.005191}
{-0.8072181}
{0.28847203}
{0.56033385}
{1.1474959}
{0.6740153}
{-1.1073037}
{0.7683419}
{-0.2756312}
{-0.90638566}
{-0.30688798}
{-0.39701265}
{-0.55917037}
{-0.5022714}
{-1.0014509}
{0.016930316}
{-0.6228368}
{-0.61844754}
{0.39953262}
{-0.13659619}
{0.7944688}
{0.7635679}
{-0.06482097}
{0.5603664}
{0.3120112}
{0.5909989}
{0.5409588}
{0.7685846}
{0.22966737}
{-0.65853524}
{0.33122402}
{0.67724586}
{0.03913924}
{0.6911831}
{0.74820507}
{0.9714365}
{-0.8582255}
{-0.66016865}
{-0.017510658}
{0.82139695}
{-0.6368384}
{0.9963486}
{0.69201046}
{-0.18620375}
{0.32744423}
{0.2610885}
{-0.06175247}
{-0.8519825}
{0.18821709}
{-0.5151162}
{-0.34242082}
{-0.16747044}
{0.5939174}
{0.53557277}
{0.95033807}
{0.2598228}
{0.26648858}
{0.008355214}
{0.33711022}
{-0.812247}
{-0.68713963}
{-0.4180168}
{-0.8127873}
{-0.3926962}
{-0.11506573}
{-0.6148906}
{-0.29722974}
{-0.3867693}
{-0.17171018}
{-0.33921444}
{-0.23789597}
{-0.6517874}
{0.0076555973}
{-0.50025773}
{-0.66716516}
{0.029500317}
{0.95868397}
{0.44067276}
{0.059890788}
{-0.44165254}
{-0.6373084}
{-0.34057772}
{-0.99576753}
{0.6247433}
{-0.61591434}
{0.92994666}
{-0.4533106}
{0.3607708}
{0.65743995}
{-0.2552153}
{-0.2962215}
{0.558249}
{0.062071472}
{-0.80487704}
{-0.8615137}
{0.14364134}
{0.066214874}
{-0.73005176}
{0.31018892}
{-0.86765265}
{-0.6848314}
{0.9847429}
{-0.94091016}
{-0.82659686}
{0.8437426}
{0.79679203}
{0.4904232}
{-0.92972696}
{-0.5317766}
{0.78823304}
{0.50915134}
{0.5432039}
{0.0019941672}
{-0.7409482}
{-0.18781348}
{-0.42862323}
{-0.61875194}
{0.9686351}
{-0.3551286}
{0.56999457}
{0.06335042}
{-0.48099703}
{-0.6487115}
{-0.5592184}
{0.9080697}
{0.7971158}
{-0.27995116}
{0.33348998}
{0.228648}
{0.7729578}
{0.16445181}
{-0.2768551}
{0.83709407}
{0.2661804}
{-0.7768596}
{0.44059762}
{-0.48866007}
{0.67994833}
{-1.000777}
{0.89571846}
{1.1042649}
{-0.44630778}
{-1.1207545}
{-0.9470499}
{-0.24290763}
{-0.58589697}
{0.37919962}
{0.024708014}
{0.60543066}
{-0.55731463}
{-1.021674}
{0.76632756}
{-0.3357822}
{-0.28600824}
{-0.1781092}
{-0.2828889}
{0.6703193}
{0.5622382}
{0.2652389}
{-0.36676064}
{0.7945461}
{0.15351737}
{-0.56537235}
{-0.08277698}
{0.1635786}
{0.37335694}
{-0.8326152}
{0.12461828}
{-0.2593649}
{-0.26415694}
{0.0128220655}
{-0.77306885}
{-0.73109543}
{-0.9157667}
{-0.26727694}
{-0.3552797}
{-0.23648913}
{0.86034584}
{0.926552}
{-0.8596939}
{0.78300565}
{-0.06517479}
{0.38142565}
{-0.723136}
{-0.7386304}
{-0.5606811}
{0.1891959}
{0.7912958}
{-0.7496547}
{0.36818802}
{0.72404194}
{-0.808214}
{0.43694448}
{0.33343732}
{0.59305227}
{-0.64332694}
{-0.031926643}
{-0.9713135}
{0.63049465}
{0.04967609}
{0.87388337}
{-0.8894448}
{-0.7451072}
{-0.3829221}
{0.58792955}
{-0.7052946}
{0.41455182}
{0.9165541}
{0.3785053}
{-0.6588423}
{-0.3031734}
{0.9012245}
{0.8210595}
{0.7549963}
{0.5521339}
{0.9755021}
{0.050708704}
{0.5041433}
{0.40223864}
{-0.59799474}
{-0.16743366}
{0.04911883}
{0.3632139}
{0.19105639}
{1.0058336}
{-0.5180311}
{0.31260508}
{0.29532713}
{-0.060979374}
{0.42296255}
{-0.30885312}
{0.40976843}
{-0.6043971}
{-0.6859548}
{0.8719305}
{-0.11573525}
{0.16621946}
{0.54059815}
{-0.56111014}
{0.8414163}
{0.59481937}
{-0.27124345}
{0.07339661}
{0.6454491}
{-0.78188515}
{-0.85667515}
{-0.507962}
{0.4339668}
{0.6297646}
{0.10077122}
{-1.1040053}
{0.21949105}
{0.9271981}
{0.5767894}
{-0.24075106}
{0.8761714}
{0.1120202}
{-0.47165906}
{-1.1010506}
{-0.23721051}
{0.37079877}
{0.085404664}
{0.29254028}
{0.07264672}
{-0.6078438}
{0.6298516}
{-0.64142096}
{-0.5186545}
{-0.5019102}
{-0.34346378}
{-0.48176625}
{0.09968243}
{1.194834}
{-0.7787652}
{-0.48852092}
{0.6872472}
{-0.54027313}
{0.31517828}
{-1.1111803}
{-0.23358065}
{1.0131868}
{0.9650159}
{0.84304965}
{-0.15244052}
{-0.3600526}
{0.590662}
{-0.70435303}
{-0.4042006}
{0.7978582}
{-0.51329947}
{-0.7386043}
{0.27243796}
{0.15346125}
{-0.5925648}
{-0.34588197}
{-0.64781904}
{0.5951316}
{0.3240863}
{0.7316495}
{0.53895074}
{-0.72480595}
{-0.30122507}
{0.486833}
{-0.7718239}
{0.9247796}
{0.2265135}
{-0.21449663}
{0.9562847}
{0.26131192}
{-0.08321568}
{-0.1315022}
{-0.17607589}
{-0.12012722}
{-0.20331633}
{-0.39258248}
{0.62342715}
{1.0138733}
{0.089499265}
{0.08750322}
{-0.8982955}
{0.06791403}
{0.03215988}
{-0.723029}
{-0.5378678}
{-0.81342804}
{-0.4007162}
{0.49381527}
{-0.91956717}
{-0.6523577}
{-0.17710578}
{0.75526184}
{0.79836726}
{-0.6729823}
{-0.02479951}
{-0.32300055}
{0.2304759}
{-0.6913072}
{-0.8487723}
{0.34760717}
{0.3696875}
{0.20031741}
{0.6404295}
{0.009228539}
{0.088057354}
{-0.46861044}
{-0.5448935}
{-0.8214632}
{-0.08243761}
{0.11948876}
{-0.7329612}
{-0.5574187}
{0.65091467}
{-0.6926534}
{0.650002}
{-0.90241885}
{-0.1395776}
{0.9643406}
{-0.76783395}
{-0.11819032}
{-0.018476732}
{1.1412615}
{0.42345583}
{-0.45056775}
{-0.019551331}
{0.16383079}
{-0.02333586}
{0.09431189}
{-0.722713}
{0.53514725}
{0.3289932}
{-1.0743248}
{-0.29087365}
{-0.52871424}
{-0.88079953}
{-0.3531267}
{-0.060429838}
{0.4296323}
{0.03500898}
{-0.60444355}
{-0.940162}
{0.25580314}
{-0.47402775}
{-0.8797668}
{-0.12628084}
{0.20241612}
{-0.15802872}
{0.4298739}
{-0.7168795}
{0.5539591}
{-0.047595203}
{-0.890922}
{-0.7164697}
{0.52038556}
{0.92569566}
{-0.3559801}
{-0.16387704}
{-0.63700634}
{0.024936987}
{0.34824383}
{-0.6037416}
{-0.18739718}
{0.40286195}
{-0.5498997}
{0.341963}
{0.014567685}
{0.26617467}
{0.6686405}
{-0.35509312}
{0.23752902}
{-0.675112}
{-0.15811102}
{-0.34915513}
{-0.49961504}
{-0.3565849}
{0.2844189}
{0.8201034}
{0.23904303}
{-0.9403999}
{-0.7299865}
{0.040067434}
{-0.75735015}
{0.34091723}
{0.90867406}
{0.2564309}
{0.05292045}
{0.0925968}
{0.87402236}
{-0.6511554}
{-0.23110214}
{0.62878966}
{-0.6191361}
{-0.5617774}
{1.1641402}
{-0.8540926}
{0.66779965}
{-0.28242272}
{1.0020535}
{0.8607476}
{0.46036154}
{0.9784229}
{0.769646}
{0.053030327}
{0.3944545}
{-0.8961996}
{-0.6725839}
{0.9136481}
{-0.2093385}
{-0.18355258}
{-0.11102628}
{-0.49325907}
{-0.046086866}
{-0.14322974}
{0.7132032}
{-0.8226502}
{-0.44221792}
{-0.39946914}
{0.15140858}
{0.60337687}
{-0.28758997}
{-0.22088642}
{0.9724651}
{0.9054165}
{0.52127576}
{-0.36738124}
{-0.82429653}
{0.5675819}
{-0.75563717}
{0.8049553}
{0.7025157}
{-0.49660486}
{0.6386649}
{0.9357011}
{0.16877913}
{0.22748315}
{-0.052883793}
{-0.50801134}
{-0.6574359}
{0.66026163}
{-0.8933167}
{0.049873624}
{-0.56063443}
{-0.3889333}
{-0.108825386}
{0.9005163}
{0.052484773}
{-0.22335207}
{-0.2216822}
{-0.45838693}
{-0.25234428}
{0.5517671}
{-0.596722}
{0.012321177}
{0.099392116}
{-0.62902975}
{0.37721384}
{-0.051296655}
{0.4112591}
{-0.10304495}
{0.75890774}
{0.79380846}
{-0.56860137}
{-0.006892368}
{-0.8742262}
{-0.5283576}
{-0.74268526}
{0.86162114}
{0.60323423}
{-0.13061981}
{-0.0809092}
{-0.38252914}
{-1.1017692}
{0.6237215}
{0.06726463}
{-0.024577782}
{-0.47010058}
{0.0034469708}
{0.89184296}
{-0.09305212}
{-0.9016484}
{0.38385725}
{0.60602665}
{-0.44532478}
{0.5886931}
{0.37486795}
{0.94653845}
{-0.25316846}
{0.16827747}
{-0.88519436}
{0.001623342}
{-0.31852734}
{0.2622641}
{0.377718}
{-0.5152293}
{0.19464052}
{-0.41599527}
{-0.60838324}
{-0.66694915}
{0.36706245}
{-0.14665887}
{-0.10502382}
{0.6896006}
{1.0033729}
{0.7208305}
{-0.21962123}
{-0.7485445}
{0.96566105}
{-0.90605164}
{-0.4980695}
{0.10611669}
{0.4584316}
{-0.7466791}
{0.79510033}
{-0.42291173}
{0.50794816}
{0.8042519}
{0.12907194}
{-0.7869316}
{-0.8392899}
{0.52927107}
{-0.5460076}
{-0.0072176955}
{0.4791354}
{0.26420835}
{-0.84892714}
{-0.06800758}
{-0.11807433}
{0.63655823}
{0.35519052}
{-0.6897131}
{-0.41409814}
{0.265954}
{-0.15950835}
{-0.453231}
{0.017905546}
{-0.7892442}
{0.5210402}
{-0.16964833}
{0.021154715}
{0.3883112}
{0.83627754}
{1.0008255}
{0.95965147}
{-0.49696407}
{0.5710308}
{-0.9489908}
{0.19988549}
{0.9428364}
{0.72562045}
{0.452796}
{0.9023652}
{-0.4209831}
{0.56486887}
{-0.9944383}
{0.11643675}
{-0.5583151}
{0.17175992}
{-0.026596725}
{0.01282437}
{-0.04708553}
{-0.052772842}
{0.1861356}
{-0.10044572}
{-1.0363094}
{0.91836274}
{0.42777038}
{0.74483633}
{-0.52666265}
{0.6486957}
{0.74005497}
{0.60566926}
{0.44351923}
{0.2926771}
{0.26675805}
{0.6995771}
{0.10018343}
{-0.7769232}
{0.9890467}
{-0.28704083}
{-0.5898739}
{0.81559885}
{0.0037784323}
{-0.6700866}
{-0.11719594}
{-0.81415147}
{-0.63599557}
{0.8815539}
{0.3492249}
{0.8788205}
{-0.25187823}
{0.82705283}
{-0.6196198}
{-0.83242565}
{1.1181283}
{-0.6821499}
{0.44431758}
{0.017025875}
{0.26649067}
{-0.35996783}
{-1.123872}
{-0.8827606}
{-0.091898754}
{-0.36700523}
{0.54709816}
{-0.33372667}
{0.33130735}
{0.9559388}
{-0.30202818}
{-0.5966514}
{-0.45199904}
{0.3706199}
{-0.5634638}
{0.47887543}
{1.0273097}
{-0.74197245}
{-0.32392743}
{0.64207727}
{0.15423116}
{-0.09311816}
{-1.1620213}
{0.20413403}
{-0.5644863}
{-0.24187386}
{-0.00797008}
{-0.87575334}
{0.8769618}
{-0.41966808}
{-0.48806232}
{0.84972423}
{0.071573995}
{0.06251319}
{0.024185997}
{0.7108053}
{0.65641963}
{0.6956067}
{-0.49655715}
{-0.14846283}
{0.8122517}
{0.45399868}
{0.17618303}
{0.43286464}
{-0.5537519}
{0.6833179}
{-0.7488272}
{-0.8774911}
{0.26104668}
{-0.8523307}
{0.38305566}
{-0.29822734}
{0.23101543}
{0.40646994}
{-0.38317746}
{-0.7550387}
{0.4513373}
{-0.9011731}
{-0.50123}
{-0.8157584}
{0.27214798}
{-0.21591508}
{-0.7141114}
{-0.094317526}
{-0.85255545}
{-0.5410478}
{0.59202987}
{-0.3803333}
{0.4776545}
{0.43810928}
{0.8929319}
{0.8106169}
{0.025209235}
{-0.7677798}
{0.91590375}
{0.49037933}
{0.20949659}
{-0.4163872}
{0.63703495}
{0.8733236}
{-0.6040565}
{-0.51144195}
{-0.31423002}
{0.92832637}
{-0.7296318}
{0.19742858}
{0.1910008}
{0.5883386}
{-0.5848527}
{-0.08058998}
{0.059629355}
{-0.068894856}
{0.69819725}
{-0.33357394}
{-0.83198}
{-0.32910883}
{-0.34284103}
{0.7153182}
{0.46676093}
{-0.2860307}
{-0.5187616}
{-0.7223482}
{0.83280605}
{-0.6723048}
{0.49618107}
{-0.80579114}
{-1.0323416}
{-0.5776987}
{0.9160459}
{0.7962465}
{-0.5514043}
{0.69217116}
{0.21499659}
{0.23024023}
{0.19872403}
{-0.9016967}
{-0.5107512}
{0.3506416}
{0.8106234}
{0.9232386}
{-0.3643698}
{-0.11766735}
{-1.0823116}
{0.7839409}
{-0.25903973}
{-0.121190205}
{0.57310575}
{0.623406}
{-0.3648449}
{0.10668948}
{0.7085387}
{0.3105491}
{-0.67340827}
{-0.26608932}
{-0.3156554}
{-0.39612386}
{0.3055897}
{-0.019611523}
{-0.7842454}
{0.44542995}
{0.35093722}
{-0.69218564}
{-0.123709664}
{-0.32261342}
{0.21409518}
{-0.037565634}
{-0.8547185}
{-0.03797733}
{0.10775174}
{-0.27648342}
{-1.2399024}
{0.092755646}
{-0.019681778}
{-0.51399946}
{-0.8998143}
{-0.4046329}
{0.57848173}
{0.74820566}
{-1.1542578}
{-0.058055002}
{0.6716069}
{0.3382784}
{-0.25567383}
{0.92968786}
{0.082375586}
{0.8367746}
{0.048844602}
{-0.32811168}
{-0.7562921}
{0.12394861}
{-0.9180125}
{-0.07794501}
{0.3851939}
{0.7686846}
{0.75678706}
{-0.44392365}
{0.91116166}
{0.74634385}
{0.1947941}
{-0.20110175}
{0.4679335}
{-0.8225503}
{-0.3017387}
{-0.21785486}
{1.0105222}
{-0.81961775}
{0.31853038}
{-0.8390162}
{0.5887427}
{0.6956744}
{0.32562503}
{0.71502876}
{-0.8751687}
{-0.28845227}
{0.14201373}
{0.59409624}
{0.65959597}
{0.45586693}
{-0.18894586}
{0.96745014}
{-0.67368656}
{-0.8977225}
{0.6494126}
{-0.67902684}
{-0.22271588}
{-0.877599}
{-0.76757306}
{0.4592751}
{0.8541111}
{-0.92223954}
{0.08735049}
{0.30218583}
{-0.36137617}
{-0.89857197}
{0.49986714}
{-0.96903044}
{0.06955745}
{-0.8647642}
{0.5121101}
{-0.70431966}
{0.9503665}
{0.37314904}
{0.9183411}
{-0.29050177}
{-0.59639364}
{0.71774197}
{-0.3428593}
{0.9268269}
{-0.89807975}
{0.51117224}
{0.64069414}
{-0.86254585}
{0.6772632}
{0.03304608}
{0.06105653}
{-0.9434304}
{-0.19716524}
{-0.8325417}
{-0.56355375}
{-0.041071977}
{1.1243012}
{-0.14532125}
{-0.6753301}
{-0.32890847}
{0.20422964}
{-0.28228486}
{0.39023635}
{-0.6793829}
{-0.087815896}
{-0.85391927}
{-1.0529463}
{-0.07036884}
{0.7078819}
{0.22597015}
{-0.9141511}
{-0.109301716}
{-0.2681063}
{0.8605852}
{0.4886602}
{0.2657879}
{0.7385855}
{-0.488751}
{-0.52448684}
{-0.7623419}
{-0.70926416}
{-0.80987}
{0.29979154}
{-1.0126485}
{-0.24421765}
{0.619009}
{-0.7057083}
{0.4464582}
{-0.4873623}
{0.2960652}
{-1.1702614}
{0.8194247}
{0.09496038}
{-0.39600265}
{0.40977222}
{0.64891523}
{0.7864284}
{-0.17605388}
{0.52896094}
{-0.1972892}
{-0.59139025}
{1.0228539}
{-0.4372265}
{-0.7913583}
{-0.2253355}
{0.46111143}
{0.09286112}
{-0.59935224}
{0.2794055}
{-0.3183583}
{0.086895406}
{-0.41097417}
{0.60368085}
{-0.21933949}
{0.7915775}
{0.23999111}
{0.7380784}
{0.56591225}
{-0.93298656}
{0.037535217}
{0.042820796}
{0.43312633}
{-0.8204103}
{0.79920197}
{0.4958349}
{-0.8670511}
{-0.77962464}
{-0.4387358}
{0.70859283}
{0.633075}
{0.086388744}
{0.17381649}
{0.6317685}
{0.9076135}
{-0.17960308}
{-0.6455595}
{-0.66515994}
{-0.5747745}
{0.18851645}
{0.95486593}
{-0.91665006}
{-0.7442632}
{-0.6437943}
{-0.4476664}
{0.6627988}
{0.6691592}
{-0.55524254}
{0.9172188}
{-0.6082779}
{-0.47426426}
{-0.47799665}
{-0.22761989}
{0.14935322}
{-0.83103967}
{-0.10744332}
{-0.08306788}
{-0.08420516}
{-0.68677473}
{-0.35606867}
{-0.11688489}
{-0.76370424}
{-0.75804853}
{0.12278458}
{-0.23485744}
{-0.5018149}
{-0.25986826}
{0.22743225}
{-0.4155412}
{0.1626203}
{0.4281417}
{-0.8388836}
{0.81888384}
{0.46009406}
{0.9260137}
{-0.7476215}
{0.22316904}
{0.9300051}
{-0.8253031}
{0.3983309}
{-0.91942567}
{0.97562677}
{-0.046454605}
{-0.9240251}
{0.7256379}
{-0.57333505}
{0.852288}
{0.2817653}
{0.97847736}
{-0.27319917}
{-0.037615463}
{-0.9640028}
{0.9470827}
{-0.43948972}
{-0.6287179}
{0.028989933}
{-0.009451952}
{0.027833924}
{-0.4386636}
{0.07791946}
{-0.26274797}
{-0.70682865}
{-0.08719894}
{0.6369773}
{-0.55641276}
{-0.42383304}
{0.07101709}
{0.32687452}
{-0.25983456}
{-0.43996754}
{0.23253357}
{0.7015503}
{0.53719014}
{-0.110799424}
{-0.54254746}
{-0.20886774}
{0.15690121}
{-0.025106413}
{-0.2909509}
{0.701126}
{-0.46905756}
{-0.8118539}
{0.8132732}
{0.2824538}
{0.8511843}
{-0.5827467}
{0.046995953}
{-1.2299402}
{0.71694386}
{0.050625417}
{0.88883495}
{-0.028666247}
{-0.27342767}
{0.5492087}
{-0.0053335875}
{-0.45786574}
{-0.30986652}
{-0.025585383}
{-0.3326398}
{-0.30217782}
{-0.8927988}
{-0.6266833}
{-0.5093198}
{0.85967624}
{-0.5402409}
{-0.21089502}
{-0.94992614}
{-0.29522046}
{0.0066302917}
{-0.52469665}
{0.6542635}
{-0.20314787}
{0.1898563}
{0.20092535}
{0.055589274}
{0.20367122}
{0.5311844}
{-0.15612961}
{-0.4085704}
{0.43939754}
{0.63178813}
{0.5240875}
{-0.37468636}
{-0.67658424}
{-0.71656007}
{-0.06699788}
{-0.3940531}
{0.92896223}
{-0.58476496}
{0.8225129}
{-0.4828429}
{-0.0015308878}
{0.61382157}
{0.2794515}
{0.81314015}
{0.89310527}
{-0.1695412}
{-0.6018403}
{-0.7806599}
{0.6156399}
{0.3784159}
{-0.7432535}
{-0.16456687}
{0.7005438}
{0.4755972}
{0.6153222}
{-0.018685266}
{-0.22642004}
{0.47163486}
{0.02621119}
{0.9623108}
{-0.8737301}
{0.6259091}
{-0.48215723}
{0.5371828}
{-0.5930867}
{0.66382235}
{-0.5050358}
{0.12604645}
{-0.84824353}
{0.38089025}
{-0.68444884}
{-0.47897616}
{-0.8913088}
{-0.66280645}
{-0.85935307}
{-0.3565179}
{0.41811496}
{-0.40118793}
{-0.31561634}
{0.7497046}
{0.89269453}
{-0.47843555}
{0.6970349}
{-0.3923415}
{-0.866668}
{0.83463997}
{-0.5538504}
{0.36313236}
{0.37335998}
{-0.19863203}
{-0.045642957}
{0.8539212}
{-0.5509811}
{-0.010267947}
{-0.6008813}
{0.8236625}
{0.274633}
{-0.7430247}
{0.15991698}
{0.4706415}
{0.32190216}
{-0.30131176}
{0.43050054}
{-0.7364805}
{0.24208672}
{-0.4714656}
{-0.8940435}
{-0.34789407}
{0.5475127}
{-0.6441967}
{0.8655425}
{0.112924844}
{0.17953265}
{0.09772737}
{0.12523732}
{-0.1453098}
{-0.2078143}
{-1.0241526}
{-0.30276802}
{-0.4624263}
{-0.33544895}
{0.034073073}
{0.9623046}
{0.96916103}
{0.28237858}
{-0.41099247}
{0.20694962}
{-0.9597399}
{0.7835522}
{0.5262137}
{-0.37124634}
{-0.7848916}
{0.78182626}
{0.45101997}
{-0.7034875}
{-0.5010066}
{-0.11624821}
{0.3588369}
{-0.34814772}
{-0.48215148}
{0.675347}
{0.47266153}
{0.06601526}
{-0.8161411}
{-0.8158059}
{-0.35029158}
{0.16713601}
{-0.16325676}
{-0.28510985}
{-0.5906378}
{-0.47001395}
{-0.819118}
{0.60003537}
{0.6251274}
{0.53882676}
{-0.7984998}
{-0.568755}
{0.76156765}
{0.5250378}
{-0.2995206}
{-0.5709088}
{-0.26440912}
{0.41342285}
{0.024478747}
{-0.40392002}
{0.19360113}
{-0.55390733}
{-0.4119476}
{-0.4602083}
{0.028952256}
{-0.81607187}
{-0.8313298}
{0.15402772}
{-0.78566754}
{-0.11485748}
{0.5452676}
{0.22857092}
{-0.41298732}
{0.5318455}
{0.9565232}
{0.95094216}
{0.37340143}
{-0.7900436}
{-0.96461964}
{-0.53942996}
{0.61315536}
{-0.6722166}
{0.5357008}
{0.13699694}
{0.9556116}
{-0.44003946}
{-0.65903497}
{-0.52681047}
{-0.62309754}
{-0.380351}
{-0.05781384}
{0.3352447}
{0.6083624}
{-0.336237}
{0.9434762}
{0.96748406}
{0.001946711}
{-0.11536223}
{0.23144901}
{0.5324528}
{0.71429634}
{-0.2003263}
{-0.79628277}
{0.57649356}
{-0.4005408}
{0.45001113}
{0.11910394}
{-0.7975133}
{-0.95322484}
{0.15194571}
{0.84490347}
{-0.8871241}
{0.15702777}
{-0.83231264}
{0.93254805}
{0.0025848323}
{-0.38379523}
{0.4670341}
{0.7613952}
{0.46291742}
{0.18329272}
{0.76186156}
{0.36655962}
{-0.56954765}
{-0.6481009}
{-0.48398504}
{0.047667816}
{-0.96983}
{-0.51794946}
{0.8652182}
{0.700824}
{0.50726485}
{0.26852125}
{-0.13424332}
{-0.07599279}
{0.057453193}
{-0.5163541}
{0.04098433}
{-0.90646005}
{0.69631827}
{-0.49484438}
{-0.28338814}
{-0.31911147}
{-0.41642997}
{-0.4839559}
{0.3606087}
{0.92412543}
{-0.5113075}
{0.6693475}
{-0.59687394}
{0.8446026}
{0.20805015}
{0.2570828}
{-0.27668953}
{0.7672403}
{0.7839155}
{0.38782695}
{0.12174382}
{-0.40640342}
{0.7356925}
{0.1320462}
{-0.73089606}
{-0.41213453}
{0.60949516}
{-0.11571407}
{0.27681217}
{0.73722076}
{0.620133}
{0.11661938}
{0.5423237}
{0.95058584}
{0.07292929}
{0.42589915}
{-0.03663868}
{-0.27593935}
{-0.47778}
{-0.43170375}
{0.3660265}
{0.7063837}
{0.14180927}
{-0.1143341}
{0.22584432}
{-0.020928547}
{0.4268666}
{-0.32021174}
{0.08770418}
{-0.32264698}
{0.32403225}
{-0.4235695}
{-0.22122706}
{0.41222394}
{0.08415278}
{0.21554564}
{0.5005313}
{0.6989012}
{-0.0201054}
{-0.7126143}
{-0.5610266}
{-0.39571774}
{-0.9222039}
{-0.9012854}
{0.27758166}
{0.16902936}
{0.18534273}
{0.77156156}
{-0.36841413}
{-0.24164331}
{-0.22633772}
{0.5910829}
{0.65534323}
{-0.8617475}
{0.22431721}
{-0.81663895}
{0.8642953}
{0.67121935}
{0.18403968}
{-0.6138212}
{0.53101724}
{-0.8775008}
{-0.67206043}
{0.52036476}
{-0.040267516}
{0.17329085}
{-0.14611089}
{-0.38109908}
{0.9421321}
{0.625417}
{-0.4376769}
{0.5623246}
{-0.36803776}
{-0.49562374}
{0.12035518}
{-0.70467085}
{1.0072383}
{0.32604825}
{-0.22298944}
{-0.5543598}
{0.11429237}
{0.114368945}
{0.05128804}
{-0.4317696}
{-0.83901083}
{-0.5240028}
{-0.12028701}
{0.52394515}
{0.044329606}
{0.121145755}
{-0.531297}
{0.85245585}
{-0.08419379}
{0.18772757}
{-0.92073625}
{0.0823938}
{-0.85227984}
{-0.57201886}
{0.22249691}
{0.5078402}
{0.95753914}
{0.6688094}
{0.52583086}
{0.45178512}
{0.45922348}
{0.8858285}
{0.29748073}
{0.68950313}
{-0.8338007}
{-0.07207176}
{-0.50795233}
{0.7447}
{-0.2912897}
{0.7490568}
{-0.22952414}
{-0.42461255}
{0.1448731}
{-0.9500661}
{0.3414205}
{0.43184316}
{-0.32220307}
{1.0097067}
{-0.16711569}
{0.2114096}
{-0.093822375}
{-0.26532614}
{0.16880807}
{0.10147519}
{-0.01736638}
{-0.016256735}
{-0.67445093}
{0.82073987}
{0.24993536}
{-0.6512842}
{-0.74747473}
{0.56518805}
{0.14482349}
{-0.8098428}
{-1.0636957}
{0.8804167}
{0.44150397}
{-0.8217807}
{-0.6814172}
{-0.07686079}
{0.30252275}
{-0.95823026}
{0.5601468}
{0.15253897}
{0.16860795}
{-0.68021154}
{-1.0118626}
{-0.7102671}
{-0.07002369}
{0.0287648}
{-0.08591085}
{0.16061403}
{-0.053910952}
{0.9574065}
{0.46967828}
{-0.17130677}
{-0.08045489}
{-0.9100225}
{-0.05338745}
{0.919954}
{-0.353876}
{1.0191472}
{0.42281228}
{-0.43923816}
{-0.3325106}
{0.4713539}
{-0.694221}
{0.6108422}
{-0.2328978}
{0.9667411}
{-0.42896307}
{-0.8163605}
{-0.21608776}
{0.5518191}
{-0.74120647}
{-0.4180335}
{0.36208975}
{0.05130489}
{0.41973698}
{0.65380245}
{0.26277363}
{0.49783885}
{-0.622512}
{-1.0253903}
{0.103951015}
{-0.9282651}
{0.9069439}
{-0.57651705}
{-0.5821318}
{0.2944075}
{-0.29326212}
{0.34125465}
{0.57704175}
{0.19870198}
{-0.121211305}
{-0.9340683}
{-0.24646938}
{0.31502593}
{-1.0536857}
{-0.009189235}
{-0.3341714}
{0.6667614}
{0.82718176}
{0.81845146}
{0.5400287}
{-0.35026968}
{0.78234625}
{-0.11036315}
{0.24130931}
{0.34711134}
{0.3061051}
{-0.64050114}
{0.2806262}
{0.69872046}
{0.2700092}
{-0.59202456}
{0.9206877}
{-0.6993513}
{-0.4462946}
{0.1921491}
{-0.24823408}
{-0.17120326}
{0.0051193517}
{-0.07941622}
{0.2343002}
{-0.31663907}
{0.5676874}
{0.5971585}
{-0.5715839}
{0.06810219}
{-0.08019647}
{-0.8106595}
{-0.5770798}
{-0.44823182}
{0.34842896}
{-1.041136}
{-0.22348188}
{0.18734062}
{0.25520214}
{0.17160183}
{0.32788438}
{-0.16092336}
{-0.3759549}
{0.8139108}
{-0.5359005}
{0.7130108}
{0.244867}
{-0.7187105}
{-0.83641696}
{0.94763374}
{-0.6407049}
{-0.8678589}
{0.12696128}
{-0.12241806}
{-0.9133046}
{0.013718986}
{-0.07846639}
{0.32510483}
{0.29748136}
{-0.044049863}
{-0.3849518}
{0.8815553}
{-0.8693493}
{0.41197094}
{-0.849415}
{0.47759187}
{-0.37902156}
{0.57984287}
{-0.11659364}
{0.19299328}
{0.66943604}
{0.58537394}
{-0.73864913}
{0.14883864}
{0.9280651}
{0.46760088}
{-0.12758248}
{0.45056736}
{0.04917475}
{-0.66690016}
{0.46371514}
{-0.07749054}
{0.33743408}
{-0.026412861}
{-0.8294452}
{0.14900744}
{1.0227361}
{-0.90099305}
{-0.5168855}
{-0.2839464}
{0.7003696}
{-0.5432556}
{0.008239815}
{-0.30675685}
{-0.40833047}
{0.61598873}
{0.3464103}
{0.43561375}
{0.47984228}
{0.7908055}
{0.2999922}
{0.4807645}
{-0.31933165}
{-0.10882378}
{0.17832653}
{0.8296473}
{-0.124365896}
{-0.807262}
{-0.19170961}
{0.5977423}
{-0.7492925}
{0.42826852}
{0.46657616}
{0.84221077}
{-0.35735685}
{-0.20755756}
{-0.07555873}
{0.61165166}
{0.35861564}
{-0.81940323}
{0.91628635}
{0.2965864}
{0.08960154}
{-0.79442406}
{0.9797405}
{-0.8526976}
{0.6274211}
{0.86620754}
{-0.864393}
{0.7680397}
{-0.558398}
{0.7605848}
{-0.2844658}
{-0.43092573}
{0.07514967}
{0.100630075}
{-0.4237035}
{-0.814518}
{-0.12136282}
{0.4010967}
{0.6114981}
{0.17103279}
{-0.19486043}
{-0.38918525}
{0.7122968}
{0.80872726}
{-0.3238778}
{-0.90641785}
{0.6916018}
{0.5536542}
{-0.23281041}
{0.56344587}
{0.3805184}
{0.6837723}
{0.4127914}
{0.8054198}
{0.76647013}
{0.104913026}
{-1.0024277}
{-0.610298}
{-0.030912071}
{0.17939842}
{-0.47374943}
{0.466089}
{0.7905387}
{-0.5614941}
{-0.9501368}
{0.6848786}
{-0.13709885}
{0.41297996}
{-0.32916307}
{0.55642444}
{0.20525357}
{-0.656168}
{-0.086708486}
{-0.97143114}
{-0.074919485}
{0.6375208}
{-0.7615713}
{-0.9545807}
{-0.20016403}
{0.55753803}
{-0.46931776}
{0.40614018}
{0.9466651}
{0.22813165}
{0.84905136}
{0.9389196}
{-0.7614425}
{1.0155623}
{0.55076754}
{-0.17195965}
{0.51865023}
{-0.8719902}
{-0.13142996}
{-0.007962615}
{0.17509326}
{-0.14218318}
{-0.09521271}
{0.49632636}
{-0.5305943}
{-0.41405904}
{1.0031254}
{-0.44322956}
{-0.8223414}
{-0.25593388}
{0.6191389}
{-0.49613374}
{0.61916584}
{-0.4017552}
{-0.56873614}
{-0.48774788}
{-0.9161091}
{-0.1984092}
{0.4056705}
{-0.014285845}
{-0.04620545}
{0.67332816}
{-0.094724454}
{0.4020241}
{-0.65450454}
{0.39625013}
{0.7545586}
{0.9513737}
{0.008516447}
{-0.572279}
{0.91292197}
{0.687501}
{-0.6285833}
{0.96631193}
{-0.37618458}
{-0.83345175}
{0.94006}
{0.7550483}
{-0.92349005}
{0.7058783}
{0.045699183}
{-0.94598484}
{0.6275281}
{0.9722331}
{-0.7780932}
{0.76570725}
{-0.015430271}
{0.10058881}
{0.23172417}
{-0.0024251195}
{-0.30044457}
{0.23706523}
{0.93421423}
{0.77848125}
{0.53002906}
{-0.7294771}
{-0.68002266}
{-0.6851704}
{-0.5439273}
{0.0501959}
{-0.09960601}
{1.0028675}
{0.0532376}
{0.18079636}
{-0.6054604}
{0.8214197}
{0.21756972}
{-0.09555899}
{-0.5679462}
{0.7546632}
{-0.40660742}
{-0.49695387}
{0.052251507}
{-0.1617316}
{0.78024846}
{0.33157802}
{0.67056525}
{-0.89055467}
{0.2415391}
{0.548286}
{-0.5714871}
{-0.93059087}
{0.7259071}
{0.0029110867}
{-0.6272263}
{-0.79128623}
{-0.58133185}
{-0.087239996}
{-0.6169759}
{-0.20056999}
{-0.44513184}
{0.7868627}
{0.7347912}
{-0.0657489}
{0.4989116}
{0.58763075}
{-0.88808715}
{0.62421036}
{0.12703255}
{0.28676632}
{0.5544899}
{-0.36179483}
{0.78037107}
{-0.7984878}
{0.5630452}
{-0.92367935}
{-1.0343912}
{-0.0059130215}
{-0.11756148}
{0.85424423}
{-0.36775237}
{0.19303273}
{0.026385324}
{-0.45629585}
{-0.015829885}
{0.35265326}
{-0.94226694}
{-0.60292387}
{-0.8475183}
{-0.2923122}
{0.68524843}
{0.23950374}
{-0.4491756}
{0.8324115}
{0.53135735}
{-0.8143594}
{0.23580782}
{-0.17364137}
{0.37574616}
{-0.17946017}
{-0.47486818}
{-0.21487725}
{0.63835526}
{0.9426284}
{-0.329935}
{0.60930234}
{-0.5032677}
{-0.3905822}
{0.91274184}
{-0.7623679}
{0.1914599}
{0.17470086}
{0.42550954}
{0.752654}
{-0.52832687}
{0.21281993}
{-0.23837669}
{0.018186811}
{0.65645444}
{0.46648324}
{-0.27680716}
{0.032905847}
{-0.3310083}
{0.056350783}
{-0.9031911}
{0.29925603}
{0.42016736}
{-0.9725838}
{-0.37363833}
{0.44692966}
{0.002413771}
{0.73798704}
{-0.07756429}
{0.04755486}
{-0.90393746}
{-0.81636286}
{0.427249}
{0.030362254}
{-0.80057317}
{0.24845111}
{0.43746158}
{0.09014576}
{0.08571191}
{-0.057960708}
{-0.7978423}
{-0.21498938}
{-0.9134768}
{0.8396363}
{-0.48304415}
{-0.83158785}
{-0.31710258}
{-0.25656426}
{-0.13559066}
{0.17057575}
{0.08845203}
{0.4749378}
{0.21148737}
{0.82507455}
{-0.2175936}
{0.82133913}
{0.70588434}
{-0.8523643}
{0.04686893}
{0.82731366}
{0.8409218}
{0.6963946}
{0.3615906}
{0.46920764}
{-0.40572333}
{-0.6077896}
{-0.44883797}
{0.9946127}
{-0.5795187}
{0.39490566}
{0.5236643}
{0.98801565}
{0.24290301}
{-0.862021}
{-0.0332376}
{-0.016254589}
{0.31762996}
{-0.9933015}
{0.68199885}
{0.116383344}
{0.1253271}
{-0.9133735}
{-0.15761937}
{0.33090723}
{-0.24635711}
{0.087995425}
{-0.11243346}
{0.41731966}
{-0.68970585}
{0.33786628}
{0.6073986}
{0.745085}
{0.1684181}
{-0.94305587}
{0.69993466}
{0.3182782}
{0.5558034}
{-0.966168}
{-0.18096021}
{-0.09042403}
{0.77720886}
{0.6608772}
{-0.7722526}
{0.17076814}
{0.86453027}
{-0.92631084}
{0.1037275}
{-0.45320046}
{-0.48818004}
{0.6982669}
{0.6919435}
{0.049431875}
{0.55469024}
{-0.17437597}
{-0.6242469}
{0.75531864}
{-0.7766879}
{0.33131766}
{0.76428026}
{0.6257739}
{0.58022976}
{-0.4682171}
{-0.3893121}
{0.010591819}
{-0.29156947}
{-0.7608452}
{-0.62953085}
{0.66808224}
{0.31849635}
{0.19545023}
{0.085554324}
{0.11068347}
{0.6811013}
{-0.63271695}
{-0.024728477}
{0.7519944}
{0.6526215}
{-0.22033645}
{-0.21395339}
{0.9975946}
{0.63224375}
{-0.93494564}
{0.41011733}
{-0.036764547}
{0.49390185}
{0.87640977}
{-0.6980873}
{-0.74756956}
{-0.58127844}
{0.021252448}
{0.7489904}
{0.5682609}
{0.98670197}
{-0.3002016}
{-0.68776274}
{0.6648319}
{-0.6857308}
{0.17378613}
{1.0305666}
{0.13979754}
{-0.5739775}
{0.77540714}
{-0.68783796}
{-0.303959}
{0.56302947}
{-0.35360605}
{-0.1191453}
{-0.531785}
{0.25865075}
{-0.8642843}
{-0.8993972}
{0.81480217}
{-0.4434102}
{-1.0055547}
{0.0045801764}
{0.6593957}
{0.95826167}
{0.88577116}
{-0.14081687}
{-0.66355586}
{0.7163418}
{0.3055517}
{-0.45278507}
{-0.5387368}
{-0.6551126}
{-0.2529546}
{0.9560011}
{1.023318}
{0.1750078}
{-0.04337859}
{-0.44940284}
{-0.10110971}
{0.4634649}
{0.17869353}
{0.90291095}
{-0.6536901}
{0.8606957}
{-0.8294755}
{0.656072}
{-0.195063}
{0.36447948}
{0.79048324}
{-0.13477823}
{-0.9703922}
{-0.2949445}
{0.6458892}
{-0.36032102}
{0.25465405}
{-0.032681413}
{0.7598972}
{-0.5916778}
{0.6986358}
{-0.083559394}
{0.36884996}
{-0.5594577}
{0.9047737}
{0.36385348}
{0.8266636}
{-0.3359109}
{-0.6251447}
{-0.41588482}
{-0.94185704}
{-0.7351868}
{0.4249164}
{0.88717747}
{0.50460666}
{-0.7728531}
{0.9879639}
{0.69120467}
{0.5524196}
{0.60926497}
{-0.37768543}
{-0.48046878}
{-0.6461015}
{0.14056882}
{-0.093149155}
{-0.4139588}
{-0.69206214}
{0.45411402}
{0.3948573}
{-0.048378423}
{0.13575973}
{0.53983897}
{0.49984345}
{-0.8217413}
{-0.3991105}
{-0.5988931}
{0.12826113}
{0.44301537}
{0.3833447}
{-0.24644254}
{-0.3977369}
{0.33326563}
{0.003913774}
{-0.6949355}
{0.3228773}
{0.64201427}
{0.2361314}
{-0.7722983}
{0.9775827}
{0.87056565}
{-0.26639196}
{0.3831924}
{-0.20208538}
{0.9594209}
{0.10486267}
{0.97026324}
{-0.8510668}
{1.0051639}
{0.88082045}
{-0.2696031}
{0.32822692}
{0.24291569}
{-0.5569591}
{0.6940329}
{-0.62527204}
{-0.20627664}
{-0.958447}
{-0.55216616}
{-0.18769443}
{0.23081419}
{-0.095821835}
{0.81657505}
{0.13607652}
{-0.9487052}
{0.4186369}
{0.7592294}
{0.7889135}
{0.88698345}
{0.025754126}
{-0.53524446}
{-0.17919505}
{-0.50185204}
{-0.67818415}
{-0.08798917}
{0.61075234}
{-0.12114707}
{-0.25065055}
{0.26277497}
{0.7427814}
{0.10439914}
{0.8878448}
{0.779109}
{-0.44169033}
{-0.0918981}
{0.08616798}
{0.025374169}
{-0.9622052}
{0.48499665}
{0.5818506}
{-0.78433055}
{0.39356506}
{0.29227325}
{-0.34023812}
{0.064533055}
{0.12129524}
{-0.4776314}
{0.6532542}
{0.5422288}
{-0.61008}
{-0.654457}
{-0.42186913}
{-0.6663918}
{0.4469515}
{-0.22661889}
{0.086675584}
{0.44011456}
{0.07048756}
{0.3843439}
{-0.42475572}
{-0.5612536}
{0.5557687}
{0.20934717}
{0.034494642}
{-0.24543741}
{-0.4003564}
{-0.46068442}
{-0.9664343}
{0.18521133}
{-0.8561542}
{0.0545163}
{0.24499077}
{0.60020834}
{0.20534742}
{0.08071481}
{0.51820225}
{-0.81890786}
{-0.5202427}
{0.46079242}
{0.1770386}
{0.5942686}
{-0.29925287}
{-0.9361356}
{0.46728972}
{0.9060719}
{0.17747939}
{-0.1957997}
{-0.16312146}
{0.54080003}
{0.3321818}
{-0.5889616}
{-0.13806763}
{-0.5806693}
{-0.7676928}
{-0.22883916}
{0.62095404}
{-0.8807399}
{-0.295879}
{-0.4246427}
{0.07088204}
{0.24354269}
{0.22425616}
{0.99992806}
{-0.6393526}
{0.5579859}
{0.7253759}
{-0.31977564}
{-0.32742432}
{0.5266803}
{0.29821956}
{-0.16745648}
{0.82360286}
{-0.13827746}
{-0.17560875}
{0.97087324}
{-0.28034884}
{0.5962219}
{-0.30164063}
{-0.41377777}
{0.1946245}
{-0.23195018}
{0.06236918}
{0.49218035}
{-0.41317722}
{0.5628955}
{-0.7388973}
{-0.8962946}
{0.7190578}
{-0.85646224}
{0.84538794}
