-- Efficiency --
90.32258
-- Weights --
{-0.9565314}
{0.8867569}
{0.26401266}
{-0.2570526}
{0.43121436}
{-0.46965045}
{0.69554216}
{-0.881549}
{-0.00949027}
{0.9436661}
{-0.788587}
{0.16884944}
{-0.8268014}
{0.2893303}
{-0.007662583}
{-0.6617985}
{0.18408874}
{-0.9355926}
{0.5571835}
{-0.9454607}
{0.9108778}
{-0.7569635}
{-0.4212464}
{0.54748183}
{0.9966625}
{1.0050683}
{-0.32880867}
{0.5488965}
{0.87158334}
{-0.7305047}
{0.06843278}
{-0.8959724}
{0.32708767}
{-0.42285973}
{0.86081564}
{-0.63450944}
{-0.032129306}
{-0.70763665}
{0.42611787}
{-0.5458376}
{-0.50290716}
{-0.22481324}
{0.89286834}
{0.968957}
{-0.8302537}
{0.112047896}
{-0.76842004}
{-0.8826425}
{-0.19401714}
{-0.033986755}
{0.9910886}
{-0.37412736}
{-0.85117614}
{-0.43688434}
{-0.70939094}
{-0.77906156}
{0.2732065}
{-0.6523363}
{-0.80154014}
{-0.36604905}
{0.6888336}
{-0.44271907}
{-0.10840736}
{-0.21536945}
{0.955927}
{-0.83483}
{-0.41725573}
{0.08736927}
{-0.472975}
{0.5158366}
{-0.16491216}
{-0.12554814}
{-0.100879736}
{-0.37766263}
{0.43460548}
{-0.38724172}
{0.5674797}
{-0.35791272}
{0.025969952}
{0.11354392}
{0.5532247}
{0.2023205}
{0.7284604}
{-0.5239702}
{0.6121999}
{-0.45605356}
{0.9262668}
{0.22888641}
{0.69530237}
{1.0366707}
{0.62348074}
{0.71257883}
{0.58650386}
{0.8020976}
{-0.17760523}
{0.1957123}
{-0.8634914}
{0.3009717}
{-0.00032168138}
{0.70159334}
{-0.81010234}
{-0.63907796}
{0.5273648}
{0.6864319}
{-0.94759953}
{0.3275599}
{-0.42069077}
{-0.16867311}
{0.530192}
{-0.5952675}
{-0.15972759}
{-0.41071397}
{0.87456906}
{0.83571386}
{-0.06543701}
{-0.47975817}
{0.38261703}
{-0.76741606}
{0.2042747}
{0.28479037}
{-0.8393768}
{0.83862364}
{-0.091874324}
{-0.20610593}
{-0.71405137}
{-0.7164954}
{0.02495578}
{-0.1511731}
{0.49126032}
{-0.9264398}
{-0.5779783}
{-0.63301677}
{-0.86746657}
{-0.6296065}
{-0.5161222}
{0.115514226}
{-0.5159806}
{0.27827945}
{-0.61327964}
{-0.14537546}
{0.8683289}
{0.10796204}
{0.0086299}
{0.8476744}
{-0.6449529}
{-0.68908924}
{0.21605547}
{-0.24104813}
{-0.86723936}
{0.41178465}
{-0.59813565}
{-0.1466986}
{-0.8509935}
{0.5879546}
{-0.034455948}
{-0.51992893}
{0.69332516}
{-0.84743965}
{-0.024593864}
{0.93656826}
{1.0134498}
{0.8548155}
{-0.52456754}
{-0.79426724}
{0.314338}
{0.2171349}
{-0.6333466}
{0.32212916}
{0.48205426}
{0.27321002}
{0.90898705}
{-0.7156032}
{-0.36793277}
{0.85025156}
{0.38424656}
{0.9479347}
{0.5760912}
{0.06784041}
{0.17310593}
{0.6756437}
{0.64316547}
{0.048027553}
{-0.14642943}
{-0.14241551}
{-0.11293032}
{0.47890264}
{-0.5108748}
{-0.4312616}
{0.33672312}
{0.37319678}
{0.07737707}
{0.8963018}
{0.85037434}
{0.6858474}
{-0.3792519}
{-0.4903393}
{0.40802982}
{-0.24499162}
{0.53460276}
{0.966827}
{0.19511035}
{-0.5156755}
{0.1256984}
{0.56836814}
{0.92466795}
{0.7338716}
{0.9381766}
{0.1163971}
{0.13768862}
{-0.25475007}
{-0.2762522}
{-0.9130088}
{-0.49542812}
{-0.14085577}
{-0.95211875}
{-0.8634728}
{-0.6691979}
{0.86936265}
{0.6407737}
{-0.3732976}
{-0.18120167}
{0.29148105}
{0.32912055}
{-0.7126503}
{0.8656031}
{-0.5292556}
{-0.6825479}
{0.6516009}
{-0.29082343}
{0.05896309}
{-0.63203806}
{0.13577779}
{-0.70987546}
{-0.10482954}
{0.95100397}
{-0.6835802}
{0.20809701}
{0.66610473}
{0.48779392}
{1.0256238}
{0.14741613}
{-0.6576001}
{0.45192835}
{0.6293984}
{0.0983104}
{-0.09938324}
{0.7534334}
{0.44084984}
{-0.43051907}
{-0.43665394}
{0.33465847}
{-0.10743091}
{-0.071802445}
{-0.046119634}
{0.7193633}
{0.7639742}
{-0.58117115}
{-0.2744087}
{-0.747051}
{0.76286757}
{-0.41984078}
{-0.8873811}
{0.29453397}
{0.5103152}
{0.68223894}
{-0.26592916}
{0.92021364}
{0.1618928}
{-0.13294098}
{0.20052058}
{0.20637901}
{-0.39894992}
{0.50804794}
{0.96222234}
{-0.005519714}
{0.33461484}
{-0.19595763}
{-0.7397089}
{0.48330373}
{0.5200611}
{-0.7941743}
{0.5200779}
{0.8184404}
{0.21290487}
{0.10367148}
{0.6122384}
{-0.429216}
{0.23281276}
{0.68321264}
{0.3598791}
{-0.21761572}
{0.7354799}
{-0.1189096}
{-0.8490084}
{-0.9336653}
{-0.25620398}
{0.7779397}
{0.72839385}
{0.15318753}
{-0.73440236}
{-0.54561055}
{0.8790033}
{-0.44509742}
{-0.8107632}
{-0.76082766}
{-0.13237764}
{0.10676922}
{-0.7558816}
{-0.4329662}
{0.7856004}
{-0.15230806}
{0.9428119}
{-0.37757632}
{-0.6869064}
{-0.7488749}
{1.0026273}
{0.42283466}
{-0.25731975}
{-0.50664645}
{-0.7585838}
{-0.3248708}
{-0.08802734}
{0.38779274}
{-0.8184045}
{0.054297905}
{0.74449366}
{-0.7097603}
{0.65314287}
{-0.4716327}
{-0.9181588}
{-0.6409594}
{0.69697577}
{0.6516155}
{-0.723769}
{0.8059161}
{0.0023768898}
{0.1546562}
{-0.8783525}
{-0.15077232}
{-0.44267866}
{-0.36495277}
{0.8406185}
{0.9243682}
{-0.33916277}
{0.43261674}
{-0.78468895}
{0.35287812}
{-0.4370452}
{0.4919727}
{-0.6823779}
{1.0026053}
{0.70074}
{0.44774106}
{-0.24578711}
{-0.25344625}
{-0.3383169}
{0.25469306}
{-0.9318469}
{-0.5713293}
{0.07678589}
{0.05341099}
{0.30742908}
{0.63705623}
{-0.22273222}
{-0.75182974}
{-0.83595157}
{0.13730758}
{0.077544205}
{0.5157829}
{-0.6851886}
{-0.6377485}
{-0.5642687}
{-0.00400855}
{-0.09534819}
{0.13830943}
{1.0333625}
{0.36238483}
{0.1272612}
{-0.24614966}
{-0.5771808}
{0.20190337}
{-0.47909942}
{-0.59464574}
{-0.63929135}
{0.13424823}
{0.72106725}
{0.06813887}
{0.39348063}
{0.48877767}
{1.0015527}
{0.09394896}
{0.96794504}
{0.0547447}
{-0.88392353}
{-0.45895407}
{0.1979251}
{-0.0863877}
{-0.8442312}
{0.118211105}
{0.64414686}
{0.9808756}
{-0.020576864}
{-0.6549886}
{-0.08823019}
{-0.68509305}
{0.53638965}
{-0.47861686}
{0.6053814}
{-0.33042642}
{0.9496298}
{0.55807024}
{-0.02434724}
{0.60027397}
{-0.6650021}
{0.6838324}
{-0.33808544}
{0.68220294}
{-0.31458968}
{-0.9458478}
{-0.4720754}
{-0.6224488}
{-0.035839327}
{-0.43336335}
{0.24621801}
{0.74855435}
{0.678049}
{0.09011638}
{-0.25568756}
{-0.059976637}
{-0.50402033}
{0.37591353}
{0.24832423}
{0.8419744}
{0.7332204}
{-0.35433644}
{-0.5198595}
{-0.9563292}
{-0.11668337}
{-0.40218556}
{-0.8606883}
{0.24765828}
{0.7903498}
{0.7829614}
{0.6115342}
{-0.39251587}
{0.48320398}
{-0.05665522}
{-0.70833933}
{-0.30850956}
{0.65113294}
{-0.810433}
{0.74664617}
{0.28341487}
{-0.7517904}
{-0.0794853}
{0.46694276}
{0.6567813}
{-0.102304734}
{-0.70671374}
{-0.9286764}
{0.15940073}
{0.906317}
{0.4184779}
{0.7501479}
{-0.6562885}
{-0.2883277}
{0.4035684}
{-0.4343141}
{0.7835525}
{0.79451543}
{0.9252612}
{-0.8594105}
{-0.57336223}
{0.11969261}
{0.23921677}
{-0.5918673}
{0.27822283}
{-0.438917}
{-0.07118125}
{-0.9164318}
{0.37122133}
{0.108027846}
{-0.29546633}
{-0.05931988}
{0.37666872}
{0.83220804}
{-0.892472}
{0.31058535}
{0.6124414}
{-0.5788968}
{-0.8959095}
{0.13994965}
{-0.53977144}
{-0.6050429}
{-0.6811151}
{-0.4738727}
{0.3478637}
{-0.35838655}
{-0.1242613}
{0.18751048}
{-0.43099424}
{0.100527644}
{0.12967968}
{0.9732701}
{-0.34247634}
{-0.84577775}
{0.8063729}
{0.96920305}
{-0.013004083}
{0.012432129}
{-0.5540855}
{-0.6523987}
{-0.55115616}
{-0.13527398}
{0.28886724}
{0.8093622}
{0.22596434}
{-0.42428315}
{-0.46068642}
{0.6795739}
{-0.6386725}
{-0.25081566}
{0.84645045}
{0.47932303}
{-0.02697279}
{-0.7427027}
{-0.6107477}
{-0.92781156}
{-0.26985404}
{-0.65286905}
{-0.77814114}
{-0.6135942}
{-0.5318023}
{0.22559291}
{-0.6845885}
{0.25818276}
{0.1766043}
{0.38687274}
{0.48209098}
{-0.43718025}
{0.23347405}
{-0.8464468}
{-0.8858455}
{-0.84234995}
{0.8548807}
{0.41135055}
{-0.52891415}
{-0.837903}
{0.5560161}
{-0.62805116}
{0.67251277}
{0.0680014}
{-0.04496077}
{-0.51648027}
{0.12524901}
{0.9407529}
{-0.26881143}
{0.71757}
{0.579782}
{-0.00265646}
{-0.48133713}
{-0.48345032}
{-0.81638724}
{0.25320622}
{0.6015483}
{-0.7489759}
{0.5516421}
{-0.92469513}
{0.69948995}
{0.114200264}
{-0.5084304}
{0.29169342}
{-0.41861984}
{0.87824863}
{-0.92665803}
{0.5234132}
{-0.40911362}
{-0.95137537}
{0.9166815}
{-0.6662656}
{-0.17815515}
{0.70633155}
{-0.8369432}
{-0.94118315}
{0.8064536}
{0.7874473}
{0.27678975}
{0.43704018}
{-0.23949286}
{-0.91689074}
{-0.93562144}
{-0.36241403}
{-0.121793255}
{0.041932393}
{0.115957946}
{-0.23297219}
{-0.7138814}
{0.08392331}
{-0.80575633}
{0.19836418}
{0.0078489585}
{0.10649308}
{0.12931804}
{-0.5413798}
{-0.04837755}
{-0.19174543}
{-0.82424456}
{-0.77620584}
{-0.5740689}
{-0.27306402}
{0.7692058}
{0.25715435}
{-0.57313764}
{-0.16603673}
{-0.059385378}
{-0.063087836}
{0.9103588}
{0.61799556}
{-0.5242441}
{0.25353405}
{0.9351591}
{-0.6582521}
{0.11920529}
{1.0023574}
{-0.8563565}
{0.2830864}
{0.51478094}
{0.4259558}
{0.29897073}
{-0.18019679}
{-0.65561396}
{-0.07625937}
{0.43205932}
{-0.5220101}
{-0.22807404}
{-0.7173532}
{-0.96103513}
{0.011209434}
{-0.2891216}
{-0.91091704}
{0.55126536}
{0.46284974}
{-0.22319229}
{-0.31975257}
{0.9264375}
{0.24756168}
{0.7421077}
{0.5990589}
{-0.8856152}
{0.69601434}
{0.89645714}
{0.8010727}
{-0.068823405}
{-0.6151012}
{-0.743613}
{-0.799852}
{0.29789641}
{0.3493261}
{0.73482287}
{0.92274165}
{0.8922857}
{0.24916849}
{-0.14295042}
{0.8947875}
{0.7743424}
{-0.25172108}
{-0.7724941}
{-0.17477348}
{0.6634499}
{0.85721034}
{0.5313964}
{0.7530046}
{-0.8992797}
{-0.65220696}
{-0.28281444}
{-0.22210175}
{0.19378951}
{-0.80400413}
{0.6140087}
{0.8840291}
{-0.61621106}
{0.26033905}
{-0.2531591}
{-0.76263195}
{-0.17896649}
{-0.7633907}
{-0.79968196}
{-0.55073965}
{0.5289687}
{0.6205123}
{0.83433324}
{-0.77939385}
{0.018256167}
{-0.2657806}
{1.0008895}
{-0.68816686}
{-0.8370906}
{-0.21810861}
{0.40474474}
{-0.46082294}
{1.0127946}
{-0.4832939}
{-0.1558015}
{0.43513358}
{-0.13844225}
{0.9521725}
{0.7240641}
{0.17889883}
{0.58513415}
{0.29802263}
{-0.34265465}
{0.38181433}
{0.24983671}
{-0.15573609}
{0.649387}
{0.75416243}
{-0.63852656}
{0.3706543}
{0.90017205}
{0.024173766}
{-0.046116624}
{-0.41617092}
{-0.7049019}
{-0.67951524}
{-0.2873461}
{-0.8880222}
{0.0060985703}
{0.76362056}
{-0.5306939}
{0.34972826}
{0.27546242}
{-0.52129775}
{-0.9372803}
{0.9304176}
{0.2817362}
{0.28377682}
{0.06157611}
{-0.89780086}
{-0.14429456}
{-0.4815608}
{-0.028759498}
{0.43013835}
{0.33924854}
{-0.70120025}
{-0.87939346}
{0.27913216}
{-0.07831977}
{0.85367185}
{0.37384465}
{0.18016057}
{-0.52973014}
{-0.860727}
{-0.12209271}
{-0.42845252}
{0.054749135}
{-0.17297211}
{-0.42257163}
{0.6972862}
{0.7177743}
{-0.046617657}
{0.122593336}
{-0.56392014}
{0.6810036}
{-0.320673}
{-0.91139185}
{-0.5939999}
{0.24103619}
{0.05132057}
{0.7092799}
{-0.1601696}
{-0.63341594}
{-0.2264738}
{0.94789493}
{0.41424933}
{0.2459909}
{0.1098863}
{-0.77264583}
{0.5284511}
{0.5111871}
{0.96907055}
{-0.2667708}
{0.031104473}
{0.7311361}
{0.97786003}
{-0.1248102}
{0.05618748}
{-0.7912908}
{-0.6300357}
{0.3905876}
{0.9803492}
{0.6431695}
{-0.7802138}
{-0.87673914}
{-0.33590984}
{-0.21408261}
{-0.92768216}
{0.04373644}
{0.8195782}
{0.8676914}
{0.6247412}
{0.3825765}
{0.83111376}
{-0.0053037023}
{-0.17763874}
{0.30768326}
{-0.7347935}
{-0.88081694}
{-0.33523408}
{-0.3863127}
{0.16860627}
{-0.2960099}
{-0.07379489}
{1.0148395}
{-0.6460305}
{0.7733716}
{0.4661181}
{-0.010100383}
{-0.95067865}
{0.029468691}
{0.41015923}
{-0.52817833}
{-0.07625382}
{-0.7417982}
{-0.5983597}
{0.34972265}
{-0.06661691}
{0.3277382}
{0.3586632}
{-0.9178556}
{0.0136235505}
{-0.45627248}
{0.58153045}
{-0.27550647}
{0.03497282}
{0.034988724}
{-0.8938007}
{0.92571867}
{-0.6053841}
{0.4274933}
{-0.37039617}
{-0.7427279}
{0.015549208}
{-0.41174918}
{0.97496754}
{-0.24265859}
{-0.014707156}
{-0.5120603}
{0.31158614}
{0.6913351}
{-0.24458931}
{0.9009088}
{0.28146413}
{0.028681021}
{0.5261506}
{-0.4796661}
{-0.048459746}
{-0.314234}
{-0.13503128}
{0.68022424}
{1.0084813}
{-0.43791148}
{0.6722221}
{-0.18713014}
{-0.7056671}
{-0.6875433}
{0.5638724}
{-0.8231611}
{0.062030368}
{-0.9339014}
{-0.93486905}
{0.13055632}
{0.4408355}
{0.92163575}
{0.13878359}
{0.081848375}
{-0.7878157}
{-0.055674367}
{0.69425386}
{0.756693}
{-0.7441298}
{-0.94190466}
{-0.8052326}
{-0.73228425}
{-0.3378018}
{-0.16047308}
{0.83261675}
{-0.6803463}
{1.0453761}
{0.33741692}
{0.8591286}
{-0.49420205}
{-0.49873844}
{-0.5017518}
{-0.76695937}
{0.22952834}
{0.22889097}
{-0.9330975}
{0.4023975}
{-0.6600743}
{-0.6916286}
{-0.020171184}
{-0.58574665}
{0.36547574}
{0.9960424}
{0.6195818}
{-0.35245013}
{-0.097558916}
{-0.83302665}
{0.47696093}
{0.0606065}
{0.71692246}
{-0.37067658}
{-0.7556757}
{0.73983943}
{-0.98500913}
{0.42251092}
{0.28245047}
{-0.09113149}
{0.54874253}
{0.8656508}
{-0.91532886}
{0.97360796}
{-0.14427513}
{-0.7986929}
{-0.3850114}
{-0.49949202}
{0.6992118}
{0.72880536}
{-0.92905295}
{-0.84746385}
{0.43153155}
{-0.38000488}
{-0.7517935}
{0.0059508085}
{-0.6635067}
{0.20128974}
{0.7880236}
{-0.006058149}
{-0.52335835}
{0.24011649}
{0.387867}
{0.3198447}
{0.5945047}
{-0.5158992}
{-0.91973364}
{0.29834786}
{0.105506614}
{0.93089557}
{-0.9455658}
{-0.60673696}
{-0.10771581}
{0.50027925}
{-0.6656741}
{-0.75192374}
{0.21018061}
{0.8898568}
{-0.52833664}
{0.70298314}
{0.89711255}
{0.9405036}
{-0.6786994}
{0.7389396}
{-0.86815405}
{0.8955076}
{1.019921}
{0.619372}
{0.62529045}
{0.943674}
{-0.18370625}
{0.46031615}
{-0.19214123}
{0.43991667}
{0.11935156}
{0.44861257}
{0.5463527}
{1.0616015}
{-0.9687923}
{0.94802237}
{0.34977618}
{0.18697123}
{0.6233891}
{-0.67311156}
{-0.8492845}
{0.8659843}
{-0.60624325}
{-0.9332897}
{-0.6344465}
{-0.46688905}
{-0.29616138}
{0.7505331}
{-0.4596379}
{0.24062073}
{0.48569706}
{0.064471856}
{-0.4866802}
{0.70155}
{0.31762102}
{0.02251514}
{-0.75165194}
{0.46376663}
{-0.090460606}
{0.52485603}
{0.57878244}
{0.74353695}
{0.7469164}
{0.07056568}
{-0.22246009}
{0.14154384}
{-0.25515816}
{0.11608493}
{-0.042901766}
{-0.28110626}
{0.46352342}
{-0.22895975}
{0.06815259}
{-0.9286618}
{0.4423788}
{0.68148726}
{0.47727257}
{-0.1801165}
{0.28779534}
{0.13336492}
{0.15148912}
{0.28764966}
{0.8606502}
{-0.33556026}
{-0.32685426}
{-0.56245786}
{0.021496752}
{-0.038209353}
{-0.37563905}
{0.07999738}
{0.39913872}
{-0.9632352}
{0.73431814}
{0.044282608}
{-0.23174164}
{-0.45152742}
{0.12941532}
{-0.31123185}
{-0.7268156}
{0.43256566}
{-0.83856577}
{0.35468346}
{0.5736526}
{0.20627461}
{0.59511536}
{-0.1095405}
{0.091589384}
{-0.010990745}
{0.68749213}
{-0.1851915}
{-0.82896245}
{-0.8538909}
{-0.0023539371}
{-0.6755388}
{-0.897637}
{-0.78084964}
{0.54334176}
{0.16576083}
{-0.7338313}
{0.64715683}
{0.9199494}
{0.019556774}
{0.81765044}
{0.21982513}
{0.15788943}
{-0.73231494}
{0.58649576}
{-0.5976044}
{-0.55511796}
{0.16077831}
{-0.66700876}
{0.17985097}
{-0.08137069}
{0.5241379}
{0.77847064}
{-0.8582222}
{0.46016172}
{0.19848554}
{-0.7354044}
{-0.82821125}
{0.26418388}
{-0.22574194}
{0.006666879}
{-0.7195582}
{0.4363287}
{-0.42954847}
{0.45484927}
{0.5275139}
{-0.8958066}
{-0.088817224}
{-0.6080078}
{0.3367759}
{-0.8308563}
{0.5817066}
{0.25798848}
{-0.90150046}
{-0.83022934}
{0.9889891}
{0.07916684}
{-0.92562884}
{-0.0014160816}
{-0.18768373}
{-0.79718816}
{0.7641114}
{0.8017524}
{-0.6435119}
{0.9986378}
{-0.63414687}
{-0.75991565}
{0.33997577}
{-0.59808505}
{-0.9653185}
{0.742957}
{0.48657185}
{0.8793825}
{-0.8013049}
{-0.4516422}
{-0.09324923}
{-0.09463031}
{0.1885073}
{-0.24806347}
{-0.5822779}
{0.3543065}
{0.5459443}
{-0.03682864}
{0.7162246}
{0.6331078}
{-0.45517722}
{0.29267442}
{0.9927867}
{-0.6087674}
{-0.05068859}
{0.6943585}
{-0.86572206}
{-0.95450866}
{-0.48259524}
{0.86403906}
{0.26124206}
{-0.7749723}
{-0.80472106}
{0.16625674}
{0.22500476}
{-0.9139682}
{-0.8353602}
{-0.20514199}
{0.6402493}
{0.42619827}
{-0.088035844}
{-0.70907295}
{0.63326275}
{-0.2270355}
{0.9753444}
{0.7610824}
{0.47588024}
{-0.6727208}
{-0.35059625}
{0.24322508}
{0.23706704}
{0.17347887}
{-0.8882254}
{0.86575806}
{0.36980304}
{-0.55352366}
{0.85600317}
{0.55736953}
{-0.12471991}
{-0.61262095}
{0.44596362}
{-0.30806932}
{0.36296046}
{0.896696}
{-0.8740353}
{0.25299802}
{-0.5866819}
{-0.09058792}
{-0.96684486}
{0.3341541}
{0.8414795}
{-0.84534013}
{0.089030705}
{0.44659495}
{0.69655144}
{-0.37701365}
{-0.1468147}
{-0.27211392}
{-0.24079318}
{0.8540174}
{0.066661805}
{0.52967894}
{-0.37920856}
{0.7889985}
{-0.60635996}
{-0.46701345}
{-0.28270912}
{-0.14810345}
{-0.3413793}
{0.055288613}
{0.7097287}
{-0.15042612}
{-0.57574826}
{0.40087262}
{0.013854015}
{-0.64086163}
{0.7034932}
{-0.027422138}
{-0.64463294}
{0.06978032}
{-0.9547646}
{0.2480068}
{-0.54481053}
{-0.16113278}
{-0.3014098}
{-0.39710054}
{-0.3269401}
{0.36777356}
{-0.19265029}
{0.6812673}
{1.0799222}
{0.80588806}
{-1.0616162}
{-0.1510532}
{0.012185018}
{0.24916771}
{-0.9189357}
{0.2946369}
{-0.8737668}
{0.22873119}
{-0.231042}
{0.3657054}
{-0.08885856}
{0.14502718}
{-1.0550288}
{0.34444386}
{0.061235942}
{0.29288962}
{0.62969834}
{0.44090635}
{0.37609985}
{0.4588702}
{-0.57492745}
{0.0837399}
{-0.87157875}
{0.24811915}
{-0.56189775}
{-0.2676018}
{-0.85346586}
{-0.84009945}
{-0.74719316}
{-0.8972787}
{0.758407}
{0.569394}
{-0.26611233}
{0.6583484}
{-0.04462624}
{-0.93236506}
{-0.46192423}
{0.13433447}
{-0.865583}
{0.9847847}
{-0.09201525}
{-0.7550928}
{0.19404332}
{0.1443448}
{-0.19588906}
{0.54681915}
{-0.60387325}
{0.24174574}
{-0.9115028}
{-0.2547807}
{-0.01568544}
{-0.19331047}
{0.9915192}
{0.91768855}
{-0.3106086}
{0.7159411}
{-0.48185933}
{0.2750911}
{-0.09902627}
{0.14766432}
{-0.90591395}
{0.8995632}
{-0.24631111}
{0.399102}
{0.92874295}
{0.65365267}
{0.0028352109}
{-0.199954}
{-0.7991051}
{0.35960552}
{0.44377214}
{0.6444615}
{0.60406893}
{0.12633963}
{-0.6732672}
{0.4377258}
{0.41674426}
{0.6133258}
{0.9379191}
{-0.4325225}
{0.75216836}
{-0.42968485}
{-0.60373694}
{0.97700155}
{0.7583278}
{-0.29975143}
{0.33446798}
{0.07399317}
{0.8952956}
{-0.017019436}
{-0.39784247}
{0.15299276}
{-0.913746}
{-0.053821728}
{-0.1845819}
{-0.48635522}
{-0.35723272}
{0.16876249}
{-0.57611734}
{-0.9184114}
{0.51589084}
{0.31374148}
{-0.23860246}
{-0.9557842}
{-0.7040382}
{-0.8289707}
{0.121814616}
{-0.091970034}
{-0.29325092}
{0.44288808}
{0.7154018}
{-0.32053372}
{-0.27709004}
{0.9305373}
{0.3587378}
{-0.09198434}
{-0.9356786}
{0.6075176}
{1.0603656}
{0.81130254}
{0.3385205}
{0.34730703}
{0.42534235}
{-0.75284207}
{0.77830774}
{0.9053688}
{-0.5269538}
{0.8251709}
{-0.7508288}
{0.11365754}
{-0.73013085}
{-0.56064737}
{-0.7622105}
{0.9181683}
{-0.66832036}
{-0.78935945}
{-0.43619356}
{-0.585451}
{-0.5961779}
{0.730291}
{-0.0011760966}
{-0.4771925}
{-0.71573484}
{-0.3601837}
{-0.9365549}
{-0.8539529}
{-0.8738015}
{0.9014944}
{0.28124377}
{0.96578175}
{-0.78936774}
{0.37971976}
{-0.32235578}
{-0.47427472}
{0.11587754}
{-0.15374467}
{0.66211724}
{0.10269095}
{0.8098689}
{0.2963076}
{0.40109056}
{-0.9523156}
{-0.7404844}
{0.22648838}
{0.76075214}
{0.95424914}
{0.9514668}
{0.21668151}
{-0.055577163}
{-0.9204052}
{0.64073193}
{0.9452404}
{-0.15603077}
{-0.15879595}
{0.21819562}
{-0.7372576}
{0.20087944}
{-0.2910119}
{0.4494234}
{0.15819052}
{-0.47169185}
{0.4842347}
{0.7063113}
{0.12164109}
{-0.10129346}
{-0.5679611}
{-0.8262409}
{-0.074746676}
{0.8156121}
{-0.15257107}
{0.5651593}
{0.69182503}
{0.5222264}
{0.3616584}
{-0.9241697}
{-0.1666083}
{-0.8296352}
{-0.023684755}
{0.28580233}
{-0.90472686}
{-0.036954783}
{0.92438716}
{-0.668592}
{0.9273251}
{0.44019327}
{0.5757321}
{0.5310854}
{-0.7247704}
{0.96136224}
{-0.85419726}
{-0.6104916}
{-0.43045923}
{-0.47087508}
{0.123247094}
{-0.28996372}
{-0.25837728}
{0.63045734}
{0.5900668}
{-0.225653}
{0.17821148}
{0.30541286}
{-0.57418257}
{0.5344666}
{-0.45187446}
{-0.24102233}
{0.9806622}
{0.15343389}
{-0.6731559}
{0.31485948}
{0.43282083}
{-0.016128208}
{-0.92446554}
{0.30034372}
{0.20626749}
{0.331943}
{0.7068068}
{-0.5357599}
{-0.738105}
{1.0819746}
{-0.7133328}
{0.0976463}
{0.9187321}
{-0.6103359}
{0.7754921}
{-1.0375676}
{-0.32857946}
{-0.14955454}
{-0.16914031}
{-0.7257662}
{-0.9384556}
{0.447415}
{-0.7354275}
{0.13714975}
{-0.42001972}
{0.25033027}
{0.88563}
{-0.8579659}
{0.8302041}
{-0.7380201}
{-0.40547797}
{0.26592726}
{-0.7793086}
{1.1100886}
{0.33735135}
{-0.58196527}
{-0.4649521}
{-0.60681415}
{0.69295084}
{0.272241}
{1.0372328}
{0.014672291}
{-0.15670654}
{0.501492}
{-0.92307174}
{1.1048054}
{-0.15907261}
{0.77711}
{-0.6465857}
{0.6004618}
{0.98923814}
{0.7440999}
{-0.61697984}
{0.48545638}
{-0.63548434}
{0.8364784}
{0.1675161}
{0.83137226}
{-0.6355127}
{0.8183516}
{-0.095693775}
{0.2632441}
{0.88233507}
{-0.90992236}
{0.5227763}
{0.5449394}
{0.36060956}
{-0.59443337}
{-0.23155299}
{1.0628626}
{-0.8450967}
{0.68116164}
{-0.04791652}
{0.70407546}
{-0.1658077}
{-0.02457022}
{0.0073722405}
{0.33592805}
{-0.3540177}
{0.93082273}
{-0.17688803}
{-0.0649146}
{-0.90795314}
{1.0425334}
{0.54750156}
{-0.7747083}
{-0.19498107}
{-0.5116462}
{0.9394431}
{0.97725224}
{-0.3471577}
{0.7771141}
{-0.8007328}
{0.42163977}
{0.05114649}
{-0.8254704}
{0.7718922}
{-0.9121437}
{-0.8144146}
{0.37440518}
{0.6030372}
{-0.55357045}
{-0.9359757}
{-0.2186775}
{0.28545237}
{0.50566274}
{-0.1257045}
{-0.21864535}
{0.12250816}
{0.6374116}
{0.84417665}
{-0.23807704}
{0.32309672}
{-0.07984544}
{-0.05338006}
{0.6797157}
{-0.044483617}
{0.8973218}
{-0.28771493}
{0.68849856}
{-0.68036675}
{0.017459039}
{-0.3657684}
{0.24169715}
{-0.5080389}
{-0.1255114}
{0.9132153}
{-0.08685538}
{0.07279447}
{-0.21018933}
{-0.5443679}
{0.8312701}
{0.0005492071}
{-0.6686181}
{0.8910333}
{0.26806456}
{-0.32202548}
{-0.16844772}
{-0.33337852}
{0.373591}
{-0.5146779}
{0.4205527}
{-0.87307227}
{0.13303582}
{-0.5680061}
{1.0923651}
{-0.04516462}
{0.4166988}
{-0.08162445}
{0.6957463}
{-0.5287267}
{0.69085115}
{0.2348287}
{0.070442215}
{-0.19448707}
{-0.40756214}
{-1.0026859}
{-0.82303405}
{0.3392096}
{0.75960374}
{-0.8602664}
{0.6115799}
{0.34825543}
{0.7359302}
{-0.049725167}
{0.28587934}
{-0.7834698}
{0.60799253}
{0.023271743}
{0.5097656}
{0.35362008}
{0.08354758}
{-0.66766566}
{-0.7678001}
{-0.008428115}
{0.70409733}
{-0.081421666}
{-0.11258087}
{0.6864511}
{0.85598516}
{0.425757}
{0.64810723}
{0.20015672}
{-0.6598097}
{0.19031894}
{-0.5471745}
{-0.96365464}
{-0.6692381}
{-0.6637208}
{0.6671762}
{0.17802098}
{-0.64383405}
{0.9207873}
{-0.5871359}
{0.0039200587}
{-0.40088022}
{-0.8070876}
{0.39539057}
{-0.660375}
{-0.3972835}
{0.6056984}
{-0.6596313}
{0.32687548}
{0.43268442}
{0.34373337}
{-0.1825352}
{-0.08457834}
{0.13652861}
{0.45337763}
{-0.7917407}
{-0.81326497}
{0.1359786}
{-0.45313445}
{0.33659193}
{-0.7082876}
{0.48151404}
{-0.72943705}
{0.32866997}
{-0.91750276}
{0.28246164}
{0.46110284}
{0.5516193}
{-0.6001607}
{0.17109269}
{-0.18982585}
{-0.9261831}
{0.18197134}
{0.11339832}
{-0.93636674}
{0.16553007}
{-0.9536842}
{-0.22340795}
{0.65071154}
{-0.52844}
{-0.15856645}
{0.033374872}
{0.2782354}
{-0.16118306}
{-0.17104766}
{-0.93163687}
{-0.36468667}
{0.06065224}
{-0.031195898}
{0.21151583}
{-0.5975092}
{0.42895463}
{0.023578385}
{0.13561419}
{-0.60695356}
{0.30049872}
{0.77769625}
{0.5062261}
{-0.9429748}
{-0.42816234}
{0.6064981}
{0.6210361}
{-0.9294755}
{0.43136066}
{-0.8932692}
{-0.62427896}
{0.29733258}
{-0.2596771}
{0.3261576}
{-0.8858474}
{0.4322}
{0.6201755}
{0.3079119}
{-0.059089635}
{0.37681338}
{1.0691115}
{0.44461802}
{0.0623244}
{-0.6251961}
{-0.80885273}
{-0.7702967}
{-0.26880586}
{-0.33651975}
{-0.128561}
{0.2596691}
{0.5881736}
{-0.014609096}
{-0.3946166}
{-0.22020122}
{-0.66153675}
{0.8292318}
{-0.6138546}
{0.8822905}
{0.3218922}
{-0.9184102}
{0.755255}
{-0.66264284}
{0.652109}
{0.3405338}
{-0.6837562}
{0.6916727}
{0.5407873}
{0.08427896}
{-0.2842285}
{0.086055696}
{-1.0369157}
{0.39969838}
{-0.54360455}
{-0.87417305}
{-1.1030691}
{-0.039030503}
{-0.26843137}
{-0.17430398}
{0.059740465}
{0.39450678}
{-0.46981415}
{-0.54045093}
{0.6574458}
{0.6800077}
{0.9603172}
{-0.56980383}
{-0.39319733}
{-0.6628915}
{1.0647485}
{-0.29775926}
{0.71664834}
{0.2181797}
{0.54529375}
{-0.42964193}
{-0.06830494}
{0.97228277}
{-0.5347496}
{-0.27686188}
{-0.5022122}
{-0.24879591}
{-0.6540179}
{0.16630343}
{0.26031154}
{-0.65639794}
{-0.45858636}
{-0.40413138}
{-0.40158245}
{0.5910912}
{0.43912968}
{-0.028839845}
{-0.48009217}
{0.30456394}
{0.8632358}
{-0.86322653}
{0.6467153}
{0.6912949}
{0.58513254}
{-0.34846637}
{-0.6158419}
{0.24005747}
{-0.7669458}
{-0.48491132}
{-0.69532454}
{0.11538803}
{-0.31045073}
{0.22127011}
{-0.5187212}
{0.94283074}
{-0.7361474}
{-0.41954753}
{0.7623671}
{-0.4531333}
{0.69077784}
{-0.53988206}
{-0.009626013}
{-0.8239316}
{-0.052571014}
{-0.84240925}
{-0.07013101}
{-0.6766881}
{0.40486202}
{0.99011624}
{-0.4667934}
{-0.2834391}
{0.5674006}
{-0.35494587}
{-0.44253254}
{0.5140934}
{-0.5105156}
{0.6358229}
{0.31163484}
{0.6006947}
{-0.007924235}
{-0.53066385}
{0.86476004}
{-0.3954782}
{-0.8297004}
{0.6513978}
{-0.89388746}
{-0.13727657}
{0.6146638}
{-0.73349226}
{0.8180426}
{-0.34351045}
{0.9745757}
{0.7947856}
{-0.9949776}
{-0.9307581}
{-0.8147669}
{0.9624604}
{-0.7998496}
{0.10415004}
{0.9893162}
{-0.8052181}
{0.295578}
{0.5694704}
{1.1311191}
{0.67601526}
{-1.105563}
{0.76633376}
{-0.30894873}
{-0.9043857}
{-0.3049977}
{-0.40509108}
{-0.59875417}
{-0.50027144}
{-1.0036235}
{0.00048325595}
{-0.66820884}
{-0.61644757}
{0.4086305}
{-0.14376482}
{0.7608689}
{0.7655679}
{-0.03762098}
{0.5718251}
{0.29927376}
{0.59299886}
{0.56309944}
{0.77780855}
{0.22053012}
{-0.65653527}
{0.35396144}
{0.6883122}
{0.036315717}
{0.69318306}
{0.7704952}
{0.9832246}
{-0.8562726}
{-0.6581687}
{-0.0038635922}
{0.82386744}
{-0.64095575}
{0.9983486}
{0.6941356}
{-0.19356841}
{0.3148087}
{0.2630885}
{-0.06597211}
{-0.8629704}
{0.17185627}
{-0.51311624}
{-0.35287577}
{-0.18077241}
{0.57634103}
{0.53757274}
{0.9382364}
{0.25068572}
{0.25588474}
{0.010355215}
{0.3238947}
{-0.8173444}
{-0.6919462}
{-0.4160168}
{-0.8231709}
{-0.39269635}
{-0.11338725}
{-0.6128906}
{-0.31068859}
{-0.38793784}
{-0.17081611}
{-0.33721444}
{-0.24183339}
{-0.6475909}
{0.0054438356}
{-0.49825773}
{-0.6727495}
{0.031814024}
{0.95385265}
{0.44267276}
{0.057851583}
{-0.43482918}
{-0.63846093}
{-0.33857772}
{-0.9900966}
{0.6400219}
{-0.6083062}
{0.93194664}
{-0.44655782}
{0.37616697}
{0.6658401}
{-0.25321528}
{-0.29735884}
{0.5665551}
{0.062714614}
{-0.80287707}
{-0.8675761}
{0.14849634}
{0.061022732}
{-0.7280518}
{0.30670658}
{-0.86089927}
{-0.6902351}
{0.98674285}
{-0.9457339}
{-0.82418853}
{0.8338759}
{0.798792}
{0.48732522}
{-0.9290289}
{-0.544796}
{0.790233}
{0.5201789}
{0.55573696}
{-0.0033313232}
{-0.7389482}
{-0.17478594}
{-0.41656032}
{-0.6283363}
{0.97063506}
{-0.34792075}
{0.57420594}
{0.04449552}
{-0.47899702}
{-0.6444128}
{-0.5574536}
{0.8845875}
{0.7991158}
{-0.26406074}
{0.35075298}
{0.22007559}
{0.7749578}
{0.16889113}
{-0.2703373}
{0.81656855}
{0.2681804}
{-0.7780759}
{0.43484873}
{-0.52462083}
{0.6819483}
{-0.996753}
{0.88903636}
{1.0652769}
{-0.44430777}
{-1.1120248}
{-0.9533788}
{-0.2808212}
{-0.583897}
{0.3964076}
{0.02524135}
{0.5772345}
{-0.55531466}
{-1.001603}
{0.77101743}
{-0.35840958}
{-0.28400823}
{-0.16282298}
{-0.28095958}
{0.6499351}
{0.5642382}
{0.2818505}
{-0.36095676}
{0.7832759}
{0.15551737}
{-0.54828954}
{-0.07491814}
{0.15906872}
{0.37535694}
{-0.8227175}
{0.12423402}
{-0.26781985}
{-0.26215693}
{0.015849512}
{-0.7796332}
{-0.7444288}
{-0.91376674}
{-0.27051628}
{-0.36594602}
{-0.25394005}
{0.8623458}
{0.917948}
{-0.87203896}
{0.76585245}
{-0.06317479}
{0.3737706}
{-0.7286179}
{-0.7469825}
{-0.55868113}
{0.17957242}
{0.78875476}
{-0.7522974}
{0.37018803}
{0.70894456}
{-0.8132414}
{0.4340032}
{0.33543733}
{0.5756799}
{-0.6486057}
{-0.034232546}
{-0.9693135}
{0.6244089}
{0.05133881}
{0.87051845}
{-0.88744485}
{-0.7518365}
{-0.38241255}
{0.5817493}
{-0.70329463}
{0.41031653}
{0.9215348}
{0.3746387}
{-0.65684235}
{-0.29949498}
{0.91487163}
{0.82469124}
{0.7569963}
{0.55174965}
{0.983997}
{0.049579293}
{0.5061433}
{0.39447406}
{-0.5951631}
{-0.17553559}
{0.051118832}
{0.36069632}
{0.20151904}
{1.0028378}
{-0.51603115}
{0.30858925}
{0.30346817}
{-0.06777941}
{0.42496255}
{-0.30285317}
{0.42309403}
{-0.6061311}
{-0.68395483}
{0.8766123}
{-0.10757051}
{0.15867428}
{0.5425981}
{-0.5434947}
{0.8609304}
{0.59736}
{-0.26924345}
{0.09001617}
{0.6620999}
{-0.78586936}
{-0.8546752}
{-0.50253475}
{0.44042945}
{0.61177266}
{0.102771215}
{-1.0998721}
{0.2246283}
{0.9068612}
{0.57878935}
{-0.22935484}
{0.89010054}
{0.097714335}
{-0.46965906}
{-1.092055}
{-0.2268104}
{0.35315195}
{0.08740466}
{0.29692444}
{0.072427124}
{-0.63889503}
{0.63185155}
{-0.62991476}
{-0.5175881}
{-0.5325453}
{-0.34146377}
{-0.45950755}
{0.10688245}
{1.1704556}
{-0.7767652}
{-0.463078}
{0.69578004}
{-0.5625241}
{0.31717828}
{-1.0873455}
{-0.22492184}
{0.9913906}
{0.96701586}
{0.8569553}
{-0.15069154}
{-0.38287604}
{0.592662}
{-0.6937252}
{-0.40180078}
{0.78143543}
{-0.5112995}
{-0.7317961}
{0.27332437}
{0.14029254}
{-0.59056485}
{-0.3397016}
{-0.64809346}
{0.58536696}
{0.3260863}
{0.7322845}
{0.53360105}
{-0.7377548}
{-0.29922506}
{0.48350748}
{-0.78098494}
{0.90785456}
{0.22851351}
{-0.22104563}
{0.94703054}
{0.24579822}
{-0.08121569}
{-0.14128251}
{-0.18300143}
{-0.13103694}
{-0.20131633}
{-0.4067396}
{0.6166196}
{1.0062737}
{0.09149926}
{0.072107136}
{-0.902758}
{0.06523176}
{0.03415988}
{-0.7440017}
{-0.54631394}
{-0.8181341}
{-0.39871618}
{0.48741528}
{-0.9193785}
{-0.6564677}
{-0.17510578}
{0.74928606}
{0.799646}
{-0.67801756}
{-0.02279951}
{-0.3282007}
{0.2336524}
{-0.6960991}
{-0.8467723}
{0.34843066}
{0.37960106}
{0.20109391}
{0.6424295}
{0.005769711}
{0.09306121}
{-0.47254}
{-0.5428935}
{-0.831699}
{-0.08282189}
{0.1093398}
{-0.7309612}
{-0.5598264}
{0.6611187}
{-0.6952096}
{0.652002}
{-0.9075015}
{-0.13272275}
{0.957007}
{-0.765834}
{-0.11495109}
{-0.0074022226}
{1.1375594}
{0.42545584}
{-0.43668532}
{-0.0020925046}
{0.16506214}
{-0.021335859}
{0.10984907}
{-0.70727813}
{0.534457}
{0.3309932}
{-1.0583637}
{-0.27506208}
{-0.5330832}
{-0.87879956}
{-0.3399033}
{-0.045512177}
{0.41866755}
{0.037008982}
{-0.59156495}
{-0.92515856}
{0.24279925}
{-0.47202775}
{-0.87821454}
{-0.12302606}
{0.17742011}
{-0.15602872}
{0.4332229}
{-0.71458143}
{0.52611566}
{-0.045595203}
{-0.8789612}
{-0.7107596}
{0.49404037}
{0.92769563}
{-0.33098418}
{-0.15014385}
{-0.65622133}
{0.026936987}
{0.3763849}
{-0.59120035}
{-0.20444034}
{0.40486196}
{-0.52183735}
{0.35307673}
{-0.0066558444}
{0.26817468}
{0.6933856}
{-0.34561855}
{0.21735652}
{-0.67311203}
{-0.13560909}
{-0.3383237}
{-0.51571697}
{-0.3545849}
{0.29625413}
{0.82528764}
{0.22350599}
{-0.9383999}
{-0.72527266}
{0.04064}
{-0.7723934}
{0.34291723}
{0.91229004}
{0.25664276}
{0.0421126}
{0.094596796}
{0.8752387}
{-0.6539636}
{-0.24325119}
{0.63078964}
{-0.62886924}
{-0.5753845}
{1.1418976}
{-0.8520926}
{0.66019976}
{-0.29152057}
{0.985708}
{0.86274755}
{0.4516085}
{0.97372395}
{0.76004595}
{0.055030327}
{0.37915236}
{-0.90374476}
{-0.68222284}
{0.9156481}
{-0.22566795}
{-0.18903488}
{-0.115292914}
{-0.49125907}
{-0.06280058}
{-0.14737087}
{0.7129995}
{-0.8206502}
{-0.44562957}
{-0.39695156}
{0.15086731}
{0.60537684}
{-0.28839758}
{-0.21533349}
{0.9736185}
{0.90741646}
{0.52069587}
{-0.36009482}
{-0.82307225}
{0.56958187}
{-0.7491979}
{0.8194571}
{0.71052355}
{-0.49460486}
{0.6465002}
{0.9506031}
{0.17787708}
{0.22948316}
{-0.052687712}
{-0.50086606}
{-0.6562685}
{0.6622616}
{-0.89336437}
{0.060312852}
{-0.558015}
{-0.3869333}
{-0.109539084}
{0.90960675}
{0.051057316}
{-0.22135207}
{-0.22065476}
{-0.44986147}
{-0.2571598}
{0.5537671}
{-0.5844471}
{0.027811375}
{0.098850936}
{-0.6270298}
{0.39191955}
{-0.038253497}
{0.4070239}
{-0.10104495}
{0.7798486}
{0.8121224}
{-0.5714327}
{-0.004892368}
{-0.8609248}
{-0.5168206}
{-0.7572112}
{0.8636211}
{0.6124182}
{-0.12215723}
{-0.1005484}
{-0.38052914}
{-1.0997293}
{0.62434775}
{0.041052863}
{-0.022577781}
{-0.4660614}
{0.0038391277}
{0.8633413}
{-0.09105212}
{-0.8813274}
{0.39493182}
{0.58506215}
{-0.44332477}
{0.6198382}
{0.39209154}
{0.93077314}
{-0.25116846}
{0.20071658}
{-0.86872345}
{-0.0145178335}
{-0.31652734}
{0.29696226}
{0.3954748}
{-0.52839017}
{0.19664052}
{-0.38478738}
{-0.591928}
{-0.6791215}
{0.36906245}
{-0.12014913}
{-0.09033364}
{0.67785895}
{1.0053729}
{0.74023473}
{-0.2071428}
{-0.7578077}
{0.967661}
{-0.90223974}
{-0.49760664}
{0.08985782}
{0.4604316}
{-0.7433144}
{0.79615873}
{-0.43445697}
{0.50994813}
{0.8061346}
{0.12923665}
{-0.797669}
{-0.8372899}
{0.52149105}
{-0.5547687}
{-0.025037305}
{0.4811354}
{0.26016927}
{-0.851735}
{-0.07868208}
{-0.11607433}
{0.6311384}
{0.35533947}
{-0.6950773}
{-0.41209814}
{0.25160098}
{-0.16571231}
{-0.4624699}
{0.019905547}
{-0.80114186}
{0.5202951}
{-0.17022869}
{0.023154715}
{0.37584832}
{0.8373682}
{1.0035236}
{0.96165144}
{-0.49933288}
{0.57567406}
{-0.94725764}
{0.20188549}
{0.94068784}
{0.7305776}
{0.45510963}
{0.9043652}
{-0.4194302}
{0.57370836}
{-0.9887744}
{0.11843675}
{-0.54905957}
{0.18808943}
{-0.0131222205}
{0.01482437}
{-0.032630656}
{-0.032294426}
{0.20473175}
{-0.09844572}
{-1.0338776}
{0.92643404}
{0.43383294}
{0.7468363}
{-0.5282314}
{0.6545385}
{0.7409254}
{0.60766923}
{0.44517404}
{0.30198693}
{0.26744834}
{0.70157707}
{0.09762656}
{-0.77329993}
{0.9795328}
{-0.28504083}
{-0.58946633}
{0.8181631}
{-0.00964902}
{-0.66808665}
{-0.10707046}
{-0.80762607}
{-0.64612114}
{0.88355386}
{0.36601725}
{0.890452}
{-0.26039582}
{0.8290528}
{-0.6126316}
{-0.82979804}
{1.0955318}
{-0.6801499}
{0.45027837}
{0.01981803}
{0.2404671}
{-0.35796782}
{-1.1116767}
{-0.87448585}
{-0.110894844}
{-0.36500522}
{0.57004714}
{-0.31684062}
{0.3185391}
{0.9579388}
{-0.2689929}
{-0.5750201}
{-0.46348923}
{0.3726199}
{-0.52456146}
{0.5018635}
{1.0165024}
{-0.7399725}
{-0.28500968}
{0.6645171}
{0.14379199}
{-0.091118164}
{-1.1348761}
{0.21491851}
{-0.5818739}
{-0.23987386}
{0.015088744}
{-0.867149}
{0.8586637}
{-0.41766807}
{-0.46499556}
{0.8615435}
{0.057605416}
{0.064513184}
{0.047409516}
{0.7280918}
{0.65128213}
{0.6976067}
{-0.48808664}
{-0.14235301}
{0.7999463}
{0.4559987}
{0.1833987}
{0.43889597}
{-0.5606465}
{0.6853179}
{-0.74451363}
{-0.87279284}
{0.25497606}
{-0.8503307}
{0.3829304}
{-0.2962744}
{0.22328998}
{0.40846995}
{-0.38758528}
{-0.7556269}
{0.44241163}
{-0.89917314}
{-0.5099278}
{-0.81764877}
{0.26471272}
{-0.21391508}
{-0.7265817}
{-0.09772143}
{-0.85942566}
{-0.53904784}
{0.5803208}
{-0.38081965}
{0.47603115}
{0.44010928}
{0.8789322}
{0.8097774}
{0.024064122}
{-0.76577985}
{0.9095038}
{0.49226165}
{0.20917504}
{-0.4143872}
{0.63185865}
{0.8763038}
{-0.60278517}
{-0.509442}
{-0.31207338}
{0.93756527}
{-0.7224712}
{0.19942859}
{0.1990636}
{0.60353065}
{-0.5712136}
{-0.07858998}
{0.07362938}
{-0.048439976}
{0.7173821}
{-0.33157393}
{-0.8214859}
{-0.3124263}
{-0.32729626}
{0.7173182}
{0.47480026}
{-0.27268156}
{-0.5086751}
{-0.72034824}
{0.83569235}
{-0.6640144}
{0.49720874}
{-0.80379117}
{-1.0316975}
{-0.5713065}
{0.90958303}
{0.7982465}
{-0.5542668}
{0.69062614}
{0.1984082}
{0.23224023}
{0.20141438}
{-0.9036263}
{-0.5289549}
{0.3526416}
{0.8153532}
{0.9206185}
{-0.38470727}
{-0.11566735}
{-1.0783907}
{0.7818153}
{-0.2847966}
{-0.11919021}
{0.58582705}
{0.6315706}
{-0.38504863}
{0.10868948}
{0.73013085}
{0.32676086}
{-0.6870394}
{-0.26408932}
{-0.29018086}
{-0.37828043}
{0.29250735}
{-0.017611522}
{-0.75282586}
{0.46403366}
{0.33793342}
{-0.69018567}
{-0.08631358}
{-0.3007939}
{0.20484816}
{-0.035565633}
{-0.81787956}
{-0.016659683}
{0.09943801}
{-0.2744834}
{-1.2116205}
{0.10644981}
{-0.033266082}
{-0.5119995}
{-0.87714773}
{-0.39536226}
{0.5624034}
{0.75020564}
{-1.1314579}
{-0.045153063}
{0.65916795}
{0.34027842}
{-0.2371797}
{0.9431079}
{0.07212464}
{0.83877456}
{0.06253087}
{-0.31579798}
{-0.764237}
{0.12594861}
{-0.90936166}
{-0.06812535}
{0.3797821}
{0.7706846}
{0.7612973}
{-0.43574336}
{0.90734226}
{0.7483438}
{0.2033353}
{-0.18821548}
{0.47073382}
{-0.8205503}
{-0.29718947}
{-0.20691359}
{1.0133152}
{-0.8176178}
{0.31352627}
{-0.8356597}
{0.58671916}
{0.6976744}
{0.31515443}
{0.71409523}
{-0.87959176}
{-0.28645226}
{0.12799793}
{0.59186864}
{0.6550004}
{0.45786694}
{-0.20609884}
{0.96335673}
{-0.6797101}
{-0.8957225}
{0.63945216}
{-0.6803607}
{-0.22512382}
{-0.875599}
{-0.7729217}
{0.46223202}
{0.854974}
{-0.92023957}
{0.091946535}
{0.3139194}
{-0.3515724}
{-0.896572}
{0.5077654}
{-0.95477176}
{0.08229472}
{-0.86276424}
{0.5208241}
{-0.6877866}
{0.9656449}
{0.37514904}
{0.9254547}
{-0.27627423}
{-0.5836882}
{0.71974194}
{-0.3339261}
{0.9399954}
{-0.88735825}
{0.5131722}
{0.6457296}
{-0.8538083}
{0.6800786}
{0.035046082}
{0.06536242}
{-0.9353129}
{-0.20191039}
{-0.83054173}
{-0.5601341}
{-0.036687676}
{1.114858}
{-0.14332125}
{-0.6712909}
{-0.33006954}
{0.18698263}
{-0.28028485}
{0.39276192}
{-0.6848811}
{-0.11221589}
{-0.8519193}
{-1.0494959}
{-0.074204125}
{0.68032104}
{0.22797015}
{-0.9023082}
{-0.10331741}
{-0.28898472}
{0.8625852}
{0.4975071}
{0.26774085}
{0.71337754}
{-0.486751}
{-0.5099534}
{-0.75632626}
{-0.7307224}
{-0.80787003}
{0.33407423}
{-0.99140924}
{-0.25184903}
{0.621009}
{-0.6698027}
{0.46736807}
{-0.49463266}
{0.29806522}
{-1.1379865}
{0.8371965}
{0.08616824}
{-0.39400265}
{0.44066635}
{0.6670329}
{0.77893835}
{-0.17405388}
{0.55321985}
{-0.18403424}
{-0.60419023}
{1.0248538}
{-0.4137681}
{-0.77627546}
{-0.23542964}
{0.46311143}
{0.113927774}
{-0.58297557}
{0.2718995}
{-0.3163583}
{0.10825223}
{-0.3904178}
{0.60221434}
{-0.21733949}
{0.8083701}
{0.25888512}
{0.7426825}
{0.5679122}
{-0.9328766}
{0.042335205}
{0.035965886}
{0.43512633}
{-0.8237435}
{0.80237114}
{0.48848617}
{-0.86505115}
{-0.77377367}
{-0.4245005}
{0.7144823}
{0.635075}
{0.08903188}
{0.18489116}
{0.63792557}
{0.9096135}
{-0.1874853}
{-0.6438107}
{-0.6664538}
{-0.5727745}
{0.17400652}
{0.9507405}
{-0.9231592}
{-0.7422632}
{-0.6573313}
{-0.4496902}
{0.65830463}
{0.67115915}
{-0.56561875}
{0.91459906}
{-0.61077976}
{-0.47226426}
{-0.48477313}
{-0.22671008}
{0.1506081}
{-0.8290397}
{-0.10797663}
{-0.076393366}
{-0.07723256}
{-0.68477476}
{-0.3525863}
{-0.10657899}
{-0.7539939}
{-0.75604856}
{0.12265122}
{-0.22662994}
{-0.49390128}
{-0.25786826}
{0.22404398}
{-0.41002735}
{0.16531047}
{0.43014172}
{-0.8354252}
{0.82744867}
{0.46518412}
{0.9280137}
{-0.7434956}
{0.22940418}
{0.9311582}
{-0.8233031}
{0.4022289}
{-0.9141074}
{0.9701136}
{-0.044454604}
{-0.9162759}
{0.73245406}
{-0.5814919}
{0.854288}
{0.28679293}
{0.9781483}
{-0.29130894}
{-0.035615463}
{-0.96178305}
{0.94214946}
{-0.46408606}
{-0.6267179}
{0.032582097}
{-0.012808814}
{0.000571185}
{-0.4366636}
{0.08939398}
{-0.2582853}
{-0.72979254}
{-0.08519895}
{0.64260864}
{-0.55756533}
{-0.44941744}
{0.07301708}
{0.34383133}
{-0.2519677}
{-0.45686162}
{0.23453358}
{0.73722875}
{0.56039804}
{-0.11283862}
{-0.5405475}
{-0.17438936}
{0.17787367}
{-0.029757418}
{-0.2889509}
{0.7319101}
{-0.452634}
{-0.81765014}
{0.81527317}
{0.3102029}
{0.86710566}
{-0.5898526}
{0.048995953}
{-1.2009757}
{0.7360575}
{0.045276392}
{0.8908349}
{-0.0022270153}
{-0.25452557}
{0.5435144}
{-0.0033335874}
{-0.43318343}
{-0.29089403}
{-0.030910872}
{-0.3306398}
{-0.28277382}
{-0.87541074}
{-0.6307463}
{-0.5073198}
{0.8708689}
{-0.5259821}
{-0.21324797}
{-0.94792616}
{-0.2965146}
{0.010144018}
{-0.5321873}
{0.6562635}
{-0.20840289}
{0.19267996}
{0.19375667}
{0.057589274}
{0.2076555}
{0.5446665}
{-0.15062378}
{-0.4065704}
{0.44169542}
{0.64298797}
{0.5304643}
{-0.37268636}
{-0.68637997}
{-0.71779925}
{-0.070989996}
{-0.3920531}
{0.91649956}
{-0.58795667}
{0.8170777}
{-0.4808429}
{-0.013115199}
{0.61176705}
{0.27607897}
{0.8151401}
{0.88122314}
{-0.17463146}
{-0.6041776}
{-0.77865994}
{0.609114}
{0.3794668}
{-0.7405322}
{-0.16256687}
{0.6940649}
{0.47640508}
{0.61718863}
{-0.016685266}
{-0.23076504}
{0.4755487}
{0.030532766}
{0.96431077}
{-0.8839651}
{0.6253675}
{-0.48232195}
{0.5391828}
{-0.6016361}
{0.6659472}
{-0.50497293}
{0.12804645}
{-0.8482438}
{0.3884355}
{-0.6797429}
{-0.47697616}
{-0.89050126}
{-0.6590976}
{-0.86043566}
{-0.3545179}
{0.41961315}
{-0.39854476}
{-0.32321638}
{0.7517046}
{0.89723593}
{-0.47445917}
{0.68685454}
{-0.3903415}
{-0.8554212}
{0.84194237}
{-0.56395984}
{0.36513236}
{0.37945402}
{-0.19920449}
{-0.06395669}
{0.85592115}
{-0.5487621}
{-0.014448329}
{-0.62845016}
{0.8256625}
{0.2829308}
{-0.74142456}
{0.13572872}
{0.4726415}
{0.33265504}
{-0.29729614}
{0.4106258}
{-0.7344805}
{0.2610671}
{-0.46064204}
{-0.90566677}
{-0.34589407}
{0.58243006}
{-0.621506}
{0.86578614}
{0.11492484}
{0.2187326}
{0.12400976}
{0.12822549}
{-0.1433098}
{-0.17680252}
{-1.0060666}
{-0.30532488}
{-0.4604263}
{-0.30829582}
{0.04884953}
{0.9568689}
{0.971161}
{0.31031612}
{-0.39289072}
{0.20352201}
{-0.95773995}
{0.8108219}
{0.54602605}
{-0.3743835}
{-0.78289163}
{0.80352044}
{0.46699643}
{-0.7088049}
{-0.4990066}
{-0.103456035}
{0.37024096}
{-0.3566263}
{-0.48015147}
{0.6809238}
{0.48190868}
{0.0591839}
{-0.81414115}
{-0.81257445}
{-0.340535}
{0.16414772}
{-0.16125676}
{-0.2847178}
{-0.58151627}
{-0.47167665}
{-0.81711805}
{0.6057919}
{0.6402102}
{0.5456427}
{-0.79649985}
{-0.56630814}
{0.7724303}
{0.5311639}
{-0.2975206}
{-0.58305013}
{-0.2680641}
{0.40822282}
{0.026478747}
{-0.41223386}
{0.19367948}
{-0.5547391}
{-0.4099476}
{-0.4721378}
{0.02516402}
{-0.820487}
{-0.82932985}
{0.14019246}
{-0.7932283}
{-0.11867708}
{0.54726756}
{0.21853955}
{-0.4157794}
{0.5319948}
{0.95852315}
{0.93738955}
{0.3682799}
{-0.79251444}
{-0.96261966}
{-0.55374366}
{0.60834765}
{-0.6737303}
{0.5377008}
{0.12622051}
{0.9558705}
{-0.4399769}
{-0.657035}
{-0.53309304}
{-0.6174898}
{-0.3758885}
{-0.05581384}
{0.33478218}
{0.616527}
{-0.33080944}
{0.9454762}
{0.96981394}
{0.010127102}
{-0.11263283}
{0.23344901}
{0.533583}
{0.71945745}
{-0.20487528}
{-0.7942828}
{0.5826275}
{-0.39233693}
{0.44477177}
{0.121103935}
{-0.7899291}
{-0.94740486}
{0.14134163}
{0.84690344}
{-0.8829903}
{0.15680817}
{-0.8517006}
{0.934548}
{0.009369148}
{-0.3822659}
{0.44571638}
{0.7633952}
{0.47235262}
{0.18723004}
{0.7410928}
{0.36855963}
{-0.54761094}
{-0.63174045}
{-0.4917656}
{0.049667817}
{-0.94573534}
{-0.50090605}
{0.8607557}
{0.702824}
{0.5393351}
{0.29009786}
{-0.13253348}
{-0.073992796}
{0.092794366}
{-0.49282482}
{0.046074543}
{-0.9044601}
{0.72038084}
{-0.48423266}
{-0.2887291}
{-0.31711146}
{-0.39788097}
{-0.47902247}
{0.35033405}
{0.9261254}
{-0.48875865}
{0.68094003}
{-0.6026384}
{0.84660256}
{0.22931282}
{0.26965547}
{-0.28199914}
{0.76924026}
{0.8051624}
{0.40359938}
{0.119563445}
{-0.40440342}
{0.7489397}
{0.14396767}
{-0.7362688}
{-0.41013452}
{0.6122401}
{-0.10925908}
{0.26925892}
{0.73922074}
{0.6277016}
{0.13239977}
{0.5462063}
{0.9525858}
{0.077533156}
{0.44069153}
{-0.03186222}
{-0.27393934}
{-0.47407794}
{-0.4192887}
{0.37074006}
{0.7083837}
{0.14245251}
{-0.106192894}
{0.2293581}
{-0.018928546}
{0.41998807}
{-0.31979623}
{0.0856885}
{-0.32064697}
{0.31262055}
{-0.4269733}
{-0.22491327}
{0.41422394}
{0.06814499}
{0.20728682}
{0.49334684}
{0.70090115}
{-0.0346701}
{-0.7203086}
{-0.5651053}
{-0.39371774}
{-0.9359757}
{-0.90716743}
{0.27493846}
{0.17102936}
{0.17628391}
{0.7715693}
{-0.3664532}
{-0.2396433}
{-0.23556133}
{0.59202373}
{0.6577203}
{-0.8597475}
{0.21548577}
{-0.8135328}
{0.867543}
{0.6732193}
{0.1837181}
{-0.6018447}
{0.54122907}
{-0.8755008}
{-0.6657858}
{0.53715694}
{-0.026087139}
{0.17529085}
{-0.13878542}
{-0.36567172}
{0.95268124}
{0.62741697}
{-0.43082973}
{0.5763636}
{-0.36395153}
{-0.49362373}
{0.12559439}
{-0.6945534}
{1.004972}
{0.32804826}
{-0.21829931}
{-0.5489793}
{0.104198255}
{0.11636894}
{0.05353117}
{-0.4335423}
{-0.85690033}
{-0.5220028}
{-0.11158109}
{0.52879214}
{0.027898246}
{0.12314575}
{-0.50805056}
{0.871852}
{-0.087817274}
{0.18972757}
{-0.89984226}
{0.1006291}
{-0.8562014}
{-0.5700189}
{0.24284998}
{0.5231578}
{0.9532801}
{0.6708094}
{0.5507254}
{0.469393}
{0.458557}
{0.88782847}
{0.32436702}
{0.7059891}
{-0.83358115}
{-0.070071764}
{-0.4865407}
{0.75324106}
{-0.29641142}
{0.7510568}
{-0.2109123}
{-0.42018113}
{0.13863781}
{-0.9480661}
{0.3609341}
{0.4392863}
{-0.32670522}
{1.0117067}
{-0.15141374}
{0.21828012}
{-0.100355715}
{-0.26332614}
{0.17862771}
{0.10569475}
{-0.026535016}
{-0.014256734}
{-0.6736353}
{0.8201515}
{0.23657851}
{-0.64928424}
{-0.74594504}
{0.57097644}
{0.13877653}
{-0.80784285}
{-1.0554526}
{0.89737386}
{0.44743344}
{-0.8197807}
{-0.67316604}
{-0.058766663}
{0.3109696}
{-0.9562303}
{0.56607676}
{0.1672841}
{0.17609833}
{-0.67821157}
{-1.0109998}
{-0.7024237}
{-0.06624327}
{0.0307648}
{-0.0922638}
{0.16147673}
{-0.055408996}
{0.9594065}
{0.45614076}
{-0.17736945}
{-0.086831436}
{-0.9080225}
{-0.06910511}
{0.9119619}
{-0.3609816}
{1.0211471}
{0.40752587}
{-0.44625783}
{-0.33824402}
{0.4733539}
{-0.71102875}
{0.60278785}
{-0.24030954}
{0.96874106}
{-0.4367984}
{-0.8149802}
{-0.2147937}
{0.55381906}
{-0.7463357}
{-0.41287288}
{0.3662543}
{0.053304892}
{0.4180351}
{0.6636689}
{0.27096963}
{0.49983886}
{-0.62184566}
{-1.0128098}
{0.114437334}
{-0.9262651}
{0.9138376}
{-0.55846184}
{-0.56697863}
{0.2964075}
{-0.28330937}
{0.36141148}
{0.59258705}
{0.20070198}
{-0.11317209}
{-0.9160134}
{-0.23689282}
{0.31702593}
{-1.0463214}
{0.007634285}
{-0.32817912}
{0.6687614}
{0.846876}
{0.8420912}
{0.5492913}
{-0.34826967}
{0.7877417}
{-0.1049121}
{0.23245436}
{0.34911135}
{0.31862277}
{-0.6303202}
{0.2734734}
{0.7007204}
{0.29082492}
{-0.5726286}
{0.92037463}
{-0.69735134}
{-0.42529058}
{0.21441579}
{-0.24628113}
{-0.16920325}
{0.02908798}
{-0.054820154}
{0.23916292}
{-0.31463906}
{0.5931146}
{0.6192135}
{-0.5669487}
{0.070102185}
{-0.056259226}
{-0.79447937}
{-0.57495403}
{-0.4462318}
{0.36715057}
{-1.0341554}
{-0.22605436}
{0.18934062}
{0.27283365}
{0.17618215}
{0.32507682}
{-0.15892336}
{-0.3636883}
{0.8140835}
{-0.54364944}
{0.71501076}
{0.25285903}
{-0.7193458}
{-0.84508395}
{0.9496337}
{-0.6384696}
{-0.8705566}
{0.115471035}
{-0.120418064}
{-0.91840225}
{0.007789571}
{-0.093031116}
{0.32710484}
{0.3032067}
{-0.033132236}
{-0.3830459}
{0.8835553}
{-0.860612}
{0.43048063}
{-0.8396581}
{0.47959188}
{-0.3738528}
{0.5955218}
{-0.108985715}
{0.19499329}
{0.6660478}
{0.5912332}
{-0.73916626}
{0.15083864}
{0.92060626}
{0.46760866}
{-0.13135505}
{0.45256737}
{0.04220221}
{-0.66664875}
{0.461927}
{-0.07549054}
{0.3263203}
{-0.030248161}
{-0.83424526}
{0.15100744}
{1.0076544}
{-0.9086239}
{-0.52477604}
{-0.2819464}
{0.6847699}
{-0.5503766}
{0.000365305}
{-0.30475685}
{-0.42360124}
{0.6090555}
{0.3379945}
{0.43761376}
{0.4683287}
{0.7880605}
{0.29548252}
{0.4827645}
{-0.32933953}
{-0.109835595}
{0.1757147}
{0.8316473}
{-0.12967575}
{-0.8027132}
{-0.1897097}
{0.5997423}
{-0.75181025}
{0.43607235}
{0.47179192}
{0.84421074}
{-0.3592}
{-0.19859293}
{-0.06956652}
{0.61365163}
{0.36085883}
{-0.80637527}
{0.9254397}
{0.2985864}
{0.0909427}
{-0.7816785}
{0.98594475}
{-0.85069764}
{0.63500535}
{0.88438773}
{-0.8549811}
{0.7700397}
{-0.5424535}
{0.7832043}
{-0.272905}
{-0.42892572}
{0.08707906}
{0.11539865}
{-0.42218962}
{-0.812518}
{-0.10438245}
{0.41772422}
{0.6125726}
{0.17303279}
{-0.17409968}
{-0.3679776}
{0.7176148}
{0.81072724}
{-0.30495235}
{-0.8828961}
{0.69790804}
{0.55565417}
{-0.21098287}
{0.5896891}
{0.38986763}
{0.6857723}
{0.43663445}
{0.8298435}
{0.77563083}
{0.10691302}
{-0.9849222}
{-0.59701145}
{-0.029249346}
{0.18139842}
{-0.46514565}
{0.46557114}
{0.783786}
{-0.55949414}
{-0.9374462}
{0.68670684}
{-0.13965559}
{0.41497996}
{-0.3176731}
{0.5581496}
{0.20199864}
{-0.654168}
{-0.08001829}
{-0.9714782}
{-0.080096}
{0.63952076}
{-0.76181406}
{-0.95802367}
{-0.20937972}
{0.559538}
{-0.46752194}
{0.40956765}
{0.9432925}
{0.23013166}
{0.8542911}
{0.9511782}
{-0.75647795}
{1.0175623}
{0.5569088}
{-0.1558263}
{0.52763903}
{-0.8699902}
{-0.12946928}
{0.004774642}
{0.18118733}
{-0.14018318}
{-0.099636145}
{0.50140864}
{-0.5308687}
{-0.41205904}
{0.9961449}
{-0.44283745}
{-0.8251961}
{-0.25393388}
{0.6105897}
{-0.49780422}
{0.6152366}
{-0.3997552}
{-0.5802736}
{-0.4923595}
{-0.9228933}
{-0.1964092}
{0.3913251}
{-0.021776037}
{-0.055625066}
{0.67532814}
{-0.1085283}
{0.39597687}
{-0.6635551}
{0.39825013}
{0.74109995}
{0.9453503}
{-0.0006835561}
{-0.570279}
{0.90141547}
{0.6826929}
{-0.6362065}
{0.9683119}
{-0.38769034}
{-0.8372399}
{0.93330723}
{0.75704825}
{-0.9294818}
{0.70720404}
{0.044036426}
{-0.94398487}
{0.62469655}
{0.97708815}
{-0.77610916}
{0.7677072}
{-0.01684988}
{0.1070908}
{0.23634368}
{-0.00042511942}
{-0.30438206}
{0.24175537}
{0.9357043}
{0.7804812}
{0.52955854}
{-0.7196181}
{-0.67481506}
{-0.68317044}
{-0.5387744}
{0.06450963}
{-0.09119032}
{1.0048674}
{0.057582695}
{0.19364332}
{-0.6004483}
{0.8234197}
{0.23234639}
{-0.07530018}
{-0.5576399}
{0.7566632}
{-0.38985443}
{-0.47717345}
{0.061216194}
{-0.1597316}
{0.8027975}
{0.35804054}
{0.68494976}
{-0.8885547}
{0.25807235}
{0.572984}
{-0.5605069}
{-0.9285909}
{0.73974216}
{0.02495031}
{-0.6186694}
{-0.78928626}
{-0.5697322}
{-0.07215767}
{-0.61354876}
{-0.19856998}
{-0.43585354}
{0.79578835}
{0.7343989}
{-0.0637489}
{0.5051937}
{0.589278}
{-0.89255726}
{0.62621033}
{0.13682866}
{0.2896446}
{0.55385476}
{-0.35979483}
{0.7894694}
{-0.7959858}
{0.5632487}
{-0.9216794}
{-1.0264225}
{-0.0026267448}
{-0.116769396}
{0.8562442}
{-0.36165813}
{0.19900139}
{0.027004927}
{-0.45429584}
{-0.01235538}
{0.36057466}
{-0.9400866}
{-0.6009239}
{-0.84797317}
{-0.28388083}
{0.6872719}
{0.24150375}
{-0.4476541}
{0.8442545}
{0.5374986}
{-0.81235945}
{0.23771372}
{-0.16113155}
{0.3839895}
{-0.17746016}
{-0.47651517}
{-0.20642228}
{0.64354706}
{0.94462836}
{-0.33382502}
{0.6126823}
{-0.50211406}
{-0.3885822}
{0.903887}
{-0.7651833}
{0.18658923}
{0.17670086}
{0.41414478}
{0.747235}
{-0.5361383}
{0.21481994}
{-0.25105906}
{0.011347605}
{0.647019}
{0.46848324}
{-0.28117573}
{0.035470553}
{-0.33123565}
{0.058350783}
{-0.91353595}
{0.29516956}
{0.41320264}
{-0.9705838}
{-0.38380295}
{0.44220003}
{-0.004801914}
{0.739987}
{-0.084262334}
{0.046464656}
{-0.9077093}
{-0.8143629}
{0.42447248}
{0.032707345}
{-0.80115306}
{0.25045112}
{0.437783}
{0.09591049}
{0.088747196}
{-0.055960707}
{-0.7940617}
{-0.20546785}
{-0.9053829}
{0.8416363}
{-0.48323253}
{-0.82510877}
{-0.31221637}
{-0.25456426}
{-0.13684545}
{0.178207}
{0.093761876}
{0.4769378}
{0.21492264}
{0.8377024}
{-0.20856605}
{0.8233391}
{0.7133429}
{-0.83674127}
{0.057527762}
{0.82931364}
{0.8569375}
{0.7187948}
{0.3784064}
{0.47120765}
{-0.3867902}
{-0.5822838}
{-0.43058708}
{0.99661267}
{-0.5553383}
{0.42645082}
{0.54688007}
{0.9900156}
{0.26505983}
{-0.82894665}
{-0.010539575}
{-0.014254589}
{0.33084553}
{-0.96956015}
{0.69534016}
{0.11838334}
{0.13631524}
{-0.89684796}
{-0.14943896}
{0.33290723}
{-0.23382376}
{0.10269342}
{-0.104519725}
{0.41931966}
{-0.679314}
{0.34724647}
{0.61244226}
{0.747085}
{0.17641014}
{-0.9379265}
{0.702594}
{0.3202782}
{0.5610426}
{-0.96360326}
{-0.17911701}
{-0.088424034}
{0.78640085}
{0.6701713}
{-0.7640176}
{0.17276815}
{0.87190247}
{-0.91514975}
{0.111241214}
{-0.45120046}
{-0.4843841}
{0.70857286}
{0.6974259}
{0.051431876}
{0.55647826}
{-0.1630897}
{-0.61732954}
{0.7573186}
{-0.77700174}
{0.34156084}
{0.7713788}
{0.6277739}
{0.5856101}
{-0.4530094}
{-0.37569645}
{0.012591819}
{-0.2888088}
{-0.74945736}
{-0.6190838}
{0.6700822}
{0.31804916}
{0.20103438}
{0.090142556}
{0.11268347}
{0.67707}
{-0.6317521}
{-0.02588142}
{0.75399435}
{0.65054333}
{-0.21792862}
{-0.21445526}
{0.99959457}
{0.62904376}
{-0.933973}
{0.40761545}
{-0.034764547}
{0.49191737}
{0.88047254}
{-0.6962596}
{-0.7455696}
{-0.5907135}
{0.017032832}
{0.7438844}
{0.5702609}
{0.97591746}
{-0.30684486}
{-0.69483715}
{0.66683185}
{-0.6949931}
{0.16853125}
{1.0244101}
{0.14179754}
{-0.58156973}
{0.77181464}
{-0.6936493}
{-0.301959}
{0.5597507}
{-0.3523982}
{-0.12026687}
{-0.52978504}
{0.25690144}
{-0.8621504}
{-0.8977187}
{0.81680214}
{-0.44668874}
{-1.0036881}
{0.006195862}
{0.66139567}
{0.9531482}
{0.88863426}
{-0.13955417}
{-0.6615559}
{0.7147502}
{0.3123987}
{-0.4480951}
{-0.53673685}
{-0.65701836}
{-0.2470095}
{0.9596167}
{1.025318}
{0.17525883}
{-0.03500214}
{-0.44373983}
{-0.09910972}
{0.4691827}
{0.1931407}
{0.91309154}
{-0.6516901}
{0.87075}
{-0.8093342}
{0.6700645}
{-0.19306299}
{0.37335008}
{0.8109623}
{-0.12169597}
{-0.96839225}
{-0.29130512}
{0.6597163}
{-0.35352093}
{0.25665405}
{-0.02861866}
{0.77083063}
{-0.58588153}
{0.7006358}
{-0.07889268}
{0.3775635}
{-0.55421036}
{0.9067737}
{0.36857504}
{0.8343343}
{-0.33075026}
{-0.62314475}
{-0.41312382}
{-0.93735504}
{-0.7324644}
{0.4269164}
{0.88748395}
{0.50662225}
{-0.7711193}
{0.9899639}
{0.69286686}
{0.5577296}
{0.6135398}
{-0.37568542}
{-0.479402}
{-0.638485}
{0.14534527}
{-0.09114916}
{-0.4155982}
{-0.6855916}
{0.4576669}
{0.3968573}
{-0.05079412}
{0.14339893}
{0.5463093}
{0.50184345}
{-0.82477653}
{-0.39202046}
{-0.5914811}
{0.13026114}
{0.44477227}
{0.39378363}
{-0.23502296}
{-0.3957369}
{0.3342305}
{0.011835342}
{-0.6858995}
{0.3248773}
{0.6417869}
{0.24057844}
{-0.7674196}
{0.97958267}
{0.8677651}
{-0.2661018}
{0.38235304}
{-0.20008537}
{0.9596246}
{0.10738817}
{0.9693926}
{-0.84906685}
{1.0041989}
{0.8823814}
{-0.27256805}
{0.33022693}
{0.23900196}
{-0.5549833}
{0.6960647}
{-0.62327206}
{-0.2121042}
{-0.9593488}
{-0.55336577}
{-0.18569443}
{0.22666527}
{-0.09666889}
{0.8160344}
{0.13807653}
{-0.9542189}
{0.41702893}
{0.75741065}
{0.79091346}
{0.8842225}
{0.026695296}
{-0.5362007}
{-0.17719504}
{-0.50265193}
{-0.6756271}
{-0.087047994}
{0.6127523}
{-0.123241164}
{-0.24967018}
{0.2641162}
{0.7447814}
{0.10152074}
{0.8898997}
{0.78134435}
{-0.43969032}
{-0.10151378}
{0.084238574}
{0.02272319}
{-0.9602052}
{0.4777886}
{0.58312976}
{-0.7839077}
{0.39556506}
{0.28804576}
{-0.33644232}
{0.06779582}
{0.12329524}
{-0.48400807}
{0.6551837}
{0.5431699}
{-0.60808}
{-0.66175836}
{-0.4209674}
{-0.6680936}
{0.4489515}
{-0.23082283}
{0.09161672}
{0.44139296}
{0.072487555}
{0.37979472}
{-0.41925767}
{-0.56024927}
{0.5577687}
{0.20319808}
{0.03792996}
{-0.24640986}
{-0.3983564}
{-0.46423766}
{-0.9636576}
{0.18546236}
{-0.8541542}
{0.05552022}
{0.25058284}
{0.6036286}
{0.20734742}
{0.08007165}
{0.52180254}
{-0.81718975}
{-0.5182427}
{0.458298}
{0.1780975}
{0.5940099}
{-0.29725286}
{-0.93980634}
{0.46671674}
{0.9055858}
{0.17947939}
{-0.19743112}
{-0.16039988}
{0.543114}
{0.33418182}
{-0.59213823}
{-0.13344018}
{-0.5782062}
{-0.76569283}
{-0.23487063}
{0.6245774}
{-0.8789436}
{-0.293879}
{-0.43428192}
{0.0712193}
{0.24458575}
{0.22625616}
{0.99249256}
{-0.6373524}
{0.56210357}
{0.72737586}
{-0.32568955}
{-0.32543257}
{0.53171587}
{0.30021957}
{-0.17098573}
{0.82622993}
{-0.13334414}
{-0.17360875}
{0.96794766}
{-0.279447}
{0.5984729}
{-0.29964063}
{-0.41577792}
{0.19479702}
{-0.23224033}
{0.06436918}
{0.49408644}
{-0.41020483}
{0.5628174}
{-0.73689735}
{-0.898396}
{0.7181169}
{-0.86173266}
{0.8473879}
