-- Efficiency --
85.6
-- Weights --
{-0.20884496}
{-0.5756029}
{0.45813355}
{-0.060317196}
{0.14656323}
{0.8833708}
{0.23262063}
{0.14739798}
{-0.4398628}
{0.94570035}
{0.9880139}
{-0.693295}
{-0.3344162}
{0.6461261}
{-0.58323365}
{-0.2835283}
{0.16450733}
{0.7464797}
{0.4810983}
{0.5706245}
{-0.5733881}
{-0.2009382}
{-0.40635186}
{0.69434965}
{0.027301498}
{-0.50852734}
{-0.48125544}
{0.8155694}
{-0.65912294}
{-0.43036622}
{0.96462315}
{-0.13807523}
{0.3741421}
{-0.054697838}
{-0.61032945}
{0.2446647}
{-0.95625615}
{0.29415366}
{0.41317046}
{-0.31571814}
{0.5025282}
{-0.48147985}
{0.3029215}
{-0.36985174}
{-0.4498332}
{0.36181504}
{0.39625645}
{0.30690432}
{-0.067838475}
{-0.38418186}
{0.87640613}
{-0.5727737}
{0.30893773}
{-0.89424664}
{-0.8336163}
{0.115650065}
{-0.03182202}
{-0.28012717}
{-0.5889565}
{-0.95239866}
{-0.8698561}
{0.1587253}
{0.669736}
{0.8304379}
{-0.7291992}
{0.7762207}
{0.12758528}
{0.38679695}
{-0.33743173}
{0.884299}
{-0.4768007}
{0.81157446}
{-0.8001549}
{0.12729609}
{0.84431005}
{-0.87810665}
{-0.35218388}
{-0.7745036}
{-0.8344611}
{0.10043436}
{-0.7266388}
{0.70064336}
{-0.90879273}
{-0.8829554}
{-0.623785}
{0.33502555}
{-0.27906522}
{-0.24057686}
{0.74959683}
{-0.72958255}
{1.0380589}
{-0.8946669}
{0.98322654}
{-0.19071299}
{-0.21596427}
{-0.23259488}
{0.11198827}
{0.28238204}
{1.0469297}
{-0.71152073}
{-0.7880001}
{0.8486925}
{-0.73597187}
{0.8854545}
{-0.57982254}
{-0.7174959}
{0.5935109}
{-0.7756365}
{0.3218953}
{0.26695916}
{-0.122256204}
{-0.6462649}
{-0.17032081}
{0.83377063}
{-0.63349825}
{-0.6355849}
{0.3765728}
{0.04021413}
{0.83875203}
{-0.4270429}
{0.03293199}
{0.4957836}
{-0.6258703}
{-0.70445484}
{-0.55753374}
{-0.21050347}
{-0.53292316}
{0.30322853}
{0.65456796}
{0.049551975}
{-0.9721675}
{0.54759604}
{0.64968944}
{0.49045998}
{0.93026364}
{0.72097445}
{-0.032122426}
{-0.5494713}
{-0.53318536}
{-0.14985919}
{-0.5262084}
{-0.18624315}
{-0.38063586}
{0.09593611}
{-0.98634696}
{-0.6306104}
{0.16784264}
{0.3743843}
{-0.47107106}
{-0.2239883}
{0.7567001}
{0.015464168}
{-0.7050717}
{-0.5911228}
{0.604864}
{-0.6403354}
{0.2988009}
{0.6529041}
{0.732437}
{0.17547503}
{-0.5433452}
{0.6891864}
{0.53297496}
{-0.98800945}
{-0.15612489}
{-0.33051345}
{-0.3440498}
{-0.023847315}
{0.18429512}
{0.4271836}
{0.9840625}
{0.25558406}
{0.107380584}
{0.25124523}
{-0.94389516}
{0.6154191}
{0.681746}
{0.3851515}
{0.35798904}
{0.43465585}
{-0.13932377}
{-0.88182545}
{-0.930761}
{0.35878566}
{0.34481376}
{-0.0384917}
{0.6351362}
{0.38579178}
{-0.2895456}
{0.0662327}
{0.22048226}
{0.14287569}
{0.22737211}
{0.84522235}
{-0.13257751}
{-0.37656102}
{0.98010373}
{0.098480865}
{-0.14731358}
{0.2504562}
{0.058252756}
{-0.6110456}
{0.15545133}
{0.12885901}
{0.088361695}
{-0.6588451}
{0.86565006}
{0.1887404}
{-0.6466377}
{0.64159125}
{-0.26927382}
{-0.7084028}
{-0.49516514}
{-0.44010863}
{-0.92340267}
{0.8992286}
{-0.75869346}
{-0.9734521}
{-0.37287563}
{0.18797304}
{0.098545745}
{-0.55857515}
{0.97731674}
{-0.7011744}
{-0.79524565}
{0.279842}
{-0.5031169}
{-0.82272315}
{-0.22467619}
{-0.2952785}
{0.67127985}
{-0.7204686}
{0.5917313}
{0.2591933}
{0.37377334}
{-0.6234013}
{0.41394633}
{-0.37656817}
{0.85993}
{-0.10701942}
{-0.10675602}
{-0.8964643}
{0.5563297}
{-0.736514}
{0.5133929}
{-0.004460437}
{-0.4971019}
{0.69917065}
{0.87572837}
{-0.535073}
{-0.6368763}
{0.792022}
{-0.12869316}
{0.6593312}
{0.7842788}
{0.39145353}
{-0.8711097}
{0.44777387}
{0.5424405}
{-0.20435224}
{0.63750124}
{-0.37946233}
{0.27157825}
{-0.0501623}
{-0.44509536}
{0.44979402}
{-0.022989415}
{-0.24109042}
{0.4464745}
{-0.5443507}
{-0.9577106}
{-0.6899162}
{0.38875836}
{-0.61927265}
{0.72028524}
{0.6552868}
{0.6081064}
{-0.8328707}
{-0.12636207}
{0.7631665}
{-0.56239057}
{-0.22793189}
{-0.6931529}
{0.17286126}
{-0.85332656}
{0.5161071}
{-0.59814686}
{-0.043638535}
{-0.64388204}
{-0.26815274}
{0.77008}
{-0.9254112}
{-0.5664537}
{0.5649242}
{0.42257917}
{-0.41164666}
{0.06709261}
{-0.3093707}
{0.9508093}
{0.80334157}
{-0.6329527}
{-0.8709887}
{0.13772473}
{0.9019176}
{0.086903766}
{-0.3304132}
{-0.24288343}
{0.10366482}
{-0.2744661}
{0.1798861}
{0.74965703}
{0.904398}
{-0.94813895}
{-0.90418637}
{0.38581842}
{0.72897124}
{-0.7932925}
{0.32994428}
{0.5747332}
{-0.28245655}
{-0.25217158}
{0.5027735}
{0.4237394}
{0.6787688}
{0.5772276}
{0.65814203}
{-0.38326937}
{-0.68872696}
{-0.2569738}
{0.486014}
{0.6755113}
{-0.9294679}
{0.91843295}
{0.3836619}
{0.42523888}
{-0.5703087}
{-0.92976713}
{0.043909047}
{0.29499906}
{0.2776928}
{0.19581884}
{0.20257352}
{0.2776786}
{-0.919976}
{0.8450177}
{0.47736874}
{-0.53139734}
{0.031313017}
{0.7939851}
{0.19820541}
{-0.37645236}
{0.8803385}
{-0.6491785}
{0.0026953665}
{0.471218}
{0.2199445}
{0.015503593}
{0.23630165}
{0.82767165}
{0.56592274}
{0.15154594}
{-0.6282318}
{0.0208711}
{0.48128408}
{-0.469909}
{-0.10104622}
{0.3795892}
{0.890029}
{-0.87805367}
{0.4730297}
{0.21704477}
{0.70873976}
{0.93851566}
{-1.0065061}
{-0.22009893}
{-0.6005342}
{0.26912993}
{-0.66326874}
{-0.25141382}
{-0.46240786}
{-0.14035636}
{0.55789214}
{-0.2477975}
{0.5725422}
{0.041626163}
{0.10713012}
{-0.6114384}
{-0.9655883}
{-0.5455816}
{-0.8017653}
{0.14746441}
{-0.41403753}
{0.94680476}
{-0.9753732}
{0.29785475}
{0.57947123}
{-0.73454285}
{0.64442426}
{-0.413457}
{0.66685396}
{0.41798657}
{-0.1982146}
{-0.8143472}
{-0.91877127}
{0.21757168}
{0.26883516}
{0.43880528}
{-0.122596174}
{0.52347803}
{0.8928428}
{-0.5957372}
{-0.9608879}
{0.55335355}
{-0.47708857}
{0.84970385}
{0.8794923}
{0.32396358}
{-0.5697879}
{-0.21996929}
{0.5062163}
{0.17966646}
{0.13189688}
{-0.5665811}
{-0.7484164}
{-0.018756442}
{-0.8301759}
{0.8584159}
{-0.3429715}
{0.98874426}
{0.8921027}
{0.33419082}
{0.9546772}
{-0.7751651}
{-0.47883675}
{0.894977}
{-0.11736714}
{0.641134}
{0.52310276}
{-0.44105256}
{0.712838}
{0.4040596}
{0.24244384}
{-0.8517152}
{-0.32126153}
{0.70510054}
{-0.5063999}
{-0.45204338}
{-0.19772188}
{-0.7306328}
{0.7417035}
{-0.21125944}
{-0.13321881}
{-0.5289459}
{0.21503311}
{0.4175925}
{0.09978673}
{-0.78063893}
{0.31297514}
{-0.47257623}
{0.2428835}
{0.65989375}
{-0.31210732}
{-0.792304}
{-0.12045651}
{-0.19498473}
{-0.9378832}
{0.95038635}
{-0.7390845}
{0.5648706}
{0.14330804}
{-0.023743939}
{-0.7618575}
{0.75165725}
{-0.77776474}
{0.5539803}
{0.60158557}
{0.9243951}
{0.38940346}
{0.44068605}
{-0.28714046}
{0.4058525}
{0.74726176}
{0.4028645}
{-0.1675147}
{-0.8556814}
{0.26036477}
{0.4481074}
{0.30601177}
{0.6704526}
{-1.0100632}
{0.9994273}
{0.26530126}
{0.1700105}
{-0.4993878}
{-0.5448655}
{-0.76517606}
{-0.90099645}
{0.8852581}
{0.6076224}
{-1.0443695}
{-0.6846614}
{0.82862717}
{-0.11047583}
{-0.6805619}
{-0.04844003}
{0.9358903}
{0.15089822}
{0.46909213}
{-0.6554651}
{-0.63386625}
{0.75974035}
{0.8645042}
{0.8968334}
{-0.37142175}
{0.22523637}
{-0.23843041}
{0.8264191}
{0.036295418}
{0.5097304}
{-0.74372905}
{-0.056526233}
{0.29276267}
{-0.03248734}
{-0.21810503}
{-0.78579974}
{-0.41211495}
{0.9421468}
{0.18611452}
{0.5684869}
{-0.46842247}
{-0.5492341}
{-0.9063953}
{0.9790597}
{-0.8653706}
{-0.34229028}
{-0.7952004}
{0.08796568}
{0.7881223}
{-0.24843775}
{-0.09752056}
{0.26034278}
{-0.06513881}
{0.89034337}
{0.19392505}
{-0.811584}
{0.75816816}
{-0.28304538}
{-0.013917759}
{0.89264345}
{0.058721967}
{-0.5303833}
{-0.062100794}
{-0.8151009}
{-0.38672987}
{-0.04642104}
{-0.46772563}
{0.06860323}
{-0.5358886}
{0.3493798}
{0.27635652}
{-0.18531853}
{0.33373046}
{-0.9559462}
{-0.68535835}
{0.65426826}
{0.71229196}
{-0.5525742}
{0.24386981}
{0.083395675}
{0.3804964}
{-0.35501257}
{-0.8001853}
{-0.7041087}
{-0.41530108}
{-0.61519027}
{0.083127595}
{0.92244625}
{0.8551958}
{-0.85270476}
{-0.052388236}
{-0.5634551}
{0.5427014}
{-0.27451068}
{-0.8390873}
{0.0651619}
{-0.155294}
{0.56336343}
{-0.7047851}
{0.35250467}
{-0.82269746}
{-0.6252373}
{0.04071238}
{0.6973021}
{0.032260716}
{-0.15598427}
{-0.094497964}
{0.5207448}
{-0.82594174}
{-0.9797665}
{0.29810852}
{-0.14957124}
{-0.15936577}
{0.47968483}
{0.9730367}
{0.49539915}
{0.49504128}
{-0.73144686}
{-0.33610964}
{-0.21303397}
{0.6085313}
{-0.030749882}
{-0.38651592}
{-0.34736997}
{-0.13592295}
{0.7180354}
{-0.8720418}
{0.5996163}
{0.02463168}
{-0.7513808}
{0.48635346}
{-0.06890158}
{0.5303734}
{0.6372026}
{-0.124495}
{-0.21614724}
{-0.22821677}
{0.6361691}
{-0.49993986}
{-0.27025777}
{-0.23208329}
{-0.18421733}
{0.80903083}
{0.37379783}
{0.19393668}
{0.7684813}
{-0.16407841}
{0.809659}
{-0.39519754}
{-0.40767524}
{0.028914569}
{-0.036457352}
{-0.6051312}
{-0.5519712}
{0.6163024}
{-0.83056927}
{0.78837836}
{0.09221441}
{-0.80482274}
{-0.904613}
{-0.23462576}
{0.4305587}
{-0.6879877}
{-0.5933056}
{-0.45935935}
{-0.7575923}
{0.47426793}
{-0.45105582}
{0.04947709}
{-0.7255049}
{-0.24189694}
{-0.68489766}
{-0.3162591}
{0.11974176}
{-0.81534654}
{0.22538799}
{0.06256886}
{-0.3823943}
{-0.24581777}
{0.1287021}
{0.3379148}
{-0.7785423}
{0.569253}
{0.42463106}
{-0.2604081}
{-0.49843428}
{0.47828016}
{-0.65989566}
{0.98356605}
{0.87717766}
{-0.12564738}
{0.15010303}
{0.50580215}
{0.21320693}
{0.5126258}
{0.93774056}
{-0.5848925}
{0.12913987}
{0.64152646}
{-0.77532697}
{-0.3675229}
{0.46730778}
{-0.08966637}
{0.87997913}
{1.0154396}
{-0.20235422}
{-0.49612495}
{-0.8698609}
{-0.3872002}
{0.0763079}
{-0.1676686}
{-0.4388309}
{-0.6770629}
{-0.85004556}
{0.71249706}
{-0.53052497}
{-0.7514408}
{-0.6155916}
{0.6319845}
{-0.44632703}
{0.36037314}
{-0.51671493}
{0.5470783}
{-0.53746915}
{-0.8178384}
{0.23289828}
{0.9458954}
{-0.11722593}
{0.49737588}
{-0.013303222}
{0.16675007}
{-0.73579717}
{-0.2716105}
{-0.40946814}
{0.023821965}
{-0.8957963}
{0.77437997}
{0.5276678}
{-0.27009466}
{-0.4398933}
{0.6779833}
{-0.0921685}
{0.72065157}
{0.95352244}
{0.4212019}
{0.51538044}
{-0.55435944}
{0.5230148}
{0.97513413}
{-0.89363134}
{0.70271754}
{0.3849339}
{-0.41957486}
{0.034514}
{-0.8958751}
{0.48082584}
{-0.73996246}
{-0.27326736}
{-0.6117507}
{-0.8204746}
{0.4750834}
{-0.8453086}
{0.8686707}
{-0.9661739}
{0.537352}
{-0.66341233}
{0.75890553}
{-0.8048291}
{-0.19705865}
{-0.61564887}
{-0.090903796}
{-0.4622448}
{-0.54525334}
{-0.70852053}
{0.9185918}
{-0.54356575}
{-0.42239937}
{-0.84959626}
{0.24514821}
{-0.7598703}
{-1.0128561}
{0.015089359}
{0.3737679}
{0.9100785}
{0.80029094}
{0.02998329}
{0.31598288}
{-0.47696382}
{-0.36396328}
{-0.61528736}
{0.58528405}
{0.88605213}
{0.55426186}
{0.76745707}
{0.47805017}
{0.9929261}
{0.53565043}
{-0.9916128}
{0.9519192}
{-0.8381851}
{-0.8067338}
{-0.13239068}
{0.40087146}
{-0.93514967}
{-0.3020177}
{-0.35156822}
{-0.19585393}
{0.79538417}
{0.19936244}
{-0.5619055}
{-0.5523205}
{-0.2639094}
{-0.19507226}
{0.9331239}
{1.07359}
{0.10181756}
{-0.07453445}
{1.0576319}
{-0.33189863}
{-0.47960335}
{0.57763237}
{-0.83737177}
{-0.6044309}
{-0.36608225}
{0.24613452}
{0.29779655}
{0.43524253}
{0.82322335}
{-0.6640571}
{-0.23493874}
{0.24921867}
{0.6680131}
{-0.32196662}
{0.5419624}
{0.54658765}
{-0.36027223}
{-0.60769767}
{-0.8959062}
{-0.29019967}
{0.9906199}
{-0.31802693}
{-1.014471}
{0.8727507}
{-0.6292951}
{-0.3731354}
{0.67607373}
{0.79941124}
{-0.8117807}
{0.63521457}
{-0.32140765}
{0.075017825}
{0.38076085}
{-0.47910574}
{-0.6119758}
{0.743733}
{-0.7920487}
{-0.38573816}
{0.70710903}
{-0.17778233}
{0.546175}
{0.62664515}
{-0.87590384}
{0.64723563}
{0.6745248}
{0.02826716}
{0.47809854}
{-0.355067}
{-0.47451836}
{-0.4759791}
{0.44970527}
{0.31442806}
{-0.31770045}
{-0.71574825}
{-0.21144775}
{-0.26595426}
{0.016243882}
{0.19348116}
{0.10008534}
{-0.39747137}
{0.4906489}
{-0.017669225}
{-0.854597}
{1.1243922}
{0.76984525}
{0.64055157}
{0.36072287}
{0.062379375}
{-0.47165114}
{-0.002963121}
{0.8785913}
{-0.9580862}
{-0.07613282}
{0.3587612}
{-0.6536779}
{-0.34681472}
{0.6998298}
{0.7228781}
{0.4607498}
{0.46571153}
{0.7878678}
{-0.3380309}
{-0.37400362}
{0.41954023}
{0.16620272}
{-0.941535}
{-0.90625787}
{0.93850684}
{-0.26667243}
{0.55647784}
{0.082014225}
{-0.521432}
{0.41083568}
{0.7331124}
{0.382695}
{0.31510234}
{-0.039215855}
{-0.4993121}
{-0.83757436}
{0.16743155}
{-0.9923208}
{-0.25908178}
{0.6287599}
{0.86879575}
{-0.9228184}
{0.4028203}
{-0.43440238}
{-0.63726974}
{0.57277083}
{0.9495805}
{0.26189327}
{-0.7961518}
{0.5927937}
{-0.5858839}
{0.16505831}
{0.23614278}
{-0.20828062}
{0.3976899}
{-0.9266609}
{-0.6570796}
{-0.9784763}
{0.14728618}
{-0.32588115}
{-0.10399242}
{0.14149755}
{-0.3293524}
{-0.8255751}
{0.18658055}
{-0.44325453}
{-0.43714187}
{0.6436145}
{1.0937132}
{-0.45654732}
{-0.25644362}
{0.5321777}
{-0.4456389}
{-0.82129574}
{0.10782503}
{0.4355686}
{0.611656}
{0.8494971}
{0.5078008}
{0.20987086}
{-0.54685116}
{0.6919184}
{0.3681655}
{-0.21786626}
{-0.7182242}
{0.043059774}
{-0.7730279}
{-0.16795246}
{-0.2064005}
{0.5439005}
{-0.6528049}
{-0.038311835}
{0.18852828}
{-0.007751994}
{0.653973}
{0.099388056}
{0.70219785}
{-0.67702675}
{-0.25930205}
{-0.18044488}
{-0.19424331}
{0.7081306}
{-0.4189913}
{0.75417733}
{-0.4659165}
{-0.50434875}
{0.04359627}
{-0.18208085}
{0.25258774}
{0.8866632}
{0.21639976}
{-0.7105039}
{0.21889439}
{-0.49291664}
{-0.29594824}
{-1.0261747}
{-0.0374546}
{0.78386045}
{0.3960204}
{0.70782167}
{-0.29550892}
{-0.4220832}
{-0.12491167}
{0.79981434}
{-0.17587237}
{0.18721479}
{-0.336519}
{0.09512638}
{-0.3442507}
{-0.20456511}
{-0.43285602}
{-0.20962043}
{0.22575197}
{-0.043294244}
{0.8401628}
{0.34694743}
{-0.29278916}
{0.473566}
{0.82168096}
{-0.64323044}
{0.8025727}
{0.68255305}
{0.6641229}
{-0.8805982}
{-0.40448728}
{-0.17288214}
{0.65055484}
{0.53913635}
{0.4136119}
{-0.311436}
{-0.20664635}
{-0.55069286}
{-0.8615848}
{-0.6957524}
{-0.19727805}
{-0.8190115}
{-0.7783566}
{0.9819963}
{-0.15794384}
{0.027614461}
{-0.9387547}
{-0.74410605}
{0.27990234}
{0.31437257}
{-0.059275445}
{0.1294691}
{0.5167978}
{0.37050396}
{0.718429}
{0.5642791}
{0.28967956}
{-0.23991668}
{0.7854766}
{0.33366793}
{0.78817093}
{-0.03164706}
{0.098424755}
{-0.61625266}
{-0.8451221}
{-0.67256194}
{-0.2839413}
{-0.9386444}
{-0.6324767}
{0.105991326}
{-0.5743}
{0.9169514}
{-0.8253936}
{0.8495091}
{0.5418435}
{-0.4721244}
{-0.25467542}
{-0.8247138}
{-0.6988286}
{0.7120638}
{0.6596717}
{-0.75296116}
{-0.045785755}
{0.8969281}
{-0.8020283}
{0.27389327}
{-0.69911325}
{0.21921057}
{0.64198595}
{0.754416}
{-0.31032425}
{-0.49883917}
{-0.25528747}
{0.16008358}
{0.3782357}
{0.5589874}
{-0.1929177}
{-0.20095356}
{0.5015249}
{-0.9332864}
{0.30421123}
{0.6879086}
{-0.78256714}
{-0.94862866}
{0.44019532}
{-0.67519283}
{0.5619088}
{-0.4618309}
{0.64052755}
{-0.52998483}
{-0.6287722}
{0.46232623}
{0.20900944}
{-0.619561}
{0.52003884}
{-0.79243064}
{0.43756297}
{-0.18491739}
{-0.91815794}
{0.5342226}
{-0.21925601}
{0.65116644}
{-0.4978816}
{-0.06416302}
{-0.7633477}
{-0.28138164}
{0.049242586}
{-0.6117883}
{0.59655577}
{-0.89735675}
{-0.5024446}
{0.52450156}
{1.0147858}
{0.68736833}
{-0.38543406}
{-0.37436825}
{0.30750123}
{0.54301023}
{0.56175935}
{0.84626126}
{0.23843588}
{-0.2975304}
{-0.25418088}
{-0.57341504}
{0.1494332}
{0.9280231}
{-0.35056457}
{0.6832745}
{-0.90347236}
{-0.53443277}
{-0.27734628}
{-0.19058567}
{0.6619269}
{0.65993667}
{-0.45380569}
{-0.22943288}
{0.93041176}
{-0.4537427}
{0.8091973}
{0.9533889}
{-0.66792226}
{-0.8754537}
{0.6863625}
{0.8488159}
{-0.70899063}
{-0.098931044}
{0.52193874}
{0.34411544}
{0.67569333}
{-0.42849013}
{0.2432397}
{-0.5698762}
{-0.12932046}
{0.89743865}
{0.55036795}
{0.83185863}
{0.39500585}
{-0.88986695}
{0.34137583}
{0.49527183}
{-0.11717091}
{-0.31575125}
{-0.38222232}
{-0.93802595}
{-0.27044737}
{0.14816566}
{0.21955194}
{0.45590538}
{-0.85263026}
{0.55937743}
{0.8406273}
{0.572489}
{-0.66858953}
{-0.32447535}
{0.9736203}
{-0.61911106}
{0.5581214}
{0.61642694}
{0.8525283}
{0.17701453}
{0.9854395}
{0.46619672}
{0.6871368}
{-0.10802893}
{-0.16798547}
{0.6974754}
{-0.07247584}
{-0.67655253}
{-0.47840163}
{-0.8948219}
{-0.09210837}
{0.95827293}
{0.628742}
{0.3728301}
{-0.41604555}
{-0.8748534}
{0.25872675}
{-0.88419205}
{-0.53798324}
{-0.9574497}
{-0.74801594}
{0.26371846}
{0.93894494}
{0.86620235}
{0.30970007}
{-0.5187106}
{-0.32031924}
{-0.64668036}
{-0.0047107125}
{-0.5179047}
{0.8347821}
{0.025221534}
{-0.20658001}
{0.73969716}
{-0.40323105}
{0.6859944}
{0.9687277}
{0.4217988}
{0.46547207}
{0.8489363}
{0.7762331}
{0.044792406}
{0.58905673}
{0.69764614}
{0.16298045}
{0.08702201}
{-0.59501606}
{-0.33498675}
{0.67138356}
{0.28691238}
{0.44980952}
{-0.32733566}
{0.35221672}
{-1.087833}
{-0.048974138}
{-0.013745837}
{0.5596125}
{0.3844959}
{0.415721}
{-0.08170013}
{-0.7742379}
{0.5718394}
{-0.34097728}
{-0.022500329}
{-0.12080989}
{0.7885523}
{-0.4297713}
{-0.73379946}
{-0.25778806}
{-0.84513324}
{-0.7693561}
{-0.5541787}
{0.6836116}
{-0.3544509}
{0.053545862}
{0.6053302}
{-0.98386174}
{-0.7053947}
{-0.43074223}
{-0.027304225}
{0.13493347}
{0.5562202}
{-0.17945428}
{-0.10680632}
{-0.657134}
{-0.3620199}
{0.44657728}
{0.09080048}
{-0.35247704}
{-0.09081265}
{-0.92859036}
{-0.85980415}
{0.46545583}
{-0.6775055}
{0.8468506}
{-0.82714415}
{-0.23997551}
{-0.21829881}
{-0.7648871}
{0.06969948}
{0.36079425}
{0.7276176}
{0.92996293}
{0.73228955}
{0.5282424}
{-0.60861075}
{0.10210899}
{0.18744034}
{0.87816525}
{-0.5894513}
{0.039640073}
{0.87993}
{-0.5592928}
{-0.52326906}
{-0.06034648}
{0.524503}
{-1.0054435}
{-0.18547109}
{0.03139791}
{0.17175859}
{0.22556064}
{0.60948527}
{0.8347025}
{0.13086623}
{0.71169615}
{0.42754364}
{-0.5135547}
{0.25991696}
{0.3306433}
{-0.08047904}
{0.7625738}
{-0.9398365}
{0.89503413}
{-0.72091454}
{1.0394245}
{0.44618982}
{0.6141288}
{-0.9646737}
{-0.018319843}
{-0.93226075}
{-0.14584653}
{0.6183764}
{0.7843263}
{0.4049701}
{0.793598}
{-0.89786196}
{0.85364044}
{0.49693435}
{-0.87865347}
{-1.0657142}
{0.81365865}
{-0.43804866}
{1.050004}
{-0.25395644}
{-0.6352951}
{0.7130761}
{-0.06933312}
{-0.23994026}
{-0.2615404}
{-0.6703079}
{-0.6624842}
{0.30577514}
{-0.84500414}
{-0.5472181}
{0.47276068}
{-0.40365437}
{-0.8307407}
{-0.82090855}
{-0.37405375}
{-1.1587434}
{0.8846371}
{-0.014849238}
{-0.9478183}
{-1.1019615}
{0.507803}
{0.6657646}
{0.46385548}
{-0.1569852}
{0.71903616}
{0.86253667}
{0.7435924}
{-0.06881457}
{0.10934773}
{-0.39555222}
{-0.9432703}
{0.37879995}
{1.043451}
{-0.6783509}
{0.1700862}
{-1.1084857}
{-0.9585231}
{-0.758183}
{-0.12761866}
{0.031216608}
{0.7806503}
{-0.015615992}
{0.34766862}
{0.51947844}
{-0.866432}
{0.4472155}
{0.2868794}
{0.7953692}
{0.07948598}
{0.34277552}
{0.67734957}
{0.3492496}
{0.6052655}
{0.5560777}
{-0.42930993}
{0.60633147}
{-0.6594996}
{0.3336503}
{0.06729386}
{0.6927853}
{-0.39766988}
{0.39756888}
{-0.26488298}
{0.89206064}
{0.21312569}
{0.9386468}
{-0.9728519}
{-0.3538353}
{-0.6694668}
{0.8014209}
{-0.056418493}
{0.62138814}
{-0.21174085}
{0.8445437}
{0.2196807}
{0.18617511}
{-0.20927837}
{0.82448435}
{-0.09584075}
{-0.04021349}
{0.08865113}
{0.8139615}
{0.7862578}
{-0.30947214}
{0.3643266}
{0.8603194}
{0.44673556}
{-0.5649848}
{-0.42252007}
{0.48478574}
{0.9001875}
{-0.049583834}
{0.30404836}
{0.14828151}
{0.6650391}
{-0.79539454}
{0.32485574}
{0.5373342}
{0.16736063}
{-0.8890056}
{0.8715748}
{0.52116084}
{-0.63183063}
{0.7180207}
{-0.36235598}
{0.8498881}
{0.38776}
{-0.7137193}
{-0.13789037}
{0.24158686}
{-0.7192115}
{-0.17844836}
{-0.89323014}
{0.39805597}
{0.39683303}
{-0.41548067}
{0.58950406}
{-0.756814}
{-0.4573548}
{-1.0510622}
{-0.029626735}
{0.6074803}
{-0.94645804}
{0.3850566}
{0.5172323}
{0.31287307}
{-0.18892382}
{0.6932063}
{0.27312735}
{-0.68496156}
{0.5533398}
{0.35062984}
{-0.4006714}
{0.53265357}
{0.02657734}
{-0.9668993}
{0.1568656}
{0.19743651}
{-0.5154461}
{0.08689794}
{0.9041558}
{0.4992809}
{-0.7178935}
{-0.4547344}
{0.70111567}
{-0.74679637}
{0.94444627}
{0.48774976}
{0.3563959}
{0.5039668}
{0.8780661}
{-0.2996638}
{0.44193807}
{0.35597938}
{0.5002212}
{-0.34164575}
{-0.014891858}
{0.5798168}
{0.17757629}
{0.56936103}
{0.29660395}
{0.10694952}
{0.395836}
{-0.7691061}
{-0.5069298}
{0.61483693}
{-0.1654032}
{0.7285849}
{-0.038672928}
{0.41529006}
{0.008749811}
{-0.6391712}
{0.8606082}
{0.5998485}
{0.24368185}
{0.7289079}
{0.11026}
{-0.9767661}
{0.41757497}
{-0.66787094}
{0.45298153}
{-0.8089075}
{0.64542896}
{-0.1166438}
{-0.9866235}
{0.09445377}
{0.56381506}
{-0.9447235}
{-0.37673798}
{0.597414}
{0.93471766}
{0.7843225}
{-0.104438536}
{-0.78758}
{-0.4802607}
{0.4860632}
{0.46925992}
{0.69448066}
{-0.17194636}
{-0.9082203}
{0.45429716}
{0.018071838}
{-0.58253425}
{0.95545703}
{0.3554256}
{0.7493334}
{-0.56724983}
{-0.49444088}
{0.37958118}
{0.7254019}
{0.4653216}
{0.55292505}
{-0.89890236}
{-0.8084934}
{0.59730256}
{-0.05821571}
{0.57495815}
{-0.19804794}
{0.6779219}
{-0.95020086}
{-0.8282156}
{-0.7789159}
{-0.63191074}
{0.36527053}
{0.7034471}
{0.018279023}
{-0.45852277}
{0.028578501}
{0.70954293}
{0.4344496}
{0.9236535}
{0.10857656}
{-0.40764743}
{0.08326812}
{-0.62068635}
{0.51295894}
{0.7882204}
{-0.49782878}
{0.5574498}
{0.6173768}
{0.60630375}
{0.960197}
{0.38709787}
{0.5196983}
{-1.0308726}
{0.19196075}
{-0.08011661}
{0.59317863}
{-0.43646163}
{0.18948334}
{0.5125465}
{0.22503193}
{0.26025504}
{0.72611046}
{-0.9202862}
{0.7023017}
{-0.8758363}
{0.7275858}
{0.025502613}
{0.5718626}
{-0.07751389}
{-0.29896003}
{0.08507732}
{0.6919454}
{-0.41830635}
{0.99354744}
{-0.42841572}
{-1.0259205}
{0.58623505}
{0.620636}
{0.99962854}
{0.08087689}
{0.6590368}
{-0.9428582}
{-0.48281762}
{0.16990614}
{-0.0053267246}
{-0.41749102}
{-0.27057835}
{-1.0307332}
{0.40859634}
{-0.19695312}
{0.021634063}
{0.4421667}
{-0.9266944}
{0.82389426}
{0.390444}
{-0.9927311}
{0.033731043}
{0.8024161}
{0.015857754}
{-0.6948013}
{0.2744989}
{-0.2218445}
{-0.040480275}
{0.4799803}
{-0.06387488}
{0.3917331}
{0.71298707}
{0.34155154}
{-0.6105875}
{0.37057704}
{0.12494276}
{-0.21604234}
{-0.34292758}
{0.13204926}
{-0.48177704}
{0.27426538}
{-0.14262263}
{-0.8928931}
{0.35257116}
{-0.048452523}
{0.72220415}
{-0.57969594}
{-0.4359108}
{0.9145281}
{-0.5258069}
{-0.62093496}
{0.85742503}
{0.48008946}
{-0.8093282}
{-0.14800245}
{-0.3710734}
{1.0279236}
{-0.20707515}
{0.43658036}
{0.8237153}
{-0.47649327}
{-0.3576268}
{0.1253044}
{0.2283471}
{-0.74294674}
{-0.9559984}
{-0.6226146}
{0.16144}
{0.9366306}
{-0.5516231}
{0.082264856}
{-0.75378746}
{-0.026959091}
{0.9339181}
{0.47597378}
{-1.0836703}
{-0.82072324}
{-0.5449522}
{0.2999944}
{-0.46744505}
{-0.73105645}
{-0.50858676}
{-0.5892751}
{-0.8489068}
{-0.9706088}
{0.55728537}
{-0.17793137}
{0.34330028}
{-0.6277924}
{-0.6933315}
{0.033032604}
{-0.6390115}
{-0.8388812}
{-0.60459375}
{0.7692659}
{-0.84080935}
{0.9742838}
{0.5204149}
{-0.24104577}
{0.23144086}
{0.33361775}
{-0.6105492}
{-0.64364076}
{0.65289724}
{-0.19980359}
{-0.22737771}
{0.13747066}
{-0.010347705}
{-0.9999743}
{0.6805596}
{0.6725311}
{-0.889283}
{-0.48713288}
{0.6923215}
{-0.30380422}
{0.9623218}
{0.28096235}
{-0.6526839}
{0.879431}
{0.15283999}
{-0.8245534}
{-0.6682027}
{0.4002444}
{0.80220133}
{-0.922932}
{0.097989775}
{0.5669794}
{0.9482221}
{-0.38918516}
{0.4682553}
{0.10557671}
{0.44769004}
{-0.07920084}
{-0.39606246}
{0.33257025}
{0.72959983}
{-0.91494477}
{-0.72460055}
{-0.52283716}
{-0.4128326}
{0.19154711}
{0.84860086}
{0.89116454}
{-0.7701715}
{0.22419655}
{-0.29279894}
{-0.58404994}
{0.44185963}
{0.7497881}
{0.037868965}
{-0.5905771}
{0.01901357}
{-0.93954325}
{-0.59328693}
{0.47943968}
{0.92111546}
{0.45364878}
{-0.4730587}
{-0.6966913}
{0.032006543}
{-0.78563595}
{-0.9100746}
{-0.9348211}
{-0.020055028}
{0.1820207}
{0.8971838}
{-0.9238217}
{-0.18355705}
{-0.0060123513}
{-0.31629783}
{-0.569437}
{-0.4486541}
{-0.30820903}
{0.7030971}
{-0.9569957}
{0.17474093}
{-0.4572501}
{0.66023105}
{-0.012185864}
{0.59062994}
{-0.8370923}
{-0.66682804}
{-0.9708395}
{-0.5752423}
{-0.08740361}
{-0.86261153}
{-0.025566868}
{-0.45581818}
{-0.31167424}
{-0.97353953}
{0.5474186}
{-0.5437875}
{-0.37742138}
{0.012550683}
{0.04270024}
{-0.7417046}
{0.3148114}
{0.94230497}
{-0.9613364}
{-0.6239124}
{0.44007295}
{-0.74615604}
{0.91516876}
{-0.074895985}
{0.3219559}
{0.80671203}
{0.5144291}
{-0.11462211}
{-0.31644255}
{-0.088653855}
{0.9811547}
{0.81866443}
{0.6419814}
{1.0369833}
{-0.8143532}
{0.20303382}
{-0.7608932}
{0.43489763}
{0.509743}
{0.28912815}
{0.3109508}
{-0.6961964}
{-0.13961154}
{0.5592105}
{0.045768224}
{-0.60123456}
{0.7586844}
{0.9033265}
{-0.7435142}
{-0.5142714}
{0.9624679}
{0.82243925}
{-0.50452864}
{-0.49920234}
{-0.13898402}
{0.052505426}
{0.8342636}
{-0.26894552}
{0.48742977}
{0.63052857}
{-0.17042498}
{0.5945906}
{0.69915605}
{-0.91656625}
{0.31828073}
{0.3368722}
{0.25564855}
{-0.4877621}
{-0.19311015}
{-0.8440928}
{-0.94864774}
{-0.039758757}
{-1.1369191}
{0.6900311}
{-0.59419703}
{0.680122}
{0.22242738}
{0.9279004}
{-0.29667526}
{-0.20629346}
{-0.9857513}
{-0.16514356}
{0.7125075}
{-0.31175968}
{0.6548665}
{-0.25439334}
{0.24035972}
{-0.30418125}
{-0.32140103}
{0.08087395}
{-0.23917562}
{0.6987333}
{0.20864125}
{0.317419}
{-0.8992219}
{-0.2304083}
{-0.8929441}
{0.53013015}
{0.60531783}
{0.404893}
{-0.5260303}
{-0.02516798}
{-0.40420228}
{0.37739065}
{0.015284351}
{-0.36670846}
{0.6081915}
{0.94491714}
{-0.16934861}
{0.9764564}
{0.8149433}
{-0.9039908}
{-0.45786962}
{-0.30332452}
{0.1539647}
{0.0065776417}
{0.09028613}
{-0.111326575}
{0.47383994}
{0.24022941}
{0.09500414}
{-0.6342492}
{0.8785236}
{-0.5298248}
{0.11552693}
{-0.3914}
{-0.20899588}
{-0.43590122}
{-0.7380116}
{0.72859937}
{-0.21117002}
{-0.107337825}
{0.07876266}
{-0.92335385}
{-0.3614958}
{-0.0681192}
{-0.066820614}
{-0.3587423}
{-0.80041766}
{0.11511344}
{-0.30927247}
{0.029853161}
{0.65166736}
{0.34610495}
{0.2963012}
{-0.3980914}
{-0.5036278}
{-0.9988915}
{-0.9857769}
{-0.8390132}
{0.16945475}
{0.83418}
{-0.884727}
{-0.5382889}
{-0.019456439}
{0.9052737}
{-0.35269517}
{-0.38359413}
{-0.55929327}
{0.09684843}
{-0.67732525}
{-0.22094093}
{0.22859162}
{-0.047021907}
{0.7041967}
{1.0651871}
{-0.30170184}
{0.92448026}
{0.38654053}
{-0.26850244}
{-0.977334}
{-0.7812677}
{-0.9601436}
{-0.18355818}
{-0.76669145}
{0.2707332}
{-0.95035666}
{0.87638324}
{-0.7992227}
{-0.7641355}
{-0.67161614}
{0.36370358}
{-0.68288875}
{0.27595586}
{0.48883224}
{-0.9249414}
{-0.94714785}
{0.77451026}
{-0.78685695}
{0.5390166}
{0.032762475}
{0.4351684}
{-0.54697406}
{0.43038613}
{-0.17494255}
{0.9308221}
{0.34603134}
{0.009299283}
{0.52898717}
{0.3848514}
{-0.9883878}
{0.6407383}
{0.7900858}
{0.4969481}
{-0.47394744}
{0.99272525}
{0.70709944}
{0.079858944}
{-0.14696017}
{-0.70247734}
{0.59526086}
{-0.49737713}
{0.32628343}
{-0.40853536}
{-0.92567706}
{-0.68136805}
{0.043716434}
{0.83219236}
{-0.43637592}
{-0.015228664}
{0.40895775}
{-0.46021667}
{0.36797875}
{0.64870614}
{0.33008653}
{0.39476836}
{-0.1334477}
{-0.6979544}
{-0.4389831}
{-0.86633104}
{-0.87818}
{-0.5844945}
{0.64990747}
{-0.1252214}
{0.523304}
{-0.8746777}
{-0.56558627}
{0.8637931}
{-0.6693206}
{0.5258295}
{0.38634682}
{-0.29399216}
{-0.48193675}
{0.6995634}
{0.0040811775}
{-0.38431638}
{0.507149}
{0.3365711}
{0.78275436}
{0.39004287}
{-0.7762275}
{-0.25396213}
{-0.16507122}
{-0.7351855}
{-0.8447645}
{-0.58069015}
{0.1141673}
{-0.7481902}
{0.20045155}
{0.9019049}
{0.9738923}
{0.22072202}
{0.8547952}
{-0.30611202}
{0.7320131}
{0.56951636}
{0.09928198}
{-0.8891198}
{0.8035743}
{-0.5223257}
{-0.5296664}
{0.2924456}
{0.20697187}
{-0.99865615}
{-0.8938999}
{-0.26999933}
{0.20874825}
{0.12337199}
{-0.93333745}
{0.012742618}
{0.16370238}
{0.8406996}
{0.44302124}
{0.73144424}
{-0.85856247}
{-0.8024252}
{-0.8861015}
{-0.5990414}
{-0.022959488}
{0.7303917}
{0.330908}
{-0.700959}
{-1.0113167}
{0.90591955}
{-0.91938496}
{-0.22187287}
{-0.7141403}
{0.8157537}
{0.02121634}
{-0.54259986}
{0.40609184}
{0.4484528}
{-0.516345}
{0.44529706}
{-0.026432548}
{0.77540094}
{0.08348103}
{-0.644583}
{0.6477111}
{-0.87469405}
{-0.78560805}
{0.4690729}
{-0.09294864}
{0.031334482}
{0.48279685}
{-0.6442517}
{-0.097690694}
{-0.04659529}
{-0.97747374}
{-0.064262986}
{-1.0633006}
{-0.64827305}
{0.35651678}
{0.57076997}
{-0.040703878}
{0.49004018}
{0.17549056}
{0.5159992}
{0.15181424}
{0.949654}
{0.82619286}
{-0.59450424}
{0.17296968}
{-0.8805063}
{0.58631635}
{-0.32141775}
{-0.027364498}
{0.10987177}
{0.13168997}
{1.1070731}
{-0.1887507}
{-0.28163677}
{-0.8642945}
{-0.17993346}
{-0.85135096}
{-0.64113986}
{-0.17756969}
{-0.6926265}
{-0.08745511}
{0.40007395}
{-0.84357}
{-0.17861235}
{-0.082202934}
{0.010529036}
{0.12428445}
{-0.1168065}
{0.521158}
{0.9429926}
{0.9662125}
{0.85606825}
{0.48726785}
{0.025053956}
{0.34166235}
{-0.75715375}
{-0.5338996}
{-0.07549004}
{0.5970526}
{-0.44402176}
{0.2270288}
{0.48199302}
{-0.5018297}
{-0.5236069}
{0.5802922}
{0.6001312}
{-0.87643147}
{-0.026023442}
{-0.041009825}
{-0.41453198}
{0.8670523}
{0.065751165}
{0.6143776}
{-1.0474242}
{0.11119457}
{-0.29083747}
{0.022614457}
{-0.5825417}
{-0.25823432}
{-0.74762136}
{0.74949867}
{0.66858476}
{0.40229982}
{0.5257347}
{0.68036246}
{-0.6215115}
{0.03553099}
{-1.0780783}
{-0.33441195}
{0.7586516}
{0.15222329}
{0.5606215}
{0.22047894}
{0.8520154}
{0.67187643}
{0.3690498}
{-0.8031163}
{0.8816626}
{0.061175298}
{0.8405533}
{0.5343968}
{0.891529}
{-0.967525}
{-0.91143966}
{-0.063691236}
{0.6431836}
{0.55043817}
{0.3536435}
{0.22870465}
{-0.8277994}
{0.1027195}
{-0.43275338}
{-0.80100286}
{0.37285215}
{-0.08837609}
{0.8745711}
{0.34717402}
{-0.35046872}
{0.00077933865}
{-0.07425988}
{-0.018043527}
{-0.40116125}
{-0.83839726}
{-0.075574316}
{-0.9977136}
{0.6435174}
{0.593766}
{0.75725627}
{-0.032973092}
{-0.09639914}
{0.18581218}
{-0.7811007}
{0.2410813}
{0.13494591}
{0.22706598}
{0.78863955}
{-0.77595454}
{0.4601768}
{0.7779925}
{0.06294458}
{-0.40800413}
{-0.36667082}
{-0.59619975}
{-0.1286088}
{-1.1162833}
{0.61376786}
{0.8791003}
{0.13880791}
{-0.29464683}
{-0.19742645}
{-0.020278268}
{0.331618}
{0.32899126}
{0.7780693}
{-0.43272048}
{-0.70150125}
{-0.06530487}
{-0.6947527}
{0.771564}
{-0.40584034}
{0.010356476}
{-0.21398363}
{0.4635858}
{-0.7194738}
{-0.47936672}
{1.1437088}
{0.88931346}
{0.68559057}
{-0.4901461}
{-0.4195969}
{-0.95036864}
{-0.3919259}
{-0.52864075}
{-0.38569707}
{0.06909986}
{-0.5753347}
{-0.93561566}
{0.95435584}
{-0.555748}
{0.7988582}
{-0.36113277}
{0.2619183}
{0.54310465}
{-0.16491546}
{-0.27478415}
{-0.9801669}
{0.40728587}
{-0.718056}
{0.15536638}
{0.63766825}
{-0.79515386}
{0.0074702976}
{-0.12101034}
{0.8342962}
{-0.104464814}
{-0.6604376}
{0.31727165}
{0.60525864}
{0.11795421}
{-0.96056056}
{0.7806296}
{-0.9267007}
{0.15379542}
{0.74077237}
{-0.81375426}
{-0.034950305}
{-0.8473246}
{0.22666523}
{-0.5982359}
{0.7344268}
{0.83401704}
{-0.89606243}
{0.6661882}
{-0.18223771}
{0.63992906}
{0.91530067}
{-0.62432677}
{-0.18368211}
{-0.08005552}
{-0.98186785}
{-0.32802895}
{0.8216336}
{0.684011}
{0.020105682}
{-0.42618158}
{-0.19859183}
{0.6039398}
{-0.90559983}
{0.6368299}
{0.3992343}
{-0.82292795}
{0.46263415}
{0.5982277}
{-0.43828475}
{-0.9825771}
{-0.84574115}
{-0.88414913}
{-0.81611323}
{0.20669168}
{0.5686766}
{0.64648116}
{-0.8056618}
{-0.24263436}
{-0.39021268}
{-0.14136793}
{0.19945134}
{0.22131461}
{-0.29815}
{-0.116193615}
{0.75963527}
{0.4283449}
{0.2580796}
{0.5731642}
{0.7978247}
{0.521976}
{-0.365657}
{0.8119008}
{0.24738412}
{0.9005933}
{0.7853658}
{-0.10418704}
{0.53314275}
{-0.5787461}
{0.7306497}
{-0.97846603}
{0.7047298}
{0.016532607}
{0.7327935}
{0.1459926}
{0.04487158}
{-0.5835619}
{-0.088842794}
{0.50268626}
{0.16342972}
{-0.7300749}
{0.49024263}
{0.52710295}
{-0.8659099}
{-0.53245497}
{0.4260613}
{0.48333457}
{1.0615855}
{-0.9057474}
{-0.027659459}
{-0.43947113}
{-0.32597387}
{0.6542251}
{-0.2629079}
{0.68200845}
{-0.40743348}
{-0.16722876}
{0.14256631}
{-0.833612}
{0.9646221}
{-0.87824035}
{0.41985497}
{-1.1582341}
{-0.44310403}
{0.736547}
{-0.4936341}
{0.74340564}
{0.021699874}
{0.6310246}
{0.88412136}
{-0.6633787}
{-0.18176386}
{-0.83383656}
{-0.04530158}
{0.62898153}
{-0.06335354}
{0.9543607}
{0.84112144}
{0.49733424}
{0.8595824}
{0.46643108}
{-0.5495698}
{0.6479488}
{-0.6714971}
{0.81224966}
{-0.08348695}
{-1.2259963}
{-0.3619472}
{0.0074016526}
{-0.8713456}
{0.65748507}
{-0.5545569}
{0.83129954}
{0.075780354}
{0.64404577}
{-0.03249178}
{-0.32648212}
{0.89740545}
{0.2564501}
{0.8806389}
{-0.35077387}
{-0.114629894}
{0.12565519}
{0.26773608}
{0.69001126}
{-0.64838445}
{0.78248435}
{0.54153377}
{-0.7269888}
{0.16833678}
{0.42139032}
{0.33022568}
{0.17735738}
{-0.094445325}
{0.6541344}
{0.5770995}
{0.6965654}
{-0.20223293}
{0.5640707}
{0.4068882}
{0.34992927}
{0.45743644}
{-0.087396085}
{0.8351692}
{-0.9973912}
{0.84073234}
{-0.16413148}
{0.22706516}
{0.1778993}
{0.4294997}
{-0.7133209}
{-0.15888005}
{-0.07919125}
{-0.40073475}
{-0.5875209}
{-0.40478885}
{0.6100044}
{0.7764396}
{-0.094955124}
{-0.58482146}
{0.11702748}
{-0.16957638}
{-0.8069534}
{-0.6616148}
{0.7339182}
{0.64305043}
{-0.8218979}
{0.5210473}
{0.08750673}
{-0.7794233}
{0.25427446}
{0.8907156}
{-0.09458022}
{0.8096623}
{0.11872942}
{0.29892716}
{0.764688}
{-0.06080233}
{-0.5536527}
{0.2965938}
{-0.6318083}
{0.9307696}
{-0.77963716}
{-0.006585167}
{0.20552486}
{-0.0021933117}
{-1.0583638}
{-0.3968424}
{0.4459445}
{0.6657526}
{-0.46564618}
{-0.24333997}
{-0.5438442}
{-0.12877606}
{-0.07256802}
{-0.80203885}
{-0.40653688}
{0.9529682}
{-0.31801546}
{-0.5855662}
{-0.46078283}
{0.40203628}
{0.107792534}
{0.03220415}
{0.4464435}
{1.0758096}
{0.53254604}
{-0.28846166}
{0.68719435}
{0.08646323}
{0.23471136}
{0.56782037}
{-0.5293503}
{0.3344003}
{-0.6321003}
{0.70114523}
{0.7942219}
{-0.616342}
{-0.16807656}
{-0.22758755}
{0.39500397}
{0.56302446}
{0.13163485}
{-0.4851096}
{0.6912334}
{0.81342727}
{-0.9688599}
{-0.10174619}
{-0.5404401}
{-0.3261414}
{-0.61406827}
{-0.45027572}
{0.49408403}
{0.9787348}
{0.6664551}
{0.6366813}
{0.071895316}
{-0.4584026}
{0.14936677}
{-0.5914379}
{-0.57854533}
{-0.5099134}
{0.4876874}
{0.23409937}
{-0.37810165}
{0.17829919}
{-0.05237891}
{0.32886487}
{-0.6147406}
{-0.855844}
{0.66338795}
{-0.6102435}
{0.39283818}
{-0.75312006}
{0.20290071}
{0.32497153}
{0.2923283}
{0.21570022}
{-0.26121992}
{-0.5182652}
{-0.50829744}
{-0.5745801}
{-1.1392714}
{-0.93736637}
{-0.5834577}
{0.7612567}
{-0.72741926}
{0.71399945}
{-0.6256902}
{-0.72666794}
{0.66935897}
{0.64383453}
{0.74587274}
{0.8271576}
{-0.7758408}
{-0.37813294}
{-0.77944636}
{-0.6458948}
{0.9061008}
{0.102037825}
{-0.669893}
{0.26724538}
{0.36215115}
{0.77100134}
{0.37209338}
{0.023559568}
{-0.49561483}
{-0.2552042}
{0.02031488}
{-0.56966025}
{-0.5787595}
{0.5319258}
{0.4554736}
{-0.2471124}
{0.3416588}
{-0.026853098}
{0.70205}
{0.13940337}
{-0.7184049}
{0.8361481}
{0.08281727}
{0.6074307}
{-0.826225}
{-0.5436699}
{-0.15818411}
{0.39945808}
{-0.32702944}
{1.0038283}
{-0.64500546}
{0.7923067}
{-0.072951205}
{-0.21947493}
{-0.4708889}
{0.7920923}
{0.36467105}
{0.19778125}
{-0.5242381}
{0.014661904}
{0.017978448}
{0.14879873}
{-0.936461}
{-0.8386413}
{0.85077626}
{-0.22704993}
{0.8091836}
{0.06502594}
{0.06714334}
{1.0658154}
{-0.61666036}
{0.118613474}
{0.5420474}
{0.34883896}
{-0.9426801}
{-0.34852627}
{-0.21358998}
{-0.13198136}
{0.78110313}
{-0.6623643}
{0.90203935}
{0.96990126}
{-0.36687833}
{0.8269899}
{0.45685855}
{0.3916322}
{0.36128134}
{0.3039753}
{-1.0465872}
{0.28080857}
{0.52993274}
{0.5971697}
{0.32684985}
{-0.5242821}
{-0.043975882}
{0.7508596}
{0.30520824}
{0.4338945}
{0.19573039}
{-0.3201202}
{0.60893404}
{0.25098297}
{0.27350086}
{-0.26619104}
{-0.005903775}
{-0.5563916}
{0.37428826}
{-0.1423216}
{0.6578621}
{0.2274592}
{-0.8099296}
{0.61430204}
{-0.11010661}
{0.31388953}
{0.5748136}
{0.42950115}
{0.3099384}
{0.31735438}
{-0.8867917}
{-0.62286323}
{-0.9214532}
{-0.08858877}
{0.79708123}
{-0.32720098}
{0.5268047}
{-1.013157}
{0.3914041}
{0.7511692}
{-0.70226383}
{0.6997085}
{-0.99656415}
{0.6762466}
{0.3148264}
{-0.41189137}
{-0.1663099}
{0.37076777}
{-0.8719156}
{-0.9839679}
{-0.3011983}
{0.22814466}
{0.400099}
{-0.42116198}
{0.67205405}
{-0.35177425}
{0.68061596}
{-0.19829562}
{0.34529275}
{0.043797538}
{0.17157926}
{0.9699854}
{-0.9394772}
{-0.7513736}
{0.13284706}
{0.49835777}
{0.763829}
{0.93640333}
{-0.82475334}
{-0.59332734}
{-0.37481147}
{-0.43294308}
{-0.357856}
{0.703296}
{-0.9908092}
{-0.28686932}
{0.17780696}
{-0.58500266}
{-0.9966943}
{-0.69773966}
{0.6794053}
{-0.04643911}
{0.22869295}
{-0.6564422}
{0.17778488}
{-0.8557963}
{-0.9272897}
{-0.24236332}
{-0.8163341}
{0.6342428}
{-0.4909709}
{0.8502097}
{-0.92047256}
{-0.18758248}
{-0.9217651}
{1.029128}
{0.5828302}
{0.4841497}
{-0.63493013}
{-0.31883448}
{0.7973127}
{-0.6656889}
{-0.4869569}
{0.7601071}
{0.50999445}
{-0.53885555}
{-0.8622751}
{-0.57281464}
{0.7389443}
{0.4715002}
{0.4193594}
{1.2023789}
{-0.47713906}
{-0.32935545}
{-0.7647958}
{-0.4090476}
{-0.3226366}
{-0.3039063}
{0.19360489}
{0.93029124}
{-0.6149676}
{-0.3188727}
{-0.406462}
{0.34082407}
{-0.08045754}
{-0.14304234}
{-0.9247365}
{0.8701708}
{-0.15588126}
{-0.78236264}
{0.024206586}
{0.4872557}
{-1.0030066}
{0.29594275}
{0.47859687}
{-0.76916546}
{-0.47951102}
{-0.029876389}
{0.28143853}
{0.094121456}
{-0.6139434}
{-0.065758534}
{-0.6752951}
{0.3118803}
{-0.21350938}
{-0.13255925}
{-0.8677738}
{-0.49198326}
{-0.68565494}
{0.70649356}
{0.8940356}
{-0.66708225}
{-0.8921576}
{0.53530115}
{-0.55391836}
{-0.71834564}
{0.46691805}
{-0.794955}
{-0.5153086}
{0.5834651}
{-0.17406082}
{-0.9601505}
{-0.09732585}
{-0.8990371}
{0.3433111}
{-0.47563335}
{-0.107069775}
{0.65481156}
{-0.14885613}
{0.61128503}
{-0.41437203}
{-0.15340172}
{0.6203869}
{0.10894089}
{0.97334623}
{0.5047783}
{0.25963405}
{-0.61351824}
{0.9153724}
{0.8057043}
{-0.48796305}
{-0.83908707}
{-0.6908827}
{0.61326665}
{-0.48703608}
{-0.47760952}
{-0.4329155}
{0.05997492}
{-0.94747645}
{-0.32046497}
{-0.2501176}
{0.9786612}
{-0.25327775}
{-0.30354053}
{0.5272665}
{0.047706105}
{0.89605457}
{-0.32736397}
{-0.76779795}
{1.1339227}
{0.7489952}
{-0.38496318}
{-0.76954365}
{-0.2384699}
{0.66349137}
{-0.49350017}
{-0.5161364}
{0.42140952}
{-0.8977407}
{0.23703875}
{0.9523654}
{-0.6194031}
{-0.6853183}
{-0.4725914}
{-0.82902884}
{0.7872647}
{0.42073607}
{-0.6169038}
{0.8584306}
{0.3867625}
{-0.3100504}
{-0.030835204}
{0.53996706}
{-0.17908221}
{-0.80240285}
{-0.8528557}
{-0.69225764}
{0.905547}
{0.6305717}
{0.71601003}
{-0.20444304}
{-0.59232163}
{-0.8606467}
{-0.20402402}
{0.9895723}
{0.13323043}
{-0.83298606}
{0.17695998}
{0.99229}
{0.5554136}
{-0.92728496}
{-0.24490334}
{-0.7350216}
{0.69940364}
{-0.62538403}
{-0.302121}
{-0.57785964}
{-0.7493542}
{0.043187156}
{0.21510854}
{0.6680269}
{-0.49907956}
{-0.49149057}
{-0.2069397}
{0.46696824}
{-0.086931}
{0.19512613}
{1.0779773}
{-0.7830806}
{-0.55649376}
{-0.06953117}
{-0.51170325}
{-0.53080225}
{0.9156429}
{-0.08598354}
{-0.81141704}
{-0.693907}
{0.7721199}
{-0.40360725}
{-0.8469546}
{0.06970425}
{1.0487549}
{-1.0704389}
{-0.46939892}
{-0.6182165}
{-0.22244328}
{-0.8793026}
{0.9418474}
{-0.00442963}
{-0.531459}
{0.3946246}
{-0.84058553}
{-0.99364257}
{-0.4307483}
{-0.5596596}
{-0.26194847}
{0.48588103}
{-0.24997555}
{0.8865999}
{-0.856578}
{0.57815814}
{0.23922405}
{0.86148703}
{0.6486127}
{0.13786858}
{-0.9803352}
{-0.08768326}
{0.28698108}
{0.4262449}
{-0.80191475}
{0.656158}
{-0.20444867}
{-0.7544453}
{0.203293}
{0.7181562}
{-0.6359686}
{0.64011097}
{-0.14989944}
{-0.1421083}
{-0.4896049}
{0.8881252}
{-0.4458324}
{-0.1308394}
{0.2842043}
{0.12081572}
{-0.4745886}
{0.54248595}
{0.5101368}
{0.035815902}
{-0.14206876}
{-0.8446191}
{-0.19602808}
{-0.2855423}
{-0.463595}
{0.4693019}
{-0.32628223}
{0.6590493}
{-0.695654}
{0.62124306}
{0.5206666}
{0.866348}
{-0.3409924}
{-0.409767}
{-0.857201}
{-0.10915403}
{0.6308988}
{0.9231012}
{0.49104115}
{-0.43851358}
{-0.43487558}
{0.5780898}
{0.26586443}
{-0.9210305}
{-0.2000144}
{-0.47929707}
{-0.6371839}
{0.5320568}
{1.0849588}
{0.8425033}
{0.2825232}
{-0.7217386}
{1.0013489}
{0.41633445}
{0.62973}
{0.7947781}
{0.031417448}
{-0.6800624}
{-0.29064506}
{0.24822468}
{-0.08483139}
{-0.5827961}
{-0.097070016}
{-0.1510492}
{-0.21785137}
{0.5696667}
{0.2687806}
{0.9907942}
{-0.6397214}
{0.11395109}
{0.4898029}
{0.91219664}
{-0.008659943}
{-0.09634995}
{0.48179808}
{-0.5763409}
{-0.18116854}
{-0.7741594}
{0.42859244}
{0.75117993}
{-0.43748075}
{-0.6771398}
{0.8673901}
{-0.03792029}
{0.6187557}
{-0.99136716}
{0.59856975}
{0.38688797}
{-0.18918619}
{0.49511868}
{0.41638294}
{-0.8949251}
{-0.45338434}
{0.8540447}
{0.5342158}
{-0.58127236}
{0.797186}
{-0.20558873}
{-0.11275991}
{-0.46651345}
{-0.76122206}
{-0.26991096}
{-0.80253303}
{0.39409894}
{-0.005672372}
{-1.0616665}
{0.1976035}
{0.12262173}
{-0.24209188}
{0.3667778}
{0.49171442}
{-0.084682986}
{-0.9603133}
{0.8136951}
{0.7151328}
{0.106273845}
{0.91154027}
{0.76356125}
{0.62581295}
{-0.2277289}
{-0.33514023}
{-0.19038868}
{0.37377992}
{-0.6199336}
{-0.005460084}
{0.8693322}
{-0.2877464}
{-0.52705145}
{-0.5275636}
{0.08673496}
{-0.35590163}
{-0.14478093}
{0.76571965}
{-0.023858745}
{-0.63876235}
{-0.020910792}
{0.35762304}
{-0.2857675}
{0.28745914}
{0.43124908}
{0.2423455}
{0.5668923}
{0.2216274}
{-0.50356984}
{-0.19503398}
{0.6034712}
{-0.5191512}
{0.012370534}
{0.43781167}
{-0.8372715}
{0.67183155}
{0.2660882}
{-0.27762377}
{-0.5468999}
{-0.3512575}
{0.68682694}
{-0.7670924}
{0.11114811}
{0.096463114}
{-0.15903956}
{0.2525412}
{0.36950827}
{-0.8090168}
{-0.66346455}
{-0.056779556}
{0.5654972}
{0.00076300075}
{0.7866843}
{0.75134295}
{-0.6248298}
{-0.6775456}
{0.15928215}
{-0.17354485}
{-0.060877353}
{0.5902271}
{-0.8471699}
{-0.7464911}
{0.7055017}
{-0.20073818}
{0.9815333}
{-0.38633695}
{1.0570357}
{0.81886375}
{0.73263645}
{-0.49867544}
{-0.4144174}
{-0.19955456}
{0.7787633}
{1.1339716}
{0.46807545}
{0.13949612}
{0.6908376}
{-0.6765931}
{0.30937493}
{-0.051698525}
{-0.3214267}
{0.5709952}
{0.14915334}
{-0.36510354}
{0.12894267}
{0.6367882}
{-0.21598943}
{-0.02003056}
{0.31907004}
{-0.5463916}
{-0.7456946}
{0.51679176}
{-0.8785236}
{1.1162771}
{-0.04052469}
{-0.14428087}
{0.37933367}
{0.3131461}
{0.58247757}
{-0.95455134}
{0.543458}
{0.39198044}
{0.7878254}
{-0.1286307}
{-0.92178655}
{0.13226895}
{-0.022267286}
{-1.0460078}
{0.267595}
{0.63628006}
{-0.006699881}
{-0.28181174}
{-0.8981607}
{-0.8866061}
{0.5814315}
{0.37315804}
{0.9476607}
{0.6694425}
{0.7555574}
{0.8071943}
{-0.28179032}
{0.21437141}
{0.37598604}
{0.3721821}
{0.20750445}
{-0.6065123}
{0.8349322}
{0.12245314}
{-0.34493572}
{-0.8717052}
{-0.46377409}
{0.25421286}
{0.9098234}
{0.38904244}
{-0.4187131}
{0.7716335}
{-0.3091622}
{-1.0561216}
{-0.601871}
{-0.13837816}
{-0.70974255}
{0.5206258}
{-0.78638107}
{-0.884886}
{-0.8029556}
{-0.06960731}
{-0.90730023}
{-0.06245817}
{-0.40740997}
{-0.297844}
{-0.6789773}
{-0.3680812}
{0.3495068}
{-0.7479186}
{0.6646012}
{-0.4244564}
{0.0010852297}
{-0.07498609}
{-0.9851911}
{0.24813254}
{-0.5095129}
{0.90577066}
{0.9095737}
{-0.21565369}
{-0.45414048}
{-0.07527107}
{0.98653924}
{-0.5504701}
{-0.01820355}
{-0.05165915}
{-0.16131242}
{-0.19450717}
{0.63614297}
{-0.16279262}
{-0.40245777}
{0.4013392}
{0.26211566}
{0.2241577}
{-0.7884474}
{-0.88742507}
{-0.27042347}
{0.108777836}
{0.75068825}
{0.24217092}
{-0.9489262}
{-0.14064847}
{0.7183139}
{-0.744154}
{0.80077577}
{0.25559235}
{-0.5482459}
{0.59150386}
{0.15782923}
{-0.62145925}
{-0.8114115}
{-0.11843697}
{0.13756198}
{-0.11239339}
{-0.7621257}
{-0.19406162}
{0.15359706}
{-0.54202414}
{-0.26049045}
{-0.24566936}
{0.21248597}
{0.050908294}
{-0.17976893}
{-0.19179279}
{0.9478493}
{-0.56006086}
{-0.5244417}
{0.81334394}
{0.4239208}
{-0.73132384}
{-0.6719095}
{0.79890376}
{-0.6103003}
{-0.70338345}
{0.5528542}
{0.32317638}
{0.47052068}
{-0.8043015}
{-0.18925624}
{0.4331784}
{0.4450614}
{0.60236806}
{0.33891568}
{-0.48382664}
{0.6335254}
{-0.82628334}
{0.6247958}
{0.15586029}
{-0.48426682}
{0.27975184}
{0.6535253}
{0.58287084}
{0.57132554}
{-0.63068825}
{-0.917085}
{0.14206752}
{0.25996703}
{-0.37267622}
{-0.066226065}
{-0.060025953}
{-0.13148052}
{-0.9284905}
{0.25707805}
{0.7005564}
{-0.73719335}
{-0.5326638}
{-1.080935}
{-0.84712285}
{-0.4333461}
{0.1289829}
{-0.56494474}
{-0.3981323}
{-0.032156758}
{0.6864731}
{0.86074656}
{0.5908085}
{-0.62780905}
{0.6260673}
{0.30229345}
{-0.12679364}
{-0.1351307}
{-0.85531986}
{-0.40439123}
{0.19864888}
{0.3149919}
{0.63610566}
{0.6046463}
{0.27094054}
{0.37530392}
{-0.49134126}
{-0.3373073}
{-0.5582729}
{0.5195203}
{0.35940364}
{-0.44112375}
{0.38422558}
{-0.7427356}
{0.4006341}
{-0.47590548}
{0.7129729}
{-0.2673872}
{-0.7558937}
{0.34217486}
{0.31362826}
{0.3637144}
{0.8773376}
{0.6469826}
{-0.117257476}
{-0.38739043}
{-0.46539333}
{0.6622913}
{-0.6290735}
{-0.96022415}
{-0.009981828}
{-0.26309508}
{0.12275037}
{0.41954464}
{-0.16388065}
{0.97676855}
{-0.20905596}
{0.30993408}
{1.0257887}
{-1.0127972}
{-0.9242613}
{-0.7252097}
{0.46587095}
{0.56453174}
{0.5621643}
{0.7500193}
{-0.70881873}
{-0.31600815}
{0.8353378}
{-0.054370455}
{0.1526742}
{0.090695605}
{-0.4833902}
{-0.823931}
{0.2976097}
{0.8507627}
{-0.14519262}
{-0.90703607}
{-0.26484567}
{0.076750696}
{-0.23416324}
{0.113178924}
{0.8257849}
{-0.08083475}
{0.34501457}
{-0.37755328}
{0.28074828}
{-0.7186512}
{-0.37466753}
{0.8173001}
{1.0939132}
{0.124957}
{0.06934539}
{0.016141124}
{1.0099642}
{-0.922637}
{0.11197393}
{-0.4108625}
{-0.2675457}
{0.18974365}
{-0.07106656}
{-0.5376475}
{-0.5820708}
{-0.4952653}
{0.86868465}
{0.34345788}
{-0.89621973}
{0.72353137}
{-0.28253895}
{-0.9225626}
{-0.74993396}
{0.8204782}
{-0.53669435}
{-0.2254098}
{-0.850723}
{0.7265508}
{-0.45521}
{-0.12289338}
{-0.7253102}
{-0.7026355}
{-0.45941654}
{0.04726834}
{0.026565284}
{-1.0783257}
{0.49359867}
{0.842046}
{0.71703}
{0.16447489}
{0.32946554}
{-0.792907}
{-0.8309005}
{0.6578722}
{0.7506701}
{-0.2695163}
{-0.332418}
{0.32968962}
{0.073032014}
{-0.78276587}
{0.31539875}
{-0.41595957}
{-0.11596424}
{0.6897676}
{0.6280035}
{0.08513164}
{0.08028353}
{-0.6756964}
{0.26145822}
{-0.77307236}
{0.43666863}
{0.56121564}
{0.2258547}
{-0.2447299}
{0.7671278}
{0.83187795}
{0.48624897}
{0.4163972}
{-0.71897405}
{0.03308124}
{0.89251053}
{0.27914032}
{-0.0134316}
{0.7760465}
{-0.1486008}
{0.6074576}
{-0.18090728}
{0.59170246}
{-0.7773537}
{-0.73555684}
{0.87413585}
{0.7334244}
{0.52896714}
{0.008821451}
{-0.3541009}
{-0.6147561}
{-0.60638887}
{-0.47213134}
{-0.024274264}
{0.8823197}
{0.8343741}
{-0.74210757}
{1.0321763}
{-0.3693536}
{0.07953092}
{-0.5618603}
{1.006853}
{0.7425902}
{0.68258286}
{-0.31212702}
{0.62797356}
{0.7396021}
{0.94386095}
{0.15914218}
{0.5560032}
{-0.86179376}
{-0.44464546}
{-0.22753921}
{-0.8079035}
{0.62782216}
{-0.55561817}
{0.48762858}
{0.46135762}
{0.8846457}
{-0.38606662}
{-0.4938044}
{-0.544107}
{-0.7129309}
{1.12714}
{0.5922496}
{-0.3866094}
{-0.4219895}
{0.5233016}
{-0.9178682}
{0.54849035}
{0.20359367}
{-0.4344963}
{0.15132181}
{0.5157353}
{-0.27486616}
{-0.5055596}
{-0.20118594}
{0.2875817}
{-0.62496495}
{0.9519926}
{0.043434657}
{0.17881331}
{-0.7180152}
{0.09627932}
{-0.018295238}
{-0.62674946}
{-0.6594465}
{0.8102141}
{0.49936387}
{0.67226285}
{0.071526244}
{0.387206}
{0.010112683}
{0.7314384}
{-0.19164616}
{-0.07841383}
{-1.0327061}
{0.41114798}
{0.4663357}
{-0.75806326}
{-0.20583615}
{0.02694597}
{-0.6819775}
{0.6405024}
{0.53131795}
{0.7616305}
{-0.40342766}
{0.56360334}
{0.39018318}
{-0.40697816}
{0.09583588}
{0.10354751}
{-0.5710112}
{0.16494958}
{-0.03551226}
{0.75221753}
{0.6240126}
{-0.51982737}
{0.881459}
{-0.5110838}
{-0.72165644}
{0.8166174}
{-0.44025785}
{0.6447508}
{-0.20859632}
{0.854523}
{-0.36714298}
{-0.3150247}
{-0.26815358}
{0.23771039}
{-0.080366656}
{-0.3367586}
{-0.51682407}
{-0.8940318}
{0.45346326}
{0.51656145}
{-0.6073222}
{-0.72236365}
{-0.60861754}
{-0.340794}
{-0.5289572}
{0.54905295}
{-0.34778076}
{0.6134883}
{0.8570219}
{-0.017019147}
{0.50609255}
{-0.73451704}
{-0.06608695}
{-0.29298866}
{0.2836594}
{-0.64277923}
{-0.12464913}
{0.13873498}
{0.05367321}
{-0.7760141}
{0.39051756}
{-0.084527805}
{-0.7724879}
{0.3168862}
{1.0390826}
{0.49628732}
{0.41272992}
{-0.31367603}
{-0.82533526}
{0.29410324}
{0.124603935}
{0.58866125}
{-0.15841316}
{0.81595576}
{-0.61557674}
{0.45545954}
{0.14028592}
{-0.764394}
{0.17183918}
{-0.10483605}
{-0.76431}
{0.22788005}
{0.029313274}
{-0.6482978}
{-0.7102304}
{0.2131815}
{0.6739006}
{-0.19580941}
{-0.015672913}
{0.07393479}
{-0.4480508}
{-0.8523474}
{0.9477349}
{0.674526}
{-0.52486706}
{-0.24320659}
{-0.620558}
{0.60976756}
{0.8067808}
{0.4420815}
{-0.5547863}
{-0.75492}
{-0.30234128}
{-0.4447625}
{-0.61683697}
{-0.6698613}
{-0.7910397}
{-0.11227916}
{0.6298498}
{0.43766436}
{0.2796921}
{-0.30885345}
{0.1821785}
{-0.67227983}
{0.9417629}
{-0.7750678}
{-0.08385862}
{-0.18123206}
{0.33222526}
{0.19684961}
{-0.14932454}
{-0.9122386}
{0.16890377}
{0.37385643}
{-0.114340626}
{-0.7097626}
{0.9062674}
{0.48125988}
{0.8284205}
{-0.60865104}
{-0.83198404}
{0.2066114}
{0.15546839}
{0.009098035}
{-0.09467296}
{-0.18279101}
{0.32635254}
{0.39092904}
{-0.61352324}
{-0.05056805}
{0.2405549}
{0.4781839}
{-0.93186426}
{-0.76526344}
{-0.1289406}
{0.74783266}
{-0.13635308}
{-0.83900523}
{-0.5598116}
{0.5492909}
{-0.26328117}
{-0.77000904}
{-0.12564956}
{0.5663606}
{-0.3048008}
{-0.46176544}
{0.8728395}
{0.7392718}
{0.7311001}
{0.90182865}
{0.27681446}
{-0.14808413}
{0.7406144}
{-0.52057886}
{-0.07641782}
{-0.6687678}
{0.20507687}
{0.6479634}
{-0.3980298}
{0.7614926}
{-0.89538}
{0.12200407}
{-0.41348678}
{0.41794693}
{0.9369378}
{-0.2962968}
{0.50578904}
{0.489301}
{0.030733772}
{0.88333744}
{1.0223281}
{0.013538366}
{0.7724991}
{-0.31165794}
{-0.639153}
{1.018669}
{0.25900215}
{-0.6296599}
{-0.7074274}
{-0.46457705}
{-0.52654576}
{-0.46480945}
{0.36223787}
{0.2824576}
{-0.3550151}
{-0.13438518}
{0.6824832}
{0.66081434}
{0.57643604}
{-0.75831413}
{-0.72519374}
{-0.39499813}
{-0.66214013}
{-0.6890919}
{0.07727892}
{0.03718208}
{-0.9422672}
{-0.17047614}
{-0.06378434}
{0.7466502}
{0.14278144}
{0.5532047}
{0.075213924}
{0.43486574}
{0.43327564}
{-0.76368034}
{1.0561688}
{-0.73242235}
{0.9798863}
{0.71947694}
{0.52518576}
{-0.89457047}
{0.9746294}
{-0.48544094}
{0.60515124}
{0.24443224}
{-0.70375395}
{0.69034237}
{0.958169}
{0.24426949}
{-0.58880067}
{0.020375036}
{0.18732293}
{-0.82304}
{0.9304404}
{0.15740561}
{0.18510918}
{0.54645026}
{0.266221}
{-0.81910837}
{-0.12649809}
{0.01347765}
{-0.15433103}
{-0.19635732}
{-0.6374808}
{-0.08151375}
{-0.35302383}
{0.89751107}
{-0.18292838}
{-0.20034622}
{0.53501153}
{-0.4757733}
{-0.20652196}
{0.14197019}
{-0.18292075}
{-0.76285493}
{0.62198377}
{0.1775976}
{-0.6506207}
{-0.4884697}
{0.099954754}
{-0.8495372}
{-0.4439035}
{0.42494023}
{-0.1265535}
{0.6627886}
{-0.3586455}
{-0.2764395}
{-1.0308534}
{0.07196012}
{0.3564977}
{0.16315073}
{-0.09028816}
{0.4544581}
{-0.025758795}
{0.77859783}
{-0.5469842}
{-0.27658147}
{-0.54309964}
{0.4496125}
{0.49674574}
{0.63063025}
{-0.1233974}
{0.17598012}
{-0.34612063}
{-0.84578156}
{-0.5489898}
{0.61397487}
{-0.39294413}
{-0.82366014}
{0.751734}
{-1.0264542}
{-0.289254}
{0.10453843}
{0.7774043}
{0.5054262}
{-0.3751828}
{-0.020728353}
{-0.55561733}
{0.9629435}
{0.2241607}
{-0.49487737}
{0.8565848}
{-0.51808006}
{-0.27645135}
{-0.30186003}
{0.24676555}
{-0.47141472}
{0.9217576}
{-0.32237154}
{0.8594701}
{-0.31664464}
{-0.82558423}
{-0.28772306}
{-0.45869905}
{-0.6138635}
{-0.5075556}
{-0.7057882}
{0.029753633}
{-0.3766856}
{0.14355652}
{0.18739803}
{0.38826722}
{0.10440524}
{0.24830793}
{0.10077975}
{0.9480934}
{-0.7553}
{-0.19565107}
{0.56453437}
{0.715374}
{0.6570508}
{-0.6162577}
{0.560515}
{-0.4986606}
{0.9497963}
{0.9083868}
{0.07073959}
{-0.6118152}
{0.62079746}
{0.64143044}
{-0.9588693}
{-0.7921586}
{0.3355337}
{-0.6689602}
{-0.16497943}
{0.80988145}
{-0.92051697}
{-0.08018043}
{-0.3996688}
{-0.660413}
{0.69825774}
{0.79286283}
{-0.75299203}
{-0.0082097575}
{-0.9364276}
{-0.13573672}
{-0.7068835}
{-0.8430824}
{-0.17798254}
{-0.84014064}
{0.1947871}
{0.16030234}
{-0.2797713}
{0.7681224}
{0.6656543}
{-0.12098508}
{-0.33007103}
{-0.9378388}
{-0.55273205}
{0.3373472}
{0.72772866}
{-0.9253321}
{0.2757207}
{0.8001642}
{0.894912}
{-0.94017476}
{-0.84727}
{0.1361031}
{0.68680423}
{0.007261671}
{-0.045757115}
{-0.72265935}
{0.22822611}
{-0.7109505}
{0.36493436}
{-0.6325593}
{-0.76556623}
{0.5668641}
{0.07759043}
{-0.45229393}
{0.51810735}
{0.5577914}
{0.3806431}
{0.09554477}
{-0.66120327}
{0.36308658}
{0.23144835}
{0.9487188}
{0.9138199}
{-1.0532666}
{-0.7496923}
{0.0091433}
{0.8896219}
{0.808545}
{0.7786137}
{0.635232}
{0.08391344}
{-0.7860733}
{-0.80465627}
{0.7912147}
{-0.5692214}
{-0.42633027}
{0.0603577}
{-0.9550667}
{-0.17267422}
{0.21106642}
{0.6762964}
{0.23021668}
{0.8656785}
{0.5980051}
{-0.5009012}
{0.5159271}
{-0.21629716}
{-0.09787002}
{0.47951815}
{0.5051677}
{-0.91559213}
{-0.63162524}
{0.03026212}
{-0.6557851}
{-0.6993936}
{-0.47966117}
{0.40893286}
{-0.37679106}
{-0.2529191}
{0.27284357}
{0.39051798}
{-0.5314777}
{0.30954316}
{-0.22121021}
{-0.39650396}
{0.9857526}
{0.7440312}
{0.29454243}
{0.36186478}
{0.40640634}
{0.51069206}
{0.33759198}
{-0.52342683}
{0.050620265}
{0.37056953}
{-0.47140095}
{-0.8139063}
{-0.9478717}
{0.9181346}
{-0.19223556}
{0.23126534}
{0.6877105}
{-0.8994553}
{0.8195262}
{0.84488493}
{0.008126922}
{0.05120329}
{-0.681734}
{0.21376966}
{-0.7854085}
{-0.41741258}
{0.4592616}
{-0.11763138}
{-0.9031179}
{0.91102374}
{-0.037749905}
{-0.3429659}
{-0.46480614}
{-0.9475757}
{-0.283151}
{-0.943288}
{0.21415871}
{-0.9709074}
{0.29856327}
{-0.22452164}
{0.94200873}
{0.36349678}
{0.8959047}
{0.6027469}
{0.89997244}
{-0.7295302}
{-0.22763178}
{-0.77763903}
{-0.92814255}
{0.6525325}
{-0.71311885}
{-0.40866438}
{0.21307462}
{0.5001758}
{-0.59246683}
{-0.58510333}
{0.8003013}
{-0.29218853}
{0.76790273}
{0.1895772}
{0.09881587}
{0.918306}
{-0.055300407}
{0.39925122}
{0.8735268}
{0.50668305}
{-0.4453569}
{0.5264947}
{0.10721274}
{0.8637182}
{0.60822487}
{-0.90086573}
{-0.6676686}
{0.5258346}
{-1.0303196}
{0.23827378}
{-0.8547759}
{-0.28353828}
{0.31486}
{-0.18866687}
{0.3786747}
{0.18499108}
{-0.78827786}
{-0.5478563}
{0.98008347}
{0.028934373}
{0.73758215}
{-0.85328853}
{-0.8188579}
{-0.7955777}
{-0.85559475}
{0.6650108}
{0.0777144}
{0.18148234}
{0.8148799}
{0.34240058}
{-0.5869787}
{0.19250076}
{-0.037543483}
{0.24669614}
{-0.3324905}
