-- Efficiency --
95.05929
-- Weights --
{-0.46757108}
{0.86097634}
{0.89494795}
{-0.1583943}
{-0.43521887}
{-0.63310945}
{-0.2921895}
{-0.654626}
{-0.44588}
{-0.38988504}
{0.3295483}
{0.0867298}
{0.33885854}
{-0.9048914}
{0.7900254}
{0.20883858}
{-0.9191773}
{0.5786061}
{0.17835289}
{-0.08097132}
{-0.56913495}
{0.6969592}
{-0.2596712}
{-0.49211833}
{-0.7092025}
{-0.4253423}
{-0.03779844}
{-0.13838045}
{0.27726263}
{0.7688051}
{0.5042521}
{0.17573029}
{0.33430094}
{-0.05142845}
{0.7867018}
{-0.939605}
{-0.35401255}
{0.2248434}
{0.47875327}
{0.952388}
{0.12691158}
{-0.7762565}
{0.63479483}
{0.2700739}
{-0.7031057}
{-0.9037131}
{0.5637629}
{0.41361272}
{-0.804296}
{-0.21577306}
{0.86092585}
{0.34452167}
{0.82170844}
{0.3656119}
{-0.11077556}
{0.75482243}
{0.35969347}
{0.50280076}
{0.72074616}
{-0.012133319}
{0.08692981}
{-0.38934863}
{0.82929784}
{0.11783521}
{0.41006392}
{0.818551}
{0.18488243}
{0.720059}
{0.43634075}
{-1.0373446}
{-0.27655107}
{-0.8380442}
{-0.7452395}
{0.80396855}
{0.07320499}
{0.6103013}
{-0.3207882}
{-0.29237148}
{0.66917944}
{0.7531299}
{-0.45981103}
{-0.089412935}
{0.8100652}
{-0.7644685}
{-0.8766742}
{0.6295773}
{-0.56561595}
{-0.68482673}
{-0.30491048}
{-0.6806409}
{-0.98103094}
{-0.49162892}
{-0.73379064}
{-0.043615986}
{0.8184703}
{0.38641316}
{0.18635386}
{-0.12334153}
{0.28457767}
{0.04772441}
{-0.91469383}
{0.29239446}
{-0.9406476}
{0.50349987}
{-0.82890296}
{0.5436562}
{-0.59460497}
{0.77686274}
{0.04341743}
{0.66650856}
{0.620039}
{0.48535666}
{0.29305214}
{0.25558385}
{0.9165552}
{-0.88206935}
{-0.07654094}
{0.73905945}
{0.19866319}
{0.41332626}
{0.69138217}
{0.28004766}
{-1.0016813}
{-0.5665674}
{-0.80669904}
{-0.023415672}
{-0.20529784}
{-0.63838315}
{-0.2797609}
{-0.4723889}
{0.86225116}
{0.10683053}
{0.55971646}
{0.3272864}
{-0.14592476}
{0.072023205}
{0.9139333}
{0.2754348}
{0.875927}
{0.08111972}
{-0.11925505}
{-0.38688058}
{-0.13037458}
{0.805736}
{-0.93026495}
{0.5648799}
{-0.8113147}
{-0.35372844}
{0.21469682}
{0.03280467}
{-0.6263534}
{0.39862117}
{-0.026864074}
{0.10132218}
{-0.6864168}
{0.8382358}
{0.31940788}
{-0.6294588}
{0.1494037}
{0.015033007}
{0.4331779}
{-0.8559027}
{0.55343693}
{-0.8326646}
{0.07677366}
{-1.0467645}
{-0.0535815}
{-0.83296794}
{0.49946615}
{-0.8895953}
{0.18537629}
{0.47612685}
{-0.16920954}
{0.10886793}
{-0.3227808}
{0.51061356}
{0.47188753}
{0.05595508}
{0.62622714}
{-0.1200825}
{0.69256115}
{0.7453964}
{-0.8652229}
{-0.45533603}
{-0.7101543}
{-0.1420834}
{0.33418313}
{0.8535967}
{0.2564482}
{0.45955396}
{-0.6882513}
{-0.6712827}
{-1.0038981}
{0.35346624}
{0.0077881855}
{-0.2661285}
{0.36564583}
{0.1599577}
{0.19627196}
{0.72766566}
{-0.5006767}
{-0.8883696}
{0.28848168}
{-0.11791125}
{-0.17850763}
{-0.45657915}
{0.5591451}
{0.7686073}
{-0.57143426}
{0.05416962}
{-0.7262132}
{-0.8249984}
{-0.41203696}
{0.14806183}
{-0.50742126}
{-0.7846756}
{-0.79869294}
{-0.16054064}
{0.10688521}
{-0.4764939}
{-0.19666725}
{0.9204956}
{-0.38664216}
{0.3286166}
{-0.45308882}
{0.5299738}
{-0.52789974}
{0.65911055}
{-0.12297319}
{-0.16691469}
{0.36852568}
{0.56254077}
{-0.068996675}
{0.21052231}
{0.8231307}
{0.6122956}
{-1.0076172}
{0.1193928}
{0.34732103}
{-0.04568878}
{0.6927974}
{-0.35433578}
{-0.45860288}
{0.18146482}
{0.894819}
{0.6596907}
{-0.44071305}
{-1.0466875}
{0.00054476457}
{0.5806684}
{-0.46809873}
{-0.7312944}
{0.6589856}
{0.59203637}
{-0.9621698}
{-0.7506176}
{0.52918863}
{0.120847}
{-0.97833604}
{-0.7965798}
{0.43011492}
{-0.77570385}
{0.45127285}
{0.18988776}
{-0.041480325}
{-0.88855755}
{0.217711}
{0.47196826}
{-0.54409313}
{-0.99072266}
{0.6311658}
{-0.79055357}
{-0.026598237}
{-1.0639968}
{0.17134689}
{-0.14416333}
{-0.18093616}
{0.48458305}
{-0.9543292}
{0.4289831}
{0.31724828}
{-0.024820264}
{0.35900086}
{-0.12170642}
{0.08056976}
{-0.01336859}
{0.7343278}
{-0.6708507}
{0.67726135}
{0.25630277}
{-0.9504349}
{-0.263163}
{0.53457046}
{-0.11411309}
{0.26591247}
{0.37087175}
{0.33938593}
{0.44051608}
{0.84550565}
{0.94977427}
{0.038405873}
{-0.86852235}
{-0.5213387}
{0.91066384}
{0.42455596}
{-0.3825318}
{-0.13829711}
{0.91982025}
{-0.06651665}
{0.8646845}
{-0.92332304}
{-0.045078177}
{0.8465278}
{0.0015962021}
{0.5485909}
{0.31753328}
{0.6263852}
{-0.6414796}
{0.31066254}
{-0.4206582}
{-0.5363798}
{0.28847298}
{0.59434086}
{0.24916406}
{-0.2513321}
{-0.700752}
{-0.25361782}
{-0.68203706}
{0.69927335}
{-0.5787665}
{0.36245227}
{-1.0132135}
{-0.9769883}
{0.08240343}
{0.71343154}
{-0.6881652}
{0.31679362}
{0.42756894}
{0.68905413}
{-0.20998192}
{-0.98814416}
{-0.23643795}
{0.29033765}
{0.62630737}
{-0.27826005}
{-0.24918622}
{0.64693195}
{-0.1630759}
{0.66331625}
{0.6925567}
{-0.18884547}
{0.857405}
{0.023598172}
{0.32560158}
{0.8439621}
{-0.03520602}
{0.042767502}
{0.6240134}
{0.16697538}
{-0.78510374}
{0.67925096}
{0.5927713}
{-0.3072899}
{-0.48176786}
{0.23186988}
{-0.8255175}
{-0.539678}
{-0.3752656}
{-0.32816678}
{-0.68244755}
{0.664131}
{-0.42102414}
{-0.29576212}
{0.88764375}
{0.54695976}
{0.74392813}
{0.20205826}
{0.84522194}
{0.52921337}
{0.38554764}
{-0.50725883}
{0.022103697}
{-0.6479549}
{-0.90248597}
{0.92450285}
{-1.0615327}
{-0.55999523}
{0.23700194}
{0.31314915}
{-0.86883384}
{-0.32548022}
{-0.062032096}
{-0.30606395}
{0.6643953}
{0.3403635}
{-0.8073123}
{0.8496816}
{0.37537393}
{-0.33706114}
{0.71730447}
{0.09081127}
{0.44128484}
{-0.2493573}
{0.4188437}
{0.4107892}
{0.10557336}
{-0.11992326}
{0.13711585}
{0.49267972}
{0.5578674}
{-0.674361}
{-0.27645656}
{0.097630754}
{0.6189661}
{0.10727937}
{-0.30873176}
{0.23991007}
{0.17172968}
{-0.63945234}
{0.8030367}
{0.59210896}
{-0.12558448}
{0.4013699}
{0.2307968}
{-0.40541655}
{-0.15686257}
{0.15497443}
{0.2673995}
{-0.15590197}
{0.56867874}
{0.8652162}
{-0.7649024}
{-0.15216213}
{0.07042063}
{0.57044584}
{0.16804866}
{0.74653196}
{0.5819891}
{-0.5506038}
{-0.5299486}
{0.91763353}
{-0.48343015}
{-0.6919435}
{-0.03369519}
{0.7082324}
{0.8386961}
{-0.97875196}
{-0.5169929}
{0.78096247}
{0.33764553}
{0.2336305}
{0.46305534}
{0.25470155}
{-0.09499307}
{0.5995059}
{-0.90198874}
{0.43106478}
{0.44901222}
{0.780507}
{0.83737475}
{0.25409406}
{-0.61948895}
{0.030669404}
{0.38680634}
{-0.24815041}
{-0.23174803}
{-0.13846396}
{0.55242324}
{0.44117135}
{-1.0300399}
{-0.9631247}
{-0.1714685}
{0.59997797}
{-0.77252454}
{-0.78978956}
{-0.706699}
{-0.32773215}
{-0.49489197}
{-0.3157686}
{-0.394343}
{-0.48618823}
{-0.32202345}
{-0.5995998}
{-0.5768242}
{0.30415314}
{0.7454598}
{-0.7386111}
{-0.14164698}
{-0.65601754}
{0.11354465}
{-0.32731593}
{0.22501299}
{0.725265}
{0.3054503}
{0.45445415}
{-0.09398512}
{0.21227211}
{-0.33521062}
{-0.6046426}
{-0.2656907}
{0.34502405}
{0.20347957}
{-0.7042217}
{0.0071104476}
{-0.08810328}
{-0.7088483}
{-0.27926108}
{-1.0148962}
{0.37860435}
{-0.19821405}
{0.4050883}
{-0.3862498}
{0.24196094}
{-0.326196}
{0.70015186}
{-0.6447083}
{-0.41940027}
{-1.0140313}
{0.124777}
{0.17216006}
{0.9657676}
{0.777585}
{0.8734463}
{0.7140083}
{0.6927488}
{-0.029956618}
{-0.7467774}
{0.06527863}
{-1.0034678}
{0.7458755}
{0.46136755}
{-0.6648586}
{0.26775092}
{0.9133266}
{0.059120607}
{-0.9478933}
{0.19624132}
{-0.5100343}
{0.09957094}
{-0.041759554}
{0.72334623}
{0.28789133}
{-0.37927598}
{0.12089246}
{-1.0141056}
{0.01470673}
{-1.0035971}
{0.007011474}
{0.44079298}
{-0.7504463}
{-0.55868685}
{-0.45432654}
{-0.9621551}
{-0.5833068}
{0.6189015}
{0.25386804}
{0.60836697}
{-0.51120245}
{-0.9990635}
{0.30956346}
{-0.5326402}
{0.70499915}
{0.5334192}
{0.29168472}
{-0.032071613}
{-0.6077011}
{-0.048560888}
{-0.06743786}
{0.37676662}
{0.23897144}
{-0.6828025}
{0.5996631}
{-0.86127996}
{-0.39655098}
{0.28589967}
{0.43518224}
{-0.01821663}
{-0.659679}
{0.031875875}
{-0.59068495}
{-0.2213102}
{-0.08570509}
{0.81733143}
{0.45485505}
{0.7491267}
{0.7172453}
{0.26297158}
{-0.45703152}
{-0.8631027}
{-0.28586218}
{0.12066881}
{0.7605842}
{0.2741}
{-0.098603636}
{0.27986437}
{-0.21564692}
{-0.421032}
{-0.57461214}
{-0.05453388}
{0.4004977}
{-0.20291167}
{-0.5232977}
{0.12865607}
{-0.15787707}
{0.7984369}
{-0.38272455}
{-0.6571691}
{-1.0179839}
{0.30115646}
{-0.24594255}
{-0.6426211}
{0.5981521}
{0.058933504}
{0.9159107}
{-0.38309997}
{0.7881063}
{0.506376}
{0.5328432}
{0.5587388}
{-0.042543937}
{-0.09952591}
{-0.75461215}
{-0.26209182}
{0.543138}
{-0.46918184}
{-0.4718902}
{0.45414758}
{0.91589755}
{0.3507294}
{0.31728014}
{0.62846315}
{-0.8907699}
{-0.2976225}
{-1.0300099}
{0.1823745}
{-0.07892549}
{0.4213645}
{-0.21161525}
{0.3622783}
{0.8200728}
{0.25719184}
{-0.22328505}
{0.22406055}
{0.1409404}
{0.9474201}
{0.059652954}
{-1.021279}
{0.4683731}
{-0.704231}
{0.18680309}
{0.8826032}
{0.70525295}
{0.33285254}
{0.5737104}
{-0.29757458}
{-1.0283766}
{0.24383587}
{0.9470705}
{-0.6884021}
{-0.6227955}
{0.031633355}
{-0.9665246}
{0.70634955}
{-0.61428535}
{-0.79782987}
{0.1589619}
{0.6304892}
{-0.21886846}
{-0.61947775}
{0.6325038}
{-0.42741627}
{0.3627605}
{0.8164387}
{-0.93941754}
{0.61434585}
{-0.9466784}
{0.96189904}
{-0.26417443}
{-0.3193663}
{-0.49212325}
{0.8000376}
{0.66519284}
{-0.41790694}
{-0.5241989}
{-0.46634132}
{0.7061111}
{-0.59125346}
{0.73646665}
{-0.78056717}
{0.7308865}
{0.35421753}
{-0.20375548}
{0.37433976}
{-1.0125592}
{0.16585262}
{-0.36768648}
{0.7665491}
{-0.058284104}
{-0.26238993}
{-0.7179851}
{0.7123177}
{0.8685664}
{-0.8615307}
{-0.8252844}
{0.97902346}
{-0.76979333}
{-0.8990586}
{0.6884188}
{-0.15144044}
{-0.27399155}
{0.10000633}
{0.7824741}
{-0.34507757}
{0.556084}
{-0.0043249736}
{0.6484889}
{-0.023622058}
{0.28434092}
{0.9263614}
{0.33048856}
{0.96231556}
{0.57950485}
{0.23657592}
{0.6969723}
{0.86880946}
{0.40283284}
{0.7609225}
{-0.38648254}
{-0.59248257}
{0.42804006}
{-0.5722009}
{0.126591}
{0.40928167}
{-0.2634947}
{-0.4292117}
{-0.1119086}
{0.35038537}
{-1.0407592}
{-0.51198465}
{-0.101735026}
{0.082151905}
{-0.46212876}
{0.3335288}
{-0.5249231}
{-0.7791643}
{-0.066660315}
{0.078028485}
{0.21600036}
{0.60939384}
{0.15696353}
{0.90519536}
{0.85013384}
{0.57843614}
{0.22274251}
{-0.32435986}
{-0.87123877}
{-0.34898502}
{-0.8592676}
{-0.9440236}
{-0.2586186}
{-0.06442263}
{0.3617299}
{0.619965}
{-0.57230705}
{-0.35171396}
{-0.50079006}
{-0.696674}
{-0.27850357}
{0.45606774}
{0.15413362}
{0.11859622}
{0.81236017}
{-0.37737018}
{0.8652315}
{-0.7038675}
{-0.9496623}
{-0.2189365}
{0.060288753}
{-0.85956186}
{-0.2773367}
{-0.9316561}
{0.6965518}
{-0.56709105}
{-0.59981066}
{-0.15844446}
{-0.7211366}
{-0.27419177}
{0.893364}
{-0.42173606}
{-0.35509244}
{-0.7701282}
{-0.8061961}
{0.62925863}
{0.18676803}
{-0.31373814}
{0.15154974}
{-0.108628735}
{-0.050668865}
{0.9681825}
{0.7855959}
{-0.36049682}
{-0.58354264}
{0.14857416}
{0.9773722}
{0.3616175}
{0.60754097}
{-0.8135325}
{-0.15347299}
{0.3442418}
{-0.8046247}
{0.32617974}
{-0.6025824}
{0.93459725}
{0.7438349}
{0.22585854}
{-0.32822007}
{-0.5738659}
{-0.64194316}
{-0.5411848}
{0.52636945}
{-0.18157655}
{0.7737258}
{-0.73718053}
{-0.20046058}
{0.573015}
{-0.9763967}
{0.6767061}
{-0.6726267}
{0.65981436}
{-0.051202573}
{-0.31716734}
{-0.4124557}
{-0.14650828}
{-0.102678545}
{0.021942101}
{-0.7100716}
{-0.17353326}
{-0.18810222}
{0.17090078}
{0.8786385}
{-0.17694145}
{0.30193675}
{0.43344396}
{-0.6650664}
{0.098298565}
{-0.7915828}
{-0.5567432}
{-0.3937494}
{0.23499817}
{0.03509282}
{0.89017755}
{0.40921372}
{-0.6709032}
{0.1689678}
{0.46774963}
{-0.9007607}
{0.35656017}
{0.21363509}
{0.5253866}
{0.16978891}
{-0.68474793}
{0.7485702}
{0.026927587}
{-0.32195392}
{0.9454527}
{0.74660456}
{-0.26544806}
{0.31654552}
{0.31582183}
{0.36880758}
{-0.22383896}
{0.35435143}
{0.48528504}
{-0.004510428}
{0.88694143}
{0.29675838}
{0.8259058}
{0.53000927}
{-0.7867593}
{0.8067859}
{0.8719175}
{-0.73232603}
{-0.8965548}
{-0.7528293}
{-0.5683477}
{-0.55563486}
{0.14724268}
{0.84582055}
{-0.5442467}
{0.8239178}
{-0.2694682}
{-0.4555994}
{0.9745972}
{0.72808367}
{-1.0602651}
{0.15680954}
{-1.0030336}
{0.3121288}
{-0.39170074}
{0.7993244}
{-0.2790187}
{-0.06469148}
{0.3719027}
{-1.0167173}
{0.9777334}
{0.3509885}
{0.31323987}
{0.039341852}
{0.4860864}
{0.30951455}
{-0.5519407}
{-0.71212685}
{0.9697957}
{0.6791108}
{0.92185855}
{-0.959463}
{-0.58298016}
{-0.13959485}
{-0.8868789}
{-0.9212302}
{0.962626}
{0.9127231}
{-0.009999845}
{-0.54422635}
{-0.18429047}
{-0.8290513}
{-0.13554695}
{-0.8014166}
{-0.79028225}
{-0.84252}
{0.1695474}
{0.6036192}
{-0.7244253}
{-0.1322706}
{0.71109927}
{0.6087609}
{-0.24693614}
{0.34003037}
{-0.37572315}
{0.55263066}
{-0.6369519}
{-0.19772393}
{-0.5593588}
{-0.006393453}
{-0.87830114}
{-0.34513822}
{-0.53301686}
{-0.8423944}
{-0.9955325}
{0.74292284}
{0.41892362}
{0.20007032}
{0.46302813}
{-0.48650137}
{0.0066116177}
{0.25031158}
{-0.90214825}
{-0.25775653}
{-0.2519388}
{0.0865295}
{-0.74226356}
{0.84844923}
{-0.32634872}
{-0.6317258}
{-0.5486562}
{-0.5711239}
{-0.12130497}
{-0.6089496}
{-0.44170243}
{0.666111}
{0.5664122}
{-0.21356736}
{-0.39436275}
{-0.42633086}
{0.3988496}
{0.40947774}
{0.078868404}
{-0.10901902}
{0.8456775}
{0.31123936}
{0.54931545}
{-0.10097992}
{-0.6341046}
{-0.07162771}
{0.03465698}
{0.7284138}
{-0.63231075}
{0.72854346}
{-0.4908386}
{-0.32265586}
{0.18365371}
{-0.42482543}
{-0.6683929}
{-0.5127874}
{-0.21065891}
{0.6924489}
{0.05928231}
{-0.45469558}
{-0.15905285}
{-0.21739887}
{0.44896525}
{-0.43829396}
{0.353579}
{0.76636356}
{0.49824592}
{0.29921582}
{0.45327032}
{0.3399918}
{-0.14352971}
{0.59859776}
{-0.8998896}
{0.73946226}
{-0.690778}
{-0.34983054}
{-0.16990577}
{-0.31250077}
{0.43140835}
{-0.02423919}
{-0.25595024}
{-0.8599159}
{0.5188234}
{0.40065068}
{0.408118}
{-0.66913176}
{-0.7091658}
{0.19204347}
{-0.9737776}
{0.058048494}
{-0.21295983}
{-0.0230824}
{0.083316535}
{0.02783478}
{-0.8897159}
{0.91452396}
{0.16861303}
{0.4174351}
{-0.14570409}
{0.76445377}
{0.8723453}
{-0.02297416}
{-0.77765536}
{0.64121187}
{-0.19670548}
{0.21847592}
{0.63288164}
{-0.7336088}
{0.923409}
{0.7399409}
{-0.022845767}
{-0.43346968}
{-0.37898326}
{-0.116238154}
{0.073835865}
{0.22536084}
{0.27037218}
{0.8970491}
{0.6047571}
{-0.5971277}
{-0.95392317}
{-0.26055777}
{-0.40814143}
{0.5626324}
{-0.1286787}
{-0.2670495}
{-0.48331434}
{-0.07709582}
{0.21100521}
{-0.15623328}
{-0.2837847}
{-0.8910902}
{-0.073706895}
{-0.79482883}
{0.43013805}
{0.4127158}
{-0.21461657}
{-0.7654769}
{-0.85636234}
{0.06122704}
{-0.41293478}
{-0.5461203}
{-0.75471973}
{-0.19089827}
{0.78805417}
{-0.074807264}
{-0.5956631}
{0.95940316}
{-0.7280424}
{0.671673}
{-0.37615734}
{0.56696576}
{-0.17769966}
{-0.40673435}
{0.36931795}
{0.15596926}
{-0.33842418}
{-0.16508275}
{0.79155517}
{-0.87364876}
{0.652951}
{0.10862024}
{-0.72251534}
{0.3116803}
{0.21799786}
{-0.30722466}
{-0.039779685}
{-0.16047396}
{0.5211106}
{0.08766137}
{-0.23488218}
{-0.018101802}
{0.3701438}
{-0.20040172}
{-0.7869556}
{0.20174074}
{-0.9604106}
{0.8249648}
{-0.22805935}
{0.8664767}
{0.89220434}
{0.38797703}
{-0.4967926}
{0.6370192}
{0.8799055}
{-0.63523877}
{-0.39382035}
{-0.76346254}
{-0.54278773}
{0.7423346}
{-0.81216645}
{-0.67273176}
{-0.607097}
{-0.8055397}
{0.3876893}
{0.58979565}
{-0.6409582}
{0.7929781}
{0.8664682}
{-0.8061017}
{0.19810067}
{0.5552274}
{-1.0197992}
{0.4872721}
{0.7759309}
{0.21970117}
{0.4089734}
{-0.22039479}
{-1.0089934}
{-0.018307542}
{0.69724774}
{0.19310844}
{0.26194116}
{-0.18370941}
{0.56474113}
{0.90445596}
{0.56475896}
{-0.3544309}
{-0.6379683}
{-0.97730386}
{0.63019264}
{0.6483158}
{-0.15296227}
{-0.46717095}
{-1.0488203}
{-0.212273}
{-0.4218858}
{0.84273696}
{0.6776457}
{0.37988657}
{-0.73799753}
{0.43463457}
{0.34448698}
{0.42781547}
{-0.3799935}
{0.04523864}
{-0.67792237}
{-0.5359259}
{0.84272456}
{-0.93066156}
{0.7296325}
{0.05004438}
{0.61044526}
{-0.20680663}
{-0.3575772}
{-0.24711095}
{0.23148578}
{0.5314646}
{-0.60653466}
{-0.74531657}
{0.84036946}
{-0.47593033}
{-0.7414652}
{0.21487337}
{0.29025787}
{1.0100105}
{0.7053844}
{-0.8318133}
{0.50451803}
{0.5985345}
{-0.32881707}
{-0.3397485}
{-0.30115253}
{-0.2160044}
{-0.68688685}
{0.08390631}
{0.7354443}
{-0.2753469}
{-0.52596813}
{-0.41740903}
{0.7587111}
{0.2708038}
{-0.6589736}
{-0.29653627}
{-0.8061869}
{0.45627955}
{-0.35106632}
{-0.17037718}
{-0.22145301}
{-0.43188065}
{-0.96194965}
{-0.09056601}
{0.9400768}
{0.2694233}
{0.08096603}
{0.8205435}
{0.27373976}
{0.15303}
{0.4075869}
{-0.33997867}
{-0.31183296}
{0.13237646}
{-0.9733701}
{-0.4827431}
{0.46270984}
{-0.69741946}
{0.8619292}
{0.26723623}
{0.7329333}
{0.43648005}
{0.37994784}
{0.64588684}
{0.73456025}
{-0.07667139}
{0.4780609}
{0.56989115}
{0.80028605}
{0.22384186}
{0.6872241}
{-0.4376348}
{-0.5159896}
{0.31467685}
{-0.010880034}
{0.3419079}
{-0.04735758}
{-0.69302905}
{-0.7709983}
{-0.6582837}
{-0.3304041}
{0.030599864}
{0.46765384}
{0.9367538}
{0.5064521}
{0.5662429}
{-0.14645223}
{0.7901245}
{-0.18543965}
{0.2779965}
{0.595111}
{-0.82646066}
{0.9129288}
{-0.27269524}
{0.7452521}
{0.41874596}
{0.05648327}
{-0.9476042}
{-0.062090214}
{-0.5718511}
{-0.81607294}
{0.23642156}
{-0.16919972}
{0.0702829}
{-0.8549733}
{-0.8125445}
{0.8341536}
{0.64939433}
{0.36843914}
{0.494721}
{-0.21250233}
{0.75684804}
{0.65079284}
{0.71565706}
{0.44911784}
{-0.24602598}
{-0.28776222}
{0.07145285}
{-0.018831145}
{-0.229075}
{0.89629483}
{-0.7179718}
{0.8104535}
{-0.35974172}
{0.36317867}
{0.2550637}
{-0.005683104}
{0.91240156}
{0.7874527}
{0.46996033}
{0.66933763}
{0.07734544}
{0.77327013}
{-0.06497241}
{0.396192}
{-0.33733386}
{0.6863115}
{0.6641835}
{0.84893954}
{-0.17496692}
{0.103228346}
{0.57892865}
{-0.31898287}
{-0.5699921}
{0.39158744}
{-0.68165874}
{-0.87461936}
{-0.8711588}
{-0.72598886}
{0.2698393}
{0.81181526}
{-0.0823313}
{0.0739813}
{0.5065015}
{-0.04643605}
{0.11266222}
{0.5267768}
{0.8411646}
{0.6061284}
{0.6191233}
{0.5575161}
{0.58392143}
{-0.529217}
{0.44206992}
{-0.75693893}
{-0.6054699}
{-0.20247608}
{-0.36297783}
{-0.9133005}
{-0.10696634}
{0.69815433}
{0.56744313}
{0.10811282}
{-0.7874539}
{0.5295528}
{-0.36170048}
{-0.52186537}
{0.08244762}
{0.019827727}
{-0.2761468}
{0.52724886}
{0.8857003}
{-0.4822544}
{-0.5309766}
{-0.10384081}
{0.625435}
{0.1808974}
{-0.42540675}
{0.14316767}
{0.28137416}
{0.5200701}
{0.54900074}
{0.79828286}
{-0.79415977}
{0.6920118}
{-0.6567816}
{-0.21259505}
{0.44084156}
{0.7217834}
{0.43801782}
{-0.97975683}
{-0.26031306}
{0.19858836}
{-0.6055361}
{-0.39522415}
{-0.9638328}
{-0.71671265}
{-0.33093262}
{-0.26320344}
{-0.33407322}
{0.64294875}
{-0.14567527}
{0.6284516}
{-0.17074113}
{-0.17798387}
{-1.029692}
{0.88920045}
{-0.8888007}
{0.45050982}
{-0.18437488}
{0.85155296}
{-0.7959496}
{0.9119658}
{-0.17961787}
{-0.15013319}
{-0.62183875}
{-0.13651736}
{0.92514676}
{0.024529435}
{0.6457992}
{-0.06241407}
{0.9484557}
{-0.044103406}
{-0.27376997}
{-1.0318177}
{-0.44425973}
{-0.8769796}
{-0.88322216}
{0.714065}
{-0.12033729}
{-0.10693811}
{0.5361886}
{0.4418952}
{0.21681511}
{0.5886445}
{0.8206545}
{-0.2346399}
{0.3019153}
{-0.19427449}
{-0.04972314}
{0.9691634}
{-0.65465087}
{0.8810923}
{0.8644723}
{0.7182892}
{-0.72002}
{0.88484335}
{0.9513867}
{-0.18556836}
{0.51309365}
{0.45708364}
{-0.21032503}
{-0.91677374}
{0.17921345}
{0.37070817}
{0.2588525}
{-0.86891437}
{0.6129204}
{-0.52958274}
{0.772838}
{0.31180766}
{0.33033314}
{-0.2682553}
{0.80545187}
{-0.2042225}
{-0.87973785}
{-0.5250728}
{0.5541174}
{-0.030279063}
{0.84378284}
{-0.88020754}
{0.41507193}
{-0.17508961}
{0.098501384}
{0.15865272}
{0.34873956}
{0.46479148}
{0.80629396}
{-0.9005554}
{-0.66526616}
{-0.8607102}
{0.8739704}
{0.2539658}
{0.3267591}
{0.8253022}
{0.25655943}
{-0.8803048}
{-0.40792644}
{0.9307704}
{0.15255529}
{0.8869071}
{0.6455906}
{-0.5921011}
{-0.46455872}
{0.44677752}
{-0.4286896}
{-0.6832665}
{0.5892845}
{0.90602374}
{-0.36234203}
{-0.39625928}
{0.24068995}
{0.71994925}
{0.58647054}
{-0.6784045}
{-0.22584498}
{0.72367525}
{0.92343384}
{0.95053285}
{-0.9342749}
{-0.08306025}
{-0.16378315}
{0.38193148}
{-0.3672906}
{0.048698414}
{0.5404082}
{0.35197082}
{0.6654113}
{0.11270832}
{0.23087296}
{0.6792417}
{0.8317358}
{-0.20869952}
{-0.82390106}
{0.7765838}
{-0.13828866}
{0.07973267}
{-0.5664426}
{0.35753772}
{-0.23990345}
{0.6866298}
{0.22850393}
{-0.88384056}
{0.24769297}
{0.16876835}
{-0.2303473}
{-0.6929397}
{0.11968563}
{0.57830787}
{0.7636742}
{0.9286937}
{0.62899166}
{-0.5118946}
{0.35355783}
{-0.33010828}
{0.19744389}
{-0.6971333}
{0.00841878}
{0.44290665}
{-0.8189242}
{-0.39224488}
{-0.95482296}
{-0.30149162}
{0.010919584}
{-0.09808801}
{-0.22884543}
{-0.60434043}
{0.450352}
{-0.86391854}
{-0.3485919}
{0.35667568}
{-0.3240865}
{-0.44764596}
{0.3472305}
{-0.57800037}
{0.2735605}
{-0.7248814}
{-0.30931222}
{-0.09877642}
{-0.12013277}
{-0.15615445}
{0.71712846}
{0.16204701}
{-0.15491197}
{0.20492405}
{0.75387853}
{-0.6661101}
{0.7514548}
{0.8758807}
{0.000039238825}
{-0.69123864}
{-0.45227534}
{-0.58530426}
{0.3155923}
{0.5880623}
{-0.40080956}
{-0.99048114}
{-0.26387537}
{-0.30060428}
{0.40440413}
{-0.829299}
{-0.618616}
{0.4884412}
{0.48964298}
{0.06565286}
{0.027601583}
{0.56605697}
{-0.7401905}
{0.19575042}
{1.0666893}
{-0.71894264}
{-0.7388826}
{-0.27151543}
{0.98341}
{-0.41172528}
{0.44568026}
{-0.19941121}
{-0.4761505}
{0.28927004}
{-0.34348586}
{-0.7489631}
{-0.23849283}
{0.5009286}
{-0.57675254}
{0.16681355}
{0.2514172}
{0.22238787}
{-0.43882555}
{-0.32095677}
{-0.5072862}
{-0.7948394}
{0.55212957}
{-0.0027346828}
{0.53655857}
{-0.3271967}
{0.13557096}
{-0.23541814}
{-0.38758424}
{0.5119343}
{0.5014972}
{0.9089432}
{-0.4660816}
{-0.572043}
{0.1498482}
{0.7482562}
{0.037515994}
{0.20467734}
{0.16662897}
{-0.847806}
{-0.86608446}
{-0.74221945}
{0.8950203}
{-0.3409136}
{-0.3106289}
{0.6388539}
{-0.2699085}
{0.754076}
{0.43500152}
{-0.14219297}
{0.19389218}
{-0.5926225}
{0.29978502}
{0.73702776}
{-0.9527303}
{-0.2425018}
{0.9887647}
{-0.50944877}
{0.43264192}
{0.5293238}
{-0.86859596}
{-0.23054525}
{-0.1382156}
{-0.39826185}
{0.6439786}
{-0.46086022}
{0.5157792}
{-0.54259396}
{0.23195474}
{-0.4456538}
{0.37686616}
{0.29033154}
{0.19056572}
{-0.21866593}
{-0.9969073}
{0.44305176}
{-0.7524584}
{-0.14697303}
{-0.80164665}
{-0.40167576}
{-0.72027045}
{0.9454588}
{0.38178763}
{0.8116834}
{0.74214643}
{0.66512215}
{-0.012973644}
{-0.47423822}
{0.29297698}
{-0.4314959}
{0.043726176}
{-0.6704812}
{0.064651854}
{-0.41838494}
{0.36235818}
{-0.95214033}
{0.4005379}
{0.7113085}
{0.26682696}
{-0.8395233}
{-0.8548262}
{-0.8419527}
{-0.36204484}
{-0.47718102}
{0.53897685}
{-0.23296593}
{0.08112352}
{-0.81647515}
{-0.6847368}
{-0.6523212}
{-0.82864076}
{0.80441856}
{-0.66828966}
{0.9237088}
{0.4653101}
{0.6696806}
{0.008205299}
{-0.16796571}
{-0.07091081}
{-0.017008802}
{0.6524808}
{0.5063881}
{-0.6034456}
{0.07757713}
{0.94377685}
{-0.4183511}
{-0.0037878703}
{-0.5330322}
{0.19038701}
{-0.82817966}
{0.43167713}
{0.6475425}
{-0.77808553}
{-0.010285265}
{-0.97577876}
{-1.01562}
{-0.5097417}
{0.44410467}
{0.22045861}
{-0.33886963}
{-0.45670247}
{0.041026484}
{-0.41777402}
{0.34508222}
{1.1115881}
{0.6144003}
{-0.8883945}
{-0.6430211}
{0.8680816}
{0.2611235}
{-0.38107115}
{-0.25424582}
{1.1125032}
{0.22149605}
{-0.8325036}
{0.94039345}
{0.1239087}
{-0.6502001}
{-0.7667118}
{-0.41759163}
{-0.8336628}
{0.57470787}
{0.19986656}
{-0.34856755}
{-0.72655433}
{-0.47475386}
{0.4963221}
{-0.97717476}
{1.0004227}
{0.9413472}
{0.49091554}
{-0.30472857}
{-0.5518939}
{-0.87507683}
{-0.29625416}
{-0.51662785}
{0.29810712}
{-0.7166974}
{-0.6480391}
{-0.20325285}
{-0.5180158}
{-0.028241308}
{0.5207092}
{-0.67446613}
{0.8984313}
{-0.7358159}
{0.87491876}
{-0.700063}
{-0.89561546}
{0.286916}
{-0.8650999}
{-0.5574434}
{-0.74677354}
{0.86813885}
{0.73341465}
{-0.41817838}
{0.12422534}
{-0.5703477}
{0.6205196}
{0.45653266}
{0.37525278}
{-0.16990243}
{-0.24959953}
{-0.49692398}
{-0.6724883}
{-0.018364226}
{0.27291515}
{0.29025763}
{-0.84172183}
{0.8448878}
{-0.25613207}
{0.6954613}
{0.36501098}
{0.70969206}
{-0.540212}
{-0.30143481}
{0.66882914}
{-0.9353489}
{0.4430374}
{0.22105187}
{-0.7989907}
{-0.6141893}
{-0.6129885}
{-0.3677879}
{0.09906483}
{-0.28739786}
{-0.5528177}
{-0.45469362}
{0.74331367}
{0.7710634}
{0.4857988}
{-0.018787643}
{-0.085721366}
{0.028768666}
{0.45397237}
{0.83393764}
{-0.68373936}
{-0.74907035}
{0.954938}
{0.6692748}
{-0.11080216}
{-0.85664546}
{-0.9546163}
{-0.045321725}
{0.20015717}
{0.6674257}
{0.176734}
{0.44586366}
{-0.35428846}
{0.9798986}
{-0.2635611}
{-0.8080318}
{-0.105855376}
{0.08809625}
{0.8838839}
{-0.9473641}
{0.0126641095}
{0.13130377}
{0.1432358}
{0.05514574}
{0.50751436}
{0.97237355}
{0.3861625}
{0.37651366}
{-0.7094715}
{-0.29726577}
{-0.5555378}
{-0.35370642}
{-0.35468987}
{-0.5332845}
{-0.33946437}
{-0.7259834}
{-0.32867888}
{0.5925398}
{-0.83347243}
{-0.20704919}
{-0.50347}
{-0.31479222}
{-0.33893424}
{0.23902482}
{0.031330306}
{-0.39166683}
{0.34510645}
{-0.65417814}
{0.9729236}
{0.753312}
{-0.98128504}
{-0.48300654}
{0.45075288}
{-0.21997984}
{-0.56870407}
{0.9148166}
{-0.10403188}
{-0.21216932}
{0.5751272}
{0.926852}
{-0.13896793}
{-0.5057588}
{0.66844213}
{0.74276495}
{0.67868733}
{-0.59371907}
{-0.9827442}
{-0.8893218}
{0.6895036}
{-0.9645431}
{-1.0562215}
{-0.9222536}
{-0.2330534}
{0.66363025}
{-1.0442586}
{-0.021368762}
{0.3923523}
{-0.7787074}
{-0.17686419}
{0.2710778}
{0.86819094}
{-0.6088442}
{-0.2089964}
{0.6025605}
{-0.42146707}
{0.18404138}
{-0.99685496}
{0.7434306}
{0.77642953}
{-0.40059406}
{-0.7927453}
{0.89829373}
{-0.6886477}
{0.39564738}
{-0.4195442}
{0.20467418}
{0.8379431}
{-0.9908933}
{0.0060053524}
{-0.649606}
{-0.052690808}
{-0.325023}
{-0.35227278}
{0.6337731}
{0.8884504}
{-0.62954336}
{-0.052219525}
{-0.7031729}
{0.5099112}
{0.0229296}
{-0.6076819}
{-0.4990323}
{-0.96637076}
{-0.40529004}
{-0.9512855}
{-0.63710904}
{-0.57573324}
{-0.3056203}
{-0.35995513}
{-0.7224486}
{0.88408166}
{0.9872904}
{0.61272204}
{0.40872616}
{0.66291815}
{0.023562979}
{-0.4228275}
{-0.69873476}
{-0.7110316}
{-0.36632386}
{0.05960386}
{-0.5201597}
{-0.7840522}
{0.91918916}
{-0.8224073}
{-0.35106212}
{0.71979326}
{-0.67105085}
{0.46695155}
{0.8813033}
{-0.067443445}
{-0.33023715}
{0.053974696}
{0.64453197}
{-0.7415751}
{0.27969882}
{0.46694896}
{0.9180734}
{0.80308235}
{-0.55435276}
{-1.0304598}
{0.6774471}
{-0.35968855}
{0.95099145}
{0.27474308}
{-0.97621346}
{1.1639619}
{0.33876896}
{-0.68410057}
{0.5125251}
{0.8869795}
{-0.73117614}
{-0.5026474}
{-0.11275099}
{-0.13823259}
{-0.46972054}
{-0.8284508}
{-0.317967}
{0.05258723}
{0.067837685}
{0.82934684}
{0.66300225}
{-0.4759785}
{-0.1912292}
{-1.0462973}
{0.8390789}
{-0.6976667}
{0.8726722}
{-0.5329051}
{0.2602653}
{0.6261189}
{-0.38600153}
{0.54955566}
{-0.62628365}
{-0.8161383}
{0.36093664}
{-0.9673277}
{-0.39287645}
{0.16809613}
{0.47131824}
{-0.9130315}
{-0.7570865}
{1.0142989}
{0.82845086}
{0.66723967}
{-0.67849255}
{0.20873135}
{-0.73419195}
{0.7551826}
{0.7900796}
{-0.36427206}
{0.0070210197}
{0.5617285}
{0.31164712}
{-0.6684427}
{0.79768986}
{0.11152097}
{0.771466}
{0.3959794}
{0.23662569}
{0.53899264}
{-0.77456236}
{0.40023848}
{-0.21109366}
{0.32961166}
{-0.45673925}
{-0.43456405}
{0.23005417}
{-0.09347273}
{0.17439455}
{0.4971098}
{0.26718283}
{0.10875159}
{-0.23084384}
{-0.72293067}
{0.4714934}
{0.39315048}
{0.2595443}
{0.5643923}
{-0.108087115}
{0.4106939}
{0.8808422}
{-0.16847241}
{-0.9312427}
{-0.8969461}
{0.16022938}
{-0.92277443}
{-0.5369863}
{0.7590302}
{-0.40858632}
{0.83405924}
{0.2599018}
{-0.5418234}
{0.5594733}
{-1.0013664}
{0.731801}
{0.0539451}
{-0.9649968}
{0.24803667}
{-0.7183244}
{-0.9418427}
{-0.8047116}
{1.0204214}
{-0.24071014}
{0.9503877}
{-0.3447619}
{-0.7204674}
{0.029176168}
{-0.38416657}
{-0.8869908}
{0.38039917}
{0.34030014}
{0.24352837}
{-0.825464}
{0.05229469}
{-0.78797966}
{0.011173373}
{-0.28595358}
{0.026527185}
{0.811724}
{0.55041873}
{0.061269056}
{0.9775371}
{-0.36674106}
{-0.52274597}
{-0.4307173}
{0.4105243}
{0.112128094}
{0.54463124}
{-0.25083524}
{0.121583566}
{-0.57643545}
{-0.024511946}
{0.60812664}
{-0.37614104}
{-0.3032719}
{0.3540085}
{-0.15801674}
{-0.50786376}
{0.6082488}
{-0.2296639}
{-0.03730204}
{0.42886743}
{-0.09579139}
{-0.67476445}
{-0.029033445}
{0.57543033}
{0.8693101}
{-0.8611536}
{-0.24594957}
{1.1206486}
{-0.57779247}
{-0.34505704}
{-0.28742534}
{0.28967002}
{0.31994587}
{-0.2508771}
{0.48706058}
{-0.11540675}
{0.662351}
{0.7028903}
{-0.46936566}
{0.9038358}
{0.37587085}
{0.27336344}
{-0.07634187}
{-0.8208973}
{0.39447445}
{-0.41548583}
{0.55877423}
{-0.27221242}
{-0.03106707}
{-0.27839878}
{0.6422765}
{0.76267797}
{0.3900509}
{0.13938168}
{-0.9553623}
{0.6057014}
{-0.9346535}
{-0.066671096}
{-0.3692649}
{-0.18273565}
{-0.26287863}
{0.2157075}
{-0.39865047}
{0.54186404}
{-0.9335481}
{0.16244528}
{0.44998997}
{-0.07946078}
{-0.01799739}
{0.77789193}
{0.89353585}
{0.45788434}
{0.3359719}
{-0.77725726}
{-0.4029737}
{-0.93195665}
{0.57788545}
{0.14508165}
{0.3079881}
{0.7252795}
{0.5661378}
{-0.89440256}
{-0.6913214}
{-1.0267512}
{-0.6464722}
{-0.20618553}
{0.051802866}
{0.5315327}
{0.41137207}
{0.66208225}
{-0.8261738}
{-0.22494471}
{0.55965215}
{0.46827957}
{0.61457086}
{0.40571955}
{0.73060787}
{-0.020413011}
{-0.11700939}
{0.956226}
{0.4298637}
{-0.67082363}
{0.37291902}
{0.13898472}
{0.8931977}
{0.23379393}
{0.920948}
{0.25694525}
{-0.6796678}
{-0.21230556}
{-0.49963406}
{0.72044295}
{-0.7971998}
{0.73391026}
{0.7153065}
{-0.37407923}
{-0.14873058}
{-0.91989696}
{-0.39597875}
{0.95945215}
{0.8206761}
{0.2636421}
{0.5753832}
{-0.55604255}
{0.35263586}
{-0.80593824}
{-0.054091476}
{0.21286213}
{-0.5641332}
{-0.29659837}
{-0.17632204}
{-0.73084456}
{-0.062474214}
{-0.8242517}
{-0.37942415}
{-0.262323}
{-0.1560494}
{-0.68639416}
{-0.781446}
{0.19312248}
{0.97837156}
{0.5786832}
{0.29690188}
{-0.20730498}
{0.76468724}
{0.7120629}
{0.45232052}
{0.13878222}
{0.9356812}
{-0.5112636}
{0.37082452}
{0.8394479}
{0.34994543}
{-0.60197705}
{-0.59106636}
{0.008924644}
{0.99605316}
{0.54414463}
{-0.59898305}
{0.414806}
{-0.35782692}
{0.6125675}
{-0.97004414}
{0.34812662}
{0.41991398}
{-0.91711736}
{0.6384311}
{-0.3046305}
{-0.88313186}
{0.892842}
{0.40724176}
{0.827111}
{0.7478841}
{-0.1417814}
{-0.8250406}
{0.27217126}
{0.41207916}
{0.06585162}
{-0.7806208}
{0.13893828}
{-0.8363112}
{0.29833624}
{0.44108003}
{-0.68926436}
{0.09626062}
{-0.06954711}
{-0.82211065}
{-0.47277203}
{-0.20507327}
{-0.43314204}
{0.107044704}
{0.3676706}
{-0.96998435}
{-0.6633848}
{0.6817765}
{-0.49171346}
{0.8980235}
{-0.72122735}
{-0.10577987}
{-0.90113896}
{-0.028813852}
{-1.0141175}
{-0.7521813}
{0.70721817}
{-1.0197756}
{0.012626858}
{-0.29600507}
{0.23676686}
{-0.5966277}
{-0.2407783}
{0.5260103}
{-0.71527785}
{-0.28261068}
{-0.0075456994}
{-0.8485222}
{-0.95472854}
{-0.8996137}
{0.96229786}
{0.40331978}
{-0.85046947}
{0.13371299}
{-0.56834966}
{-0.7979901}
{0.71482545}
{0.97482234}
{-0.48764437}
{-0.48554093}
{0.4041921}
{-0.071130276}
{0.05558865}
{-0.7656164}
{0.12645234}
{0.12634188}
{0.3961081}
{0.7726371}
{-0.7825907}
{-0.5651546}
{0.4066935}
{0.6538913}
{0.7964022}
{0.6113356}
{-0.05130987}
{0.8914287}
{-0.8572771}
{0.10976233}
{0.059595574}
{0.63231325}
{-0.8330676}
{0.34286222}
{0.70063716}
{0.2418012}
{-0.32720736}
{0.4822045}
{-0.18988745}
{0.8657248}
{-0.29062375}
{-0.057321545}
{-0.16663145}
{0.6441641}
{1.0028639}
{0.8675726}
{0.41733196}
{-0.7766769}
{0.127548}
{0.35498863}
{-0.68060046}
{-0.9788501}
{0.3660418}
{0.6628968}
{0.55286366}
{0.43533581}
{-0.61642694}
{-0.7149621}
{0.5670211}
{0.8763435}
{0.88897246}
{0.95746887}
{-1.1029829}
{0.18714303}
{1.097557}
{0.4316043}
{0.17989863}
{0.23507756}
{0.5054193}
{0.30432504}
{-0.9353918}
{-0.59303236}
{0.5806688}
{0.22923961}
{-0.22131349}
{-0.0025882937}
{0.6003013}
{-0.22073893}
{-0.5949456}
{0.6587522}
{-0.43066877}
{0.9152297}
{0.85243607}
{0.93105984}
{-0.7887787}
{-0.16465683}
{-0.57318574}
{-0.39011985}
{-0.7018308}
{-0.045239087}
{0.5781298}
{-0.3745728}
{0.90231156}
{0.92443985}
{0.09606731}
{-0.4672156}
{-0.685828}
{0.20703514}
{0.71275556}
{0.8372395}
{-0.34614667}
{0.8190555}
{-0.82890695}
{-0.9546542}
{-0.048725303}
{-0.27909738}
{0.5974073}
{0.33548468}
{0.008028144}
{0.4498439}
{-0.3090765}
{0.4766714}
{-0.8860313}
{-0.22508906}
{0.7348644}
{0.76940227}
{-0.6602411}
{-0.2561714}
{0.59204054}
{-0.6445205}
{-0.8462861}
{0.91689247}
{0.2839283}
{0.9791107}
{-0.31825873}
{-0.5582353}
{0.124222346}
{-0.7291484}
{0.55575126}
{0.13802896}
{-0.81345296}
{-0.22863561}
{0.7217136}
{0.16019613}
{0.38312036}
{-0.98921776}
{0.3809386}
{-0.41279444}
{-0.69469017}
{-0.75557494}
{-0.27998134}
{-0.5601051}
{0.9381043}
{0.69995904}
{-0.6256292}
{-0.33504462}
{0.45552683}
{0.13503951}
{0.5810926}
{0.86698586}
{-0.79529655}
{0.44476646}
{0.63557273}
{-0.43639135}
{-0.6490118}
{0.0025760906}
{0.9283111}
{0.7274773}
{-0.78045183}
{0.16483301}
{-0.12977366}
{-0.089333214}
{-0.53203994}
{-0.121054396}
{-0.6497921}
{0.28626}
{-1.0716792}
{-0.2536884}
{-0.23768407}
{-0.63381344}
{-0.054352712}
{0.9040756}
{-0.25126705}
{0.44345334}
{-0.0022169668}
{-0.3098114}
{0.19679755}
{-0.62121356}
{-0.85371065}
{-0.30046993}
{0.93442106}
{-0.5083548}
{-0.20135266}
{-0.8191745}
{0.61437726}
{-0.15098076}
{-0.8441338}
{0.6506493}
{0.9318877}
{-0.12408737}
{-0.096408084}
{0.88757205}
{0.7375069}
{-0.059466925}
{-0.15564153}
{-0.50754327}
{-0.7566205}
{-0.4380756}
{-0.90480065}
{0.4685511}
{-0.62292516}
{0.83875924}
{-0.17513436}
{-0.23278385}
{0.6232785}
{0.91537744}
{0.21027063}
{-1.018779}
{-0.69942683}
{0.15421572}
{0.40038216}
{0.5428908}
{-0.5443226}
{0.17437299}
{0.8748473}
{-0.00330498}
{-0.44670182}
{0.05423981}
{-0.89413357}
{0.7344992}
{0.061949342}
{-0.8149426}
{-0.979183}
{0.72543}
{0.41014057}
{-0.8591364}
{-0.73961455}
{-0.40829808}
{-0.665237}
{-0.9181551}
{-0.9065563}
{-0.5870793}
{0.99286926}
{0.6007495}
{-0.33996308}
{-0.27549797}
{-0.4319694}
{0.16887453}
{-0.34284097}
{0.4878681}
{0.5996557}
{0.07600497}
{0.048650287}
{0.46496886}
{0.51038563}
{-0.06691157}
{-0.25637677}
{0.45683736}
{0.7465306}
{-0.2727647}
{-0.3800477}
{0.04912089}
{-0.41861814}
{-0.30981728}
{0.7745408}
{0.045066576}
{-0.06529727}
{0.14743228}
{-0.8846351}
{0.72463536}
{-0.8539767}
{-0.7857194}
{-0.8279396}
{0.09146024}
{0.5525479}
{0.57734334}
{0.48834753}
{-0.7328832}
{-0.6402057}
{-0.6723191}
{0.14270669}
{-0.91038513}
{-0.18930626}
{0.9797924}
{0.88575286}
{0.2575764}
{1.0394344}
{0.8883726}
{-0.2170598}
{-0.32332784}
{0.108994454}
{-0.19663809}
{0.5294996}
{-0.8970778}
{-0.21668328}
{0.16201918}
{-0.418363}
{0.4278044}
{-0.2662282}
{-0.54925734}
{0.83015454}
{0.5749738}
{-0.1812088}
{0.45733172}
{0.7599534}
{-0.7955904}
{1.0702405}
{0.6477991}
{-0.81488216}
{0.24931425}
{0.6586072}
{0.05898876}
{0.20245993}
{-0.8185637}
{-0.28582755}
{0.86880434}
{-0.5080575}
{-0.23705345}
{0.45535666}
{-0.65781456}
{-0.7939428}
{-1.0107651}
{0.8481604}
{-0.6402358}
{0.5416083}
{-0.39898378}
{0.9587219}
{0.68102473}
{-0.22821702}
{0.26189917}
{-0.52297515}
{-0.85761327}
{0.22328775}
{0.60449266}
{0.44760957}
{0.031209318}
{0.02199783}
{-0.35119897}
{0.50373113}
{0.110233106}
{-0.47603264}
{-0.2801202}
{-0.8597185}
{-0.73332936}
{0.052732226}
{0.90099716}
{0.6403774}
{-0.7120856}
{0.24392882}
{0.45559496}
{0.6917292}
{1.0253398}
{0.38716492}
{0.22168845}
{-0.13203862}
{-0.27368674}
{-0.10759314}
{-0.066437736}
{-0.3258696}
{0.9065078}
{-0.16915558}
{-0.94433117}
{-0.5160826}
{-0.074822664}
{-0.5181436}
{0.2043876}
{0.12215459}
{-0.28743666}
{-0.1298842}
{0.4669029}
{-0.7038972}
{0.47180066}
{-0.67849797}
{0.3838665}
{0.98960537}
{0.5144895}
{-0.43107378}
{0.4745533}
{0.4375642}
{0.64010453}
{0.96980536}
{-0.54889417}
{-0.599864}
{-0.8423618}
{0.6089245}
{-0.42811614}
{0.06456563}
{0.4427593}
{-0.45921436}
{-0.6500745}
{0.6679134}
{-0.5663337}
{-0.62551695}
{-0.76634765}
{-0.5370215}
{0.66016567}
{-0.3217752}
{-0.09878062}
{-0.75280875}
{0.8458047}
{0.50407195}
{-0.59814763}
{0.9555482}
{0.012456416}
{-0.7756312}
{0.37484998}
{0.35161063}
{0.17823489}
{-0.12871082}
{-0.020484945}
{0.20014295}
{-0.5084455}
{-0.79663354}
{-0.10312389}
{-0.6985118}
{-0.35022882}
{0.65477467}
{0.46215934}
{0.27780342}
{-0.12942362}
{0.22446248}
{-0.08513139}
{0.77103555}
{-0.52623487}
{0.7321945}
{0.082898155}
{0.7838827}
{-0.9076122}
{0.85762393}
{-0.06956602}
{0.84121037}
{1.0167241}
{0.7453725}
{-0.85447764}
{-0.20667142}
{0.94932246}
{0.73279834}
{-0.52857995}
{-0.13765407}
{0.38324684}
{0.20014185}
{-0.94973445}
{0.8748916}
{-0.3106511}
{-0.94059306}
{0.30004686}
{0.9556411}
{-0.23263207}
{-0.18113914}
{0.8035338}
{0.3318539}
{-0.076383285}
{-0.04728131}
{-0.62343574}
{0.6379152}
{-0.73036426}
{0.79437155}
{0.86596584}
{-0.6759675}
{0.34530756}
{-0.60581577}
{0.07127787}
{0.6639209}
{0.5994605}
{0.72119683}
{0.016606785}
{0.8810993}
{-0.07948659}
{-0.7110729}
{-0.2012499}
{-0.7939534}
{1.0194601}
{0.12013157}
{-0.8895097}
{0.3080039}
{-0.66381484}
{-0.12427636}
{-0.48161894}
{-0.80546814}
{0.08355784}
{0.061905272}
{-0.25082618}
{0.37797415}
{-0.46868336}
{0.013391876}
{0.89896464}
{1.0394421}
{-0.5051889}
{0.120525755}
{-0.43188316}
{0.5253408}
{0.43203208}
{-0.56628144}
{-0.6552634}
{0.49260017}
{0.94909453}
{0.50719166}
{-0.8540616}
{-0.44523066}
{-0.04898085}
{0.31097457}
{-0.4072557}
{0.60246056}
{0.5487712}
{0.22744942}
{-0.9590223}
{-0.25360966}
{0.68612957}
{-0.15515982}
{0.14391965}
{-0.42364255}
{-0.5288659}
{-0.9505289}
{-0.11899017}
{0.089045785}
{0.9424928}
{-0.2598276}
{0.25659698}
{-0.21738371}
{-0.13276756}
{-0.026693543}
{-0.20762736}
{0.89083517}
{0.16922083}
{-0.67873573}
{-0.00081589026}
{0.4146306}
{-0.85830915}
{-0.37462312}
{-0.2604962}
{-0.032349166}
{-0.016121514}
{-0.85097045}
{-0.6634102}
{-0.73949134}
{0.25104558}
{0.6406212}
{-0.8256285}
{-0.10987904}
{0.23457068}
{-0.77932864}
{0.88095903}
{-0.02990721}
{0.47336265}
{0.28814617}
{-0.9230139}
{-0.77519226}
{-0.10093909}
{0.329676}
{0.21366018}
{-0.8561457}
{-0.4452821}
{0.9487575}
{0.77805877}
{-0.71664363}
{1.0398015}
{-0.83388495}
{0.4603004}
{1.0743333}
{-0.4332964}
{-1.0610929}
{0.19615835}
{0.39225635}
{1.0118842}
{0.5554054}
{-0.7664397}
{-0.08456136}
{0.8442921}
{-0.6369028}
{-0.7716985}
{0.8399759}
{0.9745102}
{0.5753043}
{0.7536745}
{-0.57699215}
{-0.58998114}
{-0.49794656}
{0.92919636}
{-0.2835004}
{0.21772403}
{0.76802343}
{0.118759125}
{-0.043757044}
{0.084223345}
{0.47846022}
{0.17767781}
{0.84166205}
{0.28588706}
{0.40668505}
{0.35179704}
{-0.34016496}
{-0.7814888}
{-0.87326634}
{-0.5413158}
{-0.8793739}
{0.22518168}
{0.33382764}
{0.91273236}
{-0.3507013}
{-0.17924012}
{-0.5714927}
{-0.21022135}
{-0.31405824}
{-0.67171276}
{-0.7658567}
{0.48925525}
{-0.5874128}
{0.6710412}
{-0.11413787}
{0.2798013}
{1.021323}
{-0.29097673}
{0.05124108}
{0.68965554}
{1.0561033}
{0.408908}
{-0.26380822}
{0.43173903}
{0.97174203}
{-0.3959928}
{0.9807577}
{-0.17014343}
{0.44761097}
{-0.52098167}
{-0.3040553}
{0.042687155}
{-0.7820559}
{0.72617286}
{0.17514096}
{-0.43427855}
{-0.8266622}
{0.42656448}
{0.57453215}
{0.12843198}
{-0.94658554}
{-0.67673445}
{-0.00599428}
{0.63249755}
{-0.18810442}
{-0.7024669}
{-0.19272903}
{0.21834582}
{-0.40313944}
{0.7220796}
{-0.98073524}
{-0.0064382767}
{0.39249048}
{0.7699295}
{-0.007526569}
{0.30615538}
{-0.35073438}
{0.2879623}
{-0.104561485}
{0.38145345}
{-0.5031489}
{0.009607841}
{0.22281237}
{-0.041442655}
{-0.19577289}
{0.020389978}
{0.006562633}
{-0.10829376}
{-0.77161163}
{-0.31697816}
{0.03599873}
{-0.97163486}
{-0.88735014}
{-0.12662259}
{0.45268008}
{0.5980985}
{1.0672126}
{-0.4779852}
{-0.090761006}
{0.71558595}
{0.56478053}
{-0.32934177}
{0.4115934}
{0.8250127}
{0.28705046}
{0.31293818}
{-0.38932985}
{-0.9582467}
{-0.07211552}
{-0.8082472}
{-0.050004736}
{-0.23494416}
{-0.5118016}
{-0.6417199}
{0.38023818}
{0.16728419}
{0.171127}
{1.0100485}
{0.04960794}
{-0.25276262}
{-0.5305033}
{0.50322354}
{0.77902704}
{0.5855346}
{0.16938901}
{-0.71170706}
{0.8088357}
{-0.73547626}
{-0.20346603}
{0.67154795}
{0.4373242}
{-0.648123}
{0.99987864}
{0.8294197}
{-0.23095015}
{-0.8371091}
{0.43946055}
{0.47408625}
{0.18629657}
{0.31081504}
{0.055994254}
{-0.6275487}
{-1.0494716}
{0.31434053}
{0.12258292}
{0.53883255}
{-0.80362123}
{0.5237675}
{0.09554192}
{0.041359656}
{-0.4741715}
{0.93580437}
{0.67637116}
{-0.2825887}
{0.48976335}
{0.88084435}
{0.90659165}
{0.17842741}
{0.5981697}
{-0.5292721}
{-0.15263727}
{-0.8473406}
{0.5594501}
{0.013217427}
{0.9828383}
{-0.47503787}
{0.6397112}
{-0.5818269}
{-0.9361397}
{-0.6648294}
{0.27349117}
{0.3267414}
{0.8163487}
{0.34253493}
{0.19554855}
{-0.23600322}
{-0.8785056}
{0.18886006}
{0.7937091}
{-0.47490317}
{0.17384613}
{1.0190974}
{-0.8874427}
{-0.03903558}
{0.6960847}
{-0.8778702}
{-0.062486004}
{0.20791167}
{-0.4751094}
{-0.24146883}
{-0.3884895}
{0.25069302}
{0.91167206}
{0.5716961}
{-0.39428365}
{0.22855157}
{-0.56812584}
{-0.20700964}
{-0.21311031}
{-1.0051079}
{-0.7268204}
{-0.3301221}
{-0.13848004}
{0.06402899}
{-0.6342877}
{-0.16044702}
{-0.35239157}
{-0.9693439}
{-0.3215297}
{-0.99371606}
{0.61983913}
{-0.21183425}
{-0.48468357}
{0.20414414}
{-0.5729935}
{-0.15128046}
{-0.003550312}
{-0.11669331}
{-0.033105414}
{-0.48333198}
{0.8669251}
{-0.55966336}
{-0.49456912}
{-0.6418829}
{-0.65644693}
{-0.9055913}
{-0.97258353}
{0.07248546}
{-0.3494909}
{-0.92779064}
{0.73104316}
{-0.7401402}
{-0.8828015}
{-0.9298603}
{0.2902303}
{0.6878989}
{0.33675745}
{0.050447695}
{-0.18447852}
{0.031884648}
{-0.81983775}
{0.027200812}
{-0.41349238}
{-0.2528146}
{0.4671799}
{-0.3952899}
{-0.09210261}
{0.94024515}
{0.6233986}
{-0.5229583}
{-0.25176397}
{0.5305731}
{-0.028145295}
{0.737294}
{-0.098604605}
{-0.40156108}
{0.8765538}
{-0.5682991}
{0.7288217}
{0.17301053}
{0.743481}
{0.6225037}
{-0.9846701}
{-0.31324583}
{0.8225586}
{0.6013158}
{-0.046819158}
{-0.19043404}
{0.8246451}
{-0.413268}
{0.47148323}
{0.6889956}
{-0.110655904}
{-0.23309095}
{-0.8825102}
{0.037770964}
{0.36245918}
{0.8292031}
{0.7722004}
{-1.0175588}
{0.35123092}
{-0.8824564}
{0.6723961}
{-0.5717366}
{0.8545735}
{0.28863814}
{0.04551165}
{0.4745986}
{-0.40298697}
{-0.119841285}
{0.9538261}
{-0.025944494}
{0.64589787}
{0.27360016}
{0.19650398}
{0.20803422}
{-0.7986169}
{-0.17051993}
{0.9513451}
{-0.7694609}
{-0.28981575}
{0.84557104}
{-0.69228584}
{0.28488964}
{-0.25062594}
{-0.5501293}
{-0.92689425}
{-0.5654702}
{-0.90397435}
{0.7460193}
{-0.13534944}
{-0.44293028}
{-0.32779032}
{0.32743126}
{-0.7176961}
{-0.18079191}
{0.06326644}
{-0.37928814}
{0.82548696}
{0.27368826}
{-1.0012332}
{0.24721299}
{-0.15633637}
{0.28214926}
{0.3577576}
{0.35964298}
{0.48133296}
{0.004569985}
{0.52014434}
{0.15993078}
{0.5330726}
{0.26435727}
{-0.11315524}
{0.28786787}
{-0.868617}
{-0.41987425}
{0.55244887}
{0.59926724}
{0.45663252}
{0.7553983}
{0.14048213}
{0.31526947}
{-0.62928134}
{-0.27642375}
{0.8706303}
{-0.7349294}
{-0.7928524}
{-0.39328533}
{0.63535273}
{0.28536892}
{0.2665616}
{-0.22799808}
{0.5144532}
{0.13090162}
{0.11313865}
{0.769264}
{0.19975148}
{-0.44947767}
{-0.90368325}
{-0.56870127}
{-0.40869287}
{0.36030468}
{0.91852844}
{0.35812706}
{-0.38181245}
{-0.0024698179}
{-0.8539102}
{-0.5550914}
{-0.68685335}
{-0.88359636}
{-0.07052116}
{-0.08435033}
{-0.61608773}
{0.7047246}
{0.24760045}
{-0.16957027}
{-0.8145091}
{0.49019498}
{0.6930035}
{-0.8361809}
{0.43969595}
{0.5163015}
{-0.32209268}
{0.27266067}
{1.016915}
{-0.6812106}
{0.56715906}
{0.03841398}
{-0.6184296}
{0.026615633}
{-0.85752016}
{0.93253803}
{0.22218786}
{0.8012485}
{-0.5569071}
{0.48484254}
{1.0340323}
{0.84554285}
{-0.7345643}
{0.65108013}
{-0.86218524}
{-0.14118232}
{-0.2510871}
{-0.28649408}
{0.043631736}
{0.8068005}
{-1.0051317}
{-0.7483957}
{-0.70615953}
{0.6363461}
{-0.9629597}
{0.10952616}
{0.60653216}
{-0.73536676}
{-0.17137092}
{0.43160957}
{0.7940488}
{0.0005295004}
{-0.9823807}
{0.74901104}
{-0.41843677}
{0.056635022}
{0.2992492}
{0.14787787}
{-0.5320824}
{-0.77322763}
{0.36950532}
{-0.9241104}
{0.35375407}
{-0.46846703}
{0.55673623}
{-0.94610095}
{0.054706473}
{-0.025884159}
{-0.37653604}
{0.7276387}
{0.3417002}
{0.3684971}
{-0.5538515}
{0.78872967}
{-0.42728174}
{0.23186967}
{-0.36615977}
{0.41202492}
{0.6434626}
{-0.055047285}
{-0.76790524}
{0.6175196}
{0.6521781}
{-0.3641446}
{-0.98085546}
{0.7856538}
{-0.272382}
{-0.58379334}
{0.49568865}
{0.85198236}
{-0.11863006}
{0.522627}
{0.89150226}
{-0.36258298}
{0.31007853}
{0.91939765}
{0.6829845}
{0.48474073}
{0.7288488}
{-0.312976}
{-0.55505794}
{0.14996523}
{0.11709572}
{0.55579954}
{0.651483}
{-0.8782673}
{-0.09350552}
{0.261997}
{0.3083601}
{-0.78128195}
{0.49774587}
{-0.4870752}
{-0.7637799}
{0.61771774}
{-0.39725336}
{-0.33219412}
{-0.5729805}
{-0.7122638}
{-0.8324177}
{-0.8689921}
{0.9112523}
{0.76959586}
{-0.6320049}
{-0.6247925}
{-0.16615531}
{0.7187133}
{-0.8002196}
{-0.09071731}
{0.2381734}
{-0.3471735}
{0.6503599}
{0.22348706}
{-0.955527}
{0.96025777}
{-0.1813737}
{0.1489871}
{-0.82820296}
{-0.9294758}
{-0.56069416}
{0.21559963}
{0.37140375}
{-0.5724087}
{-0.06504106}
{-0.2884988}
{-0.85557675}
{-0.7390094}
{-0.22450176}
{0.49694985}
{-0.26033106}
{-0.7256546}
{0.43046135}
{-0.0007846123}
{0.16452046}
{0.6199398}
{-0.207462}
{0.9761646}
{-0.59528625}
{-0.53478026}
{-0.026174067}
{0.94635797}
{-0.8883758}
{-0.39786702}
{0.5222492}
{-0.51212746}
{-0.3054746}
{0.6697004}
{0.14283505}
{0.10600183}
{-0.6685196}
{-0.48381764}
{0.0064585106}
{-0.33558398}
{0.62560695}
{-0.87787557}
{0.9290435}
{-0.78476673}
{-0.291032}
{0.017753579}
{0.6600744}
{0.16110213}
{-0.30673933}
{-0.114597544}
{0.4542091}
{-0.9191497}
{-0.28508285}
{0.25700182}
{-0.077095136}
{-0.44601175}
{0.19236244}
{-0.3357032}
{0.42526734}
{0.606491}
{-0.5474738}
{0.79288936}
{-0.37100333}
{0.8864718}
{0.62082}
{-0.47627813}
{-0.01705247}
{-0.026481386}
{-0.9556504}
{-0.16114837}
{-0.4560261}
{-0.67106175}
{-0.5472334}
{0.71704006}
{-0.43801787}
{-0.38221943}
{-0.21369234}
{0.7054076}
{-0.78814054}
{0.69005203}
{-0.7928414}
{0.11629007}
{0.6188597}
{0.615949}
{0.3999414}
{-0.25648314}
{0.219913}
{-0.110412605}
{0.08406259}
{0.21682352}
{-0.3060515}
{-0.1265755}
{0.40768993}
{0.7387359}
{-0.8207613}
{0.3593188}
{0.23922116}
{-0.69468856}
{-0.039290033}
{-0.0386629}
{0.65533304}
{-0.095401034}
{-0.3551961}
{-0.3717471}
{0.70550156}
{0.85997796}
{-0.79618865}
{0.7791531}
{-0.6008166}
{0.4794833}
{0.7704088}
{0.30862632}
{-0.5417687}
{0.5086055}
{-0.6608746}
{-0.9901172}
{-0.51861465}
{0.07638408}
{0.67575747}
{0.7050213}
{-0.23477527}
{-0.95207477}
{-0.54013073}
{0.07436949}
{0.33165026}
{0.48456526}
{0.009610613}
{0.19276413}
{0.18975791}
{-1.0129452}
{-0.5958704}
{0.16048326}
{-0.69113}
{-0.52167463}
{0.6365347}
{0.6011259}
{0.8570954}
{-0.5694368}
{0.65647954}
{0.33087513}
{-0.67359173}
{-0.011582396}
{-0.25403312}
{-0.98460144}
{0.21005388}
{0.90763974}
{0.0773367}
{0.4123285}
{0.20275593}
{-0.5878248}
{0.5467653}
{0.603152}
{0.07954857}
{0.10996938}
{0.24642597}
{-0.059835132}
{-0.83996063}
{-0.6257243}
{0.6278279}
{0.6183829}
{-0.22693732}
{-0.1397839}
{-0.21659563}
{0.43690032}
{0.24705233}
{-0.65436554}
{-0.34745175}
{-0.32930124}
{0.14924425}
{0.056773428}
{-0.59113944}
{0.1317188}
{-0.9069933}
{0.68302107}
{1.0004712}
{-0.40944317}
{-0.54018384}
{-0.97982}
{-0.8372497}
{0.012749327}
{-0.5014037}
{-0.69568014}
{0.54634595}
{-0.08912612}
{0.18752551}
{0.61133623}
{-0.8949299}
{0.7408198}
{0.63069457}
{0.18082923}
{-0.5056994}
{-0.23071802}
{0.7664107}
{0.86278296}
{-0.11708822}
{-0.34668243}
{0.26532522}
{0.4533574}
{-0.06346196}
{-0.50247824}
{0.7302877}
{-0.48035055}
{0.8112651}
{0.40695992}
{0.77984947}
{-0.46775275}
{-0.13705248}
{0.18385762}
{0.44589135}
{-0.7007487}
{0.8725875}
{0.4041447}
{0.56786376}
{-0.9425626}
{0.5837124}
{0.83847183}
{0.17432307}
{0.080289856}
{-0.2603487}
{-0.18706642}
{-0.4789428}
{-0.41409498}
{0.421277}
{-0.92436165}
{-0.63593453}
{0.66013217}
{0.035104066}
{0.76193917}
{-0.41140985}
{0.7741113}
{-0.27342886}
{0.22441185}
{0.5288037}
{0.97236943}
{-0.40865183}
{-0.6807841}
{0.41555083}
{-0.05591943}
{-0.5973215}
{0.39804697}
{-0.17177348}
{0.66205573}
{0.7483262}
{-0.91333175}
{0.6986716}
{-0.36250168}
{0.6096164}
{0.61619663}
{0.19819188}
{-0.2982331}
{-0.8482493}
{0.06558145}
{-0.17783159}
{-0.40959007}
{0.36789808}
{0.24288718}
{0.7641445}
{0.09473969}
{0.3694891}
{0.91559446}
{0.35810027}
{0.615468}
{0.5559679}
{0.73958164}
{0.32162657}
{-0.4963215}
{-0.62446564}
{-0.9363939}
{0.89313716}
{-0.6129441}
{0.9265044}
{0.3123016}
{0.41739795}
{0.8815477}
{0.4193314}
{0.55356055}
{-0.137347}
{-0.7372165}
{0.1876294}
{0.21617585}
{-0.9836335}
{-0.5886893}
{-0.6051707}
{0.94378275}
{-0.31811863}
{-0.19487458}
{-0.57076013}
{-0.47945562}
{-0.97696716}
{0.5576875}
{-0.5049689}
{-0.31322905}
{0.6067019}
{-0.2480939}
{0.19889912}
{-0.8786895}
{-0.18706933}
{0.42784804}
{0.087281734}
{0.86591893}
{0.63585573}
{-0.1959911}
{-0.0424275}
{0.46390763}
{-0.65303624}
{-0.11398266}
{-0.042481385}
{0.28118467}
{0.25226873}
{0.9784219}
{0.9449473}
{0.8603706}
{-0.7393231}
{0.45537108}
{-0.5233859}
{-0.83931667}
{0.8736161}
{0.77272296}
{0.61745524}
{0.28264657}
{-0.74051404}
{0.9209142}
{-0.039622862}
{0.27079326}
{-0.9618535}
{0.11675093}
{-0.20298822}
{0.5702651}
{-0.2959445}
{-0.19064623}
{-0.539265}
{0.43698654}
{-0.5075635}
{0.90092254}
{-0.25388446}
{0.81862986}
{0.30950093}
{0.35692543}
{-0.4038337}
{0.7121222}
{-0.26789427}
{0.5626538}
{0.86026806}
{0.29867044}
{-0.88268846}
{-0.6483159}
{0.8100211}
{0.104862444}
{0.50199693}
{0.06033326}
{0.13914457}
{-0.41066796}
{-0.4570607}
{0.6497371}
{0.64089626}
{-0.15851235}
{-0.6967001}
{0.5450225}
{-0.8806833}
{-0.682061}
{-0.2853484}
{0.51813984}
{0.64591765}
{0.26877883}
{0.6516606}
{-0.07186676}
{0.49982893}
{0.23019212}
{-0.47449774}
{-0.80400753}
{0.0011720061}
{0.63007814}
{0.7690714}
{-0.3604167}
{0.6455593}
{0.028473526}
{-0.70531714}
{0.7321589}
{0.52845544}
{0.70516664}
{0.48238227}
{-0.53399944}
{0.5810688}
{0.4942156}
{0.27082145}
{0.1526832}
{-0.5370115}
{-0.65474665}
{-0.025174083}
{-0.99586844}
{-0.23097348}
{0.48784474}
{-0.66530323}
{-0.02886369}
{-0.033586636}
{0.5053796}
{0.12990728}
{0.45002192}
{-0.31051907}
{-0.14850442}
{-0.7880699}
{-0.7369368}
{-0.38742834}
{-0.26892358}
{0.67076385}
{-0.14557129}
{0.08702179}
{0.44826803}
{0.4674628}
{-0.46947247}
{-0.27771053}
{-0.6800753}
{0.2866703}
{-0.115004286}
{0.0047039124}
{0.06546839}
{0.36503458}
{0.59185076}
{-0.9556384}
{-0.6883579}
{0.21705751}
{0.4597692}
{-0.4763304}
{0.37062007}
{0.34987062}
{-0.70378923}
{0.7267905}
{0.23064727}
{0.30401507}
{-0.84623075}
{-1.025448}
{-0.78375643}
{0.25282234}
{0.74676085}
{0.85094166}
{0.46067694}
{-0.13291572}
{-0.030899309}
{-0.5442458}
{-0.88206387}
{-0.89164996}
{-0.37670356}
{0.95975673}
{0.37178537}
{0.09856099}
{0.0947745}
{-0.77234447}
{0.3931078}
{0.7812239}
{0.39998}
{0.8923868}
{-0.1761361}
{0.2695137}
{-0.87531877}
{-0.24970026}
{-0.85191834}
{-0.60626817}
{-0.5341811}
{-0.7298199}
{0.572366}
{-0.06250173}
{0.15073365}
{0.37228242}
{-0.8707453}
{0.08557028}
{0.85593176}
{0.879989}
{0.81143427}
{-0.8280677}
{0.066299215}
{-0.8799661}
{-0.16103241}
{0.9311097}
{0.41083497}
{0.8157658}
{0.9102006}
{-0.9645504}
{0.06927778}
{0.17969292}
{0.22451994}
{0.37990224}
{0.3591587}
{-0.9365457}
{-0.42946106}
{-0.34374368}
{0.74683404}
{0.77689373}
{-0.2680609}
{-0.11262342}
{0.8108375}
{-0.7187594}
{-0.38462237}
{0.18771821}
{-0.58684254}
{-0.099264905}
{-0.3548723}
{0.77956146}
{0.6005795}
{0.40430126}
{-0.36894336}
{0.6894552}
{0.11905714}
{0.4930301}
{0.81216437}
{0.48002362}
{0.58145475}
{0.15497789}
{-0.9602566}
{-0.22985591}
{-0.11979769}
{-0.017940128}
{0.20495231}
{0.6790162}
{0.5183673}
{0.09267767}
{0.22887607}
{0.21818542}
{0.024334408}
{0.3594864}
{-0.94222486}
{-0.49820986}
{0.66465116}
{-0.1325486}
{-0.29356208}
{-0.4843401}
{-0.9444492}
{-0.29656908}
{-0.703416}
{-0.19593017}
{-0.49747497}
{-0.4659528}
{0.018221794}
{0.54330814}
{0.64496183}
{0.7103167}
{0.783613}
{-0.5273862}
{0.05703545}
{0.49359745}
{-0.67727464}
{0.61901444}
{-1.0061972}
{0.33154947}
{-1.0205429}
{-0.11648838}
{0.10406043}
{0.78261805}
{-0.52001196}
{0.5786143}
{0.31114477}
{0.7667039}
{0.93946344}
{-0.22345856}
{-0.64574146}
{-0.9352252}
{-0.9209723}
{-0.32309926}
{-0.9970777}
{-0.92817}
{0.9270317}
{-0.97765476}
{0.26649803}
{-0.5680238}
{0.6414273}
{0.08112699}
{-0.5198035}
{-0.10344037}
{-0.8462185}
{0.2794895}
{-0.2704509}
{-0.45420498}
{0.47894603}
{0.81263345}
{-0.9970553}
{-0.37175623}
{0.08450733}
{-0.9523785}
{0.39308208}
{-0.85447544}
{-0.8130193}
{0.9092241}
{-0.2795635}
{0.886404}
{0.19875771}
{0.35273296}
{-0.9109583}
{-0.74033713}
{0.6076966}
{-0.3503418}
{-0.93917775}
{0.17305572}
{-0.8371182}
{0.24144076}
{-0.14509398}
{0.81245416}
{-0.22963525}
{-0.47038436}
{0.47575325}
{-0.077804744}
{0.2086238}
{-0.056244142}
{0.4589023}
{-0.8407937}
{0.4327092}
{0.68752277}
{0.27553385}
{-0.45339248}
{0.10143293}
{-0.627396}
{0.92762446}
{-0.439687}
{0.48764387}
{-0.7072595}
{0.8310108}
{-0.913994}
{-0.17807163}
{-0.62640905}
{0.6949322}
{-0.6949662}
{0.24180096}
{-0.5991532}
{-0.7274928}
{-0.02222763}
{-1.0272813}
{0.35927954}
{0.19971126}
{0.3184014}
{-0.24254057}
{0.38378134}
{-0.7805612}
{0.038955238}
{-0.058079015}
{0.6332279}
{-0.24511272}
{0.11910978}
{-0.08392016}
{-0.19178492}
{-0.6666918}
{0.58879805}
{-1.0395932}
{0.8114077}
{0.37356895}
{-0.7933546}
{0.899672}
{-0.74960494}
{0.4055583}
{0.6421977}
{0.23169129}
{0.16522308}
{-0.52063346}
{-1.0051084}
{0.03286995}
{-0.2519133}
{0.053160664}
{-0.24297822}
{-0.13286082}
{-0.4565993}
{-0.8090415}
{0.8569822}
{0.119087264}
{-0.32910123}
{-0.5155209}
{0.67866254}
{0.92194694}
{0.05887918}
{0.8230977}
{-0.0034367938}
{-0.23028551}
{0.22977515}
{0.6924348}
{-0.5440777}
{-0.614278}
{-0.3613101}
{0.40995735}
{-0.3485896}
{0.42413157}
{0.5120959}
{-0.09669922}
{-0.4075268}
{0.1910719}
{0.71999866}
{-0.5088529}
{-0.3707098}
{-0.1855334}
{-0.081868336}
{0.6895361}
{-0.30367845}
{-0.5251187}
{0.34904483}
{-0.30679446}
{0.45505613}
{0.22273403}
{-0.16061935}
{-0.7144537}
{-0.010187087}
{0.217857}
{-0.54069}
{-0.920208}
{0.7425122}
{0.78272057}
{-0.91006047}
{-0.64677477}
{-0.2428374}
{0.67156667}
{-0.30011398}
{0.96392083}
{0.8801182}
{0.675026}
{0.8876954}
{0.26091236}
{-0.37909204}
{-0.72878474}
{-0.30342963}
{0.33488792}
{-0.85204375}
{-0.53714865}
{-1.0445439}
{-0.7680044}
{0.32534605}
{0.8241975}
{0.75923526}
{-0.08426212}
{-0.31996423}
{-0.44449323}
{0.28886324}
{0.2842049}
