-- Efficiency --
93.189964
-- Weights --
{0.17306644}
{0.013858022}
{0.8689825}
{0.06292282}
{0.50089175}
{-0.5762689}
{-0.6124553}
{-0.33549967}
{0.93953156}
{0.77296335}
{0.9384037}
{-0.8248821}
{-0.57532215}
{-0.3087431}
{-0.6116929}
{-0.20034702}
{0.48393542}
{0.8752696}
{-0.40505517}
{0.55087495}
{0.46973687}
{-0.42860436}
{0.26247796}
{-0.880236}
{0.4976011}
{-0.36403778}
{0.5033883}
{0.8916447}
{0.87280846}
{-0.39840072}
{0.8690225}
{-0.42805788}
{-0.77299476}
{-0.4991686}
{-0.8207148}
{-0.93001676}
{-0.0014937003}
{-0.09800615}
{-0.5782256}
{0.71026975}
{-0.6236849}
{-0.6704983}
{0.029228399}
{-0.48812017}
{-0.7286868}
{-0.027908416}
{-0.692171}
{0.21239467}
{-0.92401147}
{0.1326763}
{0.5069801}
{-0.24108987}
{-0.94506145}
{-0.5858698}
{-0.101900496}
{0.6591759}
{1.022604}
{-0.56975406}
{-0.40492854}
{-0.7106554}
{-0.5295038}
{0.85019916}
{0.18316664}
{-0.40741748}
{0.6387589}
{0.9121502}
{-0.40504518}
{0.11430121}
{-0.34308642}
{0.75341266}
{-0.8193552}
{-0.7974989}
{0.8715756}
{-0.20286542}
{0.4519835}
{0.8569739}
{-0.22032017}
{-0.61111665}
{-0.43083555}
{-0.43095794}
{0.7412431}
{-0.8764187}
{0.70682794}
{-0.3742682}
{-0.26489872}
{0.55078864}
{-0.4322715}
{0.95705825}
{0.49186808}
{-0.18489474}
{-0.33955446}
{0.5491952}
{-0.79559946}
{0.1732828}
{-0.055557165}
{-0.40227562}
{-0.43037814}
{0.05502182}
{0.2679872}
{-0.9470461}
{0.7352352}
{0.21003418}
{0.15879707}
{-0.61316097}
{-0.34743637}
{-0.08832967}
{0.102027155}
{0.058824163}
{0.8504555}
{-0.89686275}
{0.14729682}
{-0.10866012}
{-0.26693743}
{-0.21391048}
{0.35861883}
{-0.40432012}
{-0.8751881}
{0.26800078}
{0.04244147}
{-0.9245948}
{0.6172857}
{-0.6840228}
{0.44490546}
{0.21920332}
{0.192195}
{1.0791808}
{0.73253477}
{-0.665786}
{-0.9523146}
{0.04295177}
{-0.33429372}
{0.26031297}
{0.95868325}
{0.57109714}
{-0.35131344}
{-0.51284736}
{1.0163679}
{0.6846537}
{-0.88483757}
{-0.61162025}
{-0.17338365}
{-0.003992336}
{0.48172504}
{-0.6017088}
{-0.095308356}
{0.40319678}
{0.035200775}
{-0.057942946}
{-0.31689423}
{0.9196332}
{-0.12844323}
{0.109900445}
{0.02240323}
{-0.74171776}
{0.86141056}
{0.9305656}
{-0.43293327}
{-0.11945621}
{-0.3458489}
{-0.06477605}
{0.22215873}
{0.44231287}
{-0.97740895}
{-0.49406368}
{0.9610839}
{0.022012448}
{0.6092841}
{0.2563746}
{-0.5469053}
{0.23650534}
{-0.5832642}
{0.41049623}
{0.0020151057}
{-0.5229452}
{-0.08783782}
{-0.3920605}
{-0.5232272}
{-0.30759874}
{0.25341818}
{0.5885646}
{-0.74389434}
{-0.46639723}
{-0.028439816}
{-0.20786847}
{-0.1907267}
{-0.27113077}
{0.26324728}
{-0.70631707}
{0.6950345}
{1.0710856}
{-0.49346945}
{-0.6877299}
{0.49586493}
{0.45810834}
{-0.47300306}
{0.46203372}
{-0.48215076}
{0.6683558}
{0.08289516}
{0.0522476}
{0.027577866}
{0.6724702}
{0.47028494}
{0.22384222}
{-0.71478176}
{0.27604672}
{0.020283883}
{0.062459856}
{0.019614926}
{-0.25597456}
{-0.09276578}
{-0.7450493}
{0.8163104}
{0.43043694}
{0.61485696}
{0.18660197}
{-0.6884043}
{-0.6254671}
{-0.2875985}
{0.61217827}
{-0.21429485}
{0.63147134}
{0.8941403}
{0.29518676}
{0.7338002}
{0.98428357}
{-0.9706029}
{0.21638517}
{0.5668106}
{0.7423954}
{0.8245274}
{-0.45198894}
{0.6298747}
{0.8062694}
{-0.34145752}
{-0.7844134}
{0.4832428}
{-0.77620053}
{0.5652918}
{-0.18878698}
{-0.16453046}
{-0.05500433}
{0.82387435}
{0.003528241}
{-0.47469625}
{0.65108633}
{-0.54374725}
{-0.20001413}
{-0.7207792}
{0.58393073}
{0.20477638}
{-0.6106034}
{-0.9234264}
{-0.751634}
{-0.34478158}
{-0.93783313}
{-0.615654}
{-0.77858436}
{0.58079326}
{0.7917468}
{0.69871426}
{-0.5153516}
{0.8385113}
{-0.69166815}
{0.86241746}
{0.37435725}
{0.023364078}
{0.7222134}
{0.7032285}
{0.72168803}
{-0.07234349}
{-0.9318822}
{1.0196679}
{-0.8594835}
{-0.055568658}
{-0.5350177}
{0.5917785}
{0.96304727}
{0.13260086}
{0.9661916}
{0.645432}
{0.58356005}
{0.47215077}
{0.5851698}
{-0.38283128}
{0.7573169}
{0.7633845}
{-0.33683944}
{0.011791935}
{0.8114567}
{0.19030379}
{-0.14693597}
{-0.8054385}
{-0.01944947}
{0.37541214}
{-0.9408494}
{-0.1333043}
{-0.82836515}
{-0.8858018}
{0.4964812}
{-0.26654977}
{-0.75105745}
{0.6115526}
{-0.7991029}
{-0.42624706}
{0.7450782}
{0.14777155}
{0.1761126}
{0.60906816}
{-0.30749935}
{-0.27168044}
{-0.9448991}
{0.30353123}
{-0.53742474}
{-0.12158398}
{-0.16825174}
{0.1763354}
{0.21050207}
{-0.04814286}
{-0.921362}
{0.6213181}
{-0.00068996963}
{-0.4008068}
{-0.7438593}
{-0.03183867}
{0.50987923}
{0.87159014}
{-0.7870633}
{0.25447136}
{0.7255174}
{-0.7134464}
{-0.95041734}
{-0.4717169}
{-0.2812502}
{0.68365973}
{-0.46052784}
{0.94294}
{-0.46199757}
{0.6558036}
{-0.5561276}
{0.63459516}
{-0.13915351}
{0.49977753}
{-0.4174226}
{-0.8791871}
{0.6346899}
{-0.19941558}
{0.77864224}
{0.22197014}
{0.012148201}
{-0.5869676}
{0.7959224}
{-0.085494354}
{-0.20680265}
{0.39172125}
{-0.3687623}
{-0.8608484}
{-0.12593523}
{0.45494795}
{-0.65507966}
{-0.85286856}
{0.17826821}
{-0.9737663}
{0.91817015}
{-0.37313265}
{-0.19092512}
{-0.5812561}
{-0.38027322}
{0.041905396}
{-0.6871488}
{0.42114124}
{0.62841034}
{-0.66243887}
{-0.3192407}
{-0.50026226}
{0.06823674}
{0.5019739}
{0.7521414}
{-0.9300632}
{0.06660094}
{-0.48039}
{-0.78260124}
{0.5804384}
{1.0281264}
{-0.5647018}
{-0.12128514}
{0.038539995}
{-0.37593177}
{0.66747975}
{-0.29494575}
{0.23171619}
{0.29478323}
{-0.08987911}
{0.62351424}
{0.21813525}
{0.40505835}
{0.59592485}
{0.52976537}
{-0.82166636}
{-0.8437911}
{-0.72619176}
{0.12570846}
{-0.66145957}
{-0.022167029}
{0.9925995}
{-0.7751633}
{-0.91954565}
{0.84699}
{0.49362332}
{0.29066053}
{-0.9204759}
{-0.62088424}
{-0.22788066}
{0.63194764}
{-0.19545928}
{0.58661693}
{0.64637566}
{-0.06229132}
{-0.47253662}
{0.6756972}
{0.11689894}
{-0.8725753}
{-0.41454723}
{-0.08594789}
{-0.08837207}
{0.35466596}
{-0.061304633}
{-0.51921815}
{-0.6978078}
{-0.6101778}
{0.6228405}
{-0.46711916}
{0.19294244}
{0.15958036}
{0.12418559}
{-0.40158516}
{0.279275}
{0.5417179}
{-0.36713293}
{0.83566964}
{-0.79324937}
{0.46997765}
{-0.9093426}
{0.9117012}
{0.035158623}
{0.5537492}
{-0.042121872}
{-0.35061398}
{0.29560357}
{0.8001776}
{-1.0106069}
{0.95752704}
{0.7041259}
{0.78665674}
{0.58460003}
{-0.082751475}
{-0.8698628}
{-0.892851}
{-0.8167177}
{-0.030001797}
{0.3227921}
{-0.7241344}
{0.7826057}
{0.06927911}
{-0.86111283}
{0.7257422}
{0.83291656}
{-0.7181397}
{-0.2776608}
{-0.95760375}
{0.3308476}
{-0.80113965}
{-0.828367}
{0.13740051}
{-0.4720279}
{0.9403114}
{0.541914}
{0.9229762}
{0.06350928}
{-0.6022513}
{0.6023419}
{0.98649657}
{-0.53449357}
{0.012310361}
{0.65864754}
{0.8682015}
{-0.6065577}
{0.8170978}
{0.8118534}
{0.9285148}
{0.09310156}
{1.0434974}
{-0.7716687}
{1.0440475}
{-0.55780995}
{0.36298}
{-0.3946976}
{-0.27850693}
{-0.48914245}
{0.49910492}
{0.21937543}
{-0.7064223}
{-0.9239965}
{-0.06457809}
{-0.56396365}
{0.42829397}
{-0.7217045}
{-0.89666164}
{0.8641505}
{0.5911141}
{0.67281187}
{0.5963545}
{0.046417706}
{-0.731127}
{-0.9268541}
{-0.7895249}
{0.10709445}
{-0.022384219}
{-0.38404644}
{-0.7741925}
{0.47780257}
{0.65823704}
{0.038503736}
{0.3499496}
{-0.02958728}
{0.75424266}
{-0.43221298}
{0.5115694}
{0.7685244}
{0.45173183}
{0.7340402}
{0.80149055}
{1.0335646}
{1.027304}
{0.526865}
{0.5881969}
{-0.051281504}
{0.036080793}
{0.098464474}
{0.3370153}
{-0.7196529}
{-0.5936483}
{0.49850145}
{-0.27905563}
{-0.9313202}
{-0.5399121}
{-0.62966704}
{0.081332624}
{-0.47058704}
{-0.3536026}
{0.5408715}
{-0.43849418}
{-0.10804654}
{-0.84769607}
{0.6844687}
{-0.79901224}
{0.3942433}
{-0.5679022}
{0.5473757}
{0.009297148}
{0.7286813}
{0.89048576}
{0.54256755}
{0.1885502}
{0.05973076}
{-0.85626495}
{-0.89600575}
{0.43851265}
{0.769716}
{-0.8567647}
{0.07625804}
{-0.6767821}
{-0.1549446}
{-0.7792534}
{0.6837057}
{-0.57063055}
{0.67365265}
{0.08701584}
{-0.009458882}
{0.6387018}
{-0.37453645}
{0.26667067}
{-0.7275398}
{0.7522979}
{0.55809736}
{-0.35356486}
{0.9707723}
{0.31308675}
{0.61841106}
{-0.87886345}
{0.48828027}
{0.67603314}
{-0.45327276}
{0.07321258}
{-0.6832543}
{-0.36611915}
{0.6215749}
{-0.21842729}
{-0.52195656}
{-0.061570235}
{0.45692426}
{0.8161555}
{0.11645228}
{-0.18327713}
{-0.5201874}
{0.98898774}
{0.6105379}
{-0.7915069}
{0.44179636}
{0.6138685}
{-0.0029229044}
{0.4756834}
{-0.34617084}
{0.31116226}
{0.20256802}
{0.35308}
{-0.54713225}
{-0.82617086}
{0.23482269}
{0.15427628}
{-0.9197042}
{-0.84327483}
{-0.31159467}
{-0.8357016}
{-0.06659944}
{0.4525597}
{-0.0057336325}
{0.6062833}
{0.5462773}
{-0.837509}
{-0.448875}
{0.17542212}
{0.382335}
{-0.14253601}
{0.12514234}
{-0.1375116}
{-0.8586657}
{0.06176325}
{-0.034546867}
{0.032389466}
{-0.48342535}
{0.6651625}
{0.2241204}
{-0.5712448}
{-0.94374156}
{-0.7303242}
{0.47184557}
{0.5046254}
{-0.6186509}
{-0.6204274}
{0.34825772}
{0.93087476}
{-0.6608243}
{0.5365769}
{0.73207957}
{0.9401781}
{-0.17983526}
{0.1920864}
{0.8899462}
{-0.9083664}
{0.46399122}
{0.15741234}
{-0.09214141}
{-0.91140413}
{-0.7149217}
{-0.05899351}
{-0.561114}
{-0.20573877}
{-0.4814343}
{0.38000295}
{0.16313942}
{-0.28434557}
{0.953063}
{-0.008930223}
{0.056075078}
{0.48145267}
{0.61657166}
{-0.31276774}
{-0.34297416}
{-0.18377182}
{0.13480683}
{-0.8046969}
{-0.074078985}
{0.63875264}
{-0.7116051}
{0.7123597}
{0.61091197}
{-0.3552983}
{-0.750185}
{0.038000643}
{-0.6050788}
{-0.052702427}
{0.63494134}
{-0.3101133}
{-0.12679188}
{-0.8651076}
{-0.58185863}
{0.8710136}
{0.0936911}
{0.29367822}
{0.8474517}
{0.31320795}
{-0.93643445}
{0.7431988}
{0.034035433}
{-0.4062339}
{0.40665957}
{0.6480545}
{-0.733289}
{0.26023334}
{0.38530996}
{0.7405866}
{-0.1709215}
{-0.87222517}
{0.29206893}
{-0.14566225}
{-0.66593623}
{0.76140827}
{-0.119425215}
{0.920635}
{-0.47411165}
{-0.94178313}
{-0.48794788}
{0.25893095}
{0.52305406}
{0.43601605}
{-0.7824054}
{0.10632961}
{0.28130823}
{0.2957036}
{0.45486334}
{-0.19897786}
{-0.040074855}
{-0.6328695}
{0.31170434}
{-0.116678745}
{-0.54535985}
{-0.573073}
{0.4168816}
{0.5295164}
{0.51644117}
{-0.7792918}
{0.66373104}
{-0.6207317}
{0.8857088}
{-0.353934}
{-0.19940189}
{0.19857764}
{-0.58081317}
{0.2900486}
{-0.42678273}
{0.80504763}
{-0.20749635}
{-0.63919187}
{0.62340176}
{0.602208}
{-0.82611394}
{-0.08223395}
{-0.5844931}
{0.4067684}
{-0.7092929}
{0.5984903}
{0.49703616}
{0.76776636}
{0.7456236}
{0.9205268}
{-0.37780407}
{-0.11775647}
{-0.09484202}
{0.531646}
{0.58335936}
{-0.3589046}
{-0.4051358}
{-0.64339423}
{0.6936199}
{-0.6585923}
{0.8897679}
{0.3660714}
{-0.08158671}
{-0.7098103}
{-0.3400826}
{0.68055993}
{-0.38101527}
{-0.13113548}
{-0.69554424}
{-0.23586522}
{0.17960802}
{0.9938635}
{0.8045857}
{-0.850505}
{-0.0980558}
{-0.16267276}
{0.013893833}
{-0.28905156}
{-0.54089075}
{-0.79908127}
{0.033273924}
{0.84099865}
{0.741644}
{-0.24394481}
{0.99098945}
{0.69930595}
{-0.62216276}
{0.44372886}
{-0.69797015}
{0.98812735}
{-0.8586291}
{-0.1773793}
{-0.25483555}
{-0.6696942}
{0.31404778}
{0.2340496}
{-0.61560464}
{-0.13183415}
{0.16914634}
{0.06076952}
{0.5069794}
{0.23847054}
{-0.5693732}
{0.97389716}
{0.71101403}
{-0.4667599}
{-0.73128676}
{0.694678}
{-0.31820792}
{-1.0040323}
{0.87988067}
{-0.06684107}
{0.064277165}
{0.8691445}
{0.53707033}
{0.020980636}
{-0.91796255}
{0.30328357}
{0.3893578}
{0.27571398}
{-0.649997}
{-0.4220924}
{-0.5208371}
{-0.63709396}
{0.99683404}
{0.6050395}
{0.5189953}
{-0.45454708}
{0.7642081}
{0.395917}
{0.929987}
{0.38300386}
{-0.49903795}
{0.37948298}
{0.6345265}
{0.6755452}
{0.6312039}
{0.44101495}
{-0.9447738}
{0.18360282}
{0.50458217}
{0.62469286}
{0.29200974}
{0.62536585}
{0.014615288}
{0.15647566}
{-0.15469697}
{0.086567976}
{0.80717444}
{-0.46846384}
{-0.53449976}
{-0.957608}
{0.17420155}
{0.06874639}
{0.04360927}
{-0.5843723}
{0.41850597}
{-0.4936488}
{-0.051068112}
{-0.73112977}
{-0.45362014}
{0.3907518}
{-0.48368368}
{-0.55404896}
{0.8692434}
{0.7115603}
{-0.6894705}
{-0.5768058}
{0.74201703}
{-0.5465116}
{0.3282086}
{0.49256635}
{0.00645136}
{-0.5466307}
{-0.7497921}
{-0.6037391}
{-0.8161428}
{-0.57821065}
{-0.29897976}
{0.7589605}
{-0.21453398}
{0.01675743}
{-0.19526073}
{0.14377467}
{0.54649305}
{0.2311328}
{0.61932695}
{0.26999298}
{-0.54140615}
{-0.55050665}
{0.10453635}
{-0.22155675}
{0.77488756}
{-0.3976956}
{0.31376103}
{-0.7923745}
{-0.79231}
{-0.30157715}
{0.4334345}
{1.000052}
{-0.8889804}
{-0.24530907}
{0.03715674}
{0.59278834}
{0.5778167}
{0.71070415}
{0.053856682}
{-0.7166395}
{0.98139024}
{0.14113994}
{0.75260127}
{-0.50453776}
{0.75577545}
{0.15498754}
{-0.47086465}
{0.5130258}
{-0.3547024}
{0.013439662}
{-0.8570285}
{0.7609698}
{0.17809659}
{0.08572474}
{-0.53259003}
{-0.19854368}
{-0.8191762}
{0.25256053}
{-0.42081445}
{-0.9936086}
{0.342346}
{0.3297348}
{0.375373}
{0.7907999}
{0.067622885}
{0.71304053}
{-0.027625212}
{-0.5686684}
{-0.44319552}
{0.03522531}
{0.13926841}
{-0.7914778}
{0.90228224}
{-0.35267892}
{0.13730642}
{0.2664551}
{-0.07887752}
{-0.35346103}
{0.39541128}
{0.15176544}
{0.5948634}
{0.46268672}
{0.6935609}
{-0.35452282}
{-0.953022}
{-0.9500973}
{-0.4841482}
{-0.21565361}
{-0.80020833}
{-0.50357026}
{-0.2595966}
{0.6996641}
{-0.9459455}
{0.83768874}
{-0.31128365}
{0.05848492}
{-0.28274435}
{-0.9498512}
{-0.54843277}
{-0.14295982}
{0.47104007}
{-0.2053611}
{0.5306285}
{0.12587377}
{0.22997361}
{-0.48547095}
{0.24242309}
{-0.53233904}
{-0.5815356}
{-0.721792}
{0.61717236}
{0.9612066}
{-0.72844243}
{-0.24567042}
{0.6128296}
{-0.74183834}
{-0.1556887}
{-0.57607144}
{0.9809381}
{-0.36931336}
{0.46347553}
{-0.7561667}
{0.17080869}
{-0.7393955}
{0.45015746}
{0.86473256}
{-0.25610453}
{-0.22994861}
{-0.69309974}
{0.7080801}
{-0.7262153}
{-0.35567215}
{0.68531036}
{0.6160732}
{0.34507412}
{-0.120438606}
{-0.6890321}
{-0.3801881}
{-0.54956275}
{0.83210623}
{0.7671094}
{0.11017054}
{0.4509399}
{-0.48167112}
{0.04443144}
{-0.32355198}
{0.14914164}
{0.22780462}
{-0.702502}
{0.86095876}
{-0.23828076}
{1.0252191}
{0.27151328}
{0.7201028}
{-0.91458434}
{-0.15140812}
{0.5826254}
{-0.29847375}
{0.37350392}
{-0.52928656}
{-0.7644427}
{-0.50897646}
{-0.13708766}
{-0.5794912}
{0.87825155}
{-0.2000472}
{0.90014017}
{-0.27997717}
{0.18194681}
{0.6663105}
{-0.35607952}
{-0.92473197}
{0.25922066}
{0.055392638}
{-0.7726766}
{0.6529539}
{-0.8347826}
{-0.335868}
{0.67131335}
{-0.010483812}
{0.3717361}
{-0.18723755}
{-0.5129498}
{0.5849187}
{0.8927119}
{0.38201618}
{-0.56052136}
{0.64301014}
{0.33055335}
{0.56106454}
{0.7857389}
{0.56370753}
{0.72626376}
{-0.7162567}
{-0.050838973}
{0.61719054}
{-0.14342779}
{0.16068299}
{0.8558913}
{-0.49518415}
{-0.94843435}
{-0.7576539}
{0.5687863}
{0.4485911}
{-0.94753957}
{0.0896318}
{-0.61922276}
{0.6561124}
{-0.62195015}
{0.06980285}
{-0.10126039}
{-0.52032167}
{-0.67819405}
{0.2775766}
{-0.00044843112}
{-0.25972214}
{-0.103356384}
{-0.96131116}
{-0.6238572}
{0.38437414}
{0.08896178}
{-0.44143373}
{-0.03887087}
{-0.11872524}
{-0.050044347}
{0.6920706}
{0.1801649}
{-0.7126369}
{0.5965266}
{0.50614893}
{-0.60742944}
{-0.66132224}
{-0.3940193}
{-0.12553059}
{0.3410079}
{0.50566185}
{-0.19650763}
{-0.019267019}
{0.6774549}
{-0.62800974}
{0.91521335}
{0.6966657}
{0.76830673}
{0.088270076}
{0.6960573}
{-0.31691033}
{-0.2184117}
{0.33208454}
{0.677402}
{-0.22437759}
{-0.70571554}
{0.8053516}
{-0.80654407}
{-0.41466174}
{-0.39660212}
{0.55220497}
{0.49839452}
{-0.20053965}
{-0.3874111}
{0.28334445}
{-0.6041069}
{0.5108462}
{-0.3394159}
{0.90687376}
{0.8803606}
{-0.13467103}
{0.87739325}
{0.45994496}
{0.9361832}
{-0.10902557}
{0.23375708}
{0.15377638}
{-0.43099183}
{0.66681516}
{-0.38013732}
{-0.45159426}
{0.32933098}
{-0.8848857}
{-0.47588417}
{0.5766437}
{0.95895624}
{-0.7982637}
{-0.021710908}
{0.3430244}
{0.039537422}
{-0.15621397}
{-0.99605817}
{-0.905955}
{0.76439166}
{0.63653934}
{-0.3004687}
{0.16402689}
{0.9459331}
{0.5162387}
{0.10574875}
{0.36958855}
{0.055949442}
{0.488359}
{0.05157327}
{0.51834714}
{-0.44794267}
{0.9830968}
{-0.33805805}
{-0.16473816}
{-0.7923949}
{-0.93627095}
{-0.8298723}
{-0.4774018}
{0.9271133}
{-0.11759447}
{0.22503354}
{-0.009440766}
{-0.4992704}
{0.72423226}
{0.57257056}
{0.67682755}
{-0.455882}
{0.1570872}
{0.7308449}
{0.28361747}
{-0.626601}
{0.5076848}
{-0.48779988}
{-0.75329137}
{-0.47650826}
{-0.17951056}
{-0.59318435}
{0.59364986}
{0.9089129}
{-0.38794976}
{0.6549185}
{0.2766071}
{-0.84547377}
{-0.109156795}
{-0.8171086}
{0.21169905}
{-0.1205165}
{-0.014699783}
{-0.6599524}
{0.8655273}
{0.3318742}
{0.6006169}
{0.8106009}
{-0.96718645}
{0.5279275}
{0.4899724}
{0.64316493}
{0.48663315}
{-0.8077254}
{-0.8438867}
{-0.71043}
{-0.37737375}
{0.6691122}
{-0.71302354}
{-0.742878}
{-0.2337288}
{0.05623006}
{0.010574505}
{1.0361457}
{1.0555938}
{-0.5164666}
{-0.7689658}
{-0.4895725}
{-0.34212497}
{-0.42921013}
{0.28916845}
{-0.5809356}
{-0.8927917}
{-0.7749412}
{-0.5153961}
{-0.47680536}
{0.78932446}
{0.28988558}
{0.4042123}
{-0.30226862}
{-0.30311137}
{0.729357}
{-0.8164865}
{-0.32960853}
{-0.48568362}
{-0.48164386}
{-0.6381864}
{-0.25825113}
{-0.6669651}
{0.20396096}
{-0.30048358}
{0.25871122}
{-0.24450117}
{-0.42641658}
{0.56311667}
{0.84261304}
{0.8860248}
{0.47309452}
{0.0052584726}
{0.16692944}
{0.027879218}
{1.0080776}
{1.0496645}
{0.70346797}
{0.038711317}
{0.46078402}
{0.75049835}
{-0.95338875}
{0.5674703}
{0.2083047}
{-0.045829054}
{-0.85769206}
{-0.7204098}
{-0.833617}
{0.79067016}
{0.72084504}
{-0.1167468}
{0.52241534}
{-0.020450678}
{0.4601079}
{0.7466723}
{0.7710438}
{0.09246165}
{0.46462357}
{0.6858277}
{-0.28679913}
{0.26325098}
{-0.43530682}
{0.69405115}
{0.31759387}
{-1.0208694}
{-0.8804112}
{-0.39386514}
{0.2187584}
{0.19828415}
{-0.09148676}
{-0.33997706}
{-0.35598058}
{-0.89064586}
{0.45714098}
{-0.16816115}
{-0.48738196}
{0.43585095}
{0.2767129}
{0.002398038}
{0.15894847}
{-0.90025216}
{-0.5858097}
{-0.37643626}
{0.97657466}
{0.30141374}
{0.7972237}
{0.5268546}
{-0.15440124}
{-1.1130254}
{0.8470777}
{0.80328554}
{-0.65784717}
{-0.6515507}
{-0.8909094}
{0.34773645}
{0.43285257}
{-1.0572258}
{-0.50208235}
{0.5480919}
{-0.7972095}
{-0.84659195}
{0.5190086}
{-0.061744113}
{0.33484036}
{0.5260762}
{0.53376734}
{-0.68564224}
{-0.73630834}
{-0.48379448}
{0.12719128}
{0.06348431}
{-0.19766754}
{-1.0584087}
{0.19543166}
{-0.07957253}
{-0.3466813}
{-0.2692577}
{0.42285594}
{-0.7086476}
{0.25344044}
{0.7154709}
{-0.5627807}
{-0.77069026}
{-0.22055739}
{-0.84450626}
{-0.41642034}
{0.35261655}
{0.06331133}
{-0.48495814}
{-0.42730868}
{0.9363514}
{-0.5787649}
{-0.87544966}
{0.9783048}
{0.61704826}
{0.80089664}
{-0.93196523}
{0.72788143}
{-0.41279215}
{0.07231567}
{0.45549783}
{-0.7021509}
{0.01876263}
{-0.23104137}
{0.36550444}
{-0.3828689}
{-0.054213583}
{-0.14573687}
{-0.8087689}
{0.27328676}
{0.42378756}
{-0.62393403}
{-0.3856742}
{-0.6381266}
{0.1739399}
{0.2779854}
{1.0197088}
{0.96737194}
{-0.23960148}
{-0.8955114}
{0.60406405}
{0.43815458}
{0.73590136}
{0.5746906}
{-0.3046516}
{-0.9720791}
{0.60690457}
{-0.4783031}
{1.0379959}
{-0.07116965}
{-0.8587934}
{-0.25522417}
{-0.4449852}
{-0.11620801}
{0.4870383}
{0.59039617}
{-0.05869677}
{0.28504658}
{-0.5432491}
{0.36550194}
{0.59625155}
{-0.31615007}
{0.23944397}
{0.040001385}
{-0.35099486}
{-0.22603044}
{-0.6209342}
{-0.91067123}
{-0.47046226}
{0.09153926}
{0.50101775}
{0.18029505}
{0.05934729}
{0.8266319}
{-0.836739}
{0.26633507}
{-0.4056755}
{0.17851304}
{-0.4895197}
{0.14285515}
{-0.76663727}
{0.6715061}
{-0.81665945}
{-0.3399226}
{-0.8246093}
{-0.32638165}
{0.11938836}
{0.8346379}
{-0.8066957}
{0.2472555}
{1.0482274}
{-0.9300649}
{0.06542851}
{-0.1304074}
{-0.024261089}
{0.35622126}
{-0.60319567}
{0.2880862}
{0.89158934}
{0.14945723}
{-0.1615694}
{-0.23554298}
{-0.33863673}
{-0.62432003}
{-0.8632145}
{0.73266035}
{-0.80338144}
{0.6844907}
{-0.2518362}
{0.6099514}
{-0.1739006}
{-0.4293911}
{-0.082452655}
{-0.41805753}
{0.20932858}
{-0.960011}
{0.5162832}
{0.7272237}
{-0.5229751}
{-0.42307466}
{-0.19567294}
{0.7378952}
{0.3845827}
{-0.4398417}
{-0.7685741}
{0.7885327}
{-0.726443}
{-0.07579954}
{0.7877882}
{-0.96240145}
{0.69673723}
{0.89860034}
{-0.4937389}
{-0.6576243}
{0.31784883}
{0.2195006}
{0.5626357}
{-0.37364674}
{0.7606428}
{-0.6238899}
{0.29613817}
{-0.8969683}
{-0.1358356}
{-0.4305429}
{0.5664245}
{-0.8402658}
{0.3552351}
{-0.18612546}
{0.4112766}
{0.050777413}
{-0.67748}
{-0.56752896}
{-0.3585853}
{0.006542841}
{0.10528729}
{-0.13432258}
{0.86154264}
{0.7941022}
{0.04433848}
{-0.88712955}
{-0.4671077}
{0.007374352}
{0.2531381}
{-0.8983257}
{-0.5309664}
{0.59311587}
{-0.24088797}
{0.0561037}
{0.07334397}
{-0.3810406}
{0.02285566}
{-0.33372205}
{0.45442393}
{0.65046}
{0.2714051}
{0.8099849}
{-0.112380825}
{-0.04334237}
{0.81405824}
{-0.604722}
{0.032505263}
{0.7335499}
{0.54752725}
{-0.16603822}
{0.08576003}
{0.27700523}
{-0.25907576}
{0.48440558}
{-0.75245845}
{0.49925902}
{0.09384261}
{-0.39078802}
{0.49795172}
{0.5924678}
{0.09621182}
{-0.7981534}
{0.12988494}
{0.6290238}
{0.1641435}
{-0.52416205}
{0.7558216}
{-0.05977947}
{-0.49067485}
{-0.9388113}
{-0.67621464}
{0.4142927}
{-0.023680517}
{0.04380154}
{-0.46082768}
{-0.40965933}
{0.30152145}
{0.7448716}
{-0.78863466}
{0.23822097}
{-0.87513274}
{0.8802495}
{-0.52158606}
{0.6883349}
{-0.51712155}
{0.97627115}
{-0.94821495}
{0.8782064}
{0.8093422}
{0.31743628}
{-0.5997524}
{0.25656122}
{-0.6909946}
{0.26912552}
{0.76592803}
{-0.7046644}
{0.67139393}
{-0.05108457}
{-0.47676176}
{0.6469674}
{0.6663012}
{-0.35415596}
{0.5123339}
{-0.10397251}
{-0.08177361}
{0.76408124}
{0.4824449}
{0.03033079}
{0.5835971}
{0.25357038}
{0.024965484}
{-0.2042625}
{1.008256}
{0.5596895}
{-0.5389732}
{-0.21191931}
{0.8824447}
{0.54030275}
{-0.5169964}
{-0.95215976}
{0.32811195}
{0.25751454}
{0.7004337}
{-0.51611584}
{0.2822598}
{0.9357617}
{-0.10387466}
{0.052191164}
{-0.3397958}
{0.72415376}
{-0.93980926}
{-0.90346193}
{0.34903583}
{1.0355749}
{0.23222986}
{0.8868126}
{0.20781444}
{0.75734687}
{0.23689789}
{-0.40334615}
{-0.12085203}
{0.35795385}
{-0.4581559}
{-0.038180202}
{-0.4260634}
{-0.00904537}
{0.030218355}
{0.5887521}
{-0.028106758}
{0.6218169}
{-0.28580076}
{0.4056362}
{-0.06567225}
{0.7741294}
{-0.08657282}
{0.7296257}
{0.22754574}
{-0.056685988}
{-0.084242746}
{0.43520036}
{-0.52903086}
{0.17752033}
{0.9529646}
{-0.59779096}
{-0.13658819}
{0.18294317}
{0.21055734}
{-0.7217927}
{-0.6682997}
{-0.82655525}
{0.8915256}
{0.47139025}
{-0.9879625}
{0.8559725}
{0.24236363}
{0.47728625}
{-0.452114}
{-0.8551743}
{-0.29488355}
{-0.6535054}
{-0.95393753}
{0.02781533}
{-0.6829893}
{0.13563144}
{0.29710367}
{-0.06933434}
{0.58151263}
{0.12783873}
{0.0834822}
{0.7675059}
{0.47868484}
{0.4663843}
{-0.117115915}
{0.9731622}
{0.7801739}
{-0.53563416}
{-0.33313307}
{0.53198034}
{-1.0105156}
{0.4699488}
{0.23521397}
{-0.25430793}
{0.8731975}
{-0.8183371}
{0.84488225}
{-0.004697092}
{-0.96306384}
{-1.027605}
{-0.4463081}
{0.49876192}
{0.21939065}
{-0.91949135}
{0.8329799}
{-0.68087435}
{-0.29423264}
{-0.03581084}
{0.2309558}
{0.8128934}
{0.10669564}
{0.69782424}
{-0.2750999}
{-0.25304598}
{-1.049635}
{0.68275607}
{0.37162858}
{-0.7876284}
{-0.24031387}
{0.10222894}
{-0.24693061}
{0.054937117}
{-0.89832956}
{-0.093640305}
{-0.27168298}
{-0.72733855}
{0.5270525}
{-0.5796252}
{-0.7445674}
{-0.2663073}
{-0.018669242}
{-0.022895033}
{0.61870027}
{-0.96196866}
{0.38485727}
{-0.42765144}
{-0.55331606}
{0.74266744}
{-0.7702364}
{0.42244217}
{-0.44658718}
{-0.5413251}
{0.13591434}
{0.027100686}
{-0.6280585}
{0.54852533}
{-0.051504258}
{0.93924576}
{0.6831653}
{-0.49444762}
{0.48217705}
{0.053691674}
{-0.57918304}
{0.8646071}
{0.6977863}
{0.10091584}
{-0.48147362}
{0.49071485}
{-0.2989499}
{0.065194815}
{0.3049105}
{0.6764283}
{0.30996612}
{-0.9205784}
{0.4743684}
{0.7280059}
{0.8180623}
{0.16188583}
{0.7661724}
{-0.5755422}
{0.842001}
{0.12524973}
{0.4481962}
{0.3919657}
{0.5461337}
{-0.89628553}
{-0.44975546}
{1.0290713}
{0.085307784}
{-0.23279372}
{0.93555474}
{0.34309155}
{-0.7176688}
{-0.91958284}
{0.108383626}
{0.1709798}
{-0.33689135}
{-0.43444923}
{-0.7394296}
{-0.43067592}
{0.73943275}
{0.7059824}
{-0.81189024}
{-0.40432996}
{-0.12144665}
{0.04361994}
{0.25247946}
{-0.096739106}
{-0.19939803}
{-0.763144}
{0.804595}
{0.29590994}
{-0.2246796}
{0.46536806}
{0.5132021}
{0.4358533}
{0.5941104}
{-0.10098053}
{0.6946572}
{0.2798484}
{0.28855175}
{0.23657466}
{-0.8922308}
{0.45605737}
{-0.27697542}
{-0.078656085}
{0.8665441}
{-0.29443568}
{-1.0250003}
{0.19727445}
{0.1958216}
{0.4001761}
{-1.0200713}
{-0.88063395}
{0.5787531}
{-0.5991957}
{-0.7714354}
{0.27074564}
{0.25088382}
{0.12856477}
{0.7426883}
{-0.22133754}
{0.3449532}
{-0.13222426}
{-0.8810641}
{0.610579}
{-0.3076316}
{-0.7484548}
{0.57039183}
{0.6504975}
{-0.5685202}
{0.31997114}
{-1.0213782}
{0.39210117}
{0.64782387}
{-0.86991787}
{-0.4847783}
{-0.077478856}
{-0.8081479}
{0.5803199}
{-0.3848165}
{-0.3086348}
{0.7265431}
{0.75788903}
{0.20831089}
{0.18548758}
{-0.042260684}
{-0.90877986}
{0.4768825}
{0.2508128}
{0.8373324}
{-0.36069173}
{-1.2596473}
{0.54799175}
{0.1454413}
{-0.6138499}
{-0.0777112}
{0.735864}
{0.715803}
{0.64434075}
{-0.67267877}
{-0.35126284}
{-0.3321652}
{-0.34555024}
{-0.62244725}
{-0.13243125}
{0.7980738}
{-0.86897445}
{0.37328196}
{-0.021418218}
{-0.21647686}
{0.39714223}
{0.030583965}
{-0.032201327}
{0.9431247}
{-0.71379995}
{0.2478985}
{-0.33513328}
{-0.10196684}
{0.8385527}
{-0.88017327}
{1.0560353}
{0.61302966}
{0.32861906}
{0.8502959}
{0.36283007}
{0.5373307}
{-0.9118633}
{0.16422364}
{-0.6272982}
{0.7236616}
{-0.012801178}
{-0.7109202}
{0.3906632}
{-0.7169704}
{-0.2075755}
{1.0789925}
{-0.34396878}
{0.2847933}
{0.43521863}
{-0.7090471}
{0.5095669}
{-0.19521926}
{0.3208807}
{-0.92143965}
{-0.73267806}
{0.95293933}
{0.57775474}
{-0.8922446}
{0.6187615}
{0.1098348}
{0.92837214}
{0.6110385}
{0.20679401}
{-0.6906583}
{0.91542315}
{-0.07336769}
{0.87419015}
{0.053341698}
{-0.2867388}
{-0.52906996}
{-0.012648617}
{-0.0016983252}
{-0.68890834}
{0.13016957}
{0.8208279}
{-0.05247236}
{0.52113366}
{-1.0152471}
{-0.8432293}
{0.19169012}
{-0.87957764}
{-0.27108657}
{0.6054745}
{-0.4097363}
{0.55128384}
{-0.6684977}
{-0.815465}
{-0.21820903}
{-0.3391716}
{0.87151873}
{0.5234687}
{0.9753691}
{0.108722374}
{-0.2744676}
{-0.11853782}
{0.1046404}
{0.70952415}
{0.29504296}
{0.34389475}
{0.21611664}
{0.51848435}
{-0.13752274}
{-0.9116693}
{-0.16174474}
{0.6391244}
{0.5326897}
{0.84372026}
{-0.17625828}
{0.79909444}
{-0.89681774}
{-0.9702303}
{-0.6287222}
{-0.86316895}
{-0.33589756}
{0.45777845}
{-0.5093408}
{-0.6521313}
{-0.0034081638}
{-0.42028028}
{0.15938719}
{0.55179214}
{-0.35219613}
{0.83542955}
{-0.18613388}
{0.25847703}
{0.62164366}
{-0.370925}
{0.5484381}
{0.69341254}
{-0.6081421}
{-0.99264157}
{-0.102531776}
{-0.41223568}
{0.50562364}
{-0.3119151}
{-0.13335764}
{0.9018426}
{0.6062193}
{-0.21767494}
{-0.24015209}
{-0.5227423}
{-0.091151536}
{0.47669506}
{0.37258512}
{-0.6691885}
{-0.3880047}
{0.37070897}
{0.60263383}
{0.3001657}
{-0.30797756}
{-0.4275752}
{-0.432001}
{-0.6626334}
{0.885943}
{0.65685946}
{0.118033044}
{-0.1594407}
{-0.1186653}
{-0.1203473}
{-0.7965271}
{0.5992768}
{0.2647075}
{-0.16500154}
{0.049011778}
{-0.3826043}
{-0.7528169}
{-0.8520238}
{0.43926567}
{-0.0403786}
{-0.010280435}
{-0.5015386}
{-0.06674849}
{0.6007364}
{0.32854903}
{-0.86090183}
{0.9434701}
{-0.16230482}
{-0.29244134}
{0.16872622}
{-0.7327159}
{0.4972406}
{0.018265095}
{0.5628657}
{-1.0369434}
{0.7832413}
{0.89119637}
{-0.53427345}
{-0.6290299}
{0.87684226}
{0.102625124}
{0.47654855}
{0.84166026}
{-0.49093255}
{-0.5134172}
{0.31446525}
{-0.7405098}
{0.24243313}
{0.12012279}
{0.5915322}
{0.76339906}
{0.88854074}
{0.24872255}
{0.38572773}
{0.5296832}
{0.7705803}
{0.50891817}
{0.51916623}
{-0.654532}
{-0.35666627}
{-0.06345509}
{0.09423268}
{-0.5520762}
{0.033154953}
{-0.64454275}
{0.49547815}
{-0.6683698}
{0.24054486}
{0.550172}
{0.869235}
{1.0310462}
{0.36470586}
{-0.34383255}
{-0.6850497}
{0.67674106}
{0.9183297}
{0.5026812}
{-0.44017017}
{0.31920096}
{-0.028796446}
{-1.1253482}
{0.47419092}
{-0.85066396}
{0.08195348}
{0.13124081}
{0.88900125}
{-0.7835533}
{-0.48036355}
{0.2653665}
{-0.00850861}
{-0.59045655}
{0.7349098}
{0.25620046}
{0.54160887}
{-0.035134748}
{-0.5775907}
{-0.20260176}
{-0.66922635}
{0.37549198}
{0.05686926}
{-1.1846513}
{0.05912385}
{0.049816787}
{0.93835163}
{-0.65541697}
{-0.6220022}
{-0.7190149}
{0.49972227}
{-0.0078788735}
{0.5520911}
{-0.3999473}
{0.70034504}
{0.058266263}
{0.744339}
{-0.24243142}
{-0.8445084}
{0.7142986}
{-0.7591635}
{0.8436879}
{-0.9461236}
{-1.1134121}
{0.775886}
{1.0613395}
{-0.904011}
{-0.5188467}
{0.5604167}
{0.5617545}
{0.18219572}
{-0.23038702}
{0.4911027}
{-0.6208213}
{-0.094377816}
{0.029695584}
{0.51117027}
{-0.12262574}
{-0.33696407}
{0.5574021}
{0.24563935}
{-0.79842156}
{0.33432037}
{0.111233905}
{0.16705397}
{0.14086275}
{-0.36991876}
{-0.65374494}
{0.84980017}
{-0.12931632}
{0.49513847}
{-0.8242357}
{0.74019074}
{-0.76861215}
{0.68480635}
{0.21987392}
{-0.71398664}
{0.2723013}
{-0.7592392}
{0.79248565}
{0.78242016}
{0.34921095}
{0.96328306}
{-0.17967972}
{0.36872}
{-0.5186663}
{-0.8328426}
{0.7235839}
{0.6423847}
{0.3313794}
{0.79234004}
{-0.35610783}
{-0.37985787}
{-0.8218811}
{0.66125846}
{-0.74181104}
{0.24119242}
{0.48053133}
{0.1998499}
{0.4442607}
{0.71387887}
{-0.004617636}
{0.14044665}
{-1.0048515}
{-0.9536027}
{0.9117597}
{-0.014372833}
{-0.6125042}
{-0.8926848}
{0.021986378}
{-0.24972314}
{0.17017935}
{-0.123652406}
{0.7637774}
{-0.06768258}
{0.46041128}
{0.8407105}
{0.54339963}
{0.5880482}
{-0.96343946}
{-0.106269255}
{-0.6648791}
{-0.9230387}
{-0.83601576}
{-0.50759983}
{0.8647031}
{-0.35668343}
{-0.8988161}
{0.08743567}
{-0.5620291}
{-0.48007554}
{-0.73761797}
{-0.8015802}
{0.56747216}
{-0.19155353}
{-0.7595521}
{-0.8781938}
{-0.18275353}
{-0.28019518}
{0.15519562}
{-0.61007404}
{0.26646924}
{-0.7185545}
{-0.823491}
{0.45670056}
{0.18635681}
{-0.5017562}
{-0.48616832}
{0.09044084}
{-0.24444772}
{-0.44276208}
{-0.7250417}
{-0.9486173}
{0.2314068}
{-0.64884377}
{-0.44333363}
{-1.0779719}
{0.6991127}
{0.94345117}
{0.2764882}
{-0.183995}
{-0.090824336}
{-0.105358616}
{-0.03996862}
{0.011997241}
{0.7431215}
{-0.04375104}
{-0.9550377}
{0.3171278}
{0.07038554}
{0.70752454}
{-0.712522}
{-0.946374}
{0.26505786}
{0.6867721}
{0.4179979}
{-0.44453537}
{-0.8310904}
{0.5919068}
{0.369482}
{0.87478006}
{0.62086374}
{0.764081}
{0.13695171}
{0.3944302}
{-0.6789627}
{-0.8867612}
{0.51169604}
{-0.2672734}
{-0.8078547}
{0.79989505}
{0.73779124}
{-0.6232046}
{-0.055523667}
{0.66402674}
{0.3042248}
{-0.61562616}
{-0.7207925}
{-0.010321386}
{-0.6060862}
{0.5495003}
{0.38245615}
{-0.53317523}
{-0.7957209}
{0.4258029}
{-0.28686506}
{0.771137}
{0.53429073}
{0.39911467}
{-0.36935085}
{-0.3942806}
{0.8424159}
{0.59798914}
{0.6334809}
{1.0261197}
{-0.6239815}
{0.08405817}
{0.55659765}
{-0.7783618}
{0.77488434}
{0.24493094}
{0.72621703}
{-0.4108588}
{0.65426993}
{0.51706845}
{-0.44156966}
{0.20793158}
{-0.53770036}
{0.5752618}
{0.55421287}
{0.41425306}
{0.5616528}
{-0.59098923}
{0.70851004}
{-0.51856303}
{-0.7553986}
{0.45916554}
{0.5576709}
{-0.640913}
{0.047742445}
{-0.9466798}
{0.60909176}
{0.89753747}
{-1.0090483}
{-0.3603311}
{-0.855626}
{-0.7081132}
{0.7994196}
{-0.67956144}
{-0.7117283}
{0.32524306}
{-0.26116478}
{0.7331549}
{-0.43120766}
{0.030531634}
{0.24996881}
{-0.47908548}
{-0.05293849}
{0.010912887}
{0.7557474}
{-0.067903556}
{-0.5848896}
{-0.81083727}
{-0.8033349}
{0.14103338}
{-0.09183016}
{-0.8074596}
{0.5810025}
{-0.16747336}
{-0.030377178}
{0.07506606}
{-1.0140134}
{-0.6256547}
{-0.6379928}
{0.8690002}
{-0.036774263}
{0.9020045}
{0.0929144}
{0.21902019}
{-0.28708977}
{-0.7753824}
{0.08138074}
{-0.31052893}
{-0.6976373}
{-0.0031037547}
{0.5588699}
{-0.7873275}
{-0.8700945}
{0.47605902}
{-0.55595887}
{-0.27818006}
{-0.33570683}
{0.76869804}
{-0.49884552}
{-0.5506592}
{0.20771511}
{0.111097634}
{0.5613632}
{0.33590633}
{-0.42179123}
{0.07802113}
{-0.40706}
{-0.2707879}
{-0.16796854}
{-0.8493072}
{0.7253815}
{-0.2711255}
{-0.3534988}
{0.579604}
{-0.5817843}
{-0.9043069}
{-0.42488128}
{-0.8203843}
{0.015586341}
{-0.36642164}
{-0.26780954}
{0.24371777}
{-0.1226723}
{-0.049642373}
{-0.45549318}
{-0.35716093}
{0.5924215}
{-0.010586746}
{-0.7674082}
{-0.44117412}
{-0.16090398}
{-0.361798}
{-0.6427087}
{-0.2259871}
{-0.6082794}
{0.25238115}
{-0.82502615}
{0.92266196}
{0.5242968}
{0.79692984}
{-0.23390144}
{0.9843026}
{0.121368855}
{0.21929199}
{0.742266}
{-0.32322684}
{0.2434118}
{0.6604507}
{-0.78469104}
{0.6378942}
{0.8101545}
{0.48944193}
{-0.35657668}
{-0.5708772}
{-0.2968458}
{-0.87580776}
{-0.8905027}
{0.38212782}
{0.7671024}
{0.08518071}
{-0.11092519}
{0.6819992}
{0.59019065}
{-0.27414745}
{-1.0383327}
{-0.45241457}
{-0.09533558}
{-0.6284511}
{-0.6793636}
{-0.079265}
{-0.668865}
{-0.029640924}
{0.645379}
{0.7987432}
{-0.63696617}
{0.71167636}
{0.3091454}
{0.8095808}
{-0.49941275}
{-0.9531455}
{-0.48551342}
{0.57486826}
{0.74108994}
{0.8975961}
{0.5794446}
{-0.45184094}
{-0.025268948}
{0.8632505}
{-0.2744159}
{0.89329654}
{1.0214266}
{-0.351273}
{-0.105725706}
{-0.79149294}
{0.69045025}
{0.6278088}
{0.72724533}
{-0.30420524}
{-0.32597408}
{0.009850494}
{0.69892234}
{-0.3574284}
{-0.17199}
{0.81214}
{0.3087026}
{-0.5174818}
{-0.5538707}
{0.08852881}
{-1.015592}
{0.59386194}
{0.29252535}
{-0.86867285}
{-0.84850734}
{-0.12801494}
{-0.016227944}
{-0.3508131}
{0.46205243}
{-1.0321537}
{-0.6172286}
{-0.20693725}
{-0.45364618}
{0.036677916}
{0.2594738}
{-0.60202456}
{0.50592583}
{0.8602278}
{-0.45248446}
{-0.68585587}
{-0.2074855}
{0.6814412}
{0.03045338}
{-0.23340982}
{0.81045425}
{0.15303862}
{-0.7991329}
{-0.95081854}
{-0.9121772}
{0.48699474}
{0.9523345}
{0.37391573}
{0.49080405}
{0.13790874}
{0.7388156}
{-0.20430511}
{0.9500857}
{-0.39071667}
{0.37723348}
{-0.08746131}
{-0.92185795}
{0.9572661}
{-0.34915346}
{-0.2779252}
{-0.7223096}
{-0.4202048}
{0.6344998}
{0.9038899}
{0.42508018}
{0.7612653}
{0.2842517}
{-0.14856333}
{-0.21875963}
{-0.9719782}
{0.7040704}
{-0.66090345}
{0.8768052}
{-0.045070875}
{-0.5214065}
{0.34009057}
{0.04193553}
{-0.8287842}
{0.97538364}
{-0.24569863}
{0.4752762}
{-0.94113976}
{0.0017348044}
{0.088387676}
{-0.125704}
{-0.5526302}
{0.56401676}
{-0.8240323}
{0.47689152}
{0.120723255}
{-0.026307503}
{0.841954}
{-0.80464256}
{-1.0111876}
{0.12727669}
{-0.3583688}
{0.2993548}
{0.65656066}
{-0.4242457}
{-0.88802576}
{0.37974986}
{-1.1129543}
{0.7602999}
{0.21424538}
{0.57214975}
{0.5328535}
{0.79865795}
{0.24105388}
{-0.9872354}
{0.61445946}
{0.039917793}
{0.8437085}
{-0.96775794}
{0.27325857}
{0.935976}
{-0.86740613}
{0.78294426}
{-0.9881962}
{-0.11859069}
{0.9170091}
{-1.2155012}
{-0.46623656}
{-0.00029503455}
{-0.09675842}
{-0.57443476}
{-0.009107066}
{0.6243022}
{-0.76205325}
{-1.0886132}
{-0.43636656}
{-0.14079045}
{-0.88559175}
{0.4538975}
{-0.7016414}
{0.9516796}
{-0.9376366}
{0.4158647}
{0.5805691}
{0.7428037}
{-0.4279179}
{-0.029314358}
{-0.961511}
{-0.07500197}
{-0.20880622}
{-0.30363575}
{-0.5187279}
{0.9214025}
{0.20878059}
{0.32000542}
{-0.10129545}
{0.03730491}
{-0.28243393}
{-1.0324757}
{0.5894013}
{0.9439826}
{-0.30245203}
{-0.31736794}
{0.8699631}
{-0.05022076}
{0.19629556}
{0.5568622}
{0.6015065}
{-0.40923014}
{0.34060794}
{-0.4876881}
{-0.78179884}
{0.2199765}
{-0.08872469}
{-0.5855297}
{0.788146}
{0.98110944}
{0.2879675}
{-0.92127115}
{0.08925278}
{0.40861517}
{-0.60203266}
{0.6295166}
{0.7898817}
{-0.46824336}
{0.30272394}
{-0.42780325}
{-0.52933395}
{-0.45932898}
{-0.9130573}
{0.8503516}
{0.80625373}
{0.7973567}
{-0.51405764}
{-0.23803097}
{0.379472}
{0.5413805}
{-0.14849967}
{-0.33896202}
{0.34271932}
{-0.3662113}
{-0.4378659}
{0.46080744}
{0.93694305}
{-0.042297084}
{-0.93208647}
{-0.598524}
{-0.78242266}
{0.11659675}
{-0.49273193}
{-0.05561671}
{-0.5079089}
{0.42305794}
{-0.42803186}
{-0.10675252}
{0.7864456}
{0.8923306}
{-0.6678126}
{0.57944053}
{-0.16413914}
{0.96026045}
{-0.21232766}
{-0.41008493}
{0.7705811}
{0.58713967}
{-0.9419246}
{0.45264804}
{-0.072549924}
{-0.8108926}
{0.61500406}
{-0.24425055}
{-0.8990246}
{0.49266812}
{0.0065126335}
{0.42242253}
{-0.6700069}
{0.3742007}
{-0.16049284}
{0.6833906}
{-1.100714}
{-0.18624023}
{0.1208729}
{-0.89327586}
{0.46383187}
{0.71616584}
{-0.92427564}
{0.3603075}
{-0.7562198}
{-0.9302443}
{-0.2841589}
{-0.9476034}
{-0.5078261}
{0.8972559}
{0.7536659}
{-0.46792236}
{0.37422734}
{1.0447342}
{0.4093328}
{0.2544435}
{-0.94762844}
{-0.59045327}
{0.4055887}
{0.5045331}
{-0.510022}
{-0.3204179}
{0.38962513}
{-1.193729}
{0.83537114}
{1.0862257}
{0.5099279}
{-1.2180787}
{0.6855641}
{-0.38951835}
{-0.15525669}
{-1.01987}
{0.43421155}
{-0.2737929}
{-0.5730159}
{0.31057253}
{0.5025038}
{-0.31561515}
{0.5448818}
{-1.1033826}
{0.8249446}
{-0.4535713}
{0.12636535}
{-0.93364215}
{0.5799006}
{0.54511327}
{-0.80132055}
{0.20290576}
{-0.897775}
{0.5103742}
{0.08174057}
{-0.4975994}
{0.4250582}
{-0.17160264}
{-0.23708886}
{-0.74114746}
{-0.06055287}
{0.8402081}
{0.09846084}
{-0.73766834}
{-0.62427664}
{0.021779817}
{0.86948276}
{-0.13797414}
{-0.8569321}
{-0.15103938}
{0.98293424}
{-0.20487195}
{-0.4451733}
{-0.78971803}
{0.32323414}
{0.44217312}
{-0.78644776}
{0.06616629}
{0.00092124124}
{0.28563505}
{-0.87404007}
{1.0715736}
{0.74328685}
{-0.5533039}
{0.41809013}
{0.44872192}
{-0.2682709}
{0.39225748}
{0.44502333}
{0.26078773}
{-0.15322083}
{0.5304127}
{-0.26903713}
{0.16773678}
{0.98590183}
{0.9400789}
{-0.3610767}
{0.891467}
{-0.294311}
{0.13358931}
{0.7181273}
{0.7638199}
{-0.9358673}
{-0.06313812}
{-0.030416513}
{0.11363045}
{-0.39867228}
{0.0011999968}
{0.00077617425}
{-0.54481524}
{-0.77365375}
{0.90276515}
{-0.989545}
{0.064802356}
{-0.6127329}
{0.5738076}
{-0.24206212}
{0.6737846}
{-0.9528024}
{-0.56849056}
{0.6749332}
{-0.13405013}
{-0.1440143}
{-0.7807573}
{0.7496496}
{0.8172765}
{0.4086905}
{0.80967736}
{-0.18592457}
{0.214006}
{-0.78281116}
{0.78348494}
{-0.7243392}
{0.6592227}
{0.85514593}
{-0.37348104}
{0.23383266}
{0.26492727}
{1.017384}
{0.17337589}
{0.12405605}
{0.23755413}
{0.54634404}
{0.3935705}
{-0.15036358}
{-0.6949891}
{-0.413629}
{0.092756785}
{-0.8845753}
{0.16819942}
{-0.8621805}
{-0.3808166}
{0.1912048}
{0.06344399}
{-0.59402156}
{0.024636667}
{0.67571926}
{0.43560597}
{0.28494865}
{0.6990331}
{0.52438176}
{-0.8194706}
{-0.8142755}
{0.1052994}
{-0.7490239}
{0.18859817}
{-0.26937407}
{0.6705651}
{0.2608937}
{0.99826777}
{0.051481}
{0.27301443}
{-0.067882344}
{-0.7250158}
{0.38239104}
{0.30380723}
{-0.85201514}
{0.9896696}
{0.13083571}
{0.02411825}
{-0.77525276}
{-0.560721}
{0.6783047}
{-0.47958636}
{0.15943111}
{0.5790163}
{-0.037920263}
{-1.0405467}
{-0.704906}
{-0.061012376}
{-0.040216}
{-0.8471444}
{-0.3294451}
{-0.0034088537}
{-0.4225523}
{0.6255681}
{0.58081865}
{0.3605823}
{0.30209023}
{0.5505633}
{0.824432}
{-0.398504}
{0.3882528}
{-1.0017169}
{0.3199769}
{-0.5755093}
{-0.32732695}
{-0.3638574}
{0.1189115}
{-0.063443705}
{-0.4496817}
{-0.76680523}
{-0.8846428}
{0.1951149}
{0.67029023}
{-0.47367397}
{-0.85353243}
{-0.15424861}
{-0.5146117}
{0.6055921}
{0.58330214}
{-0.53561676}
{-0.33291024}
{-0.41015446}
{-0.07818682}
{-0.31755129}
{-0.6086848}
{-0.82797086}
{1.0000455}
{0.22685218}
{0.8037634}
{0.34075132}
{-0.23988794}
{-0.2452144}
{-0.21343845}
{0.35412037}
{-0.61611336}
{-0.2806955}
{-0.20976561}
{-0.5186799}
{-0.6340746}
{0.9115366}
{0.853596}
{0.6865628}
{0.65791184}
{-0.73478204}
{-0.44132584}
{-0.6795167}
{0.50107634}
{-0.9477768}
{0.95988464}
{0.13536394}
{-0.30745494}
{-0.876896}
{0.94167495}
{0.60431445}
{0.41469583}
{0.5524816}
{-0.31387395}
{0.93317574}
{0.54090005}
{0.40699267}
{-0.49542823}
{-0.68197495}
{-0.95384437}
{-0.34313592}
{0.9972379}
{0.58058804}
{0.08210723}
{-0.8122043}
{0.68351674}
{0.39741495}
{-0.4273056}
{-0.76643014}
{-0.30794257}
{0.2977217}
{-0.20934965}
{0.35188258}
{0.25143367}
{0.522073}
{-0.24317822}
{-0.19850679}
{-0.042766847}
{0.13078155}
{-0.20099336}
{0.93788433}
{-0.84750175}
{-0.3046155}
{-1.0663208}
{1.0116231}
{0.7961004}
{-0.6027867}
{0.3789774}
{0.59571797}
{0.97317886}
{0.348137}
{0.43555197}
{0.69661623}
{-0.6800668}
{-0.7467704}
{-1.0618215}
{0.048114117}
{-0.66719484}
{0.25078136}
{-0.9966006}
{-0.40793306}
{0.9977925}
{-0.90947586}
{0.39128616}
{0.7527788}
{0.59615445}
{0.64783067}
{-0.28435937}
{0.33018973}
{-0.69201994}
{0.580813}
{0.7693568}
{-0.7672744}
{0.535362}
{0.27066457}
{0.28140607}
{0.573753}
{-0.45446438}
{0.29237366}
{-0.11768843}
{-0.43976143}
{0.3302787}
{-0.14885484}
{-0.28067526}
{-0.38138023}
{-0.9317126}
{-0.50119615}
{-0.40264657}
{-0.42955717}
{-0.039011985}
{0.6868974}
{0.6752927}
{0.08913242}
{0.5010181}
{0.39533803}
{-0.65058184}
{-0.1275037}
{0.3263591}
{0.21001594}
{0.14468925}
{0.2978771}
{0.46057016}
{-0.30206224}
{-0.64798075}
{-0.10446171}
{0.8794761}
{-0.17505977}
{-0.93910027}
{1.0034052}
{1.0078647}
{0.85822594}
{-0.5567389}
{-0.52120775}
{-0.6927383}
{-0.12206024}
{0.96935093}
{0.07777861}
{0.4571963}
{-0.52716964}
{-0.8843704}
{0.04670743}
{-0.59971166}
{0.18932553}
{0.06703011}
{0.294179}
{0.57939124}
{-0.5302088}
{-0.12743954}
{0.91950387}
{1.018429}
{-0.028201783}
{0.12988815}
{0.07661937}
{-0.34071225}
{-1.0109799}
{0.3584437}
{-0.29573295}
{-0.1875028}
{0.91647416}
{0.27080873}
{-0.06838352}
{0.6307895}
{-0.9561301}
{-1.0104296}
{-0.3248112}
{-0.6608865}
{-0.6828742}
{-0.66871053}
{0.80696756}
{-0.91032934}
{0.60702914}
{0.7756193}
{-0.019832004}
{0.80969477}
{0.60433894}
{-0.074637175}
{0.31017107}
{0.03262757}
{-0.62126845}
{0.9059816}
{0.21123613}
{0.4589823}
{0.16799845}
{-0.61471975}
{0.44817975}
{0.18594986}
{-0.14863153}
{-0.4613128}
{-0.78653777}
{-0.30986327}
{0.5836928}
{-0.7865837}
{-0.11622107}
{0.7989981}
{-0.786553}
{0.2626217}
{0.5796296}
{0.8818183}
{-1.0276845}
{0.6102212}
{-0.79005903}
{-0.6816051}
{0.21009433}
{0.13539189}
{-0.3668063}
{0.12359946}
{-0.797038}
{-0.8334353}
{-0.28660768}
{0.4655903}
{0.45287707}
{0.052510165}
{-0.5811633}
{-0.09337455}
{-0.6837257}
{0.8899713}
{-0.0036840716}
{-0.6032982}
{-0.303181}
{-0.31437117}
{-0.6257993}
{-0.5196917}
{0.6097581}
{0.64698935}
{0.8531586}
{-0.80289364}
{0.3883601}
{0.46357873}
{0.3470622}
{-0.93909955}
{0.87040085}
{-0.935055}
{-0.48433265}
{-0.2969193}
{-0.3030353}
{-0.08689778}
{0.19650054}
{-0.6275139}
{0.3891766}
{-0.4634353}
{-0.92861664}
{-0.7471349}
{-0.16442618}
{0.12425715}
{-0.41798505}
{-0.56412506}
{-0.37899607}
{-0.39218274}
{0.3650521}
{0.8247671}
{-0.8574044}
{-0.67645574}
{-0.51755995}
{0.1940878}
{0.59019935}
{-0.51916456}
{-0.64476514}
{-0.52934504}
{0.48021755}
{0.17208834}
{-0.013864253}
{-0.62995887}
{0.6161116}
{-0.29473552}
{-0.32185745}
{0.11622636}
{1.0786569}
{0.40311277}
{0.74818003}
{-0.10097007}
{0.48678663}
{0.17640819}
{0.21067095}
{-0.54841924}
{-0.3247206}
{-0.7570905}
{0.5622998}
{0.7143111}
{-0.9596386}
{-0.23422472}
{0.32322195}
{0.9233718}
{-0.15846425}
{-0.5248421}
{-0.812929}
{0.84449434}
{-0.6164359}
{-0.47715452}
{0.5892698}
{-0.8483515}
{0.5820516}
{0.1965125}
{-0.8705162}
{0.06840061}
{-0.35973465}
{0.64716053}
{0.27215427}
{0.18267375}
{-0.35470283}
{-0.53911275}
{-0.8201866}
{0.074568}
{-0.11468906}
{0.42062408}
{0.43463185}
{0.73932266}
{-0.8350374}
{-0.3148947}
{-0.45056048}
{-0.92178154}
{-0.4668408}
{0.6806988}
{0.51537585}
{0.30069762}
{-0.8691447}
{0.4672219}
{0.09605499}
{0.016127815}
{0.7363497}
{0.14228623}
{-0.39801314}
{-0.66630244}
{0.016721983}
{0.020171443}
{1.0675039}
{-0.5096171}
{-0.48597464}
{-0.4913513}
{-0.38079223}
{-0.028557073}
{-0.54531777}
{0.43368325}
{-0.63185215}
{0.015316239}
{0.57760143}
{-0.173817}
{1.0082027}
{0.10045616}
{0.18561155}
{0.5153595}
{0.6532224}
{0.003899089}
{0.21188644}
{-0.3089982}
{0.048800517}
{-0.41311616}
{0.6254285}
{0.82071626}
{-0.27278355}
{-0.59374595}
{-1.0430025}
{0.7101776}
{-0.38549966}
{0.65368295}
{-0.89445484}
{-0.9618095}
{0.33816168}
{0.2524522}
{-0.9533505}
{-0.17103575}
{0.78325504}
{-0.6992638}
{-0.52378905}
{-0.30761984}
{0.5466923}
{-0.39507908}
{-0.62279165}
{0.72968155}
{0.623872}
{0.41877848}
{-0.332266}
{0.05685733}
{0.79846793}
{0.5819323}
{0.29284856}
{0.33479986}
{-0.9174587}
{-0.7189586}
{-0.6581277}
{0.3068482}
{-0.07983033}
{0.8612945}
{-0.736459}
{-0.12086806}
{0.8286762}
{-0.1325683}
{0.70928884}
{0.38041273}
{0.08212742}
{0.33105832}
{-0.34819785}
{-0.12870613}
{-0.15200447}
{0.1845234}
{0.16482344}
{-0.40650105}
{-0.5412326}
{0.33724266}
{1.0352284}
{-0.06801961}
{-0.24215585}
{-0.30782574}
{0.5321964}
{0.7422426}
{0.8115389}
{0.4384914}
{0.9409882}
{-0.88690627}
{-0.15794618}
{-0.26443022}
{0.49572274}
{0.047302347}
{0.4516697}
{-0.78174424}
{-0.91726387}
{0.26326582}
{-0.28604892}
{-0.618299}
{-0.87899476}
{0.75570947}
{0.1504121}
{-0.7542114}
{0.81526184}
{0.02334753}
{0.22492865}
{0.5782554}
{-0.96316236}
{0.6089353}
{0.3509692}
{-0.76698303}
{-0.64400285}
{-0.003899777}
{-0.19534363}
{0.06874368}
{-0.55455464}
{0.54036504}
{0.059816256}
{0.46463996}
{-0.85270876}
{0.43485618}
{1.1524519}
{1.0295508}
{-0.52826935}
{-0.5755351}
{-0.34925446}
{-0.68904996}
{0.6770347}
{-0.32714403}
{0.40422052}
{0.47935635}
{-0.47418907}
{-0.61442417}
{-0.24487604}
{-0.2970466}
{-0.8121466}
{-0.32399407}
{0.64682597}
{0.10769813}
{0.31958312}
{-0.41745806}
{-0.2688894}
{-0.5415127}
{0.4469627}
{-1.0245149}
{0.61468303}
{0.5731504}
{-0.17543763}
{-0.19706377}
{0.8483015}
{-0.26826495}
{-0.9041438}
{0.4154602}
{0.23525873}
{0.14987446}
{0.14220381}
{0.79102004}
{0.5508412}
{0.48571903}
{0.32699344}
{0.47669667}
{-0.34228304}
{-0.9337683}
{0.56331843}
{0.6461831}
{0.22756268}
{0.46789318}
{-0.3015602}
{0.51440907}
{0.32626098}
{-0.38698906}
{0.9381026}
{0.64942294}
{0.8957881}
{-0.44239324}
{0.008970544}
{-0.52353597}
{-0.5705956}
{-0.016869314}
{-0.15548576}
{-0.11722778}
{-0.93414825}
{-0.20007485}
{0.071462974}
{-0.9418741}
{0.28682402}
{-0.7823365}
{-0.037357125}
{0.9683037}
{0.16880399}
{-0.17028803}
{0.66507286}
{-0.09795731}
{0.545606}
{-0.84572124}
{-0.12521128}
{0.15753461}
{-0.6939337}
{0.245148}
{-0.35244608}
{-0.48463985}
{0.54602367}
{0.032029856}
{-0.4661824}
{0.69674814}
{-0.29656595}
{0.9027138}
{-0.38218614}
{-0.8560962}
{0.15774113}
{0.5081994}
{0.76302516}
{-0.26306581}
{-0.09846152}
{-0.27598995}
{-0.43946844}
{0.28714463}
{-0.69770604}
{0.30767733}
{0.97464424}
{0.22184446}
{0.16874126}
{0.99289536}
{0.06906337}
{0.6416226}
{-0.83327127}
{-0.016488321}
{-0.8506379}
{0.14076023}
{0.88556653}
{-0.86575556}
{-0.3377688}
{0.8350481}
{-0.43967164}
{0.42543966}
{0.1424263}
{0.43137503}
{0.9835261}
{-0.28333682}
{-0.6422859}
{-0.7557587}
{-0.10678594}
{-0.78291464}
{-0.90396076}
{0.020614045}
{0.20738228}
{-0.7569828}
{-0.01414286}
{-0.42573422}
{-0.32303995}
{0.6096649}
{-0.4034878}
{0.6788984}
{-0.5486463}
{-0.22307724}
{0.61529416}
{-0.8548478}
{0.78109413}
{-0.5293579}
{0.7127327}
{0.7962953}
{-0.889433}
{-0.28122228}
{0.19025265}
{0.5988238}
{-0.5368904}
{0.5738604}
{0.08971742}
{-0.87668836}
{0.15995944}
{0.42527348}
{-0.8322514}
{0.022699205}
{-0.30069748}
{0.2594195}
{-1.008118}
{0.73629385}
{0.12086545}
{0.53872514}
{-0.658491}
{-0.21370788}
{-0.1713927}
{0.6243303}
{-0.85684985}
{0.22585782}
{-0.8989039}
{-0.80951667}
{-0.5991703}
{0.41339934}
{0.88059604}
{0.6403606}
{0.16872898}
{0.49544528}
{0.15596794}
{0.7066541}
{-0.8820725}
{-0.76626235}
{0.92616516}
{-0.23229903}
{-0.0761231}
{0.011659276}
{0.48710904}
{-0.30013865}
{0.37632057}
{0.8970772}
{-0.65045536}
{0.4062267}
{-0.6632277}
{-0.6239387}
{0.5691735}
{-0.5432234}
{0.54198605}
{0.10536121}
{-0.893398}
{0.6302364}
{-0.45919812}
{-0.096822485}
{0.5557395}
{0.12703437}
{0.42662588}
{0.15270501}
{0.31478512}
{0.75029206}
{0.24743581}
{-0.08264631}
{0.5769625}
{0.58999634}
{0.10562176}
{0.75349116}
{-0.24169171}
{-0.69424105}
{-0.48847696}
{0.2887062}
{0.26977572}
{0.08154173}
{-0.5542204}
{0.8560142}
{0.7812083}
{-0.8531213}
{-0.61108655}
{-0.11918616}
{-0.5943669}
{-0.56056}
{0.7576275}
{-0.9235354}
{-0.79871714}
{-0.84355927}
{-0.94595295}
{-0.41510966}
{0.37244493}
{-0.7985599}
{0.45775262}
{0.13271503}
{0.7630895}
{0.7864711}
{-0.6086009}
{-0.39819288}
{-0.15521431}
{0.05306243}
{-0.29628927}
{-0.5499807}
{0.938169}
{-0.54306245}
{-0.24505101}
{0.40458122}
{-0.7640011}
{-0.2127654}
{0.86312354}
{0.8847533}
{0.1398354}
{-0.365889}
{-0.45034456}
{-1.0338433}
{0.3971232}
{0.02128028}
{0.5498769}
{0.9427556}
{-0.90091866}
{0.07537815}
{-0.8570205}
{0.31518036}
{0.812586}
{0.7712617}
{0.6637687}
{0.12693098}
{0.3504403}
{1.0010788}
{-0.4472885}
{0.22448872}
{-0.23988298}
{-0.55428195}
{0.016364777}
{0.6958122}
{-0.36905152}
{0.6651647}
{-0.3023398}
{0.14493132}
{-0.38103}
{0.8676851}
{0.19490269}
{0.723497}
{0.3188219}
{-0.742949}
{-0.6771924}
{0.47078392}
{0.07702349}
{0.19616038}
{0.5507434}
{0.64160633}
{0.9205221}
{0.25042325}
{-0.37662235}
{-0.7430708}
{-0.18577525}
{0.17398697}
{0.05387915}
{0.4016333}
{-0.27153525}
{0.9189129}
{0.6778738}
{-0.83800906}
{-0.8756003}
{0.5041158}
{-0.6803715}
{-0.6860602}
{-0.09234991}
{0.52199674}
{-0.46345007}
{0.6120536}
{0.40369615}
{0.61194015}
{0.19296442}
{0.77967507}
{-0.3343988}
{0.8482423}
{-0.4160919}
{0.48280883}
{-0.67472553}
{-0.35151666}
{0.729632}
{0.87035114}
{-0.91658336}
{-0.14551514}
{-0.13997345}
{-0.43721503}
{0.64376557}
{0.6930437}
{0.6263272}
{1.0401052}
{-0.9063583}
{-0.35696238}
{-0.35614818}
{-0.018192325}
{-0.39935672}
{-0.056478083}
{-0.6430689}
{-0.82850635}
{0.35100624}
{0.5286294}
{0.55716914}
{0.658497}
{-0.21921976}
{-0.26888055}
{-0.7783354}
{-0.30055746}
{0.01521593}
{-0.39794582}
{-0.25893295}
{0.37980312}
{-0.17122394}
{0.5921464}
{0.54072106}
{-0.74088305}
{-0.29002553}
{-0.2782759}
{0.68232375}
{0.8686937}
{-0.17601046}
{0.5976913}
{-0.5532734}
{0.5834335}
{0.8953326}
{0.26277143}
{-0.71042365}
{-0.52677095}
{-0.7713611}
{-0.1474852}
{0.42739353}
{0.47521687}
{-0.27161464}
{-0.15630907}
{-0.2394599}
{0.43910587}
{0.031601124}
{0.4216786}
{0.84675545}
{-0.56743115}
{-0.49658984}
{-0.30810064}
{-0.77358294}
{-0.30551425}
{0.15418895}
{-0.32471532}
{-0.9062929}
{0.78181887}
{0.37714547}
{0.56694317}
{-0.59765244}
{0.62008166}
{-1.0335811}
{-0.32576913}
{-0.34904084}
{-0.8469932}
{0.86057734}
{-0.48361656}
{-0.6961524}
{-0.1135496}
{-0.08904172}
{0.6619029}
{-0.843722}
{0.119993515}
{0.4414511}
{0.3865283}
{0.04556121}
{-0.44746616}
{0.1006142}
{0.79528356}
{-0.6683575}
{-0.1982547}
{0.38183373}
{-0.95846295}
{-0.046423987}
{0.6995366}
{-0.3500507}
{0.13769409}
{-0.14947031}
{-0.38641572}
{0.26254585}
{-0.6667552}
{0.06977893}
{0.04636935}
{0.8747441}
{0.51428944}
{0.79313236}
{0.7680801}
{0.094330326}
{0.1871739}
{-0.7390236}
{-0.1424067}
{0.86520284}
{0.6408391}
{0.09229939}
{-0.7539034}
{0.35763907}
{-0.9216976}
{0.70724636}
{-0.48678958}
{0.5860609}
{-0.32163304}
{-0.0069820695}
{0.81372964}
{0.33930722}
{-0.35954112}
{-0.32014674}
{-0.94838023}
{-0.45187965}
{0.79163504}
{-0.54489267}
{-0.27480942}
{-0.3462222}
{0.056678526}
{0.89571685}
{-0.5460555}
{-0.1896892}
{-0.5936439}
{-0.30484542}
{0.8145132}
{-0.16815688}
{-0.413804}
{0.3627843}
{0.79766214}
{-0.9001599}
{0.49550778}
{-0.27540293}
{-0.042703476}
{-0.030644171}
{-0.46873283}
{-0.7839537}
{0.105230905}
{-0.032629818}
{-0.4153909}
{0.6250886}
{0.073642425}
{-0.48192173}
{-0.2961573}
{1.0532209}
{0.9542608}
{-0.6462937}
{0.7921655}
{-0.8713887}
{0.20015647}
{-0.4420048}
{0.085365005}
{0.25952604}
{0.045544773}
{-0.09427805}
{-0.60216}
{0.34779263}
{-0.023748828}
{-1.0378387}
{-0.81020164}
{1.0136502}
{-0.7300514}
{-0.21158026}
{-0.87344027}
{0.8335585}
{-0.62667704}
{0.6025777}
{0.7769227}
{0.7533884}
{-0.8314813}
{-0.044714972}
{-0.021881588}
{-0.53969646}
{-0.6860649}
{-0.2498589}
{0.029010523}
{0.359438}
{-0.0016514531}
{0.039718974}
{-0.866941}
{0.04038172}
{-0.046687834}
{0.8537266}
{-0.6816473}
{-0.00010844343}
{0.32903734}
{0.922919}
{0.0034110462}
{0.19891125}
{0.40243575}
{0.7028951}
{-0.24282712}
{-0.40435368}
{-0.54085046}
{0.85300595}
{0.2802828}
{0.56771505}
{-0.22739097}
{-0.00091495505}
{0.9122579}
{-0.8127499}
{0.417234}
{-0.7432669}
{0.8399832}
{0.31679326}
{-0.8415839}
{-0.63273215}
{-0.7180381}
{-0.87095666}
{0.8237005}
{0.2756357}
{0.9064038}
{-0.73640597}
{0.22057353}
{0.76355004}
{0.5411961}
{-0.12520632}
{0.3389657}
{0.7176025}
{-0.71951056}
{0.8690733}
{0.6392706}
{-0.46165752}
{-0.607409}
{-0.6619009}
{0.86164933}
{-0.81723064}
{-0.9162352}
{-0.91577977}
{0.41292518}
{0.6424341}
{0.85717773}
{0.5836966}
{-0.7650656}
{-0.044596393}
{-0.6080079}
{0.5888878}
{-0.506104}
{0.8675033}
{0.9484813}
{-0.890171}
{-0.37470835}
{0.55834395}
{0.9193406}
{-0.65266526}
{0.22597443}
{0.11847984}
{-0.8764727}
{0.25869074}
{-0.4035242}
{-0.15423283}
{0.10990183}
{0.067086846}
{-0.34142268}
{0.94351655}
{0.1927777}
{0.052593082}
{0.6325354}
{-0.904497}
{-0.8510339}
{-0.57443845}
{0.848161}
{0.15938449}
{-0.93714}
{1.0610712}
{0.34710068}
{-0.17211166}
{-0.048171327}
{0.3377236}
{-0.15872514}
{-0.94053996}
{-0.27934617}
{0.79824483}
{-0.40728423}
{-0.9146677}
{0.368352}
{-0.19712104}
{0.17557678}
{-0.4811903}
{0.8241999}
{-0.04612717}
{-0.26113874}
{0.7461041}
{-0.4209954}
{-0.3597751}
{0.7430059}
{0.9152787}
{-0.36288112}
{-0.2732424}
{0.7342135}
{-0.8492176}
{0.98804045}
{0.64921683}
{-0.53297037}
{-0.7256928}
{-0.96327496}
{0.9525022}
{-1.0178207}
{-0.3976369}
{-0.17003006}
{-0.80086243}
{-0.59092826}
{-0.4359689}
{0.27697664}
{0.5804796}
{0.81536967}
{-0.5748676}
{-0.43320984}
{0.7773197}
{0.48183465}
{0.44116172}
{-0.23749274}
{0.3170452}
{0.78942484}
{-0.3970291}
{0.894928}
{0.95556337}
{-0.5949043}
{-0.27022052}
{1.0142725}
{-0.6862691}
{-0.33566028}
{-0.06725293}
{0.26420313}
{-0.6615707}
{0.57058585}
{0.60181147}
{0.023418894}
{-0.45726582}
{0.6862365}
{0.32247272}
{0.9247277}
{0.26837254}
{0.41528833}
{0.54135686}
{0.069557644}
{0.7732597}
{0.95370823}
{-0.8641198}
{-0.60863566}
{-0.47975773}
{-0.635957}
{-0.8376228}
{-0.37270683}
{-0.4011815}
{-0.19680351}
{0.4417147}
{-0.73881316}
{0.11450098}
{-0.34750915}
{-0.701142}
{-0.44082826}
{0.14749366}
{-0.7397409}
{-0.2017773}
{0.6962509}
{-0.11136199}
{0.12888911}
{0.9770646}
{0.9754529}
{0.414308}
{-0.8873693}
{0.54336804}
{0.5587354}
{-0.48990753}
{0.14493106}
{-0.8529377}
{-0.5029173}
{0.44150287}
{0.070353985}
{0.9720717}
{-0.8280058}
{0.0365007}
{-0.060518518}
{-0.13823342}
{-0.24771684}
{-0.5706885}
{0.77081555}
{0.49539244}
{-0.92891884}
{0.73980445}
{0.083642215}
{0.21783853}
{0.4654699}
{-0.3468693}
{-0.75122064}
{0.15263061}
{0.80901265}
