-- Efficiency --
83.73333
-- Weights --
{0.2523834}
{0.90991414}
{-0.8223732}
{-0.9801209}
{-0.76475}
{-0.29037383}
{0.25170186}
{-0.07208101}
{0.78032494}
{0.65717334}
{0.10216795}
{0.44625515}
{0.12379355}
{0.681089}
{-0.03794983}
{0.7918829}
{-0.37969452}
{-0.21394327}
{-0.77339655}
{-0.007573076}
{-0.21992284}
{0.93380606}
{0.46777743}
{0.91581833}
{0.79868484}
{-0.9412198}
{0.4374925}
{-0.68111914}
{-0.52931774}
{-0.32273716}
{0.093201004}
{-0.63883054}
{0.90746}
{0.92378414}
{0.38481203}
{-0.8875599}
{-0.44988996}
{0.5555812}
{-0.33725318}
{-0.4461341}
{-1.0155938}
{0.4957307}
{0.8091938}
{-0.35684362}
{0.6032181}
{-0.02606239}
{-0.31540933}
{-0.5585868}
{-0.799834}
{-0.19251117}
{-0.17353544}
{0.018209469}
{0.76655674}
{0.74201375}
{-0.7622865}
{-0.3549618}
{-0.31092912}
{0.4509846}
{-0.008548233}
{0.8391902}
{-0.59722185}
{-0.21498832}
{0.16053903}
{-0.76717037}
{-0.5384531}
{0.7672334}
{0.7973428}
{-0.0069979504}
{0.91053176}
{0.3450278}
{0.78928447}
{0.6249696}
{-0.15417746}
{-0.25035986}
{-0.12820962}
{-0.19146857}
{-0.71109486}
{-0.55320686}
{-0.14590643}
{-0.4077179}
{-1.0194826}
{0.6700494}
{0.70327073}
{0.7744361}
{-0.5857444}
{0.29770324}
{0.5060258}
{0.93281555}
{0.7744136}
{-0.929779}
{-0.59375536}
{-0.60151184}
{0.587832}
{0.5092868}
{0.35549343}
{-0.06733345}
{-1.0276058}
{-0.10898694}
{-0.6724358}
{0.8503588}
{-0.2458685}
{-0.6036495}
{0.8493883}
{0.113455206}
{-0.36126572}
{-0.111975394}
{-0.6033656}
{0.08890054}
{0.31669158}
{-0.10031459}
{-0.6218787}
{-0.48047224}
{-0.16333848}
{0.6782127}
{0.89495355}
{-0.41789353}
{-0.63221526}
{0.37569964}
{-0.31999895}
{0.75288683}
{0.51894903}
{-0.9140445}
{0.07415397}
{0.8646246}
{-0.98627496}
{0.9636634}
{0.43934909}
{0.46789455}
{0.03930214}
{-0.7466922}
{0.7751807}
{-0.5514851}
{0.7465229}
{0.7123746}
{0.3753504}
{-0.06227322}
{0.2257337}
{0.18000008}
{-0.55417204}
{-0.5853939}
{-0.36307532}
{-0.58358324}
{-0.009429981}
{0.7174395}
{0.92530155}
{-0.49579144}
{0.16262162}
{0.062255934}
{0.09480387}
{-0.74107385}
{0.011621226}
{-0.5519425}
{-1.0274267}
{-0.9287857}
{-0.8490549}
{0.47561452}
{0.59142184}
{-0.65149826}
{-0.46315786}
{0.5755057}
{-0.9884198}
{0.22544281}
{0.24103415}
{0.4514683}
{0.8858919}
{-0.28484565}
{-0.76472384}
{-0.59272444}
{-0.12592308}
{-1.009634}
{0.82066715}
{0.47326255}
{0.25817198}
{0.14319117}
{-0.19236058}
{0.03360108}
{0.88335824}
{-0.6548373}
{0.6871644}
{0.20052768}
{-0.19853121}
{0.6888477}
{-0.8929658}
{-0.5964518}
{0.10992265}
{0.7742062}
{-0.7143925}
{0.4019397}
{-0.06151818}
{0.19107445}
{0.6034976}
{-0.4590571}
{-0.6673002}
{-0.69883263}
{0.22881539}
{-0.9665789}
{0.44889086}
{-0.6346222}
{0.7070658}
{0.6578704}
{0.4555921}
{-0.0968934}
{-0.5176077}
{-0.66053736}
{0.65721536}
{0.1437995}
{0.7466788}
{0.5544569}
{0.23718566}
{0.3927208}
{0.80648917}
{-0.31912798}
{-0.58889127}
{0.012242715}
{-0.0560128}
{0.23284379}
{-0.0601952}
{-0.763862}
{-0.052272424}
{-0.07382516}
{0.8835046}
{-0.45237195}
{-0.741856}
{-0.6955014}
{-0.9001241}
{-0.08256863}
{0.11003262}
{0.57685024}
{-0.94225097}
{0.13845961}
{-0.11636434}
{0.58229905}
{0.04630808}
{-0.16937786}
{-0.84560055}
{-0.33708566}
{-0.42540795}
{0.6638124}
{0.09624594}
{0.7394949}
{0.74080014}
{0.2729402}
{-0.46436617}
{0.64374304}
{-0.47211677}
{0.44753534}
{-0.6885285}
{-0.8180524}
{0.15504831}
{-0.77201235}
{-0.26606283}
{-0.48943716}
{-0.4580868}
{0.25407803}
{0.5505437}
{0.25577012}
{-0.005416385}
{0.15573984}
{0.41030082}
{0.87227833}
{-0.36715084}
{0.33960843}
{-0.93191814}
{0.8633211}
{0.87274146}
{-0.86893976}
{-0.43362013}
{-0.96635944}
{0.9551523}
{-0.32456014}
{1.0077313}
{-0.23921765}
{-0.36111718}
{-0.5336941}
{0.19597585}
{0.6599274}
{0.57866263}
{-0.10594398}
{-0.2982762}
{0.9427101}
{-0.6929076}
{0.46076164}
{0.10232297}
{-0.3414437}
{0.8752897}
{-0.20525038}
{-0.25222015}
{0.1498755}
{-0.3252805}
{0.33090532}
{0.6373067}
{-0.14269188}
{0.5753615}
{-0.33627814}
{0.7950796}
{-0.59493834}
{-0.14848424}
{0.27734047}
{0.41636336}
{0.51926947}
{0.09960417}
{0.28468242}
{0.7002472}
{0.59644157}
{0.33393115}
{0.14551376}
{-0.73511195}
{-0.9141253}
{-0.9884021}
{0.43183723}
{0.26496452}
{0.3074618}
{-0.81000566}
{-0.20665091}
{-0.3008761}
{-0.4152275}
{0.7863953}
{-0.751329}
{0.048871804}
{-0.2249568}
{0.9350691}
{0.03314822}
{0.18737416}
{-0.4507439}
{-0.45811898}
{0.46103168}
{-0.85742134}
{0.85973793}
{0.7054641}
{0.09084791}
{-0.72997487}
{-1.0055889}
{0.6791527}
{0.1994435}
{0.6126312}
{0.289036}
{0.16124266}
{0.23040116}
{0.8256608}
{0.2771493}
{-0.55758}
{0.6121336}
{0.2599634}
{-0.5869563}
{-0.36952907}
{0.88045484}
{-0.75231403}
{-0.90859544}
{0.07681282}
{-0.18667711}
{-0.0445892}
{0.6642859}
{0.35399932}
{-0.45096752}
{0.3185045}
{0.66011524}
{-0.5292002}
{-0.86078554}
{-0.52478045}
{-0.6279476}
{-0.026046503}
{0.22344315}
{0.16814399}
{-0.9469344}
{0.17122382}
{-0.2262956}
{-0.7471397}
{-0.16163431}
{0.060907435}
{-0.8986784}
{-0.16276331}
{0.45796728}
{-0.8345258}
{-0.8799747}
{0.9711113}
{-0.13152994}
{0.5250783}
{-0.36449397}
{0.47987407}
{0.6931671}
{-0.80033827}
{0.4545133}
{0.17974894}
{0.20818983}
{0.7530086}
{0.20695265}
{0.79860437}
{-0.99342424}
{-0.09391063}
{-1.0321478}
{-0.3151543}
{-0.7729189}
{-0.024603117}
{-0.7541779}
{0.041085795}
{0.1889429}
{0.76997566}
{0.6120149}
{0.95415115}
{0.0488445}
{-0.72658277}
{-0.90278345}
{0.3832625}
{0.58879876}
{0.20846814}
{-0.25100335}
{0.56611663}
{0.21346693}
{0.58179283}
{0.607267}
{-0.3120238}
{0.3290917}
{-0.34156138}
{-0.85784715}
{-0.3991287}
{-0.41985902}
{0.59938574}
{0.70323956}
{-0.15699928}
{-0.40616316}
{-0.69892144}
{0.47687972}
{0.3554509}
{-0.8887411}
{-0.21945292}
{-0.21197388}
{0.91345567}
{-0.6783842}
{0.56928635}
{-0.8057389}
{0.2550715}
{-0.64187855}
{0.7386646}
{-0.0046103937}
{0.38666296}
{-0.42508435}
{0.39365}
{-0.8366018}
{0.59782153}
{-0.7253208}
{0.7383685}
{-0.076468}
{0.69875795}
{0.89888024}
{0.2732274}
{-0.08705272}
{0.025178192}
{-0.8100278}
{0.36121434}
{-0.8919716}
{-0.28298938}
{0.33529034}
{-0.6300092}
{-0.43784901}
{0.84028006}
{0.54330695}
{0.028359897}
{0.42662677}
{-0.19076309}
{-0.4661055}
{-0.16004616}
{0.043382764}
{0.65833426}
{0.84170216}
{0.03051664}
{-0.69579214}
{0.12908821}
{-0.66292787}
{-0.11827342}
{-0.5298696}
{0.20300244}
{-0.15716417}
{0.2278735}
{-0.9566367}
{-0.9308783}
{0.13223307}
{-0.3481503}
{-0.33111253}
{0.85714686}
{0.27238977}
{-0.26574284}
{0.008486669}
{0.17283623}
{0.08514463}
{-0.85528445}
{-0.4763391}
{0.12455812}
{-0.41987905}
{0.4909347}
{0.18129024}
{-0.34555063}
{-0.48972416}
{-0.5894599}
{1.0086341}
{-0.5909706}
{0.22519311}
{-0.25401813}
{-0.46246716}
{0.36598852}
{0.3416453}
{-0.45548183}
{0.36122426}
{0.20523073}
{-0.86075306}
{-0.53303725}
{0.06754207}
{-0.123052604}
{-0.111540034}
{-0.4069031}
{-0.08745693}
{0.9315151}
{-0.49553338}
{0.880177}
{0.037379034}
{0.7148168}
{-0.3004577}
{0.48527718}
{0.8180752}
{0.5641138}
{0.48360828}
{0.7605629}
{-0.4569765}
{0.60528964}
{-0.02773153}
{0.73818207}
{-0.3158672}
{0.096771345}
{-0.012971691}
{-0.536813}
{-0.18606359}
{0.2982338}
{0.18131451}
{0.84271765}
{-0.9727309}
{-0.16546981}
{-0.000055554847}
{-0.6327529}
{-0.8563389}
{0.6247216}
{0.91649824}
{0.29123777}
{0.28410566}
{0.35027337}
{-0.02029496}
{0.30696934}
{-0.77658767}
{-0.8476463}
{0.7652265}
{0.29990095}
{-0.33139607}
{0.13808647}
{0.5406501}
{0.6625829}
{0.6564961}
{0.9582787}
{-0.44289955}
{-0.24885088}
{0.5915504}
{-0.006960564}
{-0.39724195}
{-0.30596668}
{0.46894836}
{-0.6789287}
{0.49735332}
{0.19317573}
{-0.52327794}
{0.53953856}
{0.86066157}
{-0.89118505}
{0.3263042}
{-0.5622044}
{0.3055738}
{0.13134259}
{0.22600988}
{0.95415556}
{-0.58899105}
{-0.04467582}
{-0.46657673}
{-0.30528024}
{-0.7070426}
{0.54057217}
{-0.17465644}
{0.8074281}
{-0.30051976}
{-1.0161045}
{-0.6749453}
{-1.0051609}
{0.77719975}
{-0.36356455}
{-0.90520525}
{-0.916216}
{0.5164684}
{0.2581281}
{0.54736376}
{0.5501057}
{-0.22626466}
{-0.46329242}
{0.55261666}
{0.90287876}
{-0.8573441}
{-0.13958667}
{-0.20146571}
{-0.55165625}
{0.69806635}
{-0.043803923}
{0.21577996}
{0.28125322}
{0.43571854}
{-0.47276098}
{0.89665663}
{0.685448}
{-0.7299322}
{-0.5493555}
{0.39141053}
{0.73294634}
{0.82780844}
{0.3619327}
{0.44820365}
{0.21108669}
{0.28143537}
{-0.99424887}
{0.122257255}
{-0.8043714}
{-0.2964351}
{0.18120521}
{0.54238564}
{-0.29958272}
{0.5836136}
{-0.15959126}
{-0.80592453}
{0.06462723}
{-0.99788433}
{-0.13125415}
{0.5738408}
{0.8657027}
{0.16758725}
{-0.52164364}
{-0.8290547}
{0.31223947}
{-0.31734854}
{0.22393435}
{-0.23870082}
{-0.4758142}
{-0.8511855}
{-0.13317247}
{-0.07704484}
{-0.42254907}
{-0.1487023}
{0.45036095}
{0.24393436}
{0.68105555}
{0.47218555}
{-0.15934163}
{-0.49813792}
{0.90051615}
{0.18012202}
{-0.2120679}
{0.85747015}
{-0.42397234}
{-0.31253102}
{0.6971266}
{-0.024908869}
{-0.9425446}
{-0.47264916}
{0.064805344}
{-0.17003256}
{0.2628598}
{-0.23513456}
{0.015285261}
{0.15794393}
{0.6543017}
{-0.33216175}
{0.28856486}
{-0.057441875}
{0.22265919}
{1.0987107}
{0.773726}
{0.837759}
{-0.20493163}
{-0.093631}
{0.3844127}
{0.899254}
{-0.16888717}
{-0.39792025}
{-0.95021653}
{0.6349089}
{-0.45870993}
{0.3620218}
{0.055558503}
{0.372317}
{0.15164791}
{-0.4094275}
{0.7301545}
{-0.66542214}
{-0.32757258}
{0.33946663}
{-0.17578608}
{0.13556226}
{-0.99589133}
{0.87465405}
{0.81059885}
{-0.38901186}
{-0.40768275}
{0.055835564}
{-0.342583}
{-0.48126647}
{-0.022384765}
{0.9346969}
{0.36959022}
{0.19244145}
{-0.61967134}
{0.90633076}
{-0.27170926}
{-0.67848766}
{0.8582116}
{0.37862638}
{-0.44051176}
{-0.03819331}
{-0.3580207}
{0.31324565}
{0.69383526}
{-0.60279906}
{-0.20311368}
{-0.89963126}
{-0.23689228}
{0.3286326}
{0.29689914}
{-0.81553334}
{0.33539957}
{0.13265541}
{-0.9724358}
{0.9115202}
{-0.9470639}
{-0.4653844}
{-0.6201538}
{-0.48393682}
{0.050311852}
{-0.1375091}
{-0.3994912}
{0.30718508}
{0.44148582}
{0.0476566}
{-0.28026283}
{-0.6714377}
{0.31758446}
{-0.6151139}
{-0.92729616}
{0.12739284}
{-0.725157}
{0.9651912}
{0.18073674}
{0.66092193}
{-1.0038788}
{-0.18229008}
{-0.6028831}
{0.7706123}
{0.26982945}
{-0.8231021}
{-0.11259385}
{0.09225677}
{-0.12884468}
{0.8547397}
{-0.09505462}
{0.6925338}
{-0.9597142}
{-0.3579723}
{-0.66862}
{-0.39550865}
{0.41991037}
{0.33870292}
{0.37798488}
{-0.31425712}
{-0.21790844}
{-0.3096159}
{-0.8797002}
{-0.08735845}
{0.05840117}
{0.13846448}
{0.42332345}
{-0.67050165}
{-0.3442667}
{-0.82801}
{-0.78641444}
{-0.31365633}
{-0.6494334}
{-0.3258834}
{0.6144044}
{-0.6431908}
{0.08813079}
{0.87037784}
{-0.338598}
{0.51253426}
{-0.5303212}
{-0.18176469}
{-0.7571846}
{0.8732294}
{0.3516001}
{-0.24442703}
{-0.09330098}
{1.0968517}
{-0.040310375}
{0.011162127}
{0.6882009}
{-0.607804}
{-0.19294554}
{0.29416198}
{0.65268564}
{-0.75678986}
{0.23232526}
{-0.5454455}
{0.54097164}
{-0.7888577}
{0.95640755}
{0.10730019}
{-0.09816303}
{0.052381385}
{0.4423539}
{0.9048452}
{-0.20230249}
{0.6764584}
{-0.4937616}
{-0.27168402}
{0.18238844}
{0.6974042}
{-0.48795563}
{0.29888898}
{-0.59240776}
{0.55123466}
{-0.20886952}
{-0.41112196}
{0.23963106}
{-0.11662093}
{-0.7121825}
{0.86989766}
{-0.8582088}
{0.6763458}
{0.2830214}
{-0.13982618}
{-0.7746218}
{-0.22464228}
{0.35701793}
{0.15850243}
{0.68414587}
{0.88767076}
{0.26643103}
{-0.06894055}
{-0.65576905}
{-0.17932427}
{0.81426644}
{0.9924716}
{0.29819176}
{0.7316875}
{-0.25974685}
{0.32253665}
{-0.41935277}
{0.13342534}
{-0.7300401}
{-0.32183954}
{-0.5992931}
{0.7700736}
{0.33501595}
{-0.4212263}
{0.47333366}
{0.8268852}
{0.5701208}
{-0.33607063}
{-0.06270495}
{0.720168}
{-0.3093}
{0.8322615}
{0.10039978}
{0.55019593}
{0.764832}
{-0.051675983}
{-0.3285196}
{0.24867658}
{-0.522036}
{0.037592296}
{0.9644047}
{-0.4099424}
{0.2024321}
{0.32688376}
{0.005652556}
{-0.55076355}
{-0.6145668}
{-0.5713004}
{-0.6474254}
{-0.7574358}
{0.5874181}
{-0.55686903}
{0.819248}
{-0.7042536}
{-0.30698735}
{-0.78243464}
{0.17363834}
{-0.6605357}
{0.009558208}
{-0.013286435}
{0.87488127}
{-0.6090244}
{0.68295956}
{0.6640537}
{0.8617654}
{-0.18005528}
{-0.87594414}
{-0.18975101}
{-0.4481847}
{0.6323632}
{0.111360066}
{-0.25074795}
{0.29409266}
{-0.32849693}
{-0.112819836}
{-0.95414984}
{-0.3576699}
{-0.20447083}
{-0.63781166}
{0.7863562}
{0.734387}
{0.22168083}
{-0.494921}
{0.22891627}
{-0.93423074}
{0.6625431}
{0.4824805}
{-0.9447412}
{-0.6398957}
{0.33600712}
{0.79382443}
{-0.8107734}
{0.23244178}
{-0.13187447}
{-0.39507228}
{-0.5172861}
{0.7394737}
{-0.22597831}
{-0.89077044}
{0.7030719}
{-0.7660259}
{-0.858162}
{0.03586247}
{0.2125821}
{0.15333737}
{0.18950029}
{0.75003076}
{0.8470436}
{-0.105901375}
{-0.10518447}
{-0.7721956}
{-0.22282644}
{-0.050533578}
{-0.83686095}
{-1.0127075}
{-0.62117624}
{-0.5301981}
{0.09197044}
{-0.9270966}
{0.27915585}
{-0.23533404}
{-0.10872095}
{-0.17549258}
{-0.14561109}
{0.67366487}
{-0.57062894}
{0.5991893}
{-0.11637787}
{0.38505006}
{-0.96603835}
{0.47626293}
{-0.3989995}
{-0.516603}
{0.8122016}
{-0.4311753}
{0.7932158}
{0.6262622}
{0.68736005}
{0.6959138}
{0.6300836}
{-0.7407938}
{-0.16742128}
{0.38143104}
{0.67572486}
{-0.5606087}
{-0.6294239}
{-0.19575077}
{0.46758643}
{0.3747803}
{-0.16519313}
{-0.78014207}
{-0.2261814}
{-0.5297274}
{-0.7828359}
{-0.35029203}
{1.0454222}
{0.8787235}
{-0.420817}
{0.59820604}
{-0.46745214}
{-0.35894966}
{-0.92871255}
{0.94410944}
{0.07771871}
{0.053404406}
{-0.2506424}
{0.6204717}
{-0.8748541}
{0.44181544}
{-0.08870002}
{0.95361185}
{1.0160235}
{-0.96002096}
{-0.8809791}
{0.37605637}
{0.5257986}
{-0.2610603}
{0.3025901}
{0.4086699}
{0.42750233}
{0.37772405}
{-0.31260896}
{-0.60483503}
{-0.009204502}
{0.31138167}
{-0.92766917}
{0.28151554}
{0.8103059}
{-0.06654497}
{-0.48091903}
{-0.48910528}
{0.70793885}
{-0.66248757}
{0.9623135}
{0.92112994}
{-1.0445962}
{-0.2511122}
{0.24097052}
{-0.46689397}
{0.806139}
{0.37362373}
{-0.09379928}
{0.8118205}
{0.69735533}
{0.86671054}
{-0.1356233}
{-0.2959817}
{-0.6094274}
{0.5713217}
{-0.7803617}
{0.5979688}
{-0.79524386}
{0.91338897}
{-0.44601497}
{-0.8975651}
{0.14224672}
{-0.86482275}
{-0.17273733}
{0.7941849}
{0.4586505}
{-0.59446585}
{-0.61469394}
{-0.08168025}
{-0.39592433}
{-0.59983975}
{-0.49887297}
{0.22134942}
{0.66519725}
{0.008331781}
{-0.89382046}
{0.66042614}
{0.9133598}
{-0.29462287}
{0.96620846}
{-0.66792417}
{-0.10334606}
{0.39892873}
{-0.8962513}
{0.05171018}
{-0.22823283}
{0.6621189}
{-0.73895395}
{0.89379144}
{0.74445593}
{-0.17524727}
{0.5612005}
{-0.7368996}
{0.9986427}
{-0.6407916}
{-0.4955087}
{-0.37927777}
{0.00590684}
{0.37575766}
{0.49728036}
{0.45361918}
{-0.6828269}
{-0.5670236}
{0.12464057}
{-0.7768822}
{0.93872696}
{-0.022857087}
{-0.79327303}
{-0.339279}
{-0.8782814}
{-0.6431153}
{-0.6921727}
{-0.9287169}
{-0.6979718}
{-0.0627514}
{1.0147794}
{0.7561791}
{0.21218513}
{0.5787602}
{0.4277741}
{-0.76036096}
{0.70236546}
{-0.34282374}
{-0.3940659}
{-0.18519169}
{-0.17281052}
{0.28496164}
{-0.50165796}
{0.39334363}
{-0.59627175}
{0.6785275}
{0.7932673}
{0.1032851}
{-0.06034176}
{-0.41700336}
{-0.39866862}
{0.58974576}
{-0.3729749}
{0.5763}
{-0.4592012}
{0.9098561}
{0.15717952}
{0.30425537}
{-0.06584028}
{0.2874512}
{-0.9261988}
{0.14084274}
{-0.8822818}
{0.8445983}
{-0.03821128}
{-0.28818464}
{-0.3632957}
{-0.49741322}
{0.35574093}
{-0.26971248}
{0.7198193}
{-0.058155764}
{0.38083774}
{0.62821424}
{-0.14844333}
{0.16693252}
{-0.027794385}
{-0.60043025}
{0.70258695}
{-0.73774076}
{-0.5592137}
{-0.3543992}
{0.07136381}
{0.2133717}
{0.62514395}
{0.6319674}
{-0.4265449}
{-0.7141595}
{0.31466132}
{0.089484066}
{-0.7263153}
{-0.25601894}
{-0.95512795}
{0.42481455}
{0.6313722}
{0.53336716}
{-0.59228283}
{-0.7244872}
{-0.70271856}
{0.35776657}
{0.6217852}
{-0.25409767}
{-0.22732125}
{-0.045118324}
{0.075859815}
{-0.03920627}
{0.6466999}
{0.64446497}
{0.6401481}
{-0.36027637}
{0.57490146}
{0.13300341}
{0.670978}
{-0.4642563}
{1.1155862}
{0.1460163}
{0.61572903}
{0.17716312}
{-0.021155909}
{0.5134952}
{-0.8922042}
{-0.9048958}
{0.50099325}
{-0.31810647}
{0.8083102}
{0.6124221}
{-0.6331349}
{0.95883536}
{-0.9892092}
{-0.45141372}
{0.6705636}
{0.17982239}
{0.7418476}
{0.3371326}
{0.65529054}
{-0.7233045}
{-0.34561825}
{-0.7856697}
{-0.97174186}
{0.8865917}
{0.24554782}
{-0.09332602}
{0.8774259}
{-0.81434965}
{0.28893155}
{-0.69021875}
{0.5382491}
{0.34768742}
{0.17109405}
{-0.7503424}
{0.51834065}
{0.1461913}
{-0.5399768}
{-0.2888697}
{-0.16442196}
{-0.8320539}
{0.11244806}
{-0.1299854}
{-0.324741}
{0.8634219}
{0.12017488}
{-0.29562634}
{0.6054389}
{-0.7402091}
{0.5796035}
{-0.8537267}
{0.84131765}
{-0.06862781}
{0.13539289}
{-1.0457134}
{0.68678164}
{-0.2491892}
{-0.7567742}
{-0.5404189}
{0.1067082}
{0.90672517}
{0.5608924}
{-0.64038694}
{0.96462643}
{-0.047544234}
{0.6830376}
{0.035246305}
{0.70004505}
{0.40132874}
{-0.4108977}
{-0.81560075}
{0.6574974}
{-0.66951966}
{0.48391703}
{-0.6188699}
{-0.6073111}
{0.45064133}
{-0.26066387}
{-0.281073}
{-0.6722848}
{0.6697135}
{-0.58627796}
{0.40413052}
{0.73287535}
{0.5939479}
{0.2635779}
{0.7095661}
{0.39912134}
{-0.6040549}
{-0.5190719}
{0.66267085}
{-0.073687345}
{-0.7423332}
{0.8835039}
{-0.05254112}
{0.6726768}
{-0.28251225}
{0.6499081}
{0.6402122}
{0.3295736}
{-0.9590528}
{0.552545}
{0.14334014}
{0.735564}
{-0.54057264}
{0.85419065}
{0.53365666}
{0.15096457}
{0.35695142}
{0.26615313}
{0.05557374}
{0.3113327}
{0.7793436}
{0.01882266}
{0.2777525}
{0.720338}
{-0.6396885}
{-0.12436579}
{-0.8253237}
{0.36451378}
{-0.59648037}
{-0.43738386}
{0.6294518}
{-0.42789912}
{-0.65350604}
{-0.09104204}
{-0.4862194}
{-0.67370194}
{-0.15369776}
{0.06917578}
{0.4059107}
{-0.2150282}
{-0.1148936}
{0.38221675}
{-0.04293386}
{0.040314935}
{0.28948063}
{0.010454796}
{-0.5887995}
{-0.8433804}
{-0.7580898}
{0.03739447}
{0.3895418}
{0.06570508}
{-0.2026363}
{0.05814397}
{0.08154169}
{-0.042883825}
{-0.82125807}
{0.47977585}
{-1.0364083}
{0.43875498}
{0.8148949}
{0.4885408}
{-0.6230895}
{0.19206396}
{0.7931428}
{-0.7330047}
{-0.6292334}
{0.80503094}
{0.6598973}
{-0.75843954}
{-0.82695776}
{-0.11615025}
{0.85970545}
{-0.77441746}
{0.46981272}
{-0.824349}
{-0.86977434}
{-0.57992625}
{0.32934898}
{0.7940351}
{0.41238135}
{0.040681727}
{-0.6576975}
{-0.29936582}
{0.26632923}
{-0.12320857}
{-0.5239124}
{0.9056339}
{0.78306985}
{0.29255715}
{0.5833757}
{-0.61006266}
{0.2776429}
{-0.3133126}
{-0.29375756}
{0.84760374}
{-0.30586392}
{1.0421233}
{-0.30918276}
{0.81640995}
{0.5417757}
{0.18022832}
{0.6298598}
{-0.62127525}
{-0.3851636}
{-0.10333868}
{0.17317684}
{0.79037064}
{0.5433047}
{-0.711308}
{-0.43129158}
{-0.49478644}
{0.85129213}
{-0.3691783}
{1.0061945}
{0.91414917}
{-0.7964814}
{0.26772898}
{-0.24892828}
{-0.25332215}
{0.30255646}
{-0.15308297}
{0.2175139}
{0.49943736}
{-0.9327481}
{0.056077242}
{0.44992688}
{-0.29355288}
{0.15544933}
{0.9414461}
{-0.38011578}
{-0.8775237}
{0.9116218}
{-0.5468905}
{-0.65016776}
{-0.4180826}
{0.71623206}
{-0.60692203}
{-0.7758532}
{0.8275015}
{-0.976923}
{-0.06675996}
{-0.8644484}
{-0.80341375}
{-0.30494457}
{-0.95196885}
{-0.73818666}
{-0.4568307}
{-0.25475866}
{0.6419903}
{0.48793742}
{-0.7270628}
{-0.1367583}
{0.9263899}
{-0.85417044}
{0.028619083}
{0.40561813}
{0.62406003}
{0.9134328}
{-0.6833229}
{-0.98780775}
{0.14105695}
{0.10299437}
{0.41154957}
{-1.0116339}
{0.50678927}
{0.47190925}
{0.95739764}
{0.34680527}
{-0.8096555}
{0.5131651}
{0.011462482}
{0.29737896}
{0.8670137}
{-0.74207765}
{0.39607745}
{-0.98829794}
{-0.17452586}
{0.3452051}
{-0.06157576}
{-0.4410265}
{0.43922302}
{-0.7882895}
{-0.4731908}
{0.82888937}
{-0.27656537}
{0.5830698}
{0.54545176}
{-0.18030983}
{0.6599651}
{0.8173957}
{-0.99528646}
{-0.36430222}
{-0.22182566}
{-0.18836214}
{1.0115657}
{0.022181757}
{0.45901862}
{-0.38727927}
{-0.75663054}
{0.59461284}
{-0.63262457}
{-0.42195404}
{0.9051323}
{0.073914364}
{-0.2910062}
{-0.5089421}
{0.35688886}
{0.24354023}
{0.51127166}
{-0.84568506}
{-0.008389313}
{-0.78660846}
{0.5975953}
{-0.3838543}
{0.14848654}
{0.9333372}
{-0.0017502538}
{0.50588095}
{-0.2255823}
{-0.51223004}
{-0.7474876}
{0.12384624}
{0.016578423}
{0.80195}
{-0.89951265}
{0.40201104}
{0.004541185}
{-0.5128292}
{-0.80716616}
{-0.71717954}
{0.5448552}
{0.5197909}
{0.232513}
{-0.71462697}
{-0.23489325}
{-0.84737325}
{-0.09347847}
{-0.7744489}
{0.6587677}
{0.24771565}
{-0.853364}
{-0.6114435}
{-0.5153152}
{0.007186182}
{-0.8039967}
{-0.91820186}
{-0.05323246}
{-0.9944906}
{0.5362074}
{-0.122286275}
{-0.923897}
{0.7772951}
{-0.79679245}
{0.08456155}
{0.17861499}
{-0.058921807}
{-0.12227408}
{-0.87513864}
{0.1677224}
{-0.49236494}
{-0.38635123}
{-0.23964225}
{-0.75047493}
{-0.16639835}
{0.6568828}
{-0.44419754}
{0.13766047}
{-0.6405883}
{-0.9810348}
{-0.6094333}
{0.30662867}
{-0.7887726}
{-0.95583916}
{0.49455947}
{-0.63192606}
{0.5966351}
{-0.96561235}
{0.9904786}
{0.90740263}
{0.04457168}
{-0.7336704}
{-0.76014096}
{-0.49325597}
{-0.23735315}
{-0.6436224}
{-0.53310895}
{0.61375}
{-0.69131255}
{-0.77981365}
{0.5819649}
{0.12194724}
{0.65715075}
{0.18747745}
{-0.020439394}
{0.07806153}
{-0.4436701}
{0.712102}
{-0.67344445}
{-0.43474567}
{0.96105623}
{0.049553253}
{0.71799314}
{0.6708437}
{-0.19245917}
{0.7678203}
{-0.4787692}
{-1.0080823}
{-0.08375974}
{-0.048442915}
{0.34214056}
{0.029365692}
{0.63867235}
{-0.040122826}
{-0.80710787}
{-0.63713455}
{-0.73392224}
{0.031968795}
{0.76751405}
{0.52442986}
{0.34868664}
{-0.4176475}
{0.11971147}
{0.61602}
{-0.9544592}
{0.7127521}
{0.84662265}
{0.1519284}
{0.42612714}
{-0.21357782}
{-0.8458319}
{-0.51563483}
{0.34715956}
{0.23298363}
{-0.7959094}
{-0.22131364}
{-0.13968395}
{0.7774858}
{0.6554944}
{0.2120554}
{0.635375}
{0.3521349}
{0.26171756}
{-0.13371123}
{-0.93507576}
{-0.09136876}
{0.5075461}
{0.534033}
{0.26196498}
{0.15311776}
{-0.68562055}
{0.59583735}
{0.22576779}
{0.7658968}
{0.64365596}
{0.57294244}
{0.08497484}
{-0.8851914}
{0.07051697}
{0.394767}
{0.39229602}
{-0.9322914}
{-0.12336791}
{0.5849787}
{0.18031162}
{0.17278859}
{0.8502333}
{-0.39015314}
{-0.7742841}
{-0.11850975}
{-0.074356124}
{0.05441049}
{-1.0246546}
{0.11219501}
{-0.65703607}
{0.7233757}
{0.070149735}
{0.9420137}
{-0.12174757}
{0.4214465}
{0.31996578}
{-0.31833795}
{0.3778224}
{-0.6621184}
{0.92872167}
{-0.1824388}
{-0.63648003}
{-0.33187962}
{-0.07406184}
{-0.25576663}
{-0.21011199}
{-0.20534213}
{0.82869935}
{0.32330647}
{0.11350543}
{0.12954241}
{-0.0782878}
{0.25196674}
{-0.6200073}
{-0.6820843}
{0.919708}
{-0.7220745}
{0.29270932}
{0.1262851}
{0.9502711}
{0.59951663}
{0.81546503}
{0.5317736}
{-0.25817806}
{0.51851445}
{-0.71396065}
{-0.8385313}
{0.9549842}
{0.7333951}
{-0.39248854}
{0.34011877}
{-0.6701484}
{-0.20545752}
{0.6089721}
{0.7367401}
{-0.82987857}
{0.5393807}
{-0.89838713}
{0.8939784}
{-1.0259299}
{-0.07939597}
{-1.0972366}
{0.82941556}
{0.87361}
{-0.7230175}
{0.097589344}
{0.50472635}
{0.7439618}
{-0.39816126}
{0.42926258}
{-0.92577696}
{-0.14098142}
{0.262537}
{-0.7350915}
{0.6895065}
{0.49363887}
{-0.7775349}
{-0.0019746087}
{0.98308814}
{0.92524004}
{0.8708024}
{-0.41887346}
{0.31661135}
{-0.89506674}
{0.30610648}
{-0.45784855}
{0.32893947}
{-0.2785278}
{0.5216261}
{0.52671546}
{-1.0021353}
{-0.72475576}
{0.90595716}
{-0.058133323}
{-0.84652245}
{-0.29666287}
{-0.23775485}
{-0.5462828}
{-0.14675947}
{-0.73933315}
{-0.045108233}
{0.56622905}
{0.3103226}
{0.77821946}
{-0.78802735}
{-0.4926603}
{-0.79912573}
{0.44730204}
{0.31213075}
{-1.0419542}
{0.89226377}
{0.2209832}
{0.4851561}
{0.07004051}
{0.022259505}
{-0.2349487}
{0.54876715}
{-0.2848071}
{0.8082373}
{-0.765327}
{0.39876956}
{-0.3968092}
{0.16493629}
{0.55583906}
{0.9268662}
{-0.93068224}
{-0.4447982}
{-0.35688907}
{0.4042771}
{0.6624228}
{-0.80606925}
{0.39768523}
{0.27800462}
{-0.83591896}
{0.32956252}
{0.40359706}
{-0.98663485}
{0.8444668}
{0.17975514}
{0.43366235}
{-0.16256213}
{0.904315}
{0.4311601}
{-0.40143448}
{-0.9704048}
{-0.41276655}
{0.013371362}
{-0.32532984}
{0.8583789}
{-0.31517237}
{-0.7514822}
{-1.0318189}
{-0.45128596}
{-0.27683663}
{0.9010201}
{0.5079744}
{-0.78136194}
{0.28478622}
{-0.276489}
{0.22064465}
{0.8205442}
{0.86565787}
{-0.30228084}
{0.4749461}
{-0.18155652}
{0.55920744}
{0.016332006}
{0.24689502}
{0.47737578}
{-0.79559475}
{0.7196928}
{0.85709953}
{0.46673515}
{-0.027499754}
{0.09218121}
{0.90719986}
{-0.12822315}
{0.685582}
{0.345516}
{0.640244}
{-0.28824195}
{-0.041197427}
{-0.46035522}
{-0.7145994}
{0.1760833}
{-0.89753556}
{-0.2929379}
{0.46406788}
{0.25718248}
{-0.14253563}
{-0.5897576}
{0.42599958}
{0.123910695}
{-0.7762941}
{0.20829394}
{0.12897271}
{-0.45682266}
{-0.878657}
{-0.5901013}
{0.55523586}
{0.7060475}
{-0.9214198}
{-0.11953938}
{0.6788032}
{-0.16172762}
{-0.48974672}
{0.2608595}
{0.6465771}
{0.8093197}
{0.38365528}
{0.39011225}
{0.36972374}
{0.5125104}
{-0.45635724}
{-0.4212806}
{-0.9020729}
{0.50910884}
{0.5994245}
{-0.10430763}
{-0.7484236}
{0.06772677}
{-0.04599705}
{-0.92438775}
{-0.14840199}
{-0.44337445}
{-0.39088905}
{-0.92114455}
{0.568485}
{-0.2903352}
{-0.016329614}
{0.42919567}
{0.28355283}
{0.60813063}
{0.79848814}
{-0.13030022}
{0.9549265}
{0.214862}
{0.5532619}
{0.4577011}
{-0.013444176}
{0.78554523}
{-0.05410329}
{-0.35475245}
{-0.341178}
{0.10189641}
{0.48458874}
{-0.9264648}
{-0.21218663}
{-0.84174454}
{-0.60380363}
{-0.32803208}
{0.57077074}
{0.30117035}
{-0.56418616}
{0.42068368}
{0.91583323}
{0.6429913}
{-0.84179807}
{-0.67260295}
{-0.30976635}
{-0.0039795386}
{-0.046317935}
{0.094977796}
{-0.4598809}
{0.8373247}
{-0.15562025}
{0.9529001}
{-0.14087914}
{0.4973344}
{-0.18284538}
{0.66183287}
{-0.56783724}
{0.000527431}
{0.43483704}
{-0.16005284}
{-0.88184595}
{0.23601569}
{0.14930241}
{-0.17721878}
{0.08741315}
{-0.39107928}
{1.0827115}
{-0.5659664}
{-0.5937226}
{0.24552809}
{0.9184941}
{-0.43887892}
{-0.8765149}
{0.6407003}
{-0.63465554}
{0.26222485}
{0.5116472}
{0.42628166}
{-0.88899434}
{-0.8127915}
{-0.93821144}
{-0.15444969}
{0.30502594}
{-0.06750236}
{0.8607993}
{0.52269167}
{0.4671238}
{-0.73823816}
{0.85841084}
{-0.7954902}
{-0.11136428}
{0.93281937}
{-0.025281657}
{0.13870585}
{-0.3875773}
{0.93918645}
{0.691412}
{-0.66704345}
{-0.10619343}
{-0.33226728}
{0.049593497}
{0.022974947}
{-0.06542285}
{-0.2165304}
{-0.6579664}
{0.71053296}
{-0.105345495}
{0.8559112}
{0.30162758}
{-0.03778351}
{-0.7422908}
{-0.013058188}
{-0.6951716}
{0.3923748}
{0.32147887}
{0.80740345}
{0.9107287}
{-0.09315785}
{-0.7975658}
{0.47735053}
{0.12939137}
{-0.63448495}
{-0.53326946}
{0.22979817}
{0.09545522}
{-0.11544239}
{0.066643335}
{-0.43442932}
{0.20646971}
{-0.30033958}
{-0.6022461}
{0.37804922}
{-0.18400842}
{0.6691651}
{-0.44964558}
{0.49842542}
{0.4233715}
{0.8332209}
{-0.6480483}
{-0.053613953}
{-0.43138486}
{0.94631314}
{-1.0212022}
{0.2316441}
{-0.7193589}
{-0.73507917}
{-0.5906347}
{0.67595327}
{0.88493323}
{-0.06236668}
{0.10039991}
{0.055318773}
{0.102549106}
{-0.8990565}
{-0.37750265}
{0.002568947}
{-0.12752026}
{0.39124295}
{-0.6956516}
{-0.7696285}
{-0.23739344}
{0.8609344}
{0.46228942}
{0.58505845}
{0.40328115}
{0.73279816}
{0.43895504}
{-0.6746056}
{-0.4306317}
{0.79933274}
{0.16192624}
{0.7686434}
{-0.0925545}
{-0.3778706}
{-0.66166466}
{-0.17884621}
{-0.1359863}
{0.8513766}
{0.5486963}
{-1.0100597}
{-0.3578301}
{0.4776455}
{-0.67228806}
{-0.75180554}
{0.054243144}
{-0.7266789}
{-0.7336613}
{-0.9094068}
{0.27564162}
{0.68815047}
{0.7514047}
{-0.38904703}
{0.19862527}
{-0.02160113}
{0.39427277}
{1.0327834}
{-0.07317206}
{-0.9771054}
{-0.66607505}
{-0.262331}
{0.10762001}
{0.28564203}
{-0.47007412}
{0.54677904}
{-0.91679597}
{0.72312146}
{0.06255964}
{-0.5755177}
{0.436773}
{0.26213232}
{0.4965846}
{0.09901664}
{-0.45453507}
{-0.673617}
{-0.9567797}
{-0.9018568}
{-0.6458764}
{-0.7458944}
{-0.30327517}
{0.36832106}
{0.62956166}
{0.5302773}
{-0.001680614}
{-0.35100922}
{-0.4186185}
{0.6055316}
{-0.9639007}
{0.89900255}
{0.69624186}
{0.5795542}
{-0.14656854}
{0.8464317}
{0.71193886}
{-0.4641509}
{0.4024206}
{-0.24004637}
{-0.2656017}
{0.7004737}
{0.23441191}
{-0.7499799}
{0.8423705}
{-0.38568774}
{0.902237}
{0.36568508}
{0.6326022}
{0.7350968}
{0.21439007}
{-0.16689466}
{-0.5817344}
{-0.7256284}
{-0.57533336}
{0.9640815}
{-0.021410694}
{-0.19441731}
{0.43140063}
{0.40475553}
{-0.77335095}
{-0.0406105}
{-0.047557734}
{-0.7111291}
{-0.3856824}
{0.92645913}
{0.52286816}
{-0.57483166}
{0.24438375}
{0.1955206}
{-0.34557733}
{0.5724759}
{-0.86490035}
{-0.6431725}
{-1.0664076}
{-0.944207}
{-0.03247713}
{0.06872153}
{-0.79380774}
{0.6438941}
{0.36457652}
{-0.1936884}
{-0.8921123}
{0.23055197}
{0.83496165}
{-0.36037835}
{0.6014794}
{-0.832701}
{0.44800252}
{-0.60590035}
{-0.015759306}
{-0.24510798}
{-0.583827}
{-0.7303896}
{-0.82648855}
{0.31397346}
{0.36212772}
{-0.5857214}
{-1.0587882}
{0.8900073}
{0.539186}
{-0.05566875}
{0.07146665}
{0.27866998}
{0.8531499}
{0.9160039}
{-0.674619}
{0.6382468}
{-0.45297343}
{0.6995908}
{0.6343294}
{-0.5496861}
{0.15963191}
{-0.7451279}
{0.01533142}
{-0.82222825}
{0.5711198}
{0.9412815}
{0.41150463}
{-0.58675253}
{0.41701263}
{0.64100015}
{0.73842514}
{0.5251443}
{0.78904724}
{0.22398792}
{-0.611163}
{-0.78670216}
{0.5593307}
{-0.2771197}
{0.27946535}
{-0.9120964}
{0.35179347}
{0.31998256}
{-0.3754715}
{0.6434505}
{-0.1704908}
{-0.23068295}
{-1.0615554}
{-0.48741284}
{-0.9186623}
{1.0000652}
{-0.09081878}
{0.52752393}
{0.54137325}
{-0.49108085}
{-0.8475057}
{0.7764052}
{0.15701431}
{0.44502112}
{0.78204805}
{0.8515804}
{0.15196913}
{-0.3400371}
{0.37372345}
{-1.0274907}
{-0.78366184}
{-0.541756}
{-0.51682955}
{0.46886334}
{0.5213592}
{-0.64491683}
{-0.04113604}
{0.33365518}
{-0.3383041}
{1.1274089}
{-0.82079804}
{0.77000624}
{-0.3712836}
{0.28079817}
{-0.8797407}
{-0.25688174}
{-0.6221771}
{-0.263939}
{-0.7311447}
{0.06918278}
{-0.3748749}
{0.43833497}
{-0.44478667}
{0.09539635}
{-0.9192076}
{-0.8040036}
{-0.16031942}
{-0.85110235}
{-0.43915707}
{0.22949052}
{0.5442331}
{-0.61730206}
{0.52823853}
{0.026027301}
{0.1283258}
{0.83249015}
{-0.41042978}
{0.55146056}
{0.30097315}
{0.41825595}
{0.21353859}
{0.8891074}
{-0.27442232}
{0.7011736}
{-0.28503114}
{0.9479969}
{0.22650284}
{-0.83136946}
{-0.22717005}
{-0.6269393}
{-0.50037724}
{-0.2892577}
{0.89546156}
{0.37527427}
{-0.19406825}
{0.44028753}
{-0.7689657}
{0.4894673}
{0.80703086}
{-0.22610441}
{0.6564176}
{-0.401141}
{0.095183454}
{0.8288036}
{-0.0143165495}
{0.352327}
{-0.9602595}
{0.6245819}
{-0.9516213}
{0.73862153}
{-0.8156042}
{0.7742578}
{-0.38212448}
{-0.2603313}
{-0.8723158}
{-0.04831853}
{-0.119468145}
{0.36202207}
{-0.29750198}
{0.21834223}
{-0.52286357}
{0.12560163}
{-0.20741087}
{0.9591145}
{-0.60954165}
{0.8940722}
{0.70384616}
{-0.36615777}
{-1.0285811}
{-0.18093}
{-0.855168}
{0.1910521}
{0.69791603}
{-0.9863794}
{0.7327915}
{0.3283242}
{0.06346734}
{-0.56025183}
{0.7300407}
{0.060113773}
{0.101677924}
{-0.35255572}
{-0.7490888}
{0.47170877}
{-0.86367726}
{-0.29944864}
{0.06094913}
{-0.42728582}
{0.6463578}
{-0.52249455}
{0.65855616}
{0.3877001}
{-1.028403}
{0.15182869}
{-0.056702312}
{0.26676124}
{-0.6244774}
{0.00076089107}
{0.40232432}
{-0.4037009}
{0.26008767}
{0.019034617}
{-0.28961605}
{0.93343633}
{0.40001816}
{0.4849589}
{-0.50087774}
{0.3111028}
{-0.46033603}
{-0.825745}
{-0.47730118}
{0.10225184}
{-0.6644068}
{0.67156065}
{-0.09141813}
{-0.0155052105}
{-0.76371884}
{0.09461574}
{0.09954433}
{-0.46699148}
{0.10317876}
{0.5077383}
{-0.6669092}
{-0.5397481}
{-0.4828387}
{0.69690245}
{0.23869118}
{0.8598172}
{0.96190095}
{0.24419521}
{0.24795747}
{-0.677255}
{0.14605826}
{0.22614025}
{-1.0223287}
{-0.49555945}
{0.6325598}
{0.4465086}
{-0.02326622}
{0.512848}
{0.120092355}
{0.6376311}
{0.75243974}
{0.1389617}
{-0.3241983}
{0.9816626}
{-0.88794494}
{0.35836467}
{-0.39360005}
{0.5171999}
{0.17825101}
{0.07611055}
{-0.05606412}
{0.2451174}
{-0.6410996}
{-0.7300973}
{-0.11388485}
{0.8413736}
{0.6353416}
{-0.18456069}
{0.5245681}
{-0.008213387}
{0.51170564}
{-0.37549874}
{-0.07254407}
{0.018957531}
{-0.2637069}
{0.90517366}
{0.6992998}
{0.6344207}
{-0.63996035}
{0.4763181}
{-0.13808891}
{-0.37184435}
{-0.47786507}
{0.2747485}
{0.25588053}
{-0.36647072}
{0.41214925}
{-0.9300205}
{-0.05446624}
{-0.6215117}
{-0.75077164}
{1.0379769}
{0.83939195}
{0.7043678}
{-0.5801256}
{0.9716812}
{-0.77598405}
{-0.8615014}
{-0.5351543}
{-0.9285379}
{0.91541386}
{0.88561153}
{-0.8859574}
{-0.24044628}
{-0.8116555}
{-0.399482}
{-0.8528504}
{0.9070511}
{-0.8429935}
{0.069390185}
{-0.48188442}
{0.7716781}
{0.7190738}
{-0.19371934}
{-0.4956307}
{0.81807363}
{0.15806311}
{0.33707973}
{-0.86604434}
{0.37045005}
{0.6581845}
{0.3629168}
{-0.4836035}
{-0.107392095}
{0.88482857}
{-0.08723552}
{-0.3661937}
{0.29900125}
{0.16346925}
{-0.37455532}
{0.77076995}
{-0.62151384}
{0.29296368}
{0.1640996}
{-0.64817894}
{0.36503506}
{0.92548966}
{0.5237763}
{0.4544518}
{0.030655073}
{0.505471}
{-0.42379478}
{-0.20684727}
{-0.59832776}
{-0.023273695}
{-0.4003157}
{0.29372308}
{0.2525373}
{0.32123798}
{-0.6363296}
{-0.50941586}
{0.96840143}
{-0.05556702}
{0.10678564}
{0.4330021}
{0.034694664}
{0.9004576}
{0.36926496}
{0.26745903}
{-0.6632124}
{0.9603331}
{1.0624454}
{-0.078102574}
{-0.76479983}
{0.10411956}
{-0.8451197}
{0.79528123}
{0.046023373}
{0.5838518}
{-0.06676128}
{0.80328494}
{0.15594389}
{0.9194026}
{-0.031156398}
{-0.7339855}
{0.7604597}
{0.02611471}
{0.67039776}
{0.83734727}
{-0.53183085}
{0.025132187}
{0.76468515}
{-0.6107018}
{0.77518517}
{0.38557023}
{0.97976786}
{-0.76620144}
{-0.010097726}
{-0.8046224}
{-0.9129278}
{-0.170158}
{-0.50307715}
{-0.6242559}
{0.3936124}
{-0.27314356}
{0.45339775}
{0.46648142}
{-0.09320965}
{0.23459508}
{0.83065736}
{-0.2166012}
{0.9458733}
{0.19779001}
{-0.109667264}
{0.58710504}
{0.4205798}
{0.45692307}
{0.77576625}
{0.07791264}
{0.71504194}
{-0.6515089}
{-0.32549468}
{0.19769353}
{0.31913376}
{-0.7809827}
{-0.29308063}
{-0.575125}
{-0.73301303}
{0.36926448}
{0.3106947}
{0.9276364}
{0.651183}
{0.3405222}
{-0.69359577}
{0.33684605}
{-0.7790968}
{0.809967}
{-0.5477245}
{0.44495648}
{0.8643938}
{-0.59916615}
{-0.36176047}
{0.63695884}
{-0.4535388}
{-0.15688382}
{-0.19739425}
{0.05858905}
{-0.9512348}
{0.01888165}
{0.5794624}
{0.45617646}
{-0.98042065}
{0.26059267}
{0.3469935}
{-0.34388334}
{0.48177704}
{-0.9275426}
{0.11896538}
{-0.07124064}
{0.19889237}
{0.5057287}
{0.6886619}
{0.4159941}
{0.21601573}
{-0.77724814}
{-0.21483219}
{0.8240752}
{0.46738973}
{0.3820294}
{0.8318538}
{-0.7662828}
{-0.72197545}
{-0.8824309}
{-0.22126953}
{-0.8189497}
{-0.69300085}
{0.42040527}
{-0.05085759}
{-0.9967296}
{-0.7692832}
{0.28633004}
{0.38721523}
{-0.7688844}
{1.1462785}
{0.8147984}
{-0.8428293}
{0.090164974}
{-0.35546818}
{0.835602}
{-0.670205}
{-0.9791336}
{0.062202744}
{0.8696588}
{-0.4839422}
{0.76053023}
{0.060745172}
{0.61847484}
{-0.2695081}
{-0.61853886}
{-0.35015}
{0.0060529285}
{0.5669151}
{-0.7674496}
{0.0018346453}
{0.1473998}
{0.39543533}
{-1.0113642}
{-0.73790026}
{0.08450623}
{-0.41578132}
{0.42866057}
{-0.72140205}
{-0.07974707}
{0.4701954}
{0.71581864}
{0.9711624}
{-1.0409476}
{-0.14792092}
{0.30012172}
{0.3685698}
{-0.9270861}
{-0.37416118}
{0.4579515}
{0.7575037}
{-0.13103665}
{0.6870056}
{-0.98543}
{-0.64527607}
{0.65636873}
{0.7761683}
{0.6105535}
{-0.21590807}
{-0.1377801}
{-0.12932637}
{0.52032495}
{0.17503761}
{-0.96707684}
{-0.6248328}
{-0.48389822}
{-0.22418305}
{-0.30761942}
{0.14675364}
{-0.7142756}
{-0.6347559}
{0.5887999}
{-0.08437559}
{-0.3303314}
{0.5246433}
{-0.33168828}
{0.64236003}
{0.5879524}
{0.8650739}
{-0.3940884}
{-0.18467088}
{0.8579991}
{-0.2763609}
{0.8785996}
{-0.7387345}
{-0.33294946}
{-0.19800417}
{0.48521107}
{0.629555}
{-1.0214291}
{0.6055585}
{-0.91627663}
{-0.20847747}
{0.0959888}
{-0.70838165}
{-0.23114148}
{0.9003108}
{-0.04863333}
{0.78757805}
{0.751679}
{0.90842515}
{-0.5500891}
{-0.8431966}
{0.30997077}
{0.9543285}
{-0.044422857}
{0.13394728}
{0.6321271}
{-0.29353255}
{0.49884102}
{0.22559862}
{0.34425044}
{-0.17928116}
{-0.8311269}
{-0.5239543}
{0.44522357}
{0.6458971}
{-0.9249239}
{-0.06364206}
{-0.5741368}
{0.96156883}
{0.19589108}
{-0.3702484}
{0.045881145}
{0.09573015}
{0.7005985}
{0.012408042}
{-0.958941}
{-0.69875187}
{-0.5574331}
{0.41115645}
{0.37766466}
{-0.16962919}
{0.88976145}
{-0.18250102}
{-0.9632448}
{-0.2091631}
{0.45335}
{1.0879797}
{0.8884473}
{0.24281709}
{0.92271185}
{0.7286943}
{-0.49607795}
{0.62327504}
{0.361659}
{-0.5384533}
{0.29210615}
{-0.6263561}
{-0.27033025}
{-0.37421852}
{-0.29311627}
{-0.6168058}
{-0.7995882}
{0.34942403}
{-0.56124055}
{0.28714955}
{0.3110873}
{0.15410879}
{0.17485383}
{-0.1412544}
{0.12135191}
{0.21644098}
{-0.8184163}
{0.96029174}
{-0.8292177}
{-0.7588525}
{-0.52663743}
{0.023597684}
{-0.19972879}
{-0.53305554}
{-0.4960859}
{-0.33379975}
{0.54897475}
{0.18604164}
{-0.47135866}
{-0.8788687}
{-0.8929076}
{0.30628568}
{0.6218728}
{-0.34483916}
{-0.4746154}
{0.5401479}
{0.47325924}
{-0.09824527}
{-0.43553692}
{-0.9338283}
{0.72637403}
{-0.7669376}
{-0.093275}
{0.25467744}
{-0.46395257}
{-0.74415517}
{-0.5165213}
{0.5826732}
{-0.47704569}
{0.8860924}
{0.20975918}
{0.08640085}
{-0.03359311}
{-0.19563505}
{0.09093936}
{0.20486386}
{-0.38577157}
{-0.771322}
{-0.61490273}
{0.7493242}
{0.48804262}
{0.44466758}
{0.89912415}
{-0.8307337}
{-0.04869619}
{-0.42182007}
{0.4304921}
{-0.76116544}
{0.6829462}
{0.6131939}
{-0.17799073}
{-0.12136633}
{0.83916706}
{0.6121099}
{0.3109004}
{-0.8761871}
{0.854948}
{0.53938776}
{-0.57648706}
{-0.8171074}
{-0.5494676}
{-0.57720965}
{-0.73317695}
{0.06766331}
{0.60699946}
{-1.068183}
{0.6825521}
{-0.96690744}
{0.45346847}
{0.7901505}
{0.72673297}
{0.26625073}
{-0.11430842}
{0.47959414}
{0.6671026}
{-0.4930254}
{-0.5692477}
{-0.6627338}
{-0.8566003}
{0.4755167}
{0.83774114}
{-0.20664135}
{-0.36410314}
{-0.8008698}
{0.21418762}
{-0.012501794}
{-0.80964017}
{-0.58301675}
{-0.0849814}
{-0.19104911}
{-0.0032815852}
{-0.5333386}
{-0.43212035}
{-0.22544543}
{-0.8282347}
{0.8225656}
{-0.05573603}
{0.109355085}
{0.74185896}
{0.34727243}
{0.014650333}
{0.17824276}
{0.51856995}
{-0.8948135}
{0.35946104}
{0.35428786}
{-0.4451278}
{0.42981178}
{0.66930264}
{-0.91639334}
{0.93615437}
{0.0030502416}
{-0.97182316}
{-0.48589584}
{-0.3679965}
{0.47557917}
{-0.021401972}
{-0.08508616}
{0.9608526}
{-0.38271037}
{0.666959}
{0.22265354}
{0.62717056}
{-0.35466105}
{-0.11978778}
{-0.016528638}
{-0.9452877}
{-0.1383249}
{0.53759205}
{1.0764514}
{-0.14261292}
{-0.278148}
{-0.090461284}
{0.083078794}
{0.5207207}
{0.48475}
{-1.0937248}
{0.19237335}
{-0.47464782}
{0.17165826}
{-0.5384417}
{0.9994712}
{0.4234771}
{-0.8327491}
{-0.6506567}
{-0.74192566}
{-0.29797512}
{-0.5565037}
{-0.7471865}
{-0.058522746}
{0.77143455}
{0.95715225}
{-0.42051584}
{-0.26084164}
{0.763824}
{0.041731447}
{-0.8094838}
{-0.22894412}
{0.28534454}
{-0.46626765}
{0.81965685}
{-0.7988716}
{0.312725}
{0.5506062}
{0.76608145}
{1.0654416}
{-0.033328045}
{-0.3993832}
{-0.32212672}
{0.00052755733}
{-0.7713237}
{-0.4011359}
{-0.34552583}
{0.9290285}
{-0.68145466}
{0.73872286}
{-0.39357355}
{-0.5657109}
{-0.9815326}
{-0.91318685}
{-0.045268748}
{0.6551679}
{0.8731966}
{0.23935562}
{-0.44093043}
{0.102185585}
{0.23812288}
{0.43788785}
{-0.7969094}
{-0.69212437}
{-0.29864103}
{0.33274278}
{0.33202523}
{0.71513724}
{0.1719734}
{0.7461182}
{0.66523665}
{-0.8375672}
{-0.01574563}
{-0.15857022}
{-0.7964489}
{-0.84621376}
{-0.44425493}
{0.43666786}
{0.6689611}
{-0.29824588}
{0.49641508}
{0.10683662}
{-0.42144448}
{0.18159948}
{0.15626091}
{-0.82523835}
{0.62436}
{-0.016793396}
{-0.16305786}
{0.24827863}
{0.05369261}
{-0.9289478}
{-0.2126134}
{-0.5672376}
{0.42448497}
{0.32175165}
{0.19143766}
{0.61733156}
{-0.07868297}
{-0.35277632}
{-0.48704392}
{0.8226366}
{-0.62121975}
{-0.6774647}
{0.46938634}
{0.07435537}
{-0.29473674}
{0.64079756}
{-0.45405155}
{0.82369727}
{-0.7145241}
{0.72467804}
{-0.79111433}
{-0.55954546}
{-0.5766916}
{0.62678754}
{-0.67965364}
{0.6979716}
{-0.030242078}
{0.15994845}
{0.3764338}
{-0.3436179}
{0.09790535}
{0.14760858}
{0.24627775}
{0.5164322}
{0.23850828}
{0.5995103}
{-0.36512595}
{0.26747695}
{0.9166322}
{0.039276056}
{-0.21493965}
{-0.8528923}
{-0.04789477}
{-0.9881218}
{0.21163338}
{0.50507975}
{0.8053699}
{0.63719696}
{0.05036359}
{0.27166286}
{-0.4662003}
{0.70228624}
{-0.48855573}
{-0.04587358}
{0.8902571}
{0.7480569}
{-0.20647365}
{-0.5753399}
{0.8124463}
{0.85846615}
{0.008954771}
{0.18021351}
{-0.46279162}
{-0.53163064}
{0.09940938}
{0.49561453}
{0.39035106}
{-0.48849872}
{0.3077795}
{-0.7580504}
{-0.23066756}
{0.55461615}
{0.71639466}
{0.2189456}
{0.5827956}
{0.45119566}
{0.47796857}
{-0.18901318}
{-0.9964482}
{-0.24565572}
{-0.86676645}
{-0.5441947}
{0.51801956}
{-0.52405536}
{0.3184368}
{-0.6832075}
{0.5749627}
{-0.20181188}
{-0.58130455}
{-0.113904655}
{0.41590592}
{-0.23127495}
{-0.729753}
{-0.8979545}
{0.3307145}
{-0.87011933}
{-1.0261297}
{0.38682386}
{0.7144116}
{0.7354578}
{-0.33533126}
{0.84730685}
{0.626776}
{-0.6564951}
{-0.85456276}
{0.47321194}
{-0.7286225}
{-1.0045152}
{0.8997264}
{0.5972064}
{0.72159976}
{0.090239435}
{0.20462197}
{-0.8551917}
{-0.30606332}
{0.84948415}
{-0.6825557}
{-0.6916366}
{0.65232843}
{-0.2748401}
{0.38554114}
{-0.105291046}
{-0.06820861}
{-0.854709}
{-0.3289984}
{0.4549324}
{-0.9165738}
{1.0046244}
{0.23449486}
{0.61405206}
{-0.8908574}
{-0.15858659}
{-0.1864534}
{-0.22952697}
{0.68857175}
{0.07497472}
{-0.2453466}
{-0.71223676}
{-0.17808482}
{-0.284402}
{0.170896}
{-0.013187496}
{0.2844772}
{0.06814317}
{-0.0078790095}
{0.5160416}
{-0.6556918}
{0.8980845}
{0.12040254}
{0.8411403}
{0.1068315}
{-0.6367802}
{-0.56972504}
{0.9590349}
{-0.23136503}
{0.2904561}
{-0.51693684}
{0.6103135}
{-0.59435093}
{-0.7145459}
{-0.4450236}
{0.30723503}
{0.21533029}
{0.7379353}
{0.68607974}
{0.924205}
{-0.7573137}
{0.050379414}
{0.0027875977}
{0.16391684}
{-0.60231304}
{0.8146046}
{-0.40635592}
{-0.6886014}
{-0.91266453}
{0.47650856}
{-0.02021884}
{0.059380643}
{0.40587932}
{-0.67157483}
{0.7352798}
{0.41564217}
{-0.6453109}
{0.042128183}
{-0.39768273}
{-0.22294748}
{-0.65639293}
{-0.88874495}
{-0.56566}
{0.78577036}
{-0.25007784}
{0.9052389}
{0.18421143}
{-0.24359965}
{0.657062}
{-0.35878244}
{-0.9592142}
{-0.73511386}
{0.32643926}
{-0.3258734}
{0.7842462}
{0.7558198}
{0.2019928}
{0.7777343}
{0.77989554}
{0.38428575}
{-0.7735921}
{0.6701027}
{-0.12882727}
{-0.5475543}
{0.63798374}
{-0.5401775}
{0.5334048}
{-0.09396917}
{-0.8782668}
{0.6788116}
{-0.62640333}
{-0.7681265}
{-0.6890892}
{-0.4259537}
{0.1753611}
{0.82471985}
{0.96513534}
{0.9942804}
{0.7575145}
{-0.8465283}
{-0.39838988}
{0.96608263}
{-0.35595256}
{0.73240906}
{-0.614935}
{0.07943323}
{0.8236697}
{-0.2403965}
{-0.113546595}
{0.5339176}
{-0.66657424}
{-0.9158239}
{-1.0568602}
{-0.618368}
{0.6133287}
{0.6750517}
{0.8026409}
{-0.72930413}
{-0.2598148}
{0.6529153}
{-0.5469376}
{-0.11282587}
{0.023736246}
{0.8019265}
{0.41286495}
{0.26518148}
{-0.43641073}
{-0.6153348}
{-0.78523237}
{-0.09709654}
{0.022459991}
{-0.38225326}
{0.75787103}
{0.2784732}
{-0.27617794}
{0.4600921}
{0.9343507}
{-0.6242457}
{0.4442734}
{0.40355012}
{-0.5336183}
{0.15556231}
{0.6084044}
{0.5484358}
{0.21809156}
{-0.26919016}
{0.07744844}
{-0.803302}
{0.4491423}
{-0.25576115}
{-0.83267355}
{0.15162274}
{-0.5738526}
{0.009324591}
{0.45919245}
{-0.5376776}
{0.093885444}
{-0.53991646}
{-0.738637}
{-0.09919447}
{-0.30828005}
{-0.5009724}
{0.16195649}
{-0.737093}
{-0.3711108}
{-0.089836426}
{0.92168045}
{-0.09095659}
{-0.11458599}
{-0.9191824}
{-0.8588915}
{-0.7992203}
{0.88097966}
{0.52188605}
{0.24945539}
{1.0784236}
{0.1497945}
{-0.9104558}
{0.32548255}
{0.1233156}
{-0.76088756}
{0.7426899}
{-0.2087577}
{0.60897094}
{-0.117425494}
{-0.31993562}
{0.33987802}
{0.49102968}
{0.1529026}
{-0.89309824}
{-0.13736722}
{0.004003822}
{-0.6677812}
{-0.5056287}
{-0.26188213}
{0.60966194}
{-0.028047128}
{-0.589402}
{0.5822301}
{-0.636317}
{0.050550714}
{-0.78329784}
{0.8723557}
{-0.72596204}
{-0.9213336}
{0.84076655}
{0.92334175}
{0.79120576}
{0.40300903}
{-0.03604045}
{-0.22317106}
{0.8184598}
{-0.06943503}
{-0.4625363}
{0.06437929}
{-0.85527754}
{-0.04970322}
{0.7849288}
{0.16803855}
{-0.2611991}
{-0.40732062}
{0.30466425}
{-0.050006382}
{-0.24498105}
{-0.6569651}
{0.44307065}
{0.032514114}
{0.046964593}
{-0.91389865}
{-0.79243666}
{-0.5874016}
{-0.88194305}
{0.93252486}
{-0.56232154}
{-1.0165913}
{-0.35749975}
{0.5653073}
{-0.2556654}
{-0.63482094}
{-0.10696112}
{-0.75443774}
{-0.37930802}
{0.8435819}
{-0.4689139}
{0.5774359}
{-0.32956034}
{-0.2845176}
{0.8316338}
{0.120748006}
{-0.54399073}
{-0.44087297}
{0.68016565}
{0.02745512}
{-0.062403746}
{-0.29595643}
{0.68871075}
{0.20760022}
{0.5004422}
{0.080020264}
{0.51988953}
{0.7995874}
{-0.50514156}
{0.7953329}
{-0.19614021}
{-0.77313846}
{-0.36582315}
{0.6082957}
{-0.0061425976}
{-0.011666874}
{-0.6707028}
{-0.8087249}
{-0.1602418}
{-1.0497184}
{0.41982523}
{-0.093810014}
{0.4981799}
{0.20314787}
{0.6243518}
{0.6870246}
{0.8883561}
{-0.081078}
{-0.39140454}
{0.5017166}
{-0.14807846}
{-0.701905}
{0.5097064}
{-0.11417644}
{-0.72712964}
{0.5666616}
{-0.42835957}
{0.54760003}
{0.32335615}
{-0.59943277}
{-0.22989158}
{-0.9992416}
{-0.55006605}
{0.15285015}
{0.2564724}
{-0.051068537}
{0.9472462}
{-0.45842952}
{0.769452}
{0.90401435}
{1.063997}
{0.41539744}
{0.8975871}
{0.7456112}
{-0.43033463}
{0.46342793}
{-0.6088721}
{-0.13329978}
{-0.88352907}
{0.5859034}
{0.34360486}
{0.92733073}
{0.22250421}
{-0.7240874}
{-0.14309774}
{0.94010806}
{0.18629222}
{-0.6900515}
{-0.4797453}
{0.17554754}
{0.93927974}
{0.58931684}
{-0.90659165}
{0.71665215}
{-0.8359736}
{0.53048927}
{0.22196046}
{-0.33635074}
{-0.6676467}
{0.90173525}
{0.3130591}
{-0.70760703}
{0.65497077}
{0.28801695}
{0.28821018}
{-0.43341452}
{-0.8423718}
{0.8303677}
{0.98083866}
{-0.14235757}
{0.93326384}
{0.50962216}
{0.08840774}
{0.40596265}
{0.8439066}
{-0.32397544}
{-0.60918707}
{-0.486754}
{-0.020554408}
{-0.39477578}
{-0.47010952}
{-0.047706358}
{0.6842006}
{-0.110569835}
{0.12306971}
{-0.35585862}
{0.1146396}
{0.4381417}
{0.4138014}
{-0.6593859}
{0.56208384}
{-0.37942886}
{-0.6292943}
{-0.21606547}
{-0.79083616}
{-0.13252895}
{-0.10065142}
{-0.80368614}
{-0.6191364}
{-0.8388155}
{0.5541766}
{-0.11179225}
{-0.53134155}
{0.36322156}
{0.66843677}
{-0.53875804}
{0.34017354}
{0.57217413}
{-0.40499648}
{-0.5446713}
{-0.36459872}
{-0.103043035}
{0.025044192}
{-0.6825459}
{-0.56363547}
{-0.9391895}
{0.2454763}
{-0.039318793}
{0.2101198}
{0.83370984}
{0.17698929}
{0.5169072}
{0.9222351}
{0.49035338}
{-0.6423042}
{0.5418968}
{-0.5491379}
{-0.8841385}
{0.67515403}
{0.2957713}
{0.6080946}
{0.5443227}
{0.001382443}
{0.49971434}
{0.85779613}
{-0.039115094}
{0.17734265}
{-0.9841349}
{-0.12540282}
{-0.31021696}
{0.21399246}
{-0.51364625}
{-0.79616475}
{0.3751141}
{-0.45332482}
{0.40277785}
{0.015559314}
{0.9017763}
{0.22357075}
{0.105201736}
{-0.2267324}
{0.061667923}
{-0.35934752}
{0.83504367}
{0.23321524}
{0.1046399}
{-0.24232572}
{-0.44549137}
{0.29852352}
{0.3138986}
{0.4704683}
{-0.18793255}
{-0.9134617}
{-0.28471357}
{0.62783945}
{0.8700392}
{0.09696143}
{0.6639147}
{0.2690864}
{0.4724174}
{-0.8828097}
{-0.15302385}
{-0.8339082}
{-0.33586222}
{0.48346242}
{0.81822366}
{0.12726681}
{0.14214677}
{0.25895265}
{-0.15029137}
{0.5550199}
{-0.27247912}
{-0.36725736}
{0.7909818}
{-0.087722965}
{-0.09193963}
{0.93482405}
{-0.43168214}
{-0.59248656}
{-0.16731006}
{-0.8639374}
{0.8581194}
{0.21530573}
{-0.91205406}
{0.05055227}
{0.9544491}
{-0.8901527}
{0.05908806}
{-0.9812762}
{-0.95208985}
{-0.26454535}
{-0.36939603}
{-0.7501677}
{0.7668552}
{-0.07641322}
{0.83866596}
{0.08817835}
{-0.6487494}
{0.77863455}
{-0.79320717}
{-0.8859516}
{0.06424453}
{-0.94462895}
{0.6117151}
{0.46729657}
{0.20683792}
{-0.49303505}
{-0.31967622}
{0.461198}
{0.9241252}
{-0.31482056}
{0.024951942}
{0.40151182}
{-0.13510117}
{0.86086816}
{0.83358526}
{0.11652966}
{0.7783433}
{-0.5969203}
{0.27976507}
{-0.33121407}
{0.87164617}
{-0.23976837}
{-0.44205934}
{0.28338912}
{-0.28999123}
{0.082589045}
{0.8508127}
{0.3058819}
{0.82007945}
{-0.54064}
{-0.84478426}
{0.8923643}
{0.8725665}
{0.35586172}
{-0.11828987}
{0.32954657}
{-0.4542816}
{-0.2539745}
{-0.64115596}
{-0.46611583}
{0.5296244}
{-0.17333578}
{0.44190592}
{-0.18354428}
{-0.11597936}
{-0.70036256}
{-0.69339275}
{0.47508663}
{0.36764455}
{-0.035571575}
{0.14740127}
{-0.9310044}
{-0.5107494}
{-0.5214669}
{0.5331731}
{0.29512364}
{0.5697867}
{-0.7587656}
{-0.39113194}
{-0.63407403}
{-0.6922938}
{0.3541074}
{-0.471937}
{0.89214855}
{0.70330125}
{0.6588857}
{-0.6211901}
{0.74996585}
{-0.99489534}
{0.06133426}
{0.05643779}
{-0.82869214}
{0.2746548}
{-0.707876}
{0.6071389}
{0.42918262}
{0.84110636}
{0.0071379067}
{-0.4431005}
{-0.2590954}
{0.64742756}
{0.143711}
{-0.33066422}
{-0.4272129}
{-0.2507012}
{0.066187754}
{-0.28577787}
{-0.17118129}
{0.22040617}
{-0.17596512}
{-0.787941}
{0.8619751}
{0.1171866}
{-0.40516835}
{-0.73700833}
{0.7281915}
{-1.0193577}
{-0.7184719}
{-0.67641926}
{-0.71483034}
{-0.3511233}
{-0.61059904}
{0.7108772}
{-0.21669303}
{-0.25419718}
{-0.59915}
{0.36371464}
{0.10772701}
{0.32301804}
{-0.41306403}
{0.6134536}
{0.8288737}
{-0.8561767}
{-0.88557583}
{0.20100707}
{0.25147104}
{-0.3067941}
{-0.60109586}
{0.663682}
{1.0008887}
{-0.6622333}
{0.9900805}
{-0.07055614}
{-0.096538626}
{0.04565452}
{0.62249285}
{-0.5483334}
{0.28983217}
{-0.08168641}
{0.6926455}
{-0.54246426}
{-0.8369141}
{0.6805938}
{0.6512957}
{0.17058986}
{0.16190897}
{-0.51031363}
{0.58790904}
{-0.5007408}
{0.6762165}
{0.87977153}
{0.062566794}
{0.21301979}
{-0.06360631}
{-0.94876736}
{0.49528003}
{0.72615075}
{0.0824414}
{-0.4528479}
{0.69556093}
{0.3812713}
{-0.9957654}
{-0.43855083}
{-0.22965117}
{0.6892767}
{0.8557895}
{0.65965176}
{-0.2910408}
{0.118019074}
{0.0556547}
{0.21924768}
{0.8577178}
{-0.69675684}
{0.7714178}
{-0.11986786}
{-0.24526614}
{0.3422317}
{-0.2139727}
{-0.4133158}
{0.16117974}
{-0.97265196}
{0.36191854}
{0.50970083}
{-0.8067818}
{-0.5607259}
{0.27969313}
{0.29508603}
{0.38884953}
{-0.37393934}
{0.053487442}
{0.13717496}
{-0.6360517}
{-0.6905534}
{-0.38524532}
{-0.6619602}
{0.84862524}
{-0.4218629}
{0.17204487}
{-0.3682545}
{-0.3465372}
{0.47306377}
{0.90368617}
{0.761362}
{-0.021406949}
{0.24043196}
{0.22749053}
{-0.47102693}
{-0.9197958}
{0.24423379}
{0.36471763}
{0.78889275}
{0.35029167}
{0.8408792}
{-0.5377069}
{0.42153051}
{0.54240334}
{-0.5455694}
{-0.7430234}
{0.44989163}
{0.29579717}
{0.665009}
{0.09240444}
{0.8190203}
{-0.26000458}
{-0.73248696}
{-0.22613446}
{-0.5178977}
{-0.76853514}
{-0.7288573}
{0.50485444}
{0.2036997}
{-0.019111147}
{0.6460669}
{0.8758836}
{-0.3876328}
{-0.73391837}
{-0.57031107}
{-0.6247666}
{-0.15603267}
{0.8995635}
{-1.0112388}
{-0.6885671}
{0.44405925}
{-0.33135232}
{-0.5278338}
{0.550148}
{-0.09585582}
{0.48064908}
{-0.73689795}
{-0.67452556}
{0.1704084}
{-0.5115439}
{0.7493851}
{-0.7865188}
{-0.30652404}
{-0.0057631163}
{-0.760921}
{0.47537103}
{-0.9064154}
{-0.8254751}
{0.091669865}
{0.06431509}
{-0.56072545}
{-0.34558675}
{-0.42751437}
{-0.2997436}
{-0.39737234}
{1.035112}
{0.25362867}
{-0.9949865}
{-0.050129052}
{-0.43428582}
{0.43128008}
{-0.9523165}
{-0.24864078}
{-0.1285672}
{0.87063766}
{0.33600694}
{0.106126636}
{0.09443517}
{-0.22469503}
{-0.853906}
{-0.6908215}
{-0.68138736}
{0.47257}
{-0.7368562}
{-0.14985523}
{0.19475037}
{0.016403444}
{0.08526468}
{-0.11633057}
{0.38817412}
{-0.23329645}
{-0.7781568}
{0.84368074}
{0.55375344}
{0.6377847}
{-0.017874267}
{0.16226454}
{-0.75181234}
{0.21252435}
{-0.7588631}
{-0.34707424}
{-0.5525277}
{0.15521139}
{-0.9205534}
{-0.8359561}
{-0.15073974}
{-0.079748355}
{0.9489755}
{0.6560141}
{-0.24684861}
{-0.52080655}
{0.69687945}
{0.8896448}
{0.10908131}
{0.9620123}
{-0.27923518}
{0.20166083}
{0.13255198}
{-0.44129664}
{-0.13659444}
{-0.30738828}
{-0.83204865}
{0.045633834}
{0.76978624}
{0.55983794}
{0.5695872}
{-0.22558695}
{0.31057063}
{-0.68554884}
{0.47472635}
{0.40856284}
{0.4134989}
{-0.20663927}
{0.16515835}
{-0.7382505}
{-0.8730861}
{-0.15385917}
{-0.6813668}
{0.30122536}
{0.55637455}
{-0.25342846}
{-0.20881124}
{-0.22149092}
{-0.6293801}
{0.17509925}
{-0.24271744}
{0.6018431}
{-0.21147107}
{0.6330773}
{0.07386274}
{-0.81822085}
{-0.0023577888}
{-0.28491563}
{-0.9226097}
{0.9038489}
{0.8135889}
{-0.4861019}
{-0.44541904}
{-0.5914066}
{0.008058791}
{0.95476437}
{-0.3261544}
{0.13852495}
{-0.74513316}
{0.84327996}
{0.71334636}
{0.3220169}
{-0.47370937}
{0.98210126}
{-0.16582073}
{0.12916082}
{-0.18096192}
{0.9392665}
{0.81706506}
{0.80300665}
{-0.40984017}
{0.268171}
{0.7779244}
{-1.0130277}
{0.21254958}
{0.10162482}
{0.7238056}
{-0.5715542}
{0.5346104}
{0.18783383}
{0.24723424}
{-0.040319435}
{0.054543357}
{-0.0883138}
{0.962582}
{0.74079657}
{0.25853357}
{-0.28248724}
{0.2791933}
{-0.29914933}
{0.36377305}
{-0.20617683}
{-0.5640269}
{-0.5560417}
{-0.15381162}
{-0.41647747}
{-0.4775877}
{0.6323097}
{0.58891785}
{0.94384694}
{0.4909526}
{0.7350974}
{1.0166253}
{0.35656953}
{0.8711386}
{0.73487926}
{-0.52258843}
{-0.24753977}
{-0.040369526}
{0.85096717}
{-0.3667153}
{-0.9174141}
{0.037129898}
{0.7835996}
{0.48602006}
{0.6885295}
{-0.23599538}
{0.5792396}
{0.99564254}
{-0.47166455}
{-0.38944814}
{-0.81388354}
{-0.2261012}
{0.03407085}
{0.6209841}
{0.4778005}
{-0.52857894}
{0.94358575}
{0.27633253}
{-0.15980059}
{-0.7321269}
{1.0870311}
{0.1831851}
{-0.9790759}
{-0.4748126}
{-0.6899477}
{0.5821269}
{-0.33295494}
{-0.80473405}
{-0.49896532}
{-0.68223774}
{-0.81869364}
{0.84231496}
{-0.61467206}
{-0.8401176}
{0.95609426}
{-0.4098903}
{-0.90636873}
{0.6522563}
{-0.17308241}
{0.16443896}
{-0.5788212}
{-0.5630534}
{0.7220211}
{-0.2278562}
{-0.0028716284}
{-0.47624177}
{-0.290731}
{-0.70262754}
{0.9258416}
{-0.2038527}
{-1.000442}
{0.8478414}
{-0.85823256}
{-0.5478848}
{0.10428884}
{0.6115981}
{0.46579552}
{1.0321275}
{-0.64057684}
{-0.7640281}
{-0.6946097}
{-0.29585043}
{-0.94474316}
{-0.7737099}
{-0.8502207}
{0.3290942}
{-0.18285495}
{0.4388943}
{0.7387453}
{-0.28403}
{0.82112145}
{-0.623442}
{0.3763996}
{0.35254845}
{-0.71235204}
{-0.27090514}
{-0.115052685}
{-0.2566681}
{0.4493913}
{0.97784406}
{0.12166015}
{-0.6748741}
{-0.38622886}
{0.6760807}
{-0.26288703}
{-0.5683857}
{-0.36094052}
{-0.79559076}
{-0.9643833}
{-0.63311607}
{0.08799823}
{0.8110744}
{0.90537924}
{0.7808595}
{-0.5373323}
{0.2156547}
{-0.7653336}
{0.94828343}
{-0.5551338}
{0.7207951}
{0.15239425}
{-0.44523746}
{-0.92268586}
