-- Efficiency --
92.82908
-- Weights --
{0.571823}
{-0.8520443}
{-0.7954034}
{-0.7124339}
{0.75407803}
{-0.31450695}
{0.21660544}
{-0.9498304}
{-0.078044854}
{-0.5292433}
{-0.44881567}
{-0.8859106}
{-0.34607878}
{0.4744006}
{0.3824983}
{0.6490566}
{-0.8001665}
{-0.2981013}
{0.59875333}
{-0.2982418}
{0.48801717}
{0.33573455}
{0.21240118}
{0.48553625}
{-0.95498955}
{0.23126285}
{0.98849005}
{0.61176944}
{-0.6491493}
{-0.35917705}
{0.92079896}
{-0.72560894}
{-0.3808519}
{0.9502194}
{-0.370378}
{-0.77327204}
{1.008783}
{0.61429656}
{0.9759047}
{-0.80653924}
{-0.5453094}
{0.06594836}
{-0.02577134}
{-0.51664746}
{0.15300688}
{-0.33843198}
{0.8441317}
{0.50503}
{-0.6735376}
{0.5091003}
{0.01479667}
{0.18713254}
{0.057574812}
{-0.6015478}
{0.29506385}
{-0.21160854}
{0.8224572}
{-0.18163915}
{-0.4700706}
{0.4908845}
{0.009865346}
{-0.2909251}
{0.17646314}
{0.049390156}
{-0.02345055}
{0.9200761}
{-0.61860853}
{-0.16398926}
{-0.19830409}
{-0.9336072}
{0.038326852}
{0.13052072}
{-0.739293}
{0.76069015}
{0.39327973}
{-0.13022459}
{-0.31584254}
{0.48385563}
{-0.93744034}
{0.23307838}
{-0.2881314}
{-0.3982829}
{0.07691355}
{0.51156956}
{-0.7245308}
{0.88678277}
{-0.7891099}
{0.75281864}
{0.57081616}
{-0.020498194}
{0.696429}
{0.73532313}
{-0.8531455}
{0.8163962}
{-0.4617218}
{-0.6126633}
{0.6605092}
{-0.05273088}
{0.026256755}
{-0.7208568}
{0.17491373}
{-0.31080163}
{0.89403695}
{0.60874504}
{-0.94303596}
{-0.15954481}
{0.3342784}
{-0.82909054}
{-0.5862762}
{-0.93300825}
{0.90837795}
{-0.12402616}
{-0.85818565}
{0.28871927}
{0.3517832}
{-0.023682067}
{0.50481725}
{0.8708569}
{-0.8508301}
{0.25456294}
{-0.8115598}
{0.4424487}
{0.89791197}
{0.8412114}
{-0.5904604}
{-0.54760313}
{-0.783696}
{0.59735775}
{-0.6095325}
{0.35108596}
{-0.306182}
{-0.69649035}
{-0.20841971}
{-0.2139239}
{0.23624474}
{0.5291571}
{-0.22705045}
{-0.56771225}
{-0.4985439}
{0.145174}
{-0.100731574}
{0.0063740322}
{-0.92546016}
{-0.5205699}
{-0.009225544}
{0.9420978}
{0.46703464}
{0.07970597}
{0.24291548}
{-0.8706879}
{0.5720915}
{0.29520366}
{0.14300045}
{0.07611406}
{0.5352754}
{0.7279488}
{0.49248013}
{-0.26967564}
{-0.67592096}
{0.9099743}
{-0.30582324}
{-0.26600888}
{-0.57870215}
{-0.45718658}
{-0.7925006}
{-0.96482855}
{-0.31374028}
{0.7119554}
{-0.61295474}
{-0.10876482}
{-0.036539994}
{0.60582936}
{-0.30873242}
{0.70262665}
{-0.56117105}
{-0.43115842}
{-0.7651051}
{-0.15512273}
{0.93497086}
{0.18404497}
{0.8464688}
{-1.0038698}
{0.86095583}
{0.62946963}
{-0.93896616}
{-0.4509818}
{0.01673503}
{0.83610487}
{-0.278088}
{-0.34498778}
{0.32044825}
{0.05156427}
{0.55289686}
{0.7026381}
{-0.55761915}
{0.8679427}
{-0.8420199}
{-0.64892924}
{-1.0028919}
{0.52712095}
{-0.6882292}
{-0.85870165}
{-0.65643126}
{-0.004368674}
{0.28015742}
{-0.7241397}
{0.7761602}
{-0.21527258}
{0.07411985}
{0.412596}
{-0.7417872}
{0.008433061}
{-0.5313443}
{0.8889633}
{-0.6275969}
{-0.2709078}
{-0.9822506}
{-0.2703314}
{-0.62947506}
{0.15134817}
{-0.33420125}
{0.28462183}
{0.2431156}
{-0.97286797}
{0.14321527}
{0.8335141}
{-0.24953794}
{-0.7861997}
{-0.11405201}
{-0.6920934}
{-0.8476682}
{-0.9812398}
{0.9370271}
{-0.8500996}
{0.72816306}
{-0.68826765}
{0.8159398}
{-0.16104482}
{-0.14489292}
{-0.32340834}
{0.13885245}
{0.6626937}
{-0.9833383}
{-0.024080634}
{0.98798907}
{-0.09916504}
{-0.8687987}
{0.2784675}
{-0.5447551}
{0.30586344}
{0.6210124}
{-0.8131784}
{-0.8511137}
{-0.8238526}
{0.39159095}
{-0.9597178}
{-0.23260632}
{0.2904861}
{0.58755815}
{-0.48131508}
{-0.43119064}
{0.2919936}
{0.47969046}
{-0.2886949}
{-0.32895365}
{-0.74021804}
{0.00971639}
{0.5393175}
{0.6374937}
{-0.74882644}
{0.45178637}
{-0.6625951}
{0.19135746}
{0.2671911}
{-0.36290136}
{-0.5320144}
{-0.3236176}
{0.5212896}
{0.61634934}
{0.6909231}
{0.39775452}
{-0.5001518}
{-0.40208784}
{-0.24022688}
{0.53384626}
{-0.3142032}
{-0.89923507}
{0.046589945}
{-0.13692728}
{0.60156846}
{-0.15806173}
{-0.805999}
{0.91240776}
{0.7205596}
{-0.9091425}
{-0.6495178}
{-0.95994866}
{0.6913984}
{0.3048763}
{0.127662}
{-0.6107508}
{0.92950237}
{-1.0203}
{0.823371}
{-0.5509752}
{-0.20727074}
{0.8178958}
{0.12028752}
{1.0110298}
{0.61102945}
{0.07249076}
{0.53024113}
{-0.52920926}
{0.21046557}
{0.61167294}
{-0.4662308}
{-0.43742242}
{0.46549875}
{0.15204865}
{0.40145653}
{-0.6617938}
{0.58144623}
{0.08517092}
{-0.17298111}
{0.9911829}
{-0.81582195}
{0.19624053}
{0.91004103}
{-0.23954216}
{-0.6894812}
{0.8219271}
{0.28523892}
{0.187641}
{0.25316602}
{0.5068089}
{-0.5439802}
{0.40040883}
{-0.95657736}
{0.93762445}
{-0.94451183}
{0.7859379}
{-0.12738667}
{0.53452533}
{0.04271673}
{-0.10210081}
{-0.13150956}
{0.97122115}
{0.19896618}
{-0.30608335}
{-0.21305965}
{-0.37128386}
{-0.5601935}
{0.394986}
{0.88867897}
{-0.67599857}
{-0.89837146}
{0.7281345}
{-0.9558546}
{-0.4779942}
{-0.5282831}
{-0.7289618}
{0.13876642}
{-0.49988312}
{-0.23487003}
{-0.75240433}
{-0.18116139}
{0.9249854}
{-0.5845793}
{-0.4163064}
{0.05786039}
{-0.8102846}
{0.25816345}
{-0.008274969}
{-0.35364076}
{0.2730949}
{0.6457959}
{0.09434251}
{-0.41054156}
{-0.60746247}
{-0.70992523}
{0.14349827}
{0.56097615}
{0.09245698}
{0.86562395}
{0.60174}
{-0.16273274}
{-0.8709546}
{-0.51082957}
{0.16474852}
{0.07984036}
{-0.45229495}
{0.6521571}
{-0.69380605}
{-0.8000423}
{-0.11250823}
{0.62044555}
{0.2628909}
{-0.09185794}
{-0.8205736}
{-0.8056108}
{-0.39027682}
{0.16235563}
{0.65694344}
{-0.49383014}
{0.8530067}
{0.4318433}
{0.7996356}
{0.17160593}
{-0.17852941}
{-0.3249812}
{0.14001909}
{0.8667434}
{0.35215363}
{0.55628866}
{-0.9448065}
{0.35749608}
{-0.35667434}
{-0.041369054}
{0.014351972}
{0.21841785}
{-0.5073253}
{-0.4936606}
{-0.40607437}
{0.8569738}
{0.6643671}
{-0.22306412}
{-0.9091977}
{0.5963264}
{0.093153276}
{-0.10772358}
{-0.82958037}
{0.09944364}
{0.26380977}
{-0.7137622}
{-0.6291887}
{-0.8997047}
{0.22812876}
{0.31726184}
{-0.7159852}
{-0.0722077}
{-0.70134056}
{0.041625805}
{0.48974115}
{-0.9492841}
{1.0095645}
{0.7650423}
{-0.7674509}
{-0.39999697}
{0.6246191}
{0.7066363}
{0.470375}
{-1.0196004}
{-0.97099197}
{-0.72993946}
{0.017036537}
{0.31917122}
{0.48409614}
{0.23370785}
{0.5458228}
{-0.26702622}
{0.113804854}
{0.54485327}
{0.09245329}
{0.13444547}
{0.32121214}
{-0.6119585}
{0.003193302}
{-0.013923067}
{-0.13495103}
{0.1202713}
{0.0052253334}
{0.26490325}
{0.19145045}
{-0.20630313}
{0.16802698}
{-0.96675044}
{0.26797542}
{-0.64237046}
{-0.741748}
{-0.066454194}
{-0.97223055}
{-0.6844774}
{0.39516118}
{-0.27813658}
{0.83643305}
{0.2116813}
{0.39764208}
{-0.21519981}
{0.43187746}
{-0.29166764}
{0.47895083}
{0.16802137}
{-0.5941919}
{0.064400755}
{0.3765568}
{0.42221114}
{-0.6532134}
{0.29596236}
{-0.49014208}
{-0.5387724}
{-0.37438288}
{-0.7395171}
{0.6002846}
{-0.117348924}
{-0.28803673}
{0.31827095}
{-0.3206402}
{-0.22090396}
{0.09255699}
{0.15152556}
{0.07549775}
{-0.63029635}
{-0.4021863}
{-0.5300028}
{0.1708331}
{0.4860996}
{0.5141982}
{-0.20100015}
{0.830907}
{-0.20977618}
{0.9829873}
{-0.1526684}
{0.99246734}
{-0.4835845}
{-0.6543957}
{0.46945187}
{-0.13046235}
{0.9159057}
{0.51923764}
{0.0464639}
{0.83180135}
{-0.22980857}
{-0.98376167}
{-0.085285954}
{0.96551996}
{-0.59022564}
{-0.30310407}
{0.9468824}
{0.8607553}
{-0.46400324}
{-0.4924736}
{-0.07061058}
{0.89468247}
{0.96676755}
{0.8993374}
{0.8147657}
{0.5425179}
{0.35207385}
{-0.39675322}
{-0.8275587}
{0.4119675}
{0.17185763}
{-0.7964028}
{-0.19609806}
{-0.47338146}
{0.82069194}
{-0.06964823}
{0.6932577}
{-0.9745426}
{0.88230854}
{0.9757303}
{0.73077965}
{-1.0458652}
{0.7011108}
{-0.09337851}
{-0.9853376}
{-0.9713702}
{0.18243533}
{-0.21640244}
{0.07160249}
{0.09459851}
{-0.4476765}
{-0.60429585}
{-0.8767698}
{-0.23923995}
{-0.041043498}
{1.0050274}
{-0.3562867}
{-0.6978604}
{-0.48506585}
{-0.5524515}
{0.4043407}
{0.27478942}
{-0.7064793}
{-0.96156037}
{0.5700976}
{0.047108307}
{0.19247605}
{-0.6275033}
{-0.9527762}
{0.5710188}
{-0.64561176}
{0.55680406}
{0.07529455}
{-0.54372704}
{-0.33707005}
{0.951506}
{0.12450376}
{0.21890323}
{0.6443817}
{-0.07018825}
{-0.032593396}
{0.8985351}
{0.31390855}
{0.552384}
{0.7511543}
{0.07619687}
{0.3910569}
{-0.5752381}
{0.54137176}
{-0.3303546}
{0.6011559}
{0.3134962}
{-0.38347542}
{-0.33875534}
{-0.052652277}
{0.7805077}
{0.34380805}
{0.00218534}
{0.27527192}
{-0.6309582}
{0.20106886}
{-0.59113085}
{0.1871111}
{-0.21725431}
{0.45831296}
{-0.7823238}
{0.8734452}
{0.2919298}
{-0.5158807}
{-0.112205245}
{-0.41003668}
{0.94767916}
{0.281178}
{0.92368764}
{-0.26533312}
{-0.36003152}
{-0.9845159}
{0.83864474}
{-0.4270234}
{0.565909}
{-0.09300999}
{0.77681166}
{0.99794483}
{0.65435374}
{-0.5475025}
{-0.29307392}
{0.9915259}
{-0.45030466}
{-0.66792727}
{0.2772687}
{-0.41773072}
{-0.5650877}
{-0.020629708}
{0.83756024}
{0.098623455}
{-0.035720285}
{0.31287453}
{0.998676}
{0.7527755}
{0.8471104}
{-0.8773967}
{0.4122307}
{0.20529689}
{0.85421026}
{0.77977026}
{-0.65173155}
{-0.6030731}
{0.71966255}
{-0.29694927}
{-0.21484818}
{-0.6397684}
{-0.648404}
{0.38398537}
{0.59870493}
{0.5151846}
{-0.117456615}
{-0.08522778}
{-0.35632145}
{-0.81635666}
{0.28999242}
{-0.6692998}
{0.1854869}
{0.21122235}
{-0.7680706}
{-0.032825917}
{-0.2239693}
{0.091412514}
{-0.98542154}
{-0.6233835}
{-0.4767221}
{0.12972386}
{-0.48381034}
{-0.2769268}
{-0.70534325}
{-0.072598584}
{0.5908519}
{-0.8790051}
{-0.6271667}
{-0.3754236}
{-0.9159068}
{-0.6996431}
{0.5283479}
{-0.76090413}
{0.40315136}
{0.3086365}
{-0.88005424}
{-0.89918655}
{0.6017939}
{-0.24989365}
{0.01097224}
{0.15330441}
{0.41485962}
{-0.18452686}
{-0.12143156}
{-0.7928149}
{0.44338045}
{-0.9413923}
{-0.6433124}
{0.61877406}
{-0.2201306}
{0.5062661}
{0.80142725}
{-0.93058985}
{-0.39615956}
{0.5935882}
{0.39842266}
{-0.16820456}
{-0.43699375}
{0.092205904}
{0.70895576}
{0.14750391}
{0.5311693}
{0.098393455}
{-0.68175805}
{-0.8015318}
{-0.17124572}
{0.6821619}
{0.5166872}
{-0.4296373}
{0.2442244}
{-0.009416177}
{-0.2891312}
{-0.7856941}
{-0.009809192}
{-0.5640665}
{-0.97697735}
{-0.17833725}
{0.9613534}
{0.8748903}
{-0.12770756}
{0.7015459}
{1.0110518}
{0.8744805}
{0.36683646}
{0.97855276}
{0.5889479}
{-0.008310825}
{0.047527786}
{-0.109456904}
{0.20388088}
{-0.29128575}
{0.13704823}
{0.4874734}
{-0.14787665}
{0.9013893}
{-0.20985615}
{-0.24933484}
{0.6149124}
{-0.028134946}
{0.8576896}
{0.4969624}
{-0.4339091}
{0.15095785}
{0.27949274}
{-0.9223414}
{0.106630124}
{-0.6674428}
{0.13625304}
{-0.37573174}
{0.36209258}
{0.26732844}
{0.09213858}
{-0.089903824}
{0.80173886}
{0.4994123}
{0.07089795}
{-0.6169218}
{-0.7030529}
{0.6436469}
{-0.68496126}
{0.42615423}
{0.10696391}
{0.40848228}
{0.9228329}
{-0.44646585}
{-0.3069395}
{0.62355214}
{-0.34919623}
{0.50616413}
{0.9727098}
{0.0031901957}
{-0.8864314}
{-0.56407446}
{-0.36644402}
{0.023129221}
{-0.5660733}
{0.008554819}
{-0.88714373}
{0.18594132}
{-0.9402985}
{-0.12416372}
{-0.2964045}
{0.66755503}
{-0.79339933}
{-0.11365193}
{0.23736152}
{0.18066455}
{-1.0812067}
{-0.6614845}
{-0.25086108}
{0.94524467}
{0.44809812}
{0.6131264}
{0.40495953}
{0.22342204}
{0.69047314}
{-0.5137192}
{-0.18462148}
{-0.43105763}
{-0.8941455}
{0.5502548}
{0.576372}
{-0.6826948}
{0.8868956}
{-1.029185}
{-0.4845823}
{0.20736213}
{-0.12356571}
{0.46499485}
{-0.3696045}
{0.045775764}
{0.44253555}
{-0.78063685}
{-0.8481294}
{-0.8228335}
{-0.6749351}
{0.8455186}
{0.6662892}
{-0.07895429}
{0.060889386}
{0.18103902}
{-0.29455724}
{0.07461251}
{-0.6550195}
{-0.4245972}
{0.80708253}
{0.7892208}
{0.42012906}
{-0.57407486}
{-0.7252759}
{0.93003815}
{0.12314609}
{0.0706547}
{-0.115944095}
{-0.4511554}
{-0.66286963}
{0.013852177}
{-0.51798403}
{-0.031132866}
{0.5987582}
{-0.32061175}
{-0.34228244}
{0.20177767}
{-0.16828199}
{-0.30188143}
{0.29834136}
{0.23379917}
{0.29107207}
{0.12665823}
{-0.8706037}
{0.5428714}
{1.002441}
{0.43666214}
{-0.75000584}
{0.47065517}
{-0.63319534}
{0.661538}
{0.047936026}
{0.668622}
{-0.113552764}
{-0.41037095}
{-0.73801124}
{0.0066005606}
{0.5340416}
{0.76806843}
{-0.28454366}
{-0.5766357}
{-0.647768}
{-0.69216114}
{-0.77491915}
{-0.09244821}
{-0.7033477}
{0.5963887}
{0.1465567}
{-0.791297}
{-0.21690315}
{0.6496109}
{-0.48127806}
{0.5765361}
{-0.391967}
{0.34469685}
{0.83953774}
{-0.9525131}
{-0.82029074}
{-0.25909334}
{-0.4300548}
{-0.37701544}
{0.3673982}
{-0.032491025}
{-0.72936714}
{-0.7145834}
{-0.81128246}
{0.40133515}
{-0.501933}
{0.87862825}
{-0.7472689}
{-0.8084479}
{-0.71568596}
{-0.08204519}
{-0.18709482}
{0.73593175}
{0.80510294}
{-0.644357}
{-0.8572649}
{-0.08357859}
{0.2320033}
{0.416475}
{-1.0009109}
{0.73775566}
{0.3317674}
{-0.8990776}
{0.45572007}
{0.6803544}
{0.37747082}
{0.01521363}
{0.6449207}
{-0.5511732}
{-0.21241418}
{0.23721108}
{0.16101876}
{0.080675095}
{1.0010816}
{-0.07206389}
{-0.6147494}
{-0.26655623}
{0.109499015}
{-1.0209929}
{0.301485}
{-0.059145946}
{1.0072783}
{-0.6156755}
{-0.761415}
{-0.3769102}
{-0.5770234}
{0.73330534}
{-0.1742825}
{0.8841065}
{-0.3841807}
{0.9144254}
{0.34486777}
{0.056847453}
{-0.121814415}
{0.26725963}
{-0.6511615}
{-0.27388623}
{1.0118707}
{0.38972372}
{0.0237633}
{0.7960684}
{0.84676564}
{0.42993867}
{0.21210635}
{-0.9134946}
{0.8708881}
{0.88917994}
{0.07467215}
{-1.0064697}
{-0.08027502}
{0.2059378}
{-0.19738671}
{0.5048023}
{0.85500515}
{0.11394777}
{0.33309987}
{-0.45009342}
{0.22650203}
{0.7181699}
{0.08949657}
{-0.19184671}
{0.87633693}
{0.7292332}
{0.61013633}
{-0.62742895}
{-0.76026094}
{0.23835102}
{-0.03963958}
{0.103524186}
{0.6069015}
{-0.9493503}
{-0.89936244}
{0.0564047}
{-0.5565804}
{0.11626918}
{-0.8959933}
{-0.042594627}
{-0.26896873}
{-0.6109148}
{-0.53252465}
{0.6817118}
{0.77936065}
{0.3442681}
{-0.87842715}
{-0.06319743}
{0.3701385}
{-0.23996742}
{0.9820489}
{0.24047704}
{0.2054542}
{-0.11634506}
{0.6561587}
{-0.54370916}
{0.9486958}
{-0.3694289}
{-0.20089617}
{-0.010048635}
{0.5805303}
{-0.92151463}
{-0.84626806}
{-0.4434137}
{-0.5184177}
{0.65421945}
{0.76356214}
{0.85968083}
{0.72751915}
{0.018036094}
{0.08794046}
{-0.5014063}
{-0.29022327}
{-0.51417583}
{0.2836106}
{-0.36403018}
{0.022334877}
{0.87098277}
{0.76934695}
{0.14620756}
{0.46451458}
{0.007399878}
{-0.16571732}
{-0.1299502}
{0.93542683}
{-0.42662215}
{0.5922098}
{-0.010521158}
{0.34349284}
{0.67774546}
{0.19990192}
{-0.68702745}
{0.7729684}
{0.7046291}
{-0.6323148}
{0.018531967}
{-0.2970015}
{0.6292714}
{-0.91089123}
{-1.0746753}
{-0.39531723}
{0.675655}
{0.5098417}
{0.10497671}
{-0.62850344}
{-0.2654409}
{-0.6093497}
{0.24890183}
{-0.36721888}
{-0.62504274}
{0.20237558}
{-1.0224633}
{0.08248476}
{0.04654227}
{0.84358495}
{-0.16168119}
{-0.8924502}
{0.7982318}
{0.52648747}
{-0.42678294}
{-0.55827534}
{0.0049908794}
{0.3445809}
{0.61355406}
{0.9124018}
{-0.22235107}
{-0.57730985}
{0.2019327}
{0.5104858}
{-0.32153767}
{-0.6973606}
{0.31354707}
{0.13096792}
{-0.806591}
{0.8779787}
{0.26747537}
{-0.7680856}
{-0.35880733}
{-0.60805416}
{-0.14232156}
{-0.55818594}
{0.2229273}
{0.8610191}
{0.04902521}
{0.026145283}
{-0.9050545}
{-0.20270091}
{0.7459262}
{0.31862292}
{0.68738705}
{0.5665197}
{-0.49400815}
{-0.92290366}
{0.34739923}
{0.45693332}
{0.6937359}
{-0.7481698}
{0.6477906}
{-0.63074327}
{-0.6511926}
{0.18814692}
{-0.4838412}
{0.19421034}
{0.8679684}
{0.41308627}
{-0.95960855}
{0.038398586}
{-0.8531058}
{-0.19732371}
{-0.6987509}
{0.013892824}
{0.49058253}
{-0.15106097}
{0.5633018}
{0.14295398}
{0.6077465}
{-0.4746634}
{1.00059}
{-0.1596906}
{-0.44546336}
{0.7782296}
{0.0025161551}
{0.42636272}
{-0.49021274}
{-0.024350341}
{0.9100448}
{1.0091168}
{-0.7114267}
{-0.31551257}
{-0.28720406}
{0.52287924}
{-0.97139}
{0.3017834}
{0.29643866}
{0.06720649}
{0.25982955}
{0.9375571}
{-0.2133209}
{0.27225307}
{0.5421506}
{-0.38770714}
{0.12365947}
{-0.73424554}
{-0.21002553}
{-0.7907804}
{0.5517378}
{-1.0637779}
{0.20913222}
{1.0036887}
{-0.40596867}
{-0.9272048}
{-0.95136154}
{0.47916326}
{0.0894122}
{-0.74982995}
{0.44839954}
{-0.7736083}
{-0.8861902}
{0.090375714}
{0.87913066}
{0.52282345}
{-0.6802049}
{0.6496103}
{-0.16545478}
{0.2945827}
{-0.24041915}
{0.52768546}
{0.6820285}
{-0.5680903}
{-0.8967946}
{-0.42795047}
{-0.4875794}
{-0.17257419}
{0.65204364}
{-0.1601855}
{0.8243867}
{0.4690226}
{0.39287466}
{-0.3792542}
{0.88757837}
{0.015736643}
{0.31921002}
{-0.48299187}
{-0.64698374}
{-0.3012971}
{-0.29509217}
{-0.6803731}
{0.8507887}
{-0.35654584}
{0.23849224}
{0.07354364}
{-0.91461605}
{0.36419114}
{-0.32218328}
{0.018313676}
{0.29109773}
{0.6833714}
{-0.58848846}
{-0.06722707}
{0.16601533}
{0.8058518}
{0.14092198}
{-0.40942052}
{0.8910474}
{-0.05029815}
{0.033304513}
{-1.0188924}
{-0.19117327}
{-0.9625963}
{-0.32999608}
{-0.577011}
{-0.2879532}
{-0.23195258}
{-0.54604834}
{-0.23980023}
{-1.0196843}
{0.90379775}
{0.4522522}
{0.722193}
{0.56296307}
{1.0019125}
{0.22102365}
{0.088635854}
{0.59249705}
{0.25600824}
{0.21053785}
{-0.57821304}
{0.3083165}
{0.7808422}
{0.3364711}
{0.5203406}
{-0.2636199}
{0.20081362}
{-0.38761985}
{0.89027786}
{0.24843656}
{0.92156494}
{0.51799107}
{-0.09652435}
{-0.7043952}
{0.23190984}
{-0.40413788}
{-0.18696812}
{-0.15713058}
{0.32491288}
{0.6956514}
{0.42393664}
{0.010022461}
{0.86482227}
{0.67372435}
{-0.07378665}
{0.69395584}
{0.9410342}
{-0.9428988}
{-0.7647752}
{-0.65497804}
{-0.9450296}
{0.4475511}
{-0.35117903}
{-0.034867942}
{-0.49018642}
{0.51278234}
{0.14473122}
{0.5549838}
{1.0036167}
{0.037628703}
{-1.0377693}
{0.61651736}
{-0.095389806}
{0.27356285}
{0.5354267}
{-0.119710796}
{0.622074}
{-0.88709396}
{0.30921972}
{0.44158822}
{-0.7183813}
{0.49875897}
{-0.109427236}
{-0.7452846}
{-0.82382333}
{0.5947681}
{-0.8023101}
{0.8539474}
{0.8724066}
{-0.16487569}
{0.81752324}
{0.07590621}
{0.8775054}
{-0.63514876}
{0.38603386}
{0.22111185}
{-0.82970655}
{0.21707854}
{0.7970752}
{-0.43202218}
{-0.3566014}
{-0.91885465}
{0.57903486}
{0.86078364}
{0.831282}
{-0.112419814}
{-0.4079568}
{0.6761208}
{-0.8043753}
{-1.0099393}
{0.48570982}
{0.32929918}
{0.07238512}
{-0.8931758}
{-0.7654681}
{-0.61966074}
{0.9387876}
{0.5764015}
{0.16302627}
{-0.40878734}
{0.6086441}
{-0.72662914}
{0.40584356}
{0.28039303}
{-0.3817717}
{0.49764872}
{0.38380548}
{0.14785758}
{-0.054509588}
{0.097922035}
{-0.96829724}
{-0.010877326}
{-0.38033643}
{-0.51549417}
{0.8534723}
{0.31564945}
{0.83957756}
{0.7094454}
{-0.83446795}
{0.54171526}
{0.62923753}
{0.16367394}
{0.4588016}
{0.38795447}
{-0.7447895}
{-0.73207426}
{0.8863029}
{0.3357548}
{-0.17724505}
{-0.8060544}
{0.2915628}
{0.8031555}
{-0.49744445}
{0.5808177}
{0.4632863}
{0.53461975}
{0.41417012}
{-0.15756275}
{-0.23628122}
{-0.049155924}
{-0.5305816}
{-0.19610925}
{-0.30213073}
{-0.3064734}
{-0.9839672}
{-0.7707364}
{-0.62076294}
{0.8765092}
{-0.8970889}
{-0.93597597}
{-0.9505637}
{-0.61637765}
{0.09064964}
{-0.057207853}
{-0.09175989}
{0.87164533}
{1.0101436}
{0.37986556}
{-0.88656324}
{-0.84869313}
{-0.73254263}
{-0.9725341}
{0.4007569}
{0.2551339}
{-0.36715046}
{-0.25069004}
{-0.06632519}
{-0.10647408}
{0.8753902}
{0.5685503}
{0.32743108}
{-0.8673276}
{0.20424446}
{0.9177266}
{-1.0367918}
{-0.023375606}
{0.6648642}
{-0.5683311}
{0.09945914}
{-0.49938193}
{0.06742316}
{-0.61073667}
{0.8098656}
{-0.20802575}
{0.55724585}
{0.684425}
{-0.9932213}
{-0.251797}
{0.07469682}
{0.8689134}
{-1.0236362}
{0.6466184}
{0.85925734}
{-0.88487744}
{-0.31210646}
{-0.3696856}
{-0.38037482}
{-0.40316576}
{-0.37189624}
{-0.26092723}
{-0.04180759}
{0.4537523}
{-0.7928711}
{0.17973015}
{0.10809926}
{-0.3449083}
{-0.24244344}
{0.81236887}
{-0.13745347}
{0.24475506}
{-0.7235121}
{0.65703905}
{0.780666}
{0.95228124}
{0.25293994}
{0.019743323}
{0.15466079}
{-0.12844571}
{-0.69799703}
{0.77561307}
{-0.43851104}
{0.17369409}
{-0.3477976}
{-0.32396635}
{-0.9723207}
{0.95861024}
{-0.55198634}
{-0.7756716}
{-0.56162035}
{0.85548747}
{0.06952164}
{0.039991353}
{-0.10750838}
{-0.83834}
{-0.34693182}
{-0.24498555}
{-0.688501}
{-0.41635826}
{-0.2799114}
{0.021420687}
{-0.7825378}
{-0.6158953}
{0.17131303}
{-0.28404567}
{0.56562054}
{-0.6824664}
{0.51769847}
{-0.9428406}
{0.40755948}
{0.53364205}
{0.5582019}
{-0.5291481}
{-0.8799797}
{0.39190573}
{-0.740264}
{0.15059343}
{-0.026627477}
{-0.076586515}
{0.44225028}
{0.43910182}
{0.1612576}
{-0.17205143}
{-0.63878745}
{-0.92230165}
{-0.15636101}
{-0.91897947}
{-0.17532192}
{0.82704663}
{0.89761484}
{-0.85789657}
{0.66351706}
{0.34483328}
{-0.3167278}
{0.70159286}
{0.8735492}
{0.67807376}
{0.8903066}
{-0.016000517}
{-0.42670527}
{0.95102984}
{-0.09766551}
{0.37585223}
{0.72232306}
{-0.6094426}
{1.003446}
{-0.29527432}
{0.73504317}
{0.057982128}
{0.20156655}
{-0.3535627}
{0.8875378}
{0.03988013}
{0.11553625}
{0.33237472}
{-0.53286266}
{-0.5187343}
{0.47856507}
{0.5003247}
{0.22222854}
{0.8313738}
{0.8370005}
{0.80943054}
{-0.13837293}
{0.8353819}
{0.53211415}
{-0.3576835}
{0.4160241}
{0.120741345}
{0.79952466}
{-0.26967767}
{-0.95873463}
{0.18652111}
{0.38969597}
{-0.9660933}
{0.3049857}
{0.083229475}
{0.86950505}
{-0.7438376}
{0.41136542}
{0.8915064}
{0.73192203}
{0.695584}
{0.7061378}
{-0.69074464}
{0.8554188}
{-0.005436972}
{0.080178894}
{-0.27762848}
{-0.021438297}
{-0.23362105}
{-0.6118671}
{0.7179752}
{-0.31592765}
{-0.3481014}
{0.77653384}
{0.91282016}
{-0.335349}
{0.2573818}
{0.3944329}
{-0.8616558}
{-0.71672857}
{-0.9170363}
{-0.83859295}
{0.28087854}
{0.19885477}
{0.24004127}
{0.58120185}
{0.27776015}
{-0.048036985}
{-0.2501596}
{0.8448278}
{-0.3026228}
{0.97954404}
{-0.83605224}
{-0.62111056}
{-0.18606603}
{0.3087426}
{0.27372023}
{0.1401722}
{0.5755794}
{0.06377703}
{-0.5861895}
{0.86449087}
{-0.15223907}
{-0.8223058}
{0.0859987}
{-0.9993143}
{-0.5490131}
{0.9044174}
{-0.19657105}
{-0.101803966}
{-0.6301888}
{0.39704904}
{-0.11533217}
{-0.3512172}
{-0.09455578}
{-0.6373459}
{0.116111755}
{0.6781263}
{-0.24627176}
{-0.96912014}
{-0.8956518}
{-1.052338}
{-0.018137667}
{-0.29337755}
{-0.7202226}
{0.25557253}
{0.25176325}
{-0.031688865}
{0.013342246}
{-0.18165818}
{0.10958367}
{-0.025618728}
{-0.38904625}
{-0.21027216}
{-0.9630765}
{-0.79263675}
{0.4630928}
{0.23323394}
{-0.47877273}
{0.9674138}
{0.7143441}
{-0.89116716}
{0.3768514}
{-0.07450291}
{0.7485863}
{-0.6689772}
{-0.9297462}
{0.5577556}
{0.5902472}
{0.50609475}
{-0.015592247}
{0.055964295}
{0.09853288}
{-0.8440284}
{-0.87947476}
{0.25969014}
{-0.14751002}
{0.7460378}
{-0.9598506}
{0.59130514}
{-0.18143497}
{-0.0321699}
{-0.5835524}
{-0.3935813}
{-0.018413998}
{0.47984883}
{-0.67230916}
{-0.5352839}
{0.6584917}
{0.5091525}
{0.5494373}
{0.11410884}
{0.43715283}
{0.62544477}
{0.10928983}
{-0.26790944}
{-0.16782278}
{0.70731413}
{-0.6202455}
{-0.64568865}
{-0.4327094}
{-0.35694748}
{0.71290934}
{0.30956563}
{-0.2455369}
{-0.31166098}
{0.9336565}
{-0.009458717}
{-0.4983562}
{-0.71727145}
{0.77251416}
{-0.63783157}
{-0.38177192}
{-0.7482812}
{-1.002933}
{0.66074336}
{-0.103675835}
{0.7285629}
{0.20695247}
{-0.31059304}
{-0.62451565}
{-0.519195}
{0.81079835}
{0.60263145}
{-0.17136118}
{-0.62634015}
{0.23620327}
{0.15935645}
{0.5134851}
{0.1655833}
{-0.76398885}
{0.59333}
{0.33942145}
{-0.085414946}
{-0.6492067}
{0.6961287}
{0.9623366}
{-0.24243265}
{-0.364838}
{-0.57886136}
{-0.90878856}
{-1.0646323}
{-0.1827158}
{0.028866354}
{0.0967516}
{0.291977}
{-0.7245575}
{-0.11316939}
{-0.6859865}
{-0.5212066}
{-0.78083277}
{0.8064259}
{-0.19650674}
{0.88846755}
{0.9019807}
{0.7507435}
{0.86233926}
{0.6815827}
{0.026797378}
{-0.108370505}
{0.08300806}
{-0.21086124}
{-0.17656703}
{0.12029103}
{-0.5914983}
{0.4412696}
{-0.08078328}
{0.8239125}
{0.009643256}
{0.67549956}
{-1.006504}
{-0.5464004}
{-0.6793757}
{-0.7504823}
{0.6011977}
{-0.12454835}
{0.12003984}
{0.25016966}
{0.31442192}
{0.2503048}
{0.076118074}
{0.9377426}
{0.35501316}
{-0.7588452}
{-0.59355944}
{-0.2663498}
{0.6269913}
{0.83052814}
{0.45549843}
{-0.30898255}
{-0.9544455}
{-0.380397}
{0.73136955}
{0.8780525}
{-0.39421904}
{-0.49549034}
{-0.102313586}
{0.12892416}
{-0.5461547}
{0.812075}
{-0.6325846}
{0.20253594}
{-0.8024236}
{-0.13010946}
{-0.49159437}
{-0.5711698}
{0.05316097}
{-0.73712575}
{0.20542699}
{-0.0542084}
{-0.83220416}
{0.61360276}
{-0.5362465}
{0.8839172}
{0.9644568}
{-0.06479188}
{0.36565548}
{-0.3304782}
{0.540172}
{0.371811}
{-0.37226692}
{0.6665469}
{-1.023788}
{0.99443567}
{0.2197001}
{-0.3785009}
{0.34229854}
{-0.26100245}
{0.9152142}
{0.053081423}
{-0.5255616}
{0.8879734}
{-0.014453487}
{-0.45627782}
{0.15866995}
{0.7855178}
{0.49303427}
{0.7491911}
{0.82236695}
{-0.5812563}
{-0.18580659}
{0.287031}
{-0.96522856}
{1.0087334}
{-0.7479331}
{-0.46625435}
{0.7820622}
{-0.3387052}
{-0.9121278}
{-0.467266}
{0.65824866}
{-0.73165333}
{0.91086143}
{-0.6405774}
{-0.11346524}
{-0.53300774}
{0.141895}
{0.6550205}
{0.71507084}
{0.45957527}
{0.25003526}
{0.62516004}
{-0.040525388}
{-0.38685337}
{-0.5790056}
{-0.14790076}
{-0.033372447}
{-0.44127598}
{-0.19018593}
{0.5242007}
{0.84281576}
{0.9534904}
{-0.49763045}
{0.32384324}
{0.01824572}
{-0.32340685}
{-0.12141776}
{-0.3047438}
{0.7686228}
{-0.6413833}
{-0.48611453}
{0.7889815}
{0.077040255}
{-0.32038608}
{-0.56017107}
{-0.47655928}
{0.88246596}
{-0.6566018}
{-0.05164588}
{0.13169608}
{-0.67256}
{0.872949}
{0.77707297}
{-0.48828474}
{0.526862}
{0.72897875}
{-0.19534016}
{0.94408435}
{-0.050712667}
{-0.10410949}
{0.19989182}
{0.003830134}
{-0.39194173}
{0.75213325}
{-0.67154723}
{0.4645253}
{0.032152265}
{0.8853401}
{0.7810562}
{-0.831282}
{-0.56129164}
{-0.21082845}
{-0.74600077}
{-0.73896706}
{-0.26212764}
{0.36759028}
{-0.9525907}
{0.887802}
{-0.7989785}
{-0.18798509}
{-0.8821505}
{0.5890965}
{-0.34986138}
{-0.7953495}
{-0.41604435}
{0.20527442}
{0.1994266}
{-0.3187441}
{-0.9533012}
{0.06931741}
{-0.44318274}
{-0.2580692}
{0.8326953}
{0.36486146}
{-0.2666785}
{-0.6545061}
{0.6874823}
{-0.01989648}
{0.59640914}
{-0.16243783}
{-0.5894672}
{0.38685864}
{0.10518021}
{0.99247205}
{-0.60897523}
{-0.6489497}
{0.87834215}
{-0.6097313}
{0.21117927}
{0.4029387}
{-0.50898147}
{-0.37265244}
{0.4222649}
{0.37994626}
{-0.80254877}
{0.07654909}
{-0.09869099}
{0.025581166}
{0.8840854}
{0.0033999113}
{0.71659195}
{0.39368638}
{-0.6090527}
{0.023857895}
{0.19963768}
{-0.7246859}
{-1.0236387}
{0.51332057}
{-0.020703947}
{-0.8119}
{0.3449237}
{-0.5440453}
{-0.8774402}
{-0.748362}
{0.78905547}
{0.89033735}
{-0.45660427}
{0.22533354}
{0.07004118}
{0.7833806}
{0.58712167}
{-0.8625252}
{-0.4138053}
{0.27422437}
{0.7021104}
{0.48132753}
{0.65454745}
{0.21848044}
{-0.013370147}
{-0.13757963}
{0.17753829}
{-0.92881644}
{0.29715574}
{0.6961752}
{0.40757662}
{0.8049756}
{-0.09818239}
{-0.12993665}
{0.21915308}
{-0.5505692}
{0.37575862}
{0.8685651}
{0.67144704}
{-0.0702953}
{-0.35454234}
{-0.9626687}
{0.2731945}
{0.4580532}
{0.80425745}
{-0.5183889}
{-0.39708015}
{0.25001487}
{0.3749026}
{0.37267554}
{-0.27836972}
{0.5792254}
{-0.31816676}
{-0.8844114}
{0.64051586}
{0.4348322}
{-0.080473915}
{0.49175292}
{0.3039225}
{-0.8276156}
{0.39735022}
{-0.3039037}
{-0.86967087}
{-0.74243534}
{-0.62474096}
{-0.0830075}
{0.76740766}
{0.21460328}
{0.011874515}
{-0.7570951}
{0.45402247}
{-0.06293174}
{0.32438263}
{0.37473902}
{0.7411261}
{0.89162505}
{-0.8335017}
{-0.975105}
{-0.8786191}
{0.57116425}
{0.84632975}
{-0.09593849}
{-0.5816052}
{0.020307127}
{-0.22907805}
{-0.49368042}
{0.7391445}
{-0.30392614}
{-0.18674581}
{0.70282435}
{-0.48999897}
{-0.013467487}
{0.41759893}
{0.279163}
{0.4471138}
{0.94477475}
{-0.510242}
{-0.41876262}
{0.5412501}
{-0.6209866}
{-0.25596085}
{-0.96566546}
{0.8022221}
{-0.53233373}
{0.76527387}
{-0.95214725}
{-0.7147172}
{0.74279916}
{-0.5535473}
{-0.8817467}
{-0.3821818}
{-0.16709033}
{-0.24254794}
{0.05748008}
{-0.43826425}
{-0.21691027}
{-0.27604198}
{0.52789533}
{0.7416157}
{-0.7005483}
{0.082064204}
{-0.29122958}
{0.14224264}
{-0.94274795}
{-0.48148373}
{-0.386183}
{-0.58114284}
{-0.15370193}
{0.41951755}
{-0.039876312}
{-0.94515574}
{0.11086968}
{0.7502706}
{0.34378344}
{-0.96677786}
{0.6434821}
{-0.332831}
{0.058769148}
{-0.83928895}
{-0.3441371}
{0.84262687}
{-0.21201633}
{0.66518164}
{-0.18964115}
{-1.0087028}
{-0.11997991}
{-0.23613803}
{-0.110340804}
{-1.0271997}
{-0.43535638}
{-0.024317186}
{0.17887768}
{0.85995185}
{0.057254996}
{-0.5382522}
{-0.18946686}
{-0.40811998}
{-0.7858368}
{-0.3352897}
{0.31795844}
{-0.77269477}
{0.34110725}
{-0.89750546}
{0.95927346}
{0.8876206}
{0.505258}
{-0.37753868}
{0.45161566}
{-0.2770317}
{0.6969781}
{0.48296797}
{-0.6480807}
{0.735341}
{0.00070677977}
{0.72787637}
{-0.034138855}
{-0.8968813}
{0.7788398}
{-0.31484625}
{-0.4146351}
{0.8046539}
{0.29523328}
{0.9537687}
{-0.69322574}
{-0.00954633}
{0.6053829}
{-0.39291343}
{0.9380778}
{0.26034388}
{0.1689718}
{0.8231164}
{0.8322271}
{1.0122099}
{0.84243506}
{-0.49519923}
{0.15542254}
{-0.5127491}
{0.56855106}
{0.14383633}
{0.42544875}
{-0.40258744}
{-0.91345745}
{-0.09606159}
{0.5876082}
{0.07375696}
{-0.32027555}
{0.8386114}
{-0.30749717}
{0.82806486}
{-0.46826258}
{-0.59766906}
{0.6931666}
{0.8287739}
{-0.5688286}
{0.4348464}
{-0.7246114}
{-0.14430387}
{-0.7476479}
{-0.8081094}
{0.18305573}
{0.33237097}
{-0.10215828}
{-0.49494117}
{0.26946148}
{-0.49138817}
{-0.18885545}
{0.662287}
{0.30704173}
{0.6793519}
{-0.38586724}
{-0.32326087}
{0.0085502295}
{0.15849856}
{-0.73440087}
{0.6272248}
{-0.91085875}
{-0.018588793}
{-0.54062915}
{-0.44504806}
{0.7390052}
{-0.63389015}
{-0.97675604}
{0.97927326}
{0.5778667}
{0.28834248}
{0.76423365}
{-0.20874605}
{-0.18195239}
{0.4182354}
{0.4836679}
{-0.84223163}
{0.79204834}
{0.58074224}
{0.17312078}
{-0.9936199}
{-0.32059684}
{-0.9195533}
{0.18673398}
{-0.5591298}
{-0.7221774}
{0.15793061}
{-0.25738147}
{-0.52999717}
{-0.07398125}
{-0.018330595}
{0.9405869}
{-0.46527544}
{-0.20724145}
{0.7236258}
{-0.1345819}
{-0.5505906}
{-0.7854234}
{-0.9630361}
{0.7449804}
{0.7039778}
{0.0009773404}
{0.88042974}
{0.62143743}
{0.5101534}
{-0.8040737}
{-0.6022034}
{0.4323692}
{-0.44083443}
{0.19502172}
{0.3647152}
{0.80966}
{0.06870195}
{-0.058395576}
{-0.8409325}
{0.628432}
{-0.92763394}
{0.6110383}
{0.77087873}
{0.083317995}
{0.10622269}
{-0.30623785}
{0.82595044}
{0.7858821}
{0.5428077}
{0.21067128}
{-0.73573697}
{0.6735662}
{-0.32863384}
{-0.45944205}
{-0.59630126}
{0.4273671}
{0.63605}
{-0.57068765}
{-0.13192734}
{0.03461096}
{0.11482976}
{0.7614366}
{0.9449612}
{-0.11398709}
{0.8304151}
{0.77491677}
{-0.15082844}
{-0.6650992}
{-0.82090694}
{0.40992102}
{0.92527574}
{0.23389892}
{0.16748926}
{-0.45090476}
{0.78871554}
{-0.62624985}
{-0.8934228}
{0.044375483}
{-0.93746597}
{-0.74305034}
{-0.62333804}
{-0.43484727}
{-0.948183}
{0.9018116}
{0.52004546}
{-0.29877463}
{-0.83585113}
{0.63144606}
{0.34423718}
{-0.97838867}
{0.48282334}
{-0.7306309}
{-0.7115627}
{-0.2822508}
{0.5952039}
{0.5592829}
{-0.43370128}
{-0.5452267}
{-0.088216394}
{0.91634965}
{0.6948846}
{-0.8121761}
{-0.098691344}
{0.9749488}
{0.11081396}
{-0.18510953}
{-0.9194575}
{-0.9361022}
{0.112939484}
{-0.86434805}
{0.6686341}
{-0.94611776}
{-0.28116393}
{-0.6417829}
{-0.8231685}
{0.8515645}
{-0.4537512}
{0.90383756}
{-0.007942427}
{-0.23654494}
{-0.1499367}
{0.012212578}
{0.45356202}
{-0.5504192}
{0.078182735}
{-0.39353123}
{0.38680023}
{-0.1641244}
{0.15004905}
{0.70290625}
{0.19805124}
{-0.48604816}
{0.35318112}
{0.37802562}
{0.63334537}
{-0.611465}
{-0.69224674}
{-0.6646942}
{-0.2201153}
{-0.45114356}
{0.8287882}
{-0.5397438}
{0.4807086}
{0.15998067}
{-0.79405904}
{0.46944246}
{-0.996349}
{0.1005921}
{-0.12829787}
{-0.5522386}
{0.07276044}
{0.14633587}
{-0.35028803}
{0.15863356}
{-0.3614417}
{-0.5903357}
{0.19234596}
{0.83293736}
{-0.3680859}
{-0.17069903}
{0.32103938}
{0.54776967}
{-0.5498604}
{0.13473001}
{0.7089612}
{-0.29602304}
{0.28917688}
{0.5718275}
{0.20088203}
{-0.034906324}
{-0.028949635}
{0.5868875}
{-0.10458128}
{0.3108841}
{-0.037925757}
{-0.5626575}
{0.2561333}
{-0.4651772}
{-0.07159527}
{-0.6375397}
{0.19565432}
{-0.6217388}
{-0.9444437}
{0.28769407}
{0.83185583}
{-0.57029545}
{0.2704578}
{-0.26236027}
{-0.3161182}
{-0.017633375}
{0.9081232}
{-0.063704}
{0.18395607}
{-0.28383365}
{-0.34695017}
{-0.5727745}
{-0.39637843}
{0.4161249}
{-0.98385173}
{0.65135247}
{-0.94017464}
{-0.21122995}
{0.5503559}
{-0.28435642}
{0.017655268}
{-0.93912756}
{-0.81108767}
{-0.9307783}
{-0.038382474}
{0.028213087}
{0.61944556}
{-0.15098181}
{-0.2594593}
{-0.7220491}
{0.83352476}
{0.85415864}
{-0.78521615}
{0.9842583}
{-0.20106137}
{0.09467694}
{0.21800591}
{-0.36875144}
{0.8872715}
{0.98683745}
{0.2711665}
{0.87092626}
{-0.68027586}
{-0.6437565}
{0.09830134}
{-0.022644933}
{0.2697648}
{-0.49850753}
{0.5701144}
{-0.8639301}
{0.22718884}
{0.17105778}
{-0.83567786}
{0.19332299}
{0.15260983}
{-0.40384257}
{-0.48180398}
{0.30040535}
{0.4180188}
{-0.64799196}
{-0.8224052}
{-0.92656934}
{-0.28453904}
{-0.8162529}
{-0.13596876}
{-0.48189986}
{0.4326533}
{-0.5873718}
{-0.4417008}
{0.9207066}
{-0.4714407}
{-0.11965773}
{0.90063477}
{0.23800978}
{0.84921354}
{-0.94723445}
{0.4880989}
{0.6700624}
{0.7879119}
{0.8977028}
{0.9012807}
{0.7465931}
{0.8675582}
{-0.7067955}
{0.8289918}
{0.49867734}
{0.25511724}
{-0.340698}
{0.024804063}
{-0.22915235}
{0.67076606}
{0.34289646}
{0.46164873}
{0.987553}
{0.14121918}
{-1.0030485}
{-0.36493912}
{0.69565785}
{-0.54835963}
{0.60931623}
{-0.27461654}
{-0.6566967}
{0.061742052}
{-0.533301}
{-0.43078533}
{0.3906034}
{0.39200586}
{-0.39904168}
{0.12228528}
{-0.8496946}
{-0.763172}
{-0.8015158}
{-0.9691161}
{0.95431674}
{0.68336934}
{-0.7337402}
{0.4420595}
{0.247722}
{-0.34550092}
{-0.9815543}
{-0.3827671}
{-0.92963827}
{-0.36333215}
{-0.98893046}
{-0.005208182}
{0.46306643}
{-0.9346868}
{0.6138941}
{-0.24690174}
{0.6372057}
{-0.086043574}
{0.35641712}
{-0.59772897}
{0.51794565}
{-0.9561842}
{-0.58530116}
{0.9551612}
{0.8519813}
{-0.4824888}
{-0.8353531}
{0.038877644}
{0.18063125}
{0.6927571}
{-0.18605232}
{0.5517689}
{-0.119475536}
{0.8715712}
{0.28454292}
{-0.20248657}
{0.29465422}
{-0.15460546}
{0.25138327}
{0.3456947}
{-0.624128}
{0.09011758}
{-0.5094989}
{0.22488214}
{-0.9392644}
{-0.22933315}
{0.59084404}
{-0.23423009}
{-0.24220386}
{-0.7074845}
{-0.121139005}
{0.9449124}
{-0.93158925}
{-0.48603606}
{-0.17473915}
{0.38262513}
{-0.5557982}
{0.9639382}
{-0.20741405}
{-0.74445015}
{0.89698565}
{0.8838753}
{-0.36558768}
{0.06235927}
{0.42856726}
{-0.13659208}
{0.8007832}
{0.4908337}
{0.77111137}
{-0.25221193}
{-0.24492823}
{-0.845937}
{-0.37738147}
{-0.9479044}
{-0.04121849}
{0.04007156}
{-0.05108303}
{-0.29022524}
{-0.31200024}
{0.28654072}
{-0.6598133}
{0.93884015}
{-0.21714726}
{0.78038776}
{0.9906179}
{-0.69118834}
{0.41776064}
{-0.31466773}
{-0.6215173}
{0.6119378}
{-0.39895606}
{-0.85942}
{0.59137714}
{0.7444119}
{0.40507567}
{-0.62121755}
{0.99123394}
{0.0930063}
{0.29043683}
{0.9371768}
{-0.97203624}
{0.89531356}
{-0.7554979}
{-0.804864}
{-0.35261598}
{0.14015529}
{-0.2006893}
{0.34035373}
{-0.7028688}
{-0.16930434}
{-0.055013143}
{-0.8347182}
{0.17853269}
{-0.39272794}
{-0.14229383}
{0.27538264}
{0.7919606}
{0.66460687}
{0.8200688}
{0.53676224}
{-0.1431264}
{0.37246937}
{0.26968798}
{0.22428173}
{-0.62425435}
{0.024200853}
{-0.17042534}
{-0.63980156}
{-0.61648405}
{-0.5670637}
{-0.2353662}
{0.65329707}
{-0.95702183}
{0.087225705}
{0.8799664}
{-0.80776495}
{-0.57805383}
{0.11304488}
{0.1936529}
{0.3706658}
{-0.40244833}
{-0.4292979}
{0.48765022}
{-0.9389114}
{-0.52941144}
{-0.64294845}
{0.052521344}
{-0.32391348}
{-0.8714951}
{0.01399586}
{0.75230426}
{-0.51066065}
{0.9088017}
{-0.7434634}
{0.59818536}
{-0.054112066}
{-0.09976264}
{-0.16491866}
{0.17265753}
{-0.5035702}
{0.66068304}
{-0.69204086}
{0.6176765}
{-0.019228391}
{-0.15322414}
{-0.6696699}
{0.47544283}
{-0.75208044}
{-0.32160297}
{-0.33858222}
{0.8763413}
{-0.4741391}
{0.49999747}
{-0.55072045}
{-0.74349207}
{0.85504514}
{0.4547375}
{0.78203684}
{-0.21267861}
{-0.853652}
{-0.6114427}
{-0.82627314}
{0.6048598}
{0.57130945}
{-0.677497}
{-0.43731332}
{-0.11571146}
{-0.3453609}
{0.5991181}
{0.81164664}
{0.2180689}
{0.9011554}
{0.9708415}
{-0.29741287}
{-0.2386782}
{-0.4747704}
{-0.11803216}
{-0.50673085}
{-0.41540298}
{-0.58635116}
{-0.35967365}
{-0.945606}
{-0.8222686}
{0.23023555}
{-0.44757023}
{-0.3107578}
{-0.32008564}
{0.8187712}
{0.76057184}
{-0.9742638}
{0.21427111}
{0.23322034}
{0.35451493}
{-0.662446}
{-0.018791093}
{-0.67320436}
{-0.47309962}
{-0.8027411}
{-0.5863891}
{0.015080475}
{-0.5388359}
{0.41743493}
{-0.6144947}
{-0.48092046}
{-0.71039593}
{-0.4953326}
{-0.91925144}
{-0.7825755}
{-0.36960283}
{0.6377714}
{0.8324236}
{0.6437886}
{-0.8743092}
{-0.9130569}
{0.603643}
{-0.5377547}
{0.85581553}
{-0.8123121}
{0.0027000527}
{0.551541}
{-0.7458979}
{0.22812733}
{0.4784797}
{-0.93195766}
{-0.8059033}
{0.77071244}
{-0.40032634}
{-0.32381973}
{0.71212184}
{-0.05886214}
{0.89950883}
{0.20199716}
{-0.60003936}
{-0.9253373}
{-0.73438275}
{-0.34710363}
{0.34631237}
{-0.8996161}
{0.8287353}
{-0.7403861}
{0.65893257}
{-0.316359}
{-0.18770424}
{-0.0688717}
{-0.8108636}
{-0.115015164}
{-0.5521306}
{-0.26878384}
{-0.74972403}
{-0.19778194}
{-0.84268475}
{-0.44660875}
{0.8108634}
{-0.39852613}
{0.5232724}
{0.024375046}
{0.14434084}
{-0.36702555}
{0.5164582}
{0.595218}
{-0.82865703}
{0.49181008}
{0.765203}
{-0.46955845}
{0.7383832}
{0.31046233}
{0.405188}
{-0.811492}
{0.8644513}
{-0.38175955}
{-0.30988672}
{-0.4815851}
{-0.28169695}
{-0.18758503}
{0.45606893}
{0.4136736}
{0.96038616}
{0.26589057}
{-0.6240259}
{0.21494365}
{0.16346106}
{0.5409638}
{0.26564825}
{0.5384337}
{-0.62587965}
{-0.36243737}
{0.96193326}
{-0.9094424}
{-0.60937274}
{0.78014696}
{0.35821062}
{-0.7580728}
{0.20848879}
{0.8888661}
{0.76478195}
{0.5140868}
{-0.23801795}
{0.20930955}
{-0.13270295}
{-0.37669662}
{0.439226}
{0.53825045}
{0.053346418}
{0.7332454}
{0.48788628}
{-0.9310751}
{0.16033034}
{-0.35181162}
{0.5733291}
{0.17525178}
{0.24672186}
{0.55081743}
{-0.007308658}
{0.80587614}
{-0.6267211}
{-0.65333724}
{-0.88818586}
{-0.45856136}
{0.4141508}
{0.5133422}
{0.93164885}
{0.56816065}
{-0.5026909}
{0.29197168}
{1.0010415}
{-0.99872833}
{-0.008501884}
{-0.072858475}
{0.2765287}
{0.70238554}
{-0.9121568}
{0.8412539}
{-0.80871856}
{0.9501845}
{-0.16214426}
{0.1571738}
{-0.78410184}
{0.59583515}
{0.5516861}
{0.90669656}
{-0.12178533}
{-0.120737165}
{-0.6657527}
{-0.43355927}
{0.056950156}
{-0.48083442}
{0.8758351}
{-0.47248274}
{0.7531363}
{-0.20639883}
{-0.6458118}
{-0.6219761}
{-0.8759426}
{-0.32510364}
{-0.018013496}
{0.6077859}
{-0.4028484}
{0.54427373}
{0.18381618}
{0.3754446}
{0.9091655}
{-0.3524201}
{0.41991317}
{-0.6967213}
{0.5865201}
{-0.05793619}
{-0.718225}
{0.87494665}
{0.79249036}
{-0.17717133}
{0.47769272}
{-0.8687126}
{-0.75670445}
{-0.3859863}
{0.06860029}
{0.75943947}
{0.86040294}
{-0.99033916}
{0.6019091}
{-0.28806478}
{0.035704914}
{-0.96852595}
{-0.9935938}
{-0.71514946}
{-0.5815567}
{0.34459907}
{-0.56542224}
{-0.6256029}
{0.917539}
{0.5110193}
{-0.710936}
{-0.7516083}
{-0.23722664}
{0.45742735}
{0.17744343}
{-0.88042486}
{0.60184824}
{0.91952825}
{-0.33702776}
{0.81329674}
{-0.8959812}
{0.98992944}
{0.5180567}
{-0.50742674}
{0.52162707}
{-0.20965104}
{0.67063415}
{-0.85999113}
{0.8831786}
{0.63876164}
{-0.57685775}
{-0.37703338}
{0.549322}
{-0.14400356}
{-0.1535339}
{0.17055906}
{0.02299792}
{0.9684806}
{0.14358228}
{0.277225}
{-0.90138066}
{-0.2823381}
{-0.85195327}
{0.70014125}
{-0.43092385}
{-0.09213512}
{0.76214343}
{0.14942081}
{0.45914492}
{0.16557224}
{0.7013528}
{0.3147992}
{0.38174066}
{0.07244868}
{-0.6050171}
{-0.6623139}
{-0.17147437}
{0.4948979}
{0.95365626}
{0.6724644}
{-0.7463423}
{0.070436105}
{-0.31766188}
{0.43644014}
{0.6739372}
{0.5498223}
{-0.6710322}
{0.73291886}
{0.98041236}
{0.44332093}
{0.8565677}
{0.71672755}
{-0.24502745}
{-1.0004568}
{-0.60763204}
{-0.24811894}
{0.8436123}
{-0.7205184}
{-0.5464273}
{0.17558359}
{-0.4244999}
{-0.6288411}
{-0.55793464}
{0.2852707}
{-0.10566065}
{-0.98298615}
{-0.5941497}
{-0.924044}
{-0.46408692}
{-0.47247082}
{-0.9796365}
{-0.24089792}
{-0.18128291}
{0.12828657}
{0.6386147}
{-0.648792}
{-0.55845964}
{0.8443142}
{-0.68191665}
{0.94852614}
{-0.6713959}
{0.8382609}
{-0.070482515}
{-0.6654169}
{-0.8090776}
{0.25138807}
{-0.9026664}
{-0.4797638}
{-0.7773911}
{-0.29163918}
{0.368445}
{0.75122154}
{-0.1605083}
{-0.37748578}
{0.2980614}
{0.36388192}
{-0.38164273}
{-0.13718522}
{-0.8843238}
{-0.06763932}
{-0.20580831}
{-0.2028705}
{-0.020426255}
{0.6575332}
{0.10603551}
{0.22896528}
{-0.45176446}
{-0.9767246}
{-0.4186541}
{0.17921703}
{0.57029366}
{-0.92266595}
{0.41728148}
{0.45238096}
{0.11313236}
{-0.6696998}
{0.7496389}
{0.6367806}
{-0.58592564}
{-0.541895}
{0.6219989}
{-0.33274466}
{-0.28766766}
{-0.85409445}
{0.05135614}
{0.23074}
{-0.41745436}
{0.6525937}
{0.1946722}
{0.37777445}
{0.24509963}
{-0.40589947}
{0.0970724}
{0.60576594}
{0.18690366}
{0.07416559}
{0.27156982}
{-0.314857}
{0.94471985}
{-0.8415869}
{-0.27211586}
{-0.4782895}
{-0.04210963}
{0.77917904}
{0.47739682}
{-0.888965}
{-0.97435904}
{0.760639}
{0.7759255}
{-0.023595374}
{-0.135166}
{-0.32861957}
{0.6827127}
{-0.69331783}
{-0.27910423}
{-0.021579098}
{0.3785325}
{-0.6027295}
{0.74416715}
{0.02857801}
{0.1925107}
{-0.8881426}
{-0.39483765}
{0.018512364}
{0.46705732}
{0.09810871}
{-0.06935742}
{0.945844}
{0.35221562}
{0.9425562}
{0.7969205}
{-1.0186169}
{-0.8256129}
{0.42797676}
{-0.6957288}
{0.56124336}
{0.15760383}
{0.052604735}
{0.80917656}
{0.6758718}
{0.1254199}
{-0.5072477}
{-0.10836034}
{-0.33186674}
{-0.79640687}
{0.27772903}
{-0.45703825}
{0.57487607}
{0.86310065}
{0.008104491}
{-0.59773463}
{-0.13028637}
{-0.8254837}
{0.17390358}
{0.1935127}
{-0.6569968}
{-0.8726791}
{0.39786306}
{0.40468928}
{0.23787072}
{-0.9019991}
{-0.33896354}
{0.29479542}
{0.18627113}
{-0.7166008}
{0.28315714}
{-0.21507083}
{0.9616835}
{0.55571043}
{0.69159544}
{-0.54808414}
{0.50643134}
{-0.671939}
{-0.07696933}
{-0.14477162}
{-0.9482795}
{-0.74469984}
{0.36786422}
{0.7714122}
{-0.18679945}
{0.21727833}
{-0.651981}
{0.6348887}
{-0.06078355}
{0.3892568}
{-0.40681374}
{-0.510378}
{-0.6661195}
{-0.34877148}
{-0.50563776}
{0.22807227}
{-0.2713874}
{-0.26455656}
{0.841106}
{-0.71750337}
{0.6694943}
{-0.39589372}
{0.058075406}
{-0.028996697}
{-0.32356367}
{-0.8546549}
{0.70178735}
{-0.5251589}
{-0.7029883}
{0.053003613}
{0.20766681}
{-0.72599536}
{-0.90097034}
{0.91906154}
{-0.10857133}
{0.11965805}
{0.7455283}
{0.15409145}
{0.29365453}
{0.525056}
{-0.3413281}
{-0.76306903}
{0.544371}
{-0.4711795}
{-0.66770333}
{-0.21664897}
{-0.86636597}
{-0.03736364}
{0.9038947}
{0.30424008}
{-0.20403913}
{-0.65525556}
{0.9628055}
{-0.88984835}
{0.73910403}
{-0.6435581}
{-0.3205461}
{-0.71279037}
{-0.44048005}
{-0.14714949}
{0.7202589}
{0.5155271}
{-0.08916136}
{0.59483546}
{0.5838039}
{-0.61778104}
{-0.16057724}
{-0.7434966}
{-0.115535565}
{-0.74839723}
{-0.27989712}
{0.3120394}
{-0.751273}
{0.90172446}
{-0.59936714}
{-0.6027702}
{-0.86007625}
{0.60193145}
{-0.533665}
{-0.2641835}
{0.9540916}
{-0.6221055}
{0.017719612}
{-0.559929}
{0.2366921}
{0.85454714}
{-0.13254489}
{-0.80662936}
{0.23703118}
{-0.26718345}
{0.35037562}
{0.025784614}
{0.54302114}
{0.39473566}
{0.43602815}
{0.86227536}
{0.107987955}
{0.6220399}
{0.53323567}
{-1.0325124}
{-0.97629994}
{-0.78393734}
{0.06505706}
{0.31986484}
{-0.58869183}
{0.87621677}
{-0.5451034}
{0.44572484}
{-0.24597594}
{0.8124219}
{0.96077704}
{-0.6402815}
{-0.90429837}
{-0.023982223}
{0.746537}
{-0.5775553}
{0.8794036}
{-0.9771813}
{-0.8126886}
{0.87608105}
{0.26354536}
{-0.6755971}
{0.27752152}
{-0.7461684}
{-0.5583555}
{0.026628558}
{0.84777683}
{-0.63079625}
{0.7025933}
{0.39674792}
{-0.59934384}
{0.027887136}
{-0.6665723}
{0.7321495}
{0.98783165}
{-0.3171192}
{0.059175275}
{-0.19624868}
{-0.5684941}
{-0.5530441}
{0.90044266}
{-0.49193236}
{0.2542921}
{0.43957397}
{0.70319504}
{0.27434787}
{-0.9633943}
{-0.8272784}
{0.22503923}
{0.62875855}
{-0.1881392}
{-0.47877622}
{-0.6660629}
{0.9152738}
{-0.5764122}
{0.6452078}
{0.7583662}
{0.3305343}
{-0.7632424}
{0.5675198}
{0.8490123}
{0.34702978}
{-0.059502535}
{-0.8591038}
{-0.73090416}
{-0.51713264}
{0.1402984}
{-0.38203177}
{0.091795646}
{0.21269831}
{0.9330448}
{0.7487012}
{0.5623716}
{-0.6789371}
{-0.69399637}
{0.1434132}
{0.92868024}
{0.89920413}
{-0.8861632}
{-0.49397206}
{-0.85508204}
{0.2370325}
{-0.75260663}
{-0.5122898}
{0.1254346}
{0.24354014}
{0.23753606}
{0.4988601}
{0.08050748}
{0.75749266}
{-0.30802572}
{-0.55798453}
{0.5393679}
{-0.19190851}
{-0.58734876}
{0.5174161}
{0.7119095}
{0.27759036}
{-0.18953016}
{0.6605634}
{0.88321453}
{0.39678964}
{-0.49041235}
{-0.21659817}
{0.4613038}
{-0.25798598}
{-0.3874739}
{-0.545812}
{-0.1256659}
{-0.61383927}
{0.39096695}
{0.31608847}
{0.07665439}
{-0.2404696}
{0.32859072}
{-0.002445437}
{-0.36652988}
{0.7027503}
{0.54091835}
{0.353037}
{0.020959323}
{0.53489864}
{0.58838993}
{-0.39439395}
{0.7376242}
{-0.5188681}
{0.5047739}
{-0.02108396}
{-0.95617914}
{-0.09815284}
{0.65364075}
{0.49216112}
{-0.5721593}
{0.42077884}
{0.8183296}
{0.10647202}
{-0.015285417}
{-0.062143285}
{-0.826197}
{-0.21403521}
{0.5810621}
{-0.5894619}
{-0.43490806}
{-1.0193608}
{-0.83019066}
{1.0138286}
{-0.91574705}
{-0.08431094}
{-0.6542673}
{0.7950202}
{-0.597338}
{-0.095477544}
{-0.35495606}
{0.45920143}
{-0.6749387}
{-0.46118116}
{-0.37017626}
{-0.3647143}
{0.5560017}
{0.19900364}
{0.5471449}
{0.22348818}
{0.3252069}
{0.8607209}
{0.2662097}
{-0.5418602}
{-0.6676179}
{-0.19627428}
{0.9314805}
{0.0034013418}
{-0.78916}
{0.11238121}
{-0.6057341}
{0.64012635}
{0.9529575}
{-0.9599784}
{0.843626}
{-0.23955122}
{0.34899598}
{0.44886798}
{-0.23616987}
{-0.03201073}
{0.90058035}
{0.042455956}
{0.84563845}
{0.2919365}
{0.53915256}
{0.50525755}
{-0.86166525}
{-0.96035206}
{0.7297217}
{0.37869224}
{-0.88301265}
{-0.05210632}
{-0.24258181}
{1.0023124}
{-0.03986498}
{0.73517716}
{0.30608347}
{-0.23146039}
{0.84785503}
{-0.10308453}
{-0.09220548}
{0.48584443}
{-0.9145429}
{0.2587088}
{-0.034527674}
{-0.62595344}
{-0.08110855}
{-0.5702125}
{0.04512083}
{0.23204875}
{-0.40092188}
{-0.1903688}
{-0.7553793}
{0.7910033}
{0.38720277}
{0.6941339}
{0.5547323}
{0.8324248}
{-0.1785347}
{-0.7113558}
{-0.39082912}
{1.0084121}
{0.84226054}
{-0.7929696}
{0.33618996}
{-0.08313369}
{-0.5122204}
{0.35245833}
{-0.22229223}
{0.10738467}
{-0.8989052}
{-0.25019518}
{-0.016400887}
{0.9729389}
{0.15508531}
{-0.16521993}
{-0.7921998}
{-0.7122746}
{-0.19683275}
{0.5307878}
{0.57658416}
{0.28273386}
{-0.40945974}
{-0.6426362}
{-0.46789616}
{0.19784786}
{-0.9500693}
{-0.42275277}
{-0.20842485}
{-0.7943771}
{-0.543782}
{0.6596538}
{0.9342106}
{-0.075388364}
{0.3688598}
{-0.33117643}
{-0.836608}
{0.60395473}
{0.00833036}
{-0.08812114}
{-0.53893125}
{-0.6372219}
{-0.89145774}
{0.13353355}
{-0.67352086}
{-0.23684971}
{-0.9504411}
{-0.14193383}
{-0.2260069}
{-0.25271797}
{0.8532896}
{-0.32726017}
{-0.3627275}
{-0.3243376}
{-0.40757102}
{-0.319168}
{0.08602229}
{0.20745039}
{0.6230666}
{-0.47126713}
{-0.5179353}
{0.89801174}
{-0.6804074}
{-0.40858856}
{0.27976668}
{-0.15493709}
{-0.7432116}
{-0.14446822}
{0.9153638}
{-0.94295084}
{0.8351384}
{-0.39459315}
{0.65038246}
{0.072666444}
{0.24656664}
{0.5258845}
{-0.62073857}
{0.5254666}
{-0.44051743}
{-0.054290954}
{-0.091577016}
{0.029975757}
{0.7603201}
{0.9689373}
{-0.0057145874}
{-0.15378624}
{-0.5373918}
{-0.91493833}
{0.9438031}
{-0.19969395}
{0.26066735}
{0.86542404}
{-0.44854861}
{-0.24057418}
{0.69527215}
{-0.9625062}
{0.00968653}
{-0.8862134}
{-0.09629647}
{-0.030649122}
{-0.2960526}
{0.5972307}
{0.31369734}
{0.5882305}
{-0.28064194}
{-0.81617564}
{-0.44503978}
{0.52311647}
{0.9384147}
{0.32042605}
{-0.17349346}
{0.75005996}
{-0.62912124}
{-0.63975066}
{0.84987104}
{-0.8809103}
{0.9181494}
{0.6214041}
{-0.746611}
{-0.7238828}
{-0.094801456}
{0.2769547}
{-0.24845052}
{-0.02970856}
{-0.85041064}
{0.4633715}
{0.6972111}
{0.09686879}
{0.88363576}
{-0.22276466}
{0.28480902}
{-0.38442317}
{0.3517068}
{-0.69084996}
{0.7346263}
{0.9633144}
{-0.16003957}
{0.8279018}
{0.8277241}
{0.23614845}
{0.45568797}
{0.3259321}
{0.9418309}
{0.36754164}
{-0.84943396}
{0.18260388}
{-0.37702906}
{-0.34797326}
{-0.4068302}
{0.15789452}
{0.2031434}
{-0.016021665}
{-0.96855146}
{-0.510043}
{-0.49348548}
{-0.005944904}
{-0.57462275}
{0.30523953}
{0.7910375}
{0.5360836}
{-0.04630244}
{-0.34428138}
{0.20584418}
{0.9104289}
{0.066566326}
{0.83377093}
{-0.75665283}
{0.18751797}
{0.40064642}
{0.7305073}
{0.03128958}
{-0.52126205}
{0.3025271}
{-0.98035824}
{0.45278075}
{-0.19391552}
{0.7195987}
{0.1652778}
{-0.95847285}
{-0.11019871}
{0.7953746}
{-0.20104912}
{0.29885027}
{-0.49063846}
{-0.55014575}
{0.3004371}
{-0.14115481}
{-0.6983577}
{-0.32138413}
{0.22967003}
{0.8639594}
{-0.5995587}
{0.6730144}
{-0.1920959}
{0.85428315}
{0.84806025}
{-0.09198828}
{0.58467185}
{-0.7436851}
{0.754933}
{0.48639488}
{0.8202879}
{0.14222705}
{-0.1463317}
{-0.2025529}
{0.61324465}
{-0.5848187}
{0.94084775}
{-0.00017059752}
{-0.06781346}
{-0.15587203}
{0.7387942}
{-0.7190621}
{-0.72516775}
{-0.20914005}
{0.5809549}
{-0.692396}
{0.10294989}
{0.46828297}
{-0.7653898}
{-0.6196374}
{0.4464543}
{-0.3441753}
{0.44206795}
{0.92400324}
{-0.90662086}
{-0.46506873}
{-0.80900204}
{-0.8377569}
{0.461869}
{-0.6002757}
{-0.3898193}
{-0.48116425}
{0.729985}
{0.14425655}
{-0.6454197}
{-0.30358756}
{-0.62458366}
{0.82961094}
{0.93678844}
{-0.45042962}
{0.8982313}
{0.44593078}
{0.9925355}
{-0.3658144}
{-0.12158982}
{-0.5842813}
{0.026361529}
{-0.44055256}
{0.78509575}
{-0.5386144}
{-0.3676149}
{-0.08556381}
{-0.110161774}
{-0.008620427}
{-0.5861567}
{0.86058795}
{-0.7983376}
{-0.022116255}
{0.47452745}
{0.010493549}
{0.258165}
{-0.19851103}
{-0.74234736}
{-0.68295467}
{-0.7634565}
{0.99762934}
{0.9779731}
{0.614042}
{-0.22298542}
{0.42634773}
{-0.0854046}
{0.3730607}
{-0.376569}
{-0.1524298}
{0.036648337}
{0.35121992}
{0.1049577}
{0.5230605}
{-0.1096997}
{-0.37494996}
{-0.6201727}
{-0.42567897}
{-0.13449183}
{-0.23891822}
{0.46628183}
{-0.94557}
{0.20139465}
{0.26837572}
{-0.74002653}
{-0.73834693}
{0.07604412}
{0.07413382}
{0.43731308}
{-0.78166634}
{-0.7858907}
{-0.89458144}
{0.016444907}
{-0.545879}
{0.5737194}
{-0.89521515}
{0.6030791}
{-0.91842043}
{0.7626306}
{-0.80268633}
{-0.36462834}
{-0.08754481}
{0.38965663}
{0.7824699}
{0.38123024}
{0.38939455}
{0.019169632}
{0.8350139}
{0.0937227}
{0.028181437}
{0.27348027}
{-0.90983284}
{0.43279243}
{-0.7129894}
{-0.5475799}
{-0.02570461}
{-0.8157075}
{0.7391793}
{0.36527786}
{0.29195952}
{-0.45755103}
{0.7864002}
{0.5996891}
{-0.8030336}
{0.5672552}
{-0.5352662}
{-0.0752935}
{-0.5860814}
{-0.3731508}
{-0.49869844}
{-0.4774677}
{0.75583774}
{0.8908132}
{-0.4662724}
{0.03790528}
{0.03181107}
{0.29346624}
{-0.61989164}
{-0.4883322}
{0.11713592}
{0.6315158}
{0.42639738}
{0.7030865}
{0.2859354}
{-0.25793296}
{0.3677748}
{0.25092158}
{-0.54025346}
{-0.4535938}
{-0.35007775}
{-0.08963057}
{0.32660082}
{-0.3861504}
{0.7527998}
{-0.5844587}
{-0.1485813}
{-0.9690387}
{0.45158294}
{0.32011685}
{-0.48052338}
{1.0065666}
{0.13986483}
{-0.3371574}
{0.8645605}
{0.5974924}
{0.014495814}
{0.788432}
{0.9359035}
{-0.66879934}
{-0.51698536}
{-0.22760311}
{0.91725606}
{0.50534314}
{0.5599202}
{-0.5927187}
{-0.73931015}
{-0.03117565}
{-0.29645318}
{-0.8088857}
{-0.6988663}
{-0.74923205}
{0.709931}
{-0.0951161}
{-0.9854706}
{0.05755478}
{0.21391183}
{-0.2502059}
{1.0072135}
{0.62116647}
{-0.50587755}
{-0.5709516}
{1.0043402}
{-0.8909061}
{-0.98756224}
{-0.38696662}
{0.15372351}
{-0.81548697}
{0.18820037}
{0.8601092}
{-0.035124734}
{0.3877243}
{0.3148792}
{0.39192614}
{0.92410487}
{0.6063258}
{0.7232803}
{0.93199575}
{-0.9491731}
{-0.19141099}
{0.4991272}
{0.16590366}
{0.31278136}
{-0.83984095}
{0.8419333}
{-0.8735422}
{-0.7314778}
{0.9931037}
{0.36944538}
{-0.763682}
{0.56023204}
{-0.0595382}
{0.82274187}
{-0.19872013}
{-0.0900337}
{0.66713095}
{-0.706708}
{-0.33419004}
{0.5811939}
{-0.8930086}
{0.95407695}
{-0.064785205}
{-0.6411481}
{-0.9443905}
{0.2555588}
{0.89469326}
{-0.81516004}
{0.37329724}
{-0.09683379}
{0.9119748}
{-0.7693294}
{-0.6298212}
{0.85305226}
{0.64482296}
{-0.23790197}
{0.62701094}
{-0.6007954}
{-0.57954276}
{-0.123450495}
{0.66958123}
{-0.39499104}
{0.9596983}
{0.8323959}
{0.4563389}
{0.8886059}
{-0.50155103}
{-0.8926608}
{-0.6760412}
{0.9913442}
{-0.24260631}
{-0.63574517}
{-0.23841721}
{0.40363067}
{-0.3504106}
{0.7814444}
{0.18409874}
{-0.93749607}
{-0.3524305}
{0.8121495}
{-0.7135276}
{-0.023118233}
{-0.7376975}
{0.14271374}
{0.95526814}
{-0.7417787}
{0.38816985}
{-0.2883026}
{-0.60521334}
{0.7505957}
{0.76825345}
{0.36105222}
{0.32243556}
{0.45098895}
{-0.5072485}
{-0.36052686}
{0.6574333}
{-0.5935777}
{0.5761572}
{1.0045462}
{-0.17375563}
{0.2722784}
{0.6004189}
{0.005688728}
{-0.0026552773}
{0.4068508}
{0.4506534}
{0.8101846}
{-0.8796416}
{0.28625524}
{0.57536876}
{0.7022966}
{0.77147305}
{-0.3549492}
{0.52090156}
{0.8769814}
{-0.053051367}
{0.97021234}
{-0.64059746}
{-0.405491}
{0.24425884}
{-0.34734485}
{-0.105600566}
{-0.32872906}
{0.9179933}
{0.094774395}
{-0.70415485}
{0.6123422}
{-0.12526229}
{-0.5864699}
{0.12428502}
{0.50754964}
{0.15082364}
{0.30741316}
{-0.27922288}
{0.6587908}
{0.81577563}
{0.27860865}
{0.25647792}
{0.32379872}
{-0.78765994}
{0.96186864}
{-0.93111694}
{0.20881547}
{0.15443633}
{0.6498345}
{0.61405694}
{-0.0749802}
{0.18169987}
{0.8030078}
{0.40860114}
{0.4160139}
{-0.018896334}
{-0.92080116}
{-0.84879005}
{-0.9305494}
{0.23611237}
{0.39669496}
{0.5410675}
{-0.39994422}
{-0.8435697}
{0.8181556}
{0.5472034}
{0.3276324}
{0.5333094}
{0.11122395}
{0.80216324}
{0.86240625}
{-0.81045973}
{-0.57750297}
{-0.4675955}
{0.33547795}
{0.25537783}
{-0.665721}
{-0.75160754}
{0.40297803}
{0.4185095}
{-0.8963106}
{-0.784639}
{-0.24588528}
{-0.9096976}
{-0.51508677}
{0.47191605}
{0.7920948}
{0.35477996}
{-0.3070778}
{-0.2484726}
{0.8524862}
{-0.96806747}
{-0.6243587}
{0.0069463877}
{-0.62046266}
{0.6958117}
{-0.020613894}
{0.9694067}
{0.010600807}
{-0.6662035}
{-0.31951967}
{-0.3970367}
{0.93645537}
{-0.9711312}
{-0.5282089}
{0.9406165}
{0.024315076}
{0.7721755}
{0.19864994}
{-0.32677165}
{-0.27045888}
{-0.8694935}
{0.3342598}
{-0.36088863}
{0.19490725}
{-0.35374138}
{0.893381}
{-0.6728133}
{-0.5738196}
{0.8702173}
{-0.5239653}
{0.04962522}
{0.23945713}
{0.8394867}
{0.7556136}
{-0.6972486}
{1.0108968}
{-0.06906444}
{0.9409194}
{-0.80694735}
{-0.15522827}
{0.4153027}
{0.11806262}
{0.6297797}
{0.15147513}
{-0.45682868}
{-0.7371397}
{-0.60950625}
{0.24630357}
{0.13178653}
{-0.55078745}
{0.41880187}
{-0.60596}
{-0.7582613}
{0.5407196}
{-0.35081568}
