-- Efficiency --
97.035576
-- Weights --
{0.7346884}
{0.10275586}
{0.35906124}
{0.8612287}
{0.60583246}
{-0.31132075}
{-0.68600297}
{0.34509102}
{0.679886}
{-0.3342577}
{0.15512967}
{-0.7401116}
{0.3689985}
{-0.22463374}
{0.7123618}
{0.060490895}
{-0.5513166}
{-0.5712116}
{0.8818263}
{0.9036161}
{0.8919443}
{0.98863304}
{-0.80043364}
{0.21121809}
{-0.606655}
{-0.48403797}
{0.06236058}
{0.5203104}
{0.41000077}
{-0.27573988}
{-0.32079533}
{0.21352166}
{0.25241062}
{0.066867515}
{-0.88952553}
{-0.63146126}
{0.17500135}
{0.74909383}
{-0.07477736}
{0.4104176}
{0.57065475}
{0.6294614}
{0.85579836}
{0.76402956}
{0.634812}
{0.8539152}
{-0.045127653}
{0.2556933}
{0.17441604}
{-0.0218684}
{-0.033745255}
{0.6229864}
{-0.13712572}
{-0.4671887}
{0.47720197}
{-0.09176104}
{-0.03456376}
{-0.6773369}
{-0.9245353}
{-0.17224142}
{0.92059505}
{-0.9459202}
{0.69744533}
{0.7692048}
{0.6770085}
{0.7872296}
{-0.83690864}
{-0.58812124}
{0.30517647}
{-0.119204104}
{-0.49805897}
{-0.0727407}
{-0.038689595}
{0.54075307}
{0.7063183}
{0.06875624}
{-0.29915574}
{0.64422786}
{-0.16798183}
{0.31329516}
{-0.4647272}
{-0.17162609}
{0.71421325}
{-0.27075812}
{-0.71122587}
{-0.52128834}
{-0.0023961018}
{0.59571517}
{0.50704324}
{-0.95727754}
{-0.5133478}
{-0.07105846}
{-0.541088}
{0.89338017}
{0.05499692}
{0.12999853}
{0.7663487}
{0.33940288}
{0.68711376}
{0.106480144}
{0.08081681}
{-0.78499925}
{-0.63869715}
{0.7641675}
{-0.79081523}
{0.029621875}
{0.06402225}
{0.59192747}
{0.27041098}
{0.6782216}
{0.7955652}
{-0.026280373}
{-0.12787622}
{-0.97143906}
{-0.32383713}
{-0.11697488}
{0.97168696}
{-0.012840074}
{-0.2934284}
{-0.035660576}
{-0.5915967}
{-0.58275884}
{-0.6736051}
{0.5714231}
{-0.10005682}
{0.029480968}
{-0.5717786}
{-0.34683886}
{-0.72765124}
{-0.2816768}
{-0.551902}
{-0.52953637}
{-0.8057505}
{-0.69226027}
{0.4708947}
{-0.95357555}
{-0.17109874}
{0.16944964}
{-0.3906192}
{0.8538288}
{0.646742}
{-0.00746872}
{-0.7662949}
{-0.6821352}
{-0.21541408}
{-0.36171946}
{0.98089224}
{-0.11226994}
{0.6131104}
{-0.943441}
{-0.006568094}
{-0.61046344}
{0.6110982}
{-0.9605206}
{-0.23775032}
{0.86564505}
{-0.14859344}
{0.7855718}
{-0.3028982}
{0.098642275}
{0.67835224}
{0.8291194}
{0.9983653}
{0.7340123}
{-0.056713086}
{-0.45502603}
{0.7801427}
{-0.77486235}
{0.63050854}
{-0.07481202}
{-0.7508389}
{-0.93119437}
{0.31515524}
{0.45840937}
{0.14766541}
{-0.46322554}
{0.9553162}
{0.47861847}
{-0.3696602}
{0.6552511}
{0.4157903}
{-0.048266616}
{-0.87286806}
{-0.22578286}
{-0.031524163}
{-0.76078916}
{0.26016685}
{-0.012093622}
{0.5922481}
{-0.90431595}
{0.4790863}
{-0.9796741}
{-0.057476263}
{0.77683705}
{-0.7364315}
{0.89391357}
{-0.8775462}
{0.6181319}
{-0.2035727}
{-0.84266806}
{0.6816739}
{0.15528956}
{-0.8299371}
{0.45138636}
{0.8022908}
{0.60279804}
{0.7966181}
{0.3419916}
{-0.8586408}
{-0.1271772}
{-0.63515395}
{0.5705625}
{-0.58245265}
{-0.24843808}
{-0.39454037}
{-0.62126917}
{0.8518406}
{0.25538033}
{0.09968695}
{-0.21786785}
{0.36371872}
{0.9168845}
{-0.6096558}
{-0.4682281}
{-0.5338856}
{-0.1278308}
{0.10140995}
{-0.022547707}
{0.3528845}
{-0.63407093}
{-0.3615352}
{0.5979347}
{-0.7267004}
{-0.28102204}
{-0.32354537}
{-0.15933545}
{-0.09056633}
{-0.6186557}
{0.663211}
{-0.28231943}
{-0.7203826}
{0.5664193}
{0.8981991}
{0.5589029}
{-0.005039434}
{-0.38873088}
{0.8428043}
{-0.37155432}
{0.7290679}
{-0.51438123}
{-0.82872283}
{0.720966}
{0.12426398}
{0.20077634}
{0.2503359}
{0.33241874}
{0.35595343}
{-0.10895648}
{0.3710277}
{0.10902685}
{-0.14519073}
{0.20793289}
{-0.32484302}
{-0.76052}
{-0.7523769}
{0.5244842}
{-0.7030243}
{0.33529928}
{-0.49722528}
{0.027315777}
{1.0306863}
{-0.86872417}
{0.4207954}
{0.33732045}
{-0.4783884}
{-0.72317183}
{-0.18833521}
{-0.77860886}
{0.38198873}
{0.6433982}
{0.089593716}
{-0.3622828}
{-0.7425376}
{0.4903364}
{0.89650404}
{-0.26913851}
{-0.6364569}
{0.1435601}
{-0.2623587}
{0.12713344}
{0.91410106}
{0.26425}
{0.47817543}
{0.19880663}
{-0.91211337}
{0.0026542416}
{-0.44427112}
{-0.72066885}
{0.40017608}
{0.69648176}
{-0.23943093}
{-0.7970879}
{-0.77165186}
{-0.26845455}
{-0.23474291}
{-0.97764575}
{0.82324505}
{0.86326665}
{0.7310232}
{-0.19364}
{0.92154205}
{-0.5740366}
{-0.05078123}
{0.3164534}
{-0.37255946}
{-0.7305291}
{0.017768878}
{0.24992356}
{-0.508539}
{-0.76797676}
{0.3474271}
{-0.09329309}
{-0.886151}
{0.061231498}
{-0.90487087}
{0.89217615}
{0.39162892}
{0.22851695}
{0.75430286}
{-0.018031353}
{0.13660201}
{0.18390097}
{0.72138894}
{-0.7531828}
{-0.3516707}
{-0.42626372}
{-0.23933437}
{0.85814184}
{-0.14483066}
{-0.36120072}
{0.6949214}
{0.80327713}
{0.06974998}
{0.20529042}
{-0.8282033}
{0.3529483}
{0.02451743}
{-0.32433692}
{0.29369852}
{0.44624114}
{-0.06560171}
{0.8100067}
{-0.08360118}
{0.35019085}
{0.079837926}
{0.90932894}
{-0.3243232}
{0.55367345}
{-0.5117345}
{0.21574359}
{-0.80971825}
{0.42076832}
{-0.8763971}
{-0.70707136}
{-0.517925}
{0.4092202}
{0.94460267}
{-0.60474336}
{-0.13354132}
{0.6239547}
{-0.85384053}
{0.90674525}
{-0.6175109}
{0.6880163}
{0.94747007}
{-0.04471181}
{-0.27376845}
{-0.6548791}
{-0.50836873}
{-0.1567172}
{-0.7433311}
{-0.16242327}
{-0.046366654}
{0.9005229}
{0.534448}
{0.6268109}
{0.27602327}
{-0.03160052}
{0.118181705}
{-0.19364385}
{-0.4152515}
{-0.033424184}
{0.7728859}
{0.6327619}
{0.57794887}
{-0.41609597}
{0.82837594}
{0.34215024}
{0.1630179}
{-0.6593547}
{0.6243378}
{-0.41632125}
{0.53409207}
{0.28958017}
{0.12437413}
{0.013255903}
{-0.5412728}
{-0.4417521}
{0.074108906}
{-0.7548679}
{-0.9229497}
{-0.2709341}
{0.76547515}
{0.37542555}
{-0.3007544}
{-0.6409314}
{0.85561836}
{-0.8992413}
{0.66121936}
{0.95821583}
{0.055694394}
{-0.47440282}
{-0.17357422}
{-0.87111515}
{0.60501516}
{-0.08186952}
{0.079735234}
{-0.8774526}
{0.65089595}
{0.22653599}
{-0.4362276}
{-0.27596796}
{0.32953307}
{0.23531209}
{0.6694943}
{0.39590275}
{-0.95425427}
{-0.37959766}
{-0.3543956}
{-0.58492976}
{0.9456619}
{0.7809512}
{0.603322}
{-0.28465667}
{0.46069738}
{-0.025354266}
{0.099509306}
{0.13632672}
{0.4213781}
{-0.2985961}
{0.18587959}
{0.537637}
{-0.6095749}
{-0.5383019}
{0.566955}
{0.7520368}
{0.085601635}
{-0.59909004}
{-1.0212173}
{0.6079929}
{-0.66075075}
{0.17506549}
{-0.85819995}
{-0.3511116}
{-0.78522336}
{-0.75654566}
{0.41625515}
{0.53672904}
{0.12294029}
{0.029044759}
{0.218845}
{0.15002897}
{-0.7181901}
{-0.041777924}
{0.33515254}
{0.8295441}
{0.9491478}
{0.6154601}
{-0.52930504}
{-0.78101784}
{0.4269497}
{-0.4207902}
{0.87389314}
{0.8391494}
{-0.12169188}
{0.6932072}
{0.14874208}
{0.17350861}
{-0.7399081}
{0.5784104}
{-0.5008649}
{0.49826452}
{0.6327449}
{-0.99238175}
{-0.4168104}
{0.4375354}
{0.5373391}
{-0.20922391}
{0.2947126}
{-0.18947615}
{-0.102694206}
{-0.21860191}
{0.6193624}
{0.3525227}
{-0.47392443}
{-0.4163262}
{0.7884251}
{0.28222767}
{0.2766156}
{0.5823765}
{0.12162678}
{0.04372056}
{-0.79163015}
{-0.49416783}
{-0.92458916}
{0.2997885}
{0.2533252}
{0.08574586}
{-0.26488718}
{0.075057425}
{-0.45474437}
{0.036103744}
{0.029900357}
{0.12792946}
{0.7783605}
{-0.06420264}
{-0.16737503}
{0.034585174}
{0.81852186}
{-0.34119603}
{0.7741649}
{1.0058088}
{0.5776719}
{0.90468293}
{-0.3725835}
{-0.4340345}
{-0.312331}
{0.96350986}
{-0.6284452}
{-0.22683942}
{-0.06835505}
{0.9881233}
{0.23096229}
{-0.22049196}
{0.17440793}
{0.07916721}
{0.35809258}
{0.5070824}
{0.5185255}
{-0.24818423}
{0.59800166}
{-0.39624605}
{0.7418555}
{-0.6634467}
{-0.6627902}
{-0.5058219}
{-0.7943889}
{-0.5130072}
{0.13305663}
{-0.47420546}
{-0.36970404}
{0.6810375}
{-0.29774}
{0.4173602}
{0.21479699}
{-0.11749313}
{0.1760697}
{0.024291418}
{0.26151702}
{0.027109921}
{-0.14139073}
{-0.7836747}
{-0.21617082}
{-0.46837032}
{0.74046654}
{-0.24100037}
{-0.8076364}
{-0.4364833}
{0.81383276}
{0.20550302}
{-0.084890544}
{-0.6403674}
{-0.0026414287}
{-0.5795734}
{-0.69198763}
{-0.21869437}
{-0.653121}
{-0.7789449}
{0.07111675}
{-0.5490432}
{0.5490425}
{-0.52595264}
{-0.052056294}
{0.07334331}
{0.18507183}
{-0.07597214}
{0.9506122}
{-0.8104241}
{-0.59603405}
{0.6166046}
{0.35118482}
{-0.36369863}
{-0.91407806}
{-0.714533}
{-0.24422315}
{-0.25830987}
{0.45477998}
{-0.19247611}
{0.8531164}
{0.41845804}
{-0.39123026}
{-0.9428403}
{0.77824533}
{-0.9161266}
{-0.6511293}
{0.7801151}
{-0.3099027}
{0.37395304}
{0.9147927}
{0.14516374}
{0.71441853}
{0.012676198}
{-0.33125082}
{-0.6012219}
{0.011052866}
{0.48418996}
{-0.50496435}
{0.04489729}
{-0.88882005}
{0.07615542}
{0.05309848}
{-0.87258196}
{0.2011039}
{-0.35010412}
{0.8972497}
{-1.0282518}
{-0.015464762}
{-0.41924948}
{0.48131686}
{0.27954164}
{0.76531756}
{0.92473024}
{0.43766198}
{-0.25093806}
{-0.43667105}
{-0.88600576}
{0.50202423}
{-0.18830663}
{0.92467415}
{-0.51919943}
{-0.50331116}
{0.6730957}
{-0.6086565}
{-0.8946718}
{0.7189421}
{-0.9634127}
{-0.007112245}
{0.6732334}
{-0.619601}
{0.47479576}
{-0.37102798}
{0.79793084}
{0.21558088}
{-0.6259335}
{-0.87724316}
{-0.34704244}
{-0.89424574}
{-0.5638897}
{0.91017234}
{0.9778524}
{0.7738822}
{-0.91082156}
{-0.37384012}
{-0.88122493}
{0.6162441}
{-0.8867957}
{0.64412725}
{-0.83927804}
{0.008020938}
{0.29152715}
{-0.88071024}
{-0.33508608}
{0.44032598}
{-0.4851847}
{0.8241235}
{0.86034346}
{0.9728325}
{0.7109019}
{-0.4109669}
{-1.0021393}
{0.618603}
{-0.53593063}
{-0.39217523}
{0.7166257}
{0.6645465}
{-0.8714159}
{0.70580494}
{0.6474154}
{0.91404927}
{-0.6112624}
{-0.067415446}
{-0.7254251}
{-0.89975554}
{0.706342}
{-0.44649437}
{0.61055607}
{0.51151335}
{0.55767107}
{0.42790005}
{-0.7494097}
{-0.97686714}
{-0.53656363}
{0.51032245}
{-0.4703979}
{-0.8692926}
{0.6775324}
{-0.61421144}
{-0.2009474}
{0.061429583}
{0.68001795}
{0.403069}
{-0.39979357}
{-0.07274288}
{-0.09160442}
{-0.2425802}
{-0.24119279}
{0.5131053}
{0.7874326}
{-0.9113084}
{0.2518715}
{0.6920761}
{-0.6532808}
{0.084190674}
{0.8483161}
{-0.4787502}
{-0.19543484}
{-0.46342805}
{0.836512}
{-0.4753035}
{-0.9804551}
{-0.25440553}
{0.8501741}
{-0.8778141}
{0.13597247}
{-0.79544175}
{-0.5045434}
{0.73095256}
{0.19540443}
{0.6797961}
{0.182384}
{0.36147225}
{0.6235861}
{0.55274856}
{-0.40800038}
{-1.0110857}
{-0.027751073}
{-0.08373302}
{0.305897}
{-0.42470047}
{-1.0547123}
{0.86122715}
{-0.016204216}
{-0.2786086}
{-0.6581828}
{-0.95375454}
{-0.62868744}
{0.7405434}
{0.30109352}
{0.37245557}
{-0.6329912}
{0.9144354}
{-0.35260314}
{0.22441384}
{0.3342388}
{0.11494122}
{-0.9318008}
{0.9483739}
{0.14013769}
{0.28282082}
{0.8253983}
{0.45791695}
{-0.67786497}
{-0.5873998}
{0.06086525}
{0.09507782}
{0.5729724}
{0.6047031}
{-0.83616984}
{0.46013448}
{-0.24879633}
{-0.42019978}
{-0.3132055}
{-0.6459454}
{-0.9897427}
{0.71995866}
{0.8773247}
{0.16849014}
{-0.20082271}
{0.9442735}
{0.2456706}
{-0.09318536}
{-0.04130083}
{-0.461954}
{0.25740308}
{-0.8580018}
{0.5862036}
{-0.22545871}
{0.16988902}
{-0.74623907}
{0.8956912}
{0.22550765}
{-0.37871358}
{0.27870628}
{-0.0070807897}
{0.53074676}
{-0.46474308}
{0.88650596}
{-0.9840043}
{0.9311474}
{-0.538068}
{0.63320196}
{0.5351771}
{-0.9546361}
{0.7816772}
{-0.65154016}
{0.44670317}
{-0.22867584}
{0.7284082}
{-0.1759074}
{0.19498794}
{0.22196282}
{0.7464093}
{0.13194916}
{-0.41938326}
{-0.93373394}
{0.5115997}
{-0.35852817}
{0.4665685}
{0.73400927}
{-0.27233964}
{0.9189137}
{0.373466}
{0.9431493}
{-0.59128714}
{0.4675829}
{0.94277525}
{0.39393818}
{0.770097}
{-0.8216213}
{0.5795729}
{-0.0741576}
{-0.42105862}
{-0.6634785}
{0.20114271}
{0.70308244}
{-0.6333932}
{-0.64928496}
{0.1677577}
{0.2798765}
{-0.13906333}
{0.7722672}
{0.37235802}
{1.0058895}
{-0.10733854}
{-0.87198246}
{-0.29742986}
{-0.3778099}
{-0.33417842}
{0.15072438}
{0.55750453}
{-0.86858356}
{-0.22992793}
{-0.3443146}
{0.17513421}
{0.62940466}
{0.80629766}
{-0.84667265}
{-0.5586908}
{0.69288903}
{0.7251295}
{0.01463582}
{0.36542153}
{-0.11431969}
{0.22427252}
{0.64410746}
{0.5064566}
{-0.45050904}
{0.51663715}
{0.011374731}
{0.4484244}
{-1.058525}
{0.41160217}
{0.34369084}
{-0.7874658}
{-0.10809611}
{0.6984336}
{-0.8958796}
{0.7916949}
{0.61400944}
{-0.19652307}
{0.3130488}
{-0.38836524}
{-0.10686725}
{-0.6650985}
{-0.8164557}
{-0.35159078}
{0.8499023}
{-0.49231517}
{-1.0242692}
{-0.15514639}
{-0.6232256}
{0.6290208}
{0.91940296}
{0.30708778}
{0.8109277}
{0.5667184}
{-0.717662}
{0.84329027}
{-0.7353147}
{0.86935526}
{0.7541224}
{-0.4824278}
{0.31052577}
{-0.8531018}
{0.25380298}
{0.55992633}
{-0.3334054}
{0.82144827}
{0.54028547}
{0.2841914}
{-0.9318749}
{0.8924737}
{0.533049}
{-0.10623873}
{-0.27746668}
{-0.54817885}
{-0.803321}
{-0.7311627}
{-0.6465443}
{-0.9667996}
{-0.22048691}
{-0.6418558}
{0.7226881}
{0.28187796}
{0.96843755}
{-0.048489157}
{0.40948632}
{-0.19740699}
{0.9656638}
{-0.44702974}
{-0.38196254}
{-0.44738013}
{-0.76374805}
{-0.5667243}
{-0.6551079}
{-0.9634699}
{-0.53540385}
{-0.3253523}
{0.12105076}
{-0.022803627}
{0.69788563}
{0.33248058}
{-0.18562458}
{-0.6588243}
{0.8932494}
{-0.10163956}
{0.4820167}
{-0.4273236}
{0.035174623}
{-0.09493772}
{0.34898388}
{0.30732694}
{-0.329428}
{0.005900089}
{0.23079242}
{-1.040392}
{-0.7582258}
{-0.25073963}
{0.337025}
{-0.9882063}
{0.47459862}
{0.49001417}
{-0.012653657}
{-0.698627}
{0.6862742}
{0.88751554}
{-0.50316817}
{0.7843693}
{0.93158495}
{-0.42182997}
{-0.6575668}
{0.48328188}
{-0.08833187}
{-0.4084452}
{-0.25033104}
{-0.88376224}
{0.7125138}
{-0.34888265}
{-0.7928097}
{-0.74231356}
{-0.6774601}
{-0.7120568}
{0.37534595}
{-0.48677406}
{-0.28136376}
{-0.49233204}
{0.63772035}
{-0.21692412}
{-0.6644863}
{0.17952868}
{0.88479185}
{-0.730706}
{-0.49233344}
{0.8768454}
{-0.5311538}
{0.5394019}
{-0.5253111}
{0.81967443}
{-0.28595808}
{-0.3689569}
{0.49977288}
{0.69268465}
{-0.91515183}
{0.010148178}
{0.67633975}
{-0.5043569}
{0.90878695}
{0.45776758}
{-0.57444537}
{-0.8481539}
{-0.5219563}
{0.86860543}
{0.9171933}
{0.8441368}
{-0.9732123}
{-0.74598604}
{-0.027992707}
{0.4082709}
{-0.8648099}
{0.6451501}
{-0.2777615}
{-0.40315685}
{-0.6073654}
{0.09508254}
{0.62114275}
{0.9418967}
{-0.18893047}
{-0.679445}
{-0.93330395}
{-0.21524735}
{-0.77900845}
{-0.055085495}
{0.6095456}
{-0.16219795}
{-0.66094804}
{0.029115781}
{-0.56039035}
{0.31594113}
{-0.08984264}
{0.76582646}
{-0.9590968}
{0.13653643}
{0.16190986}
{0.8407782}
{-0.48126104}
{-0.24615063}
{0.2511661}
{-0.25961307}
{-0.83889306}
{0.40057978}
{0.75127685}
{0.7302533}
{0.0106678195}
{-0.17245816}
{0.042881165}
{-0.7898002}
{-0.040021162}
{-0.8511843}
{-0.7172959}
{-0.56820697}
{0.79683936}
{0.8577402}
{-0.64441395}
{-0.13801883}
{0.37928864}
{0.114106484}
{-0.30374822}
{0.112410255}
{-0.40623882}
{-0.88990057}
{-0.64796555}
{-0.17844717}
{0.26231048}
{-0.26611033}
{-0.47258586}
{-0.212066}
{-0.7870213}
{-0.81722194}
{0.12829438}
{0.5398651}
{-0.43278244}
{-0.9089101}
{-0.5603129}
{-0.0075187}
{-0.20111659}
{0.1793567}
{0.81089604}
{0.8874598}
{-0.44591597}
{0.9271829}
{-0.51271176}
{-1.0700079}
{-0.9588314}
{-0.3317148}
{0.78955585}
{0.31389192}
{0.56978}
{-0.41112158}
{-0.1845209}
{-0.6221781}
{0.00826313}
{-0.20397078}
{0.08087389}
{-0.5396465}
{0.28694102}
{1.0619146}
{0.5255439}
{0.30368647}
{0.66787803}
{-0.840145}
{-0.074168466}
{0.15676953}
{0.16496083}
{-0.3900591}
{0.015287384}
{-0.6901166}
{0.8853637}
{-0.32224163}
{-0.4325445}
{0.09113491}
{0.18765613}
{-0.70924795}
{-0.10837723}
{-0.8197739}
{-0.48399332}
{0.27742878}
{-0.1707819}
{0.24320732}
{0.44627687}
{-0.59931386}
{-0.08350563}
{-1.0232985}
{0.90152276}
{-0.8403197}
{-0.57555604}
{0.8007034}
{-0.5532354}
{0.36113065}
{0.74979025}
{-0.38629684}
{0.5939728}
{-0.16521865}
{-0.7371373}
{-0.99622226}
{0.71957767}
{0.9982747}
{-0.0048014885}
{0.02713458}
{-0.8897768}
{-0.44042236}
{0.6387842}
{0.24288815}
{-0.32920745}
{0.7004799}
{-0.78886914}
{-0.59574807}
{0.22053954}
{-0.20240425}
{0.63988906}
{-0.22114782}
{0.5821973}
{0.4110693}
{0.86697036}
{-0.085920446}
{0.2042639}
{0.6038205}
{0.91662043}
{-0.2960838}
{0.07140524}
{0.295618}
{0.39233258}
{-0.9492884}
{-0.8494657}
{-0.74541336}
{0.6654552}
{0.14047477}
{0.5444313}
{0.53498644}
{0.13160022}
{-0.0403876}
{0.40398166}
{-0.5590244}
{0.84011596}
{0.43299687}
{-0.28312543}
{0.54453707}
{0.2991091}
{-0.04685692}
{-0.03315137}
{0.39919302}
{-0.2841626}
{0.64407784}
{-0.15701202}
{0.89512223}
{0.6376}
{-0.40224186}
{-0.3767865}
{0.38752064}
{1.0490127}
{0.0038351766}
{-0.48839858}
{0.22755708}
{0.94400305}
{0.10850602}
{-0.7017976}
{-0.5356536}
{-0.16430008}
{0.6782003}
{-0.47278526}
{-0.7882911}
{0.2772529}
{0.5148263}
{0.47933033}
{-0.12552272}
{-0.5633692}
{0.87118906}
{0.4841472}
{0.9878454}
{-0.47441778}
{0.7475802}
{0.43792722}
{0.7864959}
{-0.87050694}
{-0.4737783}
{0.4153323}
{-0.9449256}
{0.44577795}
{0.5010831}
{0.20187041}
{-0.44487336}
{0.74823123}
{-0.935494}
{0.78291094}
{-0.04765083}
{0.6903414}
{0.3244852}
{-0.19281128}
{0.8803623}
{-0.31425256}
{0.5905693}
{-0.44064692}
{0.83848816}
{-0.17073938}
{0.6332377}
{-0.013355473}
{0.28989565}
{-0.0318715}
{0.283073}
{0.3927457}
{-0.8121803}
{-0.40833235}
{0.14346533}
{-0.4154487}
{0.8438048}
{0.5442821}
{0.64865047}
{0.27980158}
{0.8008797}
{0.23515993}
{-0.4833903}
{-0.034926157}
{0.13710864}
{-0.6802868}
{0.38224122}
{0.4049835}
{0.18206254}
{-0.6366808}
{-0.7991747}
{-0.4344583}
{0.7327562}
{0.35790718}
{0.18908136}
{-0.14198112}
{-0.8155028}
{0.56609446}
{0.023333987}
{-0.3793638}
{-0.25011376}
{-0.037186857}
{0.048982546}
{-0.32385948}
{-0.86556935}
{0.55325854}
{0.60838175}
{0.16689703}
{0.4555824}
{0.26317543}
{0.41558433}
{0.23182675}
{0.79206014}
{-0.2381401}
{0.49953094}
{0.61412513}
{-0.5193228}
{0.009775237}
{0.19874127}
{0.1251168}
{0.32226834}
{-0.30948907}
{-0.7161818}
{-0.7794901}
{0.3148964}
{-0.5695387}
{-0.024185175}
{0.27980682}
{0.14672166}
{0.6528474}
{0.70388454}
{-0.45131114}
{-0.2538593}
{0.17712742}
{-0.22222863}
{0.4210424}
{-0.15190817}
{-0.19414392}
{0.3414325}
{0.5138184}
{1.0188369}
{-0.13729517}
{-0.04999491}
{-0.8251072}
{-0.047065802}
{-0.41673192}
{-0.21789277}
{0.9330057}
{-0.427116}
{0.08748822}
{0.81539756}
{-0.17502263}
{-0.090894975}
{-0.12443075}
{-0.60996765}
{0.26755878}
{0.43560416}
{0.89787114}
{-0.8578458}
{0.88032377}
{0.5335433}
{0.15342636}
{-0.7784987}
{0.30776927}
{-0.44080812}
{0.8332499}
{0.10646775}
{0.10827521}
{-0.17991562}
{0.01370176}
{-0.70747274}
{0.9324547}
{-0.21936777}
{-0.05645572}
{0.43867227}
{-0.39847234}
{-0.8879442}
{-0.11199206}
{-0.064321086}
{0.74484646}
{-0.049913637}
{-0.46544367}
{-0.47840738}
{-0.0003156471}
{-0.6186436}
{0.13382253}
{-0.44185442}
{-0.15501645}
{-0.52849865}
{0.94586253}
{0.7590418}
{-0.17135695}
{0.87896174}
{-0.57197887}
{0.15592447}
{-0.45898822}
{0.25371075}
{-0.37678352}
{0.89425665}
{0.079599686}
{-0.035358705}
{-0.8118322}
{0.895084}
{-0.526337}
{0.61215764}
{0.7279044}
{-0.7281352}
{-0.7772318}
{-0.75895286}
{-0.23039916}
{0.66944134}
{-0.5320612}
{-0.56305844}
{-0.78174305}
{0.5484256}
{-0.7574812}
{-0.6530361}
{-0.089183226}
{0.9331345}
{0.39458773}
{0.93288934}
{-0.68358874}
{-0.7736603}
{0.04053929}
{0.7647798}
{-0.44284463}
{0.32985055}
{0.5061773}
{0.7387204}
{-0.14988375}
{-0.43862212}
{0.8035215}
{-0.16398378}
{-0.9583244}
{-0.28532845}
{0.65036976}
{0.5232466}
{0.52972245}
{-0.7905136}
{-0.5651802}
{-0.48176634}
{-0.92317915}
{0.31733507}
{-0.65285313}
{0.946798}
{-0.7352794}
{0.6961888}
{0.6632644}
{0.8243297}
{-0.34444168}
{0.4062963}
{-0.789415}
{-0.92400575}
{-0.10701835}
{0.49155834}
{0.6080154}
{0.2957232}
{-0.1043266}
{-1.0714501}
{0.83824766}
{-0.44515947}
{0.6304862}
{-0.1489054}
{-0.15398982}
{-0.5751851}
{-0.09451892}
{0.16541015}
{0.12917897}
{-0.752694}
{-0.17212337}
{0.34455088}
{-0.8676151}
{-0.56516016}
{0.3187821}
{-0.2136516}
{0.5382227}
{0.94652253}
{-0.44600132}
{0.49799746}
{0.7594212}
{-0.70080566}
{-0.005951572}
{-0.48065478}
{0.32495043}
{1.0932006}
{-0.19370912}
{-0.9823835}
{-0.42026404}
{0.89212203}
{0.9061677}
{0.053498916}
{-0.6556879}
{-0.09344634}
{0.2658386}
{-0.074931376}
{0.35009596}
{-0.056912947}
{0.9247028}
{-0.10715151}
{-0.50672024}
{0.22872047}
{-0.09134203}
{0.28347626}
{-0.90208566}
{-0.6389568}
{0.68500143}
{-0.32338542}
{-0.089761905}
{0.98550487}
{-0.5321957}
{-0.10625336}
{0.27774593}
{0.64273256}
{-0.84353477}
{0.5934805}
{-0.7426394}
{-0.8186903}
{0.60758084}
{-0.21948546}
{0.7175633}
{-0.7547595}
{-0.0049754465}
{-0.6615965}
{0.29317352}
{0.61369145}
{-0.56345856}
{0.66215366}
{-0.8172213}
{-0.056744523}
{0.93356097}
{0.63606596}
{-0.29461578}
{-0.60099757}
{0.37133715}
{-0.52999246}
{-0.0662112}
{-0.33964086}
{0.19953094}
{0.89913917}
{0.70420897}
{0.17617042}
{0.13088886}
{-0.9168858}
{0.35665938}
{-0.43055442}
{0.32970077}
{-0.78023636}
{0.62802565}
{0.1392537}
{0.7711752}
{-0.82334805}
{0.18318412}
{-0.19953328}
{0.9317223}
{-0.27556974}
{-0.65431035}
{0.64841914}
{0.038520712}
{-0.9388495}
{0.58041275}
{0.01567757}
{-0.55917364}
{0.077727154}
{-0.63312685}
{0.7571557}
{-0.22601262}
{0.6919431}
{0.4609582}
{0.60687566}
{0.46605995}
{-0.5556431}
{0.3243737}
{0.77624255}
{0.53453934}
{-0.15475298}
{-0.35174945}
{0.98523027}
{-0.37813058}
{-0.7133377}
{0.43345138}
{0.31624934}
{-0.25172994}
{0.4783105}
{-0.7366439}
{0.8684536}
{0.5460308}
{0.4316501}
{0.16568348}
{0.136518}
{0.45392147}
{0.79021186}
{0.77574193}
{-0.67976534}
{-0.8642386}
{0.03449687}
{-0.4753988}
{-0.16601796}
{-0.6650385}
{-0.22336337}
{0.43207452}
{0.5759976}
{-0.47987232}
{-0.22626093}
{0.46983212}
{0.67534703}
{-0.33029988}
{-0.074333146}
{-0.06457446}
{0.24446033}
{-0.12091707}
{-0.80287737}
{-0.29628494}
{0.8038753}
{-0.5815842}
{0.07800588}
{0.024089117}
{1.0601773}
{0.44836226}
{-0.4912458}
{0.19898531}
{-0.13721307}
{-0.070240274}
{-1.1302873}
{-0.56261146}
{0.40628245}
{0.7126517}
{0.32767406}
{-0.58458865}
{-0.5677049}
{0.522923}
{-0.67979974}
{-0.02570508}
{-0.47313434}
{-0.15845384}
{-0.41600764}
{0.32445595}
{-0.58782357}
{0.099627525}
{-0.79161763}
{0.8474425}
{1.0356818}
{0.3037356}
{0.49516597}
{0.20485064}
{-0.9119575}
{0.89959407}
{0.7065484}
{0.8033811}
{0.6336242}
{0.9254675}
{-0.53239655}
{0.918367}
{-0.79373574}
{-0.24145335}
{-0.9120107}
{-0.9015249}
{-0.4804854}
{-0.16351254}
{-0.64205956}
{-0.19745234}
{0.0775966}
{-0.49617228}
{-0.512806}
{0.4747891}
{0.8259292}
{0.90899974}
{-0.9283533}
{-0.88492954}
{0.41468477}
{-0.67273605}
{0.25274718}
{-0.907513}
{-0.34555972}
{0.55569285}
{-0.6275825}
{0.0041544624}
{0.9800987}
{-0.2479332}
{-0.5774493}
{-0.928069}
{-0.0041712993}
{0.16971466}
{-0.5218272}
{-0.6866089}
{-0.4403814}
{-0.6277592}
{-0.7707103}
{0.78341925}
{-0.4531645}
{0.54417455}
{0.49254727}
{0.06287963}
{-0.28630984}
{0.77823067}
{-0.018774997}
{0.6691021}
{0.35726616}
{-0.2736514}
{0.25294128}
{0.13644168}
{0.6876146}
{-0.7193938}
{0.6105455}
{-0.6909503}
{-0.36085883}
{0.5578925}
{-0.84702724}
{-0.94136655}
{0.09277246}
{-0.2050956}
{-0.0129314475}
{-0.14193606}
{-0.14679898}
{0.22117628}
{-0.8457567}
{-0.46790698}
{0.6613463}
{0.40892017}
{-0.70569026}
{-0.32545164}
{0.95266527}
{-0.25911567}
{0.6806481}
{0.5273298}
{0.4973544}
{0.7187467}
{-0.18236776}
{-0.061429005}
{-0.053351793}
{-0.11808933}
{-0.6317367}
{0.94325817}
{0.4174267}
{-0.4175707}
{-0.071082376}
{0.4817508}
{1.0061666}
{0.6501422}
{0.5702547}
{0.3072662}
{0.34706497}
{-0.815547}
{-0.30017206}
{-0.031769972}
{-0.46036705}
{-0.3983854}
{-0.2480832}
{-0.5048999}
{1.0971737}
{0.7145341}
{0.78986645}
{-0.36634758}
{-0.3077588}
{-0.34597197}
{-0.17999588}
{-0.9086231}
{0.5528889}
{-0.12998022}
{0.82547325}
{0.25022075}
{0.00088775787}
{-0.8240509}
{-0.48449576}
{-0.6507715}
{0.29688638}
{-0.85977376}
{0.17544994}
{0.48751512}
{-0.3772982}
{-0.5430643}
{-0.9491724}
{0.8598496}
{-0.35168776}
{0.5762772}
{0.20165694}
{-0.13344523}
{-0.7708473}
{0.026517753}
{-0.11177853}
{-0.038567048}
{0.21330532}
{-0.23709111}
{0.40739286}
{-0.014128188}
{0.9225377}
{0.11128432}
{-0.13999836}
{0.027846117}
{0.012909523}
{-0.8320488}
{0.4718359}
{0.24431989}
{0.68120366}
{0.13046096}
{0.9128717}
{0.25763604}
{-0.64321697}
{-0.7051102}
{-0.20820598}
{-1.0097061}
{0.4535428}
{-0.7231014}
{-0.6768307}
{-0.99199474}
{0.7116864}
{0.9604745}
{0.867934}
{-0.46071866}
{0.8689646}
{-0.45783153}
{-0.5614264}
{0.608889}
{0.82774156}
{0.4432391}
{-0.35631385}
{0.03270461}
{1.0042464}
{0.2818629}
{-0.25040218}
{-0.759781}
{-0.43653414}
{0.35527053}
{0.016301611}
{-0.8758739}
{0.3189058}
{-0.118555024}
{0.008253775}
{0.40901944}
{0.33007562}
{-0.3619733}
{0.1561813}
{-0.99273884}
{0.87881625}
{-0.6949189}
{-0.11113786}
{0.15820596}
{-0.15312244}
{-0.6089801}
{0.602961}
{0.062103096}
{0.92626953}
{-0.28118268}
{-0.26401934}
{-0.61761296}
{0.48492345}
{0.8431633}
{0.543613}
{-0.5800384}
{-0.28015432}
{-0.6780249}
{-0.64572173}
{-0.04542611}
{-0.08579432}
{-0.6767603}
{0.3657912}
{0.77618015}
{-0.033778746}
{-0.054011367}
{0.2553598}
{-0.6591817}
{0.77616256}
{-0.6191544}
{0.49586883}
{-0.88712275}
{-0.2537569}
{0.5800339}
{-0.71398}
{0.25677392}
{0.9891791}
{-0.7022083}
{-0.559812}
{-0.21445444}
{0.8110029}
{-0.5689626}
{0.3126219}
{-0.88786685}
{-0.42547745}
{0.43635342}
{-0.19734663}
{0.01455595}
{1.019542}
{0.08449133}
{-0.32870817}
{0.106653735}
{0.21060687}
{0.69708407}
{0.21213624}
{-0.9624549}
{0.3157773}
{0.022290904}
{0.20485623}
{-0.4816487}
{-0.12855838}
{0.44049564}
{0.23782343}
{0.13756272}
{0.25157034}
{0.26199153}
{0.7842147}
{-0.98437893}
{-0.22279282}
{-0.930004}
{-0.682118}
{0.56634057}
{-0.8022278}
{0.23078932}
{-0.44826248}
{0.009140987}
{0.76428115}
{0.66658574}
{-0.87748617}
{-0.22794464}
{-0.07713212}
{-0.2680898}
{0.25991488}
{-0.50552887}
{-0.013489836}
{-0.46144655}
{0.94285804}
{0.7422565}
{-0.09767011}
{-0.5345497}
{0.27274284}
{0.34516117}
{-0.7331078}
{-0.9433245}
{-0.74270684}
{0.8839103}
{0.87778044}
{0.95006585}
{-0.43120685}
{0.3220782}
{0.6039468}
{-0.4199107}
{0.9305451}
{-0.089590006}
{0.30903003}
{0.9573027}
{0.14631525}
{0.30315158}
{-0.39575887}
{-0.57218206}
{0.36992228}
{0.87547314}
{-0.12449991}
{-0.25265107}
{-0.5719772}
{0.153887}
{-0.80496067}
{0.6104337}
{-0.6479813}
{-0.3136647}
{1.0582707}
{0.3800687}
{-0.5206955}
{0.9410969}
{0.6328013}
{0.43597758}
{0.03578039}
{0.27058527}
{0.64051396}
{-0.8447273}
{0.22161177}
{-0.8237196}
{-0.035285074}
{-0.2905772}
{0.24154408}
{0.91593015}
{-0.6340094}
{0.88494533}
{-0.59592557}
{-0.52653325}
{1.2044882}
{0.14359424}
{0.48768303}
{-0.6443604}
{-0.6333007}
{-0.54224926}
{-0.25572893}
{-0.8787004}
{-0.0752357}
{-0.33240533}
{-1.0734545}
{-0.88150036}
{-0.63560295}
{-0.46505624}
{-0.3336458}
{0.8589772}
{0.8667988}
{-0.419046}
{-0.19277303}
{-0.42457202}
{-0.13382888}
{0.27830267}
{0.0052281884}
{-0.40313628}
{0.025531398}
{-0.040585607}
{-0.39724094}
{-0.5893086}
{0.8819835}
{0.0890289}
{-0.12615064}
{0.016309042}
{-0.07847215}
{-0.23651445}
{-0.6329116}
{-0.51042616}
{-0.71578914}
{0.4912404}
{0.027323868}
{-0.75185573}
{-0.66335505}
{-0.8123255}
{-0.44797167}
{0.3952355}
{0.6293139}
{-0.20442787}
{-0.5115135}
{-0.7933494}
{-0.6647252}
{-0.9472947}
{0.4276722}
{0.9274994}
{-0.084731124}
{-0.16144577}
{-0.7070576}
{-0.7308279}
{-0.69614524}
{0.36392003}
{-0.5248983}
{0.67753947}
{-0.22181208}
{0.11711634}
{-0.7656792}
{0.1195681}
{-0.7608609}
{-0.63558257}
{0.9093011}
{-0.052333575}
{0.45645818}
{0.6036751}
{0.9415905}
{-0.82446873}
{0.8623107}
{0.17572421}
{-0.80411637}
{-0.81455815}
{-0.46931756}
{0.24205545}
{-0.07762292}
{-0.13486192}
{0.89296454}
{-0.95865697}
{-0.3853075}
{0.14075944}
{-0.761822}
{-0.5928987}
{-0.9646932}
{0.9414495}
{0.5699464}
{0.249279}
{0.646759}
{-0.53556526}
{-0.4265461}
{-0.32781056}
{0.7321716}
{-0.17735031}
{0.627436}
{0.72732633}
{-0.25238892}
{-0.610206}
{-0.45272574}
{-0.06952271}
{0.25693518}
{0.36932942}
{0.18749872}
{0.707695}
{-0.1413214}
{0.944476}
{-0.081607126}
{-0.6604761}
{-0.86178356}
{-0.4833441}
{-0.61672825}
{-0.872587}
{-0.9362379}
{-0.6274835}
{0.70289075}
{-0.5002724}
{-1.0428076}
{0.7102281}
{-0.010349364}
{0.60773367}
{-0.57555807}
{-0.76699674}
{-0.68553513}
{-0.79678833}
{-1.0442654}
{0.40441844}
{0.10026766}
{0.44193208}
{0.15471253}
{-0.18860558}
{1.1985011}
{-0.62084967}
{-0.041424934}
{0.860381}
{0.40003702}
{-0.6746909}
{0.24528193}
{0.34331772}
{0.5132901}
{0.04227866}
{-0.19299415}
{0.8965293}
{0.16562094}
{-0.38175538}
{0.2712151}
{-0.05889342}
{-0.14895}
{-0.7310568}
{-0.93032765}
{-0.20684412}
{0.19497086}
{0.7219955}
{-0.10444188}
{0.3837063}
{-0.70699894}
{0.28643772}
{0.16958535}
{0.27700683}
{-0.50795364}
{-0.7951231}
{0.020889465}
{-0.22483328}
{-0.5010695}
{0.5815407}
{-0.17047402}
{-0.7247361}
{0.08715284}
{0.19670907}
{0.73063904}
{-0.7990874}
{0.48365504}
{0.35683578}
{0.795385}
{-0.7428435}
{0.19711648}
{-0.5522076}
{0.08450395}
{-0.34678796}
{0.89991546}
{-0.535165}
{0.30590832}
{-0.3175111}
{0.5884047}
{0.33462214}
{0.5324188}
{-0.614611}
{-0.29604685}
{0.54246265}
{-0.12612793}
{0.63123}
{-0.36691585}
{0.97097987}
{0.11574958}
{-0.21111539}
{-0.42503935}
{-0.09473394}
{-0.51901436}
{-0.9563695}
{0.5851434}
{-0.8409038}
{0.09291727}
{-0.34237126}
{0.25192815}
{-0.9372811}
{0.02596583}
{-0.42818478}
{-0.73022735}
{-0.9547026}
{0.70078}
{0.04364875}
{-0.17075454}
{0.18357852}
{0.82971376}
{-0.87125814}
{-0.9075048}
{-0.39390856}
{0.42382884}
{0.013248462}
{-0.89772904}
{-0.59811455}
{0.7235462}
{-0.9617506}
{-0.37704474}
{-0.8085313}
{0.46497878}
{-1.0046805}
{-0.3155318}
{0.36484268}
{0.73046243}
{-0.9823421}
{-0.6048662}
{0.8211936}
{-0.60457563}
{-0.02196}
{0.4895948}
{0.6144705}
{0.70582414}
{0.7003132}
{0.7365892}
{-0.39457864}
{-0.402936}
{0.8729342}
{0.26721767}
{0.95050085}
{-0.5857286}
{0.37150666}
{0.38580593}
{0.33431402}
{0.50448257}
{-0.26591185}
{-0.39086178}
{-0.612886}
{-0.78024346}
{0.77195895}
{0.09001219}
{0.6650887}
{0.13973494}
{-0.032631617}
{-0.09599755}
{0.78798574}
{-0.22142126}
{-0.89470637}
{1.1318381}
{-0.6549987}
{-0.4602387}
{0.6273793}
{0.8989469}
{-0.121798575}
{0.27059913}
{-0.48828605}
{0.5583668}
{0.74703586}
{0.3026339}
{0.8328372}
{1.1590031}
{0.08424021}
{-0.47185016}
{0.8704432}
{-0.6183533}
{0.17310332}
{0.6176867}
{0.8414489}
{-0.212971}
{1.0201068}
{-0.07592408}
{0.78729093}
{1.0764822}
{0.3330181}
{-0.61096305}
{0.14023492}
{0.77670723}
{-0.13975272}
{0.26890102}
{-0.84839594}
{-0.1376465}
{-0.21079291}
{-0.9472292}
{0.3716626}
{-0.2283341}
{0.34698966}
{-0.14808638}
{-0.13515088}
{-0.7681275}
{-0.11781663}
{0.760984}
{0.81932604}
{0.8662832}
{-0.02300747}
{0.8353982}
{0.12831613}
{0.19399013}
{-0.59839743}
{-0.51024854}
{-0.8337308}
{0.00257438}
{-0.42507145}
{-0.7391748}
{-0.9112216}
{0.032698285}
{0.6760788}
{0.6975767}
{0.4243681}
{0.44292834}
{0.9962116}
{-0.3168005}
{-0.31887844}
{-0.8172002}
{-0.97749645}
{0.5194612}
{-0.8141333}
{-0.59436446}
{-0.5693443}
{0.43878216}
{0.6910132}
{0.75806653}
{0.45208448}
{-0.015657546}
{-0.7381152}
{0.9541021}
{-0.3169248}
{0.34677774}
{-0.43395713}
{-0.7265536}
{-0.44643292}
{0.10894924}
{0.03307249}
{-0.24466129}
{-0.66051}
{0.4142446}
{-0.67085874}
{-0.39858335}
{-0.58211166}
{-0.11653555}
{-0.8237747}
{0.5902907}
{-0.19501126}
{-0.5710252}
{0.0036099146}
{-0.23809987}
{-0.93328804}
{-0.7668606}
{-0.89630353}
{-0.8529701}
{0.0057767155}
{-0.38477132}
{0.022604484}
{-0.03868707}
{0.7103365}
{-0.9261722}
{0.6331421}
{0.90146977}
{0.5165644}
{-0.48712942}
{-0.5470625}
{-0.04432393}
{1.0017155}
{-0.4096636}
{0.7342607}
{0.7037456}
{0.82978845}
{-0.08914271}
{-0.43337372}
{0.13335063}
{0.9024312}
{0.7972097}
{-0.64435446}
{0.34758154}
{0.113721125}
{-0.6052394}
{-0.92407286}
{0.56747454}
{0.6404355}
{0.06898453}
{-0.9589118}
{0.3879567}
{0.79973024}
{0.61982715}
{-0.5182948}
{-0.6978575}
{0.562635}
{-1.0088345}
{-0.3135579}
{0.25329643}
{0.45168424}
{0.21412724}
{0.8811194}
{1.111845}
{-0.6909748}
{0.31690574}
{0.64515984}
{-0.6392984}
{-0.0100144}
{-1.0215776}
{0.5400313}
{1.2012539}
{0.59279734}
{-0.23661418}
{-0.84119713}
{-0.41250104}
{-0.034004554}
{-0.261377}
{-0.6797639}
{0.2573937}
{0.5826194}
{0.77675843}
{-0.8478445}
{1.0427868}
{-0.4289956}
{-0.13817218}
{0.08417279}
{-0.8073804}
{0.95333195}
{0.2158965}
{-0.36366895}
{-0.8097393}
{-0.942269}
{0.5129354}
{0.010663051}
{-0.40242884}
{0.42723414}
{0.39186484}
{0.025744457}
{-0.29362106}
{-0.67007244}
{-0.8153527}
{-0.40292886}
{0.111336865}
{-0.73468286}
{0.68420845}
{0.49766666}
{0.987291}
{0.34687957}
{-0.17018339}
{0.16482326}
{-0.86634535}
{0.5840838}
{-0.82781076}
{-0.8954321}
{0.91183674}
{-0.47299424}
{0.19388685}
{0.0060494132}
{0.15483864}
{0.7525876}
{-0.68252546}
{-0.6496304}
{0.9097225}
{0.24741746}
{0.16364434}
{-0.83129704}
{-0.0723927}
{-0.23646331}
{-0.34755918}
{-0.1329815}
{-0.70569825}
{0.23773983}
{0.8804831}
{0.06315882}
{0.8599492}
{0.3393144}
{0.47709075}
{-0.35986498}
{0.16072814}
{-0.5822303}
{-0.674518}
{0.90251625}
{-0.8365136}
{0.9541207}
{0.442404}
{-0.9016458}
{0.77093965}
{0.4851492}
{-1.0783504}
{0.95016944}
{-0.3174423}
{0.53742474}
{-0.9981453}
{0.068788834}
{-0.1372889}
{0.8014507}
{0.2760731}
{0.71964085}
{0.6413982}
{-0.7947036}
{0.19756284}
{0.7716509}
{0.106457904}
{0.8957349}
{-0.06919555}
{0.63715374}
{-0.021848654}
{-0.40106428}
{-1.1178236}
{-0.15339926}
{0.26419526}
{0.028230404}
{0.38677728}
{-0.15156892}
{-0.039778076}
{1.0952675}
{-0.3559882}
{-0.7501687}
{0.906855}
{-0.44240835}
{0.3962155}
{0.4700453}
{-0.2181029}
{-0.46513653}
{-0.05476333}
{-0.5452148}
{-0.47249877}
{0.6008001}
{-0.1797917}
{-0.88080275}
{-0.4254614}
{-0.7035743}
{-0.3945812}
{-0.084926784}
{0.88034093}
{0.28781804}
{0.23596218}
{0.31891677}
{-0.10789712}
{-0.10944573}
{-0.26687217}
{0.52859294}
{-0.013301194}
{0.51851887}
{0.5439492}
{0.3448355}
{0.32134616}
{0.13927555}
{0.5707508}
{0.3161809}
{-0.017801614}
{0.76210195}
{-0.39803186}
{0.67670023}
{0.5031272}
{0.29382998}
{-0.18284942}
{-0.4145427}
{-0.5958124}
{-0.79740864}
{-0.7267352}
{0.38548324}
{-0.42086917}
{0.90673834}
{-0.41574302}
{0.32765242}
{1.0283649}
{-0.7193998}
{0.028901096}
{0.95929563}
{0.24830404}
{0.78205377}
{-0.64525837}
{0.61979663}
{-0.8710429}
{0.006826798}
{0.56445754}
{0.38867113}
{-0.8817702}
{0.43776575}
{-0.5670632}
{-0.69754446}
{-0.81952995}
{0.119836986}
{-0.15401034}
{-0.27769735}
{-0.73428714}
{-0.48164186}
{-0.18850361}
{-0.2780135}
{-0.08907211}
{-0.3381452}
{-0.563909}
{-0.9984392}
{0.06832884}
{-0.8532956}
{0.28351426}
{0.36470792}
{0.8004563}
{0.79319334}
{-0.6703695}
{0.95834506}
{-0.8291196}
{0.24375615}
{-0.10063301}
{0.37905475}
{0.82773525}
{0.7592554}
{-0.3583101}
{-0.37076333}
{-0.41873884}
{0.7705663}
{0.31267604}
{-0.7262722}
{-0.4368793}
{0.83215827}
{-0.56086105}
{-0.79454505}
{-0.6633406}
{0.13045262}
{-0.16294572}
{-0.6530863}
{-0.55843735}
{-0.48821214}
{-0.14928997}
{0.41209647}
{-0.7688406}
{-0.6294897}
{0.46350688}
{-0.090876035}
{0.49125877}
{0.9241921}
{-0.48641855}
{-0.53737843}
{0.17117542}
{0.43384147}
{0.35402855}
{-0.4664121}
{-0.6638625}
{-0.60040814}
{0.7314672}
{0.0009341431}
{0.89933383}
{0.9393121}
{-0.6300974}
{-0.23924783}
{1.0772719}
{0.12530564}
{0.08645898}
{0.40461656}
{1.2019539}
{0.24957521}
{-0.74611616}
{0.849846}
{-0.47629634}
{0.5390982}
{-0.71050996}
{0.13443586}
{-0.5592523}
{-0.67545795}
{-0.89171344}
{-0.5475303}
{0.23955372}
{-0.76485306}
{0.2863099}
{-0.20864156}
{-0.14425313}
{0.28946444}
{0.19452563}
{0.2805564}
{-0.2963847}
{-0.5018184}
{-0.4058784}
{-0.42762426}
{-0.62469745}
{0.37321496}
{0.1368347}
{-0.9184829}
{-0.324387}
{0.07177201}
{-0.6200097}
{0.050316136}
{0.5969223}
{-0.8296206}
{0.6471645}
{0.81884515}
{-0.49927014}
{-0.8982978}
{0.22501877}
{-0.63923705}
{1.0475767}
{-0.040326882}
{0.72087497}
{0.9184967}
{-0.8235098}
{0.5384624}
{-0.6153582}
{-0.91043985}
{0.62774163}
{1.0326794}
{0.39261526}
{-0.041472655}
{-0.9236451}
{-0.67200273}
{-0.7216422}
{0.82079494}
{0.35884875}
{-0.7947879}
{-0.27918085}
{-0.78041947}
{-0.2939765}
{0.5691627}
{0.85779816}
{-0.8252336}
{-0.51337016}
{-0.8650573}
{-0.12678194}
{-0.65970266}
{-0.42121986}
{-0.23457937}
{0.05496896}
{-0.6870879}
{0.9969394}
{0.24946567}
{-0.39272603}
{-0.71748006}
{0.66320235}
{0.18900178}
{0.5101924}
{0.42047307}
{-0.819741}
{-0.50480396}
{-0.5615733}
{0.1730015}
{0.4490179}
{-0.82158154}
{0.39406133}
{-0.4866729}
{0.8762747}
{0.4616141}
{-0.3052347}
{0.22902963}
{0.6700669}
{0.88166153}
{-0.8839934}
{0.25051138}
{0.17338152}
{1.0572252}
{0.5790785}
{-0.5161996}
{0.47327366}
{-0.1876447}
{-0.9418113}
{0.8727144}
{0.19621773}
{-0.27127722}
{-0.283299}
{-0.9259678}
{-0.53783095}
{0.2775731}
{-0.00909865}
{0.6215149}
{0.7497371}
{0.26129508}
{0.07861034}
{0.07956607}
{-0.073847085}
{0.81760484}
{-1.0735689}
{-0.31406215}
{1.1989642}
{1.0457639}
{-1.0425123}
{0.9700638}
{-0.06983051}
{0.6138262}
{-0.003099892}
{-0.37365463}
{0.64863795}
{-0.58363366}
{0.11220778}
{0.87697136}
{0.1355511}
{0.322201}
{-0.4625921}
{0.36577174}
{0.972736}
{0.6427088}
{-0.42881015}
{-0.27174738}
{-0.5896853}
{0.31081402}
{-1.0410888}
{0.06204397}
{-0.013922998}
{0.2549282}
{0.058924936}
{0.12380359}
{0.12592927}
{0.5450139}
{0.42467314}
{-0.3705428}
{0.43291467}
{-0.38455388}
{0.37055442}
{-0.2314358}
{-0.63421255}
{0.48217016}
{-0.5984905}
{-0.36624888}
{-0.5637884}
{0.43168452}
{-0.47744378}
{-1.0140306}
{-0.32653704}
{-0.61192805}
{0.2818199}
{-0.9743055}
{-0.64831823}
{0.62357885}
{0.5546119}
{-0.9286324}
{-0.23348528}
{0.5999347}
{0.352137}
{0.8655654}
{-0.09464217}
{0.09310149}
{-0.07033167}
{-0.408299}
{-0.9058789}
{0.96159095}
{-0.4626158}
{-0.46320537}
{0.2434314}
{0.19510047}
{0.84138644}
{0.5672976}
{-0.67859495}
{-0.8340447}
{0.5923376}
{-0.062374335}
{-0.14049384}
{-0.95224106}
{-0.6861831}
{-0.7219571}
{0.1591555}
{-0.5766949}
{0.5481006}
{0.7450453}
{-0.2611728}
{0.78378797}
{0.41101593}
{0.9126729}
{-0.32206243}
{0.09481193}
{-0.63423026}
{0.97316253}
{-0.043836985}
{-0.14038926}
{-0.527849}
{-0.25557163}
{0.124023706}
{0.56841195}
{0.87801975}
{-0.24991897}
{-0.5831743}
{-0.40987894}
{0.8857465}
{0.84246624}
{-0.78394365}
{-0.14861305}
{-0.6821238}
{-0.6085931}
{0.6987672}
{-0.13285448}
{-0.3245231}
{0.17102882}
{-0.12450678}
{-0.7533776}
{-0.3282294}
{-0.62685406}
{-0.6778662}
{0.43152186}
{-0.6403581}
{-0.2204037}
{0.80292207}
{0.18689963}
{0.8151886}
{-0.4405816}
{0.754359}
{0.36995777}
{-0.52792984}
{0.19228575}
{-0.47308943}
{0.49935755}
{-0.21625163}
{0.573562}
{-0.009197916}
{-0.060563996}
{0.09911151}
{-0.09121721}
{0.61600435}
{0.0024724945}
{-1.0789174}
{-0.5907484}
{-0.35191917}
{0.21202822}
{-0.29169556}
{0.080890246}
{0.31606844}
{-0.37137467}
{0.30068398}
{-0.33975485}
{0.4833932}
{0.017087113}
{0.76013523}
{-0.51414186}
{0.087819785}
{0.08766344}
{-1.04634}
{-0.9740113}
{0.38900012}
{0.9545457}
{0.111936025}
{0.6175009}
{-0.6677432}
{-0.3138907}
{0.60957897}
{-0.14670087}
{-0.62959206}
{-0.45023793}
{-0.23988278}
{0.051438376}
{0.25722823}
{-0.6267266}
{-0.04567902}
{0.59014523}
{-0.43805403}
{0.11980174}
{-0.579415}
{0.015049953}
{0.6952558}
{-0.79813}
{-0.35013863}
{0.35121772}
{-0.2685955}
{-0.71311414}
{-0.81441516}
{-0.8257867}
{-0.5593347}
{-0.19449389}
{-0.99259806}
{-0.07138654}
{-0.34803626}
{0.33345437}
{-0.9410687}
{0.45380613}
{0.79766786}
{0.62589705}
{-0.0808042}
{0.5534779}
{-0.33818617}
{0.9679178}
{-0.36938745}
{0.5535375}
{0.6123597}
{0.19812994}
{-0.27069086}
{0.7693652}
{-0.49457535}
{0.36920562}
{-0.43181825}
{0.14704987}
{-0.105548166}
{0.8261909}
{0.47859105}
{-0.55978453}
{-0.58363265}
{-0.8312644}
{-0.60374707}
{-0.070062846}
{-0.7623884}
{-0.60355574}
{0.48878622}
{-0.7764982}
{1.0116608}
{-0.08171207}
{0.22424805}
{0.23541185}
{-0.75429726}
{0.4736519}
{0.47739536}
{-0.7920927}
{0.66723126}
{-0.09515377}
{-0.25719318}
{-0.7738732}
{-0.38996384}
{-0.2673544}
{0.36242205}
{-0.13823412}
{0.44382146}
{0.9124795}
{0.5891246}
{0.8707706}
{-0.33311462}
{0.53098553}
{-0.2581541}
{-0.70150006}
{-0.027188549}
{-0.37984723}
{-0.17804305}
{0.34904954}
{-0.34669447}
{-0.4491325}
{-0.16329275}
{0.14855954}
{0.92431325}
{-0.1371973}
{-0.1877118}
{-0.28582194}
{0.3366863}
{0.82528615}
{0.021948684}
{0.88959825}
{0.17552677}
{-0.010527446}
{-0.10863052}
{0.36262152}
{-0.6204752}
{-0.035315435}
{-0.03284462}
{0.10768346}
{1.0939415}
{0.49415222}
{0.34379968}
{-0.123419695}
{0.9511709}
{-0.67759526}
{-0.7403356}
{0.17493078}
{-0.5694109}
{-0.4841325}
{0.51120347}
{-0.29631308}
{0.42044163}
{0.24411273}
{0.7058422}
{0.34251353}
{0.10813142}
{-0.8730351}
{0.4568427}
{-0.19286206}
{0.82492447}
{0.37997103}
{0.32324523}
{-0.7091261}
{-0.60947496}
{-0.051011425}
{-0.72525597}
{0.33389422}
{-0.64209425}
{0.2599081}
{-0.5737057}
{-0.99247086}
{-0.17962128}
{0.098702274}
{-0.57641226}
{-0.104485445}
{-0.7659503}
{-0.40885982}
{0.37146404}
{0.47050592}
{1.1309464}
{0.97822374}
{-0.74008644}
{-0.2615266}
{-0.6667858}
{0.6772383}
{0.16904372}
{0.81969845}
{0.10281446}
{-0.52497023}
{0.5242818}
{0.7903334}
{0.017369997}
{0.5240597}
{0.47181493}
{-0.21005014}
{-0.6590659}
{0.60441595}
{-0.46228972}
{0.83472145}
{0.22861958}
{0.818931}
{-0.45619366}
{-0.1843715}
{0.73698944}
{0.98909307}
{-0.6548724}
{-0.905959}
{0.70564514}
{-0.72066647}
{0.40049607}
{-0.6797048}
{-0.28155944}
{0.5090223}
{0.49920928}
{0.96472585}
{-0.6547471}
{0.25136507}
{0.9491175}
{0.38520572}
{-0.48449588}
{0.04287861}
{0.085898675}
{-0.6141077}
{-0.61625326}
{0.18880588}
{-0.28901345}
{-0.084021986}
{0.10549795}
{-0.7801072}
{-0.105479196}
{0.104991965}
{0.50720125}
{-0.2125514}
{0.56413037}
{0.5181757}
{-0.578998}
{-0.41168678}
{0.83463585}
{-0.7362441}
{0.4728725}
{-0.1313015}
{0.2589776}
{0.117712736}
{-0.5973729}
{0.16404635}
{-0.3546488}
{-0.07889528}
{-0.8055869}
{0.30583516}
{-0.8212857}
{0.15454337}
{0.137037}
{0.16289623}
{-0.11821173}
{0.59267175}
{-0.8156361}
{-0.8016539}
{0.4913829}
{0.89707434}
{0.44453448}
{0.7355959}
{-0.90106136}
{-0.80959046}
{0.09340618}
{-0.75259525}
{-0.13475928}
{-0.31420782}
{0.24464099}
{0.9444471}
{0.63466}
{0.75320756}
{0.6750926}
{1.0845219}
{-0.2995049}
{0.6577424}
{0.060141448}
{-0.3874539}
{-0.9942211}
{0.6881577}
{0.35705867}
{0.45864704}
{-0.5068886}
{-0.54278195}
{0.6478186}
{-0.8127616}
{-0.47264543}
{0.51742184}
{0.747897}
{-0.6330846}
{-0.4761783}
{0.24194571}
{0.6875854}
{-0.27960163}
{-0.27866265}
{0.3062887}
{0.8100936}
{-0.15733232}
{0.2745266}
{-0.77830184}
{0.41690853}
{-0.38052964}
{0.038685877}
{0.27578565}
{-0.27770376}
{-0.8428311}
{-0.04362767}
{-0.8490499}
{-0.48083323}
{0.33381808}
{0.6207966}
{-0.46752027}
{-0.81770766}
{0.24838641}
{0.16411349}
{0.77345836}
{-0.15712634}
{0.38462415}
{-0.6353293}
{0.17214748}
{-0.5590071}
{0.08396727}
{0.30358967}
{0.15839788}
{-0.05360808}
{0.71615255}
{-0.27408123}
{0.23929021}
{-0.37656826}
{-0.7702072}
{0.63730985}
{-0.09456723}
{0.8521457}
{-0.58176416}
{0.064732455}
{0.6713735}
{-0.97277516}
{0.18262349}
{-0.14893883}
{-0.9900211}
{-0.14204556}
{0.7410353}
{0.511494}
{-0.5194013}
{0.26008075}
{-0.36557135}
{0.092367224}
{-0.58943}
{0.112235636}
{-0.27688667}
{0.8795559}
{-0.7875496}
{0.6682974}
{0.5554531}
{-0.7483923}
{0.5034348}
{-0.78499985}
{-0.35186777}
{-0.51374483}
{0.5321325}
{-0.801621}
{-0.3286658}
{-0.1980865}
{-0.46213225}
{0.5754045}
{-0.8769403}
{0.24424599}
{0.87714994}
{0.51266474}
{-0.48437384}
{0.0006090095}
{-0.6747185}
{0.5103708}
{0.05179446}
{0.64798325}
{0.4231002}
{-0.8259763}
{0.48806176}
{-1.0696961}
{-0.7481319}
{-0.83803356}
{0.37664646}
{0.65938294}
{-0.12228769}
{0.34237054}
{0.027349196}
{0.80850655}
{-0.13583228}
{0.7447376}
{-0.19234627}
{-0.13019305}
{0.78665006}
{0.0013087152}
{0.71931905}
{-0.058120932}
{-0.097300224}
{1.1029841}
{0.5689604}
{0.727577}
{0.90475214}
{0.39132333}
{-0.5846716}
{0.17643979}
{0.9214977}
{1.1707678}
{-0.44125903}
{0.14903878}
{0.32391307}
{0.54491925}
{0.57143784}
{-0.107296}
{0.41375872}
{1.1078656}
{-0.62400395}
{-0.557555}
{-0.67300785}
{0.22107454}
{0.47622988}
{0.79434973}
{-0.05194972}
{0.34470767}
{-0.5622947}
{0.6431286}
{0.25527236}
{-0.38998142}
{0.071950994}
{-0.1864736}
{-0.5857781}
{1.091709}
{-0.91460896}
{0.74234957}
{-0.39246896}
{-0.79728943}
{0.77825683}
{-0.7853185}
{0.19863221}
{-0.6646383}
{0.76930445}
{0.18302153}
{-0.09771793}
{-0.19832021}
{0.81777334}
{0.42322868}
{0.53634775}
{0.40731928}
{-0.5440605}
{-0.6741025}
{0.18680665}
{-0.4046829}
{0.13956949}
{-0.7925048}
{0.3524432}
{-0.42592677}
{-0.9472895}
{-0.095667385}
{0.95379126}
{-0.2821521}
{-0.7107133}
{0.49369627}
{0.8694695}
{-0.27328476}
{0.48792693}
{-0.45838752}
{-0.43422726}
{-0.5607593}
{-0.024316674}
{-0.1188647}
{-0.3656495}
{-0.61964077}
{0.5314293}
{0.70725393}
{-0.8584751}
{0.5456178}
{0.69120306}
{-0.3811651}
{-0.34773543}
{0.29661614}
{-0.2633913}
{0.9228142}
{0.55925596}
{0.8706607}
{0.9880735}
{-0.017697863}
{0.12995312}
{-0.013367155}
{0.7515942}
{0.2507107}
{0.7304028}
{-0.18139021}
{0.00035484083}
{0.72572017}
{0.769143}
{0.27523765}
{0.83785576}
{-0.15681724}
{-0.91153324}
{-0.74454886}
{0.98345464}
{-0.43960738}
{-0.41064838}
{0.17846547}
{-0.75642025}
{-0.34983313}
{0.33089086}
{0.41059366}
{-0.42848992}
{0.5230411}
{-0.07799263}
{0.05930896}
{-0.27817786}
{-0.97939706}
{-0.99833095}
{-0.21486396}
{0.31064022}
{0.37357277}
{0.2860529}
{0.4535348}
{-0.04877534}
{0.7851402}
{-0.5978602}
{0.019407209}
{0.5842546}
{-0.290586}
{0.07734997}
{0.3167516}
{0.51572126}
{-0.5144034}
{0.6723076}
{0.3504425}
{-0.8021191}
{0.7281539}
{0.11698652}
{0.067584306}
{-0.72343963}
{-0.9540112}
{-0.6620475}
{-0.284024}
{0.10862099}
{-0.44701448}
{0.20109412}
{-0.2585018}
{0.5135297}
{0.888764}
{0.39542076}
{0.29784673}
{-0.8368479}
{0.44636068}
{-0.4090064}
{0.19472852}
{0.43573618}
{0.8645915}
{-0.19277313}
{0.9589013}
{0.23691761}
{-0.64706475}
{-0.2616692}
{0.47197896}
{0.95017236}
{0.5627242}
{-0.14123225}
{0.5936282}
{-0.4824234}
{-0.9266993}
{-0.25613502}
{0.8966525}
{-0.4467889}
{0.80443305}
{-0.21269801}
{0.38155186}
{0.72981673}
{0.16456324}
{0.34095833}
{-0.30901212}
{-0.10714632}
{-0.9918251}
{0.8942658}
{0.2733333}
{-0.97314775}
{-0.11747229}
{0.6308278}
{-0.26694676}
{0.64126784}
{0.26541793}
{-0.42676356}
{0.52824473}
{-0.15791613}
{0.7449001}
{0.17236301}
{0.8035203}
{-0.68986064}
{0.22219288}
{0.9051696}
{-0.49685088}
{-0.15540738}
{0.92253965}
{0.6989063}
{-0.09176866}
{-0.47958902}
{0.8759755}
{0.01827361}
{0.6498801}
{-0.58151096}
{0.99884784}
{0.7144362}
{-0.59910357}
{-0.50042707}
{-0.7711483}
{0.332859}
{-0.1008484}
{0.98589736}
{-0.1953012}
{-0.5315734}
{0.087932244}
{-0.75012344}
{-0.1411155}
{-0.47003034}
{-0.10938957}
{0.73312503}
{0.45449004}
{-0.7419764}
{-0.7267779}
{0.414092}
{0.62275934}
{-0.92772543}
{-0.3956714}
{0.48169404}
{-0.6920225}
{-0.25557497}
{-0.40561995}
{0.86335546}
{0.6008905}
{-0.30880454}
{-0.050861668}
{0.8702924}
{0.1062746}
{0.9369236}
{0.7075381}
{-0.8256305}
{0.8940237}
{-0.55360687}
{0.41544077}
{-0.19577207}
{0.036976792}
{-0.72577655}
{-0.8622214}
{0.42420962}
{-0.7499667}
{-0.5420393}
{0.75184256}
{0.26737225}
{-0.48334226}
{0.01752903}
{-0.5297425}
{-0.7525147}
{-0.6410029}
{-0.85742414}
{-0.5959668}
{-0.5108288}
{0.5051854}
{-0.4808109}
{-0.13657282}
{0.18692303}
{-0.7892964}
{0.29754445}
{-0.23675044}
{-0.22164461}
{0.7490212}
{0.6405531}
{-0.29443464}
{-0.467361}
{-0.6377255}
{0.90141904}
{-0.15504044}
{-0.6300472}
{-0.055173658}
{0.7940053}
{-0.68735397}
{-0.7055955}
{0.25272825}
{-0.47073057}
{0.043397162}
{0.5702715}
{-0.35009646}
{0.13442823}
{0.6426019}
{-0.04443936}
{-0.16183572}
{0.03871634}
{0.9653367}
{0.55691457}
{-0.49036637}
{-0.24852589}
{1.0206876}
{-0.2790566}
{-0.3394396}
{-0.25704458}
{-0.5976015}
{-0.54829514}
{0.78834414}
{0.5128695}
{-0.35671985}
{-0.77324885}
{-0.35153517}
{0.95777214}
{0.6150749}
{0.9843909}
{0.9191961}
{-0.43767455}
{0.04749509}
{0.27701938}
{-0.03324076}
{-0.82995117}
{-0.63459253}
{0.122467265}
{0.8316027}
{-0.4940386}
{-0.33560368}
{-0.1496469}
{0.38182652}
{0.9370707}
{-0.85586536}
{0.47310266}
{-0.81782746}
{0.366734}
{-0.0022427028}
{0.663505}
{-0.31945425}
{0.5675031}
{-0.66580117}
{-0.47444957}
{0.09985471}
{-0.7695075}
{-0.60576355}
{-0.060431384}
{-0.98226035}
{0.249176}
{-0.37649322}
{-0.6574126}
{-0.70452386}
{-0.2824488}
{0.6089542}
{0.12074837}
{-0.97518814}
{0.49965915}
{0.97419196}
{0.6678985}
{-0.4381984}
{-0.67912877}
{0.010686817}
{0.074830554}
{-0.18551998}
{0.33163735}
{0.9336211}
{-0.1818562}
{0.027390482}
{-0.5362631}
{-0.18345362}
{-0.8833288}
{-0.23955828}
{-0.49296144}
{-0.311553}
{0.062018503}
{-0.15706421}
{-0.42921737}
{-0.43877426}
{0.6588309}
{-0.6851145}
{0.37505886}
{-0.5390533}
{-0.9615165}
{0.15662429}
{-0.11231702}
{0.43149182}
{0.49199262}
{-0.20379122}
{-0.24424675}
{0.4998964}
{-0.534832}
{-0.4904355}
{-0.7142619}
{1.0522252}
{0.29901582}
{0.41229686}
{0.014996786}
{0.989438}
{-0.8359712}
{-0.94277006}
{-0.84357846}
{0.06484512}
{-0.4402523}
{0.7827474}
{-0.613248}
{-0.1428224}
{0.6882327}
{0.16368577}
{0.18848225}
{0.4861584}
{0.80689013}
{0.4845951}
{-0.98519385}
{0.14591289}
{0.6559675}
{0.71020085}
{-0.8258878}
{-0.5670896}
{0.3430899}
{-0.76610947}
{0.5540594}
{0.4182216}
{0.25333616}
{0.4076015}
{-0.20716932}
{-0.8225494}
{-0.9461613}
{0.5906556}
{-0.28305843}
{-0.65743804}
{0.83155733}
{-0.24163081}
{0.1888065}
{-0.7129886}
{-0.009204252}
{0.01318754}
{-0.9922689}
{-0.69350135}
{0.87241036}
{0.76136243}
{-0.13365099}
{-0.034818526}
{-0.085965395}
{-0.8403502}
{0.3658528}
{-0.68321127}
{0.7207658}
{-0.8530088}
{-0.6616727}
{-0.37537456}
{0.451187}
{-0.36680004}
{0.7560283}
{-0.95144254}
{-0.4209614}
{0.33537412}
{-0.22050765}
{-0.39581072}
{-0.1071146}
{0.48976448}
{-0.6389967}
{-0.3627898}
{-0.3068045}
{-0.20072706}
{0.83452}
{-0.97593516}
{0.53474605}
{-0.32127023}
{-0.4738367}
{-0.7303409}
{-0.23748393}
{0.40096307}
{0.33460304}
{-0.9236977}
{0.72372574}
{0.12459852}
{0.5162209}
{0.9551688}
{0.888879}
{-0.47342923}
{-0.037115317}
{-0.7565753}
{-0.5511373}
{0.32243615}
{-0.7567338}
{-0.88254666}
{0.3920762}
{0.5291568}
{0.033873815}
{0.5125428}
{0.12719433}
{0.47006106}
{0.3492777}
{0.62627995}
{-0.6146249}
{-0.9140591}
{-0.4814246}
{0.48065954}
{0.42651725}
{-0.49724305}
{0.62354124}
{0.07708685}
{-0.5809861}
{0.02039304}
{-0.6938933}
{0.9893893}
{0.3814084}
{-0.26023895}
{0.74294436}
{0.39226604}
{-0.88408476}
{-0.50357276}
{-1.0175599}
{-0.046178337}
{-0.43042806}
{-0.9069783}
{0.31216213}
{-0.16212294}
{0.18270823}
{0.18089408}
{0.24411914}
{-0.1360448}
{-0.26233912}
{0.25697696}
{-0.48712972}
{-0.700821}
{-0.4020496}
{0.15485783}
{-0.5936657}
{-0.89132}
{-0.43965638}
{-0.3022543}
{-0.45145062}
{0.4306452}
{0.7891989}
{0.10267992}
{0.93325436}
{0.77742225}
{-0.8905644}
{-0.24863273}
{-0.65626395}
{0.2757213}
{0.118710235}
{0.08994905}
{-0.9142879}
{-0.6279251}
{-0.23891345}
{-0.46946758}
{-0.07203647}
{0.9730403}
{0.5283982}
{0.06471774}
{0.45214865}
{-0.9539004}
{-0.24427521}
{-0.5844117}
{0.110298425}
{-0.66972464}
{0.85069805}
{-0.9108335}
{-0.80905783}
{0.57774305}
{-0.13524401}
{0.35824803}
{0.48122388}
{-0.39899772}
{-0.23202288}
{-0.18575335}
{-0.031129103}
{0.88671726}
{0.32476792}
{0.7151879}
{0.71108043}
{0.6347507}
{-0.78730035}
{0.8460047}
{0.6179837}
{0.6215428}
{-0.13568754}
{0.10347805}
{0.3237979}
{0.41770792}
{0.85053194}
{0.3611642}
{0.03347828}
{0.9950479}
{-0.67716056}
{0.11415942}
{0.7279657}
{0.5813019}
{0.8384223}
{-0.37519372}
{0.31587264}
{0.85574573}
{-0.5942953}
{0.3439624}
{-0.04849289}
{0.3696329}
{0.37013426}
{-0.47602612}
{-0.06731555}
{-0.85372746}
{0.34245768}
{0.81354964}
{0.7957305}
{-0.37721127}
{-0.97216594}
{-0.6489838}
{0.5451497}
{-0.44136527}
{0.08567442}
{0.24467695}
{0.55495036}
{0.352844}
{-0.4365477}
{0.55351067}
{-0.4390693}
{0.72213006}
{0.38237643}
{0.77166426}
{-1.0196537}
{-0.27543628}
{-0.8132543}
{-0.07703051}
{0.6509274}
{0.2755845}
{0.3044819}
{-0.53810364}
{-0.34256056}
{-0.6044848}
{0.818221}
{0.5717721}
{0.7840663}
{0.6025096}
{-0.69412905}
{-0.45750535}
{0.23189852}
{-0.88983524}
{-0.72757864}
{0.15752329}
{-0.9069046}
{-0.21492699}
{0.47062698}
{-0.8884176}
{0.04005363}
{0.62219393}
{0.79674953}
{0.8703222}
{0.77726233}
{-0.49347278}
{-0.679133}
{0.028916491}
{0.27339956}
{-0.685731}
{-0.15349777}
{-0.16871744}
{0.6398164}
{-0.8426491}
{0.846185}
{0.81521565}
{0.36823437}
{-0.20278421}
{0.5387225}
{-0.6046824}
{0.48506463}
{-0.17741242}
{0.24396999}
{-0.13496155}
{0.31843087}
{-0.006059053}
{-0.42268848}
{0.19738077}
{-0.12406271}
{-0.7195929}
{0.617206}
{0.15503478}
{-0.47570828}
{0.99233884}
{-0.17800328}
{-0.34433767}
{0.035521284}
{-0.42340603}
{0.651235}
{0.8274594}
{0.74759805}
{-0.82321435}
{-0.6456626}
{-0.85314995}
{-0.31986645}
{0.96578103}
{0.1631436}
{-0.7850816}
{0.23975322}
{-0.43050396}
{-0.70337194}
{-0.53276855}
{-0.68730485}
{-0.6559869}
{0.22567607}
{-0.53319}
{-0.8623768}
{0.5310599}
{0.12499956}
{0.10972449}
{-0.63308346}
{-0.7444702}
{-0.15922935}
{-0.2886249}
{-0.84952414}
{0.5691547}
{-0.42421436}
{0.27486387}
{-0.1752365}
{-0.20398238}
{-0.78810954}
{0.59904504}
{-0.8046018}
{-0.054406866}
{-0.01952229}
{-0.23891033}
{-0.223578}
{-0.57443464}
{-0.5038738}
{-0.50742936}
{-0.7712325}
{0.93115765}
{-0.79786044}
{0.91285187}
{0.20111343}
{0.36596543}
{-0.6603048}
{-0.22649816}
{0.3033459}
{0.58262616}
{0.04950764}
{0.79638517}
{0.27723572}
{-0.8306893}
{0.5665425}
{0.30342522}
{0.22470543}
{-0.3404051}
{-0.63131607}
{0.4785853}
{-0.77390444}
{-0.33922654}
{0.9233004}
{0.93544364}
{-0.34449485}
{-0.4661493}
{0.903361}
{0.017883016}
{0.46921772}
{-0.99503493}
{0.955939}
{-0.47123104}
{-0.23831108}
{0.63086253}
{0.7701078}
{0.5872404}
{0.34519622}
{0.9118135}
{-0.34196594}
{-0.314088}
{-0.055477362}
{0.09701617}
{0.23525433}
{-0.2986895}
{0.43810126}
{-0.29031742}
{0.22288267}
{0.68785775}
{-0.37543705}
{0.723789}
{0.33705676}
{0.4823421}
{-1.0104162}
{0.46021697}
{-0.40280798}
{0.60329217}
{-0.38801768}
{0.11482023}
{0.955136}
{0.50645566}
{0.61432517}
{0.46455625}
{-0.37958503}
{-0.027896468}
{-0.36167482}
{0.38621235}
{-0.5122992}
{-0.83661216}
{0.6502961}
{0.8615689}
{0.438053}
{0.78617543}
{0.46180508}
{-0.6019181}
{-0.8303561}
{-0.5126195}
{0.6437155}
{0.26985115}
{-0.12541775}
{-0.32098272}
{-0.7443155}
{-0.014418098}
{0.5854204}
{-0.69633}
{-0.6047865}
{-0.7642559}
{0.69368637}
{-0.35442936}
{-0.56687343}
{-0.7178477}
{-0.24226508}
{0.30422533}
{0.8246645}
{-0.63526785}
{-0.25395316}
{0.860897}
{-0.7184104}
{0.6203318}
{-0.85939604}
{-0.20379046}
{0.64053094}
{-0.8762263}
{0.621178}
{0.12881142}
{0.50356615}
{0.63834786}
{0.036021136}
{-0.5533713}
{0.43916628}
{-0.25138274}
{-0.93071014}
{-0.91676253}
{0.90288174}
{0.32880628}
{-0.7237883}
{-0.7620357}
{0.4543266}
