-- Efficiency --
93.10345
-- Weights --
{0.29043996}
{-0.8990481}
{0.39238322}
{0.89571744}
{-0.69987965}
{-0.6020305}
{-0.27835605}
{-0.54318804}
{0.17052872}
{-0.035333704}
{-0.77445155}
{0.22923422}
{-0.021831524}
{0.9431589}
{0.7602668}
{0.22690186}
{-0.07229503}
{0.92073196}
{-0.819036}
{-0.64474505}
{0.9372561}
{0.4599828}
{-0.8124105}
{-0.9319511}
{0.25399292}
{0.21008566}
{-0.26777235}
{0.7248221}
{-0.7601044}
{-0.23288915}
{0.33760554}
{0.7787118}
{-0.80687666}
{0.38864246}
{-0.82077163}
{0.2779156}
{-0.72752357}
{-0.83671016}
{0.84108484}
{-1.0863388}
{-0.58185935}
{-0.76047754}
{0.83686197}
{-0.14446649}
{-0.13119447}
{-0.88857985}
{0.18810938}
{0.8992888}
{0.18578494}
{-0.013755256}
{0.12539105}
{0.21468422}
{0.9330268}
{0.85199}
{0.0064128004}
{-0.5366698}
{0.1730071}
{-0.8988793}
{0.112424254}
{0.39103845}
{0.9868212}
{0.60950595}
{-0.17277306}
{-0.6457832}
{-0.24498498}
{0.8631323}
{0.48481384}
{-0.826686}
{0.14268658}
{-0.04304724}
{0.038924426}
{-0.36802715}
{0.018787397}
{0.9372702}
{0.79439056}
{0.19209643}
{0.4846431}
{-0.72641796}
{-0.50955814}
{0.53921676}
{-0.11040586}
{-0.4730407}
{-0.21384744}
{-0.7271199}
{0.6599574}
{0.25916296}
{-0.6408951}
{-0.33535957}
{0.6052129}
{-0.70149595}
{0.71756196}
{-0.7711525}
{0.5268664}
{-0.8665333}
{0.9446278}
{0.3214199}
{-0.36672795}
{0.40243107}
{0.9098874}
{0.6655412}
{-0.42093408}
{0.7616116}
{0.46136805}
{-0.24019231}
{-0.6245351}
{-0.42675823}
{0.6709223}
{-0.28931352}
{-0.6610813}
{-0.8895824}
{0.22331296}
{-0.8101957}
{-0.47652113}
{-0.9223527}
{-0.13223153}
{0.8464671}
{-0.54783773}
{-0.6308739}
{0.6280975}
{-0.3148668}
{-0.75490713}
{-0.25914654}
{0.85767597}
{-0.8901287}
{1.0352674}
{0.8361044}
{0.86382776}
{0.31405297}
{0.45102346}
{-0.033156946}
{0.10721548}
{-0.22742712}
{0.54714215}
{0.422089}
{-0.8651577}
{0.83161014}
{0.45620668}
{-0.68876076}
{0.0114893485}
{0.33326358}
{-0.14346135}
{-0.26861304}
{-0.8380374}
{-1.0434054}
{-0.007915959}
{0.9416917}
{0.9950141}
{-0.35422918}
{-0.7961252}
{-0.17257582}
{0.7423973}
{-0.52289623}
{0.5730128}
{-0.027068453}
{-0.8559406}
{0.31229964}
{0.5057381}
{0.71954143}
{-0.39198628}
{-0.21595822}
{-0.49129733}
{0.73082733}
{0.17286235}
{0.15314834}
{0.34094775}
{0.3443368}
{-0.049532924}
{0.68330723}
{0.4472748}
{-0.5582171}
{0.8462226}
{0.66697013}
{-0.44708887}
{-0.37252435}
{-0.29949868}
{-0.77957696}
{-0.28032196}
{0.60255533}
{0.73663175}
{0.6254243}
{0.18684328}
{0.67945445}
{0.2882223}
{-0.37698588}
{-0.09105826}
{-0.21259938}
{-0.5548095}
{0.57397026}
{-0.9040897}
{0.95835084}
{-0.66016155}
{0.64981717}
{0.70884824}
{-0.6634415}
{0.9594591}
{-0.63706857}
{0.24532783}
{0.4262681}
{0.7343588}
{-0.85368675}
{0.6841705}
{0.93736523}
{-0.78211164}
{-0.9605951}
{-0.75734544}
{0.8191294}
{-0.105236076}
{-0.4602143}
{-0.7117541}
{0.64010215}
{-0.41167963}
{-0.24128345}
{-0.5067017}
{-0.07792934}
{-0.18712613}
{-0.4586161}
{-0.22201002}
{0.15810236}
{0.4895594}
{0.6554478}
{0.38965046}
{0.24969716}
{-0.49290425}
{-1.0372458}
{0.19427717}
{-0.11215132}
{-0.7832933}
{-0.79669374}
{0.6895702}
{-0.92754215}
{0.52383053}
{0.14555822}
{-0.6697931}
{-0.8352812}
{0.09311401}
{-0.04712875}
{0.55221754}
{0.9296561}
{-0.7657866}
{0.7390478}
{-0.13764846}
{0.04706529}
{0.6938824}
{-0.2791492}
{-0.54921484}
{-0.9707408}
{0.8641026}
{0.11266846}
{0.06756259}
{0.9326915}
{-0.15266356}
{0.9102662}
{-0.62814975}
{-0.8485093}
{0.75350064}
{-0.4606545}
{0.16644078}
{-0.64252055}
{-0.41557378}
{0.4153327}
{-0.66187453}
{-0.60680383}
{0.47953978}
{-0.43662602}
{-0.15383327}
{0.8893435}
{-0.35497954}
{-0.10560456}
{0.3135928}
{-0.34376934}
{0.15055123}
{-0.022789445}
{0.017873062}
{-0.6572422}
{0.92894983}
{-0.13227026}
{0.51094097}
{0.79690117}
{0.36863202}
{-0.6767962}
{-0.64844346}
{0.24812101}
{-0.3555881}
{0.42102736}
{1.0238311}
{0.5051182}
{0.7170025}
{-0.25938863}
{-0.6690755}
{-0.3252504}
{-0.27773097}
{-0.7329936}
{-0.34335625}
{0.2570981}
{-0.7555889}
{-0.9332769}
{0.70476127}
{0.8086769}
{-0.68381876}
{0.4095545}
{0.30575907}
{-0.34630725}
{-0.25473255}
{0.8308445}
{-0.61414266}
{-0.8527976}
{0.138889}
{-0.61061674}
{-0.27885783}
{0.81399596}
{0.25474718}
{-0.15355633}
{-0.92144203}
{-0.20016176}
{0.13202947}
{0.69423676}
{-0.31559503}
{0.79955405}
{-0.10309584}
{-0.6612739}
{0.33887422}
{-0.8040386}
{-0.8597351}
{0.194777}
{-0.28709042}
{0.44028494}
{0.7868359}
{-0.21772864}
{0.8616197}
{1.0038844}
{-0.84138745}
{-0.6364243}
{0.9233153}
{0.14645515}
{0.29411462}
{0.048241384}
{-0.4114169}
{0.9094914}
{-0.74615604}
{0.32609332}
{-0.28098047}
{-0.17366174}
{-0.6936542}
{-0.5436295}
{0.13485044}
{0.51406276}
{0.96309364}
{0.53413653}
{-0.2796005}
{-0.25680178}
{0.120153956}
{0.580302}
{0.8678427}
{-0.28624287}
{0.8410977}
{0.19109438}
{0.13634034}
{0.36772865}
{0.002574678}
{-0.6538924}
{-0.7691252}
{-0.106372565}
{-0.77958417}
{-0.15877408}
{-0.5516448}
{-0.1266015}
{-0.5811883}
{0.9452786}
{-0.30870092}
{-0.64315236}
{0.4837037}
{0.74075305}
{0.01171924}
{-0.32116565}
{0.3556374}
{-0.2519834}
{0.3280102}
{-0.30568936}
{-0.24679087}
{-0.7373327}
{0.13654299}
{0.62507606}
{0.8861909}
{0.2763101}
{0.7535722}
{0.3437475}
{-0.71968406}
{0.16818306}
{0.6226411}
{0.679755}
{-0.21944818}
{-0.3910461}
{-0.9419191}
{0.074835114}
{0.48417842}
{0.829263}
{-0.71564174}
{-0.58652866}
{-0.17062438}
{-0.10905075}
{0.11474124}
{-0.54763794}
{0.6093814}
{0.8934581}
{-0.09137488}
{-0.4532721}
{0.19335192}
{-0.56210935}
{0.52644414}
{0.3537685}
{0.15992367}
{-0.43639323}
{-0.9235058}
{-0.062124427}
{-0.062443618}
{0.21120177}
{0.5293748}
{0.018063294}
{0.14358309}
{0.53471434}
{0.104887895}
{0.7056738}
{0.077905804}
{0.48455712}
{-0.01713777}
{-0.31701982}
{-0.20945969}
{0.2066944}
{0.6465547}
{-0.23511384}
{0.36195084}
{-0.98420954}
{0.55737853}
{-0.8431661}
{0.5047009}
{0.34222767}
{-0.6015053}
{0.076951444}
{-0.22693063}
{0.8982542}
{0.21610892}
{-0.07735998}
{0.45363712}
{0.6436614}
{0.9959583}
{-0.1969872}
{-0.8062358}
{-0.084168196}
{-0.5534091}
{-0.5298316}
{-0.36529124}
{-0.30860305}
{-0.17104042}
{-0.55963343}
{0.05180318}
{-0.021869883}
{0.7928729}
{-0.41671985}
{-0.01672282}
{-0.88025904}
{0.5857332}
{-0.9706441}
{-0.8878373}
{0.33802748}
{0.7680006}
{0.5068128}
{-0.8594332}
{0.53030026}
{-0.10254857}
{0.2668279}
{-0.029675016}
{0.08040947}
{-0.8082571}
{0.7964781}
{0.2273272}
{0.45510808}
{-0.85779834}
{-0.25017962}
{0.515992}
{-0.44069508}
{0.68819356}
{0.18826862}
{-0.9015576}
{0.2208541}
{-0.53683805}
{0.16718434}
{-0.63013566}
{0.6606123}
{0.23047149}
{0.52056295}
{0.51752555}
{-0.4157052}
{0.55016285}
{0.05497099}
{-0.51004845}
{-0.19704969}
{0.1252009}
{-0.87785286}
{0.7734065}
{-0.16268949}
{0.93776417}
{0.64382505}
{0.8340518}
{-0.43086395}
{-0.24983132}
{0.21090381}
{0.08009661}
{-0.5213103}
{0.58275795}
{0.35680118}
{-0.66813713}
{-0.5318155}
{0.8688011}
{0.8134012}
{0.96182334}
{0.55659497}
{0.91745114}
{-0.667286}
{-0.14127113}
{0.5623884}
{-0.85453963}
{0.3069054}
{-0.89437455}
{-0.020955095}
{-0.6025379}
{-0.8537522}
{-0.6381492}
{-0.6799102}
{-0.7456932}
{-0.73729587}
{-0.10533296}
{-1.0509895}
{-0.7581513}
{-0.21455523}
{0.38183486}
{0.5566109}
{-0.2769271}
{-0.21163335}
{-0.67565614}
{0.08668496}
{0.63996243}
{-0.65899235}
{0.65380085}
{-0.7062514}
{-0.24723113}
{-0.93454474}
{-0.07045265}
{-0.158772}
{0.9067495}
{0.24071877}
{-0.5422412}
{-0.32609385}
{0.35047138}
{-0.56509846}
{0.63664603}
{0.8948344}
{-0.12553751}
{-0.4721345}
{-0.11903485}
{0.17956531}
{-0.38145792}
{0.81765}
{-0.39276063}
{-0.41952407}
{0.9754081}
{0.6640001}
{-0.9431615}
{-0.49552885}
{-0.5985398}
{-0.5178219}
{0.548402}
{-0.71371555}
{-0.5355766}
{-0.6101199}
{0.81571877}
{0.14628208}
{-0.8824439}
{-0.1344162}
{0.5195286}
{0.16285154}
{-0.6575403}
{0.44789246}
{0.80563104}
{0.6812862}
{-0.36774504}
{-0.23680538}
{-0.46612743}
{0.56978345}
{0.56824994}
{0.15687327}
{0.16827664}
{-0.98741096}
{0.5034993}
{-0.6263105}
{-0.5544776}
{0.5986514}
{-0.21008694}
{-0.12316605}
{0.8051154}
{0.60116833}
{0.9859948}
{0.58573544}
{-0.097494975}
{-0.8292059}
{0.5047613}
{-0.015623305}
{0.21077505}
{0.14044139}
{0.14400147}
{-0.50980246}
{0.4253091}
{-0.6277075}
{-0.16529286}
{0.1920213}
{-0.8257499}
{-0.18571323}
{-0.5462458}
{0.5024145}
{0.24865952}
{-0.087163135}
{-0.31412828}
{0.09267359}
{-0.9500835}
{-0.851554}
{0.31285584}
{-0.7708501}
{0.27791494}
{-0.19707192}
{-0.8619032}
{-0.32822898}
{-0.45071495}
{-0.6559306}
{-0.8485522}
{0.8432543}
{-0.7302789}
{0.031553578}
{-0.28855288}
{-0.9373848}
{0.4186249}
{-0.80985755}
{0.230739}
{-0.77725357}
{-0.607113}
{-0.5376083}
{-0.06315288}
{0.29508945}
{0.1029441}
{0.69748604}
{0.16044311}
{0.24095535}
{0.4655047}
{-0.3493382}
{0.58741975}
{0.61551833}
{0.9340124}
{0.04290262}
{0.49724972}
{-0.58996844}
{-0.20779726}
{0.43068987}
{-0.15894353}
{0.25181624}
{0.3057021}
{0.25015053}
{-0.48287007}
{0.39308313}
{0.57665706}
{0.43810013}
{0.79886985}
{0.863466}
{-0.2778036}
{0.9025233}
{0.012351526}
{0.34110492}
{0.16166423}
{-0.7480906}
{0.56483436}
{0.15217255}
{0.5810874}
{0.9216356}
{-0.69137573}
{-0.86561877}
{-0.54426193}
{0.1511383}
{-0.63398266}
{-0.16551471}
{-0.40776178}
{0.001061479}
{-0.7145128}
{-0.4456254}
{0.11872968}
{-0.77253515}
{0.47769463}
{0.26292548}
{-0.30919474}
{0.2612631}
{-0.91738415}
{-0.6721422}
{-0.46977696}
{0.8076809}
{0.95852995}
{0.5264322}
{0.38160893}
{0.3705644}
{-0.04094391}
{-0.7398267}
{0.02977817}
{0.09203535}
{0.5385573}
{0.7425346}
{0.72294587}
{-0.048750494}
{0.023638738}
{-0.71996886}
{-0.30087057}
{0.58242047}
{0.4242338}
{0.74198395}
{0.5054771}
{-1.0493886}
{0.9391854}
{-0.55012053}
{-0.21521275}
{0.48616332}
{0.5775356}
{-0.24311675}
{0.30338264}
{0.20019455}
{0.63967514}
{0.25423598}
{0.58855695}
{-0.61317515}
{0.34200275}
{0.9707912}
{0.6164109}
{-0.9663431}
{-0.30760705}
{0.82322526}
{-0.040145397}
{-0.023995308}
{0.9486127}
{-0.5597863}
{0.9478173}
{-0.40498587}
{0.2961415}
{0.40710378}
{-0.5417761}
{0.87934923}
{0.55318505}
{0.93551445}
{-0.8052602}
{0.62686247}
{0.10368651}
{0.4311455}
{0.96559083}
{0.35145622}
{0.41369903}
{-0.16084482}
{0.07738007}
{-0.88444394}
{-0.35404003}
{0.7676367}
{0.81880414}
{-0.92118174}
{0.5156108}
{0.12994558}
{-0.34077552}
{-0.6803339}
{0.8290286}
{-0.15204497}
{0.87652427}
{-0.6984578}
{-0.0004124497}
{0.61738145}
{-0.6385406}
{-1.0270138}
{-0.23383081}
{-0.6225197}
{-0.3484929}
{-0.78434294}
{-0.09241129}
{0.6081299}
{-0.14857727}
{-0.53785676}
{0.6391356}
{0.7954985}
{-0.2294244}
{0.8380663}
{-0.3974179}
{-0.4373683}
{0.30570352}
{-0.38777283}
{-0.27242672}
{0.84297353}
{-0.3640265}
{0.8484124}
{0.04424573}
{0.38893598}
{0.4844596}
{-0.15826671}
{-0.44339693}
{0.062203992}
{0.46359077}
{-0.1347121}
{-0.38250792}
{0.6120043}
{-0.7977912}
{0.36757267}
{-0.044204287}
{-0.56047696}
{0.08548374}
{0.046101775}
{-0.6912632}
{1.1372293}
{-0.24492963}
{-0.58196706}
{0.8703959}
{0.84140646}
{-0.032123744}
{0.035147823}
{0.18132985}
{-0.58412534}
{-0.80141133}
{-0.596635}
{0.9552343}
{0.7802672}
{0.70228904}
{-0.19280809}
{-0.5883846}
{-0.87968326}
{-0.11288252}
{-0.15507281}
{-0.6200664}
{0.6158582}
{0.6868204}
{-0.8667844}
{-0.1500634}
{-0.70187855}
{0.83935314}
{-0.7509837}
{0.057406675}
{0.47866106}
{-0.16831331}
{0.62073237}
{0.04239155}
{0.3852627}
{-0.21597946}
{0.6521487}
{0.34049547}
{0.4077351}
{0.4001743}
{0.50957704}
{0.71852326}
{-0.81811464}
{-0.74299216}
{0.077623695}
{-0.46058428}
{-0.9034712}
{0.6105709}
{-0.8657932}
{-0.24745119}
{-0.94170946}
{0.60064065}
{-0.20378931}
{0.84493804}
{-0.056987964}
{0.40807927}
{-0.96208906}
{-0.4209925}
{0.28968394}
{-0.92566186}
{0.5763303}
{-0.1946224}
{0.27387097}
{-0.41640624}
{-0.8062501}
{-0.4075166}
{-0.052706815}
{0.070042334}
{0.487157}
{0.8251939}
{-0.91644734}
{-0.35909054}
{-0.82269424}
{-0.84396815}
{-0.8883529}
{0.33032373}
{0.6150617}
{0.64987254}
{0.011368585}
{-0.22431423}
{0.048722122}
{-0.929188}
{-0.27635375}
{0.89751494}
{-0.17490149}
{0.9313781}
{0.40364835}
{-0.49524713}
{0.23838562}
{-0.45654303}
{-0.94642067}
{0.17651458}
{-0.11094684}
{-0.81168437}
{-0.9665768}
{0.93469447}
{0.31326273}
{-0.85726357}
{0.8756265}
{0.21565531}
{-0.9284694}
{-0.8322799}
{-0.5869312}
{-0.053278487}
{0.14115526}
{-0.5588069}
{0.5904462}
{-0.380743}
{-0.076143265}
{-0.62583756}
{-0.60738385}
{-1.0133384}
{0.32657713}
{-0.09689712}
{-0.21089807}
{-0.7585948}
{0.33560902}
{0.660753}
{0.42960063}
{0.47734958}
{-0.14829123}
{-0.9313855}
{0.30287233}
{-0.43371236}
{0.09340087}
{0.8559141}
{-0.16533782}
{-0.63557255}
{0.58344954}
{-0.6409621}
{0.34291235}
{0.77910846}
{0.25687194}
{0.89791274}
{-0.76644367}
{-0.59220606}
{-0.87166286}
{0.7482109}
{0.5056536}
{-0.90758055}
{0.66851395}
{0.19207656}
{0.72191244}
{-0.22143319}
{0.17235817}
{-0.54853296}
{-0.6468842}
{0.50355196}
{-0.34516978}
{-0.8807435}
{-0.04726592}
{0.94820404}
{0.12025028}
{0.077502474}
{0.56670696}
{-0.69764835}
{-0.18068232}
{-0.4771067}
{-0.3888104}
{-0.69858307}
{0.5424438}
{0.41897953}
{0.86607885}
{-0.29245415}
{-0.100585744}
{-0.22447717}
{0.5185208}
{-0.9527295}
{0.81041783}
{-0.60762453}
{-0.5287604}
{0.32062104}
{-0.043447457}
{-0.49130115}
{0.12520866}
{0.34928864}
{0.63486695}
{-0.7032864}
{0.5177191}
{0.14341384}
{0.7952668}
{0.07840608}
{0.5470377}
{-0.6253237}
{-0.8604555}
{-0.94019365}
{-0.69119453}
{0.18120831}
{0.23968461}
{0.7616458}
{-0.43829575}
{-0.7275151}
{0.42548147}
{-0.8652246}
{0.33476374}
{0.07678859}
{0.81741863}
{1.0218658}
{0.8064891}
{0.9446445}
{0.9253354}
{-0.16857827}
{0.6012404}
{0.091895215}
{-0.67754054}
{0.92365813}
{0.6648509}
{-0.35999858}
{0.28784487}
{-0.38459408}
{-0.36716086}
{0.4831975}
{-0.2862105}
{-0.755007}
{-0.15229934}
{-0.85952926}
{0.40272677}
{-0.84941936}
{0.07610434}
{0.3088602}
{-0.4448562}
{-0.2216028}
{0.7224175}
{-0.39839238}
{0.29828843}
{-0.72213674}
{0.073959924}
{-0.59444404}
{0.78959125}
{0.20673549}
{0.3572722}
{-0.31199276}
{-0.7990021}
{-0.87397337}
{-0.8798439}
{0.028733201}
{0.7900915}
{0.89645886}
{0.13726081}
{0.43658566}
{0.47374913}
{0.43626678}
{-0.45144317}
{-0.2502645}
{0.77267784}
{-0.27307117}
{0.067440934}
{0.9067019}
{-0.86265534}
{-0.15358984}
{-0.14909256}
{0.05518508}
{0.47864103}
{0.58777976}
{0.07533057}
{0.022912113}
{-0.27299535}
{0.008500352}
{-0.5004045}
{0.892682}
{0.42257068}
{-0.88990617}
{0.53487855}
{-0.5823071}
{0.25632608}
{-0.36383832}
{-0.21707794}
{-0.6409289}
{-0.5397784}
{-0.4748102}
{0.1805643}
{0.2757302}
{-0.47983435}
{0.46458828}
{-0.7363594}
{0.5878959}
{-0.08109157}
{0.87843513}
{-0.7192219}
{-0.009754048}
{0.9547001}
{-0.7650864}
{-0.66850996}
{-0.19064273}
{0.109541036}
{-0.6332743}
{0.5194266}
{-0.88266134}
{0.5117995}
{-0.40086854}
{-0.15683182}
{0.687501}
{-0.31929117}
{0.5607512}
{0.83648884}
{-0.70566964}
{0.49256578}
{-0.4368919}
{-0.8527047}
{-0.26675045}
{-0.158593}
{0.054121505}
{-0.6565324}
{0.41991624}
{0.901358}
{0.08585855}
{-0.28327793}
{0.9204069}
{-1.0003079}
{-0.28141344}
{-0.06349056}
{-0.91087484}
{0.6820726}
{-0.3848964}
{-0.0014358114}
{0.15414366}
{-0.4684723}
{-0.915056}
{-0.28153813}
{-0.49009302}
{0.31781906}
{0.43159592}
{0.545146}
{-0.22358423}
{-0.052869175}
{0.15474345}
{0.331706}
{0.819415}
{0.30367815}
{0.6529169}
{0.50059795}
{0.89913833}
{-0.22971152}
{0.8716762}
{-0.09126891}
{-0.61067414}
{0.21519552}
{-0.53339076}
{0.32652465}
{-0.051776577}
{0.76622975}
{-0.52469945}
{0.55075455}
{0.5520161}
{-0.92056155}
{-0.8056359}
{0.7963532}
{-0.04455209}
{0.72338384}
{-0.012022488}
{-0.3584201}
{0.12493571}
{-0.86424637}
{-0.79822326}
{-0.8759718}
{0.09948963}
{0.12650548}
{0.49468172}
{0.22221318}
{0.5280805}
{0.33467022}
{-0.29483068}
{0.40429842}
{0.37655526}
{-0.7206422}
{-0.81993985}
{0.7686249}
{-0.013926039}
{-0.43732312}
{-0.28555715}
{0.5507416}
{-0.47108847}
{0.038169727}
{0.96522427}
{-0.8091526}
{-0.6693812}
{1.007772}
{-0.8881695}
{-0.83897847}
{-0.5556998}
{0.68481916}
{-0.4852283}
{0.17526658}
{-0.13266754}
{0.0012357845}
{-0.5671725}
{-0.09783924}
{-0.06861358}
{0.057827983}
{-0.43884957}
{-0.03806915}
{-0.86853516}
{-0.58554643}
{0.5408509}
{-0.12359559}
{-0.8746102}
{0.19806732}
{-0.16523802}
{0.23752427}
{0.5584636}
{-0.51009554}
{-0.83911705}
{-0.7959418}
{0.29351637}
{0.8537079}
{0.007243409}
{1.0269582}
{-0.43772766}
{-0.8463609}
{0.9170182}
{-0.72298616}
{-0.5287601}
{-0.9234477}
{-0.8060746}
{0.0062752347}
{0.13742505}
{-0.651565}
{0.16089086}
{0.08204031}
{0.80072045}
{0.9533307}
{-0.5384052}
{0.77776873}
{0.19713356}
{-0.31393138}
{0.7431817}
{0.24719344}
{-0.8121498}
{-0.3439643}
{0.25572717}
{-0.08529722}
{-0.4635036}
{0.46265605}
{-0.8132653}
{0.15415771}
{0.49479267}
{0.30183867}
{-0.47958317}
{0.600948}
{-0.5590653}
{-0.21426833}
{0.18813145}
{-0.8517488}
{0.73975277}
{-0.45875373}
{-0.40953457}
{0.3197166}
{0.733219}
{-0.064941026}
{0.2514912}
{-0.74108607}
{0.57446676}
{-0.5438924}
{0.50901175}
{0.15543874}
{-0.66374564}
{-0.82057565}
{-0.41865337}
{-0.44588512}
{0.5786186}
{-0.8185707}
{-0.5572021}
{0.6597295}
{-0.0077350633}
{0.5491277}
{0.34643257}
{-1.0195888}
{0.29325333}
{0.7835987}
{0.20197594}
{0.7520158}
{0.5847368}
{0.015215884}
{-0.43520963}
{-0.010562528}
{-0.16472179}
{-0.05871162}
{-0.03421882}
{-0.66859245}
{0.5336489}
{0.46540505}
{0.6268208}
{0.9316359}
{-0.5042691}
{-0.087659135}
{0.6306827}
{-0.7248547}
{0.63509345}
{0.74217355}
{0.98800087}
{0.7543371}
{0.22973269}
{-0.010061155}
{0.90470576}
{-0.89820653}
{-0.73708886}
{-0.8325643}
{0.20176113}
{-0.11673558}
{0.5735093}
{-0.8303065}
{0.48230827}
{0.8242598}
{-0.13672988}
{0.9642778}
{-0.50898004}
{-0.8433173}
{0.44107687}
{-0.2880384}
{-0.5637779}
{0.9279912}
{0.51604617}
{0.22480087}
{-0.07504851}
{0.5703552}
{0.15467852}
{0.18748651}
{0.38999546}
{-0.19406295}
{0.7096322}
{-0.07730606}
{0.12495772}
{0.56866443}
{-0.64324915}
{0.346321}
{0.83240795}
{-0.60138774}
{-0.34828466}
{0.76678777}
{-0.18775165}
{0.1121442}
{0.87009436}
{-0.84855425}
{1.0221665}
{-0.39499825}
{0.5991219}
{0.03790407}
{-0.5185237}
{-0.54866225}
{0.105578765}
{0.65449196}
{0.39267933}
{-0.063716345}
{-0.06144521}
{0.6048204}
{0.18509185}
{0.5436807}
{-0.80675936}
{0.23329888}
{-0.34401596}
{-0.7973548}
{-0.5530778}
{0.6544816}
{0.009374394}
{0.9137752}
{0.5428652}
{-0.85821074}
{-0.24989808}
{-0.717016}
{-0.3631855}
{0.43953672}
{-0.6928015}
{-0.59546167}
{-0.21519215}
{0.74769324}
{-0.46355358}
{0.646006}
{-0.9790954}
{-0.1644404}
{1.0526013}
{0.24767327}
{-0.1344536}
{0.84869623}
{1.0383723}
{-0.40913504}
{-0.76218647}
{0.08994255}
{-0.41512954}
{0.14160146}
{0.007589956}
{0.8758459}
{0.23457468}
{-0.37487894}
{0.95396096}
{-0.56481415}
{0.042234432}
{-0.5842792}
{1.0015982}
{0.23989213}
{1.0287354}
{0.47152516}
{-0.50744116}
{0.35157132}
{0.95767164}
{-0.21673556}
{0.76282406}
{0.7345082}
{-0.1658963}
{-0.37267193}
{-0.9825463}
{0.76608217}
{0.05570675}
{-0.36819616}
{0.39658386}
{-0.30463293}
{0.3895899}
{-0.19536033}
{-0.9038186}
{0.56463593}
{-0.41266692}
{0.9330806}
{-0.13664527}
{-0.15601332}
{0.90819454}
{-0.15419127}
{0.43436086}
{-0.49179238}
{-0.23916042}
{0.3486356}
{0.48706645}
{-0.55598056}
{0.49980697}
{0.70622957}
{0.08082531}
{0.18647625}
{-0.3340472}
{-0.43086988}
{-0.8882249}
{0.68751615}
{-0.16628373}
{0.04096384}
{-1.0264143}
{0.82700425}
{-0.9150157}
{0.57216895}
{-0.5236707}
{0.79142284}
{-0.036632102}
{0.48688152}
{0.23741953}
{1.0425715}
{0.08839986}
{0.45044437}
{0.5547066}
{-0.7265199}
{0.42745554}
{-0.22726296}
{-0.73709565}
{-0.36239377}
{-0.25601637}
{0.15534116}
{0.53318053}
{-0.084705666}
{0.15022111}
{-0.7902191}
{0.5687945}
{0.83119917}
{0.8729882}
{-0.56529313}
{0.06667123}
{-0.09897382}
{0.2570716}
{-0.58442247}
{-0.30345035}
{0.9454112}
{1.013752}
{-0.9906195}
{0.06145411}
{0.837651}
{-0.5411396}
{-0.53021973}
{-0.11590783}
{0.14118773}
{-0.19605196}
{0.80376273}
{-0.73346514}
{-0.44814345}
{0.34512556}
{0.2919083}
{-0.6115747}
{-0.90961313}
{0.06307079}
{-0.36132947}
{0.4533498}
{-0.4873983}
{-0.85915375}
{0.47134423}
{-0.13259292}
{0.7670466}
{0.9143851}
{-0.58490103}
{-0.8134006}
{-0.64499474}
{0.52896065}
{0.8258504}
{0.3458667}
{0.12536046}
{0.94766974}
{0.007023221}
{0.196452}
{0.8683989}
{0.3908311}
{0.44250137}
{0.5067074}
{-0.88468134}
{0.25682056}
{0.7257972}
{-0.43251622}
{-0.44083863}
{0.3845111}
{-0.009969537}
{0.42621267}
{-0.65303344}
{-0.60359263}
{-0.45837203}
{-0.19508508}
{0.22400561}
{-0.08660892}
{-0.021677414}
{0.49077898}
{-0.751278}
{-0.3629564}
{0.69288814}
{-0.91124314}
{-0.78205144}
{1.0310833}
{-0.62824273}
{0.2748642}
{-0.2521644}
{0.34751594}
{-0.80212456}
{0.16066584}
{-0.6059454}
{-0.83052444}
{0.4859686}
{-0.38099936}
{0.54336756}
{0.22861254}
{-0.18772808}
{0.7003522}
{-0.9630023}
{0.77982736}
{0.37744537}
{0.17025882}
{0.2935536}
{-0.20352566}
{-0.41998369}
{0.5403548}
{-0.924961}
{0.8453455}
{-0.15921399}
{-0.75566566}
{-0.44626203}
{0.11775842}
{-0.370922}
{-0.057453007}
{0.2685336}
{-0.45198318}
{0.72831535}
{-0.10221161}
{-0.691765}
{-0.39683568}
{-0.83136356}
{0.5110105}
{-0.7340968}
{0.6248121}
{-0.7654472}
{-0.74870926}
{0.97158796}
{-0.6390226}
{0.34494132}
{-0.6521943}
{-0.10790814}
{0.79877996}
{0.4119552}
{0.0020231404}
{0.53029794}
{-0.9154005}
{-1.0582474}
{-0.50630915}
{-0.20033218}
{0.4655453}
{-0.2551054}
{-0.20325857}
{-0.3140621}
{-0.35489666}
{-0.9679381}
{-0.28205803}
{0.964702}
{-0.16968977}
{0.9226305}
{0.77619386}
{-0.7017667}
{-0.7777231}
{-0.75471044}
{0.492767}
{0.1301129}
{-0.6782372}
{0.9485171}
{-1.117537}
{0.87188786}
{1.0354729}
{-0.19383611}
{-0.58090097}
{0.06686054}
{0.33262837}
{-0.39003316}
{0.7328834}
{0.33322138}
{0.4316045}
{0.54864097}
{-0.40382564}
{-0.20230961}
{0.7331135}
{0.12552842}
{-0.58314276}
{0.4227243}
{0.5480341}
{0.64750135}
{-0.17235196}
{-0.6689357}
{1.0249505}
{-0.7243116}
{-0.9498802}
{-0.30737686}
{-0.8453686}
{-0.30302414}
{0.26342964}
{0.5937218}
{0.101605594}
{-1.066951}
{-0.2299944}
{-0.08323847}
{0.08101819}
{0.68516093}
{0.13116504}
{0.06756378}
{-0.2802657}
{0.8663845}
{-0.793367}
{0.57203597}
{-0.30257356}
{0.89105976}
{0.7656086}
{0.7884158}
{0.97579646}
{-0.3160214}
{-0.52472687}
{-0.2963377}
{-0.46465462}
{-0.49163577}
{1.0075306}
{0.7268783}
{0.6459217}
{0.7227355}
{-0.88980436}
{-0.4581094}
{-0.7859993}
{-0.64054966}
{-0.6465838}
{0.39092433}
{0.017171873}
{0.8244796}
{0.2386121}
{-0.11841021}
{0.8480644}
{-0.19840012}
{-0.8605425}
{0.717727}
{-0.8306134}
{0.062029444}
{-0.41576973}
{0.85590327}
{0.785012}
{0.7767091}
{0.20492859}
{0.6153622}
{-0.04657513}
{0.11720092}
{0.35291663}
{0.41677478}
{0.8599453}
{-1.0053127}
{-1.1138531}
{-0.8245762}
{0.4505793}
{-0.5118576}
{0.82342654}
{-0.15797968}
{0.5468966}
{0.009117668}
{-0.3893238}
{-0.6216598}
{-0.0040483326}
{0.7739263}
{-0.39545912}
{0.94457287}
{0.5356322}
{-1.0404162}
{-0.8090133}
{-0.07777696}
{-0.4222628}
{-0.0003708516}
{-0.80587244}
{0.552047}
{0.09281178}
{0.12729023}
{0.03501041}
{-0.3887878}
{-0.29432166}
{-0.86164415}
{0.59709984}
{-0.5825965}
{-0.26963127}
{0.9783847}
{-0.6802207}
{1.0383974}
{0.68795586}
{-0.3917979}
{-0.71399134}
{0.054034743}
{-0.19263709}
{0.041017007}
{0.508793}
{0.29564708}
{0.10341829}
{0.12591639}
{0.45618835}
{-0.7172371}
{1.0330284}
{0.06573999}
{-0.9945555}
{0.22904077}
{0.54781616}
{0.1824141}
{-0.08185125}
{0.3478268}
{-0.18203032}
{-0.53568804}
{0.787019}
{0.75467503}
{-0.35002458}
{0.084027655}
{0.25004467}
{0.62623143}
{-0.49304974}
{0.3644089}
{0.5391409}
{0.31062475}
{0.7052157}
{0.82441634}
{-0.2808141}
{0.25778368}
{-0.10882158}
{0.22129774}
{0.026068103}
{-0.7574943}
{0.3822869}
{-0.31111962}
{0.887497}
{-0.18863623}
{-0.270985}
{0.5327034}
{-1.0504445}
{-0.64178824}
{-0.29490983}
{0.8707388}
{-0.664702}
{-0.6504006}
{0.052122843}
{-0.8651998}
{0.17111322}
{-0.11758338}
{-0.52136326}
{0.6599873}
{-0.493911}
{-0.86006325}
{0.8683765}
{0.82828856}
{0.3703834}
{-0.1468995}
{-0.092049606}
{0.13271947}
{0.53537744}
{0.9842984}
{-0.05910834}
{-0.6469236}
{-0.5617733}
{0.6027672}
{0.75631}
{0.32854652}
{-0.3893726}
{-0.6448848}
{-0.89987946}
{-0.42513418}
{-0.10344831}
{-0.44096032}
{0.6063523}
{0.6008897}
{-0.33387706}
{0.028795473}
{0.4021653}
{0.6219149}
{0.28013018}
{-0.4019404}
{-0.117770106}
{0.47073644}
{-0.121142104}
{0.39604002}
{0.5224178}
{-0.15156357}
{-0.52831596}
{-0.534316}
{-0.24103105}
{-1.0072713}
{0.5512147}
{-0.10373318}
{-0.59839916}
{0.42701685}
{-0.57606834}
{-0.7715739}
{0.55297047}
{0.18020643}
{0.50623685}
{0.80883545}
{-0.7641027}
{-0.31779444}
{0.2660072}
{1.071285}
{-0.33459198}
{-0.5718307}
{-0.41734645}
{-0.06339387}
{-0.27821815}
{0.14984883}
{-0.4214242}
{0.831558}
{-0.7802081}
{-1.0373838}
{0.47886676}
{-0.7057865}
{-0.3090552}
{0.7515564}
{-0.25458717}
{0.17842683}
{-0.24448597}
{-0.33287087}
{0.1920983}
{-0.34507456}
{0.91583943}
{0.3910822}
{-0.30782557}
{0.93211854}
{-0.27765596}
{-0.9098885}
{-0.13259625}
{-0.80752647}
{0.47268093}
{-0.58247125}
{0.7686839}
{0.63491845}
{0.2887963}
{-0.5453648}
{-0.74737895}
{0.0531992}
{-0.47765768}
{-0.2123088}
{-0.43358815}
{-0.41668215}
{-0.8902261}
{0.5360733}
{-0.34140214}
{-0.13172024}
{0.18185437}
{-0.12499613}
{-0.5698814}
{0.72622335}
{-0.7221055}
{0.59148765}
{-0.95880854}
{0.38721734}
{-0.90974045}
{-1.0150031}
{-0.34859347}
{0.34028095}
{0.019394172}
{0.70262295}
{-0.1613203}
{0.92961264}
{-0.10763211}
{-0.7538288}
{0.28898987}
{0.73898363}
{-0.65784}
{0.7377353}
{-0.1359784}
{-0.36791947}
{0.207039}
{-0.4249106}
{-0.18455735}
{0.5570395}
{-0.040449426}
{-0.790769}
{-0.09236738}
{-0.118661}
{0.43199098}
{0.16737439}
{-0.36367607}
{0.57669324}
{0.24498332}
{0.7086026}
{-0.29827428}
{-0.8053251}
{0.45327818}
{-0.46170822}
{-0.6395011}
{-0.71676755}
{0.94907045}
{0.27896303}
{-0.4935813}
{-0.0077385036}
{0.21424139}
{-0.16499993}
{0.81129706}
{-0.6367834}
{0.78321743}
{0.72607034}
{0.43068767}
{0.7492077}
{0.076550946}
{0.082089804}
{0.8559156}
{0.16495432}
{-0.26425374}
{0.19811353}
{-0.11897313}
{0.06364495}
{0.36106503}
{0.8019427}
{0.5473039}
{0.60563004}
{-0.55701303}
{0.3630449}
{-0.86724687}
{0.46457142}
{0.8372078}
{0.5571497}
{0.5062393}
{-0.27459416}
{0.17140993}
{0.19981316}
{0.023834785}
{-0.66291726}
{-0.50752497}
{0.5190241}
{0.52244127}
{-0.6433284}
{0.9636476}
{0.49710947}
{-0.97279954}
{0.7958152}
{-0.14503133}
{-0.57428795}
{-0.18961002}
{-0.57250583}
{0.8351369}
{0.39480975}
{-0.8052091}
{0.36421633}
{-0.36432087}
{-0.9726437}
{-0.6153043}
{-0.06358602}
{-0.8923421}
{0.39629084}
{0.6470905}
{-0.35310313}
{0.5247302}
{-0.09776239}
{-0.81111956}
{-0.6479734}
{0.6085701}
{-0.19130418}
{-0.1280964}
{0.91355604}
{-0.92988586}
{0.123929545}
{0.6056339}
{0.4395875}
{-0.005118355}
{-0.76355463}
{-0.21158387}
{0.84400284}
{0.36251938}
{-0.70279187}
{-0.22666094}
{-0.41497448}
{0.9175706}
{0.2084314}
{0.32720265}
{0.017337961}
{-0.39432824}
{-0.058083534}
{0.8132167}
{-0.1729775}
{0.5834799}
{0.5296985}
{-0.8492013}
{-0.051370647}
{0.20864165}
{0.68365866}
{0.866571}
{-0.679571}
{-0.50154996}
{0.853439}
{-0.9855281}
{-0.74685836}
{-0.38687003}
{0.460792}
{0.82392526}
{-0.12456272}
{-0.42431915}
{0.007046449}
{-0.8912959}
{0.14943965}
{-0.20782697}
{0.4735567}
{-0.8779043}
{0.29832482}
{0.21601355}
{0.947937}
{-0.49937096}
{0.9338924}
{0.45700514}
{0.19017345}
{-0.2754147}
{0.9293718}
{0.7156291}
{-0.35253367}
{0.81240606}
{-0.12761045}
{-0.94242334}
{0.35183835}
{-0.4156607}
{-0.6815654}
{-0.45528248}
{-0.7465601}
{-0.35968935}
{-0.28637603}
{0.8812523}
{0.18591063}
{-0.3251635}
{0.17950782}
{0.6933882}
{-0.92042655}
{0.14847647}
{0.03175878}
{-0.16094124}
{-0.40110847}
{-0.24593668}
{0.92426676}
{0.9375663}
{-0.13738547}
{0.77404577}
{0.048062433}
{-0.11658231}
{-0.19362439}
{-1.0943866}
{0.75703233}
{0.2823075}
{0.39253727}
{0.8681717}
{0.5173874}
{-0.45943722}
{-0.8743928}
{-0.049038496}
{0.92296636}
{0.9305496}
{0.2594156}
{0.64258903}
{0.081344314}
{-0.036396302}
{0.78348315}
{-0.79675126}
{0.07497888}
{0.812742}
{-0.39900568}
{-1.0379523}
{-0.24949087}
{-0.3538636}
{0.5521081}
{-0.5852021}
{-0.5742386}
{-0.66764164}
{-0.81755286}
{-0.4364736}
{0.4121518}
{-0.15336215}
{-0.19865997}
{-0.54853797}
{-0.33975396}
{-0.40744936}
{0.5096376}
{-0.04536078}
{-0.23188682}
{0.80592346}
{-0.70429045}
{0.40624687}
{-0.14030266}
{0.729058}
{0.49665573}
{0.7902231}
{0.9482657}
{0.23830783}
{0.8543289}
{-1.0945176}
{-0.51660126}
{-0.017416243}
{-0.97894067}
{0.55405945}
{0.73666364}
{0.2727927}
{0.08762227}
{0.6504806}
{0.08402108}
{-0.6314261}
{-0.29282528}
{-0.9311627}
{0.18872748}
{-0.785249}
{-0.041855216}
{0.4560154}
{-0.38159344}
{-0.45421937}
{0.3830848}
{-0.0580164}
{0.23341936}
{-0.0071475357}
{-0.19861743}
{-0.9808513}
{-0.789256}
{0.24253213}
{-0.26462036}
{0.24251038}
{0.69273293}
{-0.9223907}
{-0.052711174}
{0.8812435}
{-0.5804267}
{0.04710914}
{-0.43057248}
{-0.48930392}
{0.5612098}
{0.045627844}
{-0.9103491}
{0.47962}
{0.47031578}
{-0.72196484}
{-0.66377276}
{-0.7602324}
{-0.33247888}
{-0.39916337}
{-0.11617574}
{0.16909975}
{-0.5377202}
{0.10892837}
{0.95173854}
{0.9368078}
{-0.31078878}
{-0.91834164}
{-0.07000729}
{-0.72924805}
{0.4623072}
{-0.9235747}
{0.45602947}
{-0.43471}
{-0.2322939}
{0.14904428}
{-0.30567205}
{-0.38911515}
{0.73824424}
{0.2389139}
{-0.37138927}
{-0.92054003}
{-0.32656482}
{-0.38075912}
{0.44072065}
{0.2221781}
{-0.011691934}
{-0.29159868}
{0.5468208}
{0.008859738}
{-0.7404206}
{0.14826488}
{-0.53261113}
{-0.35885552}
{-0.4050861}
{-0.0612317}
{-0.036539845}
{-0.41769376}
{0.53206694}
{0.476256}
{-0.23274009}
{0.32692662}
{-0.9184449}
{-0.31422174}
{-0.53312427}
{-0.042843416}
{0.993015}
{-0.41978467}
{-0.5246696}
{0.33897427}
{0.5098693}
{0.93352747}
{0.2832323}
{-0.3265584}
{0.747558}
{0.569381}
{0.21362482}
{0.27760062}
{0.7805368}
{-0.21417439}
{-0.6256911}
{-0.51667625}
{0.4322801}
{-0.6720104}
{-0.31781268}
{-0.2326223}
{0.97587407}
{0.9741967}
{0.3812921}
{-1.1117607}
{-0.14249313}
{-0.29257166}
{-0.90160406}
{0.0075299097}
{1.1090162}
{0.62527823}
{0.11188725}
{-0.1299197}
{0.09951237}
{-0.36876595}
{0.16894528}
{-0.56190276}
{0.27729642}
{-0.08038669}
{-0.62569475}
{-0.4704542}
{-0.6940514}
{-0.07586033}
{-0.67896825}
{-0.8664915}
{0.42073023}
{0.40882003}
{0.84020746}
{-0.87052274}
{0.17800258}
{0.84827447}
{0.034714755}
{-0.19381276}
{0.42389217}
{-0.60993004}
{-0.26020846}
{0.6757404}
{-0.61238664}
{-0.54529405}
{-0.32308626}
{-0.23527843}
{-0.71204734}
{0.8651018}
{-0.6452952}
{-0.6749911}
{0.938644}
{-0.4214152}
{-0.50273424}
{0.33564103}
{0.65750724}
{-0.29888523}
{-0.12570381}
{0.63307685}
{0.47725946}
{-0.23504627}
{0.09641438}
{-0.6079769}
{-0.36608562}
{0.5095191}
{0.37764835}
{-0.58253914}
{0.068168946}
{-0.24623835}
{0.47641668}
{-0.04030541}
{0.19888836}
{-0.9095001}
{-0.15725611}
{-0.05817997}
{0.5455479}
{-0.020183332}
{-0.25235772}
{-0.115417264}
{0.6083222}
{0.12638202}
{-0.46038762}
{0.57017666}
{0.037546936}
{0.76675916}
{0.50229645}
{0.41565895}
{-0.36086604}
{0.47001922}
{-0.23727462}
{-0.76397884}
{-0.017603269}
{0.7499809}
{-0.8346723}
{-0.43956333}
{-0.3119296}
{-0.03926854}
{-0.12190655}
{0.76104695}
{-0.12933019}
{0.29590428}
{-0.17901501}
{-1.0667017}
{-0.85728604}
{-0.24511611}
{0.7544077}
{-1.0472586}
{-0.09231268}
{0.56382275}
{0.8873499}
{0.37814307}
{-0.03997496}
{-0.21560013}
{0.38546547}
{0.18397622}
{-0.38444042}
{-0.44187605}
{0.24331626}
{0.37833288}
{0.6407238}
{-0.65166306}
{-0.27518153}
{-0.2943181}
{0.36124626}
{0.3570038}
{0.784192}
{-0.9035788}
{-0.4788729}
{-0.21058524}
{-0.21271487}
{0.39963278}
{-0.37878275}
{-0.57318115}
{0.1895688}
{-0.26426083}
{-0.6468659}
{-0.015009642}
{-0.29508382}
{0.15016592}
{1.0187418}
{-0.9080243}
{-0.099274926}
{0.092962556}
{-0.36828852}
{-0.56391907}
{-0.104270875}
{-0.2948285}
{-0.104256965}
{-0.6755643}
{-0.30823585}
{-0.82300496}
{0.64924955}
{0.6664355}
{0.54175085}
{-0.6482999}
{-0.25453258}
{-0.6176233}
{-0.089451805}
{0.045600973}
{-0.05901258}
{-0.6975486}
{0.88386714}
{0.31472364}
{0.052123696}
{-0.22479379}
{0.3376307}
{0.016228}
{0.39354548}
{-0.110746324}
{0.21414171}
{0.6919123}
{0.8794399}
{0.4160229}
{0.34902862}
{0.36021504}
{0.83675385}
{-0.11435883}
{0.64718646}
{-0.6499563}
{-0.39391023}
{-0.19909489}
{-0.6156736}
{1.018389}
{-0.6788732}
{-0.6444125}
{-0.30521724}
{1.0040925}
{0.023270762}
{0.5829339}
{-0.69122523}
{0.29846206}
{-0.30813757}
{-0.007940039}
{0.15770017}
{-0.58172375}
{-0.80273265}
{0.37566173}
{-0.23177722}
{-0.9489955}
{-0.06953361}
{0.4875511}
{-0.13923554}
{-0.7619877}
{0.19623467}
{-0.5960536}
{-0.018383356}
{-0.48678172}
{-0.79309666}
{0.18509734}
{-0.5543054}
{0.9289333}
{-0.41295117}
{-0.039036557}
{-0.42429915}
{0.47955915}
{-0.66566885}
{0.114426054}
{0.18676314}
{0.7776976}
{0.5042932}
{-0.41593158}
{0.16180518}
{0.00043559482}
{0.7076241}
{-0.8699417}
{-0.19831869}
{0.5078769}
{-0.60701495}
{-0.6965375}
{-0.6779566}
{-0.7732509}
{-0.55462176}
{-0.87596464}
{-0.015229225}
{0.33605346}
{0.101228654}
{-0.04674989}
{-0.70369}
{-1.0545025}
{0.6186237}
{0.2878827}
{0.046698418}
{-1.0055867}
{-0.66828156}
{-0.80729747}
{-0.990939}
{-0.9720391}
{0.13780783}
{0.550335}
{-0.04171619}
{-0.07832144}
{-0.33703277}
{0.61059093}
{-0.030419901}
{-0.6459701}
{-0.76440525}
{0.26176965}
{0.51045954}
{0.34637102}
{-0.7186016}
{0.77205133}
{-0.5808976}
{-0.76761436}
{0.5958817}
{-0.023343816}
{0.77628934}
{-0.2108043}
{-0.71960986}
{-0.86930823}
{-0.5442386}
{-0.7324084}
{0.6194347}
{0.13643022}
{0.8004422}
{-0.4825039}
{0.86452913}
{-0.9053116}
{0.59967715}
{0.32126528}
{0.9972289}
{-0.33771455}
{0.9710581}
{-0.8417377}
{-0.15710866}
{0.661268}
{-0.92341167}
{0.09882427}
{-0.27862206}
{-0.3315786}
{-0.5094454}
{-0.046525277}
{-0.51015973}
{-0.3100425}
{-0.25370362}
{-0.8979847}
{0.2539612}
{-0.43802106}
{-0.29799736}
{-0.697633}
{0.87294084}
{0.96864915}
{0.5648665}
{-0.02402135}
{0.5510979}
{0.90487933}
{-0.7316858}
{0.19025284}
{0.13962798}
{-0.84094}
{0.10013535}
{-0.5207896}
{0.34391502}
{-0.21234906}
{0.11318684}
{-0.21385205}
{-0.41839865}
{0.53708655}
{-0.66461694}
{0.9786242}
{0.13477416}
{0.3921429}
{0.8309944}
{-0.90440077}
{-0.5831391}
{-0.005620703}
{0.69656307}
{0.010878379}
{0.65774274}
{0.31828582}
{-0.019226257}
{-0.29598287}
{-0.5913368}
{-0.5851636}
{0.45727393}
{-0.5190607}
{-0.7731529}
{-0.7135341}
{-0.48658907}
{-0.62639356}
{-0.0014023999}
{0.318601}
{0.48952028}
{-0.897702}
{0.2101765}
{0.3536669}
{-0.11225002}
{0.105066225}
{-0.41393444}
{0.74518394}
{0.051173713}
{0.18712105}
{0.2738755}
{0.45265687}
{-0.05089828}
{0.8802377}
{-0.5699777}
{-0.37161767}
{0.7641838}
{0.2305014}
{0.44908884}
{-0.3690828}
{-0.031997714}
{0.46557316}
{-0.836475}
{0.67318296}
{-0.10414468}
{0.63208914}
{0.8917986}
{-0.07537014}
{-0.1962756}
{-0.7776402}
{-0.29852897}
{0.50026476}
{-0.16598919}
{0.6965997}
{-0.33278835}
{0.93821645}
{0.4647299}
{-0.42719123}
{0.34964532}
{-0.83924747}
{-0.2547951}
{0.0012264504}
{0.6668322}
{-0.006031975}
{-0.2043166}
{0.53765726}
{0.3087718}
{0.47070372}
{0.7158896}
{-0.82007504}
{0.7209661}
{-0.08979179}
{-0.6478791}
{-0.49594134}
{-0.80000895}
{-0.31033504}
{0.5129187}
{-0.4614572}
{-0.8686142}
{0.35331523}
{-0.1080055}
{-0.46674937}
{-0.69566447}
{-0.25477254}
{0.09778693}
{0.12607294}
{0.9796334}
{0.6343744}
{-0.7867794}
{-0.5658066}
{0.9808883}
{0.8727863}
{0.15434912}
{-0.17348646}
{-0.14036801}
{0.02345301}
{-0.084589005}
{-0.2769555}
{0.9208317}
{-0.17978203}
{0.73664194}
{0.034518257}
{0.50646716}
{-0.48581195}
{-0.5461595}
{0.73232055}
{0.8226455}
{-0.77586603}
{0.36652356}
{-0.7238303}
{-0.687727}
{-0.4963457}
{-0.33656815}
{-0.26292664}
{-0.68694735}
{1.0438027}
{0.33805966}
{1.029003}
{0.10132572}
{0.9945817}
{-0.62782896}
{0.56269026}
{-0.28451344}
{0.32034338}
{-0.07447615}
{-0.69512427}
{-0.333388}
{0.44836223}
{-0.704389}
{0.16648686}
{0.6277085}
{-0.84724927}
{0.7863528}
{-0.9715068}
{0.5626171}
{-0.7609465}
{0.6398074}
{0.8835272}
{0.19331264}
{-0.5282903}
{-0.1118935}
{0.90571237}
{0.96836126}
{-0.7086191}
{-0.039851945}
{-0.08308332}
{-0.85989505}
{0.83163}
{-0.079455495}
{-0.66312075}
{-0.667785}
{0.66130257}
{-0.34816527}
{0.8333513}
{-0.24164018}
{-0.8238299}
{0.6969388}
{-0.7447962}
{0.24492119}
{0.3128227}
{0.8314469}
{-0.6143904}
{0.47049403}
{0.02190162}
{0.7038818}
{-0.49850944}
{0.27951613}
{0.15290214}
{0.2869873}
{-0.07400585}
{0.27207842}
{0.9629729}
{0.05369394}
{0.61942846}
{0.3964224}
{0.3376199}
{-0.8368138}
{0.6501729}
{0.74284256}
{-0.30025756}
{0.75472814}
{0.65552604}
{0.6395144}
{-0.06028541}
{0.5798925}
{0.4242919}
{0.29891506}
{-0.33721936}
{0.28458714}
{-0.6944781}
{-0.4174694}
{0.7844362}
{0.768882}
{-0.7052691}
{0.7619453}
{0.6570368}
{-0.22405846}
{-0.3378278}
{0.46119955}
{-0.4155072}
{-0.84223664}
{-0.8397099}
{0.83610445}
{-0.43103015}
{-0.81312424}
{0.2633306}
{0.30933508}
{-0.044879016}
{0.4753562}
{-0.106899925}
{0.89417434}
{-0.8304944}
{-0.34359345}
{0.75775295}
{-0.37319043}
{0.22093642}
{0.093585916}
{-0.40220502}
{0.9940568}
{1.0547941}
{-0.2436668}
{0.31520244}
{0.31526878}
{-0.055617645}
{0.46839887}
{0.44071397}
{0.6421646}
{0.23849595}
{-0.60203505}
{-0.89571965}
{-0.11258815}
{-0.7888434}
{-0.7777832}
{-0.8372745}
{-0.45132473}
{0.38494456}
{-0.680386}
{-0.79138404}
{0.4286176}
{-0.5734041}
{-0.6502174}
{0.21192084}
{-0.3719929}
{-0.57298565}
{0.08343552}
{-0.6294964}
{1.0300744}
{-0.23133576}
{0.18006338}
{-0.20416859}
{0.59755385}
{-0.55170155}
{0.12332878}
{-0.8289799}
{0.5672554}
{0.2123822}
{0.5814662}
{-0.35843816}
{-0.20391841}
{0.08944651}
{0.78411186}
{0.15323378}
{0.81739056}
{0.6766143}
{-0.9716857}
{0.5947307}
{0.559956}
{-0.056515295}
{-0.5355967}
{-0.9444924}
{-0.52630806}
{0.7061007}
{-0.0077997567}
{0.022056399}
{-0.14620042}
{0.02003838}
{0.6132388}
{-0.7953822}
{0.11473235}
{-0.5332048}
{0.0316806}
{0.9117764}
{-0.8115939}
{0.97971296}
{0.71340173}
{-0.33299842}
{0.6824914}
{0.7588968}
{-0.2953941}
{-0.9561316}
{0.45904344}
{0.0112559935}
{-0.9796699}
{0.8629008}
{-0.13504153}
{0.022270454}
{-0.29753983}
{-0.91384196}
{0.42488822}
{-0.9193063}
{-0.2541235}
{-0.42454886}
{-0.8101047}
{0.8679993}
{-0.21651442}
{0.45745552}
{-0.051749617}
{0.02232386}
{-0.07451958}
{-0.1930871}
{0.34538653}
{-0.450026}
{0.42178693}
{0.05303747}
{0.13187806}
{-0.5679858}
{0.2602969}
{-0.58410627}
{-0.014805082}
{-0.6488681}
{0.9334904}
{-0.67593795}
{0.11145627}
{-0.6180556}
{-0.18724756}
{-0.099557556}
{0.54661155}
{0.4932338}
{-0.2340187}
{-0.68336505}
{0.27370858}
{-0.4277159}
{-0.55938184}
{0.22816736}
{-0.25363442}
{0.47597492}
{0.5282523}
{0.23250073}
{-0.8156272}
{0.7480154}
{-0.07258629}
{0.030340895}
{0.7224781}
{0.40443695}
{0.6170882}
{-1.1337093}
{0.46044636}
{-0.62366724}
{0.5315905}
{0.76986843}
{0.9854385}
{0.5023785}
{-0.810372}
{0.05805503}
{-0.013753504}
{-0.855649}
{0.34236148}
{0.08142564}
{0.0234934}
{0.28857362}
{0.78674704}
{0.3342478}
{-0.4138753}
{-0.28066146}
{0.63434076}
{-0.3060918}
{0.21873523}
{0.13518257}
{0.88201416}
{-0.578233}
{0.5354279}
{-0.5550587}
{-0.9233898}
{0.7641286}
{0.98247397}
{-0.29260075}
{-0.28937483}
{-0.42049882}
{0.15286821}
{0.4455284}
{0.6443371}
{0.11075669}
{0.3392898}
{1.0005214}
{-0.75276875}
{0.9702582}
{0.6137247}
{0.8699577}
{0.27989694}
{-0.69741184}
{-0.20296437}
{0.68100405}
{0.03447877}
{-0.103305325}
{-0.5563436}
{-0.23430336}
{0.09314083}
{-0.107799634}
{-0.082460925}
{0.85306525}
{0.6734588}
{0.50056005}
{-0.50466037}
{0.32194555}
{0.43694106}
{-0.9729037}
{0.35485396}
{-0.6132395}
{-0.688483}
{0.11147952}
{0.6332208}
{-0.47181585}
{-0.9669493}
{0.49481687}
{0.5287278}
{0.59598994}
{0.04043836}
{0.4455438}
{0.1275728}
{0.34696734}
{0.77578664}
{-0.95257956}
{0.5154679}
{-0.47430262}
{0.29606223}
{0.060982805}
{0.32684097}
{0.75387645}
{0.5238027}
{-0.5683322}
{0.5889399}
{0.5457484}
{-0.5646167}
{-0.50295883}
{-0.1381463}
{-0.029141214}
{0.7323173}
{-0.020727217}
{0.71191007}
{-0.031503946}
{-0.08643834}
{-0.32384595}
{0.22840603}
{0.5742879}
{-0.78240114}
{-0.2700601}
{0.55335855}
{0.45450294}
{0.6886709}
{-0.6731251}
{0.7084623}
{0.18320787}
{0.85672367}
{0.19780129}
{0.85804296}
{0.75291324}
{0.27858934}
{-0.86357725}
{-0.2731435}
{-0.40514076}
{-0.7684411}
{-0.44108248}
{0.5751809}
{0.41088068}
{-0.169109}
{-0.8140053}
{0.28553772}
{0.72229886}
{-0.6661052}
{-0.35776037}
{0.51484156}
{0.34652627}
{-0.39695233}
{-0.04016556}
{-0.8075747}
{-0.2721001}
{-0.16317843}
{-0.49908853}
{-0.69529724}
{-0.4106506}
{0.4237119}
{-1.070571}
{-0.8217824}
{0.8094907}
{0.5493645}
{0.15358138}
{0.90611285}
{0.042007934}
{0.20243043}
{-1.0287455}
{-0.7708}
{-0.53393364}
{0.061702196}
{0.02102775}
{1.0896716}
{-0.08810308}
{-0.8599989}
{-0.6950615}
{-0.28616166}
{0.93499494}
{-0.39008316}
{-0.8604196}
{-0.014653957}
{0.29138434}
{-0.6588159}
{0.5371482}
{0.4815513}
{-0.7413342}
{0.15496463}
{0.49632463}
{-0.16095392}
{0.10619991}
{0.69548506}
{-0.3639381}
{0.66638696}
{-0.8519356}
{-0.91836464}
{-0.60601157}
{-0.81513774}
{0.051978838}
{0.49435306}
{0.6080517}
{-0.45491}
{-0.8134022}
{0.64188266}
{-0.6547134}
{-0.5122116}
{-0.5578382}
{0.06222643}
{0.8153965}
{-0.58227676}
{0.42381966}
{-0.4191039}
{0.88741004}
{0.37555045}
{0.2719139}
{0.6317182}
{0.024437653}
{0.3849341}
{-0.49457207}
{-0.32510364}
{0.8604155}
{-0.62510747}
{0.3299402}
{0.43239194}
{0.044701237}
{-0.5945839}
{-0.8674674}
{-0.4121714}
{-0.22956978}
{0.4315681}
{-0.113115475}
{-0.17831047}
{-0.1769688}
{-0.8233142}
{0.4562384}
{-0.9725243}
{0.6036685}
{0.39563382}
{0.58758163}
{-0.6316707}
{-0.96417314}
{-0.7237746}
{-0.2934574}
{0.7066257}
{0.5531137}
{0.3611023}
{-0.11900177}
{-0.29575542}
{-0.963277}
{0.011783003}
{0.32039773}
{-0.6059813}
{-0.9561405}
{-0.655762}
{-0.10614629}
{0.4626917}
{-0.52904546}
{0.9732218}
{-0.64512897}
{-0.26737356}
{-0.55679864}
{0.34054598}
{0.19067681}
{0.26234373}
{-0.05638123}
{-0.2028162}
{-0.6828308}
{1.0004976}
{0.60440266}
{-0.5753801}
{-0.80774283}
{0.91961545}
{-0.09028813}
{0.0010401089}
{0.050426733}
{-0.3976761}
{0.7651857}
{0.6278926}
{0.6621082}
{-0.176536}
{-1.0804814}
{-0.74606276}
{-0.22697365}
{-0.03377795}
{-0.7628723}
{-0.7748244}
{-0.7690604}
{-0.030814439}
{-0.47111562}
{0.36676115}
{0.22579896}
{0.75087374}
{-0.7944473}
{-0.44459713}
{0.6981449}
{0.20315808}
{-0.29424933}
{0.3327488}
{0.57669616}
{-0.27187565}
{-0.32595322}
{0.07788076}
{0.5162338}
{0.63734055}
{-0.055643998}
{0.074489236}
{-0.08710172}
{-0.6604506}
{-0.038998928}
{-0.7862919}
{0.08586928}
{-0.5801547}
{0.23161861}
{0.9971752}
{-0.0889621}
{0.86654615}
{-0.8455447}
{0.25261173}
{0.84991264}
{-0.43423688}
{-0.07779538}
{1.0183079}
{0.1288666}
{-0.6545116}
{0.06079356}
{-0.13724276}
{-0.87002134}
{0.6451163}
{0.8065463}
{0.020464802}
{0.6337049}
{0.71160907}
{-0.3597311}
{-0.8390644}
{-0.34523618}
{-0.11180518}
{0.26447564}
{0.132431}
{-0.7840688}
{-0.49619973}
{0.25623104}
{-0.6028327}
{-0.25936663}
{-0.9657913}
{-0.68689454}
{-0.1499156}
{-0.8516066}
{0.2637969}
{-0.15195747}
{0.26874802}
{0.6514602}
{-0.8254341}
{0.51394266}
{0.7377666}
{-0.5856395}
{-0.025100324}
{0.018380523}
{-0.029419592}
{0.88701653}
{0.08998365}
{-0.8784104}
{0.5132531}
{-0.36706102}
{0.23611116}
{0.37050945}
{0.45151713}
{0.00017668237}
{-0.60182583}
{-0.6902975}
{0.4013194}
{0.38507593}
{0.9142689}
{0.7939258}
{-0.34781972}
{0.95463395}
{0.03869345}
{0.11177825}
{-0.16636601}
{-0.2330364}
{-0.6957762}
{0.14870127}
{-0.94193333}
{0.021027101}
{-0.5568454}
{-0.51016784}
{0.9153317}
{0.7101786}
{-0.5655962}
{-0.5626338}
{0.05092124}
{-0.2639128}
{-0.7548147}
{0.5220565}
{0.3087841}
{0.09590788}
{-0.1464616}
{-0.9653596}
{0.44198623}
{0.43084776}
{-0.2759557}
{-0.83067375}
{0.500055}
{-0.81322646}
{0.785665}
{-0.103151925}
{0.7984803}
{-0.7314205}
{0.95652777}
{0.44175872}
{-0.9945351}
{-0.46102154}
{-0.16850021}
{0.7174036}
{0.7031262}
{-0.12844884}
{0.93139356}
{-0.8078368}
{-0.39337286}
{-0.9113116}
{0.5716625}
{0.07812701}
{0.8453514}
{-0.4597176}
{-0.7468152}
{0.6152028}
{-0.07768739}
{0.11510054}
{0.49700785}
{0.86319464}
{-0.69789237}
{0.059362188}
{-0.10005158}
{0.042359408}
{0.9720355}
{0.15386106}
{0.20378713}
{-0.82167774}
{-0.7118357}
{-0.4600147}
{-0.52525765}
{-0.6240077}
{-0.5637491}
{0.27780855}
{-0.18982773}
{-0.6504654}
{0.88625664}
{0.98681617}
{0.9835484}
{0.6759395}
{-0.30120203}
{-0.8903661}
{0.608569}
{-0.5101362}
{-0.17685947}
{0.0018189095}
{0.709444}
{-0.04392901}
{0.5757317}
{-0.17944252}
{-0.977858}
{0.5870757}
{-0.1846643}
{-0.75275993}
{0.6989656}
{0.80356365}
{-0.9700984}
{-0.09845422}
{0.007266305}
{0.31098038}
{-0.25199354}
{0.097077794}
{-0.58739823}
{0.10232128}
{-0.102740735}
{-0.52893734}
{-0.32984948}
{-0.012506002}
{-0.67369574}
{0.12273255}
{0.5353525}
{-0.94436723}
{-0.5883995}
{0.03696252}
{-0.91011244}
{0.10910331}
{-0.98848635}
{0.8766718}
{0.363828}
{-0.34165317}
{0.4138141}
{0.30640066}
{-0.9694761}
{0.7366527}
{-0.006910053}
{0.08245037}
{-0.4974899}
{0.5171312}
{-0.21231379}
{-0.35690892}
{-0.535558}
{-0.40723214}
{-0.44256914}
{0.29896462}
{0.009123534}
{-0.77874625}
{0.06208054}
{0.26736152}
{0.22901972}
{-0.13222067}
{-0.096697636}
{0.82494354}
{-0.40320092}
{0.18232812}
{0.5102978}
{-0.74436855}
{0.1086584}
{-0.076456055}
{0.25897947}
{-0.43713558}
{-0.8855591}
{0.49124062}
{0.8570102}
{0.6901202}
{-0.70145637}
{0.59626114}
{0.55048746}
{0.5535484}
{0.043459155}
{0.27946606}
{0.82064724}
{-0.1089446}
{-0.7514296}
{0.7012525}
{-0.64390314}
{0.65547514}
{0.1755533}
{0.2564807}
{-0.9295712}
{-0.25005877}
{0.18636328}
{0.68451226}
{-0.05198116}
{0.64321804}
{0.6792486}
{-1.1151702}
{-0.8981969}
{-0.45897278}
{0.7471665}
{0.7886283}
{-0.21353805}
{0.8135083}
{0.43037984}
{-0.036522985}
{0.9248415}
{0.030066978}
{-0.79928493}
{0.12915207}
{-0.768182}
{-0.30183995}
{-0.1718189}
{-0.025623044}
{0.23882975}
{0.23072827}
{0.41014957}
{-0.20772572}
{0.8639664}
{-0.37954295}
{0.40152466}
{-0.16020828}
{0.3412164}
{-0.53522754}
{0.54764676}
{0.2709537}
{-0.30388188}
{-0.4659359}
{0.5915647}
{0.39735046}
{-0.71462727}
{-0.3775059}
{-0.43269044}
{0.0028032544}
{-0.6819168}
{0.6002927}
{-0.5846423}
{0.73931336}
{0.47122675}
{0.5404043}
{-0.12480955}
{0.8461103}
{-0.6063481}
{0.7009411}
{-0.86964303}
{-0.55291945}
{-0.64301085}
{0.0198784}
{0.767132}
{0.8683621}
{0.7147652}
{0.23950636}
{0.23223679}
{0.70145774}
{0.76707304}
{-0.41611922}
{0.436339}
{-0.8692456}
{0.26668057}
{-0.51724696}
{-0.03332767}
{-0.7341412}
{-0.7840121}
{-0.12686288}
{-0.27815264}
{0.3864633}
{-0.21467006}
{0.85093164}
{-0.085864}
{0.5352565}
{-0.7406818}
{0.25520456}
{0.998597}
{0.6911416}
{-0.66547644}
{-0.14148772}
{0.6209445}
{-0.6815832}
{0.22527175}
{-0.37285197}
{0.10502431}
{0.14722976}
{0.9564752}
{-0.32760155}
{-0.26090378}
{-1.0693514}
{-0.02738234}
{0.12278476}
{0.63564575}
{-0.11909683}
{0.64473546}
{0.18838942}
{-0.32664475}
{-1.0701888}
{0.5665144}
{0.5458936}
{0.71469676}
{0.8478215}
{-1.1099106}
{0.029134046}
{-0.2504674}
{0.77801615}
{-0.06031827}
{-0.93781185}
{0.11514746}
{-0.5838304}
{-0.9035515}
{-0.81456256}
{0.8972611}
{0.6359107}
{0.6673997}
{0.8085067}
{0.4976981}
{-0.82311124}
{-0.13419506}
{0.14695619}
{0.53077525}
{-0.5145972}
{0.866815}
{-0.6830702}
{-0.5517188}
{0.50108165}
{0.5643106}
{0.8701315}
{-0.306985}
{-0.034763753}
{-0.880864}
{0.4868983}
{0.7712074}
{0.014898605}
{-0.70491445}
{0.037661802}
{0.87152624}
{-0.47705057}
{0.65010077}
{0.5253742}
{0.8336488}
{0.24028318}
{-0.79721826}
{-0.2824055}
{-0.5326288}
{-0.057345297}
{-0.7824988}
{0.50562817}
{0.23521605}
{0.17490757}
{0.16606106}
{-0.14679945}
{0.7208631}
{0.48146918}
{0.6359754}
{-0.25887454}
{-0.62082905}
{-0.7363809}
{-0.52424973}
{-0.6132767}
{-0.7690334}
{-0.7563385}
{-0.2624419}
{-0.40072072}
{-0.20264995}
{0.9365195}
{-0.012851415}
{0.7000568}
{0.107055664}
{0.90058696}
{-0.34583935}
{0.6073766}
{-0.75649625}
{0.012675636}
{0.73237705}
{0.7495959}
{-0.58394104}
{-0.73984474}
{0.30515924}
{-0.19308412}
{0.20662838}
{-0.9607195}
{0.27929258}
{0.9750972}
{0.4165079}
{-0.66720563}
{0.80448514}
{0.025148405}
{0.3627752}
{-0.9365685}
{0.7997403}
{-0.45203638}
{0.27360946}
{-0.529877}
{-0.59325707}
{0.54560965}
{-0.37671334}
{0.3839926}
{0.8559949}
{0.14713073}
{0.25223193}
{-0.2481999}
{0.66396827}
{0.43895638}
{0.00764449}
{0.25001904}
{0.013549416}
{-0.54405475}
{1.0241302}
{-0.6138145}
{0.23839083}
{-0.30803072}
{0.69634026}
{-0.88562083}
{-0.13866013}
{0.6672249}
{-0.37621704}
{-1.0378969}
{0.22749709}
{0.84970665}
{0.9070528}
{-0.5620938}
{0.21596669}
{-0.06570062}
{0.32156387}
{0.83616763}
{0.33514306}
{-0.8504534}
{0.10377001}
{0.578575}
{-0.5365661}
{-0.66679716}
{-0.73324347}
{0.47863922}
{0.22774029}
{0.63765144}
{0.38486928}
{0.36639014}
{-0.35275283}
{0.45016658}
{-0.16562359}
{-0.7263657}
{-1.0002879}
{0.11332814}
{-0.52972966}
{0.5558034}
{0.47779256}
{-0.3553301}
{-0.05650103}
{-0.6429695}
{-0.36608684}
{-0.43373168}
{-0.8690981}
{-0.83381486}
{0.22458902}
{0.37030637}
{-0.79195464}
{-0.13448855}
{-0.36706913}
{-0.6773393}
{-0.14097136}
{-0.8404406}
{-0.713257}
{0.29984605}
{-0.28477636}
{-0.88828766}
{-0.7577176}
{0.77115035}
{0.59921795}
{-1.0010725}
{-0.74540216}
{0.65943813}
{0.17620161}
{0.7419891}
{0.2544197}
{-0.5922208}
{-0.49810073}
{0.69982415}
{-0.40961018}
{0.9577184}
{0.47325933}
{0.5812698}
{0.11697151}
{-0.9062338}
{0.40165374}
{0.41024014}
{-0.43658587}
{0.33914292}
{0.5520662}
{0.59873617}
{-0.0695001}
{0.65890574}
{0.03821595}
{0.88918334}
{-0.79515266}
{-0.9019644}
{0.035699196}
{-0.39217922}
{0.42127568}
{0.8266432}
{-0.5277062}
{-0.6085751}
{0.68413484}
{0.027437698}
{-0.18198651}
{-0.27951255}
{-0.93663955}
{-0.49771327}
{-0.47763112}
{-0.9815702}
{0.3456937}
{-0.17202437}
{-0.33482957}
{0.68192196}
{0.830085}
{0.95774794}
{0.20954838}
{-0.52281475}
{0.119842045}
{0.72155905}
{-0.2834366}
{-0.76312464}
{-0.5082775}
{0.43857968}
{-0.304672}
{0.8183338}
{0.04765425}
{0.3279413}
{-0.8778782}
{-0.5767489}
{0.6371232}
{0.94621515}
{0.11631265}
{0.77140146}
{0.8330101}
{0.15392758}
{-0.5398488}
{0.64129514}
{0.39016318}
{-0.52831316}
{0.60941446}
{-0.6984194}
{-0.05723323}
{-0.6323409}
{-0.025238434}
{0.5078641}
{-0.28695583}
{-0.7218671}
{0.0067086257}
{-0.6624868}
{-0.32355145}
{-0.8510585}
{0.29713714}
{-0.22894013}
{-0.23853505}
{0.835912}
{-0.35088354}
{0.8090616}
{0.5141528}
{1.0144322}
{0.59764004}
{0.8504096}
{0.2749204}
{-0.47715366}
{0.32839182}
{0.7550703}
{-0.4285317}
{-0.23106849}
{0.6220865}
{-0.40821892}
{0.84392536}
{0.72221565}
{-0.6602224}
{0.323926}
{0.6441541}
{-0.89013886}
{0.1059751}
{0.3276647}
{0.03990055}
{-0.03753404}
{-0.63645244}
{-0.16793907}
{0.3699481}
{0.9863436}
{-0.25905004}
{-0.5774079}
{-0.5965569}
{0.61324406}
{0.10430399}
{0.817977}
{0.5999768}
{-0.5799327}
{0.072727434}
{0.5000024}
{0.1986612}
{-0.75271153}
{-0.80942243}
{-0.8260684}
{-0.30780533}
{-0.660975}
{0.8722204}
{0.8620555}
{0.15620574}
{-0.7923548}
{0.59007347}
{-0.9449032}
{-0.98297054}
{-0.19428313}
{0.6797313}
{0.863119}
{-0.8408702}
{-0.2785331}
{0.8680727}
{0.12417974}
{-0.7774229}
{-0.32258594}
{-0.94708574}
{-0.72764534}
{-0.5355988}
{-0.62420607}
{-0.6481044}
{0.6267371}
{-0.37757087}
{0.8152938}
{-0.0705371}
{-0.1530605}
{0.0014725046}
{-0.9064927}
{-0.081478216}
{0.9642068}
{0.36318865}
{0.31468523}
{0.9357061}
{-0.017739415}
{0.6671037}
{-0.6397071}
{-0.859437}
{0.6862865}
{-1.0204581}
{-0.6456332}
{0.40690178}
{-0.041654248}
{-0.27131653}
{-0.62660694}
{0.8451269}
{-0.41401005}
{0.60883164}
{-0.3744439}
{0.38620323}
{-0.8409483}
{0.5250295}
{-0.14312756}
{0.91921735}
{0.45213214}
{0.62241703}
{-0.54240346}
{-0.37013802}
{0.35229415}
{0.16148491}
{-0.35615718}
{0.90002066}
{0.67809236}
{0.116735615}
{0.66304517}
{0.34765443}
{0.77504325}
{0.29259616}
{0.7086911}
{0.92635036}
{0.28847092}
{0.04044841}
{-0.15049636}
{-0.43845266}
{0.5306661}
{-0.80113804}
{-0.7326224}
{0.05554659}
{-0.61192095}
{0.5059713}
{-0.9317086}
{-0.08805331}
{-0.28082445}
{-0.8039162}
{0.32112706}
{-0.9222473}
{-0.38536185}
{-0.2997979}
{0.38987005}
{-0.70185983}
{-0.6336728}
{0.022531897}
{-0.18846047}
{-0.6166876}
{-0.35641822}
{0.3184672}
{-0.4746476}
{-0.47818685}
{-0.8915552}
{-0.22557315}
{-0.14129007}
{-0.5057359}
{0.11183648}
{-0.14003032}
{0.40645444}
{0.6930869}
{-0.1094274}
{0.8073539}
{-0.04275971}
{-0.7555138}
{0.7522793}
{0.8394867}
{0.7274182}
{0.095557}
{0.33854088}
{0.05528096}
{-0.051802702}
{0.6713842}
{0.90665424}
{-0.8100047}
{0.0997519}
{0.10685843}
{-0.52502936}
{0.38238588}
{0.83450675}
{-0.012238922}
{0.19960257}
{0.8881751}
{0.9288144}
{-0.8499141}
{-0.90542346}
{0.15183076}
{0.65463233}
{-0.47770917}
{0.9675614}
{-0.27035567}
{-0.84602594}
{-0.10700918}
{-0.41726822}
{-0.79455066}
{-0.42276084}
{0.61433685}
{-1.0151086}
{-0.6542585}
{0.6386843}
{-0.19347416}
{0.65996146}
{0.34570622}
{0.22112072}
{0.41251308}
{0.92416173}
{0.091547154}
{-0.44663015}
{0.052968338}
{0.2812086}
{0.12521411}
{0.73889184}
{-0.9598737}
{0.6689709}
{0.5892152}
{-0.11884871}
{-0.43138048}
{0.9648816}
{-0.31165424}
{-0.4936415}
{0.46787748}
{-0.39181164}
{0.5605123}
{0.19313157}
{0.46896017}
{-0.2605597}
{0.059505165}
{0.46524847}
{0.823266}
{0.9116157}
{-0.38582316}
{-0.6332395}
{-0.23859605}
{-0.7058319}
{0.76374316}
{-0.9405215}
{-0.48343164}
{0.48832166}
{-0.6355314}
{-0.5883415}
{-0.64126146}
{-0.6126117}
{0.7251651}
{-0.27328432}
{-0.20004988}
{0.025458852}
{0.22453983}
{0.71948695}
{-0.08946269}
{-0.4534578}
{-0.45684355}
{-0.58894825}
{0.65220076}
{-0.87828296}
{-0.2604468}
{-0.019971617}
{-0.49965313}
{-0.97601575}
{0.4243421}
{-0.719635}
{-0.07826594}
{0.9311452}
{-0.9258438}
{0.20000422}
{0.8875315}
{-0.26175117}
{0.4541504}
{0.047711145}
{0.021407036}
{0.44947007}
{0.21827015}
{-0.88481045}
{0.49090907}
{0.8559377}
{0.8447095}
{-0.27888834}
{-0.12859583}
{0.14899953}
{-0.8913987}
{0.5627496}
{-0.91619986}
{-0.67448074}
{0.84977806}
{-0.6115484}
{-0.5202781}
{-0.5918483}
{-0.81241035}
{0.16891582}
{0.9032288}
{0.13945189}
{0.51145685}
{0.42266476}
{0.36457673}
{-0.15912674}
{-0.9520086}
{-0.8960273}
{-0.1383266}
{0.08534669}
{0.18736222}
{0.22178495}
{-0.7279627}
{-0.13434683}
{0.8924908}
{0.37915385}
{0.34255037}
{-0.12592147}
{-0.8533623}
{0.045044433}
{0.482004}
{0.38193965}
{-0.58799064}
{-0.31613672}
{0.2394783}
{0.26549158}
{-0.31816265}
{-0.3019675}
{0.9564266}
{-0.6126124}
{0.35067517}
{0.50228864}
{-0.62717986}
{0.73393375}
{0.76224333}
{0.8701596}
{0.15449665}
{0.41981235}
{-0.2874575}
{0.19375956}
{-0.17718442}
{-0.21988744}
{0.8702749}
{-0.17105806}
{0.0709884}
{0.47263837}
{0.20916139}
{-0.2702855}
