-- Efficiency --
93.59606
-- Weights --
{0.47635594}
{0.69843405}
{-0.28009027}
{-1.0364223}
{0.7018446}
{-0.6130858}
{0.6867833}
{0.20806366}
{-0.2691885}
{-0.61479473}
{0.84704876}
{0.77372867}
{-0.10510359}
{0.14651023}
{-0.86279285}
{-0.9459775}
{-0.52544653}
{-0.5907906}
{0.7460164}
{0.8305695}
{0.48542014}
{0.019390829}
{0.10705812}
{0.34746674}
{-0.8827516}
{-0.58794147}
{-0.4353427}
{0.80222493}
{-0.65639794}
{-0.29496843}
{-0.4462265}
{0.08818218}
{-0.6659254}
{0.63498133}
{-0.8727999}
{-0.097077645}
{0.86095464}
{-0.72524506}
{0.19424455}
{-0.78192085}
{0.084687375}
{0.24482153}
{-0.79311734}
{0.09728371}
{-0.3841711}
{0.84706485}
{-0.5592225}
{0.356151}
{-0.5174326}
{0.32314146}
{0.79748875}
{0.34932745}
{0.9736346}
{-0.7327939}
{0.20971225}
{0.24451108}
{-0.8457943}
{-0.093988396}
{-0.68431973}
{-0.6521604}
{0.5212282}
{-0.86037064}
{0.981822}
{0.6470394}
{0.30342308}
{0.06475645}
{0.78054833}
{0.24871707}
{-0.26606736}
{-0.68697137}
{0.18969552}
{-0.66005087}
{0.83366835}
{-0.8964313}
{0.7475936}
{-0.54146373}
{-0.7534355}
{0.716316}
{0.54488355}
{-0.13798039}
{0.89859474}
{0.9354948}
{-0.4860932}
{0.02158329}
{-0.771263}
{-0.6787647}
{0.5332375}
{0.48373693}
{0.24708477}
{0.8423374}
{0.40357393}
{0.8391147}
{-0.6299428}
{-0.68851644}
{0.7560673}
{0.8206531}
{0.2377688}
{0.1828519}
{0.5575721}
{-0.3881691}
{0.81606805}
{-0.8638427}
{-0.8443149}
{-0.93965495}
{0.87031734}
{0.8548342}
{-0.7431445}
{-0.45508027}
{-0.70314896}
{-0.002831212}
{-0.28886726}
{-0.3813266}
{0.56344783}
{0.6196641}
{0.5964813}
{0.10716666}
{-0.6392518}
{0.064521916}
{0.96924263}
{-0.81616914}
{0.73233044}
{0.860586}
{0.31997916}
{-0.15939434}
{0.6290988}
{0.6026658}
{0.77889025}
{0.71428514}
{-0.31106505}
{-0.20974332}
{0.7486908}
{0.55090755}
{0.6907164}
{0.14647548}
{0.8865019}
{-0.2095912}
{-0.20063338}
{-0.38586122}
{0.19090264}
{-0.22535704}
{-0.70825446}
{0.37265998}
{-0.7809106}
{-0.88169867}
{0.8651799}
{0.67537224}
{-0.93303}
{-0.79642224}
{-0.70310986}
{0.95803756}
{-0.35061565}
{-0.21661246}
{0.83010304}
{0.4141626}
{-0.105403826}
{0.15489338}
{0.9153546}
{0.36593243}
{-0.33457154}
{-0.5371247}
{-0.47634467}
{0.8618887}
{-0.06965179}
{-0.49364296}
{-0.96271074}
{0.3747574}
{0.68836975}
{0.0103514055}
{-0.41892275}
{0.22537525}
{0.7864569}
{0.121634215}
{0.14581814}
{-0.17533895}
{0.114449635}
{0.26418838}
{0.28865066}
{-0.67403597}
{0.3340204}
{0.7848729}
{-0.18568978}
{0.87886447}
{0.48941624}
{-0.6005083}
{0.027664568}
{0.41144896}
{-0.08418692}
{-0.6796921}
{-0.8501226}
{-0.27530324}
{-0.45172188}
{-0.16989455}
{-0.4359561}
{1.0531697}
{-0.3153624}
{-0.36773983}
{-0.8501078}
{-0.015634075}
{-0.4479959}
{-0.93327147}
{-0.90188944}
{0.6992005}
{0.8004101}
{-0.46510944}
{0.67919767}
{-0.3906498}
{0.25928465}
{0.037837602}
{0.82061875}
{-0.58414847}
{0.71430993}
{-0.3637707}
{0.9090916}
{0.9181107}
{1.0261145}
{0.23788427}
{-0.8050407}
{0.9165646}
{-0.3981289}
{-1.0224462}
{-0.53471935}
{-0.6773202}
{0.06173825}
{-0.66429865}
{0.85206425}
{0.689127}
{0.82044244}
{-0.113446325}
{-0.6594068}
{0.34462017}
{-0.65726525}
{-0.38195905}
{0.7921716}
{0.22032543}
{0.83093065}
{0.04146827}
{0.5072843}
{0.77987254}
{0.34511173}
{0.8344902}
{-0.0093370415}
{0.22984849}
{-0.22791666}
{0.88784176}
{0.4332241}
{0.6913281}
{0.24106637}
{-0.7867013}
{-0.082167245}
{-0.13467756}
{-0.77461964}
{0.62886655}
{0.8839053}
{-0.19344188}
{-0.32077336}
{0.328558}
{-0.62317216}
{-0.69122636}
{0.6265591}
{0.40245637}
{0.34532323}
{-0.85871613}
{-0.21242806}
{0.004879327}
{0.93656385}
{0.4059267}
{-0.5955024}
{-0.85256606}
{0.82115257}
{-0.880392}
{0.36623716}
{0.70974034}
{-0.870355}
{0.15741438}
{-0.32438833}
{0.85142666}
{0.58467233}
{0.05106154}
{0.025548518}
{-0.5366969}
{-0.3333505}
{-0.5068459}
{0.3694407}
{0.45745355}
{0.9830369}
{-0.058146894}
{-0.43637875}
{0.19636264}
{-0.49975523}
{-0.88371754}
{0.16501679}
{-0.604563}
{-0.23713288}
{0.97114635}
{0.94460845}
{-0.05787277}
{-0.25511107}
{0.39858794}
{0.7995579}
{-0.034532}
{0.99631464}
{-0.21031089}
{-0.7181334}
{0.2835928}
{0.879259}
{0.659223}
{-0.78747094}
{-0.017599953}
{-0.5055376}
{-0.62301207}
{-0.5156854}
{0.30220056}
{-0.0036340693}
{0.24190818}
{-0.23210016}
{-0.023803575}
{0.76450336}
{0.66103405}
{0.17912735}
{0.6433172}
{-0.138836}
{0.2571402}
{0.2627587}
{0.4473563}
{0.35948434}
{0.66106164}
{-0.85841775}
{0.6019407}
{-0.01346812}
{-0.9485736}
{-0.7622338}
{0.45113024}
{0.83585846}
{0.2826197}
{-0.45669803}
{0.48421907}
{-0.48681077}
{0.27588}
{0.8261928}
{-0.84103936}
{0.34744754}
{-0.14317614}
{-0.13716218}
{0.29847783}
{0.9790093}
{-0.79603773}
{-0.6958376}
{-0.107897446}
{0.77500975}
{0.4366894}
{-0.79757184}
{-0.044712402}
{-0.59996045}
{-0.81369627}
{-0.6247812}
{-0.9689937}
{0.08908262}
{0.16602708}
{0.629022}
{-0.84589595}
{-0.52085173}
{0.11789238}
{-0.45956138}
{0.10204562}
{-0.937106}
{-1.008868}
{0.78891486}
{-0.36613292}
{0.0011610058}
{-0.3850855}
{0.98432976}
{-0.5967904}
{-0.43960747}
{-0.5448003}
{-0.2561042}
{-0.791896}
{-0.6825954}
{-0.44985354}
{0.9209622}
{-0.76928085}
{0.020005371}
{-0.21623604}
{0.2605385}
{0.6696283}
{-0.26236925}
{-0.58017015}
{-0.8164141}
{0.7897982}
{0.67016494}
{-0.45951602}
{-0.39047483}
{0.49192807}
{-0.72951376}
{0.37522316}
{-0.67048675}
{-0.22335023}
{-0.46974215}
{1.0313866}
{-0.5453673}
{-0.40648013}
{0.08974447}
{0.52414423}
{1.0349798}
{-0.7819574}
{0.30403844}
{1.008235}
{-0.52825344}
{0.42185846}
{-0.7977587}
{-0.16330351}
{0.8024718}
{-0.63949513}
{0.704213}
{-0.05931455}
{-0.89290845}
{-0.8405632}
{-0.07460127}
{0.12098872}
{-0.03531771}
{-0.5873885}
{-0.26419434}
{0.3076554}
{-0.38445604}
{0.0088336505}
{0.5146104}
{-0.91100764}
{0.7249228}
{0.79188865}
{-0.30280814}
{0.09105757}
{0.294317}
{0.642195}
{-0.4006327}
{-0.42632827}
{0.33370432}
{0.42640916}
{-0.5592426}
{-0.7698355}
{0.039581854}
{-0.4944614}
{0.8085929}
{-0.7522617}
{-0.07185199}
{0.4011916}
{0.10365238}
{-0.098220035}
{-0.744554}
{0.7215815}
{-0.56517756}
{0.22397852}
{0.1921123}
{-0.85742605}
{0.032544997}
{0.28579593}
{0.5890868}
{0.5229642}
{0.6158551}
{-0.7098136}
{-0.098621026}
{-0.12974067}
{-0.069438554}
{0.5939063}
{-0.8014684}
{0.8927961}
{0.72914183}
{-0.9239753}
{-0.15169398}
{-0.51138693}
{0.61789906}
{0.25974914}
{-0.55002844}
{-0.6310604}
{-0.86264217}
{0.5588261}
{-0.62996036}
{-0.6085883}
{-0.5902847}
{0.9328539}
{-0.8921022}
{-0.9629617}
{-0.32854518}
{-0.017043712}
{0.3852133}
{0.72128224}
{-0.1342214}
{-0.9637658}
{-0.70444435}
{-0.11553589}
{0.69110906}
{0.40716007}
{0.26728046}
{-0.09390753}
{0.07877865}
{-0.9835502}
{0.045818307}
{-1.0765017}
{-0.65869486}
{-0.94288206}
{-0.20887679}
{0.32826874}
{-0.9928273}
{-0.23547462}
{-0.4909248}
{-0.35172898}
{-0.780064}
{-0.24381363}
{0.096739985}
{0.07668929}
{-0.2813991}
{0.08232103}
{0.38396803}
{-0.88971514}
{-0.7357477}
{-0.36235574}
{0.5524947}
{0.7416441}
{-0.8725182}
{-0.02722441}
{0.8592263}
{-0.034581672}
{0.31464377}
{-0.2507209}
{0.17879827}
{0.4137715}
{-0.7341453}
{-0.78031725}
{0.58375025}
{0.56950206}
{0.5297586}
{0.8462274}
{-0.29079217}
{0.018308558}
{-0.27003774}
{-0.75400376}
{-0.34266347}
{-0.37071237}
{-0.7665328}
{-0.729418}
{1.0024537}
{0.65518045}
{-0.56750524}
{0.2933322}
{0.04764224}
{-0.1797843}
{0.49414507}
{0.49555027}
{0.40354207}
{-0.4717926}
{-0.483461}
{0.6980382}
{0.9529132}
{-0.5018749}
{-0.6414062}
{0.076719}
{-0.4939638}
{-0.50110275}
{-0.90172017}
{-0.2275165}
{0.78346664}
{-0.59903497}
{-0.6339742}
{-0.4639775}
{0.34643462}
{-0.28806832}
{0.07146182}
{-0.56037235}
{-0.38768667}
{0.31656966}
{-0.93336713}
{0.7332125}
{0.060963813}
{0.7958953}
{0.13483754}
{-0.12904115}
{-0.86012536}
{-0.08612012}
{0.15231171}
{-0.7353838}
{0.44982082}
{0.3415803}
{0.68729055}
{0.96463346}
{-0.36371708}
{-0.8336017}
{-0.1881946}
{0.8736155}
{-0.36175123}
{0.31713757}
{0.57979}
{-0.6251988}
{-0.2657873}
{0.55220693}
{0.5006341}
{-0.75605613}
{0.7191569}
{0.69428533}
{-0.37324104}
{-0.5987799}
{0.42357054}
{0.2168089}
{-0.96324956}
{-0.8825306}
{0.70688045}
{0.8695744}
{0.5851606}
{-0.038607847}
{-0.8436305}
{0.55672985}
{0.45671812}
{0.5772364}
{-0.4383801}
{-0.29068205}
{0.84132206}
{-0.8665674}
{0.0108485045}
{0.67430615}
{-0.7351054}
{0.35911393}
{0.32161623}
{0.5551164}
{-0.40600547}
{0.638628}
{0.11997105}
{0.20032804}
{0.12933937}
{-0.27018788}
{0.7730445}
{0.066275015}
{-0.06375656}
{0.9188015}
{-0.71719366}
{0.43458664}
{-0.9393226}
{0.41551688}
{0.9452224}
{0.8405139}
{0.597293}
{-0.9719854}
{-0.0070890803}
{-0.07242429}
{0.43692866}
{-0.79765147}
{0.4460766}
{0.51397854}
{0.3333725}
{0.14502543}
{-0.19011424}
{0.057235606}
{0.5180353}
{-0.40267625}
{-0.48970622}
{-0.4925404}
{-0.3378249}
{-0.77286386}
{0.7347231}
{-0.2873795}
{0.602342}
{-0.06963425}
{-0.3303027}
{-0.9099553}
{-0.9109713}
{-0.6199277}
{-0.9054307}
{-0.38857856}
{0.044407275}
{0.54313457}
{-0.5770639}
{-0.40127307}
{0.56671107}
{-0.60242903}
{0.80091023}
{0.80004334}
{-0.10275207}
{-0.06875869}
{0.33832213}
{0.3292939}
{0.6323508}
{0.016682113}
{-0.5904419}
{-0.5170241}
{-0.37097487}
{0.846076}
{-0.88995165}
{0.4999246}
{0.9727768}
{-0.7367847}
{0.55306274}
{0.6272933}
{-0.7938734}
{-0.18589558}
{0.14585422}
{0.3290228}
{-0.20727548}
{-0.47119847}
{-0.7850564}
{0.42497897}
{-0.322687}
{-0.9107985}
{-0.10903702}
{-0.3284342}
{0.6101471}
{0.9035474}
{-0.6025891}
{-0.2562858}
{0.8398367}
{0.36023617}
{-0.63546723}
{0.8710972}
{0.88387525}
{-0.71364397}
{-0.13717908}
{-0.15132937}
{-0.87817824}
{-0.3695445}
{-0.81621987}
{-0.3045977}
{0.46810904}
{-0.19918402}
{0.4437838}
{0.017505802}
{0.27568236}
{0.56431717}
{-0.29007995}
{0.41168913}
{0.35679737}
{-0.42010126}
{-0.044855315}
{0.35991606}
{-0.8556117}
{0.6345286}
{0.5975027}
{-0.5242727}
{0.11649933}
{0.54691654}
{0.83191454}
{-0.19500193}
{0.099525355}
{0.46473527}
{-0.072672285}
{-0.10190458}
{-0.73507726}
{0.5509575}
{-0.27044985}
{-0.50341403}
{0.962396}
{-0.873322}
{0.0040364335}
{-0.7656104}
{-0.35312256}
{0.8213139}
{0.69844294}
{-0.11859435}
{-0.5066837}
{0.30641454}
{0.7739404}
{0.4196194}
{-0.49459895}
{-0.93783057}
{-0.06096614}
{-0.58239573}
{0.77458274}
{-0.22416738}
{-0.2831093}
{0.02182288}
{0.73134506}
{-0.63650566}
{-0.6806969}
{0.63233215}
{-0.6844853}
{0.29294285}
{-0.21817511}
{-0.56124616}
{0.38203183}
{0.1646365}
{-0.25299802}
{0.7264329}
{-0.22833404}
{0.8275206}
{-0.5606967}
{0.025242154}
{0.9823016}
{-0.6250249}
{0.39308143}
{-0.1855023}
{-0.20222268}
{-0.5694745}
{-0.6956461}
{-0.8410282}
{-0.14338073}
{0.67908037}
{0.1502806}
{0.7468569}
{-0.77410305}
{-0.5548259}
{-0.7003094}
{0.5182359}
{0.49385703}
{0.7466368}
{0.27516714}
{0.9458504}
{0.47362915}
{0.79112315}
{-0.47960246}
{0.7705205}
{0.32098833}
{-0.23707075}
{0.708456}
{0.2950378}
{-0.87101877}
{0.76979333}
{-0.7651664}
{0.8714659}
{0.3585507}
{0.390975}
{-0.008968405}
{-0.8828558}
{0.7347857}
{-0.59942263}
{0.817643}
{0.7991641}
{0.95171845}
{0.8190455}
{0.55030096}
{0.000731325}
{0.00536051}
{0.8894658}
{0.77563006}
{0.60101694}
{-0.51552737}
{-0.36623603}
{0.22162421}
{-0.19271076}
{0.16834846}
{0.87582487}
{0.6660178}
{0.15210587}
{0.12530294}
{-0.75916004}
{-0.18732019}
{0.6601669}
{-0.96159446}
{0.7710259}
{0.037962824}
{-0.74512154}
{0.7373358}
{-0.8098615}
{0.72257584}
{0.40775055}
{-0.0075627305}
{-0.5415007}
{0.77582157}
{-0.26728117}
{0.92984235}
{0.680165}
{-0.8918049}
{0.57842195}
{-0.19274244}
{0.7879453}
{0.771602}
{-0.046680983}
{0.9044703}
{-0.705949}
{0.58467233}
{-0.94879305}
{-0.9388815}
{0.24290161}
{0.048781905}
{-0.30780834}
{-0.39331374}
{0.58124495}
{-0.54256606}
{-0.1537604}
{0.9936882}
{-0.1098512}
{0.087237336}
{0.1810826}
{0.6774038}
{0.6898549}
{-0.10263379}
{0.65115786}
{-0.6418272}
{-0.9816443}
{-0.5982997}
{0.23224518}
{-0.28855452}
{-0.9821653}
{0.32164592}
{0.8454027}
{-0.00784931}
{0.43119627}
{0.824355}
{0.45846152}
{0.6128863}
{-0.58852255}
{-0.3109209}
{-0.46882117}
{-0.51328814}
{-0.294833}
{-0.29932928}
{-0.18663889}
{0.23076501}
{0.06516548}
{-0.41920736}
{-0.42837822}
{-0.89173806}
{-0.9161278}
{-0.9001466}
{0.33632424}
{-0.45808348}
{0.70111346}
{0.35995996}
{-0.03428824}
{-0.7803761}
{0.29873765}
{0.29407558}
{-1.0288047}
{0.86166155}
{-0.80846673}
{0.6657579}
{0.85163987}
{0.020992424}
{-0.23786592}
{0.24878813}
{-0.6417359}
{0.5395514}
{-0.71762234}
{-0.39113635}
{0.81910324}
{0.37038484}
{-0.33427277}
{-0.33184716}
{-0.83890617}
{0.7392849}
{-0.2518388}
{-0.10364875}
{-0.3960989}
{-0.49818167}
{1.0363953}
{0.6248749}
{0.2406922}
{-0.8326653}
{0.2776973}
{-0.64535934}
{0.6473188}
{-0.2588738}
{-0.49461615}
{-0.92394555}
{-0.025662243}
{-0.9883908}
{-0.35774183}
{-0.75936794}
{-0.6661039}
{-0.75350535}
{1.0260293}
{-0.821111}
{-0.27321345}
{0.7258488}
{0.86258984}
{-0.3921516}
{0.031812474}
{0.099095486}
{-0.33943143}
{0.577856}
{-0.2017477}
{-0.2795728}
{0.28613502}
{0.62198}
{0.56570965}
{-0.9642757}
{-0.738523}
{-0.72914535}
{0.7104036}
{0.26474825}
{0.29617104}
{-0.2896087}
{-0.24318102}
{0.003982451}
{-0.083911836}
{-0.5701136}
{0.36971053}
{-0.8009521}
{0.11352479}
{-1.0157336}
{0.31991813}
{0.39179125}
{0.13661355}
{0.43207198}
{0.6861345}
{0.6606821}
{0.46673495}
{-0.9275111}
{-0.5781802}
{0.02397814}
{0.6638772}
{0.86019176}
{-0.58940333}
{-0.4479359}
{-0.8412142}
{-0.11697229}
{0.38160616}
{-0.5218178}
{0.7303636}
{0.5419153}
{0.0731701}
{-0.98821914}
{0.48303297}
{-0.6917395}
{0.29352182}
{-0.63494766}
{0.21543561}
{-0.42207932}
{0.07232194}
{0.5170497}
{-0.72439086}
{-0.18740922}
{-0.807777}
{0.7684616}
{0.084188096}
{0.15362509}
{-0.22248626}
{-0.031073663}
{0.2403902}
{-0.78730804}
{0.4333801}
{0.62219703}
{0.69863313}
{-0.3543133}
{0.23629646}
{0.20201865}
{-0.21261956}
{-0.8282912}
{-0.95337605}
{0.55056036}
{1.0041745}
{0.22725552}
{0.26848397}
{-0.54808915}
{-0.5123192}
{0.934894}
{-0.87891424}
{-0.42124376}
{-0.7006476}
{-0.12606554}
{-0.6046213}
{-0.80482876}
{0.83466095}
{-0.14220007}
{0.30875605}
{-0.032952163}
{0.07065989}
{0.4780496}
{0.8261784}
{0.86758506}
{0.012735622}
{-0.83448815}
{-0.5771755}
{0.66296065}
{0.09602341}
{0.0713179}
{0.85487336}
{0.9136597}
{-0.8211404}
{0.056605533}
{0.19671121}
{-0.6449486}
{0.32435197}
{0.39503598}
{-0.8970196}
{-0.830407}
{-0.91161984}
{0.5689361}
{0.53381807}
{0.045617964}
{0.021817015}
{-0.1247129}
{-0.8065536}
{0.26504365}
{0.51510745}
{0.34949484}
{0.09568818}
{0.8436755}
{0.9965919}
{-0.8095348}
{0.8954155}
{-0.62628376}
{0.5454603}
{0.65824586}
{0.11176911}
{-0.25395045}
{-0.60997313}
{0.15247539}
{-0.5719595}
{-0.53954494}
{0.5477934}
{0.2178383}
{-0.8946234}
{0.6629101}
{-0.7810575}
{-0.88259816}
{-0.8367221}
{-0.059898466}
{0.749348}
{-0.9766595}
{0.6407111}
{0.050808813}
{0.38677752}
{0.4078068}
{0.88709575}
{-0.17825422}
{0.029063875}
{-0.59744394}
{-0.5261117}
{-0.81344736}
{0.57359445}
{-0.1327992}
{-0.3521726}
{0.70929325}
{-0.28130564}
{0.45928437}
{-0.514209}
{0.39919892}
{-0.057882305}
{-0.09895947}
{0.49928334}
{0.1970109}
{-0.22299005}
{-0.21583007}
{0.68438345}
{0.39649525}
{-0.02211347}
{-0.55774754}
{0.23383383}
{-0.34811768}
{0.9428526}
{-0.51649475}
{-0.75072175}
{-0.48017177}
{0.37495965}
{-0.031885542}
{0.81260747}
{0.28056803}
{-0.11552746}
{-0.57384145}
{0.61237794}
{-0.60707986}
{0.51524687}
{0.21805887}
{0.5216651}
{-0.8322443}
{0.2576912}
{-0.19231816}
{0.66171116}
{0.22810093}
{-0.31356722}
{-0.061180525}
{0.25174427}
{0.21439806}
{0.94270307}
{-0.66005445}
{0.49327427}
{-0.24810514}
{-0.335771}
{0.9195338}
{-0.98090786}
{0.03791013}
{0.47838604}
{0.631711}
{0.7840117}
{-0.8191446}
{-0.5940508}
{0.855013}
{-0.41954303}
{0.54900277}
{-0.83253294}
{0.16920736}
{0.6270855}
{0.89435875}
{-0.36832264}
{-0.5227923}
{0.6441282}
{0.43543783}
{0.68710244}
{-0.34419414}
{0.6393813}
{0.8592619}
{0.25511402}
{0.6787459}
{-0.445676}
{0.8744339}
{0.50614125}
{0.79522043}
{0.2769629}
{-0.2352787}
{-0.7505706}
{0.17050639}
{0.5342028}
{-0.23174724}
{0.87383425}
{-0.3921692}
{0.07222874}
{0.04797354}
{-0.67010754}
{0.16013137}
{0.3192165}
{0.95197}
{0.81820995}
{-0.5721712}
{0.2505225}
{0.43161097}
{0.14219622}
{-0.83155006}
{0.61220354}
{-0.35087952}
{0.80009776}
{0.53889275}
{-0.9164132}
{-0.96691763}
{-0.84123075}
{0.8706589}
{0.15260898}
{0.3516504}
{-0.7713461}
{-0.04326026}
{-0.1432577}
{0.83523214}
{0.07894904}
{0.7939909}
{0.2951933}
{0.34269515}
{0.15209591}
{-0.65306777}
{-0.10837021}
{-0.22835526}
{-0.905482}
{-0.2661301}
{0.45558316}
{-0.41194448}
{0.8716255}
{-0.7376949}
{-0.62595373}
{0.038002636}
{-0.10753952}
{-0.01571738}
{0.46520352}
{-0.8877934}
{-0.0605639}
{0.42844442}
{0.47273937}
{0.5287856}
{0.047137566}
{0.7227803}
{-0.5277267}
{0.5502714}
{0.95852435}
{0.65026057}
{0.24689797}
{0.7624835}
{-0.10443307}
{-0.16812406}
{-0.74047416}
{0.97772396}
{-0.394866}
{0.5641}
{-0.16135675}
{-0.8562015}
{0.36469692}
{0.5844508}
{-0.15854281}
{0.3560597}
{-0.4896777}
{-0.86383724}
{-0.70056796}
{-0.6766678}
{0.48546404}
{-0.36502337}
{0.2296275}
{-0.8031107}
{0.14009021}
{0.9723798}
{0.2362596}
{-0.94532573}
{-0.9561412}
{0.7993704}
{0.6521611}
{-0.28693303}
{-0.4225017}
{-0.07602472}
{-0.20430002}
{-0.879583}
{-0.064382695}
{-0.4499102}
{-0.2309966}
{0.50452006}
{-0.031331558}
{-0.11941686}
{-0.64949816}
{-0.79394186}
{-0.08406095}
{-0.20428236}
{0.1709337}
{-0.5433644}
{0.29349235}
{-0.23577395}
{0.83373326}
{0.10533514}
{-0.51565444}
{-0.6932901}
{-0.7439804}
{0.509657}
{0.32463053}
{0.28486273}
{-0.5411254}
{0.60862434}
{-0.7986172}
{-0.66846114}
{-0.300231}
{0.20466319}
{0.3693935}
{-0.0064436346}
{1.0292759}
{-0.73125494}
{-0.045951445}
{-0.5482744}
{-0.5248087}
{0.99868286}
{-0.34890085}
{-0.9885665}
{-0.023330407}
{-0.78037775}
{0.082119726}
{-0.59826124}
{0.36699724}
{0.7158402}
{-0.76441985}
{0.6046359}
{0.38325676}
{-0.9769503}
{-0.25602326}
{-1.0654429}
{0.53324246}
{0.9333688}
{0.7925482}
{0.73415947}
{-0.7269252}
{0.08759298}
{-0.63772845}
{0.20435105}
{0.908769}
{0.12949887}
{-0.020192193}
{0.67063147}
{0.45957127}
{0.9547266}
{-0.39053896}
{-0.41489333}
{-0.8434567}
{0.91254413}
{0.006753017}
{-0.61576295}
{0.64286286}
{-0.77178085}
{-0.9424127}
{0.54843354}
{0.88302296}
{-0.27949676}
{0.8948365}
{-0.36496502}
{0.16332869}
{0.07702031}
{0.70369697}
{-0.98497635}
{-0.7536005}
{-0.9940244}
{0.32752356}
{-0.5835576}
{0.09428921}
{-0.5941137}
{0.6384567}
{0.21406436}
{0.7043989}
{0.9511765}
{-0.81739897}
{-0.8018171}
{0.19219464}
{0.87114084}
{-0.703865}
{-0.95758384}
{-0.12399855}
{0.08836212}
{-0.42915097}
{-0.27159956}
{0.33331758}
{-0.85461915}
{0.72754043}
{-0.4930898}
{-0.52699697}
{-0.03530893}
{-0.18847553}
{0.055155113}
{-0.5033652}
{-0.030229423}
{0.36129916}
{-0.30784005}
{0.2060624}
{0.38625184}
{0.82804596}
{0.89729893}
{0.21750562}
{0.7444767}
{0.11556052}
{0.16724725}
{-0.29652348}
{0.84546053}
{0.96262455}
{-0.47697437}
{-0.61548376}
{-0.9675926}
{0.9385275}
{0.12755728}
{-0.9582529}
{-0.34413442}
{-0.33344537}
{-0.22001323}
{-0.9716575}
{-0.738485}
{0.12911703}
{0.59450024}
{0.32087058}
{-0.29356965}
{-0.73821884}
{-0.09206126}
{-0.5641557}
{-0.5480372}
{0.10817345}
{0.8570144}
{0.40600613}
{-0.92237794}
{-0.62562954}
{-0.13457489}
{0.28991783}
{0.5515412}
{0.7807856}
{-0.47445196}
{0.91610694}
{0.17766681}
{0.21381527}
{-0.31572264}
{-0.19121136}
{0.34778848}
{-0.14518385}
{-0.38050172}
{-0.74669844}
{-0.10695014}
{-0.7482423}
{-0.8885847}
{-0.6455555}
{0.14311233}
{0.3849181}
{-1.1100967}
{0.6701356}
{-0.97336996}
{0.7038635}
{0.44502467}
{0.99611074}
{0.57873094}
{-0.41032216}
{-0.9803503}
{0.5022231}
{0.5444747}
{0.8938176}
{-0.80739945}
{-0.89650524}
{0.8539325}
{-0.28758055}
{0.06774689}
{-0.91565645}
{0.15136757}
{-0.5594233}
{-0.056714416}
{0.021491485}
{-0.44416818}
{-0.899138}
{-0.7502075}
{-0.7457939}
{-0.64647114}
{0.37288517}
{0.36528707}
{0.37131825}
{-0.28107557}
{-0.5450811}
{-0.65824956}
{0.7204248}
{0.91192806}
{0.16871755}
{-0.77023447}
{1.0229257}
{0.6956521}
{0.5446606}
{-0.8328748}
{0.25383276}
{-0.7046782}
{0.7076566}
{-0.70183945}
{0.93807757}
{-0.42446312}
{-1.0615915}
{-0.0852058}
{0.91705775}
{0.1523191}
{0.6718969}
{0.42528114}
{-0.29908723}
{0.3495113}
{0.95734686}
{-0.5603778}
{-0.0540862}
{-0.69709074}
{-0.744542}
{0.043126777}
{0.21903847}
{-0.90097225}
{0.32986033}
{0.75953215}
{-0.7971151}
{0.7923063}
{0.39878663}
{0.13351882}
{0.19414233}
{-0.38752303}
{0.8805697}
{-0.014266037}
{0.3726738}
{0.038092997}
{-0.23385799}
{0.49694368}
{-0.85910356}
{-0.93337977}
{0.96612483}
{-0.02925153}
{-0.69355124}
{-0.25123152}
{-0.63538146}
{0.26136544}
{-0.10437407}
{-0.454815}
{-0.2837556}
{0.86270267}
{0.1296289}
{-0.10852752}
{-0.76467067}
{0.32853454}
{1.0032932}
{-0.47944555}
{0.80686045}
{-0.49181342}
{0.0414693}
{-0.78281057}
{0.27766055}
{-0.15541314}
{0.8529712}
{0.5352286}
{-0.06336209}
{-0.62197065}
{-0.33084175}
{0.78499377}
{0.33637276}
{0.631674}
{-0.58211195}
{-0.23971161}
{0.55174375}
{-0.569437}
{-0.40715143}
{0.8362254}
{-0.64280343}
{-0.6254756}
{0.54689246}
{0.9964322}
{0.31294954}
{-0.077304356}
{-0.26086867}
{-0.95941675}
{-0.6881086}
{0.10328391}
{0.05500492}
{0.35731998}
{-0.5302245}
{0.81837714}
{0.9684814}
{0.55574834}
{-0.25147647}
{-1.0761834}
{-0.5867657}
{-0.36375245}
{-0.31630346}
{-0.0025258}
{-0.60304004}
{-0.13969693}
{0.1416712}
{0.745334}
{0.38040528}
{0.44280067}
{-0.1589402}
{0.5026155}
{0.97949344}
{-0.59626806}
{0.50172174}
{-0.18162335}
{-0.35049486}
{0.9246837}
{0.8577094}
{-0.7473029}
{-0.036029205}
{0.48488918}
{0.3033558}
{-0.42179745}
{0.25763157}
{0.27988854}
{0.68106145}
{-0.6956153}
{0.2961449}
{0.7469572}
{0.22423157}
{0.6425262}
{0.19540377}
{-0.659834}
{-0.25675815}
{-1.0500231}
{0.03557416}
{-0.19981417}
{0.22851868}
{0.1240989}
{-0.25495338}
{0.22988668}
{0.069768935}
{-0.42969972}
{0.5651481}
{0.2623333}
{-0.36053583}
{0.47546753}
{0.32614946}
{0.14451852}
{-0.58680075}
{-0.57650936}
{0.9079834}
{0.44361487}
{-0.04266325}
{0.96064407}
{-0.53933734}
{0.5635048}
{0.4267739}
{0.08893567}
{0.8290881}
{0.22703782}
{-0.8785763}
{0.30263728}
{0.37984625}
{0.01734152}
{0.6032095}
{-0.5694648}
{0.2361603}
{0.7618133}
{-0.25956455}
{0.86336064}
{-0.47724771}
{0.07486119}
{0.4005209}
{0.5659989}
{0.4928837}
{-0.84412897}
{-0.059174843}
{-0.12482984}
{-0.19865182}
{-0.31468615}
{0.40580183}
{-0.5773366}
{0.6579445}
{-0.15964112}
{0.72141147}
{-0.4323019}
{-0.94838524}
{0.41494074}
{-0.5885243}
{-0.4704777}
{1.0246149}
{0.24024883}
{0.3401934}
{-0.9571075}
{-0.1372621}
{0.33081546}
{0.43872353}
{-0.64151645}
{-0.4662944}
{-0.5629672}
{-0.8686824}
{-0.27302623}
{0.47857276}
{-0.18638548}
{-0.0073512476}
{0.06265609}
{0.22451197}
{0.5713664}
{-0.36335996}
{0.3357211}
{-0.86346185}
{0.85086024}
{-0.16065025}
{-0.5687395}
{0.6973472}
{-0.8127512}
{-0.5490424}
{-0.4984064}
{0.7184849}
{0.26527944}
{-0.74979126}
{-0.61541903}
{0.9041852}
{-0.97585785}
{-0.5024386}
{-0.75061536}
{0.59422517}
{0.54224813}
{-0.46097293}
{0.69778377}
{-0.27648783}
{-0.0754231}
{0.31856865}
{-0.557801}
{0.34073398}
{0.13529792}
{-0.42732885}
{-0.14081982}
{-0.42295077}
{-0.7739068}
{-0.5950341}
{-0.84477}
{1.0509535}
{0.7626771}
{0.5198157}
{-0.56797403}
{0.37910315}
{0.9523996}
{0.03611875}
{0.70957774}
{0.4871419}
{-0.66605175}
{0.53366435}
{0.572112}
{-0.2912346}
{-0.3336211}
{-0.036971357}
{-0.92712283}
{0.08555343}
{0.4354228}
{0.2201103}
{0.89219755}
{0.0053834934}
{0.52251875}
{-0.2619268}
{-0.490674}
{-0.23211516}
{0.19226113}
{-0.32852837}
{0.1559249}
{-0.13518341}
{-0.6808926}
{-0.44614258}
{0.53149563}
{-0.7633335}
{-0.7065693}
{0.7020547}
{-0.3313859}
{-0.5926846}
{-0.7384535}
{-0.37261066}
{-0.8048889}
{-0.6896042}
{0.62368953}
{0.08374543}
{-0.65891355}
{0.5078259}
{0.5746132}
{-0.6996906}
{0.95816064}
{-0.83204424}
{0.65201795}
{-0.73067147}
{-0.9393176}
{-0.80510896}
{0.635244}
{-0.18675828}
{0.62605166}
{0.69278646}
{-0.95187604}
{-0.4270398}
{-0.22308671}
{-0.764332}
{0.950997}
{-0.8442919}
{-0.017190736}
{0.41710356}
{-0.33706507}
{-0.3949897}
{0.017645044}
{-1.0161736}
{-0.947436}
{0.36758354}
{-0.896886}
{-0.16151327}
{0.36141363}
{0.33382538}
{0.058698606}
{-0.7965065}
{-0.48773035}
{-0.50618285}
{-0.91461456}
{0.1705086}
{0.9519726}
{0.81837195}
{0.27057844}
{0.4481528}
{-0.8474573}
{0.93876165}
{0.55473816}
{-0.27551073}
{-0.387251}
{-0.24717952}
{-0.23254587}
{-0.18108632}
{-0.66878474}
{1.0155866}
{0.5721445}
{0.8979269}
{0.9611052}
{-0.11563135}
{-0.63381803}
{0.16315934}
{-0.14079198}
{0.044331998}
{-0.47859833}
{-0.64317113}
{0.12145057}
{0.47741088}
{-0.36574498}
{-0.4775008}
{-0.014979932}
{0.17006628}
{0.014775293}
{0.21850257}
{-0.34503302}
{-0.5529819}
{-1.0010282}
{-0.866779}
{0.5696293}
{-0.33214298}
{0.47670457}
{0.72247744}
{-0.13553008}
{-0.65233225}
{-0.65785754}
{0.46024594}
{0.72692955}
{-0.80269676}
{0.31083423}
{-0.41586617}
{-0.30966362}
{0.12939082}
{0.09927945}
{0.045907874}
{-0.9676758}
{0.47589844}
{0.25521013}
{-0.7789606}
{-0.36259088}
{0.85320103}
{-0.8314656}
{-0.5832904}
{0.53279984}
{-0.18614592}
{0.920668}
{-0.5562796}
{-0.3855165}
{-0.6976318}
{-0.18848369}
{0.11273733}
{-0.61395633}
{0.7910744}
{0.26611978}
{-0.24854873}
{0.8442565}
{-0.49947688}
{-0.6456782}
{-0.3485531}
{-0.34715685}
{0.4200116}
{-0.32926866}
{-0.59913135}
{0.8214234}
{0.89202166}
{-0.54294944}
{0.9641909}
{-0.59184325}
{0.23575059}
{0.5591851}
{-0.33509606}
{-0.44269857}
{0.9729612}
{0.7389443}
{0.8798389}
{0.78525054}
{0.19950657}
{-0.77099615}
{-0.91198367}
{-0.71834266}
{0.8619}
{-0.28681698}
{0.75237703}
{-0.6953374}
{0.3770399}
{0.8548687}
{-0.08540355}
{0.17663279}
{-0.3363928}
{0.14214519}
{-0.0026388823}
{-0.08061013}
{0.91902584}
{-0.07037947}
{0.36444652}
{0.5505775}
{0.47195566}
{1.0185409}
{0.23821038}
{0.5310484}
{-0.8434323}
{0.31110182}
{0.048597533}
{-0.9521276}
{-0.89579487}
{-0.049059235}
{1.0561384}
{0.15046707}
{-0.3570974}
{-0.44706327}
{0.6190854}
{-0.79783475}
{-0.39089608}
{-0.79562545}
{-0.79827386}
{0.2719628}
{0.10946006}
{0.73794127}
{0.30168745}
{-0.863706}
{0.062737085}
{-0.7857958}
{0.21800457}
{-0.069957115}
{0.73076373}
{-1.1053168}
{0.508043}
{-0.47168502}
{-0.2660625}
{0.59624434}
{0.7449314}
{-0.18723068}
{0.7296367}
{0.7275598}
{-0.24478395}
{-0.023802135}
{-0.3122696}
{0.6535342}
{0.85506415}
{-0.30859503}
{-0.75235933}
{-1.1759481}
{0.6008824}
{-0.04676423}
{0.9662609}
{-1.1603622}
{0.661567}
{-0.69606745}
{-0.50684667}
{0.23146178}
{0.36045069}
{-0.7900857}
{0.511098}
{0.0010475324}
{0.82062757}
{-0.26415095}
{0.53172266}
{-0.4140621}
{0.06224396}
{-0.94478905}
{-0.64319533}
{-0.52872777}
{0.8709782}
{-0.71286285}
{-0.20175259}
{-1.0205728}
{0.84652483}
{-0.09241495}
{0.39246592}
{-0.2930195}
{0.40387383}
{-0.98453605}
{-0.25044316}
{-0.38478902}
{-0.62250817}
{0.8622185}
{0.52737856}
{-0.81009585}
{0.06869842}
{0.89797866}
{0.6908244}
{0.6294268}
{-0.45405206}
{-0.47382268}
{-0.80032986}
{0.55312735}
{0.8090239}
{-0.85773814}
{0.4708466}
{0.2535328}
{-0.5095449}
{0.6284417}
{-0.41558504}
{-0.42241412}
{0.4178369}
{-0.22425184}
{-0.17284928}
{-0.13940974}
{-0.55383104}
{-0.58516204}
{-0.71776533}
{-0.7021669}
{0.42849505}
{0.4821991}
{-0.9893711}
{-0.7614784}
{0.9046866}
{-0.7967254}
{-0.31227788}
{0.598417}
{-0.079425}
{0.41189423}
{-0.63602674}
{0.33953807}
{0.18823083}
{-0.84508765}
{0.3412428}
{0.65406656}
{-0.5677113}
{-0.91879404}
{0.58580667}
{0.52282834}
{0.62091213}
{-0.52494633}
{0.61762446}
{-0.299645}
{0.90042603}
{0.9346024}
{0.23833655}
{-0.27614897}
{0.13571078}
{-0.36889395}
{-0.63316715}
{-0.405995}
{0.35983714}
{0.2897052}
{0.14439666}
{0.6757067}
{-0.7697103}
{-0.43999395}
{-0.21246679}
{-0.5913408}
{0.78082496}
{0.86885226}
{0.05724639}
{-1.0717337}
{0.40125236}
{0.9541389}
{1.0371237}
{-0.1330847}
{-0.35092995}
{0.4413263}
{-0.45268056}
{0.007463993}
{0.51781106}
{-0.19267568}
{0.40648353}
{0.07600671}
{-0.8908103}
{0.5738028}
{-0.3677447}
{0.677223}
{0.3099606}
{0.6378349}
{-0.9113198}
{-0.9694473}
{0.84820026}
{0.60243356}
{-0.2724525}
{0.5575747}
{-0.8315806}
{-0.6987072}
{-0.20282425}
{-1.0388783}
{0.19038104}
{-0.9377605}
{-0.10454346}
{0.16357675}
{-0.318996}
{0.019719984}
{-0.59189355}
{-0.44356093}
{-0.5959624}
{0.02311292}
{0.20214768}
{-0.1878373}
{0.54203874}
{-0.91519105}
{0.28066695}
{-0.0021497707}
{-0.8452349}
{0.6234578}
{0.68027294}
{-0.49953035}
{0.23673983}
{-0.06176457}
{-0.18395865}
{-0.15311666}
{0.65726674}
{0.50018775}
{0.3314082}
{0.5542665}
{0.06016745}
{-0.15085825}
{0.6219388}
{-0.37746125}
{-0.3835168}
{0.4660205}
{-0.9387916}
{-1.1404216}
{1.0017992}
{0.55373394}
{0.70769393}
{-0.40473616}
{0.6014749}
{0.015453007}
{-0.5936474}
{-0.14619023}
{0.6731813}
{-0.5985383}
{0.06533985}
{-0.7999346}
{-0.45493376}
{-0.037649725}
{-0.93874764}
{0.91659015}
{-0.29742014}
{-0.76894104}
{0.9384454}
{0.42950508}
{0.06707826}
{-0.5074779}
{0.650323}
{0.3251053}
{0.81017643}
{0.04187956}
{-0.51583797}
{-0.73754805}
{0.36828682}
{-0.54397285}
{-0.48395094}
{-0.88346267}
{0.05880939}
{0.43388334}
{0.876275}
{0.17869389}
{0.6321134}
{-0.47257552}
{-0.6254668}
{-0.19000298}
{0.41200662}
{-0.37731346}
{0.48016083}
{-0.04341326}
{0.6060929}
{-0.2892798}
{-0.48109725}
{0.281856}
{-0.18128091}
{-0.35766682}
{-0.042542815}
{0.8903584}
{-0.11003069}
{-0.31724414}
{-0.3320587}
{-0.6542754}
{0.19641072}
{-0.29609713}
{0.6905402}
{-0.74531627}
{0.085263886}
{0.3314065}
{0.3757583}
{-0.81989765}
{0.7105079}
{0.4388322}
{0.3622401}
{0.07104767}
{0.206288}
{-0.45018134}
{-1.0280846}
{-1.0375106}
{0.88364476}
{-0.66145265}
{0.8863334}
{0.18853964}
{0.9044896}
{0.4719979}
{-0.19471936}
{0.109333605}
{-0.5753097}
{-0.3663536}
{-0.044447463}
{0.057419743}
{0.8639695}
{0.34754196}
{0.41603893}
{-0.51358694}
{0.71829575}
{-0.43098745}
{-0.18039721}
{0.34415606}
{0.13648202}
{-0.055461973}
{-0.65385425}
{-0.66414577}
{-0.66767687}
{0.48235932}
{-0.99191993}
{-0.4370446}
{0.43402487}
{-0.96903336}
{0.99360836}
{-0.60286766}
{-0.6578583}
{0.51615775}
{-0.93900853}
{0.6029156}
{-0.38981995}
{0.6106912}
{0.5537383}
{0.5933981}
{-0.6074523}
{0.31603375}
{-0.45836204}
{0.20258604}
{0.9543981}
{-0.15194997}
{0.4696932}
{0.021386644}
{0.44857472}
{0.52710354}
{0.5631275}
{0.27734676}
{0.22628406}
{0.15656129}
{-0.6253272}
{-0.3494292}
{0.013970916}
{0.6056541}
{-0.40983313}
{0.37914556}
{0.2665639}
{-0.17146382}
{0.10001318}
{-0.124170005}
{0.40101898}
{-0.1569744}
{-0.090112776}
{-0.80907977}
{-0.8475243}
{-0.31426606}
{0.09172516}
{-0.7803913}
{-0.39600018}
{-0.114282236}
{-0.6347616}
{0.68729943}
{0.24427038}
{-0.9464425}
{0.98888534}
{-0.0859287}
{-0.098033465}
{-0.55152214}
{-0.15239055}
{0.9837189}
{-1.0209914}
{0.5997447}
{-0.8226462}
{0.026681028}
{-0.068470016}
{0.7497715}
{0.55149984}
{0.36853686}
{0.56314045}
{-0.10722337}
{0.33564037}
{0.37247813}
{0.8087314}
{-0.5293931}
{0.21236898}
{-0.9756847}
{-0.4962442}
{-0.582034}
{-0.47406587}
{-0.9847655}
{-0.35272598}
{-0.88194954}
{0.12136174}
{0.47004652}
{-0.4955967}
{-0.17727908}
{-0.41771954}
{-0.17247306}
{0.4882188}
{0.94563186}
{0.5778392}
{0.22067384}
{-0.11950714}
{0.27435508}
{-0.2752316}
{-0.35645542}
{0.42248166}
{0.4970945}
{0.9373216}
{0.04252187}
{0.6919986}
{0.4589297}
{0.44947347}
{0.27251807}
{0.80412114}
{0.8189007}
{0.2890103}
{0.37940544}
{1.0066124}
{0.07818856}
{0.7995154}
{-0.9302044}
{-0.037670854}
{0.63615954}
{0.75593776}
{0.6875912}
{-0.21411182}
{-0.6480144}
{0.12469154}
{-1.072719}
{-0.62058806}
{0.2204813}
{-0.105342105}
{0.28425843}
{0.44851112}
{0.8388864}
{-0.2867191}
{0.4964803}
{-0.6246706}
{-0.050888628}
{-0.021787236}
{0.7062955}
{0.61234134}
{-0.08425865}
{-0.7549916}
{0.07820931}
{1.1051266}
{0.6855911}
{-0.83615583}
{0.43086395}
{-0.63307416}
{-0.24512276}
{-0.28767148}
{0.14458099}
{0.21155135}
{-0.20707855}
{-0.43329015}
{-1.0785173}
{-0.75215703}
{-0.7344886}
{-0.92470664}
{0.025412288}
{-0.46024904}
{-0.8105732}
{-0.7003741}
{-0.66825163}
{0.20635259}
{0.5151495}
{0.36075953}
{0.19551755}
{-0.28964064}
{0.8511733}
{0.7616922}
{-0.062894724}
{0.6453737}
{-0.84187496}
{-0.23622534}
{-0.2569357}
{0.7232723}
{0.2211329}
{0.6665955}
{-0.8150033}
{1.0055752}
{-0.1085547}
{0.32500437}
{-0.28724283}
{-0.15796904}
{0.47502342}
{-0.17473541}
{0.6062406}
{0.05860002}
{-0.6209134}
{-0.35333672}
{-0.50783545}
{-0.62649626}
{0.12492814}
{-0.18835114}
{-0.56460726}
{0.097038835}
{0.5641898}
{-0.20123893}
{0.4158319}
{0.56851804}
{0.09927263}
{0.46082127}
{0.45990416}
{0.8771239}
{0.9405681}
{0.90932727}
{0.3607045}
{0.013430519}
{0.8749896}
{0.65062284}
{-0.0750191}
{-0.52673954}
{-0.53857386}
{0.74036705}
{0.017320365}
{-0.34605047}
{-0.26413712}
{0.1737133}
{-0.21490711}
{-0.046870742}
{0.5034994}
{-0.66664624}
{0.47027358}
{-0.24287152}
{0.9420525}
{-0.80635124}
{-0.54957914}
{0.44938946}
{0.67651}
{-0.8712792}
{0.55092716}
{0.8800711}
{0.14978161}
{-0.9588318}
{-0.018720673}
{0.29770792}
{-0.92609966}
{-1.0132258}
{0.70962435}
{-0.33080843}
{-0.43379363}
{-0.5344838}
{0.10992563}
{-0.37721214}
{0.072380684}
{0.21746281}
{0.6249038}
{0.13964322}
{-0.088147976}
{0.73167455}
{-0.23883647}
{-0.7057473}
{-0.09772024}
{0.12683624}
{-0.88897216}
{0.5153723}
{0.6174551}
{-0.9139399}
{-0.32980457}
{0.6018756}
{-0.024226282}
{-0.54068404}
{0.1641635}
{-0.7595571}
{-0.5037874}
{0.44187534}
{0.1604029}
{0.6830433}
{0.9852551}
{-0.035772912}
{-1.0748194}
{0.5587095}
{-0.47820577}
{-0.37163585}
{-0.8294433}
{0.16156721}
{0.103023194}
{-0.75997394}
{0.9288793}
{0.9274244}
{-0.7105886}
{-0.38359362}
{-0.82984364}
{0.12613538}
{-0.89700997}
{0.6935944}
{0.3212242}
{-0.66427857}
{0.9778801}
{-0.05419097}
{0.35482258}
{0.6365105}
{-0.563099}
{0.7136508}
{0.25394645}
{-0.39060023}
{0.71128786}
{0.42305294}
{0.49473983}
{-0.28628}
{0.65651596}
{-0.53402984}
{0.18415911}
{-0.01790416}
{-0.54075205}
{-0.732785}
{-0.23272744}
{-0.8173208}
{-0.2462891}
{-0.5589032}
{-0.82634693}
{-0.48678684}
{-0.6195656}
{-0.87234217}
{0.29493448}
{-0.026764408}
{0.038133767}
{-0.29099047}
{0.08740607}
{0.55072826}
{0.21354976}
{-0.7850721}
{0.07068363}
{0.661792}
{0.43204036}
{-0.05352353}
{-0.6938474}
{0.5721576}
{-0.9656786}
{0.06523428}
{-0.78986686}
{0.4410576}
{-0.376309}
{0.30328774}
{-0.16144349}
{-0.695462}
{-0.22229037}
{-0.53939986}
{-0.08505659}
{-0.7232852}
{0.25668374}
{-0.95775545}
{0.6787302}
{-0.32570735}
{0.7107967}
{0.51380795}
{0.6005668}
{-0.20388758}
{-0.63188136}
{-0.4879808}
{0.5030707}
{0.3830072}
{0.81300294}
{0.6633846}
{0.15300727}
{-0.9905905}
{0.15372387}
{-0.69478595}
{0.44884127}
{-0.042581808}
{0.4143652}
{-0.98570466}
{-0.50207996}
{0.7024816}
{-0.6319274}
{-0.9890152}
{-0.16414449}
{-0.44435167}
{0.30202618}
{-0.36891672}
{0.79910034}
{-0.46395895}
{-0.08455811}
{-0.937516}
{0.35214102}
{-0.73970306}
{-0.99725306}
{0.12861475}
{-0.17482801}
{0.21653934}
{-0.8436576}
{0.6987077}
{0.19857188}
{-0.05171339}
{-0.60078156}
{0.59492743}
{-0.12501374}
{-0.5637664}
{-0.7207488}
{0.017923381}
{-1.154955}
{0.4235984}
{-0.7733127}
{0.16525605}
{0.29669416}
{0.4426003}
{0.69146097}
{0.059542686}
{0.279369}
{0.29538935}
{0.058924578}
{-0.19120315}
{-0.30730706}
{-0.2148353}
{0.45510164}
{0.5548664}
{-0.5071203}
{0.573053}
{0.1424047}
{0.8780668}
{-0.0905615}
{-0.32583246}
{-0.4978035}
{0.4995507}
{-0.17591}
{0.8175707}
{-0.57011354}
{0.6670106}
{0.1801282}
{-0.7948874}
{0.15234652}
{0.887598}
{-0.95026195}
{0.8641068}
{-0.42593536}
{-0.13989507}
{0.083304405}
{0.25061375}
{-0.6093551}
{0.9141717}
{0.49565053}
{0.63126767}
{0.01890793}
{0.5722457}
{-0.7233353}
{-0.6416658}
{0.5075284}
{-0.93404895}
{-0.52781916}
{0.99023217}
{0.25246802}
{-0.4418955}
{0.40635714}
{-0.69407135}
{0.18453875}
{0.90460503}
{0.6560385}
{0.08011215}
{0.7647022}
{-0.25797573}
{-0.058113284}
{0.18399584}
{-0.90088403}
{-0.53630644}
{0.39853096}
{-0.7415038}
{0.44566694}
{0.39494413}
{0.37095642}
{-0.16205257}
{-0.5145129}
{-0.15103796}
{-0.90516025}
{-0.624332}
{0.83423555}
{0.69014704}
{0.15830457}
{-0.9229509}
{0.66008866}
{-0.3460987}
{0.03580743}
{0.7963356}
{-0.4441069}
{-0.9443952}
{-0.062341504}
{0.49459085}
{0.273909}
{-0.9317294}
{0.42355368}
{0.85066456}
{-0.3223742}
{0.3635653}
{-0.3756757}
{0.47795102}
{-0.23548731}
{0.67766863}
{-0.8894863}
{0.9416015}
{0.02002659}
{-0.653652}
{-0.32627648}
{0.57333916}
{0.5530757}
{0.25119567}
{0.27806893}
{-0.38114354}
{0.9459516}
{0.00979405}
{-0.60946196}
{0.15448146}
{-0.8315898}
{0.8813929}
{-0.9346274}
{-0.35278252}
{-0.4853526}
{-0.9161518}
{0.739077}
{-0.43428242}
{0.084732436}
{-0.39582026}
{-0.6806517}
{-0.54120976}
{-0.27336082}
{0.22301547}
{-0.878489}
{0.3806354}
{0.9618696}
{0.08415219}
{0.37669894}
{-0.42739907}
{0.38101426}
{-0.91601706}
{-0.84448254}
{1.192203}
{0.40637842}
{-0.7029405}
{-0.52839696}
{-0.28464642}
{-0.7336999}
{-0.7500476}
{-0.14188235}
{-0.11932582}
{-0.8526982}
{-0.883234}
{0.6058112}
{0.709113}
{0.052187588}
{-0.6465398}
{0.44766697}
{0.60357815}
{-0.63675034}
{0.93609977}
{-0.7233998}
{-0.3005997}
{-0.3553246}
{-0.0029375309}
{-0.6429848}
{1.0089177}
{0.54716456}
{0.11672274}
{-0.8360047}
{-0.6668938}
{0.23206392}
{-0.0295073}
{-0.6572509}
{0.9858316}
{0.4968816}
{-0.03404102}
{0.13203469}
{-0.02357161}
{0.19261947}
{0.5989461}
{-0.1972299}
{-0.77857095}
{0.50167453}
{0.28746718}
{-0.96191704}
{0.6245977}
{0.6565443}
{0.041544728}
{-0.014051699}
{0.15013044}
{-0.058955997}
{0.8375934}
{0.43893147}
{0.00530422}
{-0.42140898}
{-0.21452148}
{-0.60295045}
{-0.58977056}
{-0.76518404}
{-0.8008225}
{0.60735637}
{0.4258721}
{0.215511}
{-0.9037978}
{-0.47599673}
{-0.07926198}
{-0.2676538}
{0.7341855}
{-0.09698237}
{0.04556248}
{-0.1689876}
{0.61610705}
{-0.7762843}
{0.25511366}
{0.3836471}
{0.7440476}
{-0.17537622}
{0.75781953}
{-0.43906984}
{0.4271842}
{0.004999778}
{-0.9455752}
{0.67169535}
{-0.75536203}
{-0.13843864}
{-0.7097304}
{-0.90611947}
{-0.12509267}
{0.318291}
{-0.13454731}
{0.94239676}
{-0.63808686}
{-0.78073376}
{0.52852374}
{0.11973896}
{0.86510414}
{0.6823413}
{0.35170162}
{0.81720054}
{-0.14201389}
{-0.14545088}
{-0.69852847}
{-0.07024894}
{0.81546503}
{0.7201451}
{0.8714988}
{-0.93148816}
{-0.29703447}
{0.0254285}
{0.9842726}
{-0.36673483}
{0.5575281}
{-0.59863997}
{-0.7399656}
{-0.83007824}
{0.7852529}
{-0.15618612}
{-0.2275606}
{-0.73258126}
{0.59029204}
{0.14074384}
{-0.036389954}
{-0.20767197}
{-0.9008421}
{0.16751665}
{-0.47267467}
{-0.9799918}
{-0.024526443}
{0.24525149}
{-0.688894}
{-0.9341999}
{0.6753467}
{0.46569893}
{0.26880923}
{0.23690262}
{0.51255053}
{-0.752335}
{-0.0408666}
{-0.7106823}
{-0.13894124}
{-0.46158153}
{0.77407485}
{0.088506125}
{0.5667008}
{0.5746395}
{0.34076428}
{0.91120327}
{-0.39277297}
{-1.1135088}
{0.77164304}
{-0.08133159}
{0.28557345}
{-0.2787784}
{-0.47252187}
{0.0013743904}
{-1.0243955}
{-0.19233625}
{-0.261921}
{-0.21304092}
{-0.6480374}
{0.7885366}
{-0.2539916}
{-0.39497933}
{0.16753191}
{0.50632346}
{-0.4223339}
{-0.48410067}
{-0.58621234}
{-0.622082}
{0.18110128}
{-0.49493894}
{-0.52171904}
{-0.16072378}
{-0.044115584}
{-0.7684206}
{0.13221776}
{-0.5912944}
{-0.23053338}
{0.19012561}
{0.88074577}
{0.48252916}
{0.42917684}
{0.9916903}
{-0.56301636}
{-0.97975653}
{0.37190154}
{0.938372}
{0.95307416}
{-0.2590497}
{0.6523661}
{0.17337766}
{0.49450648}
{0.21503113}
{-0.5474942}
{-0.7025436}
{-0.16845265}
{-0.77316874}
{-0.19672136}
{0.9010061}
{0.1028729}
{-0.75984323}
{-0.37154302}
{-0.010379646}
{0.37742728}
{-1.0734137}
{0.36418995}
{-0.47098526}
{-0.7062714}
{0.7245538}
{0.29579893}
{-0.71373427}
{-1.0347978}
{-0.9349065}
{-0.0827535}
{-0.24472412}
{-0.18865009}
{0.51334494}
{-0.50719035}
{0.6095778}
{0.6116214}
{-0.46797857}
{0.60757595}
{-0.48135242}
{0.33688432}
{-0.5337555}
{1.0584015}
{0.8981327}
{-0.70913774}
{-0.36993325}
{-0.5864205}
{-0.7687763}
{-0.77106375}
{0.55715954}
{0.25279287}
{0.38584295}
{-0.8622089}
{0.3123291}
{0.10116134}
{0.44545236}
{0.26727518}
{-0.21686709}
{0.28472826}
{-0.48843127}
{-0.9721784}
{-0.09376851}
{0.4703653}
{0.77598774}
{-0.55228513}
{-0.3179488}
{-0.7483215}
{-0.53061926}
{-0.11595431}
{-0.7182883}
{0.5114375}
{0.8917202}
{-0.82851493}
{0.59133565}
{0.5778266}
{-0.08904181}
{0.7789759}
{-0.85454875}
{0.099783}
{0.73622835}
{0.82037884}
{-0.8800021}
{0.115192294}
{-0.32666025}
{0.6467202}
{-0.5276507}
{-0.6498077}
{0.36540785}
{0.22075611}
{-0.12952892}
{0.17746873}
{0.754516}
{-0.8992383}
{-0.8993639}
{0.6328509}
{0.43353954}
{0.73558545}
{-0.10858738}
{-0.7717713}
{-0.41156325}
{-0.41428414}
{-0.6912031}
{0.10882167}
{0.8942479}
{0.42853218}
{-0.4779042}
{-0.21135168}
{-0.37755546}
{-0.95398456}
{0.7447698}
{0.9692802}
{0.05243125}
{0.5835672}
{-0.8069411}
{0.69511825}
{-0.46608576}
{0.11244702}
{0.20200205}
{-0.04781024}
{0.86554825}
{0.28155175}
{0.71238}
{0.62576467}
{-0.8890265}
{0.9646194}
{0.3614293}
{-0.53856057}
{-0.1266149}
{-1.0108675}
{0.5557158}
{0.45828053}
{-0.28133997}
{0.48189554}
{-1.0385439}
{0.5491429}
{0.9264368}
{-0.88531345}
{0.7205777}
{-1.0731342}
{-0.7893106}
{0.75887305}
{-0.2740605}
{0.8451961}
{-0.92858136}
{0.8333768}
{0.41061893}
{0.04416745}
{0.61162174}
{0.716136}
{-0.71934277}
{0.04156246}
{-0.86091983}
{0.7426987}
{0.68694836}
{0.86397237}
{-0.88559186}
{-0.10691378}
{-0.40493798}
{0.98451495}
{-0.44724545}
{0.092881806}
{-1.0513048}
{0.02321142}
{-0.4372984}
{-0.12318499}
{0.3158974}
{-0.38753417}
{0.90239584}
{0.2969284}
{-0.19606718}
{-0.27558726}
{-0.120471336}
{-0.54385}
{-0.94289017}
{0.36918238}
{0.38474193}
{0.72085595}
{0.54274166}
{-0.20477384}
{-0.44227132}
{0.6198776}
{0.6194727}
{0.040253222}
{-0.47854838}
{-0.33742714}
{0.45331237}
{0.21870534}
{-0.7981595}
{0.8766275}
{-1.0068882}
{-0.19796239}
{-0.69180954}
{-0.06632532}
{-0.14732286}
{-0.8287982}
{0.9312264}
{-0.22678009}
{-0.55506885}
{-0.7475652}
{-0.8320323}
{0.62471396}
{-0.09535097}
{-0.10626013}
{-0.4757031}
{-0.88168937}
{0.48692253}
{-0.6561279}
{-0.7894486}
{-0.60515255}
{-0.907076}
{-0.87979}
{-0.051110357}
{0.5743653}
{-0.071021385}
{1.0588913}
{0.22109738}
{-0.2555325}
{-0.080220215}
{-0.48511428}
{-0.75099933}
{0.31316686}
{-0.90852946}
{-0.026877906}
{0.4944524}
{-0.22347572}
{0.44931716}
{0.8585602}
{-0.925172}
{0.4840366}
{0.22617038}
{0.41843623}
{-0.6737515}
{-0.14441933}
{-1.080083}
{1.0027663}
{0.17777148}
{0.8295582}
{0.6744216}
{0.5334934}
{0.93486226}
{0.63154864}
{0.7678178}
{0.34265283}
{0.95028317}
{0.58929354}
{0.44769105}
{-0.89399946}
{0.36000696}
{0.60740894}
{-0.38606963}
{0.21721864}
{-0.7773129}
{0.08582196}
{0.70084214}
{0.7236833}
{-0.6334468}
{-0.7179973}
{-0.09138999}
{0.9421905}
{-0.1304048}
{0.41248426}
{0.18345882}
{0.59863013}
{0.032977965}
{0.67321354}
{-0.1605901}
{0.051052723}
{0.9338118}
{0.69747424}
{-0.31841326}
{0.8468134}
{-0.7830199}
{0.0030816935}
{-0.67237765}
{-0.65394324}
{0.3589324}
{-1.030516}
{0.2972644}
{-0.052698556}
{0.116768025}
{-0.02795925}
{-1.0294845}
{-0.13270038}
{-0.23761448}
{-0.0510765}
{0.17056808}
{-0.96286285}
{0.7223679}
{0.3634128}
{0.6545397}
{-0.39657596}
{0.7725321}
{-0.11457818}
{-0.5732385}
{-0.9471526}
{0.16136065}
{0.11164427}
{0.5537634}
{0.18350662}
{-0.978454}
{0.83558184}
{-0.8516807}
{-0.7818224}
{-0.120029785}
{0.32376274}
{0.6229357}
{0.15183178}
{-0.37632546}
{-0.13633308}
{-0.71016425}
{0.5923211}
{-0.30878648}
{0.02923639}
{0.036104936}
{0.5800678}
{0.54619586}
{-0.928304}
{0.22207142}
{0.6420294}
{0.8635682}
{-0.11826667}
{0.022676606}
{0.07312495}
{-0.2662991}
{-0.04944018}
{0.50102377}
{0.9970353}
{0.78198373}
{-0.65842694}
{-0.20478976}
{0.1425606}
{-0.20064768}
{0.25111598}
{0.5616491}
{-0.74173445}
{-0.6657897}
{-0.33001417}
{0.5077609}
{-0.2931019}
{0.024495747}
{-0.8571543}
{-0.15788662}
{0.7406062}
{-0.74263036}
{0.0417253}
{0.36990672}
{0.59397054}
{0.91262543}
{0.27826226}
{-0.4543763}
{-0.7834886}
{0.51121986}
{-0.5353589}
{0.018819187}
{-0.24810752}
{0.3292407}
{-0.9824508}
{-0.71989447}
{0.4776438}
{0.9296788}
{-0.024199337}
{-0.35004157}
{0.27199313}
{-0.90981925}
{0.81879807}
{-0.75223696}
{-0.07910041}
{0.5561162}
{-0.73933357}
{0.22414206}
{-0.54594547}
{0.9480771}
{-0.25590518}
{0.65117323}
{0.5843485}
{0.8913306}
{-0.8998222}
{0.15745093}
{0.2869246}
{-0.48587498}
{0.3741472}
{-0.7742827}
{-0.37526906}
{-0.5591723}
{-0.47948274}
{0.87084144}
{-0.77890325}
{0.124267004}
{0.55327237}
{-0.11155733}
{-0.9044066}
{0.5258025}
{-0.91688186}
{-0.92267704}
{0.48578686}
{0.9338285}
{0.49450612}
{0.26184806}
{0.5193315}
{0.71829855}
{-0.6875352}
{0.06427668}
{0.29072016}
{-0.2833093}
{0.5106851}
{-0.31408694}
{-0.19497967}
{0.73564136}
{0.20833834}
{0.41517916}
{-0.18734872}
{-0.742828}
{-0.33625367}
{0.47295162}
{-0.05251612}
{-0.26012668}
{-0.11556215}
{0.65373677}
{0.7840393}
{0.993569}
{0.5441674}
{0.17733681}
{0.7364615}
{0.41984668}
{0.14946432}
{0.15725096}
{0.8483681}
{0.04933658}
{0.27375445}
{0.74412}
{-0.9380249}
{0.14600506}
{-0.22578572}
{-0.22265871}
{-0.64557725}
{-0.077208854}
{-0.071969286}
{0.050168596}
{-0.68495977}
{0.7739178}
{0.667326}
{0.4354294}
{-0.652262}
{0.73144543}
{-0.2420761}
{-0.71070135}
{0.13989444}
{-0.8707589}
{-0.2553792}
{0.17929207}
{0.5778837}
{-0.20830283}
{0.13678625}
{0.8602459}
{0.016320579}
{0.97426736}
{0.72943467}
{0.23312543}
{-0.46195933}
{0.010753538}
{0.5421877}
{-0.16559954}
{0.513541}
{0.49193683}
{0.7905297}
{0.6277277}
{0.13546069}
{0.49808422}
{-0.524488}
{-0.7197053}
{-0.06913666}
{0.20924774}
{-0.49392873}
{0.30092812}
{-0.24454391}
{-0.5344659}
{-0.008855706}
{-0.9216116}
{-0.45333987}
{-0.3947347}
{0.93067807}
{0.498439}
{-0.5334815}
{0.64375675}
{0.41113466}
{-0.020803645}
{0.90589017}
{0.35573593}
{0.78718317}
{0.15561683}
{-0.9186534}
{0.66666687}
{-0.57432324}
{0.25033334}
{0.07258759}
{0.041010525}
{0.572601}
{0.19340336}
{-0.46347308}
{-0.33889303}
{0.7078643}
{-0.16990182}
{-0.59761274}
{0.5348686}
{-0.51531243}
{-0.9530163}
{0.9176889}
{-0.03575549}
{0.0018320912}
{0.86606306}
{-0.033238884}
{-0.96333015}
{-0.77301955}
{-0.5874701}
{0.9150896}
{-0.17546615}
{-0.56568176}
{-0.33945897}
{0.6116271}
{0.73958385}
{-0.40698636}
{0.35166946}
{-0.06684383}
{0.65856755}
{-0.06669806}
{0.0019173231}
{-0.28330982}
{0.088335656}
{-0.086834736}
{-0.030874602}
{0.7434528}
{-0.48679718}
{-0.8587036}
{-0.24662024}
{-0.8260421}
{0.47121826}
{0.2965512}
{0.08318894}
{0.31784847}
{0.7551681}
{-0.5234432}
{1.0041175}
{-0.17159884}
{-0.42407665}
{-0.009454297}
{-0.32625845}
{-0.050980866}
{0.89913595}
{0.23179476}
{-0.72485715}
{0.004771522}
{0.9837686}
{0.4857383}
{0.35056654}
{-0.3486326}
{-0.2195414}
{0.41460255}
{-0.2736429}
{0.4912557}
{0.41617718}
{-0.027946765}
{-0.63036335}
{-0.70818704}
{0.7879468}
{-0.12128854}
{0.27837515}
{-0.5006632}
{0.9709722}
{0.49400374}
{0.91809565}
{0.1828612}
{-0.4957591}
{0.1930024}
{-0.93293047}
{0.44180575}
{0.5126554}
{-0.8027553}
{0.076843396}
{-0.9199511}
{0.7643}
{0.4640717}
{0.19201022}
{0.4174874}
{0.9207238}
{0.077952236}
{-0.8963905}
{-0.60258615}
{0.42400184}
{-0.10541753}
{0.6152684}
{0.96103996}
{0.06811514}
{0.8215331}
{-0.015293098}
{0.3740285}
{-0.024203155}
{-0.5302472}
{0.5436892}
{-0.09233779}
{0.80279267}
{0.24105135}
{-0.37141708}
{0.26390585}
{-0.4957038}
{0.45155966}
{-1.0926607}
{-0.85116285}
{-0.5274695}
{-0.33360752}
{0.75456464}
{-0.6683083}
{-0.2009786}
{0.7214765}
{0.14242189}
{0.3252849}
{0.9411088}
{-0.962222}
{-1.036251}
{0.5426685}
{-0.53798187}
{0.805297}
{0.59736603}
{-0.92441237}
{0.32993189}
{0.6795599}
{0.3481353}
{-0.19117431}
{-0.6064621}
{0.14821608}
{0.10124733}
{0.24378154}
{0.3196806}
{-0.6690369}
{0.43544424}
{-0.7219744}
{0.113914154}
{-0.8968975}
{0.2704646}
{-0.5465155}
{-0.42892417}
{-0.5372463}
{0.6916447}
{-0.9506434}
{0.96079767}
{-0.96774685}
{0.32529345}
{0.35776532}
{-0.025225494}
{0.65411854}
{-0.70054674}
{-0.71834683}
{-0.78555477}
{-0.73747784}
{0.88934386}
{0.7760676}
{-0.13401684}
{0.09929913}
{0.5160406}
{0.5192946}
{-0.9763726}
{0.04035726}
{-0.4740714}
{-0.35149968}
{-0.006854389}
{-0.9778194}
{0.87319595}
{-0.86267775}
{0.6390604}
{0.2747245}
{-0.7155644}
{0.23227225}
{0.3219041}
{0.5381836}
{0.48307276}
{0.59528166}
{0.2441012}
{-0.7367324}
{-0.030770238}
{-0.5821133}
{0.77446663}
{-0.9370078}
{0.5900109}
{0.72529304}
{0.42562595}
{0.60317475}
{-0.49585372}
{0.3513721}
{0.3307399}
{-0.35411292}
{0.8668507}
{0.28343946}
{-0.47295818}
{0.05594357}
{0.92670023}
{-0.774888}
{-0.62498605}
{0.48365268}
{0.5179263}
{-0.3086263}
{0.34455028}
{0.15882896}
{-0.38601717}
{-0.8747084}
{0.96117604}
{0.41730583}
{-0.5405432}
{-0.62039816}
{0.17506829}
{0.44643602}
{-0.25910214}
{0.56039464}
{0.27327028}
{0.8921253}
{0.98433304}
{-0.75676334}
{0.9987236}
{-0.3093291}
{0.6804185}
{-0.67524356}
{-0.9975711}
{-0.492548}
{-0.45909858}
{-0.8711768}
{0.5466534}
{0.90604156}
{-0.10797585}
{0.8947121}
{-0.23883638}
{0.792197}
{-0.3298336}
{-0.5065859}
{0.89492714}
{0.11367294}
{-1.0004138}
{0.6204483}
{0.2120432}
{-0.42362195}
{-0.41216394}
{0.95678556}
{-0.16916904}
{-0.6581917}
{0.2706089}
{-0.052294355}
{0.13773766}
{-0.4176194}
{-0.0007523948}
{0.9501987}
{-0.4092985}
{0.5034936}
{-0.55344}
{0.37887874}
{-0.41608056}
{0.08197097}
{0.06721513}
{-0.48734036}
{0.97857296}
{0.10142898}
{0.14740114}
{-0.2505217}
{-0.0061713196}
{1.0138199}
{-0.38930225}
{-0.1155352}
{0.5806223}
{0.7741589}
{0.0093986485}
{-0.99043566}
{0.6760303}
{0.055779465}
{0.9879463}
{0.87914467}
{0.38284674}
{0.26140767}
{0.10752931}
{0.8861041}
{-0.6448487}
{-0.7375597}
{0.9568347}
{0.78112274}
{0.16831985}
{0.055732124}
{-0.89888245}
{-0.66800654}
{-0.50116885}
{-0.52721614}
{0.16603564}
{-0.8255447}
{0.4502484}
{0.1012839}
{-0.29774266}
{0.40494063}
{0.2179052}
{0.7687858}
{0.35792097}
{-0.88255024}
{-0.8895298}
{-0.59355354}
{0.26068267}
{0.10519332}
{-0.2981113}
{-0.0043629967}
{0.068026416}
{1.0020814}
{0.18478814}
{-0.7576941}
{-0.5059127}
{-0.7511357}
{-0.11076603}
{-0.15245388}
{-0.5107193}
{-0.8370174}
{-0.8733238}
{0.2675893}
{-0.21559016}
{-0.8535695}
{-0.4748865}
{0.108178414}
{-0.61052865}
{-0.2171976}
{-0.82252014}
{-0.35489133}
{0.17631932}
{0.7877869}
{-0.14883265}
{-0.19868718}
{0.21695313}
{0.1211435}
{-0.10911808}
{0.2772944}
{-0.2176142}
{0.15174916}
{0.47590318}
{-0.52826595}
{-0.22084567}
{0.48414016}
{-0.725685}
{-0.3389952}
{-0.41586667}
{-0.36768627}
{-0.060290188}
{0.6858943}
{0.059327763}
{-0.9179293}
{-0.089119054}
{0.10051891}
{0.4553431}
{-0.79859984}
{-0.07498155}
{-0.644296}
{0.42364177}
{0.17154983}
{0.96116364}
{-0.6646455}
{0.78560907}
{0.44585654}
{0.40813342}
{0.5797265}
{-0.17327653}
{0.9527805}
{-0.9400002}
{-0.2566776}
{0.071101874}
{-0.28380018}
{-0.37138876}
{0.04727513}
{0.3284115}
{0.8632848}
{-0.5131787}
{0.82261366}
{-0.76135075}
{-0.5939442}
{0.87526166}
{-0.4392674}
{-0.13194421}
{0.10758116}
{0.19640508}
{-0.91395676}
{-0.6233518}
{0.65907216}
{-0.89325845}
{-0.3028366}
{-0.36053565}
{-0.88025624}
{0.6135639}
{-0.4679516}
{-0.46640253}
{-0.5618353}
{0.9372767}
{-0.3342758}
{0.050144665}
{0.015626617}
{0.4646279}
{-0.57540023}
{-0.8379986}
{-0.19912407}
{-0.33831844}
{0.3774042}
{-0.8928772}
{-0.17241786}
{-0.41351494}
{0.8088267}
{-0.39586154}
{0.12920672}
{-0.2644132}
{-0.23741268}
{-0.02648704}
{0.7177386}
{0.08615389}
{0.8483509}
{-0.046109907}
{-0.7026587}
{-0.63895667}
{0.2728289}
{0.9644243}
{-0.46153045}
{-0.38016614}
{-0.59650993}
{-0.5783747}
{-0.8937712}
{-0.65876424}
{-0.1714478}
{0.8608673}
{0.46657825}
{0.038571265}
{0.44229496}
{0.49791655}
{-0.009353857}
{0.47391024}
{0.93992317}
{0.67945427}
{0.9861669}
{0.043163683}
{-0.24040464}
{0.9856757}
{-0.69848216}
{0.66916025}
{0.8307853}
{0.6337729}
{0.57941407}
{0.9441997}
{-0.70046175}
{-0.51303804}
{-0.19374985}
{0.3163468}
{-0.82292444}
{0.50633967}
{-0.37316936}
{-0.9949709}
{-0.23100673}
{0.9551857}
{0.64949524}
{-0.17184123}
{-0.34655392}
{0.30548453}
{0.44146058}
{0.94421875}
{-0.54869175}
{-0.4134008}
{0.009154276}
{0.67937195}
{0.6568405}
{0.49001354}
{0.21556018}
{-0.39959487}
{0.41781157}
{-0.7766317}
{-0.95905614}
{0.38799992}
{0.70419794}
{-0.5554888}
{0.5302654}
{0.6610614}
{-0.46699062}
{0.40468916}
{-0.18800496}
{0.8147098}
{-0.22012194}
{0.3917209}
{0.69515264}
{-0.4107984}
{-0.53074634}
{0.59026545}
{-0.9760014}
{0.99110544}
{0.104918584}
{0.19790691}
{0.84902036}
{-0.250223}
{-0.45899466}
{-0.82233435}
{0.53796935}
{-0.51277936}
{-0.45162874}
{-0.47245067}
{0.6530209}
{-0.20766649}
{0.23428106}
{-0.7003477}
{-0.6418899}
{-0.39801177}
{0.0813645}
{-0.68867457}
{-0.8099036}
{-0.09963522}
{-0.13879637}
{-0.57866305}
{0.9484048}
{-0.3962172}
{-0.4023329}
{-0.06559527}
{0.3301319}
{-0.828051}
{-0.21693575}
{-0.3209196}
{-0.92516303}
{0.2222828}
{1.0216084}
{-0.27599627}
{0.084736034}
{-0.39854416}
{0.28114572}
{0.60441464}
{-0.06695373}
{-0.79193723}
{1.0547826}
{-0.8148797}
{-0.89074016}
{-0.27280936}
{0.8322976}
{1.0036021}
{0.7705578}
{-0.0433825}
{0.8752698}
{-0.64843994}
{0.35936773}
{0.49281228}
{0.52260494}
{-0.027148867}
{0.7913375}
{-0.34619054}
{0.7632787}
{0.3059609}
{0.21709205}
{0.85221016}
{0.8102537}
{0.54871017}
{-0.21206313}
{-0.06027803}
{-0.12210151}
{0.9984822}
{0.24729878}
{0.26152244}
{-0.61683935}
{1.0139252}
{0.07992186}
{0.23245183}
{-0.42109355}
{-0.9724093}
{-0.16071181}
{0.9299556}
{-0.56167066}
{-0.5179769}
{0.195346}
{0.19824997}
{0.27487123}
{0.2897798}
{-0.110271566}
{0.30031934}
{0.4582763}
{-0.7330656}
{-0.30059394}
{0.48392764}
{-0.19370927}
{0.15190268}
{0.18332364}
{-0.46855292}
{-0.75415736}
{-0.89729834}
{-0.71776515}
{0.9230126}
{0.45186412}
{0.6330222}
{-0.9646788}
{-0.85897267}
{0.7194734}
{-0.32254437}
{-0.38361028}
{0.74747837}
{0.68852276}
{-0.22673137}
{0.17856336}
{0.23515597}
{0.91838825}
{-0.6392352}
{0.09595317}
{0.32257667}
{-0.83191943}
{0.23232204}
{-0.24405855}
{-0.5393778}
{0.4577719}
{-0.96167016}
{0.73194826}
{0.8089403}
{1.0496619}
{0.5201682}
{-0.8924136}
{-0.90432775}
{0.3033545}
{0.40260524}
{0.051519148}
{-0.9433998}
{-0.8481605}
{-0.29735887}
{0.8598213}
{0.23593035}
{0.5420777}
{0.0067701535}
{-0.18082844}
{0.8420428}
{0.29902145}
{-0.76488256}
{0.11670159}
{0.49283516}
{-0.09771125}
{1.0188711}
{0.12382578}
{-0.6480557}
{0.74340093}
{-0.7899543}
{0.039065756}
{0.842456}
{-0.098038025}
{0.18803303}
{0.34444365}
{0.5848595}
{-0.26144847}
{-0.45112813}
{-0.55954814}
{0.3678836}
{1.0195405}
{0.9995724}
{0.40991363}
{-0.49869022}
{-0.80306464}
{-0.91150784}
{0.90850335}
{-0.8788849}
{-0.26516283}
{-0.43697122}
{0.92356735}
{-0.111418106}
{-0.7848452}
{-0.626053}
{-0.90136385}
{0.11270871}
{-0.4736251}
{-0.677543}
{0.52807695}
{0.1608366}
