-- Efficiency --
97.6298
-- Weights --
{-0.85089767}
{-0.3380905}
{0.16509826}
{-0.6085059}
{-0.2081981}
{0.19993685}
{0.13097703}
{-0.0017620624}
{0.2947807}
{0.8467668}
{-0.95385396}
{-0.3992041}
{0.34451625}
{-0.2218252}
{0.6759421}
{0.64111155}
{-0.7053174}
{0.4581786}
{-0.37590507}
{0.48107675}
{-0.07711621}
{-0.7548388}
{-0.36131346}
{-0.35961467}
{0.6251346}
{-0.71783656}
{0.9369838}
{0.39445096}
{-0.39374784}
{0.18862964}
{-0.08257189}
{0.9299162}
{0.8284999}
{-0.35141876}
{0.46806937}
{0.18461677}
{0.8019427}
{-0.61310387}
{0.398571}
{-0.25846842}
{0.38950464}
{0.7208507}
{0.1342303}
{-0.80336064}
{-0.002397041}
{-0.8581566}
{0.16881825}
{-0.18830957}
{0.50632584}
{-0.27769247}
{0.65357363}
{0.37434}
{-0.3632479}
{0.6175715}
{0.08821357}
{-0.45441824}
{-0.34438065}
{-0.1416004}
{-0.31464002}
{-0.74903566}
{-0.45572546}
{0.49602547}
{-0.26117027}
{-0.94738567}
{0.62221515}
{-0.106835335}
{-0.31192794}
{-0.018614119}
{0.40355656}
{0.25065196}
{0.65997785}
{0.82759315}
{-0.73125017}
{-0.5532224}
{-0.348958}
{0.50729716}
{-0.95157206}
{-0.709565}
{-0.14163858}
{0.23449366}
{-0.6765288}
{0.90706134}
{0.50407493}
{0.5744441}
{-0.49423888}
{0.07649696}
{-0.5925876}
{-0.42896697}
{-0.48069933}
{0.4634038}
{-0.6534854}
{-0.5012938}
{0.6425191}
{-0.8510835}
{-0.71075904}
{-0.6352045}
{0.51653993}
{-0.18223731}
{-0.4250631}
{-0.014893042}
{-0.690945}
{0.55317247}
{-0.78482574}
{-0.1420156}
{0.9265369}
{0.26905212}
{0.7502088}
{-0.367023}
{0.39681742}
{0.0005748493}
{-0.421657}
{0.7694372}
{-0.364373}
{0.05818912}
{-0.87019044}
{-0.50430846}
{0.3847868}
{0.48748088}
{0.42151874}
{-0.9277474}
{0.30020997}
{0.8608338}
{-0.526431}
{0.49997476}
{0.010107536}
{0.5930105}
{-0.9362119}
{-0.9654296}
{-0.32420424}
{0.8616318}
{-0.44285372}
{0.57966936}
{0.6649345}
{0.9439152}
{0.61603844}
{-0.3376301}
{0.9699818}
{-0.3285342}
{0.38471338}
{-0.60542107}
{0.8921236}
{0.14255275}
{0.64252496}
{-0.38029817}
{0.21965215}
{0.4623167}
{-1.0023159}
{0.3274651}
{0.009820718}
{0.73661226}
{-0.5292484}
{0.56085366}
{-0.69101775}
{-0.15441604}
{0.4837381}
{-0.44212788}
{-0.82772696}
{-0.4803573}
{-0.6166013}
{-0.5671929}
{0.47393343}
{0.4839423}
{0.33171874}
{0.8346996}
{-0.4784856}
{-0.08540537}
{0.94366616}
{0.5586789}
{-0.9686831}
{-0.37245363}
{-0.9454294}
{0.6842509}
{-0.15469411}
{0.27441072}
{-0.5266187}
{-0.6827497}
{-0.15705636}
{0.43205646}
{0.016870376}
{0.6343151}
{-0.4976809}
{-0.024301853}
{0.7861684}
{0.7414553}
{-0.44918683}
{0.18232562}
{-0.7897738}
{0.32197598}
{0.66368425}
{0.6456916}
{0.07521203}
{-0.83852166}
{-0.5082427}
{0.33402508}
{0.29400998}
{0.156679}
{0.55509746}
{0.6307165}
{0.8070817}
{0.0491244}
{-0.3563464}
{-0.028211378}
{0.028788362}
{0.27464473}
{-0.6362978}
{-0.6364656}
{-0.4606946}
{0.8045545}
{-0.14632036}
{0.7213132}
{-0.8634567}
{0.35391495}
{-0.09762042}
{-0.86749727}
{0.48953658}
{-0.8080827}
{-0.8236667}
{-0.73443526}
{0.3379055}
{-0.6106596}
{0.36120746}
{0.060280174}
{-0.3586021}
{0.46243438}
{-0.18796828}
{0.5783109}
{0.23443148}
{0.5824031}
{-1.0224499}
{-0.5982238}
{-0.3291678}
{-0.5033769}
{-0.81577766}
{0.665622}
{0.15932195}
{-0.8100125}
{-0.6243423}
{-0.04292689}
{-0.1394736}
{0.8855889}
{0.9176167}
{-0.7590208}
{-0.88197494}
{-0.2399929}
{-0.38232544}
{0.5032949}
{0.64560306}
{0.28595817}
{0.29231617}
{-0.15769427}
{-0.3511052}
{-0.66756916}
{0.4618933}
{-0.71250784}
{0.93911445}
{0.44791597}
{0.6549245}
{-0.80547285}
{-0.5696002}
{0.6155274}
{0.14203545}
{0.31418544}
{0.37705764}
{0.817488}
{0.26878878}
{-0.950385}
{-0.9062754}
{-0.19073056}
{-0.54712856}
{0.030777665}
{0.085809365}
{-0.23122132}
{0.023428459}
{0.6889725}
{-0.14546159}
{-0.85769606}
{-0.37625316}
{-0.08543674}
{-0.87420154}
{0.4671578}
{-0.8292829}
{0.18127689}
{0.6738116}
{-0.92894757}
{0.20129105}
{-0.8365569}
{-0.15754496}
{0.77190274}
{-0.28970507}
{-0.1897696}
{-0.54401326}
{-0.8118219}
{-0.85603344}
{0.12655734}
{-0.22309797}
{0.8785269}
{-0.57764995}
{-0.8366509}
{0.3841208}
{-0.26153493}
{0.21229908}
{-0.4926197}
{-0.09806338}
{0.1044013}
{-0.055486184}
{-0.53486526}
{-0.044612594}
{-0.9193506}
{-0.40524223}
{0.6611141}
{-0.35283878}
{-0.03290956}
{-0.6719464}
{0.07809723}
{0.5011164}
{-0.34568492}
{-0.5918046}
{0.81718886}
{0.1703757}
{0.17051816}
{0.07301409}
{0.27519065}
{0.6174722}
{-0.3069891}
{-0.17496613}
{-0.6380213}
{-0.7605607}
{-0.4955139}
{0.619697}
{-0.30792603}
{-0.06367387}
{0.8018691}
{-0.44562772}
{-1.0025251}
{-0.8654106}
{-0.48789933}
{-0.101123266}
{-0.041819435}
{-0.8442901}
{0.84472835}
{0.42098376}
{-0.032853827}
{0.88895774}
{-0.27805743}
{-0.26995948}
{0.18552256}
{0.41754577}
{0.55279046}
{-0.44615367}
{0.58025825}
{-0.4894114}
{-0.63690007}
{0.9247323}
{-0.0022436085}
{0.7020898}
{-0.69912326}
{-0.67083085}
{-1.0223264}
{0.9560882}
{0.340551}
{0.8359207}
{0.5059448}
{-0.023327766}
{0.91930413}
{-0.9269811}
{-0.14332929}
{-0.12514515}
{-0.5921089}
{-0.6382152}
{-0.45078883}
{0.19405065}
{0.77410597}
{0.26111528}
{0.95691293}
{-0.94888747}
{-0.8863669}
{-0.8556529}
{-0.63038504}
{-0.07385557}
{-0.8764588}
{0.63238037}
{0.52549034}
{-0.08403921}
{-0.19751476}
{0.9552542}
{-0.743204}
{-0.93360704}
{0.36202222}
{0.5875102}
{0.30449656}
{0.23707344}
{0.00068085385}
{0.03496625}
{-0.30404687}
{-0.18450257}
{-0.11610498}
{0.30682418}
{-0.8641878}
{-0.8954656}
{-0.70535934}
{0.577469}
{0.28956062}
{-0.5058037}
{-0.49733528}
{0.9058572}
{-0.7924607}
{-0.30309168}
{-0.23113905}
{0.8802477}
{0.5075662}
{-0.026584301}
{0.27279216}
{0.6469654}
{-0.38572377}
{0.9655168}
{0.934962}
{-0.53667533}
{-0.011299283}
{-0.9313024}
{-0.49654606}
{-0.3014033}
{-0.40421486}
{-0.56869584}
{-0.34366024}
{-0.3908768}
{-0.13213645}
{-0.1638792}
{0.020231666}
{-0.7737559}
{0.7562669}
{0.5042268}
{0.9578731}
{0.43957683}
{-0.10544553}
{0.8086902}
{-0.6340806}
{-0.56206715}
{0.57190365}
{-0.64703876}
{0.34885097}
{-0.5849284}
{0.8015821}
{0.7014894}
{-0.39828154}
{0.96237504}
{0.12003379}
{-0.59115696}
{-0.9560619}
{0.913515}
{0.38574997}
{-0.87178665}
{0.79199106}
{0.03971889}
{0.4903978}
{0.31537738}
{-0.25551808}
{-0.4419277}
{-0.47245303}
{0.45617577}
{0.48168603}
{-0.3122895}
{0.77309555}
{0.54403025}
{0.6144643}
{0.27854988}
{0.043089125}
{-0.27917975}
{0.80738044}
{-0.63017523}
{0.7790792}
{-0.20995004}
{-0.8611577}
{-0.4472125}
{0.4020863}
{0.31089243}
{-0.022614228}
{-0.5471667}
{0.78745484}
{-0.28145623}
{-0.47067758}
{0.8119589}
{-0.07721722}
{-0.89008117}
{0.6132518}
{0.29822108}
{-0.6762892}
{-0.9820088}
{0.7437098}
{0.96401536}
{-0.8856035}
{-0.46773577}
{-0.640372}
{-0.27943614}
{-0.68964523}
{-0.600502}
{-0.443561}
{-0.6704}
{0.3908039}
{-0.1608392}
{0.8080859}
{0.29245922}
{0.22940785}
{0.730906}
{-0.61522436}
{-0.9083272}
{-0.6437153}
{0.4021334}
{0.8581495}
{-0.14827253}
{-0.69289476}
{0.39427185}
{-0.578535}
{-0.2442117}
{-0.8250723}
{-0.009318996}
{-0.2724276}
{-0.19196966}
{-0.08106361}
{-0.20501438}
{-0.63122976}
{-0.61080277}
{0.4151829}
{-1.0180589}
{-0.73629063}
{-0.8983563}
{-0.19317634}
{0.003419936}
{0.13743207}
{-0.44167903}
{0.07485873}
{0.65238124}
{-0.45569515}
{0.35656425}
{-0.7365956}
{-0.5978423}
{-0.2742253}
{-0.6909996}
{0.32311934}
{-0.20289227}
{-0.52744585}
{-0.27278998}
{-0.029066846}
{0.6498034}
{-0.27584222}
{-0.47161224}
{-0.0979753}
{-0.25307837}
{0.73870856}
{-0.45766667}
{0.83292806}
{0.3326196}
{0.87153006}
{-0.6002604}
{-0.501362}
{-0.9974404}
{-0.397218}
{-0.7384547}
{-0.64289606}
{0.73155856}
{0.61451477}
{-0.3096297}
{-0.75291663}
{-0.9210367}
{-0.8503223}
{-0.22974041}
{-0.7377826}
{-0.10435475}
{0.1781782}
{-0.47104743}
{0.7707706}
{0.118344165}
{0.89392805}
{-1.0157121}
{-0.43144795}
{0.5884098}
{0.79108584}
{-0.33263972}
{0.67023253}
{0.604941}
{-0.76828855}
{0.35496733}
{-0.7830348}
{-0.104761004}
{0.8294276}
{-0.51786757}
{-0.18781056}
{-0.6432711}
{-0.076644816}
{-0.61006796}
{-0.14413847}
{-0.87589514}
{0.64946616}
{-0.010803441}
{-0.2907387}
{-0.1930261}
{-0.62736106}
{0.31159422}
{-0.8599739}
{-1.0115721}
{-0.9159282}
{0.9302355}
{-0.28269064}
{-0.18552803}
{0.32627434}
{-0.15124539}
{-0.10927907}
{0.2300562}
{0.7709141}
{0.23222467}
{0.7501621}
{0.41105896}
{0.8108592}
{-0.8739747}
{0.32916746}
{0.8245704}
{-0.53081006}
{0.22585294}
{0.86532825}
{-0.6581531}
{0.50561863}
{0.47178409}
{-0.083587505}
{-0.8391781}
{-0.77574325}
{0.9303924}
{0.9209283}
{0.8017802}
{-0.82867867}
{0.26212212}
{-0.5890335}
{-1.0113535}
{-0.6490768}
{-0.7716745}
{0.06537403}
{0.13020024}
{0.5409166}
{0.46381852}
{0.27800897}
{-0.6757132}
{-0.95402074}
{0.07977087}
{0.53992265}
{-0.54773587}
{0.7988782}
{-0.36092308}
{0.12929448}
{-0.04369837}
{0.47887713}
{0.8086029}
{-0.7422925}
{0.5472204}
{0.94337785}
{-0.7622758}
{-0.8127809}
{-0.8831566}
{0.6669201}
{-0.63271105}
{0.6363548}
{0.318744}
{-0.849646}
{0.8142599}
{-0.8519277}
{-0.646632}
{0.0031411285}
{0.0096152015}
{-0.3626773}
{-0.5850348}
{-0.7556541}
{0.84420335}
{-0.83280736}
{-0.7537832}
{-0.94198614}
{0.037512083}
{0.43412435}
{-0.9880552}
{-0.27279368}
{0.7831749}
{0.38709015}
{0.20951143}
{0.35644493}
{-0.23846224}
{0.7494944}
{-0.8120447}
{0.2590458}
{-1.015524}
{-0.5815643}
{0.78448254}
{0.68433684}
{-0.932608}
{-0.6729021}
{-0.4581121}
{0.34418294}
{-0.5180979}
{0.13504079}
{-0.56743926}
{0.25422144}
{-0.13598439}
{-0.22396505}
{-0.008134887}
{0.25644693}
{-0.46262673}
{0.6244617}
{0.66027504}
{-0.0819335}
{-0.05745886}
{0.67625606}
{-0.89535224}
{-0.23959392}
{-0.18331221}
{0.3007509}
{0.2489004}
{-0.8250753}
{-0.42533377}
{-0.790767}
{-0.8403978}
{-0.84496623}
{-0.2581363}
{-0.13511677}
{0.7395077}
{0.6992203}
{0.31064054}
{-0.013362687}
{-0.43188125}
{-0.8948747}
{0.7521044}
{0.6969713}
{-1.0114441}
{0.7991766}
{0.30885407}
{-0.98087776}
{0.42221853}
{-0.20322216}
{0.56117666}
{0.8186634}
{-0.101178266}
{-0.39345115}
{0.5965613}
{0.14775002}
{-0.28923577}
{-0.86337537}
{-0.65946496}
{-0.39030954}
{0.33081922}
{-0.3747891}
{0.9735044}
{0.48370084}
{-0.2585947}
{-0.16507539}
{0.8484992}
{0.51222175}
{-0.37791976}
{-0.430652}
{-0.56815064}
{0.607137}
{-0.67892045}
{-0.3664682}
{0.65203583}
{-0.82845736}
{-0.55998397}
{-0.58100647}
{0.7095243}
{0.43525603}
{-0.07759772}
{-0.5118008}
{-0.005431394}
{-0.47704163}
{-0.3427244}
{-0.33441538}
{-0.5493213}
{0.83121485}
{0.41292813}
{-0.5626913}
{0.8148309}
{-0.97845596}
{0.9645384}
{-0.06408449}
{-0.74962556}
{-0.18539299}
{0.48619014}
{0.9133898}
{-0.9225131}
{-0.80332696}
{0.90796226}
{-0.06486529}
{0.5960361}
{0.167245}
{0.7243214}
{-0.38598624}
{0.82366407}
{-0.119295746}
{0.928079}
{0.47726837}
{0.49122426}
{-0.50416595}
{-0.17933406}
{0.7336126}
{0.24669668}
{-0.6559555}
{0.39155027}
{0.05553712}
{-0.022171477}
{0.43971214}
{-0.21269609}
{0.649073}
{0.5330993}
{0.22132447}
{-0.9698239}
{0.14760004}
{0.047442712}
{0.43777207}
{-0.8518973}
{0.44972393}
{-0.9079865}
{0.26535186}
{0.82380927}
{0.1218584}
{0.5811986}
{0.07027545}
{-0.26045522}
{0.33424583}
{-0.36141303}
{0.02347247}
{0.008838204}
{0.033173542}
{-0.3987055}
{-0.6006312}
{-0.4948302}
{-0.57677346}
{0.31453225}
{0.088403866}
{0.2644613}
{0.67714995}
{0.61273134}
{0.7010381}
{0.49935633}
{0.12631415}
{0.031039972}
{0.3874051}
{-0.25647953}
{0.9095536}
{0.015395183}
{-0.3050062}
{0.6974801}
{0.3204518}
{0.8776623}
{0.25319278}
{-0.89847076}
{0.47584626}
{0.5467552}
{0.25464565}
{-0.19573359}
{-0.10191955}
{-0.19661501}
{0.73416626}
{0.02809228}
{0.7150737}
{0.00698163}
{-1.1133054}
{-0.0065097185}
{0.15175264}
{-0.12494963}
{0.059131972}
{0.915604}
{-0.7386032}
{0.41010568}
{-0.37765276}
{0.040384572}
{-0.18373784}
{0.85656846}
{-0.17484885}
{0.4101692}
{0.6470223}
{-0.05850909}
{-0.78134274}
{0.019322442}
{-0.02103424}
{0.5619067}
{-1.063607}
{0.12608986}
{-0.2733923}
{0.47035047}
{0.2873104}
{-1.0249913}
{0.74398446}
{0.14254257}
{0.7825373}
{-1.0214522}
{0.54013294}
{0.1169951}
{-1.0133525}
{-0.968166}
{0.20803098}
{0.6783658}
{0.19825368}
{-0.34330007}
{-0.27400634}
{0.10181409}
{-0.9293996}
{-0.7194979}
{-0.09058942}
{-0.62596905}
{0.81498575}
{-0.49982432}
{-0.49073032}
{0.9594618}
{-0.3226759}
{-0.20618638}
{0.07232614}
{-0.85722625}
{0.3833668}
{0.30288786}
{-0.14862384}
{-0.9659053}
{-0.18792133}
{0.8825071}
{0.31690067}
{-0.7737516}
{0.24394959}
{-0.31546023}
{0.033354964}
{-0.9626268}
{-0.18231931}
{0.3748528}
{0.99820805}
{0.9076947}
{0.3976923}
{0.08652683}
{0.47668234}
{-0.25867227}
{-0.36945784}
{0.24981184}
{-0.5409097}
{0.41306135}
{-0.6781332}
{-0.044842243}
{0.2557233}
{0.75691664}
{0.15868995}
{0.5974458}
{-0.6557764}
{-0.111663036}
{0.4747512}
{-0.6431004}
{-0.784128}
{-0.40573838}
{0.65172994}
{0.38610807}
{-0.29481944}
{0.82616365}
{-0.5217156}
{-0.5495196}
{0.44704363}
{-0.8369154}
{-0.013220407}
{-0.19941704}
{0.5095219}
{-0.7573761}
{0.47802213}
{0.42954513}
{0.6160192}
{-0.7752241}
{-0.661876}
{0.984268}
{-0.6818818}
{0.25819942}
{-1.0395011}
{0.3812189}
{0.28827596}
{-0.20710471}
{-0.28263456}
{-0.15173166}
{0.72382045}
{0.1963782}
{0.21168305}
{-0.6847187}
{-0.58300716}
{0.40786287}
{0.40850583}
{-0.32008597}
{-0.3486967}
{0.79463303}
{-0.1333523}
{0.6383301}
{-0.009418052}
{-0.611338}
{0.61472875}
{0.0332369}
{-0.714503}
{0.6020919}
{0.38665518}
{-0.52139646}
{0.32989883}
{-0.8036145}
{-0.036551002}
{-0.17905962}
{-0.5206171}
{-0.20394424}
{-0.15199146}
{0.34709594}
{0.13899456}
{0.07434184}
{-0.78028613}
{-0.87591076}
{-0.67521226}
{-0.6044096}
{0.7975674}
{-0.9986823}
{0.13364305}
{0.62559426}
{0.3129125}
{0.900159}
{0.4655905}
{-0.09616297}
{0.33033228}
{-0.42785057}
{-0.2673774}
{0.3349392}
{-0.17957596}
{-0.72090536}
{-0.8578831}
{0.7378086}
{0.14321609}
{0.18119876}
{-0.6510528}
{0.5728899}
{-0.78958106}
{-0.9877141}
{-0.105559394}
{-0.4205177}
{-0.48587132}
{0.92255276}
{0.7717141}
{-0.19815639}
{-0.6738802}
{-0.7438574}
{0.9609379}
{-0.5802628}
{-0.09102016}
{0.56765735}
{0.2883834}
{0.91796196}
{-0.32472834}
{0.12714371}
{0.60651326}
{0.103357844}
{-0.7533119}
{0.42604986}
{-0.7700405}
{-0.6870214}
{-0.48424292}
{0.7898267}
{0.4875505}
{-0.30445936}
{0.54169977}
{-0.89321446}
{0.38849625}
{-0.47486952}
{-0.07172028}
{-0.71978927}
{-0.15888774}
{-0.6271907}
{0.93216604}
{0.99159086}
{-0.94485533}
{0.88288105}
{-0.7346574}
{-0.5812512}
{0.32689065}
{0.4363155}
{0.056227416}
{-0.115603395}
{0.73467195}
{-0.8197142}
{0.080702074}
{0.41927946}
{0.12620567}
{-0.57785046}
{-0.15060575}
{0.9041158}
{0.19182992}
{0.6293026}
{-0.46918473}
{1.0243646}
{-0.8555452}
{0.94683564}
{-0.5545062}
{-0.60464936}
{0.04931945}
{-0.1668897}
{-0.7123083}
{-0.7377527}
{-0.38393137}
{0.40228888}
{-0.8823272}
{0.7575267}
{-0.39278656}
{-0.7496089}
{-1.0291152}
{-0.6842469}
{-0.08697631}
{0.13064525}
{-0.14222051}
{-0.47105512}
{0.33600873}
{0.77503264}
{-0.1933329}
{-0.07944912}
{-0.59089345}
{0.3858702}
{0.27663428}
{-0.5683268}
{0.85232294}
{0.48003227}
{-0.34700656}
{0.65746695}
{-0.9975111}
{0.54805577}
{0.78404754}
{-0.20212129}
{0.34786716}
{0.89774716}
{0.67127436}
{-0.39748663}
{0.85956085}
{0.7472578}
{-0.89549196}
{0.23433363}
{-0.7954858}
{0.711485}
{0.15213926}
{-0.40762118}
{-0.2582289}
{0.56166756}
{-1.016207}
{0.8317331}
{0.47600234}
{-0.79509056}
{0.1957745}
{-0.8900267}
{-0.012783485}
{0.80738366}
{0.3292923}
{0.7377506}
{-0.4546726}
{0.59849536}
{0.07427009}
{0.58267975}
{-0.044491235}
{0.78659046}
{0.030535964}
{0.092522256}
{0.9514741}
{0.4180095}
{0.20165208}
{-0.27910098}
{-0.28274652}
{-0.22848824}
{0.6663907}
{0.23704058}
{-0.39151448}
{-0.24165204}
{-0.4296686}
{0.6478692}
{-0.7920768}
{-0.35269144}
{-0.5995994}
{-0.16016771}
{0.82235074}
{-0.14224601}
{0.013178647}
{-0.92722166}
{-0.20809671}
{-0.21021369}
{-0.5808358}
{0.34225613}
{-0.30613634}
{-0.084065616}
{0.44932428}
{0.7948407}
{0.21336375}
{-0.6703292}
{-0.14484365}
{0.7293881}
{-0.102936015}
{0.9299072}
{0.77088696}
{0.39406282}
{-0.27216035}
{0.86766064}
{-0.77718925}
{0.7492889}
{0.6875199}
{0.3620195}
{-0.9361688}
{0.11492188}
{-0.8317574}
{0.33148858}
{0.39466324}
{-0.32122022}
{0.99087834}
{0.528473}
{-1.0079837}
{1.0101304}
{0.19188105}
{0.44234535}
{0.022961974}
{-0.84038776}
{-0.32236376}
{0.46907756}
{0.38741702}
{-0.29075608}
{0.27359265}
{0.25392267}
{0.55779546}
{-0.6998406}
{0.3747079}
{-0.7414619}
{0.47002482}
{0.7560202}
{-0.11859022}
{0.79386365}
{-0.86938703}
{-0.28817528}
{-0.6391598}
{-0.92814696}
{-0.06739735}
{0.047694113}
{0.61615694}
{0.31339094}
{-0.79963565}
{-0.33858383}
{-0.20363855}
{0.67878497}
{0.6350427}
{-0.20602143}
{0.6292759}
{0.4470136}
{0.6625463}
{0.7409992}
{-0.49507713}
{0.56555617}
{-0.37264836}
{-0.23627827}
{0.61679596}
{0.19501063}
{0.4716975}
{0.7417987}
{-0.7913553}
{-0.46032956}
{-0.30724415}
{0.11912195}
{-0.12671666}
{-0.3378065}
{-0.92965776}
{-0.78052557}
{-0.7556057}
{0.21911308}
{0.13987492}
{0.6967123}
{-0.30746013}
{0.94023645}
{-0.20450974}
{-0.66133153}
{0.099378586}
{-0.23283866}
{-0.9433155}
{-0.3864223}
{0.792999}
{-0.43860558}
{-1.02866}
{-0.46043888}
{-0.33426753}
{0.94472015}
{0.46604052}
{0.84675056}
{0.87210745}
{-0.42936996}
{-0.16549604}
{0.8494883}
{0.6017406}
{-0.19435361}
{-0.24534698}
{0.4997491}
{-0.75948167}
{0.48243675}
{-0.94565177}
{-0.21426007}
{0.7537349}
{-0.9590496}
{-0.4697743}
{-0.046631232}
{0.20984821}
{-0.8014895}
{0.65947926}
{-0.6046989}
{-0.23176743}
{0.6993183}
{-0.719064}
{0.41137838}
{0.68039966}
{0.0056314655}
{0.025155375}
{0.24447343}
{0.9060862}
{0.1116996}
{-0.8982641}
{0.15869667}
{-0.20068821}
{-0.57005966}
{-0.75895274}
{0.86579376}
{0.7031375}
{-0.9720124}
{-0.30186498}
{-0.16688454}
{0.03284619}
{0.9071742}
{-0.5101277}
{1.0348027}
{0.5003135}
{-0.7859634}
{0.6054327}
{-0.47116497}
{-0.24693155}
{0.059988797}
{0.33911258}
{0.87703794}
{0.79156536}
{-0.37262562}
{-0.75477964}
{0.8988493}
{0.31727356}
{-0.7161714}
{0.5143835}
{-0.9364525}
{-0.050602417}
{-0.25124267}
{-0.11457444}
{-0.93225294}
{0.16415325}
{-0.7236141}
{0.009172885}
{-0.015960054}
{-0.80785173}
{-0.578843}
{-1.029851}
{-0.22835937}
{0.20345487}
{0.1489062}
{0.6939653}
{-0.011153874}
{-0.28794417}
{-0.20243075}
{-0.454859}
{0.8420647}
{-0.50725794}
{-0.27114275}
{-0.92769057}
{-0.75751877}
{0.0023075035}
{0.58371055}
{-0.28757906}
{0.32040733}
{-0.8109031}
{-0.16980985}
{0.017086511}
{0.43975464}
{-0.27566406}
{0.6142441}
{-0.10710943}
{0.74754196}
{0.5166418}
{-0.65332186}
{-0.5459106}
{-1.0609217}
{0.6952631}
{0.366271}
{-0.042150807}
{0.7509037}
{-1.0323746}
{-0.32675722}
{-0.562377}
{-0.9064396}
{-0.63020647}
{-0.6623889}
{0.30407816}
{-0.5741769}
{-0.933917}
{0.42936727}
{0.81883514}
{-0.39253053}
{-0.681901}
{0.6843797}
{0.19941974}
{-0.885163}
{0.8005699}
{-0.012064913}
{-0.24034731}
{-0.4745734}
{0.9511038}
{-0.7457963}
{0.25263432}
{-0.51086503}
{-0.9441439}
{0.347851}
{0.62849855}
{0.48221692}
{-0.35186327}
{0.74045074}
{0.23028854}
{-0.3329257}
{-0.39323595}
{0.8489789}
{-0.10836224}
{-0.34656414}
{-0.009316115}
{-0.5511204}
{0.8728542}
{0.7783564}
{-0.9380476}
{-1.0137976}
{0.4065758}
{-0.3668303}
{-0.5861476}
{-0.65053165}
{0.9781998}
{-0.15416186}
{0.44107407}
{0.56299746}
{0.5830051}
{0.31399244}
{-0.5783027}
{-0.118379526}
{0.3865173}
{-0.6734135}
{0.42089695}
{0.947085}
{-0.98038614}
{-0.09878559}
{0.46678782}
{0.04309824}
{0.89501196}
{-0.14058237}
{-0.41198635}
{-0.41328934}
{-0.49131325}
{-0.95115}
{-0.3388582}
{-0.1400039}
{-0.93361247}
{-0.5162342}
{-0.52462846}
{0.042967826}
{0.24270558}
{0.28081027}
{-0.074375205}
{-0.25398782}
{-0.15189102}
{0.711968}
{0.5111432}
{-0.12817067}
{0.15697479}
{0.098241344}
{0.3382014}
{0.4212701}
{-0.8795489}
{0.5059858}
{0.6866685}
{-0.9380592}
{-0.07813093}
{0.7406741}
{-0.13389313}
{-1.0091523}
{0.44846806}
{-0.026210792}
{0.76608706}
{-0.8931755}
{-0.18418041}
{0.20093966}
{-0.22879642}
{-0.53755987}
{-0.5583756}
{-0.021364037}
{0.18417777}
{-0.4318712}
{0.61971086}
{-0.39648142}
{0.8761445}
{0.43975303}
{-0.0006114949}
{0.41396433}
{-0.06296268}
{-0.74561703}
{0.115143664}
{-0.6667642}
{0.8538436}
{0.6577455}
{-0.03489526}
{0.6027707}
{0.10212502}
{-0.18650821}
{-0.051565632}
{-0.15620886}
{0.9258485}
{-0.07292577}
{0.82074344}
{0.9299033}
{-0.7568526}
{-0.014378766}
{0.44856027}
{0.44574493}
{-0.68581766}
{-0.886345}
{0.1399706}
{0.7224463}
{0.51453984}
{0.1374397}
{-0.8591845}
{0.297459}
{-0.66810316}
{0.80526483}
{-0.3124122}
{-0.39839593}
{0.8034871}
{0.006775398}
{0.39369026}
{0.59538656}
{-0.61647856}
{0.86985695}
{0.45581317}
{-0.57497674}
{-0.9872203}
{-0.36220673}
{0.7185558}
{-0.477096}
{-0.8701227}
{0.3285198}
{-0.12140463}
{0.78338724}
{0.53938043}
{-0.035155278}
{0.8184728}
{0.19281776}
{0.04020509}
{0.40717432}
{0.011882516}
{-0.20386508}
{0.9079413}
{0.92238986}
{-0.4294603}
{-0.7010854}
{-0.2623894}
{0.49221873}
{-0.69925255}
{-0.5441039}
{0.9344682}
{0.4874455}
{0.0320881}
{-0.85075366}
{0.5019026}
{-0.9401332}
{-0.7618271}
{-0.46532592}
{-0.23212115}
{0.73015153}
{-0.44579077}
{0.975656}
{-0.08480686}
{-0.12096613}
{-0.9373049}
{-0.032397848}
{-0.6336152}
{0.3015158}
{0.54269224}
{-0.121530086}
{0.5471697}
{-0.6860205}
{-0.52449924}
{-0.6285372}
{0.9350819}
{-0.5337776}
{0.9069372}
{0.07144992}
{0.4505033}
{0.90182745}
{0.24111223}
{-0.550595}
{0.29155415}
{-0.35258654}
{0.82448906}
{-0.47602916}
{0.328407}
{-0.112983875}
{-0.45106652}
{0.77467436}
{0.7752092}
{-1.0136832}
{0.5705793}
{0.40775138}
{0.051405866}
{-0.94304407}
{0.3710594}
{0.8322878}
{-0.44372287}
{0.24220607}
{0.46707976}
{-0.45427093}
{0.4647396}
{0.6905519}
{-0.673037}
{0.4132687}
{0.29012698}
{0.38096854}
{0.2563742}
{-0.71214616}
{-0.3643481}
{-0.14856984}
{0.10646911}
{-0.14334846}
{0.66237104}
{0.09763748}
{0.16464348}
{-0.7682975}
{0.94125664}
{0.7171582}
{0.63647693}
{0.049086787}
{0.7536318}
{0.38259074}
{0.3865229}
{0.35441425}
{-0.9068723}
{0.002112169}
{0.78733516}
{-0.20552748}
{0.29748452}
{-0.4277232}
{-0.522929}
{0.042132333}
{-0.6374287}
{0.32414576}
{0.45674047}
{-0.5648268}
{0.9998954}
{0.07273585}
{0.3377641}
{-0.75735974}
{-0.14612791}
{0.06342585}
{-0.92188805}
{0.21052578}
{0.13764071}
{-0.3215826}
{-0.2901016}
{0.1326028}
{-0.115624025}
{-0.66676867}
{-0.7349398}
{-0.5043055}
{0.53965425}
{0.5220939}
{-0.07118847}
{-0.65585643}
{0.27606305}
{0.11841464}
{-0.4403716}
{-0.46606055}
{0.13157268}
{0.9150466}
{-0.10869082}
{0.05534723}
{0.03638349}
{-0.6061183}
{0.0969123}
{-0.5525408}
{0.17336084}
{-0.9608768}
{0.98124826}
{-0.37212282}
{0.4261747}
{0.2128627}
{0.26417023}
{0.797804}
{-0.7110283}
{0.6314913}
{-0.0470834}
{0.6863868}
{-0.63017726}
{0.6334642}
{0.18762445}
{-0.06974025}
{0.7436886}
{-0.70590913}
{0.74648875}
{0.06980754}
{-0.70230323}
{0.40545198}
{0.14794779}
{0.07168445}
{0.79339665}
{-1.0036992}
{0.76618904}
{0.3571269}
{1.0128073}
{0.19770262}
{0.8763981}
{-0.09315806}
{0.75811857}
{0.32544467}
{-0.21528517}
{-0.5833874}
{0.33542326}
{0.076844044}
{-0.43256637}
{-0.7495342}
{-0.42099804}
{-0.13901542}
{0.76900643}
{0.50218827}
{0.20097111}
{-0.3154631}
{-0.28733668}
{0.829587}
{-0.76406074}
{-0.41824868}
{-0.7618964}
{0.70905197}
{0.6873327}
{0.2830536}
{-0.07392927}
{0.5532875}
{0.05237481}
{-0.7309929}
{0.34652272}
{-0.517205}
{0.89856}
{0.3636417}
{0.3327961}
{0.7641493}
{0.8863941}
{-0.23824814}
{-0.6194447}
{-0.6028852}
{-0.8370933}
{-0.4692991}
{0.61309576}
{-0.8982581}
{-0.9797765}
{-0.942814}
{0.027709158}
{-0.78309315}
{-0.6581109}
{0.62918556}
{0.6809124}
{0.9744844}
{-0.5242067}
{-0.2302356}
{0.16801354}
{-0.3660737}
{-0.40293226}
{0.03642084}
{0.29744685}
{-0.42809817}
{-0.15779586}
{0.3529162}
{0.70475703}
{-0.49831992}
{0.3989744}
{0.046252284}
{0.8717421}
{0.89411724}
{0.15266314}
{-0.15313342}
{0.78980374}
{-0.4968946}
{-0.23314986}
{0.31452772}
{-1.0919375}
{-0.008355706}
{0.3904696}
{-0.18088892}
{-1.057595}
{0.32516348}
{-0.2419391}
{0.5116998}
{-0.2617911}
{-0.51690865}
{-0.46440443}
{-0.8192917}
{0.4759284}
{-1.006545}
{-0.59505016}
{0.8466004}
{-0.32117227}
{0.68666446}
{-0.5218135}
{-0.9025389}
{0.019269785}
{0.24113409}
{-0.52644116}
{0.6199945}
{0.6658124}
{0.23982987}
{-0.2720746}
{-0.07469888}
{0.10627699}
{-0.14861777}
{0.6519581}
{-0.66211617}
{0.054949004}
{-0.79383963}
{0.8133443}
{-0.42402795}
{0.26413134}
{0.20775594}
{-0.38318944}
{-0.8942739}
{-0.7296567}
{0.7970829}
{0.112041004}
{0.49207783}
{0.78746575}
{0.94445735}
{0.61995864}
{-0.24997166}
{0.36396244}
{-0.007750076}
{-0.36160672}
{0.6662253}
{-0.92295706}
{0.3766095}
{0.67954695}
{0.89126694}
{-0.26096407}
{0.3634301}
{0.2729626}
{-0.714007}
{0.65654165}
{1.0331069}
{-0.59924334}
{0.3627574}
{-0.09397232}
{0.2103783}
{-0.7278465}
{0.66165173}
{0.46647772}
{0.93440485}
{0.42833763}
{0.7253159}
{0.015216326}
{-0.85073465}
{0.6319791}
{0.05319481}
{-0.619053}
{0.20957175}
{-0.40695342}
{0.74905264}
{0.8987691}
{0.833302}
{0.13071962}
{-0.8763529}
{0.53089654}
{-0.098254345}
{0.47424564}
{-0.3708618}
{-0.21745385}
{-0.022865681}
{-0.533715}
{-0.29658225}
{-0.48776764}
{0.5255252}
{0.7479264}
{-0.91170466}
{-0.61479}
{0.72361666}
{-0.44528458}
{0.6938919}
{0.19968003}
{0.5063991}
{-0.1840893}
{-0.77546346}
{0.55609316}
{-0.7756811}
{-0.13025169}
{0.76431215}
{0.27304855}
{0.29104248}
{0.7333689}
{0.111144565}
{0.6005036}
{-0.81296736}
{0.721482}
{0.23200294}
{-0.98625165}
{0.24104035}
{-0.2241068}
{0.07876856}
{0.7398755}
{-0.9232209}
{0.48131475}
{-0.08150525}
{0.44653207}
{0.22962624}
{-0.4280829}
{0.48649445}
{0.4591409}
{0.048556764}
{-0.79126555}
{-0.22672513}
{-0.20343661}
{-0.16713054}
{-0.3857506}
{-0.12588423}
{-0.02256959}
{0.24132977}
{0.84032845}
{-0.39406255}
{-0.5397089}
{-0.0342353}
{-0.6202888}
{0.550248}
{0.5618832}
{-0.72899455}
{0.31597823}
{-0.3189731}
{0.79352456}
{0.47411174}
{0.85808676}
{0.07478673}
{0.05147627}
{-0.74189425}
{0.63022316}
{0.7730745}
{-0.025490243}
{0.25078982}
{0.60902685}
{-0.1563969}
{0.7404134}
{-0.39475855}
{0.31454816}
{-0.33206585}
{0.28221104}
{-0.12657672}
{0.3336223}
{0.34169862}
{-0.079450786}
{-0.34168503}
{-0.88158953}
{-0.48134568}
{-0.48429197}
{0.32489565}
{-0.046767727}
{0.4133527}
{0.32903075}
{-0.7675771}
{0.44542816}
{-0.12527841}
{-0.45419693}
{-0.18058206}
{0.65672725}
{-0.14992097}
{0.9103209}
{0.96544975}
{0.65777147}
{0.39846036}
{-0.79577655}
{0.7090556}
{0.8037058}
{-0.9674834}
{-0.4615615}
{0.35341075}
{-0.5876212}
{0.8872961}
{0.056797538}
{-0.6438165}
{0.8408141}
{-0.79841506}
{0.019909041}
{-0.7788688}
{-0.5095771}
{0.032218475}
{-0.942025}
{0.7509723}
{-0.73140436}
{0.22691628}
{0.44633695}
{-0.06596132}
{0.25754416}
{0.092749424}
{-0.4024539}
{-0.13651964}
{-0.6405056}
{0.89199793}
{-0.62607247}
{-0.38160852}
{-0.9349784}
{0.33116433}
{-0.4416671}
{0.61709195}
{0.22121751}
{-1.0020739}
{0.58727485}
{0.021966513}
{-0.53320223}
{-0.01193879}
{-0.9754959}
{-0.7922424}
{0.23162612}
{-0.59397805}
{0.2577156}
{-0.64901555}
{0.78930736}
{-0.15873387}
{0.18762217}
{0.5651572}
{-0.75423676}
{0.037228364}
{-0.052770473}
{0.6552334}
{0.6992737}
{-0.49481395}
{0.0034620543}
{0.10965291}
{-0.775301}
{-0.5157319}
{-0.59106654}
{0.79962957}
{-0.13941114}
{-0.9306501}
{0.15108456}
{-0.8413995}
{-0.92881835}
{-0.21088055}
{0.030320872}
{-0.29575187}
{-0.36576575}
{-0.87958324}
{0.7325629}
{0.56271577}
{-0.5095724}
{-0.08440417}
{0.58428824}
{-0.36658388}
{-0.6420958}
{0.850253}
{0.7184807}
{-0.2052624}
{-0.5873561}
{-0.15918759}
{0.20594728}
{0.5089498}
{-0.9686446}
{0.26232788}
{0.8269841}
{0.62499666}
{-0.5683801}
{-0.6294819}
{-0.42499155}
{0.0008664117}
{0.49409068}
{0.6149224}
{-0.090069}
{-0.40324733}
{-0.03724917}
{-0.03446148}
{-0.57068247}
{-0.30111673}
{-0.7446937}
{0.8153597}
{0.050191965}
{-0.124375194}
{-0.6196095}
{0.45000598}
{-0.7955906}
{0.3430381}
{0.5732247}
{-0.90868676}
{0.5606573}
{-0.568327}
{-0.97115123}
{0.7059163}
{0.56336343}
{-0.9500869}
{0.53696775}
{-0.14547731}
{0.9567107}
{-0.4454238}
{0.6101271}
{0.7517425}
{0.2360398}
{-0.038627043}
{-0.976781}
{0.26669356}
{-0.7323287}
{0.99634326}
{0.32524532}
{-0.5737821}
{-0.59443545}
{0.34358257}
{-0.008876058}
{0.03205921}
{0.7706769}
{-0.62222874}
{-0.934725}
{-0.58340156}
{0.1897858}
{0.9638359}
{0.36305195}
{0.38797447}
{-0.6706269}
{-0.7066944}
{-0.09062929}
{0.4055874}
{-0.9596847}
{-0.39864802}
{0.93606114}
{0.012372751}
{0.83185685}
{0.83072895}
{-0.88839054}
{-0.26204017}
{-0.18072386}
{-0.7642279}
{-0.5067522}
{-0.7608937}
{-1.0000931}
{0.40542454}
{0.7114879}
{-0.10270589}
{-1.0847511}
{-0.18566443}
{-0.98961955}
{-0.33052042}
{0.6636162}
{0.35693547}
{0.8622183}
{-0.27267483}
{-0.19023177}
{-0.13842733}
{0.88547605}
{0.18760416}
{-0.5047795}
{-0.48207033}
{-0.282076}
{-0.73821986}
{0.03326226}
{0.077998385}
{-0.3757098}
{0.6652473}
{0.7660377}
{0.7592276}
{-0.056111827}
{-0.7822732}
{0.54861695}
{-0.8154737}
{-0.37651807}
{0.07278115}
{-0.3623868}
{-0.28300998}
{1.016718}
{0.86019504}
{-0.86701787}
{-0.054558985}
{-0.91799814}
{0.60827196}
{0.23094657}
{-0.08421505}
{-0.45198655}
{0.67485726}
{0.006313961}
{0.32760352}
{-0.16343339}
{0.8215984}
{0.9120946}
{-0.39963877}
{0.28088847}
{0.07224352}
{-0.49880287}
{0.6153438}
{0.7301751}
{0.65608203}
{-0.9601785}
{-0.9984419}
{0.19489442}
{-0.48790053}
{-0.6239166}
{-0.38639084}
{0.2962451}
{-0.45485857}
{-0.10876311}
{-0.108480655}
{0.14715804}
{0.6863195}
{-0.19604906}
{0.21258278}
{0.5693136}
{0.04809598}
{0.94811517}
{-0.10895664}
{0.49071145}
{0.890916}
{0.37336224}
{0.47384885}
{-0.5568253}
{0.49176905}
{0.82802254}
{-0.47287798}
{-0.22072965}
{0.07370932}
{-0.94969153}
{0.7552154}
{-0.09293504}
{0.86785114}
{-0.6883835}
{-0.16653265}
{-0.25782797}
{0.048785966}
{-0.33920544}
{0.2930746}
{-0.46837723}
{0.96789014}
{-0.46500292}
{-0.26870912}
{-0.0013134865}
{0.5294596}
{0.93736875}
{-0.5860993}
{-0.04596121}
{0.6708809}
{-0.6053304}
{0.72977126}
{0.384826}
{0.9568113}
{0.31392086}
{0.32692608}
{0.21420753}
{-0.0697386}
{0.69445264}
{-0.514573}
{0.63432664}
{0.7792238}
{-0.07137013}
{0.8935114}
{-0.31696117}
{0.18897411}
{0.09022362}
{0.479495}
{0.031016551}
{-0.009444456}
{0.024917554}
{-0.23244745}
{0.31467927}
{-0.020769576}
{0.46712413}
{0.40316683}
{-0.8731108}
{-0.08192629}
{0.004977933}
{0.47839195}
{-0.9721797}
{0.90718424}
{0.079525225}
{-0.19563913}
{-0.24006653}
{-0.9437188}
{-0.33984363}
{0.09238824}
{0.94343126}
{0.7208041}
{0.4499887}
{0.3694174}
{0.3256063}
{-0.119159155}
{-0.09802152}
{-0.19179404}
{0.3903613}
{0.88321626}
{-0.6474173}
{0.22284463}
{0.9341177}
{0.6453761}
{0.360324}
{0.3063196}
{-0.3271729}
{0.3192031}
{-0.121480905}
{0.48050663}
{-0.47148725}
{0.12569472}
{-0.57775813}
{-0.36280406}
{0.74027044}
{-0.383127}
{-0.32414842}
{0.8590904}
{-0.2754632}
{-0.2631252}
{-0.54846203}
{0.19130087}
{-0.3498168}
{-0.075951055}
{0.4175146}
{-0.14647411}
{0.88813907}
{0.08694822}
{-0.35329765}
{0.79788935}
{0.6242674}
{-0.57912576}
{0.5798413}
{0.6413627}
{0.18056034}
{0.57358277}
{-0.18454082}
{-0.69627774}
{-0.5671019}
{-0.80663383}
{-0.066862434}
{0.9871085}
{-0.2842068}
{-0.6893209}
{-0.45999762}
{-0.82472175}
{0.52142984}
{0.1686823}
{-0.6003185}
{-0.48437214}
{0.27880633}
{0.8913466}
{-0.80193484}
{-0.1555183}
{0.59460926}
{0.21416208}
{-0.41133708}
{0.6213107}
{0.7936928}
{0.035283584}
{-0.004885736}
{-0.78688955}
{0.15795065}
{-0.35245708}
{-0.2879131}
{0.9107155}
{-0.52141654}
{-0.13767956}
{-0.0010830843}
{-0.15062374}
{0.8881487}
{-0.48786}
{-0.8946931}
{0.91067797}
{0.13047248}
{0.59346473}
{0.6237583}
{-0.47218144}
{0.40309918}
{-0.49775386}
{0.88212085}
{-0.035932783}
{-0.12144515}
{-0.043129902}
{-0.037258264}
{0.37215534}
{-0.6122228}
{0.5655135}
{0.14879443}
{0.93048364}
{-0.6900181}
{-0.48183206}
{-0.44736022}
{-0.54752904}
{0.6208252}
{-0.05069564}
{-1.0430986}
{0.0049180086}
{-0.5162055}
{0.8089889}
{-0.059640456}
{0.7795081}
{-0.19429801}
{-0.59255946}
{-0.93683535}
{-0.088659056}
{-0.32915023}
{-0.32135394}
{0.2932708}
{-0.3101783}
{0.90150005}
{0.79265606}
{0.07240432}
{-0.27150154}
{0.9276543}
{0.44652364}
{-0.035692655}
{0.04341567}
{0.50844055}
{-0.012680987}
{0.40766028}
{-0.9032671}
{0.24529044}
{-0.1124317}
{-0.017051306}
{-0.31216553}
{0.82129556}
{-0.7901536}
{-0.46331474}
{-0.012391939}
{-0.4249741}
{0.7038816}
{-0.52453536}
{0.19958724}
{0.84558856}
{-0.555848}
{0.78099394}
{-0.25330746}
{0.7918026}
{0.14402649}
{0.60066694}
{0.8735004}
{-0.24390613}
{-0.06804344}
{-0.7559601}
{-0.04193596}
{0.36080512}
{-0.46401885}
{-0.2413235}
{-0.79136276}
{-0.18553275}
{-0.7615706}
{-1.0176198}
{-0.12898411}
{-0.8203799}
{-0.6869494}
{-0.7155314}
{-0.64598083}
{0.45177135}
{0.891817}
{-0.3853278}
{0.26468667}
{0.51007533}
{-0.9755498}
{-0.23056695}
{0.8395787}
{0.8912514}
{-0.5996405}
{-0.88393444}
{0.61256826}
{-0.852977}
{-0.05471609}
{0.28931743}
{0.2769156}
{0.18874991}
{-0.35644653}
{0.38502106}
{0.3288366}
{0.9719382}
{-0.19506839}
{-0.14893736}
{0.89308196}
{0.8553512}
{0.2400355}
{-0.5291665}
{0.8115537}
{-0.31941316}
{0.41070053}
{-0.9013876}
{0.71426064}
{-0.81050956}
{0.80107796}
{-0.388291}
{0.52372515}
{-0.093082465}
{0.90239155}
{-0.78726774}
{-0.7255442}
{-0.18670252}
{0.9217459}
{0.51347834}
{0.4531661}
{0.8332634}
{0.55015075}
{-0.8777387}
{0.66035664}
{-0.80012274}
{0.25685808}
{-0.062534355}
{0.43586865}
{0.64155143}
{0.6827723}
{-0.4091549}
{0.6423309}
{0.07148678}
{0.5605401}
{0.5710838}
{0.5807996}
{0.15272255}
{0.23783109}
{0.24448812}
{0.053167365}
{-0.33194908}
{0.29643366}
{-0.70744085}
{0.20774493}
{-0.17225792}
{0.8836664}
{0.06248329}
{-0.5967415}
{0.23254512}
{-0.9639932}
{0.20314965}
{-0.24185936}
{0.19664931}
{0.43743655}
{0.41216063}
{-0.559534}
{-0.15705712}
{0.39319035}
{-0.18280596}
{-0.95976543}
{-0.34257278}
{-0.55669034}
{0.39863917}
{0.6111962}
{0.07234181}
{0.32494304}
{-0.44453683}
{0.068639964}
{0.6095402}
{-0.7938212}
{-0.8922509}
{-0.16443972}
{0.9649225}
{-0.451628}
{0.72323257}
{0.5551156}
{-0.12262572}
{-0.53571093}
{0.7201775}
{0.19745141}
{-0.3698107}
{0.013706464}
{0.8383388}
{-0.476277}
{0.4196396}
{0.66780293}
{-0.08754812}
{0.21259595}
{-0.5510433}
{0.92301}
{-0.81513053}
{0.70987856}
{0.96926093}
{0.89322174}
{-0.30693284}
{-0.379359}
{-0.3615912}
{-0.35450485}
{-0.83218586}
{0.7706496}
{-0.9412974}
{0.042586595}
{0.098246805}
{-0.06835997}
{0.7503516}
{0.3698742}
{0.68241435}
{-0.096776605}
{0.4455161}
{-0.8000885}
{0.74164253}
{0.7776892}
{-0.11315277}
{0.46240827}
{0.7821797}
{0.00799025}
{0.48711926}
{-0.63800323}
{0.99371755}
{0.20217836}
{-0.3915719}
{0.87290275}
{-0.17066935}
{0.690584}
{-0.15170966}
{0.35369012}
{0.20551443}
{-0.25703773}
{0.03278932}
{0.6891283}
{-0.6874014}
{0.6968856}
{-0.42214522}
{-0.2139087}
{-0.0059017525}
{0.96223265}
{-0.38155568}
{0.86260617}
{-0.8454853}
{0.39045978}
{0.17679568}
{-0.9515983}
{0.2540101}
{0.8954973}
{-0.75503}
{-1.0182964}
{0.61113065}
{-0.3181813}
{-0.9902321}
{-0.85194623}
{-0.17930691}
{0.79616696}
{-0.8411716}
{0.4858228}
{0.2835533}
{-0.3611716}
{0.54747057}
{0.76783025}
{-0.6267445}
{-0.6366764}
{0.58989567}
{-0.45418122}
{0.7385276}
{-0.9241967}
{0.43106607}
{-0.43639377}
{0.35706443}
{-0.27403265}
{-0.47012872}
{0.76203024}
{0.2479848}
{0.68576795}
{-0.23233972}
{-0.97260034}
{-0.3365432}
{0.82940954}
{-0.6840472}
{0.18623564}
{0.3048549}
{0.4693388}
{0.8443183}
{0.038256902}
{-0.68475455}
{-0.42134207}
{0.9590136}
{-0.7666606}
{0.21971346}
{-0.52338016}
{0.491297}
{-0.8110751}
{0.057806812}
{0.9376768}
{-0.1729997}
{0.66843235}
{-0.16107453}
{0.3308891}
{0.66110975}
{-0.6447214}
{0.4631338}
{0.9796214}
{0.3322459}
{-0.35037807}
{0.24548745}
{-0.32223696}
{-0.39511335}
{0.35952684}
{-0.39151898}
{0.025370467}
{0.74151886}
{0.4326484}
{0.14533378}
{-0.07334543}
{0.8687198}
{0.9394218}
{0.10711801}
{0.90609616}
{-0.69291556}
{0.8125268}
{-0.09230601}
{0.11076602}
{0.93419784}
{0.6600169}
{-0.13379219}
{0.4139421}
{-0.44988036}
{-0.6077472}
{-0.36230636}
{0.83733594}
{0.069547676}
{0.23840877}
{0.007743121}
{0.21242118}
{-0.5240881}
{0.8716091}
{-0.00030839676}
{0.09567341}
{-0.44175893}
{0.9262482}
{-0.61517346}
{-0.27272564}
{0.2493485}
{-0.85004747}
{-0.82521987}
{0.8017543}
{-0.5690836}
{0.8429202}
{0.82895416}
{-0.9049251}
{-0.93877363}
{-0.60722506}
{-0.05346738}
{0.72690165}
{-0.37632567}
{0.67318666}
{0.06860219}
{0.3500203}
{-0.6652546}
{0.43807003}
{-0.22392017}
{0.6001868}
{0.027691087}
{0.120713465}
{0.5511148}
{-0.373644}
{-0.0055230306}
{-0.7696668}
{-0.92014587}
{-0.50549465}
{-0.26417676}
{0.9090296}
{0.471787}
{0.6810415}
{0.17254598}
{0.22859094}
{-0.08789542}
{-0.4116695}
{-0.60554576}
{-0.91235054}
{0.85867065}
{-0.16540961}
{-0.952033}
{0.6910192}
{0.67793995}
{-0.1134352}
{0.39857894}
{0.8501705}
{-0.8469305}
{-0.8482061}
{-0.62174433}
{0.501701}
{0.1414223}
{0.7902101}
{0.8574181}
{-0.5971421}
{-0.814119}
{0.73372656}
{0.9943797}
{-0.23450616}
{0.15704577}
{0.31802198}
{-0.37623256}
{0.5472814}
{-0.5151543}
{0.7296506}
{0.48143506}
{0.3021557}
{-0.8850582}
{-0.5356498}
{-0.07009888}
{0.347748}
{-0.3492548}
{-0.7491613}
{-0.8334767}
{-0.6988176}
{0.13514239}
{-0.10652609}
{0.6355275}
{0.46416733}
{0.05055325}
{0.09000614}
{0.20236528}
{-0.4319735}
{0.05565618}
{0.44323635}
{0.39333266}
{0.87630856}
{0.25078988}
{-0.50485426}
{-0.8022632}
{0.33980605}
{-0.9261211}
{-0.8355058}
{-0.69619554}
{0.40035507}
{0.07595378}
{-0.41261816}
{-0.6722388}
{-0.775077}
{0.07949381}
{0.9152433}
{0.31399676}
{0.9420129}
{0.28726727}
{0.47783765}
{0.29569685}
{-0.5361682}
{0.36419111}
{-0.9396606}
{0.6957885}
{0.36366484}
{0.5665953}
{0.023989908}
{0.3330916}
{-0.2220991}
{-0.4704572}
{-0.6817178}
{0.39610994}
{0.41721556}
{-0.87927836}
{-0.70994806}
{-0.56692696}
{0.45766613}
{0.6230489}
{0.2297388}
{-0.0042345948}
{0.6387118}
{0.56533337}
{0.19026405}
{-0.32560351}
{0.7494055}
{0.028703297}
{0.13769394}
{-0.36698127}
{0.5778259}
{0.5770483}
{-0.45626953}
{-0.44523785}
{0.31298134}
{-0.8871144}
{0.9992606}
{-0.49906763}
{-0.05309103}
{-0.9636238}
{-0.96105176}
{0.69504964}
{-0.22683576}
{-0.11208194}
{0.40051803}
{-0.9448854}
{0.17888114}
{0.34953985}
{-0.5062657}
{0.824717}
{0.9379271}
{0.3722588}
{-0.24441831}
{0.10690722}
{-0.61434543}
{-0.0777382}
{0.028394146}
{0.2511151}
{0.8502115}
{0.9199211}
{-0.66024613}
{0.11623735}
{-0.5349742}
{-0.65071803}
{-0.72853523}
{0.15764306}
{0.24655434}
{0.5744043}
{0.995612}
{0.7584671}
{0.9254602}
{0.8420337}
{-0.5716749}
{0.011924407}
{0.7853159}
{-0.93891776}
{1.0101093}
{-0.8574973}
{0.44540712}
{-0.91197}
{-0.77552766}
{0.21939681}
{-0.90966547}
{-0.24448171}
{-0.28042367}
{-0.10281605}
{-0.9626335}
{0.2649133}
{-0.009442901}
{0.08236875}
{-0.15901521}
{-1.0497245}
{0.19883412}
{-0.071031176}
{-0.18018058}
{-0.32673982}
{-0.29216692}
{0.73892426}
{-0.4243038}
{-0.8093286}
{0.61817634}
{-0.8053894}
{-0.7631465}
{-0.7980695}
{-0.13195491}
{-0.3678412}
{0.49246168}
{-0.95129687}
{-0.8260903}
{0.5849453}
{0.7530168}
{-0.14126252}
{0.18600796}
{0.5681672}
{-0.13888095}
{-0.8505385}
{-0.4040716}
{0.30338866}
{-0.3064566}
{-0.67823404}
{0.8358861}
{0.9368909}
{0.80208504}
{-0.95330125}
{0.8631022}
{0.2752804}
{0.014545459}
{0.50373507}
{0.463532}
{0.36215234}
{0.67876613}
{-0.7817651}
{-0.0054491176}
{-0.8844011}
{0.27655193}
{0.037990928}
{-0.04592613}
{0.21799316}
{0.9453639}
{-0.27250502}
{-0.043051418}
{0.6943211}
{-1.0009147}
{0.8220588}
{0.9293295}
{-0.9520486}
{0.67374647}
{-0.44675252}
{0.24270606}
{0.0960377}
{-0.076535895}
{-0.68188673}
{0.09588854}
{0.008315249}
{-0.91079366}
{0.37890092}
{-0.12196975}
{0.5678634}
{0.7454189}
{0.47748494}
{0.5000907}
{0.5432123}
{-0.65443623}
{-0.4020851}
{0.9287256}
{-0.16830564}
{-0.76960504}
{-0.8298133}
{-0.0056544906}
{0.8565461}
{-0.591148}
{0.6040581}
{0.6043951}
{-0.71760064}
{-0.34593967}
{0.19356745}
{0.15277316}
{-0.2577521}
{0.49806985}
{0.09558506}
{-0.5151027}
{0.96480596}
{-0.31205466}
{0.037725195}
{0.050491296}
{-0.099218816}
{0.61490095}
{0.3054755}
{-0.16716494}
{0.77038276}
{-0.5715896}
{-0.35095063}
{0.4474388}
{0.85856444}
{0.57644427}
{-0.6028636}
{0.9591178}
{0.008915751}
{0.9691411}
{0.3847927}
{0.7077064}
{-0.98585147}
{0.92013156}
{0.8226722}
{0.6473112}
{-0.23583645}
{0.09327514}
{-0.42189962}
{-0.007341632}
{-0.039828155}
{-0.50038123}
{-0.687689}
{-0.060975995}
{0.12994087}
{-0.7619041}
{0.38780046}
{-0.79671866}
{-0.8709191}
{-0.30361727}
{0.03420501}
{-0.14425053}
{0.70198435}
{0.30283567}
{0.3001443}
{-0.44004038}
{0.9350549}
{0.75836384}
{0.32068288}
{-0.20679535}
{-0.8193906}
{-0.08160848}
{-0.06561566}
{-0.44141966}
{-0.29012305}
{-0.47050217}
{-0.9136775}
{0.8761204}
{0.6248998}
{0.63235223}
{-0.3028303}
{0.63017476}
{0.050076354}
{-0.79189956}
{0.62628555}
{-0.37880656}
{0.582947}
{-0.5339266}
{-0.19428748}
{-0.5338079}
{0.98499537}
{0.4821349}
{0.22341533}
{0.6286291}
{0.40127853}
{0.19755957}
{0.06911522}
{-0.99630386}
{0.409206}
{-0.51639175}
{-0.26070482}
{-0.25566605}
{0.9926305}
{-0.6500462}
{0.5878671}
{-0.99520254}
{-0.055940032}
{0.43499467}
{-0.87068844}
{-0.5921773}
{0.04096702}
{-0.7093681}
{0.16245984}
{-0.7506094}
{0.39700255}
{0.042212036}
{0.40908042}
{0.65096354}
{0.25104976}
{0.8920914}
{-0.68093807}
{0.6760652}
{-0.1665304}
{0.7722205}
{-0.012729086}
{-0.7527502}
{0.63338375}
{0.84125626}
{-0.36054912}
{-0.72979355}
{-0.1541117}
{0.31792495}
{0.3951238}
{0.62870985}
{-0.13097233}
{0.46741793}
{0.58556306}
{0.7542423}
{0.4514672}
{-0.010785321}
{-0.31134158}
{0.2129283}
{-0.78355455}
{-0.9717213}
{0.6771849}
{0.95567167}
{0.6034234}
{-0.74574506}
{0.9647682}
{0.22851445}
{0.4123721}
{-0.096790485}
{-0.70884275}
{-0.36172166}
{-0.1368128}
{-0.99173653}
{0.4243027}
{-0.46265155}
{0.81505775}
{0.22766444}
{-0.29805437}
{0.16600747}
{0.17637551}
{0.22081253}
{-0.7873986}
{-0.83003926}
{0.65315676}
{0.46901104}
{0.22081028}
{0.67296106}
{-0.7682684}
{-0.06590984}
{-0.3140727}
{0.7701343}
{0.8747894}
{-0.7906643}
{-0.027211837}
{-0.699888}
{0.8983876}
{0.13106224}
{0.068474606}
{-0.27670726}
{0.47377014}
{-0.37708715}
{0.46000442}
{0.07362471}
{-0.86407876}
{0.6444131}
{0.015087123}
{0.6200286}
{-0.1665244}
{0.9505743}
{-0.58985996}
{0.2710295}
{0.1396354}
{-0.11952751}
{0.087238856}
{0.38383886}
{0.80204487}
{-0.9836124}
{-0.31373286}
{-0.09029364}
{0.29372862}
{-0.8987168}
{0.5782217}
{-0.39054528}
{0.8759586}
{-0.091209345}
{-0.2942874}
{-0.38625273}
{-0.32565463}
{-0.11826866}
{0.58833176}
{0.07595872}
{0.3417908}
{0.077401705}
{-1.0054964}
{-0.34974802}
{-0.8067485}
{0.37491223}
{-0.26513812}
{-0.8105374}
{0.1669845}
{-0.2517598}
{0.05911495}
{-0.9286529}
{-0.50543135}
{-0.512054}
{-0.6028924}
{0.24825108}
{-0.9212147}
{-0.3539479}
{-0.16996801}
{-0.67204934}
{0.20734015}
{-0.99686396}
{-0.06890832}
{-0.83876514}
{-0.061437212}
{0.21218178}
{-0.7508642}
{-0.5650869}
{0.8057706}
{-0.096277885}
{0.6009906}
{-0.92716014}
{-0.4166836}
{-0.3046613}
{0.7154107}
{-0.85389626}
{0.47975144}
{0.17909214}
{-0.48205698}
{-0.3347551}
{0.8432607}
{-0.20698312}
{0.4467513}
{-0.5650895}
{-0.21649922}
{0.25769064}
{-0.83235925}
{0.27662486}
{-0.16768435}
{0.68149054}
{-0.8063504}
{0.9105063}
{-0.03543877}
{-0.48597363}
{-0.8153714}
{-0.123107105}
{0.98082507}
{0.58268917}
{0.60963315}
{0.38488835}
{-0.835503}
{-0.6101607}
{-0.32815585}
{0.7642313}
{0.98427796}
{-0.9475757}
{-0.73428303}
{0.47631395}
{-0.06592751}
{-0.3918343}
{0.74458987}
{-0.9678088}
{0.9389894}
{-0.11977666}
{-0.98294175}
{0.4135658}
{-0.2235019}
{0.4266834}
{-0.62070525}
{0.3417566}
{0.5027299}
{-0.14867736}
{0.3673889}
{-0.95728666}
{0.011548761}
{0.6568428}
{0.45432612}
{0.58026034}
{-0.038361378}
{0.53564227}
{0.21587375}
{-0.778649}
{0.8493795}
{0.11353852}
{0.29854694}
{-0.9271804}
{0.87085617}
{0.10674052}
{-0.6907376}
{0.36584488}
{0.46065775}
{0.13017246}
{0.5829483}
{-0.7525541}
{-0.17118615}
{0.87577784}
{0.6365811}
{0.5038757}
{0.8972848}
{-0.6168238}
{0.08498425}
{-0.24873249}
{-0.4965654}
{-0.30914524}
{0.3403041}
{0.9117841}
{0.9240433}
{-0.21915272}
{0.7716108}
{-0.84615266}
{0.87091106}
{0.123216845}
{0.0021512844}
{0.6018917}
{0.7054075}
{-0.8728517}
{-0.08653422}
{0.526011}
{-0.14661862}
{0.5027782}
{0.56572956}
{0.056979477}
{0.5840525}
{0.44011018}
{0.7833441}
{-0.45864004}
{0.43485042}
{-0.13408443}
{-0.4377046}
{-0.16326417}
{0.07984949}
{0.673277}
{0.79353696}
{-0.75296164}
{0.68367344}
{0.6145257}
{-0.6418595}
{0.060640376}
{0.2324864}
{-0.1281721}
{0.26736102}
{0.71065223}
{-0.5915439}
{0.45918152}
{0.37127903}
{0.3853958}
{0.1864556}
{-0.23379043}
{-0.9159366}
{0.76408625}
{-0.18842043}
{-0.8141707}
{0.08943825}
{0.6377729}
{0.49371958}
{-1.0068389}
{-0.8114546}
{-0.42861983}
{-0.5154801}
{-0.24203566}
{0.033242505}
{-0.89279723}
{0.6363556}
{0.30567905}
{0.51758504}
{-0.27143124}
{0.4087788}
{0.53320897}
{-0.48108837}
{-0.023801142}
{-0.17568527}
{0.4752328}
{0.99289197}
{-0.8093892}
{-0.39777508}
{0.56605184}
{-0.27410936}
{0.0040430757}
{0.55689263}
{0.33453485}
{-0.76337343}
{-0.30873287}
{-0.23814103}
{-0.6516129}
{0.4293992}
{0.69785565}
{0.84087867}
{-0.16648701}
{0.2931331}
{0.84394366}
{-0.390973}
{0.71996725}
{-0.48299715}
{0.79698557}
{-0.5804706}
{0.95732987}
{0.57299405}
{-0.8502287}
{-0.47770843}
{-0.6381868}
{-0.90205383}
{-0.5008708}
{0.5573616}
{0.92774856}
{0.95376754}
{-0.8604942}
{0.16881217}
{-0.21249893}
{-0.6552937}
{-0.8824144}
{0.8058928}
{0.8269659}
{-1.0158665}
{0.060787227}
{0.9592877}
{-0.031783324}
{-0.02386585}
{-0.7352502}
{-0.38350803}
{0.8838619}
{0.91252244}
{0.71506166}
{0.33426932}
{0.6471828}
{-0.24712564}
{0.67855716}
{-0.034988504}
{0.25330278}
{0.1464086}
{0.56183517}
{-0.13506672}
{-0.17425612}
{-0.50277835}
{0.85944}
{-0.2528194}
{0.8712069}
{0.59979045}
{-0.18676811}
{0.14385192}
{0.42363593}
{0.18262933}
{-0.08714613}
{0.93761647}
{-0.26756838}
{0.083421774}
{-0.8894233}
{-0.96960723}
{0.6818646}
{0.8364147}
{0.63303196}
{-0.073915236}
{0.66310847}
{-0.21075529}
{0.23930246}
{0.90844804}
{0.2053766}
{-0.32058778}
{0.38552177}
{-0.92290133}
{0.3272154}
{0.70836216}
{0.20314421}
{0.18182047}
{0.21556279}
{0.6183801}
{-0.5278271}
{-0.64013815}
{-0.71963775}
{0.64119077}
{-0.68184644}
{0.6844832}
{0.76419795}
{-0.8282397}
{-0.99995035}
{-0.5917964}
{-0.5626849}
{-0.64835256}
{-0.7822751}
{0.6862255}
{0.12684867}
{-0.40852413}
{0.10971997}
{0.21613118}
{0.022396583}
{0.47202316}
{-0.35577393}
{-0.32549712}
{0.43698236}
{0.63659155}
{0.49763158}
{-0.6756738}
{-0.8671447}
{0.07323027}
{-0.10604335}
{-0.82308346}
{-0.79446876}
{0.87887746}
{-0.7416575}
{-0.26192358}
{0.59970725}
{-0.27369416}
{0.40774623}
{0.73088425}
{-0.46880987}
{0.48374206}
{0.46919632}
{0.8690209}
{-0.15638116}
{0.5976078}
{0.8083415}
{-0.6546297}
{0.461287}
{-0.65993464}
{0.810853}
{-0.3476723}
{0.80265844}
{-0.2305624}
{-0.623576}
{0.09144226}
{0.020921249}
{-0.74616754}
{0.3566572}
{-0.3375198}
{0.5196315}
{0.8902041}
{-0.8039244}
{-0.9597158}
{-0.19068053}
{-0.6416763}
{0.2534531}
{0.34126547}
{0.45538494}
{-0.53633964}
{-0.5704683}
{0.3157499}
{0.30713126}
{-0.7166933}
{0.67213696}
{-0.37702125}
{-0.03868578}
{-0.15505733}
{0.57979476}
{0.23225276}
{0.6652483}
{-0.6906157}
{-0.33519447}
{0.7741803}
{0.16713259}
{-0.41452378}
{-0.3618867}
{-0.5505439}
{0.80392516}
{0.3207686}
{0.3657283}
{-0.40074956}
{-0.008130292}
{0.16445965}
{-0.3079454}
{-0.03201737}
{0.06559355}
{-0.76274145}
{0.16417328}
{-0.7306738}
{-0.96297824}
{-0.2886204}
{0.38253906}
{0.72653407}
{0.19091722}
{0.68721575}
{-0.83375496}
{-0.7563408}
{0.8611108}
{-0.41200045}
{-0.25721228}
{0.2421314}
{0.54715073}
{0.1761304}
{0.90328616}
{-0.8951354}
{0.81963384}
{-0.03707016}
{0.9548693}
{0.2658301}
{0.44691393}
{-0.60279685}
{0.8525293}
{0.53271043}
{-0.9485806}
{0.16046439}
{0.1974958}
{0.665252}
{0.4775746}
{-0.7425039}
{-0.83816946}
{-0.79404104}
{0.34279296}
{-0.11544828}
{0.26528794}
{0.36300156}
{0.085482664}
{-0.75024474}
{0.7502804}
{0.4845551}
{-0.98571026}
{-0.97612333}
{-0.6853644}
{-0.4769112}
{0.70840394}
{-0.31072953}
{-0.39799666}
{-0.52381265}
{0.87262905}
{0.96735215}
{0.619662}
{0.7122205}
{-0.7439872}
{0.5461978}
{-0.48454463}
{0.46486643}
{-0.6508757}
{-0.45450228}
{0.200712}
{0.6211801}
{-0.772586}
{-0.055995725}
{0.3551567}
{0.1416923}
{0.3949661}
{0.2752917}
{-0.97404087}
{-0.30773586}
{0.4103224}
{-0.49278945}
{0.7079699}
{-0.74272364}
{-0.89160836}
{0.120354414}
{-0.43827763}
{0.71469176}
{-0.19639328}
{0.86879647}
{-0.09579648}
{0.50244576}
{0.6234509}
{0.60643905}
{-0.76421225}
{-0.3288266}
{0.120906584}
{0.021042958}
{0.26445526}
{-0.25467798}
{0.109817296}
{0.47710416}
{0.78298074}
{0.32807586}
{-0.8340744}
{0.024462208}
{0.72857314}
{-0.98428917}
{0.37186858}
{0.89639384}
{0.5603809}
{0.36366805}
{-0.5041055}
{-0.3821089}
{0.42363402}
{0.40550143}
{-0.048799258}
{-0.8733939}
{0.48276368}
{0.8939954}
{-0.43263224}
{-0.7854356}
{0.17378533}
{-0.35355568}
{0.2019181}
{0.19886072}
{-0.37726325}
{-0.53511333}
{0.15524885}
{-0.43373957}
{0.37153384}
{0.42978397}
{0.773805}
{-0.7400919}
{-0.478597}
{-0.77290297}
{-0.8891622}
{-0.9611218}
{0.97879785}
{0.96057993}
{0.12953946}
{-0.10695514}
{0.2758162}
{0.95492625}
{0.95843065}
{-0.7726369}
{0.86372244}
{0.54756486}
{0.4382381}
{-0.8399112}
{0.1861013}
{-0.50989103}
{0.91552055}
{0.31615114}
{0.97984517}
{-0.3067652}
{0.23349354}
{0.95886743}
{-0.33563048}
{-0.08448531}
{-0.89107573}
{-0.47610167}
{0.9119927}
{0.82758456}
{0.70037043}
{-0.21060863}
{0.6711506}
{-0.013884909}
{-0.68802774}
{0.5459967}
{0.27817416}
{-0.72785366}
{-0.40837315}
{0.47823194}
{-1.0061017}
{0.04521107}
{0.24410746}
{0.506905}
{-0.06927283}
{0.79977936}
{-0.9963182}
{0.6089139}
{-0.6905897}
{-0.59125876}
{0.017825145}
{0.4837129}
{-0.4438673}
{-0.15334712}
{0.15276286}
{0.9507557}
{0.9087781}
{0.56953907}
{0.9217912}
{-0.65347606}
{0.7117091}
{-0.5246139}
{-0.35434917}
{-0.73058325}
{-0.49832484}
{-0.05634724}
{-0.71175444}
{-0.54886687}
{-0.91403604}
{0.09979881}
{-0.9399127}
{0.95421016}
{-0.0488529}
{0.052729547}
{-0.6115333}
{0.1638675}
{0.33967355}
{-0.15755966}
{-0.3584595}
{-0.36528808}
{0.51341397}
{0.8799603}
{0.3399851}
{-0.87996596}
{0.07859168}
{-0.72886276}
{0.838616}
{-0.17715016}
{0.9451887}
{0.6035581}
{0.0702048}
{0.07544326}
{0.17167598}
{0.4901098}
{0.14119193}
{0.09737643}
{-0.77339643}
{-0.8290651}
{-0.07517119}
{-0.084981255}
{0.2713266}
{0.5163216}
{0.6774961}
{0.8245251}
{-0.28055087}
{0.02666423}
{-0.65282476}
{-0.32209158}
{-0.38864222}
{-0.05279665}
{0.39916298}
{0.52313745}
{0.01115469}
{-0.57204676}
{-0.21242884}
{-0.7460255}
{-0.99126446}
{0.027576122}
{0.97095907}
{0.5894883}
{0.08966533}
{-0.9836952}
{0.13421962}
{-0.7531995}
{-0.5376046}
{-0.3207265}
{0.8540784}
{0.17097212}
{0.53208554}
{-0.78991145}
{0.109071285}
{-0.064411655}
{0.76794493}
{-0.09902428}
{-0.80796206}
{-0.07040255}
{-0.89311635}
{0.786512}
{-0.4111462}
{0.19510455}
{0.7815105}
{0.7827888}
{0.17618105}
{-0.96272147}
{-0.37509573}
{-0.2573062}
{-0.64041626}
{0.2965192}
{-0.951552}
{-0.15856886}
{-0.4544442}
{0.9041158}
{0.46787998}
{-0.12820865}
{0.18679711}
{0.88795066}
{0.76609325}
{0.014307376}
{-0.40400103}
{-0.11077556}
{-0.396691}
{-0.28097668}
{-0.00801752}
{0.6763777}
{-0.2847358}
{-0.0055575636}
{-0.94892204}
{-0.85011405}
{0.41493127}
{-0.78357816}
{-0.20342019}
{0.4916046}
{0.8708698}
{0.5174495}
{-0.3470414}
{-0.039002288}
{0.11613292}
{-0.73719126}
{-0.41542557}
{-0.28028217}
{-0.30573764}
{-0.43282077}
{-0.07904572}
{-0.43918693}
{0.6504309}
{0.7185898}
{0.072221346}
{0.79225767}
{-1.0062771}
{-1.0027806}
{-0.236213}
{-0.2636682}
{0.96851784}
{0.19970784}
{-0.11552828}
{-0.29142877}
{-0.792234}
{-0.03814796}
{0.93288577}
{-0.20431757}
{-0.5395821}
{0.43400785}
{0.69394076}
{0.69134605}
{0.55437374}
{0.26620808}
{0.048485316}
{-0.61660266}
{0.4911591}
{0.5720811}
{-0.7041818}
{0.37853438}
{0.6242563}
{0.09259186}
{0.25456592}
{0.78077865}
{-0.253041}
{0.50672734}
{0.7103051}
{-0.36754835}
{-0.16663262}
{-0.5949854}
{0.055146508}
{-0.836592}
{0.6092281}
{-0.09009981}
{-0.20965078}
{0.22130118}
{0.65141165}
{-0.07512448}
{-0.58538234}
{-0.04355744}
{0.72109383}
{-0.7787488}
{0.7176627}
{0.6876096}
{0.7301446}
{0.4636111}
{0.5037049}
{0.44484916}
{0.4858348}
{-0.19922496}
{0.43108103}
{0.31274655}
{-0.48903802}
{0.012366112}
{0.8654119}
{0.57610136}
{-0.52218986}
{-0.16187495}
{-0.0150086675}
{-0.42398778}
{-0.025715701}
{-0.78210706}
{-0.19877437}
{-0.5213948}
{0.9129822}
{-0.68061864}
{0.11762476}
{0.82177097}
{-0.0321534}
{-0.7511064}
{0.566944}
{-0.2773866}
{0.40498105}
{-0.20456116}
{-0.010728577}
{0.32221082}
{-0.44578657}
{-0.23078139}
{-0.6157092}
{0.8414464}
{0.35078704}
{-0.5384871}
{0.3370566}
{-0.74492997}
{-0.6486201}
{-0.25338477}
{0.24280307}
{-0.7032493}
{0.47754753}
{0.36666545}
{0.26648232}
{0.43680483}
{0.50266737}
{0.32917717}
{-0.5549487}
{-0.0008304359}
{-0.34432742}
{-0.89242}
{0.30018136}
{-0.9314823}
{0.1903142}
{0.71477175}
{-0.48271564}
{0.7310142}
{-0.29767466}
{-0.38470837}
{0.55533993}
{-0.6555275}
{-0.96657896}
{-0.3901902}
{0.5385245}
{-0.5597688}
{0.22809352}
{-0.42664853}
{-0.23229149}
{0.6836103}
{-0.8675345}
{-0.12171994}
{-0.4440339}
{-0.74782175}
{-0.31488994}
{0.32269314}
{-0.60452044}
{-0.62869906}
{0.7174764}
{-0.82126635}
{0.36797783}
{0.11527581}
{-0.9164424}
{0.61109143}
{0.9012073}
{-0.6418164}
{0.54397285}
{0.69055057}
{0.9622704}
{-0.6350765}
{0.64038116}
{0.7801802}
{-0.9038838}
{-0.9209393}
{0.6363851}
{-0.3940866}
{0.5786263}
{0.39327437}
{0.43170547}
{0.18495637}
{0.9541718}
{0.774347}
{-0.80120516}
{-0.56791747}
{0.42094538}
{-0.6872125}
{-0.4254768}
{-0.61604446}
{0.05936843}
{0.9708882}
{0.8704265}
{-0.5198664}
{0.6548065}
{-0.3490876}
{1.032949}
{0.48647052}
{0.68004286}
{0.60352397}
{-0.60968745}
{-0.4609261}
{0.3038685}
{0.15427485}
{-0.37548587}
{0.15810937}
{-0.09694951}
{-0.35925612}
{-0.63773066}
{-0.20892897}
{0.5248021}
{-0.3812043}
{-0.073195085}
{0.020346817}
{0.81683695}
{-0.8938784}
{0.70079035}
{0.21496397}
{-0.09028738}
{0.85746133}
{-0.7513961}
{-0.8293364}
{-0.67190635}
{-0.7366618}
{0.82445127}
{0.18038487}
{0.31071588}
{0.7063768}
{0.2709491}
{-0.9262389}
{0.3009455}
{-0.91007763}
{0.88958764}
{0.83449775}
{0.92297494}
{-0.17301966}
{0.42183062}
{0.45653862}
{0.20741984}
{-0.07553255}
{0.5804063}
{0.8564332}
{-0.7257546}
{-0.36007163}
{0.033525523}
{0.47722116}
{-0.8234161}
{0.02657335}
{-0.6891328}
{-0.3627781}
{0.43305776}
{-0.15314262}
{-0.2523546}
{0.6889677}
{-0.52331156}
{-0.24195059}
{-0.90050876}
{-0.76069933}
{0.94198287}
{0.3062266}
{0.28208095}
{0.24921253}
{-0.99264777}
{0.14599998}
{0.55159676}
{-0.08804896}
{-0.2991474}
{-0.5178231}
{-0.8314412}
{-0.19195177}
{-0.12046259}
