-- Efficiency --
97.40061
-- Weights --
{-0.8645437}
{0.7376546}
{0.84968096}
{0.59645355}
{0.6741092}
{-0.08618481}
{0.88115513}
{-0.16084197}
{-0.40422446}
{-1.0200155}
{0.8695779}
{-0.018552389}
{-0.17774469}
{-0.4094443}
{0.82318395}
{0.5002127}
{-0.281076}
{0.6790937}
{-0.90060484}
{0.7986255}
{-0.5084335}
{-0.10817712}
{0.63135815}
{-0.7745092}
{-0.48628646}
{-0.52973014}
{0.6376595}
{0.9427144}
{-0.71955967}
{0.7749179}
{-0.045818493}
{-0.63507694}
{-0.11481874}
{0.69875395}
{0.5812719}
{0.011798256}
{-0.07351443}
{-0.52718717}
{-0.7899045}
{0.85756475}
{-0.7947619}
{0.61481386}
{0.1320203}
{0.30172357}
{0.6983421}
{0.11334933}
{0.5106183}
{0.7503644}
{0.85037804}
{0.033730976}
{-0.55533934}
{0.50342846}
{0.83894587}
{-0.117792666}
{0.35068205}
{0.9466777}
{-0.23161584}
{-0.76026434}
{0.6162438}
{-0.15295762}
{0.82973385}
{0.8634182}
{0.20619677}
{0.047698848}
{-0.27677804}
{-0.42552257}
{0.56194896}
{-0.16714485}
{0.733933}
{0.19448648}
{0.9630472}
{-0.8496007}
{0.23015493}
{0.93536264}
{0.8715748}
{0.6340576}
{0.77356267}
{0.33583832}
{0.07210537}
{-0.36776665}
{0.7436662}
{0.8144103}
{0.533302}
{0.7855793}
{0.048570205}
{-0.3432551}
{0.25721362}
{0.22561274}
{-0.68889093}
{-0.273586}
{-0.6404125}
{-0.32295927}
{0.9493296}
{0.7371626}
{0.19404279}
{-0.0048293024}
{0.32023114}
{0.4680604}
{-0.7181913}
{-0.2803912}
{0.6263876}
{0.5452074}
{0.16105057}
{-0.54875344}
{0.47954956}
{-0.5967192}
{0.78944606}
{-0.9566632}
{-0.503849}
{-0.5342766}
{-0.02077815}
{-0.8233757}
{-0.32597905}
{0.6585797}
{0.9557082}
{0.5163591}
{0.569757}
{-0.20717233}
{0.5400173}
{-0.31994596}
{-0.35831124}
{0.23660146}
{0.54231215}
{-0.94811195}
{0.6824951}
{0.7363083}
{0.8549572}
{0.08321389}
{0.6540985}
{0.4452118}
{-0.04166693}
{0.11746421}
{-0.07016299}
{-0.25468156}
{-0.39105582}
{0.38455123}
{0.30460352}
{0.82708454}
{-0.21177451}
{-0.040697515}
{-0.39657003}
{0.19942734}
{0.88281417}
{-0.7900354}
{0.7978215}
{0.41039637}
{0.07573626}
{0.63163}
{0.7776506}
{-0.103685}
{0.17257726}
{0.4545381}
{0.24934071}
{0.68554705}
{-0.57615864}
{-1.0130886}
{-0.24674207}
{-0.16465972}
{0.7641423}
{-0.07454453}
{-0.08607239}
{-0.8242683}
{-0.85581666}
{0.43646276}
{-0.76653814}
{0.06437992}
{-0.26249143}
{0.19177528}
{-0.7867639}
{-0.111529455}
{-0.90245646}
{0.5816768}
{-0.31038386}
{-0.071959116}
{-0.9477118}
{-0.029745068}
{0.3268041}
{0.76846254}
{0.9339544}
{-0.045252774}
{0.6422696}
{0.38915238}
{0.3878591}
{-0.8548429}
{0.13999909}
{0.012066512}
{-0.8349035}
{0.3759088}
{-0.7424042}
{0.4540742}
{-0.06442539}
{-0.46206838}
{-0.8457322}
{-1.0054984}
{0.6798787}
{-0.48075676}
{0.40245932}
{0.53994167}
{0.5794259}
{0.9027502}
{-0.54558516}
{0.5730615}
{0.397132}
{-0.95709383}
{-0.6716163}
{0.610805}
{-0.04151184}
{0.6538884}
{-0.689795}
{-0.46011803}
{0.7530685}
{-0.6199256}
{0.39507526}
{-0.7944992}
{-0.92400444}
{0.15547378}
{-0.49453002}
{0.783319}
{-0.28025526}
{0.9337472}
{0.50654006}
{-0.6568066}
{-0.04037477}
{0.61031836}
{-0.26320916}
{0.025193661}
{-0.14589673}
{0.15358305}
{0.7867131}
{-0.43998805}
{0.79849577}
{-0.3506871}
{-0.6272025}
{-0.7102825}
{0.57689875}
{-0.2528662}
{0.12757558}
{0.6078874}
{0.34743297}
{0.8944855}
{0.18427652}
{-0.84467727}
{-0.21092233}
{0.5588329}
{-0.99062943}
{0.70716643}
{0.10839885}
{-0.5564648}
{0.85431004}
{0.6306888}
{0.37682334}
{-0.16695262}
{-0.76277494}
{-0.8181556}
{-0.8087389}
{-0.86585677}
{0.51620007}
{0.7472854}
{-0.68799794}
{0.7338956}
{0.59181046}
{-0.70230645}
{0.17166044}
{-0.06412922}
{-0.6252444}
{0.7069606}
{0.6039081}
{0.3390094}
{-0.9984157}
{-0.18778978}
{0.11956265}
{-1.0314115}
{-0.6457162}
{-0.018408548}
{0.75864404}
{0.07782141}
{-0.027240744}
{0.8301931}
{-0.56426316}
{-0.16927552}
{-0.16895157}
{-0.4483713}
{0.5595538}
{-1.0007355}
{-0.1922453}
{-0.60388154}
{-0.70651853}
{-0.95550334}
{0.60006285}
{0.6850248}
{0.39749855}
{-0.23745582}
{-0.014744512}
{0.009282046}
{0.7661716}
{-0.08776044}
{-0.25833946}
{0.3557213}
{0.9435161}
{-0.7025239}
{-0.21630007}
{0.9142205}
{-0.44920647}
{0.8009993}
{0.4200136}
{0.106783114}
{-0.2146761}
{-0.42483962}
{0.10580303}
{-0.7833521}
{-0.27226266}
{-0.81621104}
{-0.44169766}
{0.60114926}
{-0.7598951}
{-0.1877748}
{-0.56491446}
{0.7313407}
{0.16877386}
{-0.7356312}
{-0.3282979}
{-0.2656923}
{0.25452012}
{0.5611727}
{-1.0155203}
{0.89617974}
{0.58413863}
{0.71586496}
{-0.48151404}
{0.81446266}
{0.71836776}
{0.19804384}
{0.6375642}
{0.44751722}
{0.89331037}
{0.33321667}
{0.86298704}
{0.26053327}
{-0.6766619}
{-0.3015379}
{-0.44422656}
{-0.85765237}
{0.5880205}
{0.38518843}
{-0.8221946}
{-0.37083405}
{0.81715715}
{0.060068995}
{-1.0270958}
{0.32060948}
{0.051572163}
{0.22884414}
{-0.837713}
{0.6541217}
{0.13414946}
{0.51207155}
{-0.9952011}
{-0.30973262}
{0.44021046}
{0.63387007}
{-1.0101109}
{0.79630315}
{0.6072779}
{0.064683266}
{-0.03706144}
{0.33633173}
{0.7969726}
{0.0072316565}
{-0.13432927}
{0.040630613}
{0.71331036}
{0.48300734}
{-0.7691715}
{0.4695653}
{0.7996993}
{-0.5412498}
{0.51845455}
{0.76910824}
{0.7432147}
{0.90140015}
{-0.79070497}
{-0.44100395}
{-0.68525}
{0.5456544}
{0.31141394}
{-1.0270296}
{0.83477044}
{-0.84002155}
{-0.082572654}
{0.066181704}
{0.808354}
{0.53626895}
{-0.23678571}
{-0.65235806}
{0.07679607}
{-0.47954434}
{-0.49709946}
{-0.8644082}
{-0.040973112}
{-0.074820854}
{0.18840545}
{-0.37057108}
{0.6056782}
{-0.30090186}
{0.8820658}
{-0.3474374}
{-0.22391771}
{0.9293464}
{-0.64936876}
{0.30530182}
{-0.38459903}
{0.30190352}
{0.041391168}
{0.27007365}
{0.32242417}
{-0.25614634}
{-0.59627366}
{0.89014333}
{0.024019396}
{0.06097123}
{-0.8759072}
{-0.9398486}
{0.9371939}
{-0.95690197}
{0.14419192}
{0.77392274}
{-0.38304445}
{0.2252265}
{-0.8401072}
{-0.7296787}
{0.29179165}
{-0.20529217}
{-0.5540917}
{0.41452244}
{-0.5841723}
{-0.3646652}
{-0.7034583}
{0.568231}
{0.37444702}
{0.88722724}
{-0.2576905}
{0.82781374}
{0.004325565}
{0.8658297}
{-0.27111775}
{-0.25839806}
{0.46620378}
{-0.094639845}
{-0.6891093}
{0.4096044}
{0.34337988}
{-0.6757255}
{0.5495353}
{-0.37499785}
{-0.6755911}
{-0.48777813}
{-0.8461499}
{-0.15632081}
{-0.5068101}
{-0.6949333}
{-0.6766126}
{0.6440543}
{0.8635544}
{0.98438174}
{-0.9418733}
{0.9040341}
{0.028405508}
{0.7475331}
{-0.11585729}
{-0.15698777}
{0.7151774}
{0.5880972}
{0.5557804}
{-0.67859995}
{0.5352563}
{-0.46597695}
{0.17572731}
{0.18761943}
{-0.50587165}
{0.07570913}
{0.8639145}
{0.44697675}
{0.45392427}
{0.3463371}
{-0.97757554}
{-0.2415521}
{-0.6713481}
{0.25232166}
{0.59112763}
{0.3257098}
{-0.67534834}
{0.21750896}
{0.6159146}
{-0.9637332}
{0.26992512}
{0.6689552}
{0.11589096}
{-0.46343648}
{0.41867664}
{-0.1780191}
{0.069112375}
{0.044248853}
{-0.05419701}
{0.65292424}
{-0.9009993}
{-0.37600848}
{-0.25922585}
{-0.93305886}
{-0.8968446}
{-0.37376738}
{-0.5409152}
{-0.9419963}
{0.57442284}
{0.23538609}
{0.47538212}
{-0.8486507}
{0.72231126}
{-0.029080365}
{-0.6004348}
{0.7813052}
{0.13987774}
{0.9350891}
{0.9617857}
{0.84010243}
{0.2887072}
{-0.43202385}
{-0.44489166}
{-0.3586428}
{0.7161963}
{-0.5303524}
{0.14260784}
{0.7562606}
{0.5513835}
{0.41484085}
{0.13027911}
{-0.71378493}
{-0.69868255}
{-0.02175854}
{-0.10165458}
{0.19750082}
{0.12649626}
{0.7520064}
{0.1228773}
{0.19845209}
{0.68743944}
{-0.020245893}
{0.7067965}
{-0.13650182}
{0.11943456}
{0.50841224}
{0.13722956}
{0.21946894}
{0.53935885}
{-0.33753398}
{-0.001169642}
{0.88190347}
{0.061871838}
{-0.44745564}
{0.048250463}
{-0.13154347}
{-0.3789075}
{-0.5928469}
{-0.38195738}
{-0.3789837}
{-0.6005714}
{-0.2142324}
{0.46002612}
{0.06910944}
{0.8798604}
{0.47594464}
{-0.85557526}
{-0.9536412}
{0.675822}
{-0.39474934}
{-0.32681045}
{0.5043584}
{-0.61375475}
{0.41901997}
{-0.84131366}
{0.6698071}
{-0.8984859}
{-0.5111035}
{0.11351406}
{-0.35933843}
{0.5935533}
{0.89542747}
{0.4727098}
{0.69473505}
{-0.52182317}
{-0.046889875}
{-0.21853386}
{0.33746657}
{0.4794487}
{0.17861298}
{-0.57112473}
{0.82701486}
{-0.13357826}
{-0.70352906}
{-0.11934411}
{0.50449556}
{0.7974739}
{0.20081377}
{0.26772317}
{-0.12459826}
{0.83914137}
{0.44163442}
{-0.974011}
{0.5033291}
{0.10363867}
{-0.5700757}
{-0.47477475}
{-0.11517929}
{-0.5466912}
{-0.04498999}
{0.48599017}
{-0.2974225}
{-0.75765085}
{-0.75508577}
{-0.40498188}
{0.8951557}
{-0.42601782}
{0.36037433}
{-0.539217}
{-0.27418128}
{0.34360665}
{0.8160579}
{-0.32352653}
{-0.9093779}
{0.09651094}
{0.14471878}
{0.7502022}
{0.52657795}
{0.87131524}
{0.5483755}
{0.6149127}
{0.7890365}
{0.10155061}
{0.9574955}
{-0.16003673}
{0.563864}
{-0.20013148}
{0.7144032}
{0.011883058}
{-0.6138898}
{-1.0101657}
{0.20950353}
{0.5845303}
{0.5862499}
{0.11411618}
{-0.54915506}
{-0.78024143}
{0.711717}
{-0.14943744}
{0.1717149}
{0.6446452}
{0.8127892}
{0.09789543}
{-0.75418013}
{-0.5957961}
{-0.46391472}
{-0.97167134}
{0.4468268}
{0.11430815}
{-0.9959386}
{0.39683956}
{-0.010112572}
{-0.044565644}
{0.7691324}
{0.118561715}
{0.83519423}
{-0.78624296}
{-0.54630834}
{0.19363564}
{0.9420675}
{-0.6960011}
{-0.40388483}
{0.61346936}
{-0.68438107}
{0.80521005}
{-0.7249084}
{-0.8407972}
{0.22893408}
{0.081526145}
{0.32936582}
{-0.46752912}
{-0.034394898}
{0.95332956}
{0.79903555}
{-0.09474271}
{-0.684936}
{0.39694902}
{-0.2898566}
{0.07438691}
{-0.9419583}
{-0.40462285}
{-0.62809616}
{0.676213}
{-0.48103365}
{0.10716581}
{-0.69243795}
{0.51991844}
{-0.29215539}
{0.26657435}
{0.5698585}
{0.37299985}
{0.25936237}
{1.0164142}
{1.006265}
{0.82907104}
{-0.9597899}
{0.10922465}
{-0.0055648726}
{-0.6445782}
{0.5349004}
{-0.4610141}
{0.60782295}
{-0.21129876}
{0.577796}
{-0.0051124217}
{0.8738102}
{0.54254794}
{-0.5774016}
{0.38020903}
{0.5947767}
{0.6883302}
{0.19282189}
{0.8211285}
{-0.8897391}
{0.258341}
{-0.85895985}
{0.6499255}
{0.4371743}
{0.9073212}
{0.68632543}
{0.35873264}
{-0.48173863}
{0.10823012}
{0.020974386}
{-0.00654801}
{0.16280909}
{0.0063088015}
{-0.04219433}
{0.6197371}
{0.68239284}
{0.49463835}
{-0.58106524}
{-0.7371583}
{-0.5373185}
{0.10242751}
{-0.6218047}
{-0.7906783}
{-0.11149606}
{-0.7922838}
{-0.18978907}
{0.34069994}
{-0.64628845}
{-0.015059224}
{-0.5870666}
{-0.7491525}
{-0.15901181}
{-0.32402378}
{0.9123201}
{0.18520464}
{0.8088512}
{0.18736857}
{0.9279499}
{0.6760329}
{0.09743653}
{0.7164068}
{-0.35719866}
{0.23916438}
{0.38401997}
{0.016525991}
{0.7751142}
{0.09317868}
{0.39020783}
{-0.64928627}
{0.22882842}
{-0.8648419}
{0.252375}
{-0.39278847}
{0.3381505}
{-0.031352717}
{-0.15839028}
{0.23643488}
{0.7260435}
{-0.7509026}
{0.10668884}
{0.27259606}
{0.7494301}
{0.53032804}
{0.47039065}
{-0.59380674}
{0.63534886}
{-0.18847495}
{0.030047063}
{-0.7401328}
{-0.3084015}
{-0.8155947}
{-0.22060873}
{-0.36828095}
{0.52795637}
{-0.5615958}
{0.2839077}
{-1.0356963}
{-0.35560244}
{-0.3284793}
{-0.44307274}
{0.8059356}
{0.26376006}
{-0.3977228}
{0.3588493}
{0.74980426}
{0.744248}
{-0.5289914}
{0.8506909}
{0.805578}
{-0.2586607}
{0.2597059}
{0.7134813}
{-0.7366171}
{0.5734406}
{-0.07220038}
{0.2693057}
{-0.12036149}
{0.700863}
{-0.52593946}
{-0.0099095525}
{-0.17856532}
{-0.53003955}
{-0.504456}
{-0.667064}
{0.19563645}
{-0.7671505}
{-0.41072503}
{0.42838445}
{0.60670567}
{-0.18425535}
{-0.7232194}
{-0.23903498}
{-0.5145801}
{-0.9251528}
{-0.30584687}
{-0.52370447}
{-0.18353611}
{0.22865847}
{0.90579957}
{0.35790214}
{-0.18762976}
{-0.8991911}
{-0.73701423}
{-0.5508862}
{-0.6166518}
{0.2436831}
{0.6080104}
{0.818072}
{-0.2591427}
{0.7298339}
{0.7034223}
{0.42448914}
{-0.19170743}
{0.60081077}
{-0.07665232}
{-0.13833004}
{-0.5581856}
{0.525732}
{-0.30025205}
{0.66720283}
{-0.86291385}
{0.17802855}
{-0.17028224}
{0.69307077}
{-0.11231248}
{0.7905924}
{-0.83837}
{-0.63964736}
{-0.016835203}
{-0.121704444}
{0.3603524}
{0.13346788}
{-0.6306999}
{0.39232603}
{-0.32089567}
{-0.07068554}
{-0.8443279}
{0.24077846}
{-0.9777833}
{-0.8687134}
{0.3361649}
{0.16073859}
{-0.94328207}
{-0.76854736}
{0.15884632}
{0.2721582}
{-0.27329442}
{0.5925221}
{-0.33609015}
{0.41147}
{0.022111265}
{-0.09984}
{0.63737535}
{-0.002166104}
{0.4217764}
{-0.29299724}
{0.06196339}
{-0.50254136}
{0.0032704382}
{0.3563306}
{-0.9795828}
{0.46816522}
{-0.03275364}
{-0.46962342}
{0.49378383}
{0.08440181}
{-0.59636486}
{-0.33995926}
{0.46599025}
{-0.6950943}
{-0.21752669}
{0.8600438}
{-0.12232654}
{0.044095755}
{-0.065621845}
{-0.11951176}
{0.88391376}
{0.09085412}
{-0.64518076}
{1.009286}
{0.016075619}
{0.6678992}
{-0.2159859}
{0.15841253}
{-0.38104016}
{0.30549207}
{-0.32379267}
{0.7824089}
{-0.6971991}
{-0.42560396}
{0.23058265}
{-0.8431508}
{0.9247298}
{-0.60673314}
{0.75240123}
{0.8099158}
{0.6910777}
{-0.17160727}
{-0.47593293}
{-0.41988513}
{0.47981277}
{-0.76812834}
{-0.78956205}
{-0.89879274}
{0.49154744}
{0.1764088}
{-0.31380177}
{-0.64877427}
{-0.4112633}
{-0.88647455}
{0.7145336}
{0.38118237}
{0.39264268}
{-0.2134442}
{-0.98065794}
{0.39966992}
{-0.08074446}
{-0.23913893}
{-0.9521533}
{0.68356395}
{0.70509577}
{0.3180058}
{0.34685826}
{0.9837086}
{-0.07333848}
{0.3120807}
{-0.56681573}
{-0.9199897}
{-0.0038413918}
{-0.14155824}
{0.56681496}
{-0.3343409}
{0.26778787}
{0.4371571}
{0.9892933}
{0.15794612}
{-0.54945517}
{0.102264084}
{-0.90839916}
{-0.73487794}
{0.6561663}
{-0.59154344}
{0.48871526}
{-0.15441893}
{-0.17757183}
{0.7289817}
{0.80333245}
{0.28858835}
{0.06903513}
{0.5087372}
{-0.774343}
{0.8012416}
{0.6673348}
{0.1609701}
{0.88679796}
{-0.2610795}
{0.7394397}
{-0.51998645}
{-0.9835187}
{-0.837795}
{0.08573921}
{0.52139926}
{-0.58242065}
{0.10662891}
{-0.42321807}
{0.44214997}
{-0.94620395}
{0.37231827}
{0.674263}
{-0.29698676}
{-0.35001174}
{0.3967296}
{-0.5608444}
{0.18363495}
{0.007405769}
{0.07415494}
{0.6990731}
{-0.4640511}
{-0.12616763}
{0.15770647}
{0.36646193}
{-0.41235188}
{-0.7800828}
{-0.9932792}
{0.23849696}
{0.17637022}
{0.96236265}
{-0.9552818}
{-0.9223943}
{-0.107920356}
{-0.285036}
{0.94664973}
{0.8780639}
{-0.4690247}
{-0.13628405}
{0.4209745}
{-1.0118027}
{0.1285706}
{0.9582702}
{-0.072829396}
{-0.6069808}
{-0.18495075}
{0.58065224}
{0.46859452}
{0.85947657}
{0.8937675}
{0.1736507}
{-0.60082656}
{-0.4636765}
{0.90156066}
{-0.5421343}
{-0.5224088}
{0.22378725}
{0.36926457}
{0.54784495}
{0.77947474}
{0.2894165}
{-0.14315268}
{-0.6853635}
{0.46022287}
{-0.36278087}
{-0.19200455}
{-0.53500944}
{-0.80535233}
{-0.84516215}
{0.23131457}
{-0.811469}
{0.8022697}
{-0.27118665}
{-0.68952787}
{0.6664976}
{-0.52101785}
{0.9529462}
{0.048919916}
{0.47432902}
{0.4035163}
{0.77160907}
{-0.575109}
{0.5411674}
{-0.39602047}
{0.96149063}
{0.23239227}
{0.7900454}
{0.003498144}
{-0.24359304}
{-0.8116232}
{-0.15441933}
{0.7145328}
{0.8545904}
{-0.19647653}
{-0.3792518}
{0.34683987}
{-0.8582847}
{0.88138825}
{0.18854424}
{-0.2739299}
{-0.02026104}
{0.7116114}
{-0.96788263}
{1.016314}
{0.8856306}
{0.5753839}
{-0.91276646}
{-0.46178478}
{0.26521724}
{-0.5180677}
{0.46153492}
{0.74602365}
{-0.426421}
{0.71283746}
{-0.47588497}
{0.46355683}
{-0.18405586}
{0.9292233}
{-0.45820048}
{0.5922075}
{0.0529049}
{-0.74966645}
{-0.5876461}
{0.33986017}
{-0.7109499}
{0.041231107}
{0.9165153}
{-0.13019285}
{-0.851104}
{-0.45432532}
{0.1879708}
{-0.49760327}
{-0.14815046}
{0.40917104}
{-0.8197006}
{-0.19669378}
{-0.9535804}
{0.6137809}
{-0.8874048}
{0.48574257}
{-0.7361164}
{0.46434674}
{-0.19540843}
{-0.04736808}
{-0.05971264}
{0.33843923}
{0.18194897}
{0.9484353}
{-0.27256733}
{-0.7449518}
{-0.43094125}
{-0.79224646}
{-0.85141253}
{-0.21777974}
{0.655112}
{-0.7438675}
{-0.17831427}
{-0.029698573}
{0.92393816}
{0.29985234}
{-0.78164744}
{0.73750705}
{0.5800228}
{0.57334924}
{0.30300564}
{0.7780689}
{-0.76164854}
{-0.23016506}
{-0.83966947}
{-0.6171949}
{0.42597383}
{0.49600667}
{0.013731249}
{0.5314205}
{0.69928235}
{-0.7302333}
{0.9103508}
{0.8861503}
{-0.53636724}
{-0.07321648}
{-0.81244254}
{0.36863503}
{-0.5101756}
{0.1002359}
{-0.019307604}
{0.8438838}
{-0.4666809}
{-0.8027162}
{0.0003810008}
{0.40434903}
{0.19049929}
{0.82941437}
{0.630764}
{0.582456}
{-0.5148734}
{0.25887132}
{0.54807734}
{0.55368716}
{0.12894326}
{-0.9724219}
{-0.8432846}
{0.19319226}
{0.41706946}
{1.0170542}
{-0.53152066}
{0.89752114}
{-0.64251}
{-0.35717645}
{-0.020074358}
{-0.92875147}
{-0.5329465}
{0.27279228}
{0.35539216}
{0.48239505}
{-0.053463276}
{0.58442044}
{0.03788307}
{-0.6071291}
{-0.81743014}
{0.8767693}
{0.38740987}
{-0.17970844}
{-0.05757929}
{0.047846656}
{-0.4496134}
{-0.08317349}
{-0.61430323}
{-0.24785656}
{0.004631527}
{-0.5250067}
{0.53703135}
{0.38255268}
{0.5851114}
{0.030344576}
{0.17370403}
{-0.12186102}
{0.73406506}
{0.040546518}
{0.86971045}
{-0.6242794}
{0.40875095}
{-0.30140734}
{0.13702378}
{0.8264957}
{0.27811474}
{-0.92067295}
{0.10755343}
{0.4112749}
{0.4301657}
{-0.15541148}
{0.8137527}
{-0.25790578}
{-0.83124423}
{-0.8397275}
{0.6228979}
{-0.5487707}
{-0.79220986}
{-0.70425993}
{-0.8532637}
{0.93303967}
{0.5315931}
{-0.4061532}
{0.58239245}
{-0.8545613}
{0.07809837}
{0.04878752}
{0.070301525}
{0.8566372}
{-0.010021201}
{-0.33316904}
{0.72751355}
{-0.9734991}
{-0.7037413}
{0.38614127}
{-0.9479593}
{0.7880794}
{-0.15182474}
{-0.9061108}
{-0.76074636}
{-0.36140236}
{-0.45435673}
{-0.9208965}
{0.10238763}
{0.21333876}
{-0.43541938}
{0.4951587}
{-0.2115289}
{0.14499749}
{-0.44763643}
{-0.45660055}
{0.9803973}
{0.94564295}
{0.90715957}
{-0.559676}
{0.2775086}
{0.7671455}
{0.2986743}
{0.17408375}
{0.664389}
{0.46596628}
{0.027198322}
{0.16113631}
{0.62537646}
{-0.33295894}
{-0.25618893}
{0.20710273}
{0.9873159}
{-0.7329783}
{0.38713115}
{-0.7154806}
{-0.8037225}
{-0.5048217}
{-0.01608204}
{0.6236931}
{-0.03260429}
{-0.8326252}
{-0.8072469}
{0.3588326}
{0.58388853}
{0.47289783}
{0.8256414}
{0.52572495}
{0.34241283}
{0.26977962}
{0.033737678}
{0.91856784}
{-0.76373035}
{-0.39416844}
{-0.35854298}
{0.0023082101}
{0.68712497}
{-0.30052835}
{-0.845382}
{0.32864866}
{0.8889038}
{-0.07724193}
{-0.9441285}
{-0.7689791}
{0.33177066}
{0.54525775}
{-1.0260305}
{0.16161098}
{-0.35188136}
{-0.29725996}
{0.34994286}
{0.061114058}
{-0.45661172}
{0.89638895}
{0.85263014}
{-0.7928296}
{0.56273586}
{-0.28982487}
{0.19943851}
{0.2869772}
{0.07029203}
{-0.2800333}
{-0.26992065}
{0.8013203}
{-0.75066125}
{0.35372776}
{0.3026933}
{-0.5685008}
{0.75630957}
{0.395183}
{0.6651554}
{-0.09057373}
{0.91791725}
{-0.363416}
{-0.9393971}
{0.318119}
{-0.9116708}
{-0.15111649}
{-0.51139486}
{-0.025926469}
{0.35983744}
{0.51982486}
{-0.6918452}
{0.919309}
{0.42712587}
{0.30917862}
{0.7634096}
{-0.2579946}
{-0.02378813}
{0.5876258}
{-0.2757731}
{0.7757275}
{-0.8162738}
{0.47820258}
{0.55326176}
{-0.4920022}
{0.7485205}
{0.12680718}
{0.8974652}
{0.50107986}
{-0.69317317}
{-0.46947008}
{0.7970531}
{0.112679325}
{-0.7584634}
{0.045529492}
{-0.44103724}
{0.019867327}
{-0.3670003}
{0.45429087}
{-0.59423494}
{0.28356338}
{-0.5741657}
{-0.24730557}
{0.80234814}
{0.6446621}
{0.8701517}
{-0.5143485}
{0.072797135}
{0.11652692}
{0.41909778}
{-0.43587002}
{-0.91859746}
{0.42016134}
{0.5441852}
{-0.19111042}
{0.96266365}
{0.4715953}
{-0.4424297}
{-0.12120414}
{0.6189444}
{0.4945671}
{0.40438744}
{-0.5715173}
{0.91341305}
{-0.95235103}
{0.46601856}
{-0.051683575}
{-0.0025913632}
{-0.5420257}
{0.7372894}
{0.86773187}
{0.48990232}
{0.31757584}
{-0.6369685}
{-0.9544335}
{0.56348705}
{0.49133527}
{0.9403422}
{0.75986063}
{0.58093524}
{0.33842415}
{-0.8496693}
{0.17587307}
{-0.069084145}
{0.5979339}
{0.9310067}
{-0.081014566}
{-0.31510192}
{-0.5517897}
{0.14073406}
{0.8203699}
{-0.02561926}
{0.1239471}
{0.9588797}
{-0.5341526}
{-0.3476811}
{-0.32256398}
{0.1889022}
{0.8696817}
{0.06398685}
{0.69537115}
{-0.033994026}
{-0.883118}
{0.031848446}
{-0.7306327}
{0.15701436}
{-0.94327694}
{0.42111343}
{0.118532516}
{-0.38304672}
{-0.89837307}
{-0.84412646}
{0.8571053}
{0.2666368}
{0.7529262}
{-0.94487}
{1.0070796}
{0.49298167}
{0.23139532}
{0.1882338}
{-0.5300172}
{-0.5355209}
{-0.88047594}
{-0.8332336}
{0.6582427}
{-0.79556555}
{-0.6443892}
{-0.33075792}
{0.54460824}
{0.2956702}
{-0.6366505}
{-0.69156504}
{-0.5696851}
{-0.20393524}
{0.7326202}
{-1.0024095}
{0.74745154}
{0.7968461}
{-0.49067634}
{0.7022884}
{-0.35164484}
{0.3903426}
{0.5142683}
{-0.28701574}
{0.6618926}
{0.17482889}
{0.16986425}
{-0.9185283}
{0.761767}
{-0.77467954}
{0.2738762}
{0.50862765}
{0.83296674}
{-0.2881898}
{-0.093280196}
{-0.21535403}
{0.9362154}
{0.27361846}
{0.6186354}
{-0.8433094}
{0.1269105}
{-0.33154747}
{-0.07658067}
{0.16253585}
{0.29730257}
{-0.55638796}
{0.17608583}
{-0.0038957512}
{0.78674555}
{0.7377257}
{-0.48662695}
{0.11633132}
{0.6335888}
{-0.8092883}
{-0.6464864}
{0.31016058}
{0.2744264}
{-0.8638739}
{0.6893349}
{0.94954634}
{0.8332046}
{-0.65260005}
{-0.37778878}
{0.3178596}
{0.57896686}
{0.07041496}
{0.40993765}
{0.08236821}
{-0.28143796}
{-0.61857563}
{-0.8215343}
{0.113893256}
{0.60323745}
{0.24121583}
{-0.59149253}
{-0.38957602}
{0.48068568}
{0.025390273}
{-0.32264504}
{-0.85893273}
{0.13418081}
{0.87760466}
{-0.99659836}
{0.19821495}
{0.6484677}
{-0.4574098}
{-0.76989657}
{0.207699}
{0.96297455}
{0.22780667}
{0.53403676}
{-0.6585069}
{0.9080921}
{0.017257936}
{0.5696727}
{-0.38593346}
{0.9113204}
{-0.3074956}
{0.7930745}
{-0.20632344}
{0.5936651}
{-0.77495503}
{0.028202247}
{-0.108396456}
{0.35258222}
{0.033349935}
{0.21354285}
{0.14047545}
{-0.43771085}
{-0.3313911}
{-0.8878383}
{0.23770255}
{-0.87405235}
{-0.7292914}
{-0.5100493}
{0.7777004}
{0.28156194}
{-0.22665645}
{0.61908954}
{-0.9461963}
{-0.64238256}
{0.46911263}
{0.08171702}
{-0.8396096}
{0.8700549}
{-0.78442276}
{0.10200988}
{0.9039731}
{0.6930656}
{-0.7667197}
{-0.47413966}
{0.2198767}
{-0.46143967}
{0.41427132}
{0.15124601}
{0.9333608}
{0.2902187}
{0.90725243}
{-0.48842052}
{0.20158952}
{0.96581566}
{-0.14309871}
{0.5694065}
{0.07233246}
{0.4232492}
{-0.77319473}
{0.52540135}
{-0.08522529}
{0.22070527}
{0.59388727}
{0.044926636}
{-0.997375}
{-0.2005704}
{0.2770091}
{-0.018822325}
{0.53332305}
{-0.94844824}
{0.7493505}
{0.49356103}
{-0.9913418}
{-0.6148357}
{0.3811844}
{0.5548723}
{-0.46656042}
{-0.26448452}
{-0.23422787}
{-0.9840045}
{-0.18974882}
{-0.8073667}
{-0.8154589}
{-0.7812981}
{-0.1374757}
{-0.7550509}
{0.2101078}
{0.7211006}
{-0.16102058}
{-0.20591213}
{-0.7704126}
{-0.46126124}
{-0.43010002}
{0.6498876}
{-0.8697185}
{-0.72995335}
{-0.5675142}
{-0.49655193}
{0.08206179}
{0.3695464}
{0.9448273}
{-0.91044223}
{-0.19783795}
{-0.023220321}
{0.6866443}
{-0.9432145}
{-0.81618875}
{0.16161644}
{-0.2719236}
{0.9284367}
{0.9877662}
{0.69273573}
{-0.38160592}
{0.6251102}
{0.073890895}
{0.96372724}
{0.53559494}
{0.104825206}
{-0.61849225}
{-0.40431294}
{-0.7959864}
{-0.9731945}
{-0.14561912}
{-0.88027734}
{-0.38857967}
{-0.076064326}
{-0.6948528}
{0.67781466}
{0.8758261}
{-0.7463454}
{-0.4377579}
{-0.93041587}
{-0.22672874}
{0.8353298}
{-0.2773914}
{-0.18365857}
{-0.91654396}
{0.6576857}
{0.9924621}
{0.58649236}
{0.65364575}
{-0.7597192}
{-0.5140737}
{-0.28323022}
{-0.066006884}
{-0.12121626}
{0.12704119}
{-0.921736}
{0.82139397}
{-0.938135}
{-0.26053822}
{-0.8092512}
{0.34170073}
{0.41171268}
{0.06016697}
{0.12292415}
{0.71929216}
{-0.015673375}
{-0.14536662}
{0.7624389}
{-0.96893215}
{-0.39866275}
{1.0001011}
{0.033716206}
{0.6626055}
{0.7556209}
{-0.3255014}
{-0.7916859}
{-0.024329176}
{0.546236}
{-0.5108546}
{0.071789905}
{-0.06190347}
{-0.519785}
{-0.8239733}
{0.8190857}
{0.6362672}
{-0.6908062}
{0.059806112}
{0.9647593}
{0.845114}
{-0.67861897}
{-0.57319117}
{-0.23332037}
{-0.008878938}
{-0.7425836}
{0.8347279}
{0.59610647}
{-0.014910451}
{-0.77253175}
{0.76991916}
{0.21960464}
{0.6392515}
{-0.22563204}
{-0.4286766}
{0.9043702}
{0.7438359}
{0.9420503}
{0.7940538}
{-0.8087689}
{0.69374204}
{-0.16257448}
{0.3756748}
{0.752208}
{-0.33689624}
{0.41150254}
{-0.12183446}
{0.08174378}
{-0.7309394}
{-0.99059635}
{0.3861205}
{-0.5157687}
{-1.0269248}
{0.33664724}
{-0.8963119}
{-0.73597986}
{-0.7708545}
{-0.49175042}
{0.39997754}
{-0.26179463}
{-0.5958588}
{-0.86307657}
{-0.7803907}
{-0.91825306}
{-0.3572169}
{-0.71547866}
{-0.69830066}
{-0.34662196}
{-0.28104717}
{0.21159996}
{-0.096298955}
{0.18043803}
{0.06063826}
{-0.17724568}
{0.15024924}
{0.54162806}
{0.046309035}
{-0.51779455}
{-0.7822977}
{0.96915495}
{-0.8573015}
{0.41722625}
{-0.31397924}
{-0.7834212}
{0.5946374}
{-0.9115064}
{-0.66025853}
{0.21602504}
{-0.39060313}
{-0.24077845}
{-0.34790045}
{-0.30806756}
{0.8308189}
{-0.901296}
{-0.35219312}
{0.49878445}
{0.63019204}
{-0.997555}
{0.92435485}
{-0.80824333}
{0.3493833}
{-0.021004317}
{-0.7050204}
{0.31661725}
{-0.9547863}
{0.043422703}
{-0.7363615}
{0.5625019}
{0.88322663}
{-0.56478953}
{0.506918}
{0.51014096}
{-0.46497947}
{0.8037532}
{0.982096}
{0.34313825}
{0.46788737}
{0.4941187}
{-0.06811778}
{0.46174315}
{-0.5279633}
{-0.8654762}
{-0.5776985}
{0.27474326}
{-0.122602865}
{-0.5536333}
{0.27133965}
{0.102208026}
{-0.30089313}
{0.5032718}
{0.7661199}
{0.40248266}
{0.82317066}
{0.53656363}
{-0.31269798}
{-0.85135967}
{-0.8381338}
{0.12818408}
{-0.5494584}
{0.41099858}
{0.8158994}
{-0.18528256}
{-0.0182013}
{0.6018405}
{0.8984082}
{0.4634442}
{-0.8410709}
{-0.15680954}
{0.89199567}
{0.047001503}
{-0.71429443}
{0.23710415}
{-0.73804617}
{0.04691563}
{-0.81238675}
{0.36358896}
{-0.8142464}
{-0.85035336}
{-0.0042617545}
{-0.39519367}
{-0.0565257}
{0.7080763}
{-0.031269096}
{-0.8699603}
{-0.14092301}
{0.51856273}
{0.17358604}
{0.34137362}
{0.8435757}
{-0.17590542}
{0.811272}
{0.6084791}
{-0.63976336}
{-0.11258313}
{0.039750844}
{-0.95935255}
{-0.15106633}
{-0.23481204}
{-0.15864131}
{0.15065229}
{0.9001243}
{-0.05770264}
{-0.8021308}
{0.058907736}
{-0.4929245}
{0.6931798}
{0.572615}
{-0.5170202}
{0.5494082}
{-0.008833712}
{-0.15184805}
{0.00564421}
{-0.6021576}
{-0.43265483}
{0.6683123}
{-0.58726025}
{0.71620584}
{0.56181306}
{-0.37538296}
{-0.3816713}
{-0.58344007}
{0.10578545}
{0.37168953}
{0.5714656}
{-0.13423581}
{-0.92805326}
{0.009933138}
{0.32850006}
{0.37197822}
{0.33366314}
{-0.029679332}
{0.40896147}
{0.5640557}
{-0.4715685}
{0.4486291}
{0.53632194}
{-0.034731377}
{-0.53902906}
{0.8443705}
{0.29052186}
{-0.63471913}
{-0.3786092}
{-0.76120913}
{0.44337058}
{0.51625276}
{0.8327645}
{-0.39347586}
{0.58756226}
{0.28584188}
{0.83439094}
{0.33673877}
{0.4221725}
{-0.6379008}
{0.3902881}
{-0.18424459}
{-0.48071834}
{0.23307103}
{0.23412229}
{0.23335667}
{0.17744671}
{0.6750126}
{-0.6602164}
{-0.020505246}
{-0.40277368}
{-0.44675547}
{-0.7775462}
{0.68812305}
{-0.6885358}
{-0.51920986}
{0.6532104}
{0.36099654}
{-0.47233608}
{-0.0041813767}
{0.8158052}
{-0.3249386}
{0.09709269}
{0.79638433}
{0.98203605}
{0.32423994}
{0.4524361}
{0.6547189}
{-0.25132713}
{-0.22185253}
{0.5133308}
{0.15348762}
{0.019878231}
{-0.26469553}
{0.8277468}
{-0.9589853}
{-0.83483565}
{-0.10190075}
{-0.22241102}
{-0.046674483}
{0.733044}
{0.6288903}
{-0.30372098}
{-0.9713495}
{-0.75003713}
{-0.48429018}
{0.6745937}
{-1.0246751}
{0.8213351}
{0.4276416}
{-0.35790995}
{0.122578815}
{0.84970325}
{-0.65244067}
{0.49166965}
{-1.0198243}
{0.9456348}
{-0.31849283}
{-0.7922974}
{-0.71336603}
{0.34784377}
{-0.41645312}
{-0.028186738}
{0.4376983}
{-0.15934764}
{-0.75937325}
{0.0132384095}
{-0.019958248}
{-0.8746909}
{-0.3392005}
{-0.03503238}
{-0.275621}
{0.952252}
{-0.61307716}
{0.5285738}
{-0.43052083}
{0.95580447}
{0.6123032}
{-0.06206232}
{-0.14318514}
{-0.76427394}
{0.217601}
{-0.97329754}
{-0.6326828}
{0.06692923}
{-0.4316358}
{0.70489496}
{-0.23163515}
{-0.6977385}
{0.57485616}
{-0.21405669}
{-0.9444201}
{0.36470506}
{0.426844}
{0.3751952}
{0.88888717}
{-0.7609064}
{0.5974929}
{0.40816638}
{0.17614669}
{0.55210865}
{0.8361322}
{-0.7120556}
{0.6389992}
{0.5582885}
{-0.28653026}
{0.14247005}
{0.30335206}
{-0.0644633}
{0.61142534}
{-0.8023737}
{0.61454487}
{-0.94534624}
{-0.06852977}
{0.69822586}
{-0.24567968}
{-0.36819565}
{0.2773631}
{0.11127905}
{0.9409239}
{-0.25976864}
{0.92269075}
{-0.65542847}
{-0.34980565}
{-0.8526903}
{-0.56866294}
{-0.41028616}
{-0.9112992}
{-0.89299357}
{-0.9013087}
{0.23133172}
{0.13435477}
{0.39064455}
{0.59862924}
{0.15439847}
{0.92763424}
{0.15110987}
{-0.74552274}
{-0.79381484}
{0.4605283}
{-0.67969763}
{-0.47906616}
{0.572937}
{0.8102839}
{0.66179794}
{-0.7161096}
{-0.8966817}
{0.30110592}
{0.2840203}
{0.2801719}
{0.84974986}
{-0.8596842}
{0.65145475}
{-0.2329362}
{0.46719798}
{0.8287127}
{0.37312204}
{0.2947975}
{-0.9188504}
{0.895056}
{0.10027963}
{0.9401913}
{0.85762703}
{-0.67461014}
{-0.12661628}
{0.27272356}
{0.63553035}
{0.03563764}
{-0.78379494}
{0.7444887}
{-0.7722876}
{-0.33311135}
{0.5306645}
{-0.7649414}
{-0.8608613}
{0.5719247}
{0.49970686}
{-0.048073936}
{-0.70593023}
{-0.0028982079}
{-0.31023836}
{-0.4453113}
{-0.029040901}
{0.14917105}
{-0.40821466}
{-0.73797303}
{-0.2812118}
{-0.689471}
{0.5407583}
{-0.6802626}
{-0.40995443}
{-0.6849513}
{-0.3444416}
{0.55288976}
{-0.69946146}
{0.18550175}
{0.14323658}
{0.008069503}
{0.6480357}
{-0.24044615}
{0.4133236}
{0.5616036}
{0.2731483}
{-0.1983543}
{-0.5653268}
{0.5035633}
{-0.36216757}
{-0.1319439}
{-0.6037564}
{-0.13770305}
{-0.12388558}
{-0.09951393}
{-0.028182087}
{-0.8624357}
{-0.81782746}
{-0.8999126}
{0.08779232}
{0.44848362}
{-0.051208567}
{0.78847814}
{-0.13708271}
{-0.5992584}
{0.40873542}
{0.8209946}
{0.78805494}
{0.6238777}
{0.9615129}
{0.65643144}
{0.25195783}
{-0.54684275}
{-0.92764753}
{0.70422435}
{0.81780916}
{0.23221375}
{-0.704559}
{0.91854954}
{-0.4467268}
{-0.2739464}
{-0.7754644}
{-0.45641977}
{0.5989656}
{-0.31018066}
{-0.7948207}
{-0.55534625}
{0.9093507}
{0.027755698}
{-0.18247423}
{0.8182504}
{0.498825}
{0.20806023}
{-0.5749746}
{0.48374674}
{0.8318431}
{0.59207255}
{0.14307901}
{0.21387953}
{-0.9397103}
{0.6376331}
{0.41720223}
{-0.48229247}
{0.011844992}
{-0.098661155}
{0.51828986}
{0.028490312}
{0.7526612}
{0.5939862}
{-0.9515134}
{0.601748}
{-0.53002495}
{-0.7980725}
{0.4202131}
{-0.9947045}
{0.0885093}
{-0.5133118}
{0.86595315}
{-0.26512223}
{0.800372}
{-0.26515374}
{-0.091367334}
{-0.37172157}
{0.3763782}
{-0.79809135}
{-0.6350604}
{-0.34990793}
{0.30618486}
{-0.37468848}
{-0.46391067}
{0.9215281}
{-0.64869785}
{-0.107563116}
{-0.031284347}
{0.11203002}
{-0.68380666}
{-0.23227592}
{-0.17881145}
{-0.33365637}
{-0.5735662}
{-0.876393}
{0.32812536}
{0.19380802}
{-0.5963404}
{0.79050434}
{-0.8178315}
{0.7026198}
{-0.3418441}
{-0.41384774}
{0.17043497}
{-0.904073}
{0.37555608}
{0.77740896}
{0.25195876}
{0.9000151}
{0.0066695036}
{-0.27893186}
{-0.63143003}
{-0.27467114}
{0.12170978}
{0.072380826}
{0.82856154}
{0.9119401}
{0.16923495}
{0.4268254}
{-0.24535172}
{0.11802623}
{0.8178643}
{0.38565597}
{-0.8917585}
{-0.71097684}
{-0.24022035}
{-0.531779}
{-0.27577615}
{-0.97131824}
{0.8003949}
{-0.55629915}
{-0.7662863}
{0.3449213}
{0.7048185}
{0.87419736}
{0.28630883}
{0.008445032}
{-0.28063518}
{0.82861066}
{-0.036827818}
{-0.4152153}
{0.21522006}
{-0.35821345}
{-0.33480316}
{0.9601867}
{-0.37842536}
{-0.5209649}
{-0.5282367}
{0.23154896}
{-0.6137212}
{-0.50405014}
{-0.5704817}
{-0.52756774}
{0.49943697}
{0.9154428}
{-0.022612572}
{-0.7499578}
{-0.8504911}
{0.6156767}
{-0.4517154}
{-0.010379544}
{-0.18509582}
{0.35061374}
{-0.7780358}
{-0.20969707}
{0.28101882}
{0.46781376}
{-0.13274707}
{-0.908093}
{-0.5883456}
{-0.81645375}
{-0.22025502}
{0.524971}
{-0.17045519}
{-0.22575073}
{-0.9221262}
{-0.6807611}
{-0.8686707}
{0.9074392}
{-0.49624214}
{-0.8719883}
{-0.20365956}
{0.10870141}
{-0.60688937}
{0.3262009}
{0.20519218}
{-0.25249222}
{0.6563317}
{-0.02469181}
{-0.41359127}
{-0.59337616}
{-0.40451208}
{-0.6144197}
{-0.19273785}
{-0.62930804}
{0.7348229}
{0.107866295}
{-0.6126642}
{0.65244544}
{0.71993273}
{-0.3004647}
{0.6624008}
{0.54764384}
{-0.2546853}
{-0.6815214}
{-0.18447976}
{0.97397524}
{-0.27196988}
{-0.94831705}
{0.03543281}
{-0.22818623}
{0.25622618}
{0.7700896}
{-0.22749394}
{0.30049828}
{0.45601416}
{0.015199907}
{0.2559861}
{0.53399485}
{-0.5293363}
{-0.75979924}
{0.9918457}
{0.23648489}
{-0.012323164}
{-1.0122311}
{-0.37195146}
{-0.6400446}
{-0.19666743}
{0.7795119}
{0.7673717}
{-0.8556176}
{0.8979325}
{0.84346867}
{-0.8602598}
{0.11802789}
{0.38945657}
{-1.0277553}
{0.41991028}
{-0.56007797}
{0.9588121}
{-0.15999061}
{-0.78591985}
{-0.9607573}
{0.3794936}
{0.750963}
{0.7466007}
{0.91571784}
{-0.23605458}
{0.63918805}
{-0.12474934}
{0.873657}
{0.31084517}
{0.8497257}
{-0.6416714}
{-0.09516729}
{0.58016205}
{0.95647335}
{-0.36883333}
{-0.70908123}
{-0.9604099}
{0.87713647}
{0.8746002}
{-0.3237103}
{-0.36530924}
{-0.12769192}
{-0.7823109}
{-0.48783705}
{-0.13293397}
{0.3024034}
{0.9572299}
{0.9217081}
{-0.88761264}
{-0.025218}
{-0.35542098}
{0.2690704}
{0.2498148}
{-1.0112367}
{0.5535009}
{-0.08784411}
{-0.3814819}
{0.7461848}
{0.4638088}
{0.93111444}
{-0.5694685}
{0.86877084}
{-0.31089553}
{-0.24601547}
{0.23117848}
{0.33157152}
{0.6571376}
{0.24336915}
{0.8463334}
{0.15708941}
{-0.6253948}
{0.91837484}
{-0.6788547}
{0.15200084}
{-0.8774541}
{0.3396178}
{0.85380113}
{0.47618592}
{-0.41010094}
{0.30135757}
{-0.59965706}
{0.23373741}
{0.13801204}
{0.10539801}
{0.6360101}
{-0.5609441}
{-0.36433744}
{-0.32703173}
{0.34718594}
{-0.19732076}
{0.9737045}
{-0.611219}
{0.46616855}
{0.53695536}
{-0.6851666}
{-0.36572388}
{0.6552869}
{-0.8733871}
{0.8949681}
{0.5912117}
{-0.64309245}
{0.7353246}
{0.86194044}
{0.7891149}
{0.4309801}
{0.9092593}
{-0.17193884}
{0.85237336}
{-0.09027734}
{0.46059006}
{-0.11801797}
{0.800372}
{0.47013512}
{-0.63124657}
{-0.057399087}
{0.64693636}
{0.89366513}
{0.5864322}
{-0.19071011}
{0.08083503}
{-0.5601406}
{0.7910538}
{-0.21988249}
{-0.087664634}
{0.65755624}
{-0.5753627}
{-0.20705685}
{-0.6308594}
{-0.8849436}
{0.8273554}
{-0.80653715}
{-0.06630342}
{0.04578053}
{-0.07795998}
{-0.51238126}
{0.19374879}
{0.73115855}
{-0.7866993}
{0.72078604}
{0.24686816}
{-0.8877751}
{-0.10284607}
{0.3713025}
{-0.23697615}
{-0.43706527}
{0.055880368}
{-0.94486386}
{-0.5834353}
{-0.4909408}
{0.45786566}
{0.2624461}
{0.36461344}
{-0.90845174}
{0.9043369}
{0.6597146}
{0.54659975}
{-0.7875731}
{0.094566405}
{0.62011623}
{-0.8153216}
{-0.12382144}
{-0.07567069}
{0.88823026}
{0.40717074}
{0.94117063}
{-0.75548625}
{-0.11072175}
{-0.9527418}
{-0.12961428}
{0.44650596}
{0.79113936}
{-0.40969783}
{0.9735382}
{0.9164152}
{-0.42916092}
{0.36781496}
{-0.19949286}
{-0.45102125}
{-0.37518632}
{-0.81245464}
{0.7365791}
{0.001810797}
{-0.5859109}
{-0.47455254}
{0.6297744}
{-0.2632957}
{0.42791483}
{0.115256704}
{0.2261995}
{-0.9079058}
{-0.5040963}
{-0.35975635}
{-0.8852418}
{-0.27253133}
{0.03187667}
{0.33578044}
{0.51967055}
{0.06205995}
{0.66460514}
{-0.68092394}
{0.07957308}
{0.8587494}
{-0.9346701}
{0.10359535}
{-0.26275346}
{0.12487645}
{0.52947915}
{0.09882555}
{-0.0700195}
{-0.9500177}
{-0.67196983}
{0.002977419}
{-0.16451594}
{0.56293535}
{0.41395265}
{-0.26195365}
{-0.31759614}
{0.67146254}
{0.93265456}
{0.4293496}
{-0.06688099}
{0.26263374}
{0.55755913}
{-0.13127716}
{-0.4838545}
{0.63069344}
{-0.19007292}
{-0.33240688}
{0.66230977}
{-0.16207725}
{-0.14188053}
{-0.88216406}
{0.33860603}
{-0.087438054}
{-0.18127798}
{0.008255625}
{-0.070025325}
{0.66606283}
{0.034459863}
{-0.5600433}
{0.0013495942}
{0.054874003}
{0.9473632}
{-0.91083336}
{0.3462271}
{0.7641516}
{-0.82614475}
{0.50612366}
{0.22589712}
{0.27552885}
{-0.71628755}
{0.27337778}
{-0.61416334}
{0.084066704}
{0.9651323}
{-0.40767622}
{0.38107365}
{-0.49372822}
{0.70764995}
{0.3558284}
{-0.11996623}
{-0.7641516}
{-0.050977293}
{-0.21845561}
{0.46329114}
{-0.7818539}
{-0.22319864}
{-0.09204971}
{0.36113614}
{-0.54003596}
{-0.1527177}
{0.7500578}
{-0.42222467}
{0.7337425}
{-0.33295026}
{0.60663104}
{0.4190929}
{-0.11929934}
{0.4960156}
{-0.08243594}
{0.51829827}
{0.9427681}
{0.14827721}
{0.54013216}
{0.8621633}
{0.72011733}
{-0.041611988}
{-0.5332282}
{-0.26997715}
{0.52128744}
{0.33136848}
{0.79060096}
{-0.29773968}
{0.6593542}
{-0.72074777}
{0.88265115}
{-0.42105785}
{-0.12857169}
{0.28028047}
{0.61758465}
{0.2495837}
{0.9412091}
{-0.6426664}
{0.62993723}
{0.98145187}
{-0.7985964}
{-0.5234917}
{-0.6640835}
{-0.08725656}
{-0.13997434}
{-0.91293716}
{0.19599783}
{0.21235795}
{0.7949455}
{-0.5957556}
{0.5042637}
{-0.14026392}
{-0.0618174}
{0.68019545}
{-0.7993537}
{-0.5732378}
{-0.031524647}
{0.35912007}
{0.34978932}
{-0.44588372}
{0.20837039}
{0.45015737}
{0.5535079}
{0.7854933}
{-0.21418649}
{-0.6011438}
{-0.2153196}
{0.5680685}
{0.7193866}
{0.648821}
{0.6051377}
{-0.7644169}
{0.75780845}
{-0.46642983}
{0.22954193}
{0.8415534}
{-0.017202606}
{0.50696796}
{0.6845822}
{-0.30274108}
{0.050370503}
{-0.28093916}
{-0.28366604}
{0.6660732}
{0.61709976}
{-0.17222707}
{-0.56204534}
{0.8074138}
{0.15682071}
{0.9368156}
{0.39524692}
{0.08161621}
{-0.68556905}
{-0.27608696}
{0.45813856}
{0.9600758}
{0.12669939}
{0.10656705}
{0.39432}
{0.87567544}
{0.023955353}
{-0.10086322}
{-0.5677176}
{-0.44946405}
{-0.106970474}
{-0.24648015}
{-0.60525745}
{0.9240649}
{0.06563528}
{0.97025234}
{-0.85760933}
{0.6186755}
{-0.8911042}
{0.47629672}
{0.52405465}
{-0.7970504}
{-0.41857988}
{-0.17927314}
{0.9627272}
{0.80658704}
{-0.9178262}
{0.44941473}
{0.7939705}
{-0.81455386}
{-0.2796293}
{0.51784587}
{-0.0632582}
{0.37846184}
{-0.8970585}
{-0.019101566}
{0.69667745}
{0.0056117796}
{-0.29698998}
{0.8974486}
{-0.8162465}
{0.3588864}
{0.9506166}
{0.66385144}
{-0.6137646}
{-0.8053829}
{-0.19026715}
{-0.938135}
{-0.6100044}
{0.07282311}
{-0.8296702}
{0.40641305}
{-1.0210636}
{0.70198673}
{-0.3694783}
{0.91743493}
{0.39180335}
{0.10191893}
{0.44000787}
{-0.46736}
{0.47567165}
{0.36395666}
{0.79263496}
{0.39929914}
{0.2179986}
{0.022984423}
{-0.4520622}
{0.037643794}
{0.94296175}
{-0.106078364}
{-0.11627118}
{-0.5014765}
{-0.18144377}
{0.17275865}
{-0.37138778}
{0.09588298}
{0.29094043}
{0.16862608}
{-0.41161662}
{0.87363565}
{0.37698618}
{0.82655835}
{-0.4771176}
{-0.36933884}
{0.344963}
{-0.50925136}
{-0.63432956}
{-0.9618998}
{0.4251677}
{0.88050723}
{-0.050081484}
{-0.6853874}
{-0.7787664}
{0.14682737}
{-0.8053901}
{-0.24737969}
{0.6914409}
{0.87714404}
{-0.058799736}
{0.38881266}
{0.69537234}
{0.282624}
{0.32124203}
{-0.29975978}
{0.8311926}
{-0.8419788}
{-0.9109626}
{0.71719694}
{-0.4676678}
{-0.7586477}
{-0.48344404}
{0.85675305}
{-0.9132543}
{-0.9120065}
{0.028099306}
{0.48836818}
{-0.51925683}
{-0.9212262}
{-0.77939844}
{-0.92682827}
{0.7358161}
{0.75192136}
{-0.7381251}
{0.8774045}
{0.29259878}
{-0.82264507}
{-0.3725899}
{-0.55968314}
{-0.104010046}
{-0.45904806}
{-0.771353}
{-0.36696243}
{-0.6725272}
{0.8827714}
{-0.9831283}
{-0.72095543}
{-0.22712882}
{-0.46781322}
{-0.68486786}
{-0.8064283}
{0.93200636}
{0.055118244}
{-0.5160461}
{0.77341497}
{0.8666018}
{-0.47437605}
{0.41896862}
{-0.7737005}
{-0.5762354}
{-0.32360741}
{0.9201026}
{-0.5724076}
{-0.24341764}
{-0.4361896}
{-0.76590466}
{-0.10898115}
{0.47100493}
{0.9242949}
{-0.9093299}
{-0.5582532}
{-0.24847163}
{-0.8377193}
{0.8920939}
{0.7136372}
{0.6081328}
{-0.6803123}
{-0.110954925}
{0.079158045}
{-0.87101275}
{-0.23143099}
{0.77238774}
{0.21022835}
{0.71359944}
{-1.0089374}
{0.16691631}
{0.7756697}
{0.90361273}
{-0.58177936}
{0.17762655}
{-0.24034426}
{-0.62615985}
{0.49846935}
{0.3222317}
{0.24659929}
{-0.918814}
{-0.5567339}
{0.79519725}
{0.10442082}
{-0.75096315}
{-0.88683647}
{0.297764}
{0.11597333}
{0.75390893}
{0.42384434}
{0.85872054}
{-0.19454835}
{0.5324157}
{-0.52127993}
{0.56056285}
{0.22611642}
{0.09782619}
{0.28252295}
{0.5776341}
{0.23867162}
{0.14920603}
{0.021836905}
{0.5844548}
{0.24497291}
{-0.058197986}
{0.9760825}
{0.3808033}
{-0.92370725}
{-0.5743925}
{0.15979102}
{0.05062323}
{-0.79265153}
{-0.17152444}
{0.9453165}
{0.2721817}
{-0.07698951}
{-0.30668047}
{0.12668645}
{0.15621561}
{0.8312023}
{0.16707388}
{0.34939846}
{-0.40168458}
{-0.041560452}
{0.41019103}
{-0.12621927}
{0.5269723}
{0.32746}
{-0.82570857}
{-0.6589251}
{-0.55912113}
{-0.75704646}
{0.39047754}
{0.004896302}
{0.72378397}
{-0.46920085}
{-0.376817}
{-0.84471536}
{0.04609708}
{0.96171904}
{0.43448377}
{0.6752589}
{-0.78338957}
{-0.010936421}
{-0.39148223}
{0.39983967}
{-0.12207143}
{0.27168038}
{-0.4636606}
{-0.692176}
{-0.4380241}
{-0.70304406}
{0.4592257}
{-0.1827327}
{-0.22115332}
{0.9668078}
{0.8081231}
{-0.9361779}
{0.092809506}
{0.9965953}
{0.2880843}
{0.043802507}
{0.0629185}
{0.9476277}
{0.09424177}
{-0.39627373}
{-0.5768933}
{-0.6917297}
{-0.39623773}
{0.64613855}
{0.906888}
{0.5954057}
{0.6071965}
{-0.12776618}
{-0.075371474}
{0.30667788}
{-0.1649305}
{-0.005299323}
{0.02483631}
{-0.7233146}
{0.2904723}
{0.68582267}
{-0.1766091}
{0.92717767}
{0.3534606}
{-0.5551477}
{0.77969}
{-0.28742528}
{-0.10939072}
{0.9778207}
{0.62334394}
{0.06336803}
{-0.9869946}
{0.61851466}
{-0.14863516}
{-0.9486956}
{-0.68628806}
{-0.22142105}
{-0.17877036}
{0.22922184}
{0.29154718}
{0.40186352}
{0.40215415}
{0.38589588}
{-0.30424955}
{0.1990453}
{-0.039906733}
{-0.29610345}
{0.77480537}
{0.7677922}
{-1.0238037}
{0.9121112}
{-0.19649726}
{0.40894082}
{-0.92937183}
{0.5556966}
{-0.8526868}
{0.86395764}
{0.07860978}
{-1.0089396}
{-0.95087665}
{-0.08881053}
{-0.8799889}
{0.38151842}
{-0.94534624}
{-0.6123744}
{0.88514066}
{0.77843046}
{0.52437603}
{0.803313}
{0.45425218}
{0.8514867}
{-0.39347798}
{-0.5002265}
{0.33822674}
{0.82479596}
{-0.9688703}
{0.19231443}
{0.004904516}
{-0.24017614}
{0.015485587}
{-0.6801292}
{-0.2612341}
{-0.2547402}
{-0.69765073}
{-0.6792389}
{0.6594629}
{-0.5630893}
{-0.6369209}
{-0.8201184}
{-0.28420788}
{0.5730603}
{0.5787043}
{0.5907109}
{-0.49762136}
{0.611124}
{0.5427528}
{0.3194564}
{-0.35782725}
{0.54682547}
{0.37983933}
{0.3008512}
{0.2880997}
{-0.8553403}
{-0.91697174}
{-0.61060584}
{-0.11468999}
{-0.09579098}
{0.8501625}
{-0.74514955}
{-0.63998556}
{-0.7494943}
{0.9330992}
{-0.2249396}
{0.13359278}
{0.54929084}
{0.8723054}
{-0.29276258}
{-0.13942312}
{0.7982071}
{-0.3179261}
{-0.583273}
{-0.61725974}
{0.030444106}
{0.3343221}
{-0.87423694}
{0.51961255}
{-0.8954199}
{0.04090384}
{-0.46562037}
{0.028263338}
{-0.54388696}
{0.12702373}
{-0.8091967}
{0.2550854}
{0.55065405}
{-0.98535764}
{-0.60251796}
{0.65871954}
{-0.8618044}
{0.2694788}
{0.895303}
{-0.044994347}
{-0.28478372}
{-0.33942437}
{-0.14677872}
{0.61481833}
{-0.24007171}
{0.9067131}
{-0.6543879}
{0.7034075}
{0.95959044}
{0.07640188}
{-0.2838534}
{0.75924635}
{0.62255996}
{-0.90067554}
{-0.20541744}
{-1.0064638}
{0.8461031}
{-0.62384605}
{0.47989747}
{0.9088032}
{-0.80557305}
{-0.111996025}
{0.09076876}
{-0.5361707}
{0.618014}
{-0.36563408}
{0.6332934}
{-0.45880014}
{0.37411997}
{-0.075719215}
{0.56695145}
{-0.70283914}
{0.8190817}
{-0.93768233}
{0.6243365}
{-0.67044497}
{0.6098438}
{0.6568956}
{0.83888876}
{-0.027970782}
{0.45024377}
{-0.58242756}
{-0.47370908}
{-0.2901395}
{0.2826806}
{0.8805709}
{0.59272826}
{0.19773024}
{0.4247676}
{0.6259183}
{-0.19684108}
{0.538517}
{0.37762251}
{0.90404695}
{-0.486773}
{0.4340672}
{-0.44144848}
{0.42365706}
{0.3405945}
{-0.08357139}
{0.62192416}
{-0.64044565}
{-0.27760962}
{-0.7094295}
{-0.83664066}
{-0.62921137}
{-0.7551573}
{0.30597037}
{0.7631083}
{0.23286028}
{-0.98076946}
{-0.8019903}
{-0.80510867}
{0.07040096}
{-0.08764389}
{0.94895196}
{-0.5986684}
{0.041246504}
{0.88115716}
{-0.18098956}
{0.003757436}
{-0.79278314}
{-0.65084374}
{-0.07771131}
{0.70887357}
{0.26690912}
{0.64115644}
{-0.5569329}
{-0.592541}
{-0.58907557}
{-0.61775887}
{-0.57264686}
{0.6665444}
{-0.45372206}
{0.14183816}
{0.026427276}
{0.9188215}
{0.692034}
{0.9905622}
{-0.3590818}
{-0.69326776}
{0.55189675}
{0.8524826}
{0.5832982}
{0.3327278}
{-0.56591237}
{-0.18711144}
{-0.3901344}
{0.9524274}
{0.7338485}
{0.24555866}
{-0.35575944}
{0.21013284}
{-0.69714457}
{0.97449076}
{-0.34696013}
{0.35801548}
{0.20755313}
{0.81465435}
{0.091128655}
{0.86515224}
{-0.07835637}
{0.98058426}
{-0.5357318}
{-0.81466174}
{0.40807313}
{-0.97908247}
{0.088929966}
{-0.26204506}
{-0.64291364}
{0.6949182}
{-0.477315}
{-0.33405524}
{0.916807}
{-0.277264}
{-0.26054126}
{0.64344543}
{0.09200213}
{0.50396276}
{0.03303792}
{-0.8228308}
{0.9178581}
{0.055700097}
{-1.0158384}
{0.42202124}
{0.7117856}
{-0.036514144}
{-0.7831898}
{0.0018702904}
{0.959328}
{-0.8202092}
{0.80509186}
{0.8136645}
{0.46228427}
{0.8412512}
{-0.07792684}
{0.51835304}
{-0.9234211}
{-0.88896453}
{0.57007146}
{0.11981312}
{0.19387427}
{-0.13316645}
{-0.66767}
{-0.13112667}
{-1.0245572}
{-0.9471686}
{0.31321162}
{0.67301476}
{0.9159805}
{0.2621793}
{-0.65467644}
{-0.8726885}
{0.65657264}
{-0.21521036}
{0.9491782}
{-0.40916762}
{0.4949923}
{-0.3121235}
{-0.57881665}
{-0.4068036}
{-0.6266129}
{-0.28463766}
{0.75492835}
{0.78841734}
{-0.22801656}
{-0.55900633}
{0.9172921}
{0.75540376}
{-0.3433632}
{0.9151595}
{-0.81233025}
{-0.24476062}
{0.0038266415}
{-0.045991763}
{0.7713702}
{0.3455528}
{-0.8572329}
{0.295458}
{-0.5284339}
{-0.20643772}
{-0.13051957}
{-0.23716934}
{-0.085416265}
{-0.20314914}
{-0.56214255}
{0.27596596}
{0.629241}
{-0.054731812}
{0.6084909}
{0.88183737}
{-0.009556047}
{-0.268279}
{-0.45513457}
{0.16455904}
{-0.9315851}
{0.94246155}
{-0.5385264}
{-0.27412316}
{-0.45800644}
{0.08984459}
{0.8207621}
{-0.90797347}
{0.22354835}
{-0.5574708}
{-0.63076013}
{-0.31257603}
{-0.30676252}
{0.5390135}
{-0.35425335}
{-0.087839715}
{0.7615137}
{-0.33989555}
{0.031673938}
{0.29624352}
{-0.9683726}
{-0.310859}
{0.48772016}
{0.2696664}
{-0.16980344}
{0.70245564}
{-0.62202704}
{0.9182089}
{0.37615937}
{0.13234967}
{0.2025175}
{0.6460675}
{-0.09123415}
{-0.5912566}
{0.7151425}
{-0.40769106}
{0.25633663}
{-0.85653937}
{0.3566493}
{-0.7330906}
{-0.40368038}
{-0.36275882}
{-0.45341933}
{0.90503466}
{-0.10773389}
{-0.3708372}
{-0.87938416}
{-0.56186587}
{-0.23093992}
{-0.09424792}
{0.06714486}
{0.4979748}
{0.9099643}
{-0.26605216}
{-0.6847525}
{-0.7078931}
{0.93747735}
{-0.27723572}
{-0.94419855}
{-0.4354337}
{0.11225604}
{-0.6683718}
{-0.6715746}
{0.70470905}
{-1.0254791}
{0.27004468}
{-0.000020682812}
{-0.87893015}
{-0.24123746}
{-0.48873118}
{-0.406173}
{-0.12865074}
{0.9292395}
{-0.2852804}
{0.039467003}
{-0.24060844}
{0.6441674}
{-0.52894294}
{0.18514267}
{0.9131671}
{-0.61628485}
{-0.9349806}
{0.50416297}
{-0.5022108}
{-0.95849895}
{-0.43442518}
{-0.5822563}
{0.7532996}
{0.16942805}
{0.5079683}
{-0.1477215}
{-0.07335344}
{-0.6590562}
{-0.3661069}
{0.5481786}
{0.046065263}
{-0.77983856}
{0.61971515}
{-0.086894184}
{-0.4546258}
{-0.7909517}
{0.688806}
{-0.10698101}
{0.09811384}
{0.523494}
{-0.99119353}
{0.4521903}
{-0.7645374}
{-0.3963967}
{-0.49157473}
{0.81536865}
{-0.7080809}
{-0.5703199}
{0.8645057}
{-0.71098953}
{-0.7881855}
{-0.8030138}
{0.58892155}
{0.64602304}
{-0.93828}
{0.9021261}
{0.33650684}
{-0.36870244}
{0.21044843}
{0.40817112}
{-0.8996294}
{0.6391621}
{0.16858791}
{0.8172898}
{-0.6542014}
{-0.27719647}
{-0.011133392}
{0.697845}
{-0.78079975}
{0.2935822}
{0.9022232}
{-0.9400587}
{-0.8509798}
{-0.50200015}
{-0.109069556}
{-0.6320245}
{0.19726707}
{-0.96712047}
{-0.6391526}
{-0.21175438}
{-0.9089019}
{0.40528128}
{-0.22147878}
{0.019985206}
{0.2970426}
{0.8996975}
{-0.9325772}
{-0.9585464}
{-0.91872257}
{-0.13316949}
{0.6304167}
{-0.20990282}
{-0.017817808}
{-0.43437764}
{0.07462191}
{-0.0483334}
{-0.39999574}
{-0.16163588}
{-0.116493545}
{-0.8911903}
{-0.5916497}
{-0.36908922}
{0.1456536}
{0.10286358}
{0.7605426}
{0.28644395}
{-0.046809454}
{-0.8876672}
{-0.090995}
{0.09792448}
{-0.59155273}
{0.29104108}
{0.6189647}
{-0.8572755}
{0.05114684}
{-0.1790734}
{-0.75197375}
{-0.8116685}
{-0.69328135}
{-0.082406476}
{-0.14599605}
{0.14984065}
{-0.8565239}
{-0.541903}
{-0.5921747}
{0.047976255}
{0.001710417}
{-0.61051655}
{0.798423}
{-0.6731044}
{-0.544767}
{-0.3905645}
{-0.9781179}
{-0.27197236}
{-0.106234275}
{-0.07880636}
{-0.22310412}
{0.39338115}
{0.40512922}
{-0.5914283}
{0.27492753}
{0.72519827}
{0.29197195}
{0.29701442}
{-0.8558915}
{0.115649626}
{-0.8473901}
{0.4132921}
{0.9216278}
{0.38273707}
{0.084986754}
{0.8125446}
{-0.49860156}
{0.120355256}
{-0.9208858}
{-0.22089702}
{-0.5853887}
{-0.9251161}
{0.23616897}
{0.14522952}
{0.3020784}
{-0.7476166}
{-0.028821712}
{-0.29244834}
{-0.77522475}
{0.84485}
{-0.75904566}
{-0.4453128}
{-0.23619705}
{-0.02014491}
{-0.5442104}
{-0.3016234}
{0.8547864}
{-0.4583552}
{-0.17350823}
{0.71300673}
{0.0091514345}
{-0.45920163}
{0.32780883}
{-0.2548867}
{0.81624866}
{0.8576182}
{-0.0205428}
{-0.6406989}
{-0.2657179}
{-0.56416315}
{-0.9762988}
{-0.80842996}
{0.65467596}
{-0.9845237}
{-0.40348664}
{0.20198792}
{0.23989655}
{-0.20628016}
{0.29635677}
{0.19873565}
{-0.8557763}
{0.24201062}
{0.13349494}
{0.8727715}
{0.9218736}
{0.9502569}
{0.064152785}
{-0.91270685}
{0.38488758}
{-0.28466043}
{0.10626509}
{-0.42942578}
{-0.16547136}
{0.8060566}
{-0.86747795}
{-0.78379536}
{-0.4851591}
{0.8754608}
{0.546638}
{0.710341}
{0.1788335}
{-0.97603756}
{-0.3191933}
{-0.16708928}
{0.8758638}
{-0.7406901}
{0.05279184}
{0.7493489}
{0.57965285}
{0.22862664}
{-0.7971451}
{0.29800528}
{0.5488937}
{-0.60561424}
{-0.21761142}
{-0.45576793}
{0.7249449}
{0.71312815}
{-0.14042085}
{-0.44730073}
{-0.2965469}
{0.03948382}
{-0.44907808}
{-0.5460057}
{-0.5408749}
{0.19341941}
{0.20530093}
{0.7088928}
{0.043067496}
{0.8904759}
{0.23223144}
{0.95090795}
{-0.6138428}
{-0.8495574}
{-0.82209766}
{-0.5936606}
{-0.6034254}
{-0.18153849}
{0.20678952}
{0.8231237}
{0.713267}
{0.73633254}
{0.6384104}
{-0.7462046}
{-0.4724861}
{-0.39831248}
{-0.25499892}
{-0.94053364}
{-0.24317549}
{0.57361454}
{0.82272154}
{0.6297314}
{-0.42700768}
{-0.70347583}
{-0.3214554}
{-0.78802776}
{0.40162054}
{-0.53803456}
{0.9608003}
{-0.108536884}
{-0.77808267}
{0.050399378}
{-0.91377354}
{0.23484272}
{-0.5728937}
{0.9009876}
{-0.4690518}
{0.70700383}
{-0.8728466}
{0.6670873}
{-0.7169031}
{-0.97779083}
{-0.112386085}
{-0.817424}
{0.23228136}
{0.76540565}
{0.73902494}
{-0.53285396}
{0.3258419}
{-0.5642674}
{0.49715674}
{-0.011291659}
{0.68284863}
{-0.28754693}
{0.3302527}
{0.17859818}
{-0.8465054}
{0.70683336}
{-0.20393614}
{0.80547535}
{-0.29685503}
{-0.063879006}
{-0.44219512}
{0.5945447}
{0.54283744}
{0.049146224}
{0.19682348}
{-0.6420308}
{0.47106788}
{-0.87249947}
{0.53793895}
{-0.36467615}
{0.74346155}
{0.9399748}
{0.95207584}
{-0.53978294}
{-0.43266565}
{-0.9374294}
{-0.66622627}
{0.86161506}
{0.5627783}
{0.77407384}
{0.038020052}
{-0.40436208}
{0.38609174}
{0.7866514}
{0.42173693}
{0.9137742}
{0.07437275}
{-0.2849267}
{-0.09955873}
{0.24080317}
{-0.74665385}
{-0.40125734}
{0.3581959}
{-0.20451587}
{0.0669218}
{0.927536}
{-0.92978984}
{-0.03237625}
{-0.22226506}
{-0.27014405}
{-0.2152527}
{0.102623336}
{0.42045256}
{0.14815086}
{0.0700486}
{0.36230332}
{0.85893345}
{-0.97439885}
{0.9079154}
{0.85038537}
{-0.6430315}
{-0.07690116}
{-0.5134153}
{-0.37711397}
{-0.19776501}
{-0.02549099}
{-0.104526885}
{-0.024608903}
{-0.12354295}
{0.089977816}
{-0.6337894}
{0.5337381}
{-0.38317347}
{-0.94843316}
{0.53693956}
{0.4378237}
{-0.7134421}
{-0.24308568}
{0.37473887}
{-0.7246203}
{0.89721256}
{0.3476457}
{0.16817771}
{0.3829675}
{-0.41057125}
{-0.014868251}
{0.004408149}
{-0.18354416}
{0.86502266}
{0.45846313}
{0.059571136}
{0.36020315}
{0.631234}
{-0.29163057}
{-0.8474959}
{-0.5365301}
{0.09465507}
{0.46731946}
{-0.24178217}
{0.6013021}
{-0.8895268}
{-0.8169048}
{-0.55092376}
{0.60250217}
{-0.17178544}
{0.40356964}
{0.6576692}
{0.41004324}
{-0.24136947}
{-0.79977036}
{0.19854467}
{0.48724252}
{0.53229606}
{-0.22443014}
{0.7979184}
{0.0011716462}
{0.81606114}
{-0.6120572}
{-0.48156446}
{-0.54225606}
{-0.6506384}
{0.84074235}
{0.037885305}
{-0.010311593}
{0.26411125}
{-0.19056326}
{-0.5109855}
{-0.36667672}
{-0.9025441}
{0.56998515}
{0.78352714}
{-0.7202606}
{-0.70461977}
{-0.6194277}
{0.06114089}
{-0.95612645}
{0.9417686}
{0.29908413}
{0.79300004}
{-0.63435405}
{-0.124379374}
{-0.62074304}
{-0.07922982}
{-0.18985069}
{0.1495339}
{-0.5328055}
{-0.9160188}
{0.8840408}
{0.555055}
{0.31573027}
{-0.22202522}
{0.9121083}
{-0.9619714}
{0.8577087}
{0.69979274}
{-0.14345369}
{-0.82751024}
{-0.35407978}
{-0.05404248}
{0.024872148}
{-0.389761}
{0.9387047}
{0.6735876}
{0.7500523}
{-0.4053173}
{0.6367872}
{0.5069335}
{-0.12797445}
{0.43570682}
{-0.7191806}
{-0.031937994}
{0.02783023}
{0.36088133}
{-0.24512607}
{-0.40162575}
{-0.64658535}
{-0.62110066}
{-0.6638243}
{0.61492354}
{0.45769897}
{-0.8368428}
{-1.0189466}
{-0.59191656}
{0.7728317}
{-0.3543213}
{0.51792455}
{-0.5001631}
{0.3015868}
{-0.9725825}
{0.95795727}
{0.053848438}
{0.4685224}
{0.48012847}
{0.47149876}
{0.93000793}
{-0.6236094}
{0.62295777}
{0.3806147}
{-0.7504992}
{0.47878927}
{0.7086915}
{0.34170836}
{0.6253099}
{-0.2572358}
{-0.38252416}
{-0.713336}
{0.7218801}
{-0.39992118}
{-0.5564215}
{0.05724198}
{-0.07378712}
{0.8153189}
{-0.714756}
{0.64130306}
{-0.6682591}
{-0.09270481}
{-0.7961757}
{0.68002653}
{-0.36999175}
{0.17025527}
{-0.83822}
{-0.022812119}
{-0.6073069}
{0.8506687}
{-0.9495128}
{-0.6499939}
{-0.18268704}
{-0.75193536}
{-0.37925822}
{-0.18726522}
{-0.8105714}
{-0.8256}
{0.022485927}
{0.51292515}
{0.3089802}
{-0.39953226}
{0.5725086}
{-0.28677756}
{-0.013249946}
{0.36405072}
{-0.9945353}
{-0.5227968}
{0.70151037}
{-0.16191721}
{-0.013294425}
{-0.16251189}
{-0.18235607}
{0.020130193}
{0.9091479}
{0.5176792}
{0.13487834}
{-0.8287169}
{0.71204895}
{0.51492333}
{-0.6177111}
{0.31520817}
{-0.34582585}
{-0.23168117}
{0.88584423}
{-0.5880241}
{-0.78435624}
{0.11480735}
{0.575001}
{0.70481277}
{-0.100810334}
{0.27430576}
{0.18525085}
{-0.5600075}
{-0.21473561}
{-0.5416846}
{-1.0072876}
{-0.45509976}
{0.20599139}
{-0.07210038}
{0.32079262}
{-0.62017363}
{-0.47946543}
{0.16443318}
{0.28122014}
{-0.3633101}
{-0.41614375}
{0.8543143}
{-0.58660907}
{-0.25293756}
{-0.073684424}
{-0.75245}
{0.662169}
{0.70212513}
{-0.32894495}
{0.20548815}
{-0.04442935}
{-1.0280983}
{0.44160905}
{0.26996487}
{0.017856808}
{-0.61144257}
{-0.14010541}
{0.17555326}
{-0.58715844}
{-1.0036011}
{0.73991686}
{-0.92775726}
{-0.3776674}
{0.46159205}
{0.36018378}
{-0.8899524}
{-0.9770018}
{-0.35405794}
{0.27221003}
{-0.5885012}
{0.17397718}
{0.9501228}
{0.009432821}
{0.45522255}
{-0.28068656}
{0.64022523}
{-0.9548377}
{-0.22533613}
{0.30060193}
{-0.87685907}
{0.39613876}
{0.8040378}
{0.2901617}
{0.7104943}
{-0.4283382}
{-0.97146225}
{0.74109054}
{-0.3502453}
{0.26460484}
{0.94527316}
{-0.05517072}
{0.13691154}
{0.42267984}
{-0.7249534}
{-0.45279756}
{0.26649484}
{-0.089734614}
{-0.2018829}
{-0.9618744}
{-0.42071152}
{-0.4133137}
{-0.15313342}
{-0.9983551}
{-0.5512731}
{-0.4945057}
{0.149275}
{-0.21909602}
{0.3794234}
{-0.40994614}
{-0.9778614}
{-0.18023051}
{-0.91031486}
{-0.15192872}
{0.47807518}
{0.12647946}
{-0.008898868}
{-0.7231471}
{0.570776}
