-- Efficiency --
96.837944
-- Weights --
{-0.39672026}
{-0.7154112}
{-0.8382724}
{0.11550361}
{-0.023367645}
{0.5663469}
{-0.65589696}
{0.10863713}
{0.11985891}
{0.81893337}
{-0.6963727}
{-0.7103532}
{0.34406725}
{-0.8032522}
{-0.0702531}
{0.029639572}
{0.50672686}
{0.33954665}
{-0.47329324}
{-0.75476015}
{0.04622035}
{-0.48617068}
{0.90684485}
{-0.08488884}
{-0.5313865}
{0.2321697}
{-0.5008698}
{-0.70365334}
{-0.38896355}
{-0.3651267}
{0.9314093}
{0.12057114}
{0.7476162}
{-0.6609133}
{-0.4459296}
{0.51249355}
{-0.7877997}
{-0.15535596}
{-0.6965575}
{-0.34676847}
{-0.39507398}
{0.521664}
{0.7515769}
{0.18469302}
{0.012798782}
{-0.5693027}
{-0.7504171}
{-0.341714}
{-0.5012427}
{0.5253338}
{0.6339164}
{-0.44832408}
{-0.5630404}
{0.1542593}
{0.25057203}
{0.4693349}
{0.112065755}
{0.6743089}
{0.05777601}
{-0.45577604}
{0.95042765}
{-0.24710287}
{0.8328614}
{0.22184636}
{0.15268317}
{-0.5992284}
{-0.2971942}
{-0.47061646}
{-0.5932492}
{-0.006216723}
{0.4474409}
{-0.32114863}
{-0.41849503}
{0.7833475}
{-0.9262557}
{0.57777286}
{0.47290343}
{-0.81470996}
{-0.7661584}
{0.16595891}
{-0.38671383}
{0.1750492}
{-0.93151784}
{-0.21647902}
{0.06784543}
{-0.6965139}
{0.37072003}
{0.8189189}
{-0.46769866}
{0.9358447}
{-0.7738095}
{0.03432771}
{-0.527265}
{-0.43121716}
{-0.8321132}
{0.058211386}
{-0.9371332}
{-0.71279603}
{0.83241284}
{-0.7209254}
{-0.47562394}
{0.49060202}
{0.011168537}
{0.77631426}
{-0.010586265}
{0.61993605}
{-0.20800407}
{0.06677421}
{0.9534508}
{-0.4975423}
{0.020205077}
{0.13044734}
{-0.018455746}
{0.024876408}
{0.8007839}
{-0.0111761065}
{-0.15490559}
{-0.39157125}
{-0.6583985}
{0.20453493}
{0.93397987}
{-0.16290714}
{-0.7567672}
{0.10317857}
{0.71776664}
{0.867221}
{-0.040421434}
{-0.09195884}
{-0.48832354}
{0.4769485}
{0.6656426}
{-0.24033964}
{0.7836107}
{-0.91463214}
{-0.31113213}
{-0.052526355}
{0.28311935}
{0.48674533}
{-0.9059299}
{0.7194925}
{-0.94396985}
{0.9048334}
{-0.06361179}
{0.11577074}
{-0.27888784}
{0.18578762}
{0.92623025}
{0.7055119}
{0.31694332}
{-0.60071605}
{0.008687284}
{0.46140754}
{-0.70104086}
{-0.24447708}
{-0.5482625}
{-0.08920457}
{-0.15216972}
{-0.83933264}
{-0.7345108}
{0.5503101}
{-0.45172438}
{-1.1116619}
{0.60324216}
{-0.76335585}
{-0.9201716}
{0.14666228}
{0.13835604}
{-0.15028438}
{0.2197744}
{0.2727833}
{0.4059035}
{0.8041205}
{0.19688144}
{0.71225876}
{0.15986317}
{-0.7844233}
{0.13978735}
{0.36149937}
{0.26766098}
{0.16486521}
{-0.42050585}
{0.45340666}
{-0.38952422}
{0.2801741}
{0.61056244}
{0.19827229}
{0.5294982}
{0.58619016}
{0.68239796}
{0.008145565}
{0.7867455}
{-0.44663373}
{-0.07038855}
{-0.87258524}
{0.4739858}
{-0.5062396}
{-0.0013287098}
{-0.093615666}
{-0.56021297}
{-0.37275812}
{0.73303235}
{-0.86531717}
{0.62598765}
{0.8007557}
{-0.02880478}
{0.7284104}
{0.80927986}
{-0.5711304}
{-0.661831}
{-0.99174374}
{-0.08444804}
{-0.054117005}
{-0.37232217}
{-0.6438241}
{0.96177673}
{0.6211349}
{0.4370028}
{-0.7611518}
{-0.6400316}
{-0.31470454}
{0.337562}
{-0.5628845}
{-0.99598235}
{-0.5420564}
{0.4181308}
{0.49700743}
{-0.91736156}
{0.56236315}
{-0.36411676}
{-0.90473735}
{0.325521}
{-0.12099449}
{0.55941355}
{-0.65602314}
{0.83975786}
{-0.9334362}
{0.23357978}
{0.56761163}
{0.875524}
{-0.020603975}
{0.94628036}
{0.4150017}
{0.8578351}
{-0.6183608}
{-0.09069533}
{-0.2382545}
{0.50920755}
{0.21934722}
{-0.00033879583}
{-1.0052851}
{0.651245}
{0.5284935}
{0.2594351}
{0.79600024}
{0.44340393}
{0.567727}
{-0.28485593}
{-0.93785506}
{0.9493105}
{-1.0755936}
{-0.6862494}
{0.4025726}
{0.53536797}
{-0.37884918}
{-0.93836224}
{-0.042950504}
{0.6276568}
{0.8412216}
{0.83275044}
{-0.30004346}
{0.46052352}
{-0.52689606}
{-0.13251227}
{0.010977777}
{-0.2991789}
{0.28596792}
{0.33127037}
{0.12568928}
{0.4767412}
{0.64415455}
{-0.7406169}
{-0.18108554}
{-0.5857172}
{0.52363217}
{0.26544967}
{-1.0106102}
{0.7765599}
{-0.6754724}
{0.011205908}
{0.8616066}
{0.7011885}
{-0.25818175}
{-0.3553382}
{0.7087165}
{0.6348427}
{0.31951505}
{-0.4873427}
{-0.14221002}
{-0.74316704}
{-0.73557806}
{0.6532167}
{0.41684285}
{-0.11231831}
{-0.6529889}
{0.7308425}
{0.5343784}
{-0.4239335}
{0.6081789}
{0.6260158}
{-0.028945424}
{0.33568493}
{-0.61687595}
{-0.42528114}
{0.4701724}
{-0.58852524}
{0.37165725}
{0.07184037}
{0.80497766}
{-0.72021705}
{-1.0482916}
{-0.14323233}
{-0.52491266}
{-0.08703945}
{-0.08424417}
{0.8379532}
{0.822434}
{-0.6012011}
{-0.7238472}
{-0.095294654}
{0.90048397}
{0.8125523}
{0.3204137}
{0.90588963}
{0.9094782}
{-0.30412495}
{0.50006837}
{-0.33984098}
{0.29549596}
{-0.6785782}
{-0.40771678}
{0.22153726}
{0.38395092}
{0.564822}
{-0.92885166}
{0.93757856}
{-0.54000944}
{0.2672143}
{-1.0152777}
{0.21459809}
{0.6062679}
{0.9607231}
{0.7983893}
{-0.9431046}
{0.6647805}
{0.102247186}
{-0.39530444}
{0.83946025}
{-0.11914637}
{-0.4530669}
{-0.48508868}
{-0.74121225}
{-0.7352171}
{-0.3550082}
{0.35047618}
{-0.22516593}
{0.9596585}
{-0.41175455}
{0.24653886}
{0.8952135}
{0.60622585}
{-0.2938248}
{0.22076459}
{-0.8147377}
{0.08409406}
{0.16694924}
{-0.43847242}
{0.7774838}
{-0.30415708}
{0.8354652}
{0.3835854}
{-0.8408166}
{-0.7367132}
{-0.8746062}
{-0.47667408}
{-0.9393314}
{0.85829014}
{-0.6195997}
{0.5588933}
{0.33907953}
{-0.5586398}
{-0.58229303}
{0.37259266}
{-0.6136333}
{-0.22571886}
{0.6862483}
{0.5171845}
{0.77928793}
{0.42891663}
{0.74120444}
{-0.56351495}
{0.81527007}
{0.02478006}
{-0.5236602}
{-0.111436}
{-0.30846104}
{0.24760707}
{0.079586}
{-0.91099375}
{-0.5181423}
{0.62266815}
{0.21084714}
{0.45426768}
{0.41767994}
{0.5513554}
{0.60979694}
{-0.9335268}
{0.6531385}
{0.013392586}
{-0.30864456}
{0.5456147}
{-0.8509325}
{-0.02137363}
{-0.02187368}
{-0.3047079}
{-0.58342826}
{0.7237593}
{0.64335436}
{-0.37966576}
{-0.6416887}
{-0.16488561}
{-0.27441394}
{-0.50798357}
{-0.2646974}
{0.6861014}
{-0.6625273}
{0.46328235}
{0.2311391}
{-0.11003718}
{0.69056165}
{-0.5384195}
{0.49279523}
{0.5197629}
{-0.06962256}
{0.7966716}
{0.8289591}
{-0.022662036}
{-0.42001706}
{-0.54424834}
{-0.6241039}
{-0.1754507}
{-0.9326071}
{0.9434767}
{-0.1218969}
{-0.6499039}
{-0.3688999}
{-0.5725236}
{0.25922838}
{0.6806257}
{-0.65028757}
{-0.46936607}
{0.0051109754}
{-0.9686412}
{-0.6116088}
{0.32485437}
{0.7439524}
{-0.2127488}
{0.07472809}
{-0.079581246}
{-0.24642095}
{0.43464833}
{0.80152464}
{0.33657742}
{0.031183027}
{0.11213713}
{0.4743566}
{-0.2841167}
{-0.5802585}
{-0.9644275}
{0.70449656}
{0.77964866}
{-0.44164404}
{0.9030565}
{0.3074362}
{0.4802969}
{-0.6626781}
{0.55484617}
{0.91106117}
{0.87130266}
{-0.59262097}
{-0.32136506}
{-0.6940251}
{0.201606}
{0.11642737}
{0.76886106}
{0.8094751}
{-1.0321679}
{0.12702718}
{-0.67569417}
{-0.8504115}
{-0.5819763}
{-0.09611434}
{0.80751437}
{-0.59422153}
{0.36145633}
{0.83720267}
{0.23305061}
{-0.40874994}
{0.21872753}
{-0.39283928}
{-0.89990205}
{-0.841408}
{0.09220025}
{0.014596697}
{-0.6362438}
{0.47063002}
{0.51564837}
{0.20846501}
{-0.4755549}
{0.6249642}
{-0.0031029184}
{0.17699066}
{0.0009544266}
{-0.6962424}
{0.85313535}
{0.9432124}
{0.6345464}
{-0.3896357}
{0.82087135}
{0.81350744}
{0.086706854}
{-0.9275742}
{0.027884627}
{-1.0386778}
{-0.08022898}
{-0.7904742}
{-0.16533169}
{0.3208324}
{-1.0509129}
{0.7722917}
{-0.21425405}
{0.9082202}
{-0.32065758}
{0.50861996}
{0.29695544}
{0.88077176}
{-0.86203235}
{0.37011}
{-0.8184526}
{-0.025591614}
{0.2431819}
{0.777836}
{0.4019197}
{0.79343617}
{0.6461343}
{-0.7248045}
{-0.009463448}
{0.6867777}
{0.4180854}
{-0.30757082}
{0.8150089}
{-0.21166214}
{-0.84460235}
{-0.2646223}
{0.20338713}
{-0.19969091}
{-0.0922594}
{0.024727106}
{0.795769}
{-0.8417779}
{-0.1034771}
{0.6618457}
{0.82903343}
{-0.09183831}
{-0.7126499}
{-0.99339396}
{0.82661927}
{0.38029495}
{-0.79454386}
{0.9206101}
{0.16138151}
{0.028075948}
{0.7575845}
{-0.8964485}
{0.03676801}
{0.74456847}
{-0.5378289}
{-0.24484697}
{-0.051902782}
{0.89626586}
{-0.5298345}
{0.51217586}
{0.6575966}
{0.76301825}
{0.58262646}
{-0.31159374}
{-0.05728781}
{-0.79033315}
{-0.17245027}
{-0.63676244}
{0.61032796}
{0.25189438}
{0.6438149}
{0.7744254}
{0.6753809}
{0.09528663}
{-0.4845296}
{-0.9488552}
{0.1218304}
{0.8498379}
{0.19124179}
{-0.5227193}
{-0.4339133}
{-0.63476694}
{-0.21771541}
{-0.37474927}
{0.42443082}
{-0.82324135}
{0.34279117}
{0.04419891}
{0.31908834}
{0.33391562}
{-0.9411216}
{0.11860953}
{0.20641656}
{-0.31113824}
{-0.0835289}
{0.35753322}
{0.8581906}
{-0.69310224}
{0.5259352}
{-0.7788033}
{-0.7500782}
{-0.58784497}
{0.749191}
{0.49799412}
{-0.56530815}
{0.20325127}
{-0.07746353}
{0.5088477}
{0.90622663}
{-0.682706}
{-0.0667682}
{0.5558654}
{-0.7580827}
{-0.14456628}
{0.57262903}
{-0.35703024}
{-0.55388194}
{0.5886899}
{-0.20172162}
{-0.1945764}
{0.4991404}
{-0.7192615}
{0.25462168}
{0.43816832}
{0.36257714}
{0.32824388}
{-1.0079823}
{-0.22955798}
{-0.46050692}
{-0.36597475}
{0.7379536}
{0.93323183}
{0.8490555}
{0.13349596}
{0.6977354}
{-0.7497178}
{0.4119804}
{0.10736892}
{0.26272008}
{0.042995356}
{0.16804619}
{0.88667405}
{0.4288303}
{0.20232429}
{-0.46052474}
{0.5490364}
{0.87716126}
{0.923633}
{0.08878939}
{-0.4745427}
{0.7998904}
{0.7082014}
{0.6462822}
{0.29128948}
{-0.74374616}
{0.49362975}
{0.7301107}
{-0.43326578}
{-0.8987384}
{0.7416214}
{-0.42248288}
{-1.0208889}
{0.53466374}
{0.3918885}
{-0.19391339}
{0.03232815}
{0.6528142}
{-0.095903635}
{0.5542565}
{-0.25097474}
{0.6583135}
{-0.95427763}
{0.7676417}
{0.5540923}
{0.116560645}
{-0.52565897}
{-0.025309734}
{-0.49829707}
{0.1413054}
{-0.8333475}
{-0.90493}
{-0.28739676}
{0.66697216}
{-0.6917848}
{-0.8430762}
{0.8620759}
{-0.44116458}
{-0.17732131}
{-0.5790529}
{-0.28418216}
{-0.110413454}
{0.57901263}
{-0.7035631}
{0.8951994}
{-0.019546188}
{0.731403}
{0.49994683}
{-0.85238016}
{-0.76673234}
{-0.5611341}
{0.4358744}
{0.89358246}
{0.48433778}
{0.16275698}
{0.81717795}
{-0.35603532}
{-0.78075397}
{0.3317325}
{-0.20868514}
{0.7168542}
{0.35912904}
{0.59505236}
{0.35760716}
{-0.6570772}
{0.24403283}
{0.2653727}
{0.45484734}
{-0.71567476}
{0.71919733}
{-0.68544596}
{-0.5287229}
{0.33331004}
{-0.7278829}
{-0.43960717}
{-0.68056303}
{-0.44417843}
{0.6225251}
{-0.46169922}
{0.01962109}
{-0.29527745}
{-0.24112593}
{-0.7417555}
{-0.015689703}
{0.04600506}
{-0.068439364}
{0.316582}
{0.32096842}
{-0.53731894}
{0.6290007}
{-0.042274773}
{-0.30249235}
{0.9331435}
{-0.2673558}
{-0.6504524}
{0.06863711}
{0.09518268}
{0.26613116}
{-0.08214579}
{-1.0605079}
{-0.9488317}
{0.23321256}
{0.7289843}
{0.57692003}
{0.67150223}
{0.14637114}
{-0.5705743}
{-0.7185163}
{0.6277417}
{-0.17250378}
{0.825209}
{-0.8818611}
{-1.035864}
{-0.7028408}
{-0.44762382}
{0.6369677}
{0.8560113}
{0.9246799}
{0.035551142}
{0.6026046}
{0.5728408}
{-0.643758}
{-0.31685472}
{-0.9386096}
{-0.9421774}
{-0.63313454}
{-0.788788}
{-1.0351734}
{0.60231316}
{-0.3347388}
{-0.539726}
{-0.29934403}
{0.795262}
{0.5118133}
{-0.49230623}
{-0.12920474}
{0.029375095}
{-0.9398642}
{-0.68460554}
{-0.03510759}
{0.8141724}
{0.44015157}
{0.7853707}
{0.63796985}
{0.4794729}
{0.45999643}
{-1.0113469}
{0.362078}
{0.54359376}
{0.25190127}
{-0.5470055}
{0.07622756}
{0.12304131}
{-0.6124001}
{-0.36029875}
{-0.81198996}
{0.16074958}
{0.592724}
{-0.49024552}
{0.5541313}
{-1.0305282}
{-0.89044213}
{0.004778333}
{0.04349021}
{-0.51995474}
{0.21276806}
{-0.4264573}
{-0.69382936}
{-0.47926578}
{0.35243165}
{-0.32684976}
{0.5880532}
{0.6928669}
{-0.6254911}
{-0.21795897}
{0.8524917}
{0.14561525}
{-0.6224787}
{0.29067758}
{-0.99289745}
{-0.55824125}
{0.3087451}
{0.83253485}
{-0.78051174}
{-0.15334633}
{0.15140375}
{0.46689504}
{0.4887189}
{-0.07785366}
{0.44106174}
{-0.049767274}
{-0.9498384}
{-0.4436861}
{-0.74846846}
{0.09029484}
{0.45561787}
{-0.75124204}
{-0.73392963}
{0.28259227}
{-0.21711817}
{0.6141585}
{-0.9395645}
{0.21405086}
{0.07275769}
{0.32367674}
{-0.12297975}
{-0.25702637}
{0.015173594}
{0.01671886}
{0.54397184}
{-1.0245113}
{-0.57938445}
{-0.70225203}
{-0.55926555}
{0.24475855}
{0.58602726}
{0.91877496}
{0.11295083}
{-0.19137326}
{0.045008708}
{-0.42802128}
{0.25578415}
{-0.5796138}
{0.45513475}
{-0.80987656}
{0.4415741}
{0.10392223}
{0.24119699}
{0.12737623}
{-0.66363394}
{0.9637632}
{0.4128801}
{-0.35282478}
{-0.4271511}
{0.32015082}
{-0.6647828}
{0.47715616}
{0.6925376}
{-0.4961057}
{-0.34904477}
{-0.91160786}
{-0.99655545}
{0.6113301}
{-0.20984669}
{0.93723404}
{-0.8034723}
{0.15084635}
{-0.24594916}
{0.055207796}
{0.0828902}
{0.5169948}
{0.54918724}
{-0.8837625}
{-0.7807371}
{0.5532156}
{0.13187797}
{-0.68640673}
{0.349298}
{0.05181726}
{0.45400667}
{0.3144628}
{0.5164279}
{-0.8153382}
{-0.28836966}
{0.2616569}
{-1.0575255}
{0.09792024}
{-0.8310072}
{-0.46044526}
{-1.0195283}
{0.4196203}
{0.21658184}
{-0.2333413}
{0.75592023}
{0.7641131}
{-0.74840826}
{-0.78926194}
{0.5267574}
{0.8806296}
{0.6814996}
{-0.6651467}
{-0.0002394945}
{-0.37087512}
{0.09968282}
{0.9171699}
{0.08981425}
{0.3458832}
{-0.42501462}
{-0.17669305}
{0.6224474}
{-0.46224195}
{-1.0118519}
{0.34522334}
{0.039111182}
{-0.20144656}
{-0.5000708}
{0.44230834}
{0.33398548}
{-0.16392054}
{0.42296574}
{0.75537}
{-0.61285186}
{-0.39536348}
{-0.3866917}
{0.26545516}
{-0.06385412}
{0.55890363}
{-0.29373804}
{0.6356157}
{0.6572177}
{-0.5244298}
{-0.9370084}
{-0.48626813}
{-0.19861977}
{-0.20458274}
{-0.2909607}
{-0.96685994}
{-0.81431645}
{0.893214}
{0.5973848}
{-0.1764141}
{-0.91352737}
{0.2608393}
{0.20286132}
{-0.4225491}
{0.39731967}
{-0.4051253}
{-0.7600145}
{-0.41054997}
{-0.45223123}
{-0.14698638}
{0.36900333}
{0.9512011}
{-0.25575504}
{-0.70572144}
{-0.87640923}
{-0.12945813}
{-0.4605715}
{-0.13871655}
{-0.1487162}
{-0.15737228}
{0.5916816}
{0.5390658}
{-0.7452963}
{0.50646937}
{-0.59214556}
{0.09087688}
{0.6155738}
{-0.13604732}
{-0.08464641}
{-0.6699705}
{-0.9968107}
{-0.78502095}
{0.90360624}
{-0.43762714}
{0.54340386}
{-0.82554305}
{-0.52483505}
{0.9972205}
{0.7228139}
{-0.15456846}
{0.3799258}
{0.8905327}
{-0.22686842}
{-0.9296824}
{-0.6042925}
{-0.26769814}
{-0.4574386}
{-1.0061375}
{-0.7480028}
{-0.33027825}
{-0.19655353}
{-0.63228524}
{-0.32274136}
{0.014043514}
{-0.2577986}
{0.9127017}
{0.75579476}
{-0.5505455}
{-0.56945974}
{0.40725842}
{0.9548561}
{0.5914144}
{-0.69956917}
{0.56336915}
{-0.43642792}
{0.5934378}
{-0.14458959}
{0.6791371}
{-0.14536844}
{-0.42050636}
{0.18462825}
{0.86127627}
{0.6103823}
{0.8800398}
{-0.85637885}
{0.4065813}
{0.27211785}
{0.8362563}
{0.13196835}
{-0.17737111}
{0.14766394}
{0.5016404}
{-0.48462817}
{-0.79386985}
{0.93746084}
{0.1942173}
{0.50450593}
{0.82489}
{-0.35822868}
{0.38179976}
{-0.62526673}
{0.5118753}
{0.07170251}
{-0.26672208}
{-0.57573634}
{-0.38220605}
{-0.6571451}
{-0.065243155}
{-0.30730623}
{-0.17465982}
{0.33124664}
{-0.38785586}
{-0.6495302}
{0.66369617}
{0.22925977}
{0.5658289}
{-0.020164577}
{0.017713543}
{-0.7215826}
{0.4834063}
{-0.8111904}
{0.29185238}
{0.6993635}
{0.9778606}
{0.8169177}
{-0.4184135}
{0.6126071}
{0.37819338}
{0.6346241}
{-0.9921137}
{-0.6814434}
{0.38362187}
{-0.73647565}
{0.45853445}
{-0.89744747}
{0.101034656}
{-0.6005828}
{0.911888}
{0.51526445}
{-0.61761355}
{0.9436528}
{0.6698574}
{0.0020040732}
{0.66033065}
{-1.0318141}
{0.7319635}
{-0.80346555}
{-0.5990653}
{-0.66942215}
{-0.6378528}
{-0.63127285}
{-0.17308323}
{-1.0286614}
{-0.8253449}
{-0.4045614}
{0.10068985}
{-0.61511046}
{0.44424406}
{-0.19972093}
{-0.07644278}
{0.31559154}
{0.3571519}
{-0.9219821}
{-0.22202654}
{0.14281416}
{-0.99663675}
{-0.7393279}
{0.41565898}
{-0.42374912}
{-0.2771922}
{0.44218618}
{-0.08581007}
{-0.99517506}
{-0.74497926}
{0.42287177}
{-0.8124949}
{-0.44936004}
{-0.67680156}
{0.18888867}
{0.92842704}
{0.4856679}
{-0.0054752855}
{0.4657816}
{0.87194484}
{0.8829784}
{0.79302776}
{-0.7196657}
{0.2419256}
{0.3031579}
{0.47201914}
{0.21803656}
{-0.40566137}
{0.21866311}
{0.33436337}
{0.90471774}
{-0.4023128}
{-0.57247835}
{-0.3882154}
{0.74231875}
{-0.3461813}
{-0.07079108}
{-1.0189723}
{0.60654694}
{0.5259923}
{0.39468044}
{-0.5063143}
{0.659374}
{-0.1523588}
{-0.123110786}
{0.7471484}
{-0.80229914}
{-0.6822667}
{0.17051524}
{-0.95488703}
{0.1799297}
{0.2794907}
{0.39812306}
{-0.64622724}
{-0.37165305}
{0.80925703}
{-0.45026225}
{-0.44889125}
{-0.040050786}
{-0.81691295}
{-0.899471}
{-0.10900823}
{-0.6492107}
{0.372226}
{0.07863611}
{-0.4785832}
{0.7779522}
{0.5346206}
{-0.8599987}
{0.848842}
{0.15662898}
{0.5094111}
{-0.264302}
{0.70319784}
{0.33119884}
{0.6251228}
{-0.6801869}
{0.5313753}
{-0.087875284}
{-0.119836636}
{-0.5786699}
{-0.12543218}
{-0.3767486}
{-0.9136106}
{0.9717593}
{0.39773217}
{-0.2200013}
{-0.5582625}
{-0.22710949}
{0.17791048}
{-0.52706355}
{-0.84898365}
{-0.86767066}
{-0.20663771}
{0.583048}
{-0.86607}
{0.7797869}
{0.80685365}
{0.15193878}
{0.25450715}
{0.36581036}
{-0.46342048}
{0.4176532}
{-0.87747294}
{0.6036491}
{0.45838258}
{0.5587292}
{0.74990547}
{-0.19550574}
{0.19881025}
{0.8483535}
{0.8124514}
{0.36499748}
{-0.9123291}
{0.9385344}
{0.90660506}
{0.40615073}
{0.42346135}
{0.0658019}
{0.73988646}
{-0.008594295}
{-0.96914685}
{-0.64420545}
{0.6808678}
{-0.5812718}
{0.5144993}
{0.21526244}
{-0.2726722}
{0.7849486}
{0.6412386}
{0.005210664}
{0.039682005}
{-0.9711823}
{0.010977741}
{-0.1405301}
{-0.41965574}
{-0.2695432}
{0.7075423}
{-0.22903137}
{0.09111257}
{0.49692753}
{0.16373983}
{-0.45216778}
{-0.42483225}
{-0.8632041}
{0.5085422}
{-0.8421141}
{0.21869752}
{0.5012465}
{-0.019124033}
{-0.7195104}
{0.105718575}
{0.51529527}
{-0.16088586}
{-0.26823473}
{-0.25828165}
{-0.28266355}
{-0.3855296}
{-0.7070598}
{-0.8925433}
{0.44109622}
{0.085636914}
{0.79068327}
{0.70298773}
{-0.28897423}
{0.009989973}
{-0.034289822}
{0.009575078}
{0.107136235}
{-0.32597527}
{0.47367075}
{-0.64039475}
{-0.32255358}
{0.51876533}
{-0.13044049}
{0.7724439}
{-0.16724244}
{0.19249097}
{0.05116972}
{-0.7228404}
{-0.4915642}
{-0.7515749}
{0.683945}
{-0.6320745}
{-0.2187288}
{0.39693394}
{-0.6986238}
{0.14436081}
{-0.20608108}
{-0.42388615}
{0.75812554}
{-0.8246326}
{-0.90997076}
{-0.5764736}
{-0.24659072}
{0.6190282}
{0.5372019}
{0.12078398}
{-0.31184503}
{0.84356135}
{0.3661727}
{0.36831298}
{1.039013}
{0.37115455}
{-0.44570962}
{0.93038714}
{-0.15511693}
{0.56518537}
{0.96052533}
{0.52606523}
{0.59277153}
{0.35250553}
{-0.38181543}
{-0.39359793}
{-0.16713928}
{0.20918597}
{-0.027781302}
{-0.8124813}
{0.2943174}
{0.42457086}
{0.086314544}
{-0.98661125}
{0.6736524}
{-0.057060536}
{0.49021316}
{0.90374315}
{-0.30477443}
{0.9572537}
{-0.32324976}
{-0.099929504}
{0.7205656}
{-0.4723608}
{0.36415967}
{-0.046129704}
{-0.6717611}
{0.3229314}
{0.8469264}
{-0.29977283}
{0.59116286}
{-0.16239718}
{0.6248813}
{-0.8266965}
{-0.2982341}
{-0.24574788}
{0.7593192}
{-0.7838458}
{0.40777612}
{0.9287358}
{0.68479085}
{-0.051193956}
{-0.40702137}
{-0.25081575}
{0.58656424}
{-0.8271519}
{0.8752028}
{-0.4013062}
{0.41964218}
{0.88561904}
{-0.68034136}
{0.15235929}
{-0.44326282}
{-0.5817553}
{-0.010510417}
{-0.45650616}
{0.39153036}
{0.11039469}
{0.006169187}
{-0.27094188}
{0.070624314}
{-0.42517194}
{-0.8070632}
{-0.25683996}
{0.5440751}
{-0.5152637}
{0.61140734}
{-0.5926496}
{-0.28351545}
{0.097844616}
{0.21260212}
{0.16064583}
{-0.34019002}
{-0.32685956}
{0.78469497}
{-0.41879764}
{0.83503264}
{-0.37039098}
{-0.36057103}
{-0.5641649}
{0.48330888}
{0.3678302}
{-0.09231429}
{-0.92496914}
{-0.022156697}
{0.10070635}
{-0.25655913}
{0.51129854}
{0.48431608}
{0.7122785}
{0.41353658}
{-0.115770824}
{0.42022684}
{-0.44086036}
{0.08826174}
{-0.0646894}
{-0.9246007}
{0.22027054}
{0.6865021}
{0.52089727}
{0.069801316}
{-0.46013746}
{-0.52289635}
{-0.13905588}
{-0.5420596}
{-0.41228732}
{0.58211905}
{0.6630646}
{0.7820569}
{-0.9881457}
{0.24543999}
{0.0038985445}
{0.7545031}
{0.49185702}
{0.36708784}
{-0.30237073}
{-0.98696655}
{-0.04581523}
{-0.6642195}
{0.20938872}
{-0.6990794}
{0.7496213}
{-0.60633534}
{-0.24681622}
{-0.95380276}
{0.122981}
{0.7256648}
{-0.10155044}
{-0.4815756}
{0.029573698}
{-0.69056386}
{-0.4406446}
{-0.48664245}
{0.7709862}
{-0.08734695}
{-0.508261}
{-0.7963474}
{-0.13749024}
{-0.25543907}
{-0.49755305}
{-0.92593837}
{-0.042354107}
{-0.9046285}
{-0.57928264}
{0.20013133}
{0.7395228}
{0.5725111}
{0.6958651}
{0.026228542}
{0.49605447}
{-0.55471545}
{-0.15316781}
{0.04223082}
{0.07822307}
{0.871275}
{-0.94189745}
{0.90448475}
{0.76694477}
{-0.20974581}
{-0.026866743}
{0.4651717}
{-0.6997744}
{0.4176597}
{0.066722326}
{0.17543536}
{-0.34619412}
{0.10533942}
{-0.7125552}
{-0.8901848}
{0.017148014}
{0.21640268}
{-0.8238722}
{-0.66586304}
{-0.34950814}
{-0.35117564}
{0.7834645}
{0.811221}
{0.8659297}
{-0.013524486}
{0.4535246}
{-0.989164}
{0.2307047}
{0.0689301}
{0.9351832}
{0.25608978}
{-0.8173541}
{-0.4656961}
{-0.1941896}
{-0.12713721}
{-0.8900651}
{0.54752976}
{0.11514948}
{-0.56566495}
{-0.8510164}
{0.56382495}
{-0.76380527}
{-0.22980566}
{0.2653164}
{0.9480934}
{0.7735213}
{-0.5449368}
{0.48302016}
{-0.144232}
{-0.2928277}
{0.84272027}
{0.24179807}
{-0.17518201}
{-0.3636841}
{0.52303827}
{-0.27283654}
{-0.6322709}
{-0.14084436}
{-0.7623384}
{0.4575097}
{-0.67535084}
{0.016688963}
{0.54010904}
{0.20082107}
{0.7878626}
{-0.32718304}
{-0.5811788}
{0.4046208}
{-0.063033015}
{-0.29843518}
{0.3471361}
{-0.972381}
{-0.6844756}
{0.32170206}
{-0.0040924354}
{0.030468244}
{-0.50590223}
{-0.072249}
{0.1798032}
{-0.3866466}
{0.7176958}
{0.9301806}
{0.15508208}
{-1.0327343}
{0.25152564}
{0.43578178}
{-0.21891798}
{-0.9611753}
{0.35634962}
{-0.41621327}
{-0.9170011}
{0.8946754}
{-0.18198052}
{-0.5504853}
{-0.8915478}
{0.66558206}
{-0.42209047}
{-0.026579915}
{-0.97682387}
{0.06803783}
{0.3307906}
{1.0698627}
{-0.04179133}
{-0.47665057}
{-0.17716989}
{0.6002759}
{-0.37454855}
{-0.93984663}
{0.5034506}
{0.8634847}
{-0.5277752}
{-0.26483163}
{0.746071}
{0.122804664}
{-0.014117674}
{0.10208464}
{0.4118612}
{0.7234475}
{0.27516377}
{0.16461053}
{0.33679745}
{-0.6887631}
{-0.13531248}
{0.27494922}
{0.62236917}
{0.82097816}
{-0.24677967}
{-0.3872622}
{-0.8774773}
{-0.2961566}
{0.06062339}
{0.1866428}
{-0.13942862}
{-0.71933514}
{0.8959444}
{0.76261914}
{0.52325475}
{-0.41245952}
{-0.06449445}
{0.5322999}
{-1.017154}
{0.4241785}
{-0.27719375}
{0.70088017}
{0.45479006}
{-0.08042474}
{-0.6293005}
{0.9393188}
{-0.5192776}
{-0.5533027}
{0.38760078}
{0.90581}
{0.54134864}
{0.17242703}
{0.09314793}
{0.06575354}
{0.5521788}
{0.77920675}
{0.246047}
{-0.3636342}
{0.8596141}
{0.10247672}
{-0.7282935}
{0.035286218}
{0.62519044}
{-0.610249}
{-0.75858057}
{-0.6122111}
{-0.23874554}
{0.6972473}
{-0.11840678}
{0.30656138}
{-0.3735022}
{-0.46960112}
{0.4941553}
{-0.08307739}
{0.344789}
{-0.0635502}
{0.3783641}
{0.6911489}
{-0.4683516}
{-0.49998093}
{-0.8791869}
{0.74615467}
{-0.037840564}
{-0.025482118}
{0.3949521}
{-0.51146215}
{-0.31410727}
{-0.41894504}
{-0.07045649}
{0.68294656}
{0.7514533}
{-0.58044094}
{-0.4628004}
{-0.32511958}
{-0.544108}
{-0.37729934}
{0.43209225}
{-0.78415024}
{0.10832803}
{-0.49888363}
{0.80832875}
{-0.6738509}
{-0.2953158}
{0.8718239}
{-0.10517281}
{0.49475387}
{0.09086268}
{1.0112892}
{-0.66629255}
{0.8213328}
{-0.5749723}
{-0.7855951}
{0.6078649}
{-0.52611583}
{0.21618749}
{-0.61546624}
{0.64050215}
{-0.95859706}
{0.53319764}
{1.019657}
{0.3874318}
{0.6425568}
{0.8024589}
{0.32561478}
{0.22452302}
{-0.11330787}
{0.16630289}
{1.0411462}
{0.35735887}
{-0.44139847}
{-0.27525425}
{-0.5024112}
{-0.84127843}
{-0.9752587}
{-0.21239859}
{0.84363365}
{-0.14334653}
{-0.6241976}
{0.77828485}
{-0.8063204}
{-0.5800674}
{-0.51390135}
{-0.1856225}
{0.47262824}
{-0.5256445}
{0.17362204}
{-0.7810004}
{0.17423247}
{-0.58163613}
{0.6718322}
{0.17651898}
{0.7433188}
{0.5749828}
{0.8639544}
{-0.68780565}
{-0.40160006}
{-0.59951234}
{-0.89398515}
{-0.3516156}
{-0.76593834}
{0.76122856}
{0.053273264}
{0.89545894}
{-0.06366252}
{-0.37467784}
{-0.172649}
{-0.055110477}
{0.5557407}
{-1.004602}
{0.6097163}
{-0.38898042}
{0.57621294}
{0.5998025}
{-0.08782573}
{0.32454178}
{-0.28778324}
{-0.50684696}
{0.12031119}
{-1.0217283}
{-0.25298217}
{0.48412845}
{-0.7648243}
{0.8054545}
{-0.48031873}
{0.68224686}
{0.71874225}
{-0.3745905}
{-0.94954246}
{0.14731333}
{-0.011372331}
{-0.7392519}
{-0.11641683}
{-0.9242655}
{-0.1108245}
{0.69689494}
{-0.67376775}
{0.14700054}
{0.48675457}
{-0.6314514}
{0.2952}
{0.8514877}
{0.3390514}
{0.9633737}
{0.8515721}
{0.0021940388}
{0.59428513}
{-0.6452571}
{0.008779515}
{-0.84232676}
{-0.20469102}
{0.67197514}
{-0.42562878}
{0.1939761}
{0.8610817}
{0.37155366}
{0.48175704}
{0.4896915}
{0.9092628}
{0.8009355}
{0.53060865}
{-0.17346953}
{-0.4919649}
{0.7596931}
{-0.08232628}
{0.21790569}
{-1.0315307}
{-0.36992973}
{0.5572335}
{0.77891177}
{-0.3634127}
{0.13978383}
{1.0378697}
{-0.35059416}
{-0.115740456}
{0.087948576}
{-0.5476661}
{-0.18016237}
{-0.9474188}
{1.071671}
{0.17153919}
{-0.0017370702}
{-0.10398166}
{0.4134637}
{0.37726328}
{-0.9029939}
{0.35428563}
{0.73465025}
{-0.0476991}
{-0.60716164}
{-0.18751177}
{1.0384007}
{-0.16388611}
{0.69051427}
{0.31502047}
{0.574598}
{-0.3116643}
{0.0879094}
{0.35709348}
{-0.5696744}
{0.4545325}
{0.8236981}
{0.6113881}
{0.43344656}
{-0.25925034}
{0.413064}
{-0.35812196}
{-0.7248823}
{0.53575104}
{-0.77914566}
{0.5750669}
{0.03293407}
{-0.3365649}
{0.56965035}
{0.123991646}
{-0.8322623}
{0.7161999}
{0.24806657}
{-0.08966799}
{-0.56060255}
{-0.27293417}
{-0.6223218}
{0.14268175}
{-0.654641}
{0.73100424}
{-0.93406326}
{0.54277766}
{-0.7331815}
{0.32650405}
{-1.0384694}
{0.87772405}
{0.68662584}
{-0.10896455}
{0.765567}
{0.12476865}
{0.95229185}
{0.8609411}
{-0.6297133}
{-0.75276864}
{-0.6461952}
{0.4466695}
{-0.072500385}
{0.8282703}
{-1.0422195}
{0.63427424}
{-0.5037205}
{-0.39466104}
{0.74019986}
{-0.4963802}
{-0.49063116}
{-0.026846172}
{-0.046576332}
{-0.6733832}
{-0.8862807}
{0.60440695}
{-0.2896773}
{0.50431055}
{0.43839774}
{-0.22146997}
{-0.32451677}
{0.8902651}
{-0.62914175}
{0.38893119}
{-0.3281214}
{-0.30336532}
{-0.60350275}
{0.5181676}
{-0.5790299}
{0.8810576}
{0.76926386}
{-0.5752386}
{0.92568725}
{-0.94067675}
{-0.61770666}
{-0.70252955}
{-0.2567892}
{0.063018836}
{-0.9872455}
{-0.006688836}
{-0.21293913}
{0.7319117}
{0.683382}
{-0.7255055}
{-0.77071697}
{-0.614192}
{0.6906242}
{-0.19774565}
{-0.08509963}
{-0.2969572}
{-0.5232878}
{0.57053983}
{0.07712444}
{0.9782971}
{-0.15607095}
{0.47190705}
{1.0792106}
{0.10509559}
{0.44722188}
{-0.22423443}
{0.5240827}
{-0.5999414}
{-0.93586797}
{0.60220325}
{0.8694239}
{-0.39850554}
{-1.1470367}
{0.13162675}
{0.48981756}
{1.0688567}
{0.42119747}
{-0.39719424}
{-0.081722304}
{0.7798637}
{-0.34314516}
{0.4210681}
{-0.37316027}
{-0.24241656}
{0.6781595}
{-0.16653092}
{-0.44284943}
{0.95997536}
{0.5977339}
{-0.2545112}
{0.9364763}
{-0.7779346}
{-0.23256288}
{0.64654815}
{0.25459513}
{0.042400375}
{-0.3144886}
{0.012022253}
{0.15571557}
{-0.024845466}
{0.0027462791}
{0.9247104}
{-0.23743959}
{-0.61966616}
{0.9111866}
{-0.6632422}
{-0.6022122}
{0.53101206}
{0.025778709}
{0.66327465}
{1.0502825}
{-0.049677446}
{0.47023958}
{-0.7818233}
{0.40250885}
{0.18165617}
{-0.17168984}
{0.18323651}
{0.8419202}
{0.6467689}
{-0.6154112}
{0.38632527}
{-0.13579622}
{0.73426217}
{0.16231535}
{0.4667395}
{0.59851867}
{-0.63166827}
{0.48500258}
{-0.4634305}
{0.1638929}
{-0.98792344}
{0.26156324}
{-0.6902689}
{-0.641637}
{0.8646122}
{-0.052746385}
{0.48112327}
{-0.3370358}
{-0.892447}
{-0.9402385}
{-0.67725146}
{0.87546104}
{-0.7042691}
{0.6820747}
{0.068406664}
{0.6282966}
{0.3759546}
{-0.9063535}
{-1.026879}
{0.27450714}
{0.5488759}
{-0.056740884}
{0.6720642}
{0.044566657}
{0.7161646}
{-0.9559597}
{-0.14974023}
{0.3362084}
{0.8010191}
{0.73461837}
{0.27632323}
{0.5529252}
{-0.6262189}
{0.81296307}
{-0.4874557}
{-0.68679404}
{0.39029387}
{0.32638624}
{-0.9792727}
{0.93559086}
{0.9024645}
{0.18404804}
{0.8624989}
{-0.337638}
{0.60378444}
{0.2704635}
{0.41125122}
{-0.37728235}
{0.24870215}
{-0.96006703}
{-0.6227428}
{0.92290354}
{-0.7159096}
{-0.6077332}
{-0.7817284}
{-0.6774636}
{-0.31799403}
{0.6609392}
{-0.54364127}
{0.6950783}
{-0.26820058}
{-0.08999556}
{-0.57171834}
{0.03895123}
{-0.70203316}
{-0.8466326}
{0.36407366}
{0.36571681}
{0.38590628}
{0.025458165}
{-0.78720033}
{0.646745}
{0.06999748}
{-0.5672798}
{-0.55904496}
{0.8363908}
{0.36085454}
{0.4053188}
{0.88293374}
{0.38993695}
{0.25924563}
{-0.9174716}
{0.8865458}
{-0.604456}
{-0.32563442}
{0.74259126}
{-0.79763424}
{-0.45835945}
{1.089507}
{0.17483342}
{-0.40549526}
{0.74939495}
{-0.76064444}
{-0.50999755}
{-0.24580678}
{0.10917611}
{-0.32042423}
{-0.92615664}
{0.044968415}
{0.98226213}
{-0.621098}
{-0.56689644}
{0.6656617}
{0.7458012}
{0.51230943}
{0.19709082}
{-0.8481184}
{-0.43049413}
{-0.2017595}
{-0.13143893}
{-0.76904976}
{-0.24634999}
{-0.50439143}
{-0.7721665}
{0.6900753}
{-0.47730106}
{0.97834325}
{-0.03561394}
{-0.5981456}
{0.005270702}
{-0.4135691}
{0.5432355}
{0.29521647}
{-0.076379105}
{-0.248056}
{0.62109745}
{-0.8022207}
{0.054947224}
{-0.058818057}
{0.67725366}
{0.84428227}
{0.22167899}
{0.5918063}
{0.44843727}
{-0.63817966}
{0.33759114}
{0.8142482}
{-0.044004824}
{-0.75821316}
{-0.24519518}
{-0.68567765}
{-0.52715564}
{0.18982401}
{0.054921}
{0.17151591}
{-0.33268848}
{-0.68181837}
{0.032458406}
{0.6069618}
{0.61668533}
{-0.49853215}
{-0.8847535}
{-0.27422145}
{-0.07888667}
{0.4562382}
{-0.36830252}
{-0.10886877}
{0.28342104}
{0.48068315}
{-0.53277254}
{0.7835777}
{-0.7629216}
{-0.96800435}
{-0.92225903}
{0.79315233}
{-0.8756621}
{-0.7519764}
{0.11622994}
{-0.59031713}
{0.25875065}
{-0.24050626}
{0.9876122}
{-0.13708018}
{-0.98896587}
{0.17137828}
{0.15642333}
{0.57139003}
{-0.06926098}
{0.10466527}
{-0.39594325}
{-0.46488446}
{-0.23997536}
{0.14177647}
{0.5968009}
{-0.7886063}
{0.80140615}
{0.29831663}
{0.22886904}
{-0.61237353}
{-0.5946249}
{0.19165483}
{-0.42292872}
{0.4553656}
{-0.2826215}
{0.06941446}
{0.69380146}
{-0.11610364}
{0.18621978}
{-0.8424145}
{0.40371376}
{0.7437558}
{-0.9466753}
{-0.61204445}
{-0.018270949}
{0.2896497}
{-0.9214853}
{0.8921586}
{0.6715492}
{-0.2439759}
{-0.28411454}
{0.17698231}
{-0.03853166}
{-0.5061924}
{0.43715063}
{0.8441812}
{0.93932235}
{-0.49139234}
{-0.25196728}
{-0.81763256}
{-0.7004683}
{0.73737854}
{0.81284654}
{0.27027383}
{-0.03648939}
{0.8407195}
{-0.9524432}
{-0.9973289}
{-0.3607084}
{-0.78876346}
{-0.83584034}
{0.14730778}
{0.6516245}
{-0.10599383}
{0.20208278}
{-0.25166664}
{0.48787093}
{0.8833024}
{-0.640868}
{-0.38282976}
{0.17042758}
{0.46674493}
{0.8451868}
{0.5977372}
{0.5662835}
{0.5040316}
{-0.8499595}
{0.7869576}
{-0.21981442}
{-0.9739281}
{0.31607923}
{0.58962095}
{-0.76761174}
{0.28231227}
{0.57482165}
{0.44189373}
{-0.9451753}
{0.92464316}
{0.6035329}
{0.24429813}
{-0.28093863}
{-0.35527372}
{0.44988596}
{0.6312901}
{0.84133846}
{0.64317274}
{-0.8981356}
{0.038936652}
{-0.06898787}
{0.8818264}
{-0.09190924}
{-0.6652764}
{0.17528097}
{0.39099818}
{-0.38915345}
{-0.7916273}
{-0.24045776}
{0.7061042}
{0.58290136}
{0.8981205}
{0.65496176}
{0.8030773}
{-0.62541765}
{0.30291358}
{0.22544084}
{0.85445595}
{-1.0724636}
{0.49774104}
{0.8078664}
{-0.36340147}
{0.17156711}
{0.5314163}
{0.22338262}
{-0.30613175}
{-0.22492117}
{0.79203}
{-0.80202717}
{-0.12201061}
{0.1712274}
{0.5324856}
{-0.60780656}
{-0.583221}
{0.44021532}
{-0.8315095}
{0.3202532}
{-0.39586502}
{0.20739771}
{-0.35958037}
{1.141477}
{-0.21683516}
{-1.0316468}
{-0.45499286}
{0.93379754}
{0.028946161}
{0.72069013}
{-0.65513456}
{-0.6288908}
{0.9353464}
{-0.5042485}
{-0.44746456}
{0.6681496}
{-0.7756791}
{0.01401055}
{0.2822813}
{-0.72230273}
{-0.1722456}
{-0.9320559}
{-0.0011947185}
{0.10349567}
{-0.087390624}
{0.3051803}
{0.7936882}
{0.7789628}
{-0.5822987}
{-1.0783228}
{0.046343375}
{-0.5721239}
{0.18147491}
{0.20872527}
{0.8162874}
{0.80627036}
{0.8401213}
{0.50651747}
{-0.3694938}
{0.26218438}
{1.037542}
{-1.0460498}
{-1.0410196}
{-0.20191295}
{0.35149556}
{-0.06961399}
{0.73437345}
{0.019588016}
{-0.63835996}
{-0.6139788}
{-0.15072633}
{-0.74436915}
{-0.83818334}
{-1.0734547}
{0.3508562}
{-0.32301053}
{0.20181337}
{-0.8064742}
{0.14248815}
{0.4033992}
{-0.24579021}
{-0.45550552}
{0.87227595}
{0.9584541}
{-0.47812852}
{-0.7049338}
{-0.54890144}
{0.7444193}
{-0.4725289}
{0.8334481}
{0.7152754}
{0.000036841957}
{-0.8462578}
{-0.106695406}
{0.5316802}
{-0.055177506}
{-0.585071}
{-0.156665}
{-0.38341388}
{-0.63951886}
{-0.66863996}
{-0.55280334}
{-0.4516028}
{0.7484357}
{0.686701}
{0.5034827}
{-0.14599705}
{-0.33736843}
{-0.9143211}
{-0.90062296}
{0.29445115}
{-0.008413261}
{-0.7660469}
{-0.11423045}
{0.2046949}
{-0.74612176}
{-0.7439562}
{-0.06746197}
{-0.3153952}
{0.21460393}
{-0.549396}
{0.19336498}
{0.72480094}
{0.67331487}
{0.9128143}
{0.64052314}
{-0.555621}
{0.92682666}
{0.48296353}
{-0.40078261}
{-0.68517053}
{0.9261769}
{-0.7982058}
{0.38298395}
{-1.0224568}
{0.9173786}
{-0.016333515}
{-0.93988425}
{-0.057461504}
{0.65387636}
{0.10157054}
{0.6659106}
{-0.11975662}
{0.83029187}
{0.5185833}
{0.7028888}
{0.80327713}
{-0.5037324}
{1.0125489}
{-0.26768985}
{-0.9795028}
{-0.37953612}
{0.9105368}
{0.48723027}
{0.2179729}
{-0.41965702}
{-0.24102718}
{-0.89944506}
{0.6459991}
{-0.6375951}
{0.73588645}
{-0.6841783}
{0.33885947}
{0.43753043}
{1.0759356}
{0.31182677}
{-0.79781806}
{0.6868779}
{0.8705354}
{0.25309122}
{0.6560875}
{-0.1291083}
{0.56057084}
{-0.8197554}
{-1.0030838}
{-0.45520428}
{0.99502504}
{-0.2829274}
{0.67567456}
{-0.41197044}
{0.424863}
{0.48174253}
{-0.16693933}
{0.27540675}
{-0.6546622}
{0.748851}
{0.13768688}
{0.15145949}
{0.65663964}
{0.27019373}
{0.60492}
{0.66407514}
{0.19879237}
{-0.38422877}
{-0.34398302}
{0.76728433}
{0.6924509}
{-0.6858575}
{-0.5657228}
{0.83866435}
{-0.4131551}
{0.64171326}
{-0.68770134}
{-0.31041142}
{-0.5624511}
{-0.5307723}
{0.6395496}
{-0.35619605}
{0.8383257}
{-0.10956095}
{-0.5491065}
{0.30686912}
{-0.87716264}
{0.19294636}
{-0.1083943}
{0.04557018}
{-0.044364832}
{0.7466125}
{-0.39691457}
{0.60560393}
{-0.5286659}
{-0.61709386}
{-0.6387378}
{-0.4264047}
{-0.5398861}
{0.4466993}
{0.20519176}
{-0.35225743}
{0.01767677}
{-0.6625015}
{0.25338402}
{-0.37120357}
{-0.63923633}
{-0.21548623}
{-0.99250185}
{-0.70417786}
{-0.99125886}
{-1.0670856}
{0.29033437}
{-0.1464532}
{0.09335339}
{0.31774133}
{0.3636481}
{-0.5046943}
{0.91330445}
{-0.46036106}
{0.53860986}
{0.1062243}
{0.17247337}
{0.32213262}
{-0.76152694}
{0.5438904}
{-0.0045090844}
{-0.09168059}
{0.39705577}
{-0.49763307}
{0.5883036}
{-0.77867997}
{-0.73044384}
{-0.27253333}
{-0.24758828}
{-0.8794589}
{0.06523117}
{0.9013871}
{0.7944525}
{-0.5672506}
{0.3022696}
{0.23457775}
{0.27078366}
{-0.80517936}
{-0.13370915}
{0.31707698}
{0.56813246}
{-0.72146475}
{-0.6589073}
{1.1175163}
{-0.38916466}
{-0.19294441}
{-0.9258603}
{-0.13447604}
{0.24874116}
{-0.7611593}
{0.6794754}
{-0.27654028}
{0.829542}
{-0.06568367}
{-0.77997696}
{0.28248823}
{0.6238825}
{0.09153463}
{0.7423912}
{-0.63369006}
{0.3808108}
{-0.32073087}
{0.28151575}
{0.24645665}
{-0.4052508}
{-0.014553596}
{-0.425778}
{0.7584786}
{0.98631376}
{0.51543564}
{0.5651747}
{-0.72390866}
{0.55829614}
{-0.1360171}
{-0.3572422}
{0.91260743}
{0.6517209}
{0.25386545}
{-0.41388735}
{0.25890625}
{0.35813642}
{0.62891495}
{0.65315616}
{0.08498378}
{-0.17741206}
{-0.10477411}
{0.6699978}
{-0.04058661}
{0.76122576}
{-0.31304643}
{-0.8107561}
{0.73141897}
{0.8421939}
{-0.12862535}
{-0.96697843}
{0.0076258318}
{0.03565928}
{-1.0287392}
{-0.84188807}
{0.43589538}
{-0.62456834}
{0.40833354}
{-0.5343588}
{-0.26632985}
{-0.89711666}
{0.39697272}
{-0.4469715}
{0.17808825}
{0.36804482}
{0.91257674}
{0.62152064}
{0.016030146}
{0.13209252}
{-1.0383143}
{-0.55197036}
{-0.10580586}
{-0.6460564}
{-0.3157713}
{0.612322}
{0.19058049}
{-0.8097493}
{-0.82196534}
{0.85315955}
{-0.7009535}
{-0.764253}
{-0.64878184}
{0.16255918}
{-0.74693775}
{0.6774182}
{0.94573516}
{0.8016349}
{-0.8477005}
{0.8305586}
{0.16643475}
{0.41687503}
{0.9119202}
{0.17261687}
{0.1968037}
{0.58066547}
{-0.9237623}
{0.6363166}
{-0.524362}
{0.6417774}
{0.5235685}
{-0.60493696}
{-0.5902313}
{0.19313613}
{0.86015534}
{-0.7562205}
{0.7229826}
{0.5903784}
{-0.8337851}
{-0.950316}
{0.43648064}
{0.40204635}
{0.9206421}
{0.63266623}
{0.68103886}
{0.37789264}
{0.0960685}
{-0.61047536}
{-0.59096795}
{-0.2684594}
{-0.37649426}
{-0.55698633}
{0.40664703}
{0.4553093}
{-0.24324937}
{0.74107116}
{-0.98310494}
{-0.9399911}
{0.34819126}
{-0.15140803}
{-0.74129665}
{0.8005215}
{-0.6532228}
{0.92847383}
{-0.77284396}
{-0.39717254}
{-0.7853292}
{-0.17184961}
{0.45189992}
{0.68550456}
{-0.24044204}
{0.696983}
{-0.002259744}
{-0.6052085}
{0.79618275}
{-0.3510003}
{-0.4835526}
{-0.8951603}
{0.49636188}
{-0.87590814}
{0.6208104}
{-0.09899681}
{-0.2750207}
{-0.24574336}
{0.46380493}
{-0.49312624}
{-0.27147093}
{0.49377418}
{-0.22841175}
{0.5785514}
{-0.29292828}
{0.92166513}
{0.3746225}
{0.39071932}
{0.6865882}
{-0.36785117}
{-0.69391865}
{-0.07143377}
{-0.6847761}
{0.34413478}
{-0.57460654}
{0.8281566}
{-0.4360152}
{0.8997458}
{0.05350496}
{0.53980815}
{0.112064004}
{-0.5787459}
{0.50228727}
{-1.0203918}
{0.4665651}
{0.46626487}
{0.06459389}
{0.70447314}
{-0.31868824}
{-0.5381646}
{0.24599864}
{-0.8089775}
{0.5863516}
{0.4355253}
{-0.7596787}
{-0.6400207}
{0.044579864}
{-0.6019976}
{-1.0382019}
{-0.8471345}
{0.086242415}
{0.6200978}
{0.008218118}
{-0.73022187}
{-0.7551618}
{0.31697515}
{0.75060487}
{0.76632774}
{1.0200647}
{-0.7751482}
{0.92233026}
{-0.38856348}
{-0.84180826}
{-0.6262218}
{0.09556761}
{-0.21128353}
{0.2844803}
{-0.2488569}
{0.20313497}
{0.9430455}
{-0.52170694}
{0.58575976}
{0.7300383}
{0.74605405}
{-0.79149806}
{0.2821724}
{-1.047642}
{-0.8653108}
{-0.45442006}
{-0.9730775}
{-0.75978863}
{0.31083527}
{-0.2156783}
{0.43266872}
{0.09838794}
{0.9369668}
{-0.5396634}
{-0.60133654}
{0.7003514}
{-0.56622255}
{-0.42100766}
{-0.319008}
{-0.8655863}
{0.6985172}
{-0.941784}
{-0.35867265}
{-0.3729595}
{0.32633176}
{0.8252283}
{0.25837022}
{0.7938939}
{-0.3647872}
{1.0000914}
{0.78389144}
{0.056498144}
{0.15973988}
{-0.35689503}
{0.11940529}
{0.86893237}
{-0.525942}
{-0.37942988}
{-0.782537}
{0.47711104}
{-0.72546995}
{1.0269644}
{-0.26103574}
{-0.06150901}
{-0.93238676}
{-0.11387582}
{-0.4905676}
{-0.39767957}
{0.6673585}
{-0.3304841}
{0.009257826}
{-0.48740506}
{0.28397623}
{-0.40603197}
{-0.10616743}
{-0.2817091}
{-0.36019}
{-0.5622066}
{-0.61218363}
{-0.5384759}
{-0.7051817}
{0.6940022}
{0.3492001}
{0.2856563}
{0.41962615}
{0.42136985}
{0.42809048}
{0.053975098}
{-0.5458497}
{0.3228376}
{-0.14968777}
{0.067767926}
{-0.07392524}
{-0.70919216}
{0.95307845}
{0.67874426}
{0.81753075}
{-0.27772936}
{-0.5424791}
{-0.69200295}
{0.3871843}
{-0.43419492}
{0.6330326}
{0.19447522}
{-0.29642877}
{0.96611613}
{-0.475913}
{0.56291187}
{-0.06998753}
{0.40592584}
{0.21601884}
{-0.78865343}
{0.69724095}
{-0.46508214}
{-0.6007509}
{0.82239777}
{0.5038012}
{-0.11982512}
{0.25730035}
{-0.54485995}
{-0.7638768}
{-0.3348317}
{0.4389219}
{0.44918326}
{-0.7447547}
{-0.52559114}
{0.33396563}
{-0.11961062}
{-0.51773816}
{-0.5816746}
{0.21184993}
{-0.4831268}
{-0.2671822}
{0.42573175}
{0.371632}
{0.035885535}
{-0.6264051}
{-0.48262712}
{-0.8027086}
{0.46654293}
{0.050276335}
{-0.52440786}
{0.34848535}
{0.6744629}
{0.24705043}
{-0.6210999}
{-0.9094901}
{0.7893042}
{0.57556164}
{-0.7119589}
{-0.103418455}
{-0.22876908}
{0.64654887}
{-0.2653493}
{0.53024155}
{0.46219492}
{-0.741372}
{0.30921423}
{0.12985379}
{-0.28455806}
{-0.9859959}
{-0.8464254}
{-0.733831}
{0.42845547}
{0.36713544}
{0.377941}
{0.42449427}
{-0.06955586}
{0.17638436}
{0.53553593}
{-0.63873297}
{0.1401542}
{-0.67928827}
{0.49375674}
{1.0334773}
{-0.7805018}
{-0.04347229}
{-0.42846003}
{-0.80078036}
{-0.28481534}
{0.40601698}
{-0.61865556}
{-0.45098153}
{0.73268455}
{0.44065776}
{-0.49293715}
{0.3341322}
{0.29634115}
{0.06880053}
{-0.67970777}
{-0.47260898}
{0.12037144}
{-0.7662288}
{0.7770144}
{0.22084178}
{-0.21769986}
{-0.16592725}
{0.9312434}
{0.28611663}
{-0.1338107}
{0.2747046}
{0.79171926}
{0.54910487}
{-0.62994}
{-0.37378582}
{-0.3157023}
{0.7024158}
{0.29546347}
{0.06540521}
{0.23873232}
{0.18316232}
{0.32830122}
{0.6090375}
{-0.22022809}
{0.40003544}
{-0.574751}
{0.61447394}
{-0.42857614}
{-0.5052505}
{-0.83988035}
{0.66176975}
{0.57680774}
{-0.3778881}
{-0.39774844}
{0.74203336}
{-0.54719305}
{-0.8888747}
{0.26302636}
{0.49584368}
{0.86455023}
{0.7156959}
{-0.8003579}
{0.5376378}
{-0.39909056}
{-0.8997723}
{0.5604498}
{0.7941078}
{-0.3511806}
{-0.09251852}
{0.52263415}
{-0.056490663}
{-0.76465166}
{0.8196962}
{0.84080774}
{-0.11352221}
{-0.80267435}
{0.99874425}
{0.33393654}
{0.66254675}
{-0.602945}
{-0.6134344}
{0.26081488}
{0.46059656}
{0.9732387}
{0.6637369}
{0.55359846}
{0.25360385}
{0.096296094}
{-0.056293376}
{0.11683105}
{0.044867326}
{0.8996373}
{-0.12386445}
{0.026657825}
{0.01672363}
{-0.8341267}
{-0.6234554}
{0.16969332}
{0.17829648}
{0.6497575}
{-0.19675253}
{0.5088548}
{0.6358086}
{-0.7658319}
{-0.18701485}
{-0.08333273}
{0.4672638}
{-0.22298051}
{-0.14937468}
{0.5729668}
{-0.13041395}
{-0.9063015}
{-0.1685561}
{0.37921345}
{0.89615095}
{0.06545091}
{0.23874646}
{-0.925251}
{-0.78720725}
{0.66101485}
{0.011463263}
{0.9057067}
{-0.7269243}
{-0.80339694}
{-0.08082539}
{0.8279453}
{0.34706464}
{0.9352642}
{-0.26690602}
{0.45771545}
{-0.74881685}
{0.54664755}
{0.0779255}
{0.10103604}
{-0.38663492}
{-0.4244756}
{1.0361693}
{0.8995889}
{-0.5913235}
{1.0854676}
{0.89858305}
{-0.0011750379}
{-0.44219527}
{-0.42889172}
{0.37425134}
{0.15376882}
{-0.6434268}
{-0.39876822}
{0.3834311}
{-0.27029383}
{0.33318797}
{0.12641765}
{-0.39592022}
{0.055241928}
{0.15517583}
{0.36390167}
{0.33856463}
{-0.2149185}
{-0.48087415}
{0.6620562}
{-0.32728368}
{-0.15748733}
{0.47572777}
{0.79781646}
{-0.1536107}
{-0.27912995}
{-0.20254931}
{0.98632973}
{0.024762996}
{0.63975203}
{-0.4970728}
{-0.3953154}
{0.806564}
{0.09052778}
{0.23250642}
{0.74886084}
{-0.25507504}
{0.36670935}
{-0.9178058}
{-0.10094092}
{0.30513808}
{0.65902215}
{-0.12071077}
{0.8407798}
{-0.7124742}
{0.070909366}
{-0.9957999}
{0.29394197}
{0.05480737}
{0.26520213}
{0.64070404}
{0.0037381954}
{-0.1521676}
{0.14730433}
{-0.013058904}
{0.70306706}
{0.87687486}
{-0.2956128}
{-0.13477226}
{-0.5775928}
{-0.7499097}
{-0.16969949}
{-1.0367962}
{-0.5823077}
{0.1567279}
{0.7286912}
{0.1715366}
{-0.20682888}
{-0.5144364}
{-0.01725556}
{0.8817924}
{0.28755042}
{-0.5840837}
{-0.70925176}
{0.025128137}
{-0.78114057}
{0.7892643}
{-0.8591698}
{0.42506233}
{0.9835061}
{-0.82025546}
{-0.14340784}
{0.10232115}
{0.7299841}
{-0.027803179}
{-0.65770316}
{-0.45271453}
{0.44236866}
{-0.46320447}
{-0.9785688}
{-0.11004869}
{0.52845323}
{0.14779525}
{0.43869406}
{0.2294139}
{0.10248729}
{0.17389417}
{0.62495023}
{0.8328382}
{-0.18978444}
{-0.885523}
{-0.7526369}
{0.16511789}
{0.2527066}
{0.73696864}
{0.8417741}
{-0.7708539}
{-0.9048927}
{0.10960591}
{-0.12966006}
{-0.36476907}
{-0.32975867}
{-0.058357093}
{1.0067643}
{0.061180193}
{-0.8553218}
{-0.597475}
{-0.7650255}
{-0.730713}
{-0.457208}
{0.9227892}
{0.22597532}
{-0.954389}
{-0.743055}
{0.45987588}
{0.14887793}
{0.41948238}
{-0.22528288}
{-0.7624072}
{0.24890117}
{-0.997718}
{-0.56858325}
{-0.27377835}
{-0.20982581}
{-0.6013967}
{0.13028279}
{0.8911898}
{0.4297889}
{-0.32432923}
{0.9677674}
{-0.39513063}
{0.0732475}
{0.1505157}
{-0.6843616}
{-0.9166941}
{0.66039807}
{0.5141386}
{0.6573131}
{0.5864289}
{-0.76482224}
{-0.14095566}
{0.8863683}
{0.42505}
{-1.0424954}
{0.87324774}
{0.39039075}
{-0.3065643}
{0.41908047}
{0.18376485}
{-0.14597237}
{0.8185749}
{-1.1293184}
{0.5348319}
{0.7940627}
{0.45804995}
{-0.08740671}
{-0.90895545}
{-0.52133083}
{0.017899318}
{0.24378584}
{0.91186106}
{0.14850698}
{-0.06277422}
{-0.7349338}
{0.5248629}
{0.47261903}
{0.085686125}
{0.5688349}
{0.29607072}
{0.0005112818}
{0.7597319}
{0.25037542}
{-0.5658041}
{0.5623697}
{0.31155917}
{-0.9860455}
{-0.768731}
{0.68533623}
{0.74417984}
{-0.30289578}
{-0.57875526}
{0.2431673}
{1.0192652}
{-0.62745523}
{-0.23809204}
{-0.32382947}
{-0.02029755}
{-0.8660746}
{0.3136126}
{0.36194086}
{-0.88223624}
{-0.6345966}
{0.18152085}
{-0.6024308}
{-0.024323687}
{-0.29399154}
{0.23965016}
{0.122306146}
{0.21791169}
{0.47335905}
{-0.4903513}
{-0.19460088}
{0.12818675}
{-0.51995444}
{-0.85127914}
{-0.0010333254}
{-0.31624722}
{-0.8504356}
{-0.8463069}
{-0.960876}
{0.16289611}
{0.12573823}
{0.37227502}
{-0.7930506}
{0.88984287}
{0.16214845}
{-0.81802166}
{0.1865788}
{0.370374}
{-0.37407658}
{0.38479963}
{0.492597}
{0.26524642}
{-0.19128017}
{0.71768796}
{-0.23292297}
{0.35546795}
{0.8987195}
{0.6026796}
{0.7710753}
{0.68264383}
{-0.3202156}
{0.94545996}
{0.35608342}
{0.1475799}
{0.41801462}
{0.5925561}
{0.37544677}
{0.9201341}
{-0.624403}
{0.28587523}
{0.71661556}
{0.034740515}
{0.40876773}
{0.694456}
{0.5962341}
{-0.050463777}
{0.18467928}
{0.42118183}
{0.7277445}
{-0.7391873}
{-0.38075384}
{0.20562902}
{-0.34249592}
{-0.46784586}
{0.67733824}
{0.8445231}
{-0.29427302}
{0.5997381}
{-0.13936785}
{0.22201934}
{0.866313}
{-0.3140765}
{-0.27566254}
{-0.02032757}
{0.7411064}
{0.09865762}
{0.87827677}
{-0.27663192}
{-0.46659502}
{0.09565911}
{-0.8034086}
{0.69168913}
{-0.56754684}
{-0.88443685}
{0.057193648}
{0.67854106}
{0.44986627}
{-0.3204331}
{0.12406165}
{0.22828999}
{-0.69984555}
{0.17962508}
{-0.13946082}
{0.8573741}
{0.8278158}
{0.31582686}
{0.7324065}
{-0.563769}
{0.051319968}
{-0.13354722}
{0.3584835}
{-1.0321189}
{0.04823615}
{-0.029373845}
{-0.67600816}
{0.9397744}
{0.8914463}
{-0.9637802}
{-0.93918055}
{0.71090686}
{-0.40259552}
{-0.33376315}
{0.64687204}
{-0.51986605}
{-0.1943263}
{-0.48611897}
{0.089588486}
{0.030216474}
{-0.5244627}
{0.6034662}
{0.08064084}
{0.5756463}
{-0.42832986}
{-0.70567274}
{-0.064369254}
{-0.9345585}
{0.3121688}
{0.018110143}
{-0.44352156}
{-1.0004164}
{-0.38278833}
{-0.6894744}
{-0.75526345}
{-0.674168}
{0.038073733}
{0.8657926}
{0.94493264}
{0.69045603}
{-0.80720466}
{-0.6182215}
{0.8656803}
{-0.6298367}
{0.93882793}
{-0.70268744}
{-0.44303945}
{0.89165556}
{0.7099315}
{-0.28652292}
{0.11032801}
{-0.3712152}
{0.5906254}
{-0.8085253}
{0.79638284}
{-0.87126577}
{-0.3120235}
{0.8550197}
{0.79514307}
{0.5751103}
{0.7855877}
{-0.058263294}
{0.15829529}
{-1.0221361}
{-0.15310709}
{0.62415874}
{0.04121134}
{0.22913256}
{0.5714732}
{-0.5994342}
{-0.29510188}
{0.42106882}
{-0.50434303}
{0.19696859}
{-0.30464795}
{-0.58596885}
{-0.22353852}
{-0.6012848}
{-0.80354327}
{0.86659014}
{-0.4860728}
{0.4241083}
{-0.4230274}
{0.8050169}
{0.083741926}
{-0.30630997}
{-0.41046798}
{-0.36521468}
{0.47797245}
{-0.17514628}
{-0.9302288}
{0.60930336}
{0.36028975}
{-0.6974692}
{-0.22881833}
{0.27536193}
{-0.6077748}
{-0.2419779}
{-0.38716927}
{-0.33200273}
{0.9301224}
{-0.39360607}
{-0.84502995}
{-0.5687438}
{0.6567069}
{-0.03921041}
{0.527711}
{-0.7024547}
{-0.7179935}
{0.9964955}
{0.074537605}
{0.51821196}
{-0.38615194}
{0.4867125}
{-0.16800903}
{-0.89217746}
{0.9236456}
{1.0237379}
{0.15971784}
{-0.06858324}
{0.3915512}
{0.16292265}
{-0.42144582}
{0.7451674}
{-0.8238155}
{0.7277584}
{-0.5188325}
{-0.12681405}
{-0.78798926}
{-0.25220194}
{0.94545966}
{-0.79253113}
{-0.49486104}
{0.79446614}
{0.86728776}
{0.87573135}
{-0.8182095}
{0.24682207}
{-0.4347763}
{-0.13128775}
{-0.74842334}
{-0.36680436}
{0.64561546}
{-0.21546659}
{0.67385525}
{-0.84858215}
{0.64088774}
{-0.40355858}
{-0.17599325}
{0.7211916}
{0.5377794}
{0.20109597}
{-0.7487459}
{0.09550838}
{0.5387494}
{-0.533794}
{0.71319544}
{-0.4823302}
{-0.4638346}
{0.57737577}
{-0.09522673}
{-0.2432488}
{0.33859035}
{0.75214064}
{0.1612338}
{-0.038501166}
{0.51087165}
{0.48188907}
{-0.73661005}
{-0.9276755}
{0.47505483}
{-0.2653974}
{0.059095167}
{-0.33304253}
{0.7827949}
{0.5047499}
{0.055086702}
{-1.043607}
{0.8337699}
{-0.588318}
{0.85657793}
{0.46612757}
{-1.0162361}
{0.82958376}
{-0.053281017}
{0.9251037}
{-0.9996356}
{-0.9448451}
{0.38739687}
{0.20012937}
{-0.644275}
{0.47698426}
{-0.0367349}
{-0.2541408}
{0.34650582}
{0.00910854}
{-0.5271834}
{-0.4097697}
{0.14249156}
{0.56189334}
{-0.711669}
{-0.2577699}
{0.31344262}
{-1.0397063}
{0.9986328}
{-0.14058597}
{0.31052318}
{0.8177258}
{0.2597996}
{-0.70392346}
{-0.550678}
{-0.48920903}
{0.9352382}
{-0.61035424}
{0.54043084}
{-0.23451337}
{0.5383321}
{0.73968}
{-0.7953895}
{-0.7198783}
{0.15984336}
{-0.73873836}
{0.6959259}
{0.30842438}
{-0.8427883}
{0.77658916}
{0.3489611}
{-0.4597107}
{0.96308005}
{0.18076304}
{0.38115528}
{0.88159716}
{-0.50083363}
{0.25675604}
{0.3091937}
{-0.25753674}
{0.87950486}
{0.8049763}
{-1.0071992}
{-0.3937181}
{0.25327635}
{0.35761464}
{-0.25745526}
{-0.29485163}
{-0.13287163}
{-0.12926093}
{-0.52169997}
{0.9236442}
{0.58167315}
{0.6825673}
{-0.41028485}
{0.5349914}
{-0.05715605}
{0.12945187}
{0.7159226}
{0.6432761}
{-0.8587987}
{-0.567762}
{-0.92711186}
{-0.6556519}
{0.88617486}
{-0.002060697}
{-0.04186816}
{0.4740555}
{-0.45477173}
{-0.7929504}
{-0.64077604}
{0.78594553}
{0.7915799}
{0.51847637}
{0.9259161}
{-0.028181555}
{0.78033257}
{-0.74980366}
{-0.21098211}
{-0.91481936}
{-0.46982393}
{0.40473533}
{0.52177733}
{-0.4614323}
{-0.6335959}
{0.59222156}
{-0.91877764}
{-0.94757235}
{-0.61048496}
{0.8464206}
{0.23524426}
{0.12853542}
{-0.25366366}
{0.32085374}
{-0.71767914}
{0.2832171}
{-0.6298262}
{0.79680955}
{-0.7456669}
{0.35468426}
{-0.37537318}
{-0.83470815}
{0.4876423}
{-0.67709506}
{-0.1962214}
{-0.99567676}
{0.733172}
{-0.13207716}
{-0.8100585}
{0.13932918}
{-0.3358135}
{0.32174316}
{-0.44445643}
{0.78249645}
{0.4954572}
{0.83070123}
{0.7326426}
{-0.6318317}
{0.18360841}
{-0.4642187}
{-0.10646259}
{-0.6657064}
{-0.60892755}
{0.35299578}
{0.8531545}
{-0.18376544}
{-0.5611426}
{0.8814374}
{-0.5565452}
{0.34075543}
{-0.47234243}
{-0.8805822}
{-0.53502434}
{-0.15851064}
{0.5457546}
{0.069621645}
{0.7442246}
{0.38939944}
{-0.74298185}
{-0.8303031}
{0.30121246}
{-0.23244955}
{-0.56082773}
{-0.5728277}
{0.1745326}
{0.6179344}
{0.30587596}
{-0.4187599}
{-0.43094218}
{-0.85513735}
{0.5429792}
{-0.86050737}
{-0.7156266}
{0.71426994}
{0.6415009}
{-0.43932733}
{-0.34117162}
{-0.028833989}
{-0.4007872}
{0.46018672}
{-0.73618263}
{-0.22048111}
{-0.18525973}
{0.16500846}
{0.23451321}
{0.04250378}
{-0.42327988}
{0.12516156}
{-0.81551266}
{-0.2752042}
{-0.20210646}
{-0.25725493}
{-0.89030826}
{-0.38194287}
{-0.8531469}
{0.7519742}
{0.6585061}
{-0.7934069}
{0.34960654}
{-0.91435564}
{-0.6172845}
{0.5347965}
{-0.0012109841}
{-0.34665594}
{0.40972048}
{-0.6012366}
{-0.77932906}
{-0.030918837}
{-0.61262935}
{-0.94113505}
{-0.49150497}
{-0.15792851}
{-0.00790017}
{-0.7293598}
{0.5237669}
{0.16106239}
{-0.4116724}
{0.8312387}
{0.20275496}
{0.9515282}
{-0.4860006}
{-0.5526507}
{-0.43499807}
{0.6757654}
{0.78158855}
{0.014684919}
{0.68818176}
{-0.4023486}
{0.45378444}
{0.05622346}
{-0.55798054}
{0.31164876}
{0.82503897}
{-0.03627983}
{0.24562512}
{-0.90095246}
{0.32529855}
{-0.76201546}
{0.052953824}
{0.69916046}
{-0.11109077}
{0.43540385}
{0.24863946}
{-0.4985219}
{-0.4270692}
{-0.8615473}
{0.04495168}
{0.02939989}
{-0.65541}
{0.52154225}
{0.7416}
{-0.26408777}
{-0.6122665}
{0.42375195}
{0.57069325}
{0.7044023}
{-0.8896694}
{-0.71607465}
{0.71540743}
{-0.58047855}
{-0.06600739}
{-0.5716058}
{0.20727755}
{0.045890618}
{0.63078123}
{0.22230075}
{0.61546755}
{-0.991428}
{0.8980514}
{-0.06717459}
{0.72340477}
{-0.95998394}
{-0.80404407}
{0.49136442}
{0.72310394}
{-1.0416392}
{0.50607973}
{0.123264715}
{0.24461207}
{0.460845}
{0.6095655}
{0.85285896}
{-0.4307592}
{-0.2626222}
{-0.57853335}
{-0.40852532}
{0.7903422}
{-0.75828564}
{0.7867298}
{0.75269127}
{0.7439372}
{-0.4942313}
{-0.7529966}
{-0.61485034}
{0.4496616}
{-0.12184707}
{-0.45079577}
{-0.13201553}
{0.33692005}
{0.28223506}
{-0.59375143}
{-0.18767345}
{-0.6223482}
{0.5813855}
{0.83628386}
{-0.26847234}
{0.33875886}
{0.48983854}
{-0.7700521}
{-0.04838164}
{-0.47415334}
{-0.50861067}
{0.32800853}
{-0.965479}
{0.57156235}
{-0.51506484}
{0.28720546}
{-0.5675169}
{-0.42632937}
{-0.33044538}
{0.2809629}
{-0.9786226}
{-0.5116043}
{0.40310588}
{-0.8464733}
{0.39167938}
{0.37821367}
{-1.0033313}
{-0.596162}
{0.66312695}
{0.3673058}
{0.30782333}
{-0.7604696}
{0.6867576}
{0.52453643}
{-0.02837515}
{0.8268725}
{0.88511133}
{0.5303212}
{-0.1365356}
{0.50152224}
{-0.6739354}
{0.3640534}
{-0.909042}
{-0.6485611}
{-0.8692072}
{0.58365875}
{0.60777247}
{-0.19301276}
{-0.7725589}
{0.89620394}
{0.5290619}
{-0.16055642}
{0.25573686}
{0.011583748}
{-0.99569976}
{0.6930049}
{-0.76193964}
{-0.96903634}
{-0.7144569}
{0.7283604}
{-0.06436967}
{0.42680117}
{0.42656484}
{0.23913735}
{-0.7099064}
{-0.59395504}
{-0.44930443}
{0.31270343}
{0.08080945}
{0.86996675}
{0.7090887}
{0.4973932}
{-0.46935126}
{-0.16092986}
{0.46624145}
{0.96114457}
{0.48153415}
{0.7817601}
{-0.5436191}
{-0.25697646}
{-0.4229462}
{0.19712143}
{0.9153675}
{0.9153575}
{-0.63844955}
{-0.123264834}
{-0.19670591}
{0.65284526}
{0.13065173}
{-1.057287}
{0.646135}
{-0.83275133}
{0.5891443}
{-0.43396056}
{0.9404117}
{0.50253695}
{-0.18253778}
{0.8178361}
{-0.9338094}
{-0.62973356}
{0.4125298}
{-0.9846531}
{0.44585887}
{-0.44118175}
{0.27273965}
{0.6750649}
{0.40344587}
{-0.51292825}
{0.3007312}
{-0.4754018}
{-0.9015602}
{0.3508016}
{0.07212848}
{-0.5832812}
{0.37400094}
{0.20992121}
{0.76187015}
{0.5086348}
{0.20474973}
{-0.3396959}
{-0.2648909}
{-0.91905797}
{0.24818292}
{0.8191451}
{0.79824907}
{-0.7401958}
{-0.6007992}
{0.4520677}
{-1.0148246}
{0.20380369}
{-0.95800436}
{0.18312143}
{-0.5992174}
{-0.542688}
{-0.55572736}
{-0.29185033}
{0.5133346}
{-1.0270191}
{0.4865004}
{-0.46513847}
{-0.48804852}
{0.4139914}
{-0.47513184}
{0.6151018}
{0.60060716}
{0.039569654}
{-0.1812118}
{0.7783811}
{0.9584877}
{-0.79247314}
{-0.45122513}
{0.8975127}
{0.13621368}
{-0.37120026}
{0.19036832}
{0.6115272}
{0.307165}
{0.84126824}
{-0.2539781}
{0.29084766}
{-0.21803644}
{0.8532462}
{0.59725034}
{0.4741137}
{-0.69847256}
{0.84035087}
{0.69212186}
{0.8462288}
{-0.37843838}
{0.38838}
{-0.22319445}
{0.98731756}
{0.028701546}
{0.53127176}
{-0.47235236}
{0.083812386}
{-0.17752285}
{0.22792982}
{-0.60398567}
{-0.8965785}
{0.37578514}
{0.3837778}
{0.6402856}
{0.11174973}
{-0.64704216}
{0.01427715}
{0.3797578}
{-0.72879666}
{-0.111787446}
{-0.6705336}
{-0.32356438}
{-0.87292206}
{0.599691}
{0.4800201}
{-0.20257744}
{0.5877685}
{-0.095874056}
{-0.037012823}
{-0.23121962}
{-0.53400034}
{-0.5435332}
{-0.8342661}
{-0.22401437}
{0.2261812}
{-0.45758122}
{-0.55193985}
{0.35020128}
{0.92113835}
{-0.2819479}
{0.88575566}
{-0.81218255}
