-- Efficiency --
92.29391
-- Weights --
{0.9863342}
{-0.50295806}
{-0.9451865}
{-0.3998862}
{-0.73954713}
{-0.82820624}
{0.5777329}
{0.25263327}
{0.139543}
{-0.8966205}
{-0.385516}
{-0.38520136}
{0.49723834}
{-0.6307235}
{0.32744673}
{0.6113107}
{0.77330506}
{-0.92193604}
{-0.7105818}
{-0.3352341}
{-0.7476307}
{0.5406956}
{-0.07894863}
{-0.0638435}
{-0.49919304}
{0.34354067}
{0.9136174}
{0.42369583}
{-0.67443454}
{-0.17786458}
{-0.48076338}
{-0.8322594}
{-0.35703066}
{0.71905625}
{-0.9811536}
{0.9580822}
{-0.8517786}
{0.029358672}
{-0.3575565}
{-0.2680032}
{0.8944715}
{0.2981653}
{0.61302674}
{0.31880382}
{0.69429433}
{0.73517406}
{0.6446133}
{-0.18196644}
{0.053010155}
{-0.25336856}
{-0.6283294}
{0.09528047}
{-0.6928936}
{0.42457235}
{0.30526358}
{0.3566733}
{-0.5590633}
{0.94030464}
{-0.34074622}
{-0.90009564}
{0.75717056}
{0.9131688}
{-0.6334337}
{0.2694909}
{0.00754683}
{-0.25560933}
{-0.31707916}
{0.66867363}
{0.10294307}
{0.046067912}
{-0.89568526}
{-0.9340825}
{-0.55410635}
{0.3709663}
{-0.51526344}
{-0.70798695}
{0.13764614}
{0.74508077}
{-0.6370057}
{0.8137991}
{-0.16692045}
{0.6978845}
{-0.9396211}
{0.054635514}
{-0.037202906}
{-0.20679261}
{0.93468875}
{-0.042418372}
{0.9567846}
{-0.3308794}
{-0.6563309}
{-0.82208085}
{-0.5399107}
{-0.7308118}
{-0.69400334}
{0.9418999}
{1.0032343}
{-0.7531498}
{-0.3662452}
{0.7495175}
{0.42150614}
{-0.17476326}
{0.9322413}
{0.83311}
{-0.496718}
{-0.8506374}
{0.8717297}
{-0.43613082}
{0.81809413}
{-0.23402943}
{-0.2720355}
{0.6166887}
{0.531021}
{0.23273706}
{-0.3438533}
{-0.9254538}
{0.62896526}
{-0.8960429}
{-0.19559121}
{-0.8502393}
{1.0018023}
{0.86679584}
{0.48898715}
{0.84872603}
{0.6905092}
{0.09636501}
{-0.6182663}
{0.9252083}
{0.49103352}
{-0.8486699}
{-0.9265214}
{-0.44375914}
{-0.1313689}
{0.63951916}
{0.9169623}
{0.5962532}
{-0.79110205}
{-0.44111577}
{0.5786789}
{-0.4274974}
{0.16655514}
{-0.89012414}
{-0.13369198}
{0.8922744}
{-0.024347376}
{0.10016404}
{0.7775253}
{-0.48483405}
{-0.35891584}
{-0.87541413}
{-0.87250483}
{-0.46048468}
{-0.5088376}
{0.55303836}
{-0.41212955}
{0.14518213}
{-0.96894395}
{0.03598669}
{0.2992004}
{0.3575175}
{0.06938616}
{-0.5915621}
{-0.62969136}
{0.6781883}
{-0.95473754}
{0.6875486}
{0.49977002}
{0.45096385}
{0.58675516}
{0.57637084}
{-0.7333289}
{0.44225946}
{0.6420337}
{0.21441217}
{-0.3218684}
{-0.27728978}
{-0.06137525}
{-0.7807053}
{-0.97008413}
{0.5156269}
{-0.5345255}
{0.9123291}
{-0.89630556}
{-0.32291296}
{0.7644192}
{0.4398994}
{0.551798}
{0.89078754}
{-0.14956811}
{0.93065774}
{0.8847531}
{0.544075}
{-0.49798757}
{0.41566342}
{-0.7980273}
{0.115647815}
{-0.50155246}
{-0.7264656}
{0.47244477}
{0.9575713}
{-0.90888226}
{-0.8738879}
{0.021541748}
{0.5918506}
{-0.27480152}
{-0.028799815}
{0.21336183}
{-0.20115587}
{0.598976}
{-0.109272756}
{0.8633378}
{0.3383278}
{0.61951625}
{-0.2011279}
{-0.22391935}
{-1.0204302}
{-0.52002037}
{0.43341768}
{0.67862576}
{-0.09716704}
{-0.5908674}
{0.9611351}
{0.69172835}
{0.46807694}
{0.92496645}
{0.7639636}
{-0.7084482}
{-0.84691566}
{0.20164916}
{0.5939931}
{-0.08481675}
{0.180405}
{0.25068995}
{-0.39226732}
{0.684382}
{0.16278796}
{0.6852335}
{-0.28316832}
{-0.74744034}
{-0.9389126}
{0.07784452}
{-0.2671903}
{-0.88861257}
{0.33446565}
{0.16772386}
{-0.7434979}
{0.85420424}
{-0.7607024}
{0.62107575}
{-0.45201263}
{0.1797632}
{0.85647273}
{0.7436513}
{0.1753859}
{0.4225492}
{-0.6200423}
{-0.6911589}
{-0.1430028}
{0.87315786}
{0.309808}
{-0.7934545}
{0.8793587}
{0.817856}
{0.007248098}
{0.43110654}
{0.6559035}
{-0.4818912}
{-0.29570273}
{0.29875895}
{-0.5907429}
{-0.17119798}
{-0.9238185}
{-0.882234}
{0.10151622}
{0.6777232}
{0.88770723}
{0.70362365}
{0.17165671}
{-0.07737276}
{-0.062262684}
{-0.8888782}
{-0.8376018}
{0.9353115}
{-0.74767697}
{0.83328736}
{0.6157216}
{0.5537778}
{0.6701808}
{0.9698156}
{0.8809425}
{-0.1337996}
{0.08796423}
{0.55178416}
{-0.11764686}
{0.3900568}
{-0.6405663}
{0.25590393}
{0.24329583}
{0.5548087}
{-0.22490843}
{0.4008467}
{-0.05843309}
{0.70393634}
{0.6631016}
{0.7483746}
{1.0061518}
{0.1538292}
{-0.98640937}
{-0.59696233}
{0.6305228}
{-0.5109982}
{0.61553955}
{-0.11068854}
{-0.056685578}
{-0.963736}
{-0.9321021}
{-0.9658071}
{-0.68021095}
{0.0033360168}
{0.9381044}
{-0.902527}
{0.19721992}
{0.9124965}
{0.3691512}
{-0.6350287}
{-0.7249761}
{-0.788918}
{0.074326515}
{-0.6447202}
{0.8642816}
{-0.24854611}
{0.15365855}
{0.5645555}
{-0.06900334}
{-0.9143539}
{-0.8112728}
{-0.6706482}
{-0.6161952}
{-0.99728984}
{-0.43167776}
{0.85177934}
{0.08616812}
{0.6675153}
{0.43142113}
{-0.5293349}
{-0.27352512}
{0.20869981}
{0.11582776}
{0.4052758}
{-0.4811068}
{0.8292249}
{-0.34559414}
{-0.018730473}
{-0.59748656}
{0.17825975}
{-0.06375359}
{0.12495721}
{-0.17063373}
{-0.54233897}
{0.12067073}
{-0.18206814}
{0.81418186}
{-0.30445096}
{0.31823304}
{0.6906589}
{-0.8993832}
{-0.79110163}
{0.5296755}
{0.25527236}
{0.924069}
{0.056691464}
{-1.009479}
{-0.45424226}
{0.9727088}
{-0.9202978}
{0.9405354}
{0.4164655}
{0.028259235}
{-0.5880582}
{-0.62828404}
{0.9147457}
{0.19479963}
{0.86546034}
{-0.5503119}
{0.23883578}
{0.7590403}
{0.71717584}
{-0.47235593}
{0.91479886}
{1.0001651}
{0.83494705}
{0.55405205}
{-0.9217125}
{-0.05638165}
{-0.07441218}
{0.16815715}
{-0.75880325}
{-0.10677005}
{-0.701021}
{0.80496824}
{0.42590544}
{0.72218794}
{0.84353477}
{-0.9978284}
{-0.25176576}
{0.4786498}
{-0.30030894}
{0.7894517}
{0.6355146}
{-0.2625396}
{-0.87937254}
{-0.7386504}
{0.8688735}
{0.90829384}
{0.94876087}
{-0.926543}
{-0.57818496}
{-0.93615353}
{0.37391144}
{0.6869403}
{0.7164229}
{-0.62920326}
{0.8732279}
{0.15930231}
{-0.010552}
{-0.775077}
{-0.29149187}
{-0.28525877}
{0.97815335}
{-0.87647957}
{0.22977425}
{0.7463772}
{0.8855194}
{1.0080785}
{0.99525154}
{0.68710256}
{0.69037426}
{-0.8325091}
{0.41756144}
{-0.19341587}
{0.9418632}
{-0.4369119}
{-0.039444912}
{0.29400697}
{0.12001193}
{0.5637914}
{-0.95292217}
{-0.64051545}
{-0.03153188}
{-0.8271394}
{0.93111706}
{-0.7512213}
{0.48292777}
{-0.5372785}
{-0.45694286}
{-0.74541247}
{0.018000053}
{-0.8241506}
{0.21225911}
{0.78003}
{0.93254983}
{-0.74835336}
{0.984968}
{-0.40476915}
{-0.7323824}
{-0.4868132}
{0.28492182}
{-0.2670571}
{-0.11176761}
{0.83388305}
{-0.07994847}
{-0.8088629}
{0.034885574}
{-0.066004254}
{-0.40677366}
{0.5324938}
{-0.03183348}
{0.3611796}
{0.55840546}
{-0.5503512}
{1.0194014}
{0.30633903}
{0.08677974}
{0.38388735}
{-0.7377275}
{0.9018866}
{0.5828697}
{-0.72562784}
{-0.94218075}
{0.42887357}
{0.89896595}
{-0.5556855}
{-0.4628785}
{-0.8278712}
{0.27317005}
{0.913193}
{-0.3159664}
{0.32598034}
{0.13856399}
{-0.90892005}
{-0.7492746}
{0.95329535}
{-0.4465176}
{-0.05414099}
{0.98119533}
{0.13799095}
{-0.053551186}
{-0.23772126}
{-0.5607971}
{0.49885768}
{-0.8199627}
{0.7796564}
{0.6060587}
{-0.14520638}
{-0.41123885}
{-0.021576734}
{0.4118118}
{-0.51306766}
{-0.9654397}
{0.044563107}
{0.34090778}
{-0.38564762}
{0.24224997}
{-0.54437417}
{-0.3883002}
{0.84194595}
{-0.84278655}
{0.81705576}
{-0.34997562}
{-0.19747151}
{0.6341434}
{-0.41770342}
{-0.4065142}
{0.10576375}
{-0.15081581}
{-0.1224926}
{-0.5687655}
{0.51809895}
{-0.5091722}
{0.5761515}
{-0.6361555}
{-0.4494917}
{-0.5662524}
{-0.40073648}
{0.3873398}
{-0.943792}
{-0.01836598}
{0.3801537}
{0.418781}
{-0.25704512}
{-0.5786531}
{-0.96585405}
{-0.778515}
{-0.517522}
{-0.17411776}
{0.21739486}
{-0.89983284}
{-0.9263849}
{-0.5002258}
{0.12648816}
{-0.83674276}
{0.63056487}
{0.8184555}
{-0.8661107}
{0.8678323}
{0.7195593}
{0.90167964}
{-0.79617244}
{-0.4426408}
{-0.46846402}
{-0.061592095}
{0.71925503}
{-0.50882065}
{0.48084557}
{-0.016094701}
{0.9444544}
{0.2760968}
{0.6812644}
{-0.9534344}
{-0.69834864}
{-0.057637315}
{0.030807806}
{-0.24191774}
{0.8595324}
{-0.38475993}
{-0.8705525}
{0.031854548}
{0.9020522}
{-0.83585584}
{0.7936352}
{-0.062036943}
{0.4335772}
{0.40460917}
{0.72807}
{0.8447055}
{0.84523386}
{0.5878464}
{0.49874324}
{0.46250975}
{0.28066093}
{0.55618584}
{0.79382193}
{-0.28545877}
{-0.8733828}
{-0.9487134}
{-0.9485659}
{0.55827326}
{0.8663003}
{0.49300644}
{-0.3450208}
{-0.6304637}
{0.079606995}
{0.5168199}
{0.5875608}
{0.37652457}
{-0.19703318}
{-0.26146415}
{-0.92236096}
{-0.14218266}
{0.06685331}
{-0.05454836}
{-0.17996337}
{-0.38142636}
{0.99642533}
{-0.20486262}
{0.15277213}
{-0.25426564}
{-0.47669613}
{0.012380289}
{0.79408276}
{-0.80907637}
{0.77691203}
{0.26637527}
{0.65167886}
{-0.8945673}
{0.01743117}
{-0.5923461}
{0.03149761}
{0.96241534}
{0.21097581}
{-0.65670216}
{-0.19716649}
{0.82661974}
{0.21966709}
{0.02588718}
{-0.5761005}
{0.7760211}
{-0.22333717}
{0.47506663}
{-0.91321665}
{0.093555875}
{-0.8410007}
{0.6614138}
{-0.44187313}
{0.028782057}
{0.79450387}
{-0.20190886}
{0.33470687}
{0.93681407}
{-0.8411176}
{-0.3361216}
{0.14795066}
{0.88521475}
{0.3246425}
{0.20938346}
{0.38598716}
{-0.32931063}
{-0.8973998}
{-0.92365944}
{-0.73737407}
{0.5956246}
{-0.1327166}
{-0.19394067}
{-0.6614338}
{0.31970072}
{0.8823717}
{-0.9378549}
{0.5106621}
{0.050497346}
{0.48195586}
{0.1788933}
{-0.7280139}
{-1.0187299}
{-0.02379072}
{-0.8147112}
{-0.9634818}
{-0.29855457}
{0.306572}
{-0.29166868}
{0.872793}
{0.03158862}
{0.47146222}
{0.87092483}
{-0.17498495}
{0.4283939}
{0.39086992}
{0.7944385}
{-0.57829833}
{1.0322711}
{-0.5901395}
{-0.63753474}
{0.29599622}
{1.0321469}
{-0.17106481}
{0.28693387}
{-0.6715239}
{0.51058286}
{0.30045375}
{0.6449548}
{-0.26645}
{0.95901054}
{-0.78760636}
{-0.56463087}
{0.7090382}
{0.88873255}
{-0.47779852}
{0.39924952}
{-0.5223929}
{-0.5537451}
{0.43617326}
{-0.12436799}
{-0.68828404}
{0.3099252}
{-0.7995922}
{-0.74061334}
{0.6307463}
{0.7788209}
{0.6743835}
{0.57770383}
{0.31706375}
{0.87890714}
{0.7550995}
{0.972875}
{-0.7931236}
{-0.7651509}
{-0.9110289}
{-0.26870468}
{-0.5569834}
{-0.48548123}
{0.21477194}
{-0.3574753}
{-0.07529596}
{-0.3737642}
{0.3592877}
{-0.11909657}
{-0.48822227}
{0.6523387}
{0.76667124}
{0.6229719}
{0.12555756}
{-0.5152798}
{-0.3299475}
{0.7781168}
{0.7323546}
{-0.52190584}
{0.23720111}
{-0.486257}
{-0.024099201}
{0.7448835}
{-0.027177481}
{0.6438354}
{-0.6447642}
{0.029738965}
{0.1437508}
{0.22802612}
{-0.008818485}
{0.3920946}
{0.27656078}
{0.9361478}
{-0.5087961}
{-0.796375}
{0.066472955}
{-0.6821672}
{0.68215597}
{-0.4352838}
{-0.7752556}
{-0.09042179}
{0.62271774}
{0.25046417}
{0.9486161}
{0.2342281}
{0.8291837}
{0.7109943}
{-0.5983456}
{0.55227816}
{-0.2083735}
{0.9780228}
{0.56202376}
{-0.81960356}
{0.87773645}
{0.21864189}
{-0.38591975}
{-0.18172267}
{-0.08589318}
{-0.5058903}
{0.61942667}
{0.41561934}
{0.8966681}
{0.86433434}
{0.0058757635}
{-0.5382627}
{0.45806983}
{0.7762814}
{-0.11231434}
{-0.49476078}
{0.7870127}
{0.3664678}
{0.6604764}
{-0.77969635}
{-0.0690051}
{0.39210615}
{-0.4984908}
{-0.9156188}
{-0.6567892}
{0.5716544}
{-0.73461086}
{0.16810796}
{-0.5952583}
{0.5348076}
{0.7146918}
{0.6507219}
{-0.6791264}
{0.37404928}
{0.13335752}
{-0.8100127}
{-0.17457953}
{-0.82770497}
{-0.2213395}
{0.27160498}
{-0.3978965}
{-0.5475314}
{-0.33380026}
{0.77887356}
{-0.9691699}
{0.60554516}
{-0.5682667}
{0.22192714}
{-0.26560503}
{0.36870772}
{-0.1751421}
{-0.569059}
{-0.1663269}
{0.84617984}
{-0.831931}
{0.47457978}
{0.22376819}
{0.9355392}
{-0.98732495}
{0.35376307}
{-0.3449861}
{0.90618885}
{0.41654256}
{-0.08288895}
{0.7964548}
{0.0790901}
{-0.9654945}
{0.84982455}
{0.7395353}
{-0.268114}
{0.36632854}
{0.09397925}
{-0.9817408}
{-0.2056684}
{-0.86940706}
{-0.5883268}
{-0.91085756}
{-0.78122264}
{0.83748126}
{-0.81561387}
{0.17025542}
{-0.3926116}
{-0.8861205}
{0.76459277}
{-0.50122464}
{0.4283261}
{-0.5550347}
{1.0148793}
{0.5539598}
{-0.77267087}
{-0.5609706}
{-0.96323884}
{0.45836958}
{-0.078562446}
{0.9445037}
{-0.4875261}
{-0.23518628}
{-0.25902504}
{0.88671654}
{-0.4382868}
{-0.52378553}
{0.84528536}
{-0.27553874}
{0.48658463}
{-0.14478132}
{-0.8604168}
{0.40329146}
{-0.8168522}
{-0.267324}
{-0.14372982}
{0.47341573}
{-0.5462314}
{-0.63047284}
{-0.85087216}
{0.88642126}
{-0.30430987}
{-0.8178547}
{0.8446371}
{-0.9693102}
{-0.002660107}
{0.37798592}
{0.7729704}
{-0.3751528}
{-0.9736172}
{-0.85631037}
{0.31058726}
{0.51470846}
{-0.3852196}
{0.98674524}
{0.36340058}
{-0.25555474}
{0.13717097}
{-0.5005613}
{0.8939016}
{-0.58467686}
{-0.77276886}
{-0.3533399}
{0.35350665}
{0.7081626}
{0.9418448}
{-0.10918112}
{-0.50721633}
{0.78460765}
{0.6400951}
{0.37145597}
{0.3040059}
{-0.6498646}
{-0.063396804}
{0.5136578}
{-0.89228684}
{-0.8891888}
{0.52776873}
{0.6153711}
{0.64790154}
{-0.4340142}
{0.29918954}
{-0.7426413}
{-0.0692393}
{0.89838004}
{0.6784531}
{0.14992552}
{0.20397212}
{-0.41936123}
{0.50186294}
{-0.6155886}
{-0.2759433}
{0.025213633}
{-0.47628334}
{-0.9068949}
{-0.4312918}
{1.0616411}
{0.30277583}
{-0.6302966}
{-0.5374564}
{-0.6061065}
{-0.72187436}
{-0.5919315}
{0.1064378}
{-0.037143547}
{0.25127074}
{0.5568385}
{-0.07184816}
{0.62594026}
{0.122450724}
{-0.26492426}
{0.77556014}
{-0.68552214}
{0.6798593}
{0.053454332}
{-0.00043248397}
{0.7364775}
{0.8735498}
{0.045551807}
{-0.92632}
{-0.46523815}
{0.66242397}
{-0.9218699}
{0.7947818}
{-0.7313526}
{-0.7315041}
{-0.4217905}
{-0.044140685}
{0.9716642}
{0.77189887}
{0.19315293}
{0.42492193}
{0.7048164}
{-0.30481437}
{-0.9076773}
{-0.53673977}
{0.41620398}
{0.8264512}
{-0.95653206}
{-0.17494304}
{-0.82845265}
{0.34963462}
{0.3864263}
{0.31205988}
{-0.22137581}
{-0.8830699}
{0.16326158}
{-0.26546243}
{-0.6325068}
{-0.24242714}
{0.06026946}
{-0.6424188}
{-0.21656325}
{-0.8923403}
{1.0118967}
{-0.91929185}
{-0.41038996}
{0.8026613}
{0.4786736}
{-0.64106995}
{-0.39021903}
{-0.07724463}
{0.17987134}
{0.77359825}
{-0.85297316}
{0.83333886}
{0.2578316}
{-0.58048457}
{-0.6466947}
{0.41329166}
{0.31950593}
{-0.44123256}
{-0.5665471}
{0.53348696}
{-0.3514799}
{-0.85618895}
{-0.45353907}
{-0.8435434}
{-0.03679572}
{0.056053102}
{-0.9171478}
{-0.5005766}
{-0.7513886}
{-0.36367676}
{-0.17044999}
{-0.3305314}
{0.6296651}
{-0.43434945}
{-0.50340027}
{-0.13630131}
{-0.26155606}
{0.77202934}
{-0.93422776}
{0.55905116}
{-0.7379394}
{0.17249112}
{-0.5187825}
{0.64453614}
{0.7430858}
{0.35062945}
{0.27791825}
{-0.5017539}
{0.577832}
{-0.07607616}
{0.3749052}
{-0.04588254}
{0.3696411}
{0.24573943}
{0.56727225}
{-0.49014017}
{-0.30756128}
{-0.7162195}
{-0.21750145}
{-0.55261886}
{0.46854547}
{0.8992313}
{-0.7927014}
{0.37077948}
{-0.24206413}
{0.4606607}
{0.5370016}
{-0.050688118}
{-0.5284308}
{-0.61901575}
{-0.901722}
{0.8012229}
{-0.4341861}
{-0.7840858}
{0.41766894}
{-0.7084516}
{-0.15383258}
{-0.86955434}
{-0.54533356}
{-0.12358216}
{0.85964304}
{0.73252904}
{-0.7240049}
{-0.3090811}
{0.018930389}
{0.2840455}
{0.41525847}
{0.5754019}
{0.71562743}
{-0.87055695}
{0.87299407}
{0.5732893}
{-0.8824668}
{0.5401913}
{-0.7483844}
{0.584303}
{0.4221137}
{0.89158714}
{-0.40766653}
{0.74442375}
{-0.7805734}
{-0.5952715}
{-0.56860256}
{0.12330974}
{0.54739404}
{-0.9074673}
{-0.17438142}
{-0.15442327}
{-0.012849449}
{-0.5347055}
{0.056431934}
{-0.33489302}
{-0.35902902}
{0.39782605}
{-0.20475082}
{0.6620406}
{0.4613064}
{0.28280526}
{-0.7155514}
{0.017365621}
{0.3207285}
{0.15358105}
{-0.49988776}
{0.5952302}
{0.5572346}
{-0.50541717}
{-0.15548258}
{0.4938564}
{0.3703583}
{-0.7102253}
{0.3216353}
{-0.09392511}
{-0.2986373}
{-0.45796844}
{0.29629275}
{0.10936678}
{0.02897451}
{-0.7568247}
{0.6035182}
{0.09409464}
{0.5392874}
{-0.7916204}
{-0.7007326}
{0.18464348}
{1.0442622}
{0.39818195}
{-0.5937747}
{-0.21370319}
{-0.5911406}
{-0.28919482}
{-0.69405395}
{-0.081056945}
{-0.3577049}
{-0.5022208}
{-0.1308688}
{0.5685426}
{-0.23273124}
{-0.40246662}
{0.9948739}
{-0.6054903}
{0.3999883}
{0.65334326}
{0.8776258}
{0.1058451}
{-0.25580227}
{-0.69550633}
{-0.7480196}
{0.62890494}
{-0.7097669}
{0.147151}
{0.08423506}
{0.85317147}
{0.5638792}
{-0.13406865}
{-0.8259534}
{-0.38542488}
{0.23793082}
{-0.68960154}
{-0.60876876}
{-0.8462912}
{0.23683147}
{-0.45977414}
{0.7821747}
{0.15989968}
{0.571568}
{0.37088147}
{0.71157885}
{-0.656515}
{0.5057942}
{0.9369187}
{-0.6596199}
{-0.9442543}
{-0.77133536}
{-0.3876187}
{-0.9649045}
{-0.49544027}
{0.31553236}
{0.16321376}
{0.6164169}
{0.29982397}
{-0.86664796}
{0.18672566}
{0.6480183}
{-0.6539608}
{0.54493207}
{0.29797053}
{-0.32465664}
{-0.7063559}
{0.4035255}
{0.3270507}
{-0.58845407}
{-0.19620135}
{0.5105232}
{0.202205}
{-0.13891512}
{1.0140687}
{0.51010805}
{-0.43543553}
{-0.76952106}
{0.21321627}
{-0.26488218}
{0.8305828}
{-0.4232575}
{0.59248865}
{0.09829501}
{0.7307293}
{-0.90060997}
{-0.33716682}
{0.68577486}
{-0.35749403}
{0.8174326}
{0.47321913}
{-0.16163413}
{-0.00747192}
{0.072790824}
{-0.3489335}
{-0.018894846}
{-0.41043568}
{-0.53222513}
{-0.6011356}
{-0.53134614}
{-0.3229162}
{0.7213283}
{0.25941798}
{0.40558654}
{-0.0835614}
{-0.02458769}
{-0.85807407}
{-0.50868225}
{-0.77099633}
{-0.26352078}
{-0.686576}
{0.66394055}
{0.66564375}
{-0.26971325}
{-0.03145368}
{0.6858283}
{-0.14676732}
{0.9750733}
{-0.7973379}
{0.55105317}
{-0.0202043}
{-0.10894128}
{0.46877858}
{0.6055911}
{-0.5214079}
{0.56603175}
{-0.3159857}
{-0.81845665}
{0.84430975}
{0.6138602}
{-0.33234718}
{0.5627997}
{-0.7365175}
{0.97048116}
{0.33500215}
{1.048089}
{-0.07634717}
{0.6403556}
{-0.74744236}
{-0.88668305}
{0.10560482}
{-0.84653777}
{-0.9337913}
{0.74406874}
{-0.6792085}
{0.650252}
{-0.20405582}
{0.55028695}
{-0.22463337}
{0.7726781}
{-0.23597911}
{-0.23032492}
{0.8500343}
{0.66313434}
{-0.08054172}
{0.02076836}
{0.1475816}
{0.30600694}
{0.849172}
{-0.26921344}
{-0.5141058}
{-0.73745584}
{-0.9631978}
{-0.5770645}
{0.6449162}
{-0.6352799}
{-0.34665683}
{0.76668507}
{0.19128673}
{-0.12739144}
{-0.8397523}
{0.59273636}
{-0.577624}
{-0.45103234}
{-0.8820368}
{0.70681256}
{-0.30905512}
{-0.8092975}
{-0.507738}
{0.706178}
{-0.31281605}
{0.7615161}
{0.78707445}
{0.7651114}
{-1.0091676}
{0.8910857}
{0.48802325}
{-0.6497213}
{0.522278}
{0.5702253}
{0.6134592}
{-0.5197425}
{0.20094375}
{-0.08216689}
{-0.6453694}
{0.2836391}
{-0.2345313}
{-0.44754374}
{0.2280316}
{-0.5494915}
{-0.074699156}
{0.6643269}
{-0.35217622}
{0.18367091}
{-0.19538021}
{0.29759768}
{-0.19618681}
{0.5235341}
{0.49030152}
{0.92573845}
{0.60196674}
{-0.44394153}
{0.8391749}
{-0.0027828172}
{0.14784643}
{-0.20963201}
{-0.09815961}
{0.021157421}
{-0.85926163}
{-0.5460673}
{0.62480175}
{0.5669638}
{0.24863717}
{0.8182518}
{-0.16184247}
{0.8871893}
{0.061933447}
{0.4219307}
{-0.2764932}
{0.2693121}
{0.79049456}
{0.7399821}
{-0.38528898}
{-0.06699941}
{-0.5487913}
{0.46485937}
{0.087738745}
{1.0009974}
{0.6183213}
{-0.2293552}
{0.67245007}
{0.5724868}
{0.51741356}
{-0.32444903}
{0.36561584}
{-0.1027192}
{-0.29047135}
{-0.34004965}
{0.6130116}
{0.48132622}
{-0.9096633}
{0.89802045}
{-0.5783855}
{0.32677042}
{0.18884441}
{0.027524317}
{-0.03249014}
{0.5415906}
{-0.41482}
{-0.8609115}
{0.033789273}
{0.54659057}
{0.5389737}
{-0.698803}
{-0.5533491}
{0.4072785}
{-0.73849}
{0.43714985}
{-0.061066628}
{-0.5598484}
{-0.15851024}
{-0.47944397}
{-0.4854674}
{0.6976406}
{0.43474504}
{0.5486942}
{-0.4170038}
{-0.60144365}
{-0.67654645}
{0.65799433}
{-0.71122473}
{-0.15134752}
{-0.35219863}
{-0.28788543}
{-0.9158025}
{-0.7086514}
{0.62923944}
{-0.73547924}
{0.12403508}
{-0.8224168}
{-0.2962666}
{0.727278}
{-0.8980331}
{0.022229223}
{-0.2782674}
{-0.3620195}
{0.46801484}
{0.675363}
{-0.3755336}
{-1.0505826}
{-0.09834833}
{0.79808897}
{0.498342}
{0.6864191}
{0.1169548}
{0.4889504}
{0.2742941}
{0.6685683}
{0.726396}
{0.97031474}
{0.65522254}
{-0.6999274}
{-0.96630025}
{-0.6275988}
{0.21270487}
{-0.42844737}
{-0.09848218}
{0.47850385}
{0.82205546}
{-0.9819833}
{0.77224827}
{0.46492442}
{-0.86605847}
{0.7171416}
{0.024455767}
{0.07259292}
{0.8973156}
{0.14829314}
{-0.24319689}
{-0.7194363}
{0.74858844}
{-0.64271283}
{0.10141275}
{0.35125467}
{0.8287245}
{-0.31722233}
{-0.88910455}
{0.32717213}
{0.57358277}
{0.13478637}
{0.6161689}
{-0.11647526}
{-0.08739721}
{0.9031424}
{-0.6698116}
{-0.5440183}
{0.3857884}
{-0.4649995}
{0.8123075}
{0.9900181}
{0.13632242}
{0.017522562}
{0.1946117}
{-0.48642367}
{-0.43429068}
{0.12387931}
{-0.25573915}
{0.6690198}
{-0.26915815}
{-0.7472593}
{-0.046310116}
{-0.31720257}
{-0.4823161}
{-0.69287467}
{1.0191847}
{0.6996394}
{-0.12265067}
{-0.27733174}
{0.94077814}
{0.62777585}
{0.1853809}
{0.23026152}
{0.8395839}
{0.39324376}
{-0.46449426}
{-0.42919642}
{0.65772665}
{0.09880859}
{0.50454533}
{-0.17619355}
{0.7933541}
{-0.93085647}
{0.88322175}
{1.0163481}
{-0.7578839}
{0.39765644}
{-0.57271874}
{0.73363435}
{-0.61260146}
{-0.31951824}
{-0.103894345}
{-0.65493876}
{-0.03138541}
{-0.11364855}
{-0.27962425}
{0.812915}
{-0.15251602}
{0.44151393}
{-0.18035677}
{0.30158803}
{-0.767215}
{-0.7122695}
{-0.43052152}
{-0.7705296}
{-0.31781572}
{0.0034312834}
{0.9874605}
{-0.40274203}
{-0.25514892}
{-0.1351929}
{-0.21739414}
{-0.03825324}
{0.6911767}
{0.71090955}
{0.9498025}
{0.66185343}
{0.2339224}
{0.28215978}
{-0.6257602}
{-0.63427967}
{0.65047526}
{0.37971428}
{0.4688439}
{-0.3549148}
{0.6954725}
{0.95528555}
{-0.9110261}
{0.6676944}
{-0.62860477}
{0.3857861}
{-0.784248}
{-0.91709024}
{0.6308449}
{-0.048739612}
{-0.43590692}
{0.12889929}
{0.444032}
{0.86821085}
{0.43446514}
{0.13664939}
{0.67689633}
{0.30954903}
{0.5535978}
{0.3312058}
{0.64701664}
{0.22005475}
{0.6117526}
{-0.53569674}
{-0.7224967}
{0.4765921}
{-0.7064625}
{-0.10074393}
{0.24553055}
{-0.28542748}
{0.3831589}
{0.03843908}
{0.5712893}
{-0.5700655}
{0.10059465}
{-0.6193052}
{0.49516466}
{0.1515077}
{-0.2789524}
{-0.4726858}
{-0.41409707}
{-0.71938497}
{0.8076235}
{-0.67798966}
{-0.6117316}
{0.94913435}
{-0.40475562}
{-0.10289528}
{0.8300796}
{-0.7563525}
{0.26112553}
{0.18995135}
{0.34032634}
{-0.8317453}
{0.6529263}
{0.53968227}
{0.2042943}
{-0.47747603}
{-0.3465362}
{-0.86452544}
{0.48898718}
{-0.8387398}
{0.26322362}
{0.20234315}
{0.7060961}
{0.32851756}
{-0.45862773}
{0.4579589}
{-0.8430115}
{0.9441911}
{-0.26859692}
{-0.33770895}
{-0.5886958}
{-0.8003125}
{-0.6484817}
{0.33544898}
{0.11594834}
{-0.5756446}
{-0.23017195}
{0.32882336}
{-0.82360584}
{-0.5905027}
{0.43370864}
{0.019362247}
{0.120464936}
{-0.44937104}
{0.46946046}
{0.7607206}
{0.30589303}
{-0.3405269}
{0.5449556}
{0.23536198}
{-0.5549769}
{0.29863632}
{-0.07496273}
{-0.40464422}
{0.23434235}
{-0.95443296}
{0.9667133}
{0.83396107}
{0.5579553}
{0.69880223}
{0.7436117}
{0.32470632}
{-0.637327}
{0.47684854}
{-0.90563786}
{0.870268}
{0.97174835}
{-0.4236029}
{-0.42334273}
{-0.3385566}
{-0.14266552}
{0.564412}
{0.63850677}
{0.33267277}
{-0.1495276}
{-0.5775835}
{0.055444647}
{-0.2688222}
{0.6079708}
{0.12787928}
{0.5690435}
{0.122776926}
{-0.5183122}
{-0.026853397}
{-0.43447593}
{-1.1187692}
{0.9459942}
{-0.79361427}
{0.91684425}
{-0.8612294}
{-0.19057846}
{0.19402765}
{0.9112476}
{0.2242757}
{0.73716307}
{-0.15997751}
{0.1869702}
{-0.97728354}
{-0.33142155}
{0.66519445}
{-0.26350597}
{0.63460875}
{-0.4880731}
{-0.74535745}
{0.68353856}
{0.522264}
{0.37266615}
{-0.07622406}
{-0.1730769}
{-1.158063}
{-0.718872}
{-0.29921582}
{-0.88387835}
{-0.40522212}
{-0.17100209}
{0.40337518}
{1.0157775}
{-0.4335312}
{-0.026921108}
{0.79680854}
{0.15607116}
{0.06091144}
{-0.026365072}
{0.28804493}
{0.20409128}
{-0.94866204}
{0.73860383}
{-0.46754518}
{-0.40774873}
{-0.9002187}
{-0.28986505}
{0.33105978}
{-0.63940656}
{0.49043217}
{0.325661}
{1.0470754}
{-0.62363946}
{-0.74081}
{-0.0827829}
{-0.14737336}
{-0.7433883}
{0.13788092}
{-0.7275176}
{0.33092993}
{0.86155427}
{-0.7764353}
{-0.39912388}
{0.82767427}
{0.13606279}
{0.1785467}
{-0.0037425333}
{0.085294954}
{-0.77132523}
{-0.43443954}
{1.0815575}
{-0.14108121}
{0.8731173}
{0.38549307}
{0.026548399}
{0.69163525}
{0.40678784}
{-0.15962163}
{0.7384261}
{-0.5412207}
{0.06206243}
{-0.6595552}
{-0.7715915}
{0.12123006}
{-0.12871483}
{-0.09305505}
{-0.17951722}
{0.18390284}
{-0.5410341}
{0.45581535}
{-0.33546266}
{-0.44655147}
{0.13361566}
{0.45728543}
{0.47962016}
{0.71343523}
{-0.34401253}
{0.8829218}
{-0.61741227}
{-0.57223254}
{0.27938268}
{-0.88036984}
{0.08973952}
{-0.055670653}
{0.3535945}
{-0.3209633}
{0.6336594}
{-0.43290907}
{0.23339936}
{-0.23540862}
{-0.4108067}
{0.546474}
{-0.44518688}
{0.2592068}
{0.0573789}
{0.84055746}
{0.90793955}
{-0.37342772}
{-0.84758997}
{-0.8404945}
{-0.94751585}
{-0.8648927}
{-0.52101856}
{0.2034643}
{-0.27873042}
{-0.48059842}
{-0.5962232}
{0.29589546}
{-0.49359822}
{-0.85315233}
{-0.56011903}
{0.49113297}
{0.72953236}
{-0.3055248}
{-0.5964835}
{0.34940624}
{0.5962721}
{-0.26764446}
{0.42093053}
{-0.9119367}
{-0.57360446}
{-0.676061}
{-0.9703707}
{1.0615807}
{-0.59929216}
{-0.57713187}
{0.036876034}
{0.51626515}
{-0.28436735}
{-0.7397877}
{-0.9752497}
{-0.73976165}
{0.8462392}
{-1.0360149}
{0.32784888}
{0.84623235}
{-0.8656703}
{-0.37400013}
{-0.33608308}
{-0.30639988}
{-0.037862133}
{0.38256034}
{0.6192081}
{0.29868498}
{0.16391084}
{-0.71706337}
{0.8487277}
{0.11229158}
{-0.95599234}
{0.08276355}
{0.8289209}
{-0.7037016}
{0.33547756}
{0.32383826}
{-0.04610538}
{0.9277217}
{0.2082164}
{0.64107656}
{0.38004318}
{1.0172722}
{-0.035352778}
{0.39893523}
{-0.6573301}
{-0.79545957}
{-0.55261576}
{-0.44411048}
{-0.32121435}
{-0.7172499}
{0.8856083}
{-0.44386476}
{-0.5785937}
{1.0705619}
{0.60717833}
{-0.47009817}
{-0.45326787}
{0.51461613}
{-0.5724095}
{-0.45001343}
{-0.5694263}
{-0.20180184}
{0.4580705}
{1.0340292}
{0.9335116}
{-0.0864872}
{0.69311917}
{-0.29941216}
{-0.8025947}
{0.4396334}
{0.44402024}
{0.0921965}
{0.60937345}
{0.72974175}
{-0.57131445}
{0.3533956}
{-0.095026635}
{-0.72740215}
{0.28975555}
{-0.6601372}
{-0.043356624}
{-0.8103881}
{0.97644985}
{0.26711527}
{0.6683949}
{0.9492048}
{0.6471318}
{-0.40652087}
{0.6410976}
{0.0366583}
{-0.56973684}
{0.82585245}
{0.19482885}
{-0.60295194}
{-0.3325713}
{0.37488508}
{-0.6235989}
{0.89690626}
{-0.9041463}
{-0.4446428}
{-0.67073286}
{0.4182395}
{0.5806645}
{0.25002834}
{0.39294705}
{-0.47008207}
{-0.9708866}
{-0.9190932}
{0.09994684}
{0.5052254}
{0.47434208}
{0.6670364}
{-0.8958043}
{-0.6435764}
{0.304934}
{0.4368523}
{-0.15366414}
{0.7172737}
{0.34198377}
{0.36523688}
{-0.5787481}
{0.6446593}
{-0.23351935}
{-0.10132623}
{-0.8763722}
{0.5513779}
{0.45572516}
{-0.9987267}
{-0.34410417}
{0.033379693}
{0.6890639}
{0.59076965}
{0.2366702}
{-0.37762424}
{0.2690985}
{0.30596054}
{0.028562566}
{-0.41505113}
{-0.9612936}
{-0.8788798}
{0.051248576}
{0.97040427}
{0.73642695}
{-0.037703812}
{0.4698478}
{0.8868073}
{-0.5566231}
{0.19444364}
{-0.6832266}
{0.3578374}
{-0.9107026}
{0.38405454}
{-0.083173454}
{0.7592983}
{1.0134157}
{-0.04188596}
{-1.0094471}
{-0.2981507}
{-0.12159304}
{-0.76454306}
{0.7961764}
{0.42557365}
{-0.29788712}
{-0.84947246}
{-0.55818045}
{0.58896935}
{1.0123035}
{-0.4153284}
{0.08775036}
{0.7411132}
{-0.22610715}
{0.6681544}
{-0.7428991}
{-0.68845886}
{0.3295159}
{0.6435367}
{0.062287882}
{0.9739644}
{-0.73176086}
{-0.28317213}
{-0.31021616}
{-0.055380743}
{-0.6781796}
{0.91898173}
{1.1211146}
{0.19337809}
{-0.80309284}
{-0.008495933}
{-0.8458009}
{0.5501798}
{0.6507729}
{-0.8032458}
{0.7133647}
{0.23027469}
{-0.00734384}
{0.9581938}
{-0.0060381233}
{0.45269856}
{-0.06967866}
{0.40446645}
{0.09937676}
{-0.91569173}
{-0.8772825}
{0.7355463}
{-0.61651635}
{-0.8783036}
{0.85454166}
{1.0494068}
{-0.81757313}
{0.24185345}
{-0.65900433}
{0.014117812}
{-0.788334}
{1.0016986}
{-0.728619}
{0.31915212}
{-0.8266931}
{0.116999134}
{-0.17770007}
{0.7292255}
{0.9542348}
{-0.029127313}
{-0.24958137}
{0.18180612}
{0.9775054}
{0.62484246}
{-0.6864191}
{0.2617695}
{-0.106222846}
{-0.33220926}
{0.3992717}
{0.80914086}
{-0.8112719}
{0.5474525}
{0.980605}
{0.21513619}
{-0.9355474}
{-0.63719213}
{-0.6598805}
{-0.68833745}
{0.7554947}
{0.09514167}
{0.8929392}
{0.24323481}
{0.45772174}
{0.56782514}
{0.5281993}
{-0.19516982}
{0.8746898}
{-0.22557658}
{0.6033045}
{-0.53334564}
{-0.8510627}
{0.8436395}
{-0.47252372}
{0.13585344}
{-0.6249853}
{0.7266164}
{0.07479777}
{-0.36129177}
{0.1167666}
{-0.39847982}
{0.5494472}
{0.15164724}
{-0.1879627}
{-0.58074236}
{0.13508503}
{-0.8936129}
{0.46128255}
{-0.16058154}
{0.51319575}
{0.012040228}
{-1.0157641}
{0.57787037}
{-0.07745587}
{0.49357763}
{0.14680378}
{-0.41388324}
{-0.47520927}
{0.6690701}
{0.7224992}
{-0.4704606}
{-0.10018312}
{-0.43916646}
{-0.62561077}
{-0.28244257}
{-0.26610163}
{0.58369607}
{-0.45590642}
{0.2742226}
{0.8808943}
{-0.14142373}
{-0.036675774}
{-0.08198457}
{0.50814277}
{-0.40486106}
{0.11600986}
{0.9378821}
{-0.85445654}
{0.90380186}
{0.20664838}
{0.5010795}
{-0.367878}
{-0.2191928}
{-0.28013453}
{-0.53112376}
{0.17006728}
{-0.66833377}
{0.39300424}
{-0.66812974}
{0.12663879}
{-0.50967747}
{0.011742498}
{-0.75401926}
{-0.18242386}
{0.70269316}
{0.5451103}
{-0.5933042}
{0.785509}
{0.70296305}
{-0.19217975}
{0.18740426}
{-0.78982675}
{-0.1076918}
{-0.9116642}
{0.8635716}
{0.7778994}
{1.0373628}
{-0.5069859}
{0.5619974}
{-0.82942927}
{-0.41890845}
{0.20409238}
{-0.75077176}
{0.3223655}
{-0.54762125}
{-0.2866992}
{0.7834614}
{-0.37881187}
{0.8981253}
{-0.06890591}
{0.7747151}
{-0.14796165}
{0.9298817}
{0.71289194}
{0.45421767}
{0.064081594}
{-0.64022875}
{-0.2668407}
{0.582965}
{-0.028713536}
{0.20313542}
{0.8893603}
{-0.47682482}
{0.20935962}
{-0.34450674}
{-0.5235623}
{0.839049}
{-0.41196397}
{-0.9673334}
{0.52903104}
{-0.40939105}
{-0.5057503}
{-0.22353357}
{1.0068004}
{0.08987789}
{0.9624704}
{0.31273818}
{-0.1126489}
{0.5934112}
{0.5876845}
{0.1877042}
{-0.6390726}
{-0.5399747}
{-0.9375466}
{-0.72672325}
{-0.8074903}
{-0.057685822}
{0.030743051}
{0.43841326}
{-0.8267552}
{-0.3180454}
{0.39323255}
{-1.0572864}
{-0.04417997}
{0.7629}
{0.033013035}
{0.44749847}
{0.04316468}
{0.8272933}
{-0.946838}
{-0.87040555}
{0.2652497}
{-0.21097562}
{-0.08619868}
{-0.17462027}
{0.37577963}
{0.44061387}
{-0.5245546}
{-0.9599963}
{-0.8888342}
{-0.45611504}
{0.046043802}
{-0.15301815}
{0.09664366}
{0.71396744}
{-0.21356681}
{0.66971576}
{-0.029953001}
{-0.71675295}
{-0.4946182}
{-1.122181}
{1.0065428}
{-0.7790541}
{-0.9680027}
{-0.50111014}
{-0.661805}
{0.7194039}
{0.12308348}
{-0.567221}
{-0.7860532}
{-0.11988487}
{0.052576948}
{0.63055056}
{0.7205973}
{-0.5179858}
{0.32187054}
{-1.0029707}
{-0.5674424}
{0.97497064}
{1.0183257}
{0.25077835}
{1.1494616}
{-0.58551836}
{0.56072104}
{-0.90545684}
{1.1176115}
{1.092751}
{-0.054392908}
{0.82487565}
{-0.6998292}
{-0.779963}
{-0.4609597}
{0.09390134}
{0.24298681}
{0.800024}
{0.10805405}
{-0.18140893}
{0.6469741}
{0.014915679}
{-0.03902037}
{0.06585775}
{-0.6437541}
{0.62743145}
{0.69242704}
{0.103591785}
{-0.45209363}
{-0.26472017}
{-0.08504116}
{-0.51302326}
{-0.87011594}
{0.2175482}
{-0.26666144}
{-0.9284201}
{-0.018191751}
{0.44302526}
{0.4810581}
{0.20269418}
{0.4050411}
{-0.77974504}
{-0.8341216}
{-0.61513406}
{-0.09987946}
{0.40654692}
{0.61424077}
{-0.59482}
{-0.76211464}
{-0.2930824}
{0.5725833}
{-0.68312484}
{1.0382565}
{0.2097175}
{-0.12362317}
{0.20871857}
{0.36591804}
{0.6358702}
{0.96507347}
{0.06339348}
{-0.78059196}
{-0.6452802}
{0.30643126}
{-0.5293485}
{0.059450906}
{0.19438884}
{-0.044675667}
{0.7844677}
{-0.79743034}
{0.04775896}
{-0.25240067}
{-0.9032869}
{0.5857545}
{0.914798}
{0.16062424}
{-0.12613721}
{-0.36919206}
{-0.4814271}
{-0.4167073}
{-0.7275068}
{0.14652763}
{-0.20807213}
{-0.4167314}
{0.27161014}
{0.15930597}
{1.059171}
{0.262593}
{-1.1114572}
{-0.6947906}
{-0.51481885}
{-0.36257055}
{-0.22736514}
{0.059533626}
{0.02004191}
{0.95531094}
{0.6447559}
{-0.09572857}
{0.199692}
{-0.5442368}
{-0.77738845}
{-0.8272676}
{1.0488157}
{0.18898484}
{0.6599227}
{-0.76146364}
{0.38341883}
{0.64438283}
{0.49771747}
{-0.32176408}
{0.33667365}
{0.4014952}
{-0.98343277}
{0.7280069}
{0.9325139}
{0.64480245}
{-0.18240967}
{-0.58079046}
{-0.06146762}
{-0.045150597}
{0.33667317}
{-0.2871936}
{-0.018199084}
{-0.38499525}
{-0.22072649}
{-0.6668938}
{0.31379193}
{0.985952}
{-0.61568564}
{0.1189423}
{0.13104656}
{-0.43046525}
{-0.25783214}
{-0.3947397}
{1.0026646}
{0.9617599}
{-0.6618094}
{0.21249852}
{-0.7424645}
{0.24392793}
{-0.83413625}
{-0.34492353}
{0.6484615}
{-0.44572666}
{-0.42488286}
{-0.8590515}
{-0.73658496}
{-0.23535207}
{0.30339882}
{-0.9719322}
{0.4418442}
{-0.5680946}
{0.36682358}
{0.028552122}
{-0.37125283}
{-0.85770524}
{-0.015362054}
{-0.9135742}
{-0.5919673}
{-0.06711232}
{-0.79961777}
{0.9500702}
{-0.32820222}
{-0.93572867}
{0.38743973}
{-0.4032157}
{-0.70355433}
{0.9234301}
{0.08794689}
{0.90925974}
{-0.3751119}
{-0.007473301}
{1.0535465}
{-0.2726688}
{-0.080215536}
{0.91483533}
{0.31836802}
{-0.29746893}
{1.1012}
{-0.83024824}
{0.98077}
{-0.74671906}
{0.41775548}
{0.46715757}
{0.6280776}
{-0.8621329}
{-0.47538513}
{-0.70042074}
{-0.8124616}
{-0.3393655}
{-0.24419981}
{-0.5402628}
{0.616498}
{0.27851126}
{0.5305489}
{-0.7999371}
{-0.117864326}
{0.9559752}
{-0.8086764}
{0.47073337}
{0.369355}
{0.65940213}
{0.7263992}
{-0.3117769}
{0.51060814}
{-0.8578893}
{0.79476464}
{0.24877426}
{-0.33452553}
{-0.2488608}
{0.27100992}
{0.14177246}
{0.5077424}
{-0.24145068}
{0.8361135}
{-0.53496873}
{-0.28302047}
{0.04801837}
{-0.14526549}
{-0.51294816}
{-0.8628744}
{0.78675133}
{-0.07907585}
{0.9939414}
{0.095971495}
{-0.10033542}
{-0.6474371}
{-0.7937771}
{-1.1763194}
{0.89635813}
{0.20931277}
{0.33624336}
{0.015589809}
{0.42943838}
{0.5102839}
{0.81897914}
{-1.2522389}
{-0.40413198}
{0.3672099}
{0.78008807}
{0.22326148}
{-0.39683893}
{-0.73720866}
{0.24997613}
{0.7695717}
{0.1466828}
{-0.4362413}
{-0.85526764}
{-0.75620544}
{-0.11259777}
{0.5283061}
{0.65010345}
{-0.012357601}
{-0.88346326}
{0.68409324}
{-0.4196196}
{0.01069879}
{1.1091999}
{0.9208783}
{-0.23493484}
{-0.18462609}
{-0.5686419}
{-0.49553263}
{-0.22066262}
{-0.06928038}
{-0.3016606}
{-0.7098871}
{0.8690704}
{0.59461534}
{0.101284064}
{0.13417123}
{-0.36549643}
{-0.40830252}
{-0.047413938}
{0.7787842}
{-0.3676572}
{-0.055327285}
{-0.19344442}
{-0.3643023}
{-0.37651637}
{0.22949603}
{0.31548727}
{0.7016029}
{-0.110307306}
{0.70912594}
{0.47157672}
{0.5276497}
{-0.30146673}
{1.0140245}
{0.0110745495}
{0.7347475}
{-0.16124752}
{0.67317706}
{-0.36908776}
{-0.24406378}
{-0.5031847}
{0.11336397}
{0.957365}
{0.22746238}
{-0.51971185}
{-0.49237823}
{-0.48978794}
{0.32054374}
{0.32173178}
{-0.3734025}
{0.6795019}
{-0.6088452}
{-0.54068863}
{-0.15527427}
{0.91150016}
{-0.38985074}
{-0.8724302}
{0.7890028}
{-0.60714287}
{-0.49647948}
{0.31845853}
{0.22664222}
{0.6618846}
{-0.1790392}
{-0.289408}
{-0.8259134}
{0.55271924}
{0.8436927}
{-0.667945}
{-0.5161393}
{-0.69651055}
{-0.454099}
{-0.83382356}
{-0.8834669}
{-0.1741757}
{0.5236661}
{0.48819968}
{0.47018617}
{-0.13047466}
{-0.051854637}
{0.45468327}
{-0.87688243}
{0.24276032}
{1.1834537}
{0.05522578}
{-1.1283005}
{0.10222491}
{-0.6087756}
{-0.26883963}
{-0.11543562}
{0.21924506}
{0.75087774}
{0.019073175}
{0.07745326}
{0.51051897}
{0.18959108}
{0.20361802}
{-1.2703078}
{0.1960814}
{-0.23509781}
{-0.53506887}
{0.3922686}
{-0.6742389}
{-0.5060962}
{-0.30158976}
{-0.46925378}
{-0.66817194}
{0.47899055}
{0.3945665}
{0.3775156}
{-0.91432005}
{-0.07164086}
{-0.20578197}
{-0.46466905}
{-0.92000854}
{0.7515822}
{0.6717888}
{0.13248493}
{1.0854001}
{-0.30039778}
{-0.78748214}
{-1.137016}
{0.6458154}
{-0.13452841}
{0.8107616}
{0.42441985}
{0.097910136}
{-0.58240753}
{0.41936275}
{-0.7010829}
{-0.5121342}
{-0.6563184}
{0.52569044}
{0.19147813}
{0.49267325}
{-0.098267086}
{-0.38020065}
{-0.07784231}
{0.006172894}
{-0.6292567}
{0.3928952}
{0.11839854}
{-0.66366696}
{-0.86306447}
{-0.73923314}
{-0.3113881}
{-0.0701738}
{-0.15837872}
{0.21105286}
{0.865871}
{-0.531681}
{-0.8623101}
{-0.02845199}
{0.6404101}
{0.96379364}
{-0.695707}
{-0.5919694}
{0.95481116}
{-0.6588847}
{-0.7590646}
{0.12243952}
{0.5987555}
{-0.25494385}
{-0.15633659}
{-0.9068917}
{-0.8225046}
{0.3673288}
{-0.08084765}
{-0.29222754}
{-0.35390028}
{-0.53986925}
{-0.3884787}
{-0.09107124}
{-0.35482296}
{-0.52767277}
{-0.5697742}
{0.5093551}
{-0.45232442}
{0.10018478}
{-0.7194978}
{-0.15747741}
{-0.7124722}
{0.04657868}
{0.02670308}
{-0.12177567}
{-0.870698}
{0.88103646}
{0.6919232}
{0.43955323}
{-0.091627896}
{0.0102230385}
{0.66325927}
{0.25297377}
{-0.61195695}
{-0.27831313}
{-0.8206618}
{-0.7212421}
{0.4377492}
{-0.56489986}
{0.48160207}
{0.41998646}
{-1.0220673}
{0.9485531}
{-0.32654107}
{0.93394816}
{0.3896229}
{-0.48590514}
{0.08052952}
{0.31578538}
{-0.23326427}
{0.70213556}
{0.46947014}
{-0.9645544}
{-1.0203332}
{-0.5266395}
{-0.5903934}
{0.043359924}
{-0.9956843}
{0.5996485}
{-0.69948536}
{-0.21388629}
{0.20633177}
{0.2918537}
{0.9315417}
{0.45253107}
{-0.5601058}
{-0.7957196}
{0.27526993}
{-0.7630669}
{0.5463923}
{0.15576935}
{0.32460135}
{0.26958987}
{0.15870012}
{0.27914408}
{-0.25120747}
{-0.2732735}
{-0.42242396}
{0.7459263}
{0.68261755}
{0.28520057}
{0.6921995}
{-0.33200786}
{0.47247872}
{-0.41515353}
{-0.577963}
{-0.7022976}
{1.0168543}
{0.55801976}
{-1.0408127}
{0.30524585}
{0.5678436}
{0.6191348}
{0.358327}
{-0.6826561}
{-0.30966893}
{-0.34733537}
{-0.40318665}
{0.7102186}
{-0.83113843}
{0.9120916}
{0.03077607}
{-0.026339278}
{0.76211476}
{-0.91009295}
{-0.96169776}
{0.7567022}
{0.13964419}
{0.47036216}
{-0.36692557}
{1.0464641}
{-0.19338022}
{0.3284435}
{0.74394834}
{-0.54975927}
{-0.5356011}
{0.450484}
{0.56833345}
{-0.71319216}
{-0.98475313}
{-0.4319344}
{-0.31089133}
{0.777206}
{0.74709034}
{-0.103723876}
{-0.6255613}
{0.9640381}
{0.019260177}
{-0.84919417}
{0.43160093}
{-0.8589428}
{-0.23267432}
{-0.8499223}
{0.6456005}
{0.5227772}
{-0.78026253}
{0.98294437}
{0.30966076}
{-0.24485663}
{-0.077564724}
{-0.7972685}
{-0.16512467}
{0.22066092}
{0.86484796}
{-0.8292936}
{0.86084896}
{0.15421665}
{0.7993042}
{-0.4920621}
{-0.1564953}
{-0.014410726}
{0.874033}
{0.85580194}
{0.7843272}
{-0.5969206}
{-0.42194262}
{-0.038042855}
{0.5111728}
{0.5452659}
{0.0007745469}
{0.85456455}
{0.57417446}
{0.9936945}
{-0.8129398}
{0.29329726}
{-0.7529607}
{0.38819265}
{-0.0155335935}
{0.086904414}
{0.69687164}
{0.58935165}
{1.0056312}
{0.32502982}
{-0.036446933}
{-0.5903439}
{0.7229589}
{0.9181851}
{-1.100013}
{-0.565811}
{-0.8497831}
{0.23436949}
{-0.080326356}
{-0.53658545}
{-0.04708246}
{-0.09653794}
{0.35553038}
{0.42778757}
{0.25263542}
{-0.6677419}
{-0.9884948}
{-0.60345376}
{0.19646123}
{-0.07711207}
{-0.13304515}
{-0.14156839}
{-0.9498694}
{-0.5856072}
{-0.4730599}
{-0.7353449}
{1.0184242}
{-0.06835138}
{-0.14910702}
{-0.6900985}
{0.57210547}
{-0.4772983}
{-0.7684723}
{-0.40538803}
{0.04123804}
{0.42672822}
{-0.3620917}
{-0.7373268}
{0.9911021}
{0.06707422}
{0.5621012}
{-0.5553205}
{1.0212651}
{0.09736002}
{0.78030163}
{0.14639348}
{-0.17863424}
{0.554222}
{0.025815217}
{0.15934692}
{-0.8752157}
{0.5002503}
{-0.7587272}
{-0.1857346}
{0.82962257}
{0.6543323}
{0.010550002}
{0.3842995}
{-0.32919696}
{0.69605505}
{-0.4188795}
{-0.7144621}
{0.35536584}
{-0.9690567}
{-0.006666573}
{-0.4835128}
{-0.77323025}
{-0.728058}
{-0.08321033}
{0.5894535}
{-0.13282834}
{0.6155125}
{0.7509685}
{0.8559549}
{0.43077737}
{-0.46305183}
{-0.23890421}
{-0.87835324}
{0.8393347}
{-0.17371014}
{-0.7184245}
{0.3587611}
{-0.030006528}
{-0.61054957}
{-0.51720953}
{-0.59712577}
{0.0034823723}
{0.27541587}
{-0.46152937}
{0.5481847}
{0.6315805}
{0.6014911}
{-0.1360519}
{0.24881731}
{-0.7309035}
{0.9535345}
{-0.33966118}
{-0.10405227}
{-0.31843752}
{0.78675926}
{-0.4200707}
{-0.3812863}
{-0.22118185}
{-0.9377078}
{-0.42260036}
{0.5994644}
{0.6322098}
{0.6490332}
{-0.066493675}
{-0.5733102}
{-0.6280129}
{0.56478417}
{-0.44155878}
{-0.72490793}
{-0.48045674}
{0.32750842}
{-0.9211319}
{1.020388}
{-0.7415847}
{-0.40796807}
{-0.20203951}
{-0.56743795}
{-0.8029242}
{0.25276944}
{-0.820289}
{-0.18758382}
{-0.27804604}
{0.26400945}
{-0.79035753}
{-0.30200323}
{0.1354482}
{-0.47260097}
{0.5886192}
{-0.955112}
{0.7335881}
{-0.48105198}
{0.75977296}
{-0.42242825}
{0.052159328}
{0.6838461}
{-0.9006942}
{-0.69664454}
{0.08594531}
{0.09437359}
{0.49721634}
{-0.87932765}
{0.64564}
{0.003908801}
{0.31463873}
{-0.27296945}
{0.9146192}
{-0.79742634}
{-0.0048451065}
{0.30389434}
{0.7626015}
{-0.24873021}
{-0.7401073}
{0.7900758}
{0.5228879}
{-0.92166483}
{0.69019246}
{-0.5725811}
{0.4200966}
{-0.28000048}
{-0.54646224}
{-0.07998208}
{0.07425596}
{0.5321318}
{-0.36304453}
{0.38006634}
{0.26191807}
{-0.46720102}
{0.37681177}
{0.8933219}
{-0.91409624}
{0.98916733}
{-0.6308015}
{0.23428312}
{-0.78893465}
{0.7578856}
{-1.0317291}
{0.80733573}
{-0.7269941}
{0.3621795}
{-0.49011213}
{0.8318479}
{0.10625441}
{-0.71992195}
{0.6797422}
{-0.0047348104}
{-0.181829}
{-0.32163575}
{-0.89651704}
{0.81977344}
{-0.09094984}
{-0.44135216}
{0.23269214}
{0.8495514}
{-0.694389}
{-0.8456398}
{-0.13120972}
{-0.16100934}
{0.14257064}
{-0.9659344}
{-0.84419495}
{-0.79171926}
{0.048150342}
{-0.68436325}
{-0.73358506}
{-0.5904086}
{0.21690468}
{-0.80358255}
{-0.6987046}
{0.32434118}
{0.07080785}
{0.95589864}
{0.6577714}
{-0.5277445}
{0.03483963}
{-0.27616504}
{-0.032709707}
{0.24439612}
{-0.33755612}
{-0.7690686}
{0.25560075}
{-0.69638026}
{-0.079683766}
{-0.3139439}
{-0.31281927}
{-0.0637572}
{-0.0069261435}
{0.9042181}
{-0.79717}
{-0.07954805}
{-0.45780185}
{0.7307464}
{0.2575581}
{-0.2025757}
{-0.5046444}
{0.037010122}
{0.96280247}
{-0.060591735}
{0.5992383}
{-0.02707107}
{-0.9255321}
{0.41122884}
{0.52373475}
{-0.92739713}
{0.11872811}
{0.42194876}
{0.51408744}
{0.24077627}
{-0.38918096}
{-0.67323256}
{0.15233159}
{-0.8568138}
{0.13334332}
{0.38806522}
{-0.12406452}
{0.32925913}
{0.6803427}
{-0.22661875}
{-0.5757271}
{0.3006079}
{-0.7368965}
{-0.7822469}
{0.4829948}
{-0.31224945}
{0.09913328}
{0.2110149}
{0.7885565}
{0.5048052}
{0.48446426}
{0.48973775}
{-0.3191706}
{0.8259932}
{-0.55458707}
{-0.45304233}
{0.49046052}
{0.53437006}
{-0.40698773}
{0.42975017}
{-0.6904759}
{0.7179042}
{0.35518935}
{-0.6396731}
{-0.65413374}
{0.13963574}
{0.54161483}
{-0.45788378}
{0.9219955}
{0.75783503}
{-0.570847}
{0.63954407}
{0.325159}
{0.7482997}
{0.6559132}
{0.6844573}
{0.2335334}
{-0.20251754}
{0.1957688}
{-0.6139931}
{-0.8918409}
{-0.24666885}
{-0.3337846}
{0.43923095}
{-0.1079006}
{0.85092247}
{0.20218006}
{0.5896213}
{0.389618}
{0.2886102}
{0.92378795}
{0.88744783}
{-0.8703173}
{-0.87171376}
{-0.5261078}
{-0.88351893}
{0.8579151}
{-0.10768638}
{-1.018421}
{0.07950931}
{0.8537795}
{-0.19908622}
{-0.28324252}
{-0.73470634}
{0.9215875}
{-0.68231165}
{0.7995893}
{0.6776956}
{0.4150619}
{-0.34827688}
{-0.45638174}
{-0.8729078}
{-0.5148624}
{0.38255975}
{0.54881227}
{0.052752305}
{-0.35092884}
{-0.5645138}
{-0.09672632}
{-0.37088135}
{0.36496463}
{0.22542545}
{0.08086142}
{1.043199}
{0.4062715}
{-0.76697004}
{0.21438938}
{-0.7501726}
{0.6542162}
{-0.5149747}
{0.1903231}
{0.9547544}
{0.31161645}
{0.39480874}
{-0.7742638}
{-0.70209426}
{-0.51115847}
{0.5306932}
{0.0790074}
{-0.4793826}
{0.1788468}
{-0.1711097}
{0.253218}
{0.75730306}
{0.17612089}
{0.22055742}
{-0.22153641}
{-0.9466669}
{0.81111777}
{-0.65480316}
{-0.04235955}
{0.48245522}
{-0.6490134}
{0.53626597}
{-0.94449395}
{0.043351457}
{0.9431094}
{0.71638787}
{-0.639518}
{0.49805343}
{-0.17663462}
{0.66375005}
{0.36908075}
{0.58815664}
{0.16454905}
{0.013161587}
{-0.81427056}
{0.4864534}
{0.5977596}
{-0.18727997}
{0.53456104}
{0.25561947}
{0.92941755}
{0.1726248}
{0.3850036}
{0.6563091}
{-0.80182827}
{-0.23177531}
{-0.14095035}
{-0.23664649}
{0.4445228}
{-0.69333327}
{-0.4871119}
{-0.72629535}
{-0.8032455}
{-0.2442508}
{-0.23652233}
{0.31137028}
{-0.7774251}
{0.5685371}
{-0.7446384}
{-0.7254826}
{0.7036555}
{-0.16170314}
{0.022271562}
{-0.9322309}
{-0.36826336}
{0.0760211}
{0.7107249}
{-0.91780996}
{0.8249098}
{0.5643016}
{-0.6388111}
{0.35872924}
{0.67094874}
{0.12806548}
{0.79985297}
{-0.11584153}
{-0.064418525}
{0.89139044}
{-0.36627558}
{0.62465256}
{0.5439913}
{-0.53271353}
{0.9248138}
{0.5047236}
{-0.7445917}
{0.6407381}
{-0.34137458}
{-0.30933553}
{-0.057838153}
{-0.8883828}
{0.056681514}
{-0.8104927}
{-0.6787793}
{0.39054605}
{-0.5003622}
{-0.22150248}
{0.0993298}
{-0.7067832}
{0.009212617}
{0.8645077}
{0.32552677}
{-0.5622567}
{-0.79631025}
{0.87884575}
{0.64874417}
{-0.09515416}
{0.5290403}
{0.30935666}
{-0.3136534}
{0.2956955}
{0.7062297}
{-0.9369616}
{-0.23917009}
{0.58633506}
{0.9448288}
{-0.28327644}
{0.7371221}
{-0.65810573}
{-0.48211446}
{-0.38520038}
{0.2538795}
{-0.810156}
{-0.5971404}
{-0.10749363}
{-0.62426263}
{-0.18504551}
{-0.14613372}
{0.08187373}
{0.91687065}
{-0.20394304}
{-0.0694478}
{-0.89110905}
{-0.17590371}
{-0.5340084}
{-0.5189007}
{1.0208448}
{0.9502185}
{0.6206032}
{-0.4372698}
{0.9101606}
{-0.78322023}
{0.797531}
{0.18357053}
{-1.0151749}
{-0.6278162}
{0.77708995}
{0.25040847}
{0.083432235}
{0.87056583}
{0.9159671}
{-0.7409078}
{0.12172845}
{0.28297746}
{-0.6641346}
{0.166639}
{0.07128028}
{-0.4542239}
{0.25222918}
{0.16299307}
{-0.09199422}
{0.8739932}
{0.0801021}
{0.6345578}
{-0.09556275}
{0.5163424}
{-0.51189244}
{0.33284473}
{0.37423494}
{0.1250718}
{-0.6043173}
{-0.6499638}
{-0.08685149}
{-0.35813543}
{0.27724668}
{0.0050190566}
{-0.20540819}
{-0.43776312}
{0.23604295}
{-0.13706712}
{0.033318516}
{-0.14776836}
{-0.56074536}
{-0.3049111}
{-0.81952125}
{0.25177464}
{0.80592096}
{-0.549838}
{-0.40908614}
{-0.64511245}
{-0.65939987}
{0.45461}
{0.96880347}
{0.92942554}
{0.4668629}
{0.5377538}
{-0.5285355}
{0.38156575}
{-0.2661865}
{0.40838283}
{-0.21509054}
{-0.9248769}
{-0.6320158}
{0.5825916}
{0.57042366}
{-0.044416152}
{0.88909423}
{-0.6543297}
{0.4865816}
{-0.19107074}
{-0.61353695}
{0.46074092}
{-0.5684511}
{0.15471442}
{-0.6055273}
{0.7406965}
{0.9026268}
{-0.44592977}
{-0.61581194}
{-0.3754893}
{-0.441209}
{0.63869023}
{-0.619532}
{-0.14217417}
{-0.20036715}
{0.8120564}
{0.6359817}
{-0.24175264}
{0.2795642}
{-0.34987247}
{0.74944675}
{0.44518965}
{0.8096367}
{-0.056014284}
{0.90314424}
{-0.8100343}
{-0.7769347}
{-0.16021165}
{-0.06206261}
{0.7881998}
{0.83321655}
{-0.63498783}
{0.59426725}
{0.16223022}
{0.018295025}
{0.37093037}
{-0.84074175}
{-0.18798706}
{-0.82482857}
{0.09134905}
{0.5400647}
{-0.07621181}
{0.84265316}
{-0.3286037}
{-0.7676357}
{-0.034962144}
{-0.59627324}
{-0.029464323}
{-0.5987097}
{0.2955772}
{0.37085375}
{0.7440555}
{0.051901508}
{0.32390335}
{0.08901062}
{-0.35702053}
{-0.4912698}
{0.793508}
{0.63545275}
{-0.9710906}
{-0.054019544}
{-0.60872793}
{0.3226192}
{-0.88084006}
{0.4798884}
{-0.9281524}
{-0.24399461}
{0.61714065}
{0.38310978}
{-0.6778753}
{0.14507648}
{-0.30398247}
{-0.23642042}
{0.33974394}
{0.5847618}
{-0.16888666}
{0.83381975}
{-0.66610384}
{-0.90267646}
{-0.75385314}
{-0.24629429}
{-0.08008321}
{0.31847128}
{0.52083033}
{-0.8349961}
{-0.50276834}
{0.38695684}
{-0.16321269}
{-0.23612717}
{-0.09814044}
{0.1901126}
{-0.29271305}
{0.39152023}
{0.5463497}
{0.030295512}
{0.04761324}
{-0.6455301}
{0.69966483}
{0.5138671}
{-0.4033194}
{-0.8020357}
{-0.8152831}
{0.92919904}
{0.35909685}
{0.25570342}
{0.5143092}
{0.2748783}
{-0.11050523}
{-0.31226662}
{0.47085035}
{-0.45805973}
{-0.9140105}
{0.38516566}
{-0.62857956}
{0.27350348}
{-0.9294956}
{0.7263297}
{0.83932674}
{-1.0086535}
{-0.35549113}
{0.10300816}
{0.7135515}
{-0.7228306}
{-0.29062167}
{-0.7129024}
{-0.61111975}
{0.1556422}
{0.3248083}
{0.07896055}
{-0.31645364}
{-0.4722814}
{-0.77322197}
{-0.7259809}
{0.12994397}
{-0.0089083975}
{-1.0821033}
{0.8154055}
{-0.08421504}
{0.5475938}
{-0.16431983}
{-0.702175}
{0.14057207}
{-0.5674415}
{0.01446981}
{-0.81244075}
{-0.64941317}
{0.8848895}
{-0.08208199}
{-0.30490497}
{0.7206587}
{0.7698361}
{-0.9707794}
{-0.034379315}
{0.54789037}
{-0.9376729}
{0.5002377}
{0.6614946}
{0.18462014}
{0.30257022}
{-0.47735545}
{-0.7790538}
{0.07225376}
{0.48503453}
{0.38482866}
{0.91240704}
{-0.2579979}
{0.70595384}
{-0.917292}
{0.70352566}
{-0.11936711}
{0.007183631}
{0.62261987}
{0.9935986}
{-0.17320122}
{-0.87487406}
{0.04363114}
{-0.0040512793}
{-0.22634922}
{-0.016952768}
{0.17231672}
{-0.02863295}
{1.0167463}
{-0.26173994}
{0.40341133}
{-0.62032616}
{0.40115142}
{0.67143893}
{-0.10240092}
{-0.33957985}
{0.8361701}
{0.7844284}
{-0.54326075}
{0.6742009}
{0.67953414}
{-0.7962223}
{-0.92894244}
{0.13354056}
{0.4219403}
{0.5777862}
{-0.15746634}
{-0.6333176}
{0.084607095}
{0.06253022}
{0.20473324}
{-0.3686991}
{0.49265856}
{-0.056871265}
{-1.0668161}
{0.2236776}
{-1.0521806}
{0.12478027}
{-0.3488934}
{0.80320466}
{0.771695}
{-0.2120404}
{-0.4849442}
{0.80460846}
{0.273622}
{0.52183926}
{0.7796532}
{-0.10173904}
{0.16092865}
{0.909381}
{0.8965654}
{-0.33458117}
{-0.7271672}
{-0.17509593}
{0.17315674}
{0.1438529}
{-0.6439303}
{-0.8773763}
{0.30118546}
{-0.5148407}
{-0.22660819}
{-0.4101393}
{-0.5261892}
{-0.60751545}
{0.8019844}
{-0.41680852}
{0.14996481}
{0.5358864}
{0.36539844}
{-0.10107222}
{0.14249904}
{0.009022403}
{0.16733849}
{-0.7952267}
{0.7181594}
{0.816548}
{0.9067276}
{-0.67973524}
{-0.036631852}
{-0.049556103}
{0.5967729}
{0.6887288}
{0.6007804}
{-0.39717105}
{0.22871612}
{0.07726814}
{0.51664096}
{-0.32456282}
{0.24424057}
{0.39780518}
{-0.14508674}
{-0.13105205}
{0.94836897}
{0.33527333}
{0.27453232}
{0.77401125}
{-0.08754262}
{0.5372092}
{-0.0030631148}
{-0.61393154}
{0.9405854}
{-0.87457013}
{0.82532996}
{-0.67145383}
{-0.7043937}
{0.20781167}
{0.5817673}
{0.003301549}
{-0.051076718}
{0.07202239}
{0.46526536}
{0.33050296}
{-0.09041849}
{0.21006678}
{-0.11540675}
{0.43839237}
{-0.6670957}
{-0.5346124}
{-0.8898949}
{0.7581841}
{0.6008762}
{0.24650717}
{0.58473665}
{0.15419027}
{-0.48841727}
{0.6001362}
{0.015524656}
{0.8133944}
{-0.49958465}
{-0.061530426}
{-0.7209969}
{-0.18018797}
{-0.89820784}
{0.7905245}
{-0.947877}
{0.55008423}
{-0.17050447}
{0.2620737}
{-0.03294988}
{0.6596755}
{0.90844697}
{0.065956265}
{0.0110295145}
{-0.9002155}
{-0.97067946}
{-0.048470065}
{-0.76864994}
{0.0018443349}
{-0.43698764}
{-0.4961235}
{-0.5942254}
{0.9988984}
{-0.3017195}
{-0.5766259}
{-1.0159411}
{0.32801434}
{0.92571306}
{-0.12435569}
{0.548513}
{0.34864923}
{0.045890983}
{0.14705585}
{0.6119345}
{-0.5897969}
{-0.5542392}
{-0.7026243}
{0.75055593}
{0.6553308}
{-0.49271718}
{0.69241786}
{0.66353613}
{-0.19299296}
{-1.0059134}
{0.81971335}
{0.70072496}
{0.946566}
{-0.8336954}
{0.08070431}
{0.88627243}
{-0.4791768}
{-0.8508625}
{-0.5937535}
{-0.095013686}
{0.4196386}
{0.30825514}
{-0.065094166}
{0.7347767}
{0.48218152}
{0.95650226}
{-0.80803055}
{-0.9785994}
{0.494714}
{-0.027747221}
{0.13253498}
{-0.0040215603}
{0.38065383}
{-0.63290143}
{0.57369024}
{0.73792094}
{0.40768287}
{0.18080062}
{-0.021095397}
{0.88471615}
{-0.8382999}
{-0.8660315}
{0.016960144}
{0.70678204}
{0.99193156}
{0.04180946}
{-0.37865523}
{-0.4460936}
{-0.78807986}
{-0.14685108}
{0.59564906}
{-0.4505191}
{-0.55043805}
{0.49925646}
{-0.86348283}
{-0.3100335}
{0.21535823}
{-0.2561047}
{0.5042635}
{0.16730551}
{-0.8802036}
{0.7281887}
{-0.4345721}
{-0.8261715}
{-0.6697134}
{-0.5403079}
{0.009905016}
{-0.92963177}
{0.46634266}
{0.07460043}
{0.44228113}
{-0.18268724}
{0.03561442}
{-0.6996485}
{-0.20000511}
{-0.5915948}
{0.4884989}
{-0.6644899}
{0.80627465}
{0.72095066}
{-0.0032420869}
{-0.85735834}
{0.013240271}
{0.9135816}
{-0.70083153}
{0.05890658}
{-0.43818152}
{-0.7498678}
{-0.095594995}
{-0.8151404}
{0.32347018}
{0.84562445}
{0.2541835}
{0.99241924}
{-0.6486327}
{1.0022085}
{-0.5405723}
{-0.17102112}
{-0.26560277}
{-0.9288498}
{-0.4994746}
{-0.43839538}
{-0.004836822}
{0.608816}
{-0.6146833}
{-0.8378558}
{-0.45877418}
{-0.19931002}
{0.8938683}
{-0.72882396}
{0.4717966}
{-0.5732093}
{-0.76952803}
{0.9712772}
{-0.61922985}
{-0.92673093}
{0.9646312}
{-0.013898306}
{0.3761528}
{0.5060571}
{-0.8204297}
{0.30556682}
{-0.5582034}
{-0.15023135}
{0.2466776}
{0.8350426}
{0.39032155}
{0.71819156}
{-0.38492325}
{0.77891076}
{0.38714498}
{-0.19701983}
{0.51532555}
{-0.32857051}
{0.72224617}
{-0.9912531}
{-0.2450979}
{0.71462}
{-0.45043516}
{0.83168906}
{1.0179724}
{-0.7180005}
{-0.8357442}
{0.92454934}
{-0.15677145}
{-0.054195084}
{-0.8521797}
{0.6330744}
{-0.39818957}
{0.37572953}
{-0.3731835}
{-0.69299173}
{0.8858763}
{0.70154953}
{0.27737942}
{-0.5312201}
{0.39690635}
{0.062111564}
{0.68053997}
{-0.70167637}
{-0.68960154}
{-0.6276639}
{0.37012613}
{0.6976824}
{-0.7280201}
{0.18423478}
{-0.6155186}
{-0.20724772}
{0.6826283}
{0.7788753}
{0.6167421}
{-0.8048459}
{-0.85087764}
{-0.7385568}
{-0.9081444}
{-0.9912797}
{-0.9388341}
{1.0237334}
{-0.22617109}
{0.3572498}
{-0.508922}
{0.876196}
{-0.51392704}
{0.23476695}
{-0.14061216}
{-0.47878322}
{-0.3114884}
{0.35230052}
{-0.2863815}
{0.20339891}
{0.35738906}
{-0.9064996}
{-0.6505259}
{-0.0116054}
{-0.79550236}
{0.4617463}
{0.40071437}
{-0.29092547}
{-0.032726903}
{0.38183174}
{0.5698441}
{0.7169087}
{-0.33673024}
{0.9838908}
{0.8439876}
{0.7487569}
{-0.7900093}
{-0.649829}
{-0.0106170885}
{0.35738632}
{-0.8623731}
{-0.31076396}
{0.3998339}
{-0.57786393}
{-0.5987127}
{-0.027127014}
{-0.26827458}
{0.9962137}
{0.47194323}
{-0.3141127}
{-0.18829134}
{-0.23105687}
{0.15076335}
{0.52269626}
{-0.43574122}
{-0.10700118}
{-0.39301163}
{0.7294371}
{0.6325065}
{0.15731475}
{0.2694426}
{0.19364363}
{0.6539377}
{-0.2751562}
{-0.40673694}
{0.7438557}
{0.45314023}
{0.7669262}
{0.7351606}
{-0.55756116}
{-0.9133347}
{0.97758925}
{-0.6784458}
{0.94369215}
{0.5807425}
{-0.045131147}
{-0.35870078}
{0.23649041}
{-0.09975492}
{-0.7757025}
{0.52535206}
{0.67296356}
{0.49390003}
{-0.16872196}
{0.9664667}
{0.8654543}
{-0.3767195}
{-0.58351773}
{0.905781}
{0.26064426}
{-0.8920976}
{-0.9237287}
{0.75972176}
{0.35679728}
{0.90178883}
{-0.38156074}
{-0.09773088}
{-0.10517704}
{-0.07861196}
{-0.6112273}
{-0.09445913}
{-0.8870592}
{-0.54423153}
{-0.925728}
{-0.5188741}
{-0.52966124}
{0.8546461}
{0.6619194}
{0.38499013}
{0.3992876}
{-0.90736425}
{0.34114245}
{0.90992373}
{0.00817794}
{-0.32244805}
{0.97633487}
{-0.48964828}
{0.8714922}
{0.08818472}
{0.3913576}
{0.81599766}
{-0.64368755}
{-0.7919017}
{-0.36472654}
{-0.82820565}
{0.93663675}
{-0.38652065}
{-0.3073984}
{0.25486922}
{0.60357827}
{0.88525975}
{-0.85203826}
{-0.38577443}
{0.46563366}
{0.8595656}
{-0.44639546}
{0.89910644}
{-0.90950614}
{0.108427174}
{-0.6019434}
{-0.31788296}
{0.9026129}
{0.8249711}
{0.6317086}
{0.06737387}
{0.5436281}
{0.16366932}
{-0.21325609}
{0.50041115}
{-0.25552714}
{-0.3634725}
{0.45153275}
{-0.6625916}
{0.6743001}
{0.89668334}
{-0.24884197}
{0.51213014}
{-0.16682464}
{-0.976467}
{0.17866461}
{0.91431504}
{-0.19530281}
{-0.5174099}
{0.68847996}
{-0.06791887}
{-0.90502214}
{-0.6723653}
