-- Efficiency --
53.55746841430664
-- W --
{0.13773601}
{0.47679323}
{-0.12888773}
{-0.3938642}
{0.54145354}
{0.73867744}
{0.6803939}
{0.07993023}
{-0.95810896}
{0.58151454}
{0.095726654}
{-0.42558295}
{-0.34222966}
{0.10376088}
{0.7209887}
{0.6446609}
{-0.52311116}
{-0.4324587}
{0.95253724}
{0.016489195}
{-0.26530057}
{0.5580589}
{0.59495085}
{-0.42780167}
{-0.0386842}
{-0.10556801}
{-0.06855495}
{0.8291027}
{0.96006745}
{-0.1619292}
{0.8463926}
{-0.9052928}
{0.59617156}
{0.6458487}
{-0.74424344}
{0.7763421}
{-0.60636026}
{-0.24750479}
{-0.1274894}
{-0.119144514}
{0.17374389}
{-0.53958565}
{-0.92442447}
{-0.54696757}
{-0.66184145}
{0.39405125}
{0.18057482}
{0.8083319}
{0.17110436}
{-0.2559865}
{0.133238}
{0.7243199}
{0.45789236}
{-0.069190815}
{0.41963834}
{-0.3639267}
{-0.96521527}
{0.84908}
{0.6664223}
{0.23664801}
{0.22607033}
{-0.20773204}
{0.72262496}
{0.7669577}
{0.44668812}
{0.94057435}
{0.39335603}
{-0.5017856}
{-0.67276746}
{0.33111995}
{-0.15974768}
{-0.7272993}
{0.82039374}
{0.54533523}
{0.20411651}
{0.40976757}
{-0.77058274}
{0.97225994}
{0.90603966}
{0.12140839}
{-0.021349503}
{-0.5214341}
{-0.062861755}
{-0.5863624}
{0.21659605}
{0.10791008}
{-0.4447332}
{-0.16671427}
{0.36518258}
{-0.97090083}
{0.43305796}
{-0.8765035}
{-0.48533374}
{0.9654576}
{0.2532465}
{0.40756482}
{0.076513454}
{0.26465887}
{-0.54199964}
{-0.2229956}
{-0.63572484}
{-0.7758004}
{0.16932371}
{-0.38631698}
{-0.84060484}
{-0.057952713}
{-0.46980578}
{0.13259523}
{-0.37264234}
{-0.20809944}
{0.9518761}
{-0.36571866}
{-0.63341504}
{-0.5555293}
{0.8484053}
{0.96280855}
{-0.9654203}
{-0.11638283}
{0.61358315}
{0.39501062}
{0.07044022}
{-0.5405533}
{0.6867215}
{0.28431958}
{-0.47073537}
{0.45733666}
{0.013765}
{0.06850903}
{0.13649957}
{-0.055206504}
{0.27341884}
{0.89814657}
{0.93924993}
{0.6181212}
{0.90314907}
{0.120020315}
{0.6406707}
{0.28092137}
{0.5383013}
{-0.70845205}
{-0.87110263}
{-0.22360513}
{-0.81373006}
{-0.63642055}
{0.695249}
{0.10548619}
{0.8037569}
{-0.14686878}
{0.77731055}
{0.63961095}
{0.98380625}
{-0.65860975}
{0.90177315}
{0.6549476}
{-0.2731908}
{0.9048769}
{0.047634054}
{0.86518127}
{0.25034064}
{0.17819612}
{0.59829277}
{-0.17308031}
{0.2767637}
{-0.8478585}
{-0.8424087}
{0.941732}
{0.73372597}
{0.9257502}
{0.032531668}
{0.83024144}
{-0.6651994}
{-0.79042965}
{-0.11198504}
{0.6451596}
{-0.34904143}
{0.8512942}
{0.7021312}
{-0.3540047}
{0.5162738}
{-0.117502525}
{0.78674954}
{0.61522186}
{-0.4007096}
{-0.12395175}
{0.542525}
{0.41141653}
{0.57576025}
{-0.8882721}
{-0.7801519}
{-0.4192775}
{-0.82661575}
{-0.38433325}
{0.4999823}
{-0.6672285}
{0.31421474}
{-0.29951447}
{0.3776285}
{-0.6124708}
{0.61223}
{0.7516896}
{-0.83766395}
{-0.070556976}
{0.322557}
{0.20108859}
{0.68480366}
{-0.88125765}
{-0.61837286}
{-0.4830919}
{0.6947121}
{-0.50372}
{-0.033115935}
{-0.8364158}
{-0.6175285}
{0.6987291}
{0.07529919}
{0.97169155}
{-0.19914491}
{-0.03468857}
{0.15169385}
{-0.5391646}
{-0.14683898}
{-0.55855364}
{0.39881986}
{-0.23908193}
{0.005232023}
{-0.95917434}
{0.31616157}
{-0.38368016}
{-0.05631454}
{-0.31935832}
{-0.9922517}
{-0.6190818}
{0.8651332}
{-0.8387316}
{-0.9804688}
{0.083854124}
{0.1312956}
{-0.549596}
{0.03144029}
{0.9780908}
{-0.08768256}
{-0.7285827}
{0.2555372}
{-0.032085013}
{-0.81427056}
{-0.4729806}
{-0.9358648}
{0.5808104}
{-0.052785706}
{-0.21186684}
{0.88868785}
{-0.9303005}
{-0.008736445}
{-0.7267409}
{0.49103588}
{0.06625404}
{0.6126241}
{-0.97569925}
{-0.98832947}
{-0.91847855}
{-0.89737064}
{0.5457565}
{-0.6936839}
{-0.35209137}
{0.92901725}
{-0.8757413}
{-0.82157165}
{-0.022533728}
{0.2613117}
{0.15157788}
{-0.032501053}
{0.5013334}
{-0.89002615}
{0.33484977}
{-0.3148554}
{-0.3119493}
{0.1184911}
{0.15500133}
{-0.8292292}
{-0.9934209}
{-0.070353106}
{-0.20026119}
{0.33714646}
{0.64558333}
{0.8953449}
{-0.83886534}
{-0.11847909}
{0.30999082}
{-0.98938805}
{0.299061}
{0.6375441}
{0.13494198}
{0.55477875}
{-0.7047792}
{0.7187137}
{0.4883358}
{0.6048066}
{-0.48822218}
{0.3999154}
{-0.34286505}
{0.501414}
{0.8465435}
{0.47121543}
{-0.42721134}
{-0.9805997}
{-0.62663704}
{0.48429674}
{-0.016244961}
{-0.30408126}
{0.81447023}
{0.35111088}
{-0.6577893}
{-0.9927781}
{-0.2970596}
{0.95928377}
{0.9610941}
{0.70244163}
{0.04383247}
{0.40454406}
{-0.17515333}
{-0.5380345}
{-0.66239816}
{0.22172157}
{0.057472635}
{0.32346863}
{0.54658574}
{0.9895815}
{-0.31341678}
{-0.65885}
{-0.5600479}
{0.21247952}
{-0.9554494}
{-0.731978}
{-0.120819405}
{0.16219704}
{0.77496976}
{-0.56966025}
{0.30198568}
{0.33220762}
{0.7471041}
{0.6742868}
{-0.63476664}
{0.1231312}
{0.2740094}
{0.5385844}
{0.9071154}
{-0.041986298}
{-0.7209447}
{-0.6856609}
{0.42954224}
{0.9737169}
{-0.91524583}
{-0.6163114}
{0.93022746}
{0.92854565}
{0.242932}
{0.13704221}
{0.28400773}
{-0.68809015}
{0.09780352}
{0.7269904}
{-0.7785352}
{0.07138531}
{-0.80325466}
{0.7171771}
{0.77932423}
{0.3765847}
{0.53638214}
{0.68217033}
{-0.39910966}
{0.3195805}
{0.813384}
{-0.480233}
{0.34879297}
{0.42745918}
{-0.7108496}
{-0.37981492}
{0.64425987}
{0.8513543}
{-0.9238935}
{-0.046196055}
{0.0016872158}
{0.037360836}
{-0.42023903}
{-0.82835346}
{-0.04577787}
{-0.03145368}
{0.5276479}
{-0.64096624}
{0.44455737}
{0.07641642}
{-0.538353}
{-0.57479817}
{-0.023620201}
{-0.5779787}
{0.9791619}
{0.68891233}
{-0.096195295}
{0.7402696}
{0.6726014}
{0.98705596}
{0.59122604}
{0.4506957}
{-0.15069254}
{0.28715795}
{0.7528562}
{-0.999698}
{0.6099915}
{0.09559815}
{0.51919645}
{-0.41657645}
{0.16925375}
{-0.9246116}
{-0.6256078}
{0.39898986}
{-0.24005015}
{-0.099326685}
{0.4316091}
{-0.15537818}
{0.05223911}
{0.98577446}
{-0.18929131}
{-0.50547653}
{-0.2255226}
{-0.23793657}
{0.6479146}
{0.9697208}
{-0.79006463}
{0.99021095}
{-0.72200185}
{-0.14696772}
{0.5192017}
{0.29535002}
{-0.5914188}
{-0.22261842}
{-0.9782401}
{0.70088667}
{0.98557633}
{-0.8346699}
{-0.8143893}
{-0.49378496}
{-0.24864657}
{-0.3531366}
{-0.5657981}
{0.76737064}
{-0.5988067}
{0.711806}
{0.54647225}
{0.7055766}
{0.13821118}
{0.20790426}
{0.65253085}
{-0.86455876}
{-0.59248644}
{-0.10420902}
{0.5569269}
{-0.30093247}
{-0.8122745}
{-0.28147274}
{0.34911364}
{-0.44941097}
{0.5367159}
{-0.6022399}
{0.035099436}
{0.55942744}
{-0.52826387}
{-0.84129936}
{0.07568447}
{0.36454076}
{0.07664649}
{-0.7255073}
{0.8703036}
{0.5462541}
{-0.8080178}
{0.57772106}
{0.5748195}
{0.5064239}
{-0.019489838}
{-0.55292183}
{0.44941062}
{-0.39565974}
{-0.7787102}
{0.12384479}
{0.55178875}
{0.98574466}
{0.13988893}
{0.71542543}
{-0.0029323827}
{-0.4377969}
{-0.2208472}
{-0.927357}
{-0.6706665}
{0.00054781337}
{0.9928464}
{0.65839714}
{0.2685632}
{0.12908761}
{-0.8096674}
{-0.12693436}
{0.89379543}
{-0.8871506}
{-0.35208422}
{-0.83191687}
{0.29416054}
{0.045339752}
{-0.4041073}
{0.39113668}
{-0.3093464}
{0.36694902}
{-0.3989754}
{0.66297793}
{0.029157624}
{0.77039903}
{0.21733478}
{0.4249348}
{0.48322695}
{0.44116014}
{0.617468}
{0.05862229}
{-0.7466611}
{0.78883284}
{0.8972524}
{-0.40723473}
{0.6348676}
{-0.4568532}
{0.8333877}
{0.7486355}
{-0.42448097}
{-0.57666}
{0.5423914}
{-0.89809936}
{-0.9329985}
{-0.1278859}
{0.5484529}
{-0.45817047}
{0.41974777}
{-0.3494969}
{-0.22743975}
{0.0708969}
{0.34355754}
{-0.80645853}
{-0.43072733}
{-0.37708494}
{-0.7004567}
{0.084759876}
{0.029927872}
{0.9311517}
{0.16618077}
{0.85059947}
{-0.47790024}
{-0.8355766}
{0.313116}
{0.5510728}
{-0.42729852}
{0.5952222}
{-0.97758347}
{-0.13427813}
{0.9206501}
{0.66461325}
{0.6898897}
{-0.6630586}
{0.50979215}
{0.762206}
{0.09568851}
{-0.98699933}
{-0.06503091}
{0.9158035}
{0.6550388}
{0.7764968}
{0.09653299}
{0.21878344}
{0.33725914}
{-0.51108795}
{-0.9344904}
{0.13485858}
{-0.26672792}
{-0.8064473}
{-0.22753754}
{0.44143507}
{0.8514352}
{0.83469456}
{-0.1912564}
{0.40881205}
{-0.30306622}
{-0.30449134}
{-0.100962974}
{-0.14444539}
{-0.33368197}
{-0.912895}
{-0.35394844}
{-0.3742375}
{0.5767968}
{0.46406096}
{0.9013326}
{0.97940814}
{-0.2136439}
{-0.84036547}
{0.8215884}
{0.09553483}
{-0.19826764}
{0.030361818}
{-0.8628876}
{-0.13701092}
{-0.6524597}
{-0.8098746}
{-0.117492914}
{0.032579552}
{-0.7320474}
{-0.003588749}
{0.97545284}
{-0.93647474}
{0.7719482}
{0.27784914}
{-0.5866353}
{0.3519079}
{0.1419613}
{-0.9964641}
{-0.90598434}
{0.70245165}
{0.70235866}
{0.15794866}
{0.28956902}
{-0.9925337}
{-0.5053751}
{-0.41020757}
{-0.23789594}
{-0.72051245}
{0.020873712}
{-0.48237044}
{0.9701596}
{-0.9627643}
{0.35578555}
{-0.4893654}
{-0.78813624}
{0.2505858}
{0.07854772}
{0.76672715}
{0.80903476}
{-0.3230422}
{0.75655}
{-0.22176297}
{-0.15569317}
{-0.31731784}
{0.20476568}
{-0.01759131}
{-0.8045259}
{-0.31128842}
{0.13327877}
{-0.7526265}
{-0.06882794}
{-0.04800565}
{0.122988604}
{-0.91200024}
{-0.4645697}
{-0.04444826}
{-0.6302928}
{-0.91849357}
{-0.21793278}
{-0.4457069}
{-0.26620466}
{-0.16331036}
{-0.2726124}
{0.0870661}
{-0.38219148}
{-0.7921966}
{0.20670573}
{-0.54570895}
{0.6766266}
{-0.10947068}
{0.984924}
{-0.6082526}
{0.57458586}
{-0.662334}
{-0.29874235}
{-0.32323867}
{-0.11873253}
{0.33545464}
{-0.86304027}
{0.45897907}
{-0.7089191}
{0.6806509}
{-0.9530366}
{0.32984418}
{0.55674714}
{-0.31246263}
{-0.10510214}
{-0.36514074}
{0.7402596}
{0.16809766}
{0.17342846}
{0.9989876}
{0.56026644}
{-0.20672424}
{-0.4923728}
{-1.0005969}
{-0.397775}
{0.22212546}
{0.74057955}
{0.65656847}
{0.017148184}
{0.48684567}
{-0.9231723}
{0.40760797}
{-0.8837684}
{0.863758}
{-0.081452444}
{-0.97777396}
{0.11849634}
{-0.74710256}
{0.26526994}
{0.99393624}
{0.057106424}
{-0.28871065}
{-0.6157282}
{-0.93882924}
{0.43899387}
{-0.56863695}
{0.43445963}
{-0.32977897}
{0.47024792}
{0.7267603}
{0.9359452}
{0.27607936}
{-0.7792061}
{0.8655123}
{-0.7662371}
{0.6289043}
{-0.33559424}
{0.790106}
{0.47859138}
{0.58842605}
{0.76647705}
{-0.7409554}
{-0.89648896}
{-0.36056644}
{0.6960942}
{-0.18226369}
{0.78595203}
{-0.78073317}
{0.0073043574}
{0.87790054}
{-0.01732142}
{-0.97099096}
{-0.10261305}
{-0.15948756}
{-0.18056329}
{-0.6860729}
{-0.33150917}
{0.14412753}
{-0.05993874}
{0.5579125}
{0.917515}
{0.44553274}
{0.5077116}
{-0.64875275}
{-0.4662071}
{-0.311513}
{0.6394145}
{0.40248293}
{0.41467994}
{-0.8764263}
{-0.53348523}
{-0.35997468}
{0.31667465}
{-0.35019642}
{-0.6282955}
{0.95765465}
{-0.2041231}
{0.032266546}
{0.7596826}
{-0.4755221}
{0.60020345}
{0.1028146}
{0.3593914}
{0.8959078}
{-0.69198304}
{0.9295389}
{-0.82716733}
{0.9027173}
{-0.15322669}
{0.5279009}
{0.9026851}
{0.21647732}
{0.4764158}
{0.9239885}
{-0.2891348}
{-0.18596704}
{-0.34588605}
{0.9254417}
{-0.537376}
{-0.858671}
{-0.17706878}
{-0.3145824}
{0.7503764}
{-0.6489962}
{-0.26077968}
{0.97394174}
{-0.45042902}
{-0.5255676}
{0.02730267}
{-0.14919288}
{0.22304527}
{-0.10267623}
{-0.4251383}
{-0.7555602}
{0.66581243}
{0.9093768}
{0.45525736}
{-0.78634936}
{-0.9782565}
{-0.8863421}
{-0.37122446}
{0.15561526}
{-0.1662286}
{-0.2266105}
{0.38508648}
{-0.7054594}
{0.04280107}
{0.5374419}
{-0.83988386}
{-0.73496205}
{-0.38852292}
{0.22427313}
{0.01857798}
{-0.8912445}
{0.144679}
{0.8079991}
{-0.30115348}
{0.576245}
{-0.6061788}
{0.7840101}
{-0.8750549}
{-0.4416712}
{-0.25509053}
{0.69147724}
{0.7504651}
{0.9965853}
{0.78445905}
{-0.32157093}
{0.954405}
{-0.23633416}
{-0.42304403}
{0.85828966}
{-0.30453283}
{-0.96850044}
{-0.37983042}
{-0.13643558}
{-0.038168263}
{0.37570542}
{-0.8373044}
{0.404751}
{0.66742104}
{-0.52961737}
{0.6879563}
{0.79376334}
{-0.30396968}
{0.6245708}
{0.6653392}
{-0.7014678}
{-0.8844994}
{-0.07665379}
{-0.14195974}
{0.54173654}
{-0.44284803}
{-0.08318575}
{-0.94682676}
{-0.33592063}
{0.7196142}
{-0.36016184}
{0.4984886}
{0.7510578}
{-0.5978115}
{0.7023403}
{-0.10176213}
{0.58698887}
{0.17274754}
{-0.8318134}
{0.9093229}
{0.79690903}
{-0.6522952}
{-0.5487698}
{-0.97714335}
{0.04657309}
{0.91926473}
{-0.871105}
{-0.57907444}
{-0.35424548}
{-0.32578355}
{0.4890446}
{0.102988884}
{0.8434259}
{-0.060109448}
{-0.8694146}
{-0.785358}
{0.98408717}
{-0.67849714}
{-0.2551008}
{0.27193013}
{0.31104222}
{-0.72976625}
{0.025371717}
{0.14255397}
{-0.4687577}
{-0.7058845}
{0.001923727}
{-0.6914663}
{0.4891005}
{-0.50910085}
{-0.06377824}
{-0.7143529}
{-0.8557084}
{0.22183435}
{-0.9105261}
{-0.86090773}
{-0.45340616}
{-0.9411817}
{0.4673764}
{0.38121465}
{0.1684796}
{0.21578448}
{0.36784595}
{0.8339864}
{-0.18343459}
{-0.09175324}
{0.8936233}
{-0.6572153}
{-0.26896483}
{0.66549796}
{-0.87060267}
{-0.8474441}
{0.3650315}
{0.30937284}
{0.5343966}
{-0.6263447}
{0.33956587}
{0.2346081}
{0.0723993}
{-0.02785727}
{0.34431618}
{-0.91807824}
{-0.24357446}
{-0.7954864}
{0.40478557}
{0.09118788}
{0.8837113}
{0.4954324}
{0.9043469}
{0.4877035}
{0.4395613}
{0.71233845}
{0.85568154}
{0.81312174}
{-0.84769255}
{0.83265847}
{-0.04729262}
{-0.48843658}
{-0.11172517}
{0.28481615}
{0.661057}
{-0.11933276}
{0.38724393}
{0.9923905}
{0.3822861}
{0.06067521}
{0.5008022}
{0.17175512}
{-0.44070536}
{0.6420638}
{0.18346588}
{-0.8841807}
{0.124050304}
{0.7835426}
{-0.9766913}
{-0.22206189}
{0.94096315}
{0.20013632}
{0.72884244}
{-0.29147297}
{0.6705461}
{-0.84253633}
{-0.015017105}
{-0.33202827}
{-0.76918197}
{-0.5410282}
{-0.58502656}
{-0.7283366}
{-0.303481}
{-0.5810477}
{0.94971365}
{0.24965519}
{-0.15200968}
{0.94033504}
{0.6070475}
{0.19579889}
{-0.5209129}
{0.9403804}
{-0.517747}
{-0.29265365}
{-0.7738718}
{0.3526377}
{0.69332665}
{0.108947925}
{0.9789733}
{0.40352866}
{0.85972136}
{0.13077556}
{-0.46895733}
{0.81538}
{0.75204295}
{0.9988352}
{-0.21096334}
{0.6440291}
{0.531315}
{-0.30731085}
{0.92668533}
{-0.7332313}
{-0.5889552}
{0.06066205}
{0.7724658}
{-0.36169082}
{0.21417873}
{-0.5813867}
{0.32450274}
{-0.8260848}
{0.25213045}
{-0.6788713}
{-0.9576897}
{0.9045777}
{-0.3513642}
{-0.821746}
{0.78266126}
{-0.9301508}
{0.2530455}
{0.45453694}
{-0.6347864}
{0.38077277}
{0.069751665}
{-0.3294859}
{0.16955961}
{-0.3972836}
{-0.68911105}
{0.66680175}
{0.29099625}
{-0.45564038}
{-0.56097823}
{0.5504899}
{0.34972647}
{0.53662956}
{0.018579887}
{-0.3609672}
{0.91637444}
{0.46654832}
{0.38617557}
{0.89688617}
{-0.07787068}
{-0.06536277}
{0.4697196}
{-0.49147898}
{-0.22977693}
{-0.8454514}
{-0.088141754}
{0.49773043}
{-0.25213057}
{-0.11915763}
{0.82511514}
{0.24555342}
{0.17578237}
{-0.77001697}
{-0.79435545}
{-0.02201326}
{-0.36151272}
{-0.29982048}
{-0.29400975}
{-0.7326248}
{-0.34414274}
{0.26638693}
{-0.006827904}
{-0.16061671}
{-0.16781028}
{-0.38542134}
{-0.23673566}
{-0.6680811}
{0.8013224}
{0.48722643}
{-0.8163515}
{0.3416118}
{-0.1868387}
{0.9326202}
{-0.5231636}
{-0.41578323}
{0.10872428}
{-0.9350341}
{-0.7083171}
{0.03587358}
{0.7453584}
{0.23438518}
{0.5493137}
{-0.27982312}
{-0.20659287}
{-0.04164655}
{-0.85128695}
{0.2330517}
{-0.43405133}
{-0.7630866}
{-0.4083522}
{-0.6004625}
{-0.36102778}
{0.24655955}
{-0.60283977}
{0.8744833}
{-0.69902426}
{-0.30450612}
{0.3850872}
{-0.5512467}
{0.57703894}
{0.8994021}
{-0.33911806}
{0.38895816}
{-0.15884645}
{0.62001914}
{-0.60272056}
{-0.09843333}
{0.45677322}
{0.2128164}
{0.120507166}
{-0.94211537}
{0.91391534}
{-0.13089903}
{-0.034218382}
{-0.8446}
{-0.13211925}
{0.37420982}
{-0.6297181}
{0.43727893}
{0.8305492}
{0.5971491}
{-0.513985}
{-0.6561113}
{0.20050065}
{0.552931}
{0.77553433}
{-0.95125014}
{-0.11982067}
{0.37405008}
{-0.8439179}
{0.942722}
{0.6144385}
{-0.265585}
{0.93071455}
{-0.06210191}
{-0.9292553}
{0.6788606}
{0.30255765}
{0.3226797}
{0.34452242}
{0.53343695}
{-0.70601207}
{0.25191325}
{0.13344543}
{0.17310207}
{0.7594554}
{-0.8884123}
{0.10956471}
{0.92951363}
{-0.696137}
{0.8119399}
{0.59257}
{0.5071699}
{0.6544487}
{0.9406454}
{-0.6074515}
{-0.4957562}
{0.7192599}
{0.9350504}
{-0.039865326}
{0.89917225}
{0.83384913}
{-0.19696625}
{0.14270584}
{0.29946345}
{-0.18814237}
{0.011065887}
{0.6482915}
{-0.817586}
{0.9622492}
{0.97280854}
{-0.91847855}
{-0.85573345}
{-0.3312276}
{0.51096267}
{0.4121706}
{0.6299433}
{0.15799873}
{0.2050821}
{0.47836393}
{0.12807767}
{-0.5509327}
{-0.4019161}
{0.7743105}
{-0.453435}
{-0.3873852}
{-0.29812247}
{-0.9565919}
{0.7961251}
{0.8458442}
{0.565139}
{0.30647773}
{0.74676436}
{-0.8110176}
{0.62836236}
{-0.9450303}
{0.07610099}
{-0.9791017}
{0.70215195}
{-0.012743069}
{-0.3355413}
{0.4628901}
{0.78559965}
{-0.9283183}
{0.9653117}
{-0.29169208}
{-0.3394664}
{-0.05149157}
{-0.76231796}
{0.1757292}
{-0.59944636}
{0.748934}
{0.62390465}
{-0.14491804}
{0.58359855}
{0.82673806}
{-0.04813559}
{0.5046043}
{-0.56768924}
{-0.69290763}
{-0.27170378}
{0.4191634}
{0.094815895}
{0.1212403}
{0.25431508}
{0.22046201}
{-0.47089344}
{-0.9801541}
{-0.3176518}
{0.25833195}
{0.46730202}
{-0.87639314}
{0.7050976}
{0.009149479}
{-0.64805466}
{0.19060342}
{0.5174324}
{0.19993679}
{0.056881357}
{0.23850791}
{0.33865184}
{0.13642232}
{-0.021737648}
{0.41270584}
{-0.23422773}
{-0.55207974}
{0.054511953}
{-0.94953614}
{-0.78680354}
{-0.94210654}
{-0.63602597}
{0.7515554}
{0.11748831}
{0.6111559}
{0.76712865}
{0.18674247}
{-0.4042533}
{-0.7972}
{0.58168}
{-0.5404766}
{-0.05817802}
{0.6576466}
{-0.110843256}
{-0.2174197}
{0.17661826}
{-0.70332557}
{0.038476396}
{0.4189226}
{-0.38949758}
{0.7603988}
{0.104350254}
{-0.2037936}
{-0.39040738}
{0.9715819}
{0.63827413}
{-0.8763953}
{0.7484185}
{0.8569369}
{-0.11901291}
{0.93864936}
{-0.34793478}
{0.61479396}
{-0.42766768}
{-0.85374385}
{0.96551174}
{0.37277812}
{-0.39718944}
{-0.027735544}
{0.9576277}
{-0.9337657}
{0.6390435}
{0.41925758}
{0.055071045}
{0.47479314}
{0.17667355}
{-0.1541916}
{0.74552715}
{-0.5308779}
{-0.92961687}
{0.7853953}
{-0.8812116}
{-0.029458595}
{0.72655994}
{-0.3075667}
{0.18087403}
{-0.6059051}
{-0.88407797}
{-0.74531513}
{0.7403025}
{-0.36725932}
{-0.076466046}
{0.9697184}
{0.6955876}
{-0.8801182}
{0.57135314}
{-0.38768932}
{0.014749216}
{-0.44758135}
{-0.9743839}
{0.4083257}
{0.7957}
{0.51430553}
{-0.39009997}
{0.4481861}
{0.6541366}
{-0.3459049}
{-0.34531724}
{-0.072161674}
{0.29663616}
{-0.96628076}
{0.021739492}
{-0.40847525}
{0.07750933}
{-0.9541026}
{0.43055442}
{-0.99247634}
{0.90457743}
{-0.97514254}
{0.44755256}
{-0.8097141}
{-0.3682556}
{0.8677291}
{0.060965464}
{-0.56831783}
{0.5559183}
{0.20429127}
{-0.8419643}
{-0.022075118}
{0.45244297}
{-0.34731847}
{0.6469736}
{-0.26915893}
{0.029169725}
{-0.70324546}
{0.07782768}
{0.36043847}
{0.08607473}
{0.2662415}
{0.09561108}
{0.5662869}
{-0.9965075}
{0.5358216}
{0.0016764118}
{-0.9635179}
{-0.14741275}
{0.9986226}
{0.7459097}
{-0.27173173}
{0.52163976}
{-0.087511376}
{0.93529177}
{-0.37126315}
{-0.7256898}
{-0.13939817}
{0.534273}
{0.58109546}
{-0.12607054}
{0.6890678}
{0.09982161}
{-0.9706039}
{0.64101917}
{0.8705844}
{0.6844745}
{-0.605915}
{0.15026198}
{0.02239816}
{0.59184307}
{-0.42033127}
{-0.014102466}
{0.18399756}
{-0.5919017}
{0.93638736}
{-0.36929506}
{-0.216734}
{0.31938055}
{-0.7179494}
{0.78874356}
{-0.7318619}
{-0.39522263}
{-0.50800365}
{-0.113635235}
{-0.3368898}
{0.7006423}
{-0.6052627}
{0.48845777}
{-0.7571476}
{-0.27126303}
{0.774153}
{-0.09022045}
{0.58367485}
{0.70905197}
{-0.6677911}
{0.01719049}
{-0.77899367}
{0.7855566}
{0.8508062}
{0.13873665}
{0.5832316}
{-0.2820439}
{0.43135065}
{-0.7563506}
{0.50617284}
{0.65921384}
{0.8849072}
{0.035004545}
{0.9376895}
{0.9281469}
{0.28036064}
{0.39640492}
{0.26178783}
{-0.21556422}
{-0.45081717}
{-0.244999}
{0.43430203}
{0.61132056}
{-0.3326884}
{-0.8084789}
{0.17126171}
{0.026593719}
{-0.50785476}
{0.40515918}
{-0.3212796}
{-0.3866585}
{-0.4354394}
{0.6876809}
{-0.7489067}
{0.61941}
{0.94417137}
{-0.6531189}
{-0.30148512}
{0.9475915}
{0.48651594}
{-0.4131232}
{-0.8995269}
{0.16092984}
{0.098820135}
{-0.7059012}
{0.26395458}
{0.047486234}
{0.81298345}
{0.16174309}
{-0.65490156}
{-0.1838003}
{-0.58543783}
{-0.8731733}
{-0.9607337}
{0.36493295}
{0.3844604}
{0.7669913}
{-0.20438226}
{-0.82029325}
{-0.79992706}
{-0.5852187}
{-0.9387544}
{0.20455472}
{-0.25473768}
{0.22612111}
{-0.5439201}
{0.59242934}
{0.095013306}
{-0.1537102}
{0.37623662}
{0.28953117}
{0.2037658}
{-0.68625265}
{0.52984565}
{0.6614081}
{-0.74900657}
{0.9375362}
{0.5991754}
{0.28296107}
{-0.25551587}
{0.42067856}
{-0.16422613}
{-0.9439369}
{-0.00080640416}
{0.92813486}
{0.37508696}
{-0.38074523}
{-0.17451413}
{-0.5894504}
{-0.1062413}
{0.38056535}
{0.05466597}
{-0.9452117}
{-0.11315425}
{-0.40767938}
{-0.44069248}
{0.26627535}
{0.69568557}
{-0.22909696}
{0.58441967}
{-0.22366007}
{-0.8153418}
{0.53810304}
{-0.098652914}
{0.5656797}
{-0.5529483}
{-0.36055094}
{0.6638686}
{0.80774635}
{0.8871569}
{0.48401207}
{-0.5300501}
{-0.047299694}
{-0.7419601}
{-0.17546542}
{0.65810746}
{0.6822843}
{0.4588477}
{0.8795015}
{0.3776266}
{-0.9178708}
{-0.64824134}
{-0.28997523}
{0.78599805}
{-0.7368501}
{0.52518934}
{0.44923085}
{-0.951902}
{-0.84516627}
{0.5131909}
{0.00075809855}
{-0.5108686}
{0.6010942}
{-0.32408696}
{-0.48651057}
{0.09444682}
{0.88647264}
{0.0191509}
{-0.94031173}
{0.101154014}
{-0.46827513}
{-0.2614203}
{0.12788932}
{0.24758665}
{0.47553223}
{-0.6332424}
{0.39095634}
{-0.72683007}
{-0.8434103}
{-0.3584352}
{0.84203976}
{0.6665155}
{0.6690995}
{-0.656719}
{-0.16342409}
{-0.24824126}
{0.43323153}
{0.6380026}
{-0.083798245}
{-0.5105491}
{-0.62359244}
{0.8732738}
{0.54727215}
{-0.35263115}
{0.027324842}
{0.04716151}
{0.21830694}
{-0.88242847}
{0.12848584}
{-0.69930106}
{-0.30064994}
{-0.40542275}
{-0.09020837}
{-0.90209323}
{-0.0025270712}
{-0.8834663}
{-0.25791556}
{0.0794913}
{0.54550403}
{0.7339875}
{-0.8716572}
{0.6718103}
{0.47363204}
{-0.81823975}
{0.50076336}
{-0.25117952}
{-0.6819244}
{-0.001}
{-0.001}
{-0.001}
{-0.001}
{-0.001}
{-0.001}
{-0.001}
{-0.001}
{-0.001}
{-0.001}
{-0.001}
{-0.001}
{-0.001}
{-0.001}
{-0.001}
{-0.001}
{-0.001}
{-0.001}
{-0.001}
{-0.001}
{-0.001}
{-0.001}
{-0.001}
{-0.001}
{-0.001}
{-0.001}
{-0.001}
{-0.001}
{-0.001}
{-0.001}
{-0.001}
{-0.001}
{-0.001}
{-0.001}
{-0.001}
{-0.001}
{-0.001}
{-0.001}
{-0.001}
{-0.001}
{-0.001}
{-0.001}
{-0.001}
{-0.001}
{-0.001}
{-0.001}
{-0.001}
{-0.001}
{-0.001}
{-0.001}
{-0.001}
{-0.001}
{-0.001}
{-0.001}
{-0.001}
{-0.001}
{-0.001}
{-0.001}
{-0.001}
{-0.001}
{-0.001}
{-0.001}
{-0.001}
{-0.001}
{-0.001}
{-0.001}
{-0.001}
{-0.001}
{-0.001}
{-0.001}
{-0.001}
{-0.001}
{-0.001}
{-0.001}
{-0.001}
{-0.001}
{-0.001}
{-0.001}
{-0.001}
{-0.001}
{-0.001}
{-0.001}
{-0.001}
{-0.0009960785}
{-0.0009960785}
{-0.0009960785}
{-0.001}
{-0.001}
{-0.001}
{-0.001}
{-0.001}
{-0.0009921569}
{-0.0009921569}
{-0.0009921569}
{-0.001}
{-0.001}
{-0.001}
{-0.001}
{-0.001}
{-0.0009882353}
{-0.0009960785}
{-0.0009921569}
{-0.001}
{-0.0009960785}
{-0.001}
{-0.001}
{-0.001}
{-0.0009921569}
{-0.001}
{-0.0009960785}
{-0.001}
{-0.0009882353}
{-0.0009921569}
{-0.001}
{-0.001}
{-0.0009960785}
{-0.0009921569}
{-0.001}
{-0.001}
{-0.001}
{-0.0009960785}
{-0.001}
{-0.001}
{-0.00035686276}
{-0.0003529412}
{-0.00037254905}
{-0.001}
{-0.0003294118}
{-0.00032549023}
{-0.00034509806}
{-0.001}
{-0.0003058824}
{-0.0003019608}
{-0.00032156866}
{-0.001}
{-0.0003058824}
{-0.0003019608}
{-0.00032156866}
{-0.001}
{-0.0003058824}
{-0.00030980396}
{-0.00032549023}
{-0.001}
{-0.0003019608}
{-0.0003058824}
{-0.00032156866}
{-0.001}
{-0.00031372553}
{-0.0003176471}
{-0.00033333336}
{-0.001}
{-0.0003058824}
{-0.00030980396}
{-0.00032549023}
{-0.001}
{-0.0003058824}
{-0.0003019608}
{-0.00032156866}
{-0.001}
{-0.0002901961}
{-0.00028627453}
{-0.0003058824}
{-0.001}
{-0.0002901961}
{-0.00028627453}
{-0.0003058824}
{-0.001}
{-0.0003294118}
{-0.00032549023}
{-0.00034509806}
{-0.001}
{-0.0003019608}
{-0.00029803923}
{-0.0003176471}
{-0.001}
{-0.00027450983}
{-0.00027058827}
{-0.0002901961}
{-0.001}
{-0.00026274513}
{-0.00026274513}
{-0.00027058827}
{-0.001}
{-0.00025882357}
{-0.00025882357}
{-0.0002666667}
{-0.001}
{-0.00026274513}
{-0.00026274513}
{-0.00027058827}
{-0.001}
{-0.00026274513}
{-0.00026274513}
{-0.00027058827}
{-0.001}
{-0.000254902}
{-0.000254902}
{-0.00026274513}
{-0.001}
{-0.00026274513}
{-0.00026274513}
{-0.00027058827}
{-0.001}
{-0.00028627453}
{-0.00028627453}
{-0.00029411766}
{-0.001}
{-0.0003058824}
{-0.0003058824}
{-0.00031372553}
{-0.001}
{-0.0003019608}
{-0.0003058824}
{-0.00031372553}
{-0.001}
{-0.00040784315}
{-0.00041176472}
{-0.00041960788}
{-0.001}
{-0.00053725496}
{-0.00054117653}
{-0.00054901966}
{-0.001}
{-0.0009960785}
{-0.001}
{-0.001}
{-0.001}
{-0.0009960785}
{-0.001}
{-0.001}
{-0.001}
{-0.0009843138}
{-0.0009882353}
{-0.0009960785}
{-0.001}
{-0.0009960785}
{-0.001}
{-0.001}
{-0.001}
{-0.0009882353}
{-0.0009921569}
{-0.001}
{-0.001}
{-0.001}
{-0.001}
{-0.001}
{-0.001}
{-0.001}
{-0.001}
{-0.001}
{-0.001}
{-0.001}
{-0.001}
{-0.001}
{-0.001}
{-0.001}
{-0.001}
{-0.001}
{-0.001}
{-0.001}
{-0.001}
{-0.001}
{-0.001}
{-0.001}
{-0.001}
{-0.001}
{-0.001}
{-0.001}
{-0.001}
{-0.001}
{-0.001}
{-0.001}
{-0.001}
{-0.001}
{-0.001}
{-0.001}
{-0.001}
{-0.001}
{-0.001}
{-0.001}
{-0.001}
{-0.001}
{-0.001}
{-0.001}
{-0.001}
{-0.001}
{-0.001}
{-0.001}
{-0.001}
{-0.001}
{-0.001}
{-0.001}
{-0.001}
{-0.001}
{-0.001}
{-0.001}
{-0.001}
{-0.001}
{-0.001}
{-0.001}
{-0.001}
{-0.001}
{-0.001}
{-0.001}
{-0.001}
{-0.001}
{-0.001}
{-0.001}
{-0.001}
{-0.001}
{-0.001}
{-0.001}
{-0.001}
{-0.001}
{-0.001}
{-0.001}
{-0.001}
{-0.001}
{-0.001}
{-0.001}
{-0.001}
{-0.001}
{-0.001}
{-0.001}
{-0.001}
{-0.001}
{-0.001}
{-0.001}
{-0.001}
{-0.001}
{-0.001}
{-0.001}
{-0.001}
{-0.001}
{-0.001}
{-0.001}
{-0.001}
{-0.001}
{-0.001}
{-0.001}
{-0.001}
{-0.001}
{-0.001}
{-0.001}
{-0.001}
{-0.001}
{-0.001}
{-0.001}
{-0.001}
{-0.001}
{-0.001}
{-0.001}
{-0.001}
{-0.001}
{-0.001}
{-0.001}
{-0.001}
{-0.001}
{-0.001}
{-0.001}
{-0.001}
{-0.001}
{-0.001}
{-0.001}
{-0.001}
{-0.001}
{-0.001}
{-0.001}
{-0.001}
{-0.001}
{-0.001}
{-0.001}
{-0.001}
{-0.001}
{-0.001}
{-0.001}
{-0.001}
{-0.001}
{-0.001}
{-0.001}
{-0.001}
{-0.001}
{-0.001}
{-0.001}
{-0.001}
{-0.001}
{-0.001}
{-0.001}
{-0.001}
{-0.001}
{-0.001}
{-0.001}
{-0.001}
{-0.001}
{-0.001}
{-0.001}
{-0.001}
{-0.001}
{-0.001}
{-0.001}
{-0.001}
{-0.001}
{-0.001}
{-0.001}
{-0.001}
{-0.001}
{-0.001}
{-0.001}
{-0.001}
{-0.001}
{-0.001}
{-0.001}
{-0.001}
{-0.001}
{-0.001}
{-0.001}
{-0.001}
{-0.001}
{-0.001}
{-0.001}
{-0.001}
{-0.001}
{-0.001}
{-0.001}
{-0.001}
{-0.001}
{-0.001}
{-0.001}
{-0.001}
{-0.001}
{-0.001}
{-0.001}
{-0.001}
{-0.001}
{-0.001}
{-0.001}
{-0.001}
{-0.001}
{-0.001}
{-0.001}
{-0.001}
{-0.001}
{-0.001}
{-0.001}
{-0.001}
{-0.001}
{-0.001}
{-0.001}
{-0.001}
{-0.001}
{-0.001}
{-0.001}
{-0.001}
{-0.001}
{-0.001}
{-0.001}
{-0.001}
{-0.001}
{-0.001}
{-0.001}
{-0.001}
{-0.001}
{-0.001}
{-0.001}
{-0.001}
{-0.001}
{-0.001}
{-0.001}
{-0.001}
{-0.001}
{-0.001}
{-0.001}
{-0.001}
{-0.001}
{-0.001}
{-0.001}
{-0.001}
{-0.001}
{-0.001}
{-0.001}
{-0.001}
{-0.001}
{-0.001}
{-0.001}
{-0.001}
{-0.001}
{-0.001}
{-0.0009921569}
{-0.0009921569}
{-0.0009921569}
{-0.001}
{-0.001}
{-0.001}
{-0.001}
{-0.001}
{-0.001}
{-0.001}
{-0.001}
{-0.001}
{-0.0009960785}
{-0.001}
{-0.001}
{-0.001}
{-0.0009921569}
{-0.001}
{-0.0009960785}
{-0.001}
{-0.0009921569}
{-0.001}
{-0.0009960785}
{-0.001}
{-0.0009960785}
{-0.001}
{-0.001}
{-0.001}
{-0.0008901961}
{-0.00088627456}
{-0.0009058824}
{-0.001}
{-0.0003921569}
{-0.00038823532}
{-0.00040784315}
{-0.001}
{-0.00033333336}
{-0.0003294118}
{-0.00034901962}
{-0.001}
{-0.0003019608}
{-0.00029803923}
{-0.0003176471}
{-0.001}
{-0.0002784314}
{-0.00027450983}
{-0.00029411766}
{-0.001}
{-0.00029411766}
{-0.0002901961}
{-0.00030980396}
{-0.001}
{-0.00028235296}
{-0.00028627453}
{-0.0003019608}
{-0.001}
{-0.00031372553}
{-0.0003176471}
{-0.00033333336}
{-0.001}
{-0.00031372553}
{-0.0003176471}
{-0.00033333336}
{-0.001}
{-0.00032156866}
{-0.00032549023}
{-0.0003411765}
{-0.001}
{-0.00030980396}
{-0.0003058824}
{-0.00032549023}
{-0.001}
{-0.0002901961}
{-0.00028627453}
{-0.0003058824}
{-0.001}
{-0.00029411766}
{-0.0002901961}
{-0.00030980396}
{-0.001}
{-0.0003019608}
{-0.00029803923}
{-0.0003176471}
{-0.001}
{-0.00025882357}
{-0.000254902}
{-0.00027450983}
{-0.001}
{-0.0002666667}
{-0.00026274513}
{-0.00028235296}
{-0.001}
{-0.00025098043}
{-0.00025098043}
{-0.00025882357}
{-0.001}
{-0.0002784314}
{-0.0002784314}
{-0.00028627453}
{-0.001}
{-0.0002784314}
{-0.0002784314}
{-0.00028627453}
{-0.001}
{-0.000254902}
{-0.000254902}
{-0.00026274513}
{-0.001}
{-0.00026274513}
{-0.00026274513}
{-0.00027058827}
{-0.001}
{-0.00028627453}
{-0.00028627453}
{-0.00029411766}
{-0.001}
{-0.00027450983}
{-0.00027450983}
{-0.00028235296}
{-0.001}
{-0.00026274513}
{-0.00026274513}
{-0.00027058827}
{-0.001}
{-0.0002784314}
{-0.00028235296}
{-0.0002901961}
{-0.001}
{-0.0002784314}
{-0.00028235296}
{-0.0002901961}
{-0.001}
{-0.00029803923}
{-0.0003019608}
{-0.00030980396}
{-0.001}
{-0.0005333334}
{-0.00053725496}
{-0.0005450981}
{-0.001}
{-0.0009372549}
{-0.0009411765}
{-0.0009490197}
{-0.001}
{-0.0009960785}
{-0.001}
{-0.001}
{-0.001}
{-0.0009960785}
{-0.001}
{-0.001}
{-0.001}
{-0.0009921569}
{-0.0009960785}
{-0.001}
{-0.001}
{-0.001}
{-0.001}
{-0.001}
{-0.001}
{-0.001}
{-0.001}
{-0.001}
{-0.001}
{-0.001}
{-0.001}
{-0.001}
{-0.001}
{-0.001}
{-0.001}
{-0.001}
{-0.001}
{-0.001}
{-0.001}
{-0.001}
{-0.001}
{-0.001}
{-0.001}
{-0.001}
{-0.001}
{-0.001}
{-0.001}
{-0.001}
{-0.001}
{-0.001}
{-0.001}
{-0.001}
{-0.001}
{-0.001}
{-0.001}
{-0.001}
{-0.001}
{-0.001}
{-0.001}
{-0.001}
{-0.001}
{-0.001}
{-0.001}
{-0.001}
{-0.001}
{-0.001}
{-0.001}
{-0.001}
{-0.001}
{-0.001}
{-0.001}
{-0.001}
{-0.001}
{-0.001}
{-0.001}
{-0.001}
{-0.001}
{-0.001}
{-0.001}
{-0.001}
{-0.001}
{-0.001}
{-0.001}
{-0.001}
{-0.001}
{-0.001}
{-0.001}
{-0.001}
{-0.001}
{-0.001}
{-0.001}
{-0.001}
{-0.001}
{-0.001}
{-0.001}
{-0.001}
{-0.001}
{-0.001}
{-0.001}
{-0.001}
{-0.001}
{-0.001}
{-0.001}
{-0.001}
{-0.001}
{-0.001}
{-0.001}
{-0.001}
{-0.001}
{-0.001}
{-0.001}
{-0.001}
{-0.001}
{-0.001}
{-0.001}
{-0.001}
{-0.001}
{-0.001}
{-0.001}
{-0.001}
{-0.001}
{-0.001}
{-0.001}
{-0.001}
{-0.001}
{-0.001}
{-0.001}
{-0.001}
{-0.001}
{-0.001}
{-0.001}
{-0.001}
{-0.001}
{-0.001}
{-0.001}
{-0.001}
{-0.001}
{-0.001}
{-0.001}
{-0.001}
{-0.001}
{-0.001}
{-0.001}
{-0.001}
{-0.001}
{-0.001}
{-0.001}
{-0.001}
{-0.001}
{-0.001}
{-0.001}
{-0.001}
{-0.001}
{-0.001}
{-0.001}
{-0.001}
{-0.001}
{-0.001}
{-0.001}
{-0.001}
{-0.001}
{-0.001}
{-0.001}
{-0.001}
{-0.001}
{-0.001}
{-0.001}
{-0.001}
{-0.001}
{-0.001}
{-0.001}
{-0.001}
{-0.001}
{-0.001}
{-0.001}
{-0.001}
{-0.001}
{-0.001}
{-0.001}
{-0.001}
{-0.001}
{-0.001}
{-0.001}
{-0.001}
{-0.001}
{-0.001}
{-0.001}
{-0.001}
{-0.001}
{-0.001}
{-0.001}
{-0.001}
{-0.001}
{-0.001}
{-0.001}
{-0.001}
{-0.001}
{-0.001}
{-0.001}
{-0.001}
{-0.001}
{-0.001}
{-0.001}
{-0.001}
{-0.001}
{-0.001}
{-0.001}
{-0.001}
{-0.001}
{-0.001}
{-0.001}
{-0.001}
{-0.001}
{-0.001}
{-0.001}
{-0.001}
{-0.001}
{-0.001}
{-0.001}
{-0.001}
{-0.001}
{-0.001}
{-0.001}
{-0.001}
{-0.001}
{-0.001}
{-0.001}
{-0.001}
{-0.001}
{-0.001}
{-0.001}
{-0.001}
{-0.001}
{-0.001}
{-0.001}
{-0.001}
{-0.001}
{-0.001}
{-0.001}
{-0.001}
{-0.001}
{-0.001}
{-0.001}
{-0.001}
{-0.001}
{-0.001}
{-0.001}
{-0.001}
{-0.001}
{-0.001}
{-0.001}
{-0.001}
{-0.001}
{-0.001}
{-0.001}
{-0.001}
{-0.001}
{-0.001}
{-0.001}
{-0.001}
{-0.001}
{-0.001}
{-0.001}
{-0.001}
{-0.001}
{-0.0009921569}
{-0.0009921569}
{-0.0009921569}
{-0.001}
{-0.001}
{-0.001}
{-0.001}
{-0.001}
{-0.0009921569}
{-0.0009921569}
{-0.001}
{-0.001}
{-0.0009960785}
{-0.001}
{-0.001}
{-0.001}
{-0.0009960785}
{-0.001}
{-0.001}
{-0.001}
{-0.00095294125}
{-0.0009568628}
{-0.00096470595}
{-0.001}
{-0.0004627451}
{-0.00046666668}
{-0.00047450984}
{-0.001}
{-0.00043529415}
{-0.00043137258}
{-0.0004509804}
{-0.001}
{-0.00029803923}
{-0.00029411766}
{-0.00031372553}
{-0.001}
{-0.00030980396}
{-0.0003058824}
{-0.00032549023}
{-0.001}
{-0.0003019608}
{-0.00029803923}
{-0.0003176471}
{-0.001}
{-0.0003019608}
{-0.00029803923}
{-0.0003176471}
{-0.001}
{-0.0002901961}
{-0.00028627453}
{-0.0003058824}
{-0.001}
{-0.00027058827}
{-0.0002666667}
{-0.00028627453}
{-0.001}
{-0.00030980396}
{-0.0003058824}
{-0.00032549023}
{-0.001}
{-0.0002901961}
{-0.00028627453}
{-0.0003058824}
{-0.001}
{-0.00034509806}
{-0.0003411765}
{-0.00036078435}
{-0.001}
{-0.00028627453}
{-0.00028235296}
{-0.0003019608}
{-0.001}
{-0.00028235296}
{-0.0002784314}
{-0.00029803923}
{-0.001}
{-0.00027058827}
{-0.0002666667}
{-0.00028627453}
{-0.001}
{-0.000254902}
{-0.00025098043}
{-0.00027058827}
{-0.001}
{-0.0002784314}
{-0.00027450983}
{-0.00029411766}
{-0.001}
{-0.00026274513}
{-0.00025882357}
{-0.0002784314}
{-0.001}
{-0.00027450983}
{-0.0002666667}
{-0.0002784314}
{-0.001}
{-0.0002666667}
{-0.00025882357}
{-0.00027058827}
{-0.001}
{-0.00025882357}
{-0.00025098043}
{-0.00026274513}
{-0.001}
{-0.00025098043}
{-0.00024313727}
{-0.000254902}
{-0.001}
{-0.0002666667}
{-0.0002666667}
{-0.00027450983}
{-0.001}
{-0.00026274513}
{-0.00026274513}
{-0.00027058827}
{-0.001}
{-0.00024313727}
{-0.00024313727}
{-0.00025098043}
{-0.001}
{-0.00026274513}
{-0.00026274513}
{-0.00027058827}
{-0.001}
{-0.00027058827}
{-0.00027450983}
{-0.00028235296}
{-0.001}
{-0.0002666667}
{-0.00027058827}
{-0.0002784314}
{-0.001}
{-0.00028235296}
{-0.00028627453}
{-0.0003019608}
{-0.001}
{-0.00030980396}
{-0.00031372553}
{-0.0003294118}
{-0.001}
{-0.00048235297}
{-0.00048627454}
{-0.00050196087}
{-0.001}
{-0.0009176471}
{-0.00092156866}
{-0.0009372549}
{-0.001}
{-0.0009960785}
{-0.001}
{-0.001}
{-0.001}
{-0.0009882353}
{-0.0009921569}
{-0.001}
{-0.001}
{-0.001}
{-0.001}
{-0.001}
{-0.001}
{-0.001}
{-0.001}
{-0.001}
{-0.001}
{-0.001}
{-0.001}
{-0.001}
{-0.001}
{-0.001}
{-0.001}
{-0.001}
{-0.001}
{-0.001}
{-0.001}
{-0.001}
{-0.001}
{-0.001}
{-0.001}
{-0.001}
{-0.001}
{-0.001}
{-0.001}
{-0.001}
{-0.001}
{-0.001}
{-0.001}
{-0.001}
{-0.001}
{-0.001}
{-0.001}
{-0.001}
{-0.001}
{-0.001}
{-0.001}
{-0.001}
{-0.001}
{-0.001}
{-0.001}
{-0.001}
{-0.001}
{-0.001}
{-0.001}
{-0.001}
{-0.001}
{-0.001}
{-0.001}
{-0.001}
{-0.001}
{-0.001}
{-0.001}
{-0.001}
{-0.001}
{-0.001}
{-0.001}
{-0.001}
{-0.001}
{-0.001}
{-0.001}
{-0.001}
{-0.001}
{-0.001}
{-0.001}
{-0.001}
{-0.001}
{-0.001}
{-0.001}
{-0.001}
{-0.001}
{-0.001}
{-0.001}
{-0.001}
{-0.001}
{-0.001}
{-0.001}
{-0.001}
{-0.001}
{-0.001}
{-0.001}
{-0.001}
{-0.001}
{-0.001}
{-0.001}
{-0.001}
{-0.001}
{-0.001}
{-0.001}
{-0.001}
{-0.001}
{-0.001}
{-0.001}
{-0.001}
{-0.001}
{-0.001}
{-0.001}
{-0.001}
{-0.001}
{-0.001}
{-0.001}
{-0.001}
{-0.001}
{-0.001}
{-0.001}
{-0.001}
{-0.001}
{-0.001}
{-0.001}
{-0.001}
{-0.001}
{-0.001}
{-0.001}
{-0.001}
{-0.001}
{-0.001}
{-0.001}
{-0.001}
{-0.001}
{-0.001}
{-0.001}
{-0.001}
{-0.001}
{-0.001}
{-0.001}
{-0.001}
{-0.001}
{-0.001}
{-0.001}
{-0.001}
{-0.001}
{-0.001}
{-0.001}
{-0.001}
{-0.001}
{-0.001}
{-0.001}
{-0.001}
{-0.001}
{-0.001}
{-0.001}
{-0.001}
{-0.001}
{-0.001}
{-0.001}
{-0.001}
{-0.001}
{-0.001}
{-0.001}
{-0.001}
{-0.001}
{-0.001}
{-0.001}
{-0.001}
{-0.001}
{-0.001}
{-0.001}
{-0.001}
{-0.001}
{-0.001}
{-0.001}
{-0.001}
{-0.001}
{-0.001}
{-0.001}
{-0.001}
{-0.001}
{-0.001}
{-0.001}
{-0.001}
{-0.001}
{-0.001}
{-0.001}
{-0.001}
{-0.001}
{-0.001}
{-0.001}
{-0.001}
{-0.001}
{-0.001}
{-0.001}
{-0.001}
{-0.001}
{-0.001}
{-0.001}
{-0.001}
{-0.001}
{-0.001}
{-0.001}
{-0.001}
{-0.001}
{-0.001}
{-0.001}
{-0.001}
{-0.001}
{-0.001}
{-0.001}
{-0.001}
{-0.001}
{-0.001}
{-0.001}
{-0.001}
{-0.001}
{-0.001}
{-0.001}
{-0.001}
{-0.001}
{-0.001}
{-0.001}
{-0.001}
{-0.001}
{-0.001}
{-0.001}
{-0.001}
{-0.001}
{-0.001}
{-0.001}
{-0.001}
{-0.001}
{-0.001}
{-0.001}
{-0.001}
{-0.001}
{-0.001}
{-0.001}
{-0.001}
{-0.001}
{-0.001}
{-0.001}
{-0.001}
{-0.001}
{-0.001}
{-0.001}
{-0.001}
{-0.001}
{-0.001}
{-0.001}
{-0.001}
{-0.001}
{-0.001}
{-0.001}
{-0.001}
{-0.001}
{-0.001}
{-0.001}
{-0.001}
{-0.001}
{-0.001}
{-0.001}
{-0.001}
{-0.001}
{-0.001}
{-0.001}
{-0.001}
{-0.001}
{-0.0009960785}
{-0.001}
{-0.001}
{-0.001}
{-0.0009490197}
{-0.00095294125}
{-0.0009607844}
{-0.001}
{-0.0005686275}
{-0.00057254906}
{-0.0005803922}
{-0.001}
{-0.00032156866}
{-0.00032549023}
{-0.00033333336}
{-0.001}
{-0.0003411765}
{-0.00033725493}
{-0.00035686276}
{-0.001}
{-0.00031372553}
{-0.00030980396}
{-0.0003294118}
{-0.001}
{-0.00031372553}
{-0.00030980396}
{-0.0003294118}
{-0.001}
{-0.00028627453}
{-0.00028235296}
{-0.0003019608}
{-0.001}
{-0.00029411766}
{-0.0002901961}
{-0.00030980396}
{-0.001}
{-0.00027450983}
{-0.00027058827}
{-0.0002901961}
{-0.001}
{-0.00028627453}
{-0.00028235296}
{-0.0003019608}
{-0.001}
{-0.00031372553}
{-0.00030980396}
{-0.0003294118}
{-0.001}
{-0.00031372553}
{-0.00030980396}
{-0.0003294118}
{-0.001}
{-0.0003019608}
{-0.00029803923}
{-0.0003176471}
{-0.001}
{-0.00029803923}
{-0.00029411766}
{-0.00031372553}
{-0.001}
{-0.00028235296}
{-0.0002784314}
{-0.00029803923}
{-0.001}
{-0.00027058827}
{-0.0002666667}
{-0.00028627453}
{-0.001}
{-0.00028627453}
{-0.00028235296}
{-0.0003019608}
{-0.001}
{-0.00027450983}
{-0.00027058827}
{-0.0002901961}
{-0.001}
{-0.00030980396}
{-0.0003058824}
{-0.00032549023}
{-0.001}
{-0.0002784314}
{-0.00027058827}
{-0.00028235296}
{-0.001}
{-0.00027450983}
{-0.0002666667}
{-0.0002784314}
{-0.001}
{-0.00027058827}
{-0.00026274513}
{-0.00027450983}
{-0.001}
{-0.00028235296}
{-0.00027450983}
{-0.00028627453}
{-0.001}
{-0.00025882357}
{-0.00025882357}
{-0.0002666667}
{-0.001}
{-0.00024705884}
{-0.00024705884}
{-0.000254902}
{-0.001}
{-0.0002666667}
{-0.0002666667}
{-0.00027450983}
{-0.001}
{-0.00024705884}
{-0.00024705884}
{-0.000254902}
{-0.001}
{-0.00026274513}
{-0.0002666667}
{-0.00027450983}
{-0.001}
{-0.00027058827}
{-0.00027450983}
{-0.00028235296}
{-0.001}
{-0.00028235296}
{-0.00028627453}
{-0.0003019608}
{-0.001}
{-0.0002784314}
{-0.00028235296}
{-0.00029803923}
{-0.001}
{-0.00029803923}
{-0.0003019608}
{-0.0003176471}
{-0.001}
{-0.00045882355}
{-0.0004627451}
{-0.0004784314}
{-0.001}
{-0.00081176474}
{-0.0008156863}
{-0.00083137257}
{-0.001}
{-0.0009960785}
{-0.001}
{-0.001}
{-0.001}
{-0.001}
{-0.001}
{-0.001}
{-0.001}
{-0.001}
{-0.001}
{-0.001}
{-0.001}
{-0.001}
{-0.001}
{-0.001}
{-0.001}
{-0.001}
{-0.001}
{-0.001}
{-0.001}
{-0.001}
{-0.001}
{-0.001}
{-0.001}
{-0.001}
{-0.001}
{-0.001}
{-0.001}
{-0.001}
{-0.001}
{-0.001}
{-0.001}
{-0.001}
{-0.001}
{-0.001}
{-0.001}
{-0.001}
{-0.001}
{-0.001}
{-0.001}
{-0.001}
{-0.001}
{-0.001}
{-0.001}
{-0.001}
{-0.001}
{-0.001}
{-0.001}
{-0.001}
{-0.001}
{-0.001}
{-0.001}
{-0.001}
{-0.001}
{-0.001}
{-0.001}
{-0.001}
{-0.001}
{-0.001}
{-0.001}
{-0.001}
{-0.001}
{-0.001}
{-0.001}
{-0.001}
{-0.001}
{-0.001}
{-0.001}
{-0.001}
{-0.001}
{-0.001}
{-0.001}
{-0.001}
{-0.001}
{-0.001}
{-0.001}
{-0.001}
{-0.001}
{-0.001}
{-0.001}
{-0.001}
{-0.001}
{-0.001}
{-0.001}
{-0.001}
{-0.001}
{-0.001}
{-0.001}
{-0.001}
{-0.001}
{-0.001}
{-0.001}
{-0.001}
{-0.001}
{-0.001}
{-0.001}
{-0.001}
{-0.001}
{-0.001}
{-0.001}
{-0.001}
{-0.001}
{-0.001}
{-0.001}
{-0.001}
{-0.001}
{-0.001}
{-0.001}
{-0.001}
{-0.001}
{-0.001}
{-0.001}
{-0.001}
{-0.001}
{-0.001}
{-0.001}
{-0.001}
{-0.001}
{-0.001}
{-0.001}
{-0.001}
{-0.001}
{-0.001}
{-0.001}
{-0.001}
{-0.001}
{-0.001}
{-0.001}
{-0.001}
{-0.001}
{-0.001}
{-0.001}
{-0.001}
{-0.001}
{-0.001}
{-0.001}
{-0.001}
{-0.001}
{-0.001}
{-0.001}
{-0.001}
{-0.001}
{-0.001}
{-0.001}
{-0.001}
{-0.001}
{-0.001}
{-0.001}
{-0.001}
{-0.001}
{-0.001}
{-0.001}
{-0.001}
{-0.001}
{-0.001}
{-0.001}
{-0.001}
{-0.001}
{-0.001}
{-0.001}
{-0.001}
{-0.001}
{-0.001}
{-0.001}
{-0.001}
{-0.001}
{-0.001}
{-0.001}
{-0.001}
{-0.001}
{-0.001}
{-0.001}
{-0.001}
{-0.001}
{-0.001}
{-0.001}
{-0.001}
{-0.001}
{-0.001}
{-0.001}
{-0.001}
{-0.001}
{-0.001}
{-0.001}
{-0.001}
{-0.001}
{-0.001}
{-0.001}
{-0.001}
{-0.001}
{-0.001}
{-0.001}
{-0.001}
{-0.001}
{-0.001}
{-0.001}
{-0.001}
{-0.001}
{-0.001}
{-0.001}
{-0.001}
{-0.001}
{-0.001}
{-0.001}
{-0.001}
{-0.001}
{-0.001}
{-0.001}
{-0.001}
{-0.001}
{-0.001}
{-0.001}
{-0.001}
{-0.001}
{-0.001}
{-0.001}
{-0.001}
{-0.001}
{-0.001}
{-0.001}
{-0.001}
{-0.001}
{-0.001}
{-0.001}
{-0.001}
{-0.001}
{-0.001}
{-0.001}
{-0.001}
{-0.001}
{-0.001}
{-0.001}
{-0.001}
{-0.001}
{-0.001}
{-0.001}
{-0.001}
{-0.001}
{-0.001}
{-0.001}
{-0.001}
{-0.001}
{-0.001}
{-0.001}
{-0.001}
{-0.001}
{-0.001}
{-0.001}
{-0.0009921569}
{-0.0009921569}
{-0.001}
{-0.001}
{-0.001}
{-0.001}
{-0.001}
{-0.001}
{-0.0009960785}
{-0.0009960785}
{-0.001}
{-0.001}
{-0.0009294118}
{-0.00093333336}
{-0.0009411765}
{-0.001}
{-0.00048627454}
{-0.0004901961}
{-0.00049803924}
{-0.001}
{-0.00034509806}
{-0.00034901962}
{-0.00036470592}
{-0.001}
{-0.0003176471}
{-0.00032156866}
{-0.00033725493}
{-0.001}
{-0.00032156866}
{-0.0003176471}
{-0.00033725493}
{-0.001}
{-0.00029803923}
{-0.00029411766}
{-0.00031372553}
{-0.001}
{-0.00029803923}
{-0.00029411766}
{-0.00031372553}
{-0.001}
{-0.00027450983}
{-0.00027058827}
{-0.0002901961}
{-0.001}
{-0.0002666667}
{-0.00026274513}
{-0.00028235296}
{-0.001}
{-0.0002901961}
{-0.00028627453}
{-0.0003058824}
{-0.001}
{-0.0002901961}
{-0.00028627453}
{-0.00030980396}
{-0.001}
{-0.00029411766}
{-0.0002901961}
{-0.00031372553}
{-0.001}
{-0.00028235296}
{-0.0002784314}
{-0.0003019608}
{-0.001}
{-0.0002784314}
{-0.00027450983}
{-0.00029803923}
{-0.001}
{-0.00028235296}
{-0.0002784314}
{-0.00029803923}
{-0.001}
{-0.0002901961}
{-0.00028627453}
{-0.0003058824}
{-0.001}
{-0.00029803923}
{-0.00029411766}
{-0.00031372553}
{-0.001}
{-0.00029803923}
{-0.00029411766}
{-0.00031372553}
{-0.001}
{-0.0002901961}
{-0.00028627453}
{-0.0003058824}
{-0.001}
{-0.0003019608}
{-0.00029803923}
{-0.0003176471}
{-0.001}
{-0.0004627451}
{-0.00045490198}
{-0.00047450984}
{-0.001}
{-0.00042352945}
{-0.00041568629}
{-0.00043529415}
{-0.001}
{-0.00028235296}
{-0.00027450983}
{-0.00029411766}
{-0.001}
{-0.0002901961}
{-0.00028235296}
{-0.0003019608}
{-0.001}
{-0.0002666667}
{-0.0002666667}
{-0.00027450983}
{-0.001}
{-0.000254902}
{-0.000254902}
{-0.00026274513}
{-0.001}
{-0.00027450983}
{-0.00027450983}
{-0.00028235296}
{-0.001}
{-0.000254902}
{-0.000254902}
{-0.00026274513}
{-0.001}
{-0.00027058827}
{-0.00027058827}
{-0.0002784314}
{-0.001}
{-0.000254902}
{-0.000254902}
{-0.00026274513}
{-0.001}
{-0.0002784314}
{-0.00028235296}
{-0.00029803923}
{-0.001}
{-0.00028235296}
{-0.00028627453}
{-0.0003019608}
{-0.001}
{-0.00026274513}
{-0.0002666667}
{-0.00028235296}
{-0.001}
{-0.00028235296}
{-0.00028627453}
{-0.0003019608}
{-0.001}
{-0.00046666668}
{-0.00047058825}
{-0.00048627454}
{-0.001}
{-0.0009960785}
{-0.001}
{-0.001}
{-0.001}
{-0.0009960785}
{-0.001}
{-0.001}
{-0.001}
{-0.0009960785}
{-0.001}
{-0.001}
{-0.001}
{-0.0009960785}
{-0.001}
{-0.001}
{-0.001}
{-0.0009921569}
{-0.0009960785}
{-0.001}
{-0.001}
{-0.0009960785}
{-0.001}
{-0.001}
{-0.001}
{-0.0009921569}
{-0.001}
{-0.0009960785}
{-0.001}
{-0.001}
{-0.001}
{-0.001}
{-0.001}
{-0.001}
{-0.001}
{-0.001}
{-0.001}
{-0.001}
{-0.001}
{-0.0009921569}
{-0.001}
{-0.001}
{-0.001}
{-0.0009921569}
{-0.001}
{-0.001}
{-0.001}
{-0.001}
{-0.001}
{-0.001}
{-0.001}
{-0.001}
{-0.001}
{-0.001}
{-0.001}
{-0.001}
{-0.001}
{-0.001}
{-0.001}
{-0.001}
{-0.001}
{-0.001}
{-0.001}
{-0.001}
{-0.001}
{-0.001}
{-0.001}
{-0.001}
{-0.001}
{-0.001}
{-0.001}
{-0.001}
{-0.001}
{-0.001}
{-0.001}
{-0.001}
{-0.001}
{-0.001}
{-0.001}
{-0.001}
{-0.001}
{-0.001}
{-0.001}
{-0.001}
{-0.001}
{-0.001}
{-0.001}
{-0.001}
{-0.001}
{-0.001}
{-0.001}
{-0.001}
{-0.001}
{-0.001}
{-0.001}
{-0.001}
{-0.001}
{-0.001}
{-0.001}
{-0.001}
{-0.001}
{-0.001}
{-0.001}
{-0.001}
{-0.001}
{-0.001}
{-0.001}
{-0.001}
{-0.001}
{-0.001}
{-0.001}
{-0.001}
{-0.001}
{-0.001}
{-0.001}
{-0.001}
{-0.001}
{-0.001}
{-0.001}
{-0.001}
{-0.001}
{-0.001}
{-0.001}
{-0.001}
{-0.001}
{-0.001}
{-0.001}
{-0.001}
{-0.001}
{-0.001}
{-0.001}
{-0.001}
{-0.001}
{-0.001}
{-0.001}
{-0.001}
{-0.001}
{-0.001}
{-0.001}
{-0.001}
{-0.001}
{-0.001}
{-0.001}
{-0.001}
{-0.001}
{-0.001}
{-0.001}
{-0.001}
{-0.001}
{-0.001}
{-0.001}
{-0.001}
{-0.001}
{-0.001}
{-0.001}
{-0.001}
{-0.001}
{-0.001}
{-0.001}
{-0.001}
{-0.001}
{-0.001}
{-0.001}
{-0.001}
{-0.001}
{-0.001}
{-0.001}
{-0.001}
{-0.001}
{-0.001}
{-0.001}
{-0.001}
{-0.001}
{-0.001}
{-0.001}
{-0.001}
{-0.001}
{-0.001}
{-0.001}
{-0.001}
{-0.001}
{-0.001}
{-0.001}
{-0.001}
{-0.001}
{-0.001}
{-0.001}
{-0.001}
{-0.001}
{-0.001}
{-0.001}
{-0.001}
{-0.001}
{-0.001}
{-0.001}
{-0.001}
{-0.001}
{-0.001}
{-0.001}
{-0.001}
{-0.001}
{-0.001}
{-0.001}
{-0.001}
{-0.001}
{-0.001}
{-0.001}
{-0.001}
{-0.001}
{-0.001}
{-0.001}
{-0.001}
{-0.001}
{-0.001}
{-0.001}
{-0.001}
{-0.001}
{-0.001}
{-0.001}
{-0.001}
{-0.001}
{-0.001}
{-0.001}
{-0.001}
{-0.001}
{-0.001}
{-0.001}
{-0.001}
{-0.001}
{-0.001}
{-0.001}
{-0.001}
{-0.001}
{-0.001}
{-0.001}
{-0.001}
{-0.001}
{-0.001}
{-0.001}
{-0.001}
{-0.001}
{-0.001}
{-0.001}
{-0.001}
{-0.001}
{-0.001}
{-0.001}
{-0.001}
{-0.001}
{-0.001}
{-0.001}
{-0.001}
{-0.001}
{-0.0009921569}
{-0.0009921569}
{-0.001}
{-0.001}
{-0.0009176471}
{-0.0009176471}
{-0.0009254902}
{-0.001}
{-0.00041960788}
{-0.00042352945}
{-0.00043137258}
{-0.001}
{-0.00031372553}
{-0.0003176471}
{-0.00032549023}
{-0.001}
{-0.00029411766}
{-0.00029803923}
{-0.00031372553}
{-0.001}
{-0.00029803923}
{-0.0003019608}
{-0.0003176471}
{-0.001}
{-0.0002901961}
{-0.00028627453}
{-0.0003058824}
{-0.001}
{-0.00029803923}
{-0.00029411766}
{-0.00031372553}
{-0.001}
{-0.0003019608}
{-0.00029803923}
{-0.0003176471}
{-0.001}
{-0.0003058824}
{-0.0003019608}
{-0.00032156866}
{-0.001}
{-0.00029803923}
{-0.00029411766}
{-0.00031372553}
{-0.001}
{-0.00030980396}
{-0.0003058824}
{-0.00032549023}
{-0.001}
{-0.0002784314}
{-0.00027450983}
{-0.00029803923}
{-0.001}
{-0.00029411766}
{-0.0002901961}
{-0.00031372553}
{-0.001}
{-0.00027450983}
{-0.00027058827}
{-0.00029411766}
{-0.001}
{-0.00027450983}
{-0.00027058827}
{-0.00029411766}
{-0.001}
{-0.00027058827}
{-0.0002666667}
{-0.00028627453}
{-0.001}
{-0.00027450983}
{-0.00027058827}
{-0.0002901961}
{-0.001}
{-0.00028627453}
{-0.00028235296}
{-0.0003019608}
{-0.001}
{-0.00028627453}
{-0.00028235296}
{-0.0003019608}
{-0.001}
{-0.00028235296}
{-0.0002784314}
{-0.00029803923}
{-0.001}
{-0.00029411766}
{-0.0002901961}
{-0.00030980396}
{-0.001}
{-0.00036078435}
{-0.0003529412}
{-0.00037254905}
{-0.001}
{-0.00036078435}
{-0.0003529412}
{-0.00037254905}
{-0.001}
{-0.0003019608}
{-0.00029411766}
{-0.00031372553}
{-0.001}
{-0.00031372553}
{-0.0003058824}
{-0.00032549023}
{-0.001}
{-0.0002784314}
{-0.0002784314}
{-0.00028627453}
{-0.001}
{-0.00025882357}
{-0.00025882357}
{-0.0002666667}
{-0.001}
{-0.000254902}
{-0.000254902}
{-0.00026274513}
{-0.001}
{-0.00026274513}
{-0.00026274513}
{-0.00027058827}
{-0.001}
{-0.00025098043}
{-0.00025098043}
{-0.00025882357}
{-0.001}
{-0.00026274513}
{-0.00026274513}
{-0.00027058827}
{-0.001}
{-0.00027450983}
{-0.0002784314}
{-0.00029411766}
{-0.001}
{-0.00027058827}
{-0.00027450983}
{-0.0002901961}
{-0.001}
{-0.0002666667}
{-0.00027058827}
{-0.00028627453}
{-0.001}
{-0.00027058827}
{-0.00027450983}
{-0.0002901961}
{-0.001}
{-0.0003058824}
{-0.00030980396}
{-0.00032549023}
{-0.001}
{-0.00052549026}
{-0.00052941183}
{-0.0005450981}
{-0.001}
{-0.0009960785}
{-0.001}
{-0.001}
{-0.001}
{-0.0009921569}
{-0.0009960785}
{-0.001}
{-0.001}
{-0.0009960785}
{-0.001}
{-0.001}
{-0.001}
{-0.0009803922}
{-0.0009843138}
{-0.0009921569}
{-0.001}
{-0.0009960785}
{-0.001}
{-0.001}
{-0.001}
{-0.0009921569}
{-0.001}
{-0.0009960785}
{-0.001}
{-0.001}
{-0.001}
{-0.001}
{-0.001}
{-0.001}
{-0.001}
{-0.001}
{-0.001}
{-0.001}
{-0.001}
{-0.0009921569}
{-0.001}
{-0.001}
{-0.001}
{-0.0009921569}
{-0.001}
{-0.001}
{-0.001}
{-0.001}
{-0.001}
{-0.001}
{-0.001}
{-0.001}
{-0.001}
{-0.001}
{-0.001}
{-0.001}
{-0.001}
{-0.001}
{-0.001}
{-0.001}
{-0.001}
{-0.001}
{-0.001}
{-0.001}
{-0.001}
{-0.001}
{-0.001}
{-0.001}
{-0.001}
{-0.001}
{-0.001}
{-0.001}
{-0.001}
{-0.001}
{-0.001}
{-0.001}
{-0.001}
{-0.001}
{-0.001}
{-0.001}
{-0.001}
{-0.001}
{-0.001}
{-0.001}
{-0.001}
{-0.001}
{-0.001}
{-0.001}
{-0.001}
{-0.001}
{-0.001}
{-0.001}
{-0.001}
{-0.001}
{-0.001}
{-0.001}
{-0.001}
{-0.001}
{-0.001}
{-0.001}
{-0.001}
{-0.001}
{-0.001}
{-0.001}
{-0.001}
{-0.001}
{-0.001}
{-0.001}
{-0.001}
{-0.001}
{-0.001}
{-0.001}
{-0.001}
{-0.001}
{-0.001}
{-0.001}
{-0.001}
{-0.001}
{-0.001}
{-0.001}
{-0.001}
{-0.001}
{-0.001}
{-0.001}
{-0.001}
{-0.001}
{-0.001}
{-0.001}
{-0.001}
{-0.001}
{-0.001}
{-0.001}
{-0.001}
{-0.001}
{-0.001}
{-0.001}
{-0.001}
{-0.001}
{-0.001}
{-0.001}
{-0.001}
{-0.001}
{-0.001}
{-0.001}
{-0.001}
{-0.001}
{-0.001}
{-0.001}
{-0.001}
{-0.001}
{-0.001}
{-0.001}
{-0.001}
{-0.001}
{-0.001}
{-0.001}
{-0.001}
{-0.001}
{-0.001}
{-0.001}
{-0.001}
{-0.001}
{-0.001}
{-0.001}
{-0.001}
{-0.001}
{-0.001}
{-0.001}
{-0.001}
{-0.001}
{-0.001}
{-0.001}
{-0.001}
{-0.001}
{-0.001}
{-0.001}
{-0.001}
{-0.001}
{-0.001}
{-0.001}
{-0.001}
{-0.001}
{-0.001}
{-0.001}
{-0.001}
{-0.001}
{-0.001}
{-0.001}
{-0.001}
{-0.001}
{-0.001}
{-0.001}
{-0.001}
{-0.001}
{-0.001}
{-0.001}
{-0.001}
{-0.001}
{-0.001}
{-0.001}
{-0.001}
{-0.001}
{-0.001}
{-0.001}
{-0.001}
{-0.001}
{-0.001}
{-0.001}
{-0.001}
{-0.001}
{-0.001}
{-0.001}
{-0.001}
{-0.001}
{-0.001}
{-0.001}
{-0.001}
{-0.001}
{-0.001}
{-0.001}
{-0.001}
{-0.001}
{-0.001}
{-0.001}
{-0.001}
{-0.001}
{-0.001}
{-0.001}
{-0.001}
{-0.001}
{-0.001}
{-0.001}
{-0.001}
{-0.001}
{-0.001}
{-0.001}
{-0.001}
{-0.001}
{-0.001}
{-0.001}
{-0.001}
{-0.001}
{-0.001}
{-0.001}
{-0.001}
{-0.001}
{-0.001}
{-0.001}
{-0.001}
{-0.001}
{-0.001}
{-0.001}
{-0.001}
{-0.001}
{-0.0009960785}
{-0.001}
{-0.001}
{-0.00083921576}
{-0.0008352942}
{-0.000854902}
{-0.001}
{-0.0002784314}
{-0.00028235296}
{-0.00029803923}
{-0.001}
{-0.00030980396}
{-0.00031372553}
{-0.0003294118}
{-0.001}
{-0.00027058827}
{-0.00027450983}
{-0.0002901961}
{-0.001}
{-0.0002901961}
{-0.00029411766}
{-0.00030980396}
{-0.001}
{-0.00029411766}
{-0.0002901961}
{-0.00030980396}
{-0.001}
{-0.00031372553}
{-0.00030980396}
{-0.0003294118}
{-0.001}
{-0.00032549023}
{-0.00032156866}
{-0.0003411765}
{-0.001}
{-0.00032549023}
{-0.00032156866}
{-0.0003411765}
{-0.001}
{-0.00032156866}
{-0.0003176471}
{-0.0003411765}
{-0.001}
{-0.00032549023}
{-0.00032156866}
{-0.00034509806}
{-0.001}
{-0.00029411766}
{-0.0002901961}
{-0.00031372553}
{-0.001}
{-0.0003294118}
{-0.00032549023}
{-0.00034901962}
{-0.001}
{-0.0003019608}
{-0.00029803923}
{-0.00032156866}
{-0.001}
{-0.0003058824}
{-0.0003019608}
{-0.00032549023}
{-0.001}
{-0.0002901961}
{-0.00028627453}
{-0.00030980396}
{-0.001}
{-0.00028235296}
{-0.0002784314}
{-0.0003019608}
{-0.001}
{-0.00029803923}
{-0.00029411766}
{-0.00031372553}
{-0.001}
{-0.0002901961}
{-0.00028627453}
{-0.0003058824}
{-0.001}
{-0.00027450983}
{-0.00027058827}
{-0.0002901961}
{-0.001}
{-0.0002784314}
{-0.00027450983}
{-0.00029411766}
{-0.001}
{-0.00030980396}
{-0.0003019608}
{-0.00032156866}
{-0.001}
{-0.00031372553}
{-0.0003058824}
{-0.00032549023}
{-0.001}
{-0.0003058824}
{-0.0003019608}
{-0.00032156866}
{-0.001}
{-0.0003176471}
{-0.00031372553}
{-0.00033333336}
{-0.001}
{-0.00029411766}
{-0.00029411766}
{-0.0003019608}
{-0.001}
{-0.0002901961}
{-0.0002901961}
{-0.00029803923}
{-0.001}
{-0.00026274513}
{-0.00026274513}
{-0.00027058827}
{-0.001}
{-0.00028627453}
{-0.00028627453}
{-0.00029411766}
{-0.001}
{-0.00027058827}
{-0.00027058827}
{-0.0002784314}
{-0.001}
{-0.0002666667}
{-0.0002666667}
{-0.00027450983}
{-0.001}
{-0.00026274513}
{-0.00026274513}
{-0.00027058827}
{-0.001}
{-0.00025882357}
{-0.00025882357}
{-0.0002666667}
{-0.001}
{-0.00026274513}
{-0.0002666667}
{-0.00028235296}
{-0.001}
{-0.0002666667}
{-0.00027058827}
{-0.00028627453}
{-0.001}
{-0.00026274513}
{-0.0002666667}
{-0.00028235296}
{-0.001}
{-0.00028627453}
{-0.0002901961}
{-0.0003058824}
{-0.001}
{-0.00052941183}
{-0.0005333334}
{-0.00054901966}
{-0.001}
{-0.0009960785}
{-0.001}
{-0.001}
{-0.001}
{-0.0009960785}
{-0.001}
{-0.001}
{-0.001}
{-0.0009960785}
{-0.001}
{-0.001}
{-0.001}
{-0.0009882353}
{-0.0009960785}
{-0.0009921569}
{-0.001}
{-0.0009843138}
{-0.0009921569}
{-0.0009882353}
{-0.001}
{-0.0009960785}
{-0.001}
{-0.001}
{-0.001}
{-0.0009921569}
{-0.001}
{-0.0009960785}
{-0.001}
{-0.001}
{-0.001}
{-0.0009921569}
{-0.001}
{-0.001}
{-0.001}
{-0.0009921569}
{-0.001}
{-0.001}
{-0.001}
{-0.001}
{-0.001}
{-0.001}
{-0.001}
{-0.001}
{-0.001}
{-0.001}
{-0.001}
{-0.001}
{-0.001}
{-0.001}
{-0.001}
{-0.001}
{-0.001}
{-0.001}
{-0.001}
{-0.001}
{-0.001}
{-0.001}
{-0.001}
{-0.001}
{-0.001}
{-0.001}
{-0.001}
{-0.001}
{-0.001}
{-0.001}
{-0.001}
{-0.001}
{-0.001}
{-0.001}
{-0.001}
{-0.001}
{-0.001}
{-0.001}
{-0.001}
{-0.001}
{-0.001}
{-0.001}
{-0.001}
{-0.001}
{-0.001}
{-0.001}
{-0.001}
{-0.001}
{-0.001}
{-0.001}
{-0.001}
{-0.001}
{-0.001}
{-0.001}
{-0.001}
{-0.001}
{-0.001}
{-0.001}
{-0.001}
{-0.001}
{-0.001}
{-0.001}
{-0.001}
{-0.001}
{-0.001}
{-0.001}
{-0.001}
{-0.001}
{-0.001}
{-0.001}
{-0.001}
{-0.001}
{-0.001}
{-0.001}
{-0.001}
{-0.001}
{-0.001}
{-0.001}
{-0.001}
{-0.001}
{-0.001}
{-0.001}
{-0.001}
{-0.001}
{-0.001}
{-0.001}
{-0.001}
{-0.001}
{-0.001}
{-0.001}
{-0.001}
{-0.001}
{-0.001}
{-0.001}
{-0.001}
{-0.001}
{-0.001}
{-0.001}
{-0.001}
{-0.001}
{-0.001}
{-0.001}
{-0.001}
{-0.001}
{-0.001}
{-0.001}
{-0.001}
{-0.001}
{-0.001}
{-0.001}
{-0.001}
{-0.001}
{-0.001}
{-0.001}
{-0.001}
{-0.001}
{-0.001}
{-0.001}
{-0.001}
{-0.001}
{-0.001}
{-0.001}
{-0.001}
{-0.001}
{-0.001}
{-0.001}
{-0.001}
{-0.001}
{-0.001}
{-0.001}
{-0.001}
{-0.001}
{-0.001}
{-0.001}
{-0.001}
{-0.001}
{-0.001}
{-0.001}
{-0.001}
{-0.001}
{-0.001}
{-0.001}
{-0.001}
{-0.001}
{-0.001}
{-0.001}
{-0.001}
{-0.001}
{-0.001}
{-0.001}
{-0.001}
{-0.001}
{-0.001}
{-0.001}
{-0.001}
{-0.001}
{-0.001}
{-0.001}
{-0.001}
{-0.001}
{-0.001}
{-0.001}
{-0.001}
{-0.001}
{-0.001}
{-0.001}
{-0.001}
{-0.001}
{-0.001}
{-0.001}
{-0.001}
{-0.001}
{-0.001}
{-0.001}
{-0.001}
{-0.001}
{-0.001}
{-0.001}
{-0.001}
{-0.001}
{-0.001}
{-0.001}
{-0.001}
{-0.001}
{-0.001}
{-0.001}
{-0.001}
{-0.001}
{-0.001}
{-0.001}
{-0.001}
{-0.001}
{-0.001}
{-0.001}
{-0.001}
{-0.001}
{-0.001}
{-0.001}
{-0.001}
{-0.001}
{-0.001}
{-0.0009960785}
{-0.0009960785}
{-0.001}
{-0.001}
{-0.0009921569}
{-0.0009921569}
{-0.001}
{-0.001}
{-0.00089803926}
{-0.0008941177}
{-0.0009137255}
{-0.001}
{-0.0005686275}
{-0.00056470593}
{-0.00058431376}
{-0.001}
{-0.00032156866}
{-0.00032549023}
{-0.0003411765}
{-0.001}
{-0.00034509806}
{-0.00034901962}
{-0.00036470592}
{-0.001}
{-0.00029411766}
{-0.00029803923}
{-0.00031372553}
{-0.001}
{-0.00029411766}
{-0.00029803923}
{-0.00031372553}
{-0.001}
{-0.00032156866}
{-0.0003176471}
{-0.00033725493}
{-0.001}
{-0.00032156866}
{-0.0003176471}
{-0.00033725493}
{-0.001}
{-0.00033725493}
{-0.00033333336}
{-0.0003529412}
{-0.001}
{-0.00032549023}
{-0.00032156866}
{-0.0003411765}
{-0.001}
{-0.00033725493}
{-0.00033333336}
{-0.00035686276}
{-0.001}
{-0.0003411765}
{-0.00033725493}
{-0.00036078435}
{-0.001}
{-0.0003294118}
{-0.00032549023}
{-0.00034901962}
{-0.001}
{-0.00034509806}
{-0.0003411765}
{-0.00036470592}
{-0.001}
{-0.00034509806}
{-0.0003411765}
{-0.00036470592}
{-0.001}
{-0.00036470592}
{-0.00036078435}
{-0.00038431375}
{-0.001}
{-0.0003411765}
{-0.00033725493}
{-0.00036078435}
{-0.001}
{-0.0003294118}
{-0.00032549023}
{-0.00034901962}
{-0.001}
{-0.0003411765}
{-0.00033725493}
{-0.00035686276}
{-0.001}
{-0.0003294118}
{-0.00032549023}
{-0.00034509806}
{-0.001}
{-0.0003019608}
{-0.00029803923}
{-0.0003176471}
{-0.001}
{-0.0002901961}
{-0.00028627453}
{-0.0003058824}
{-0.001}
{-0.0003058824}
{-0.00029803923}
{-0.0003176471}
{-0.001}
{-0.00028627453}
{-0.0002784314}
{-0.00029803923}
{-0.001}
{-0.00027058827}
{-0.0002666667}
{-0.00028627453}
{-0.001}
{-0.00028235296}
{-0.0002784314}
{-0.00029803923}
{-0.001}
{-0.0002901961}
{-0.0002901961}
{-0.00029803923}
{-0.001}
{-0.0003058824}
{-0.0003058824}
{-0.00031372553}
{-0.001}
{-0.00027058827}
{-0.00027058827}
{-0.0002784314}
{-0.001}
{-0.0002784314}
{-0.0002784314}
{-0.00028627453}
{-0.001}
{-0.00027058827}
{-0.00027058827}
{-0.0002784314}
{-0.001}
{-0.00025882357}
{-0.00025882357}
{-0.0002666667}
{-0.001}
{-0.0002666667}
{-0.0002666667}
{-0.00027450983}
{-0.001}
{-0.0002666667}
{-0.0002666667}
{-0.00027450983}
{-0.001}
{-0.00026274513}
{-0.0002666667}
{-0.00028235296}
{-0.001}
{-0.000254902}
{-0.00025882357}
{-0.00027450983}
{-0.001}
{-0.00027450983}
{-0.0002784314}
{-0.00029411766}
{-0.001}
{-0.00027058827}
{-0.00027450983}
{-0.0002901961}
{-0.001}
{-0.00027058827}
{-0.00027450983}
{-0.0002901961}
{-0.001}
{-0.00051372556}
{-0.00051764713}
{-0.0005333334}
{-0.001}
{-0.0009960785}
{-0.001}
{-0.001}
{-0.001}
{-0.0009921569}
{-0.0009960785}
{-0.001}
{-0.001}
{-0.0009960785}
{-0.001}
{-0.001}
{-0.001}
{-0.0009960785}
{-0.001}
{-0.001}
{-0.001}
{-0.0009921569}
{-0.001}
{-0.0009960785}
{-0.001}
{-0.0009960785}
{-0.001}
{-0.001}
{-0.001}
{-0.001}
{-0.001}
{-0.0009921569}
{-0.001}
{-0.001}
{-0.001}
{-0.0009921569}
{-0.001}
{-0.001}
{-0.001}
{-0.001}
{-0.001}
{-0.001}
{-0.001}
{-0.001}
{-0.001}
{-0.001}
{-0.001}
{-0.001}
{-0.001}
{-0.001}
{-0.001}
{-0.001}
{-0.001}
{-0.001}
{-0.001}
{-0.001}
{-0.001}
{-0.001}
{-0.001}
{-0.001}
{-0.001}
{-0.001}
{-0.001}
{-0.001}
{-0.001}
{-0.001}
{-0.001}
{-0.001}
{-0.001}
{-0.001}
{-0.001}
{-0.001}
{-0.001}
{-0.001}
{-0.001}
{-0.001}
{-0.001}
{-0.001}
{-0.001}
{-0.001}
{-0.001}
{-0.001}
{-0.001}
{-0.001}
{-0.001}
{-0.001}
{-0.001}
{-0.001}
{-0.001}
{-0.001}
{-0.001}
{-0.001}
{-0.001}
{-0.001}
{-0.001}
{-0.001}
{-0.001}
{-0.001}
{-0.001}
{-0.001}
{-0.001}
{-0.001}
{-0.001}
{-0.001}
{-0.001}
{-0.001}
{-0.001}
{-0.001}
{-0.001}
{-0.001}
{-0.001}
{-0.001}
{-0.001}
{-0.001}
{-0.001}
{-0.001}
{-0.001}
{-0.001}
{-0.001}
{-0.001}
{-0.001}
{-0.001}
{-0.001}
{-0.001}
{-0.001}
{-0.001}
{-0.001}
{-0.001}
{-0.001}
{-0.001}
{-0.001}
{-0.001}
{-0.001}
{-0.001}
{-0.001}
{-0.001}
{-0.001}
{-0.001}
{-0.001}
{-0.001}
{-0.001}
{-0.001}
{-0.001}
{-0.001}
{-0.001}
{-0.001}
{-0.001}
{-0.001}
{-0.001}
{-0.001}
{-0.001}
{-0.001}
{-0.001}
{-0.001}
{-0.001}
{-0.001}
{-0.001}
{-0.001}
{-0.001}
{-0.001}
{-0.001}
{-0.001}
{-0.001}
{-0.001}
{-0.001}
{-0.001}
{-0.001}
{-0.001}
{-0.001}
{-0.001}
{-0.001}
{-0.001}
{-0.001}
{-0.001}
{-0.001}
{-0.001}
{-0.001}
{-0.001}
{-0.001}
{-0.001}
{-0.001}
{-0.001}
{-0.001}
{-0.001}
{-0.001}
{-0.001}
{-0.001}
{-0.001}
{-0.001}
{-0.001}
{-0.001}
{-0.001}
{-0.001}
{-0.001}
{-0.001}
{-0.001}
{-0.001}
{-0.001}
{-0.001}
{-0.001}
{-0.001}
{-0.001}
{-0.001}
{-0.001}
{-0.001}
{-0.001}
{-0.001}
{-0.001}
{-0.001}
{-0.001}
{-0.001}
{-0.001}
{-0.001}
{-0.001}
{-0.001}
{-0.001}
{-0.001}
{-0.001}
{-0.001}
{-0.001}
{-0.001}
{-0.001}
{-0.001}
{-0.001}
{-0.001}
{-0.001}
{-0.001}
{-0.001}
{-0.001}
{-0.001}
{-0.001}
{-0.001}
{-0.001}
{-0.001}
{-0.001}
{-0.001}
{-0.001}
{-0.001}
{-0.001}
{-0.001}
{-0.001}
{-0.0009254902}
{-0.0009254902}
{-0.00093333336}
{-0.001}
{-0.00059607846}
{-0.0005921569}
{-0.0006117648}
{-0.001}
{-0.0003411765}
{-0.00033725493}
{-0.00035686276}
{-0.001}
{-0.00032156866}
{-0.00032549023}
{-0.0003411765}
{-0.001}
{-0.00034901962}
{-0.0003529412}
{-0.0003686275}
{-0.001}
{-0.0003176471}
{-0.00032156866}
{-0.0003411765}
{-0.001}
{-0.0002901961}
{-0.00029411766}
{-0.00031372553}
{-0.001}
{-0.00032156866}
{-0.0003176471}
{-0.00033725493}
{-0.001}
{-0.00029803923}
{-0.00029411766}
{-0.00031372553}
{-0.001}
{-0.00031372553}
{-0.00030980396}
{-0.0003294118}
{-0.001}
{-0.00032156866}
{-0.0003176471}
{-0.00033725493}
{-0.001}
{-0.0003294118}
{-0.00032549023}
{-0.00034901962}
{-0.001}
{-0.00036470592}
{-0.00036078435}
{-0.00038431375}
{-0.001}
{-0.00034901962}
{-0.00034509806}
{-0.00037647062}
{-0.001}
{-0.00032156866}
{-0.0003176471}
{-0.00034901962}
{-0.001}
{-0.00034509806}
{-0.0003411765}
{-0.00037254905}
{-0.001}
{-0.00037254905}
{-0.0003686275}
{-0.00040000002}
{-0.001}
{-0.0003529412}
{-0.00034901962}
{-0.00037254905}
{-0.001}
{-0.00034509806}
{-0.0003411765}
{-0.00036470592}
{-0.001}
{-0.00035686276}
{-0.0003529412}
{-0.00037254905}
{-0.001}
{-0.00034901962}
{-0.00034509806}
{-0.00036470592}
{-0.001}
{-0.00033333336}
{-0.0003294118}
{-0.00034901962}
{-0.001}
{-0.00030980396}
{-0.0003058824}
{-0.00032549023}
{-0.001}
{-0.0003019608}
{-0.00029803923}
{-0.00032156866}
{-0.001}
{-0.00028235296}
{-0.0002784314}
{-0.0003019608}
{-0.001}
{-0.00025098043}
{-0.00024705884}
{-0.0002666667}
{-0.001}
{-0.00026274513}
{-0.00025882357}
{-0.0002784314}
{-0.001}
{-0.00028627453}
{-0.00028627453}
{-0.00029411766}
{-0.001}
{-0.0003019608}
{-0.0003019608}
{-0.00030980396}
{-0.001}
{-0.0002784314}
{-0.0002784314}
{-0.00028627453}
{-0.001}
{-0.0002666667}
{-0.0002666667}
{-0.00027450983}
{-0.001}
{-0.00026274513}
{-0.00026274513}
{-0.00026274513}
{-0.001}
{-0.000254902}
{-0.000254902}
{-0.000254902}
{-0.001}
{-0.0002666667}
{-0.0002666667}
{-0.00027450983}
{-0.001}
{-0.000254902}
{-0.000254902}
{-0.00026274513}
{-0.001}
{-0.0002666667}
{-0.0002666667}
{-0.00027450983}
{-0.001}
{-0.00026274513}
{-0.00026274513}
{-0.00027058827}
{-0.001}
{-0.0002666667}
{-0.00026274513}
{-0.00028235296}
{-0.001}
{-0.00026274513}
{-0.00025882357}
{-0.0002784314}
{-0.001}
{-0.00026274513}
{-0.0002666667}
{-0.00028235296}
{-0.001}
{-0.00030980396}
{-0.00031372553}
{-0.0003294118}
{-0.001}
{-0.0009372549}
{-0.0009411765}
{-0.0009568628}
{-0.001}
{-0.0009960785}
{-0.001}
{-0.001}
{-0.001}
{-0.0009921569}
{-0.0009960785}
{-0.001}
{-0.001}
{-0.0009960785}
{-0.001}
{-0.001}
{-0.001}
{-0.0009960785}
{-0.001}
{-0.001}
{-0.001}
{-0.0009725491}
{-0.0009803922}
{-0.00097647065}
{-0.001}
{-0.001}
{-0.001}
{-0.001}
{-0.001}
{-0.001}
{-0.001}
{-0.001}
{-0.001}
{-0.001}
{-0.001}
{-0.001}
{-0.001}
{-0.001}
{-0.001}
{-0.001}
{-0.001}
{-0.001}
{-0.001}
{-0.001}
{-0.001}
{-0.001}
{-0.001}
{-0.001}
{-0.001}
{-0.001}
{-0.001}
{-0.001}
{-0.001}
{-0.001}
{-0.001}
{-0.001}
{-0.001}
{-0.001}
{-0.001}
{-0.001}
{-0.001}
{-0.001}
{-0.001}
{-0.001}
{-0.001}
{-0.001}
{-0.001}
{-0.001}
{-0.001}
{-0.001}
{-0.001}
{-0.001}
{-0.001}
{-0.001}
{-0.001}
{-0.001}
{-0.001}
{-0.001}
{-0.001}
{-0.001}
{-0.001}
{-0.001}
{-0.001}
{-0.001}
{-0.001}
{-0.001}
{-0.001}
{-0.001}
{-0.001}
{-0.001}
{-0.001}
{-0.001}
{-0.001}
{-0.001}
{-0.001}
{-0.001}
{-0.001}
{-0.001}
{-0.001}
{-0.001}
{-0.001}
{-0.001}
{-0.001}
{-0.001}
{-0.001}
{-0.001}
{-0.001}
{-0.001}
{-0.001}
{-0.001}
{-0.001}
{-0.001}
{-0.001}
{-0.001}
{-0.001}
{-0.001}
{-0.001}
{-0.001}
{-0.001}
{-0.001}
{-0.001}
{-0.001}
{-0.001}
{-0.001}
{-0.001}
{-0.001}
{-0.001}
{-0.001}
{-0.001}
{-0.001}
{-0.001}
{-0.001}
{-0.001}
{-0.001}
{-0.001}
{-0.001}
{-0.001}
{-0.001}
{-0.001}
{-0.001}
{-0.001}
{-0.001}
{-0.001}
{-0.001}
{-0.001}
{-0.001}
{-0.001}
{-0.001}
{-0.001}
{-0.001}
{-0.001}
{-0.001}
{-0.001}
{-0.001}
{-0.001}
{-0.001}
{-0.001}
{-0.001}
{-0.001}
{-0.001}
{-0.001}
{-0.001}
{-0.001}
{-0.001}
{-0.001}
{-0.001}
{-0.001}
{-0.001}
{-0.001}
{-0.001}
{-0.001}
{-0.001}
{-0.001}
{-0.001}
{-0.001}
{-0.001}
{-0.001}
{-0.001}
{-0.001}
{-0.001}
{-0.001}
{-0.001}
{-0.001}
{-0.001}
{-0.001}
{-0.001}
{-0.001}
{-0.001}
{-0.001}
{-0.001}
{-0.001}
{-0.001}
{-0.001}
{-0.001}
{-0.001}
{-0.001}
{-0.001}
{-0.001}
{-0.001}
{-0.001}
{-0.001}
{-0.001}
{-0.001}
{-0.001}
{-0.001}
{-0.001}
{-0.001}
{-0.001}
{-0.001}
{-0.001}
{-0.001}
{-0.001}
{-0.001}
{-0.001}
{-0.001}
{-0.001}
{-0.001}
{-0.001}
{-0.001}
{-0.001}
{-0.001}
{-0.001}
{-0.001}
{-0.001}
{-0.001}
{-0.001}
{-0.001}
{-0.001}
{-0.001}
{-0.001}
{-0.001}
{-0.001}
{-0.001}
{-0.001}
{-0.001}
{-0.001}
{-0.001}
{-0.00085098046}
{-0.00085098046}
{-0.0008588236}
{-0.001}
{-0.00039607845}
{-0.0003921569}
{-0.00041176472}
{-0.001}
{-0.00033725493}
{-0.00033333336}
{-0.0003529412}
{-0.001}
{-0.00033725493}
{-0.0003411765}
{-0.00035686276}
{-0.001}
{-0.00035686276}
{-0.00036078435}
{-0.00037647062}
{-0.001}
{-0.0003411765}
{-0.00034509806}
{-0.00036470592}
{-0.001}
{-0.00029803923}
{-0.0003019608}
{-0.00032156866}
{-0.001}
{-0.0003058824}
{-0.0003019608}
{-0.00032156866}
{-0.001}
{-0.00028235296}
{-0.0002784314}
{-0.00029803923}
{-0.001}
{-0.0003019608}
{-0.00029803923}
{-0.0003176471}
{-0.001}
{-0.00033333336}
{-0.0003294118}
{-0.00034901962}
{-0.001}
{-0.00030980396}
{-0.0003058824}
{-0.0003294118}
{-0.001}
{-0.00036470592}
{-0.00036078435}
{-0.00038431375}
{-0.001}
{-0.00034509806}
{-0.0003411765}
{-0.00037254905}
{-0.001}
{-0.0003176471}
{-0.00031372553}
{-0.00034509806}
{-0.001}
{-0.00032156866}
{-0.0003176471}
{-0.00034901962}
{-0.001}
{-0.0003529412}
{-0.00034901962}
{-0.0003803922}
{-0.001}
{-0.00033725493}
{-0.00033333336}
{-0.00035686276}
{-0.001}
{-0.0003294118}
{-0.00032549023}
{-0.00034901962}
{-0.001}
{-0.00033333336}
{-0.0003294118}
{-0.00034901962}
{-0.001}
{-0.0003411765}
{-0.00033725493}
{-0.00035686276}
{-0.001}
{-0.0003411765}
{-0.00033725493}
{-0.00035686276}
{-0.001}
{-0.00030980396}
{-0.0003058824}
{-0.00032549023}
{-0.001}
{-0.0003019608}
{-0.00029803923}
{-0.00032156866}
{-0.001}
{-0.0003058824}
{-0.0003019608}
{-0.00032549023}
{-0.001}
{-0.0002784314}
{-0.00027450983}
{-0.00029411766}
{-0.001}
{-0.00027058827}
{-0.0002666667}
{-0.00028627453}
{-0.001}
{-0.00028235296}
{-0.00028235296}
{-0.0002901961}
{-0.001}
{-0.00029411766}
{-0.00029411766}
{-0.0003019608}
{-0.001}
{-0.0003058824}
{-0.0003058824}
{-0.00031372553}
{-0.001}
{-0.00029411766}
{-0.00029411766}
{-0.0003019608}
{-0.001}
{-0.00028235296}
{-0.00028235296}
{-0.00028235296}
{-0.001}
{-0.000254902}
{-0.000254902}
{-0.000254902}
{-0.001}
{-0.000254902}
{-0.000254902}
{-0.00026274513}
{-0.001}
{-0.00024313727}
{-0.00024313727}
{-0.00025098043}
{-0.001}
{-0.00027450983}
{-0.00027450983}
{-0.00028235296}
{-0.001}
{-0.00027058827}
{-0.00027058827}
{-0.0002784314}
{-0.001}
{-0.00027058827}
{-0.0002666667}
{-0.00028627453}
{-0.001}
{-0.00028235296}
{-0.0002784314}
{-0.00029803923}
{-0.001}
{-0.00028235296}
{-0.00028627453}
{-0.0003019608}
{-0.001}
{-0.00028627453}
{-0.0002901961}
{-0.0003058824}
{-0.001}
{-0.0005450981}
{-0.00054901966}
{-0.00056470593}
{-0.001}
{-0.0009843138}
{-0.0009882353}
{-0.001}
{-0.001}
{-0.0009921569}
{-0.0009960785}
{-0.001}
{-0.001}
{-0.0009843138}
{-0.0009882353}
{-0.0009960785}
{-0.001}
{-0.0009960785}
{-0.001}
{-0.001}
{-0.001}
{-0.0009960785}
{-0.001}
{-0.001}
{-0.001}
{-0.001}
{-0.001}
{-0.001}
{-0.001}
{-0.001}
{-0.001}
{-0.001}
{-0.001}
{-0.001}
{-0.001}
{-0.001}
{-0.001}
{-0.001}
{-0.001}
{-0.001}
{-0.001}
{-0.001}
{-0.001}
{-0.001}
{-0.001}
{-0.001}
{-0.001}
{-0.001}
{-0.001}
{-0.001}
{-0.001}
{-0.001}
{-0.001}
{-0.001}
{-0.001}
{-0.001}
{-0.001}
{-0.001}
{-0.001}
{-0.001}
{-0.001}
{-0.001}
{-0.001}
{-0.001}
{-0.001}
{-0.001}
{-0.001}
{-0.001}
{-0.001}
{-0.001}
{-0.001}
{-0.001}
{-0.001}
{-0.001}
{-0.001}
{-0.001}
{-0.001}
{-0.001}
{-0.001}
{-0.001}
{-0.001}
{-0.001}
{-0.001}
{-0.001}
{-0.001}
{-0.001}
{-0.001}
{-0.001}
{-0.001}
{-0.001}
{-0.001}
{-0.001}
{-0.001}
{-0.001}
{-0.001}
{-0.001}
{-0.001}
{-0.001}
{-0.001}
{-0.001}
{-0.001}
{-0.001}
{-0.001}
{-0.001}
{-0.001}
{-0.001}
{-0.001}
{-0.001}
{-0.001}
{-0.001}
{-0.001}
{-0.001}
{-0.001}
{-0.001}
{-0.001}
{-0.001}
{-0.001}
{-0.001}
{-0.001}
{-0.001}
{-0.001}
{-0.001}
{-0.001}
{-0.001}
{-0.001}
{-0.001}
{-0.001}
{-0.001}
{-0.001}
{-0.001}
{-0.001}
{-0.001}
{-0.001}
{-0.001}
{-0.001}
{-0.001}
{-0.001}
{-0.001}
{-0.001}
{-0.001}
{-0.001}
{-0.001}
{-0.001}
{-0.001}
{-0.001}
{-0.001}
{-0.001}
{-0.001}
{-0.001}
{-0.001}
{-0.001}
{-0.001}
{-0.001}
{-0.001}
{-0.001}
{-0.001}
{-0.001}
{-0.001}
{-0.001}
{-0.001}
{-0.001}
{-0.001}
{-0.001}
{-0.001}
{-0.001}
{-0.001}
{-0.001}
{-0.001}
{-0.001}
{-0.001}
{-0.001}
{-0.001}
{-0.001}
{-0.001}
{-0.001}
{-0.001}
{-0.001}
{-0.001}
{-0.001}
{-0.001}
{-0.001}
{-0.001}
{-0.001}
{-0.001}
{-0.001}
{-0.001}
{-0.001}
{-0.001}
{-0.001}
{-0.001}
{-0.001}
{-0.001}
{-0.001}
{-0.001}
{-0.001}
{-0.001}
{-0.001}
{-0.001}
{-0.001}
{-0.001}
{-0.001}
{-0.001}
{-0.001}
{-0.001}
{-0.001}
{-0.001}
{-0.001}
{-0.001}
{-0.001}
{-0.001}
{-0.001}
{-0.001}
{-0.001}
{-0.001}
{-0.001}
{-0.001}
{-0.001}
{-0.001}
{-0.001}
{-0.001}
{-0.001}
{-0.001}
{-0.001}
{-0.001}
{-0.001}
{-0.001}
{-0.001}
{-0.001}
{-0.001}
{-0.001}
{-0.001}
{-0.001}
{-0.001}
{-0.0009568628}
{-0.00095294125}
{-0.0009725491}
{-0.001}
{-0.00072941184}
{-0.0007254903}
{-0.0007450981}
{-0.001}
{-0.00037254905}
{-0.0003686275}
{-0.00038823532}
{-0.001}
{-0.00033333336}
{-0.0003294118}
{-0.00034901962}
{-0.001}
{-0.0002901961}
{-0.00029411766}
{-0.00031372553}
{-0.001}
{-0.0003176471}
{-0.00032156866}
{-0.0003411765}
{-0.001}
{-0.00033725493}
{-0.0003411765}
{-0.00036078435}
{-0.001}
{-0.00032549023}
{-0.0003294118}
{-0.00034901962}
{-0.001}
{-0.0003058824}
{-0.0003019608}
{-0.00032156866}
{-0.001}
{-0.0002784314}
{-0.00027450983}
{-0.00029411766}
{-0.001}
{-0.00030980396}
{-0.0003058824}
{-0.00032549023}
{-0.001}
{-0.0003294118}
{-0.00032549023}
{-0.00034509806}
{-0.001}
{-0.0003294118}
{-0.00032549023}
{-0.00034901962}
{-0.001}
{-0.00034509806}
{-0.0003411765}
{-0.00036470592}
{-0.001}
{-0.00032549023}
{-0.00032549023}
{-0.00035686276}
{-0.001}
{-0.00030980396}
{-0.00030980396}
{-0.0003411765}
{-0.001}
{-0.0003058824}
{-0.0003058824}
{-0.00033725493}
{-0.001}
{-0.00033725493}
{-0.00033725493}
{-0.0003686275}
{-0.001}
{-0.00033333336}
{-0.0003294118}
{-0.0003529412}
{-0.001}
{-0.00032549023}
{-0.00032156866}
{-0.00034509806}
{-0.001}
{-0.0003176471}
{-0.00031372553}
{-0.00033333336}
{-0.001}
{-0.0003294118}
{-0.00032549023}
{-0.00034509806}
{-0.001}
{-0.00034901962}
{-0.00034509806}
{-0.00036470592}
{-0.001}
{-0.0003058824}
{-0.0003019608}
{-0.00032156866}
{-0.001}
{-0.0002901961}
{-0.00028627453}
{-0.00030980396}
{-0.001}
{-0.00030980396}
{-0.0003058824}
{-0.0003294118}
{-0.001}
{-0.00029411766}
{-0.0002901961}
{-0.00031372553}
{-0.001}
{-0.00027058827}
{-0.0002666667}
{-0.00028627453}
{-0.001}
{-0.00027450983}
{-0.00027450983}
{-0.00028235296}
{-0.001}
{-0.0002901961}
{-0.0002901961}
{-0.00029803923}
{-0.001}
{-0.0003058824}
{-0.0003058824}
{-0.0003058824}
{-0.001}
{-0.00029411766}
{-0.00029411766}
{-0.00029411766}
{-0.001}
{-0.0002784314}
{-0.0002784314}
{-0.0002784314}
{-0.001}
{-0.000254902}
{-0.000254902}
{-0.000254902}
{-0.001}
{-0.000254902}
{-0.000254902}
{-0.000254902}
{-0.001}
{-0.00026274513}
{-0.00026274513}
{-0.00026274513}
{-0.001}
{-0.00027450983}
{-0.00027450983}
{-0.00028235296}
{-0.001}
{-0.00026274513}
{-0.00026274513}
{-0.00027058827}
{-0.001}
{-0.0002666667}
{-0.0002666667}
{-0.00027450983}
{-0.001}
{-0.0002784314}
{-0.00027450983}
{-0.00029411766}
{-0.001}
{-0.0002666667}
{-0.00027058827}
{-0.00028627453}
{-0.001}
{-0.00026274513}
{-0.0002666667}
{-0.00028627453}
{-0.001}
{-0.00027058827}
{-0.00027450983}
{-0.0002901961}
{-0.001}
{-0.0009921569}
{-0.0009960785}
{-0.001}
{-0.001}
{-0.0009882353}
{-0.0009921569}
{-0.001}
{-0.001}
{-0.0009960785}
{-0.001}
{-0.001}
{-0.001}
{-0.0009960785}
{-0.001}
{-0.001}
{-0.001}
{-0.0009921569}
{-0.001}
{-0.0009960785}
{-0.001}
{-0.001}
{-0.001}
{-0.001}
{-0.001}
{-0.001}
{-0.001}
{-0.001}
{-0.001}
{-0.001}
{-0.001}
{-0.001}
{-0.001}
{-0.001}
{-0.001}
{-0.001}
{-0.001}
{-0.001}
{-0.001}
{-0.001}
{-0.001}
{-0.001}
{-0.001}
{-0.001}
{-0.001}
{-0.001}
{-0.001}
{-0.001}
{-0.001}
{-0.001}
{-0.001}
{-0.001}
{-0.001}
{-0.001}
{-0.001}
{-0.001}
{-0.001}
{-0.001}
{-0.001}
{-0.001}
{-0.001}
{-0.001}
{-0.001}
{-0.001}
{-0.001}
{-0.001}
{-0.001}
{-0.001}
{-0.001}
{-0.001}
{-0.001}
{-0.001}
{-0.001}
{-0.001}
{-0.001}
{-0.001}
{-0.001}
{-0.001}
{-0.001}
{-0.001}
{-0.001}
{-0.001}
{-0.001}
{-0.001}
{-0.001}
{-0.001}
{-0.001}
{-0.001}
{-0.001}
{-0.001}
{-0.001}
{-0.001}
{-0.001}
{-0.001}
{-0.001}
{-0.001}
{-0.001}
{-0.001}
{-0.001}
{-0.001}
{-0.001}
{-0.001}
{-0.001}
{-0.001}
{-0.001}
{-0.001}
{-0.001}
{-0.001}
{-0.001}
{-0.001}
{-0.001}
{-0.001}
{-0.001}
{-0.001}
{-0.001}
{-0.001}
{-0.001}
{-0.001}
{-0.001}
{-0.001}
{-0.001}
{-0.001}
{-0.001}
{-0.001}
{-0.001}
{-0.001}
{-0.001}
{-0.001}
{-0.001}
{-0.001}
{-0.001}
{-0.001}
{-0.001}
{-0.001}
{-0.001}
{-0.001}
{-0.001}
{-0.001}
{-0.001}
{-0.001}
{-0.001}
{-0.001}
{-0.001}
{-0.001}
{-0.001}
{-0.001}
{-0.001}
{-0.001}
{-0.001}
{-0.001}
{-0.001}
{-0.001}
{-0.001}
{-0.001}
{-0.001}
{-0.001}
{-0.001}
{-0.001}
{-0.001}
{-0.001}
{-0.001}
{-0.001}
{-0.001}
{-0.001}
{-0.001}
{-0.001}
{-0.001}
{-0.001}
{-0.001}
{-0.001}
{-0.001}
{-0.001}
{-0.001}
{-0.001}
{-0.001}
{-0.001}
{-0.001}
{-0.001}
{-0.001}
{-0.001}
{-0.001}
{-0.001}
{-0.001}
{-0.001}
{-0.001}
{-0.001}
{-0.001}
{-0.001}
{-0.001}
{-0.001}
{-0.001}
{-0.001}
{-0.001}
{-0.001}
{-0.001}
{-0.001}
{-0.001}
{-0.001}
{-0.001}
{-0.001}
{-0.001}
{-0.001}
{-0.001}
{-0.001}
{-0.001}
{-0.001}
{-0.001}
{-0.001}
{-0.001}
{-0.001}
{-0.001}
{-0.001}
{-0.001}
{-0.001}
{-0.001}
{-0.001}
{-0.001}
{-0.001}
{-0.001}
{-0.001}
{-0.001}
{-0.001}
{-0.001}
{-0.001}
{-0.001}
{-0.001}
{-0.0009960785}
{-0.001}
{-0.001}
{-0.00088627456}
{-0.000882353}
{-0.0009019608}
{-0.001}
{-0.00049803924}
{-0.0004941177}
{-0.00051372556}
{-0.001}
{-0.0003294118}
{-0.00032549023}
{-0.00034509806}
{-0.001}
{-0.0003294118}
{-0.00032549023}
{-0.00034509806}
{-0.001}
{-0.0003019608}
{-0.0003058824}
{-0.00032549023}
{-0.001}
{-0.00032156866}
{-0.00032549023}
{-0.00034509806}
{-0.001}
{-0.0003176471}
{-0.00032156866}
{-0.0003411765}
{-0.001}
{-0.00033725493}
{-0.0003411765}
{-0.00036078435}
{-0.001}
{-0.0003176471}
{-0.00031372553}
{-0.00033725493}
{-0.001}
{-0.0002666667}
{-0.00026274513}
{-0.00028627453}
{-0.001}
{-0.00031372553}
{-0.00030980396}
{-0.00033333336}
{-0.001}
{-0.00030980396}
{-0.0003058824}
{-0.0003294118}
{-0.001}
{-0.00038431375}
{-0.0003803922}
{-0.0004039216}
{-0.001}
{-0.00033725493}
{-0.00033333336}
{-0.00035686276}
{-0.001}
{-0.00030980396}
{-0.00030980396}
{-0.0003411765}
{-0.001}
{-0.00027058827}
{-0.00027058827}
{-0.0003019608}
{-0.001}
{-0.00028235296}
{-0.00028235296}
{-0.00031372553}
{-0.001}
{-0.0003176471}
{-0.0003176471}
{-0.00034901962}
{-0.001}
{-0.00032156866}
{-0.0003176471}
{-0.0003411765}
{-0.001}
{-0.00032156866}
{-0.0003176471}
{-0.0003411765}
{-0.001}
{-0.0003058824}
{-0.0003019608}
{-0.00032156866}
{-0.001}
{-0.0003176471}
{-0.00031372553}
{-0.00033333336}
{-0.001}
{-0.0003411765}
{-0.00033725493}
{-0.00035686276}
{-0.001}
{-0.0002901961}
{-0.00028627453}
{-0.0003058824}
{-0.001}
{-0.00027450983}
{-0.00027058827}
{-0.00029411766}
{-0.001}
{-0.00029803923}
{-0.00029411766}
{-0.0003176471}
{-0.001}
{-0.0003019608}
{-0.00029803923}
{-0.00032156866}
{-0.001}
{-0.00027450983}
{-0.00027058827}
{-0.0002901961}
{-0.001}
{-0.00028235296}
{-0.00028235296}
{-0.0002901961}
{-0.001}
{-0.0003019608}
{-0.0003019608}
{-0.00030980396}
{-0.001}
{-0.0002901961}
{-0.0002901961}
{-0.0002901961}
{-0.001}
{-0.0002666667}
{-0.0002666667}
{-0.0002666667}
{-0.001}
{-0.0002666667}
{-0.0002666667}
{-0.0002666667}
{-0.001}
{-0.0002666667}
{-0.0002666667}
{-0.0002666667}
{-0.001}
{-0.00026274513}
{-0.00026274513}
{-0.00026274513}
{-0.001}
{-0.00026274513}
{-0.00026274513}
{-0.00026274513}
{-0.001}
{-0.000254902}
{-0.000254902}
{-0.00026274513}
{-0.001}
{-0.0002666667}
{-0.0002666667}
{-0.00027450983}
{-0.001}
{-0.00029411766}
{-0.00029411766}
{-0.0003019608}
{-0.001}
{-0.0002784314}
{-0.0002784314}
{-0.00028627453}
{-0.001}
{-0.00027058827}
{-0.00027450983}
{-0.0002901961}
{-0.001}
{-0.0002666667}
{-0.00027058827}
{-0.00028627453}
{-0.001}
{-0.00028235296}
{-0.00028627453}
{-0.0003019608}
{-0.001}
{-0.0005921569}
{-0.00059607846}
{-0.0006117648}
{-0.001}
{-0.0009882353}
{-0.0009921569}
{-0.001}
{-0.001}
{-0.0009960785}
{-0.001}
{-0.001}
{-0.001}
{-0.0009882353}
{-0.0009960785}
{-0.0009921569}
{-0.001}
{-0.0009960785}
{-0.001}
{-0.001}
{-0.001}
{-0.001}
{-0.001}
{-0.001}
{-0.001}
{-0.001}
{-0.001}
{-0.001}
{-0.001}
{-0.001}
{-0.001}
{-0.001}
{-0.001}
{-0.001}
{-0.001}
{-0.001}
{-0.001}
{-0.001}
{-0.001}
{-0.001}
{-0.001}
{-0.001}
{-0.001}
{-0.001}
{-0.001}
{-0.001}
{-0.001}
{-0.001}
{-0.001}
{-0.001}
{-0.001}
{-0.001}
{-0.001}
{-0.001}
{-0.001}
{-0.001}
{-0.001}
{-0.001}
{-0.001}
{-0.001}
{-0.001}
{-0.001}
{-0.001}
{-0.001}
{-0.001}
{-0.001}
{-0.001}
{-0.001}
{-0.001}
{-0.001}
{-0.001}
{-0.001}
{-0.001}
{-0.001}
{-0.001}
{-0.001}
{-0.001}
{-0.001}
{-0.001}
{-0.001}
{-0.001}
{-0.001}
{-0.001}
{-0.001}
{-0.001}
{-0.001}
{-0.001}
{-0.001}
{-0.001}
{-0.001}
{-0.001}
{-0.001}
{-0.001}
{-0.001}
{-0.001}
{-0.001}
{-0.001}
{-0.001}
{-0.001}
{-0.001}
{-0.001}
{-0.001}
{-0.001}
{-0.001}
{-0.001}
{-0.001}
{-0.001}
{-0.001}
{-0.001}
{-0.001}
{-0.001}
{-0.001}
{-0.001}
{-0.001}
{-0.001}
{-0.001}
{-0.001}
{-0.001}
{-0.001}
{-0.001}
{-0.001}
{-0.001}
{-0.001}
{-0.001}
{-0.001}
{-0.001}
{-0.001}
{-0.001}
{-0.001}
{-0.001}
{-0.001}
{-0.001}
{-0.001}
{-0.001}
{-0.001}
{-0.001}
{-0.001}
{-0.001}
{-0.001}
{-0.001}
{-0.001}
{-0.001}
{-0.001}
{-0.001}
{-0.001}
{-0.001}
{-0.001}
{-0.001}
{-0.001}
{-0.001}
{-0.001}
{-0.001}
{-0.001}
{-0.001}
{-0.001}
{-0.001}
{-0.001}
{-0.001}
{-0.001}
{-0.001}
{-0.001}
{-0.001}
{-0.001}
{-0.001}
{-0.001}
{-0.001}
{-0.001}
{-0.001}
{-0.001}
{-0.001}
{-0.001}
{-0.001}
{-0.001}
{-0.001}
{-0.001}
{-0.001}
{-0.001}
{-0.001}
{-0.001}
{-0.001}
{-0.001}
{-0.001}
{-0.001}
{-0.001}
{-0.001}
{-0.001}
{-0.001}
{-0.001}
{-0.001}
{-0.001}
{-0.001}
{-0.001}
{-0.001}
{-0.001}
{-0.001}
{-0.001}
{-0.001}
{-0.0009960785}
{-0.0009960785}
{-0.0009882353}
{-0.001}
{-0.001}
{-0.001}
{-0.0009921569}
{-0.001}
{-0.0009921569}
{-0.0009921569}
{-0.0009843138}
{-0.001}
{-0.001}
{-0.001}
{-0.001}
{-0.001}
{-0.001}
{-0.001}
{-0.001}
{-0.001}
{-0.0009921569}
{-0.0009921569}
{-0.001}
{-0.001}
{-0.0009960785}
{-0.001}
{-0.001}
{-0.001}
{-0.0009058824}
{-0.00090980396}
{-0.0009254902}
{-0.001}
{-0.00061568635}
{-0.0006196079}
{-0.00063921575}
{-0.001}
{-0.00036470592}
{-0.0003686275}
{-0.00038823532}
{-0.001}
{-0.00032156866}
{-0.0003176471}
{-0.0003411765}
{-0.001}
{-0.00036470592}
{-0.00036078435}
{-0.00038431375}
{-0.001}
{-0.00033725493}
{-0.00033333336}
{-0.0003529412}
{-0.001}
{-0.00029803923}
{-0.00029411766}
{-0.00031372553}
{-0.001}
{-0.00033333336}
{-0.0003294118}
{-0.00034901962}
{-0.001}
{-0.00036470592}
{-0.00036078435}
{-0.00038431375}
{-0.001}
{-0.00031372553}
{-0.0003176471}
{-0.00033725493}
{-0.001}
{-0.00029803923}
{-0.00029803923}
{-0.0003294118}
{-0.001}
{-0.00030980396}
{-0.00030980396}
{-0.0003411765}
{-0.001}
{-0.00032549023}
{-0.0003294118}
{-0.00034901962}
{-0.001}
{-0.0003803922}
{-0.00038431375}
{-0.0004039216}
{-0.001}
{-0.00033725493}
{-0.0003411765}
{-0.00036078435}
{-0.001}
{-0.00032549023}
{-0.00032156866}
{-0.00034509806}
{-0.001}
{-0.00043529415}
{-0.00043137258}
{-0.00045490198}
{-0.001}
{-0.00031372553}
{-0.00030980396}
{-0.00033333336}
{-0.001}
{-0.00030980396}
{-0.0003058824}
{-0.0003294118}
{-0.001}
{-0.0003294118}
{-0.00032549023}
{-0.00034901962}
{-0.001}
{-0.00030980396}
{-0.0003058824}
{-0.0003294118}
{-0.001}
{-0.00028627453}
{-0.00028235296}
{-0.0003058824}
{-0.001}
{-0.0002901961}
{-0.00028627453}
{-0.00030980396}
{-0.001}
{-0.00028235296}
{-0.0002784314}
{-0.0003019608}
{-0.001}
{-0.0002901961}
{-0.00028627453}
{-0.00030980396}
{-0.001}
{-0.0002901961}
{-0.00028627453}
{-0.0003058824}
{-0.001}
{-0.00029803923}
{-0.00029411766}
{-0.00031372553}
{-0.001}
{-0.0003019608}
{-0.00029803923}
{-0.0003176471}
{-0.001}
{-0.00028627453}
{-0.00028627453}
{-0.00029411766}
{-0.001}
{-0.00027058827}
{-0.00027058827}
{-0.0002784314}
{-0.001}
{-0.00029411766}
{-0.00029411766}
{-0.0003019608}
{-0.001}
{-0.00029803923}
{-0.00029803923}
{-0.0003058824}
{-0.001}
{-0.00025882357}
{-0.00025882357}
{-0.0002666667}
{-0.001}
{-0.00025098043}
{-0.000254902}
{-0.00026274513}
{-0.001}
{-0.0002666667}
{-0.00027058827}
{-0.0002784314}
{-0.001}
{-0.000254902}
{-0.00026274513}
{-0.00025882357}
{-0.001}
{-0.00025882357}
{-0.0002666667}
{-0.00026274513}
{-0.001}
{-0.000254902}
{-0.00026274513}
{-0.00025882357}
{-0.001}
{-0.000254902}
{-0.00026274513}
{-0.00025882357}
{-0.001}
{-0.00027450983}
{-0.00028235296}
{-0.0002784314}
{-0.001}
{-0.0002666667}
{-0.00027058827}
{-0.0002784314}
{-0.001}
{-0.00025882357}
{-0.00026274513}
{-0.00027058827}
{-0.001}
{-0.0002666667}
{-0.00027058827}
{-0.0002784314}
{-0.001}
{-0.00026274513}
{-0.0002666667}
{-0.00027450983}
{-0.001}
{-0.00028627453}
{-0.0002901961}
{-0.00029803923}
{-0.001}
{-0.00083921576}
{-0.0008431373}
{-0.00085098046}
{-0.001}
{-0.0009843138}
{-0.0009882353}
{-0.0009960785}
{-0.001}
{-0.0009960785}
{-0.001}
{-0.001}
{-0.001}
{-0.0009921569}
{-0.0009960785}
{-0.001}
{-0.001}
{-0.0009960785}
{-0.0009960785}
{-0.0009960785}
{-0.001}
{-0.001}
{-0.001}
{-0.001}
{-0.001}
{-0.001}
{-0.001}
{-0.001}
{-0.001}
{-0.001}
{-0.001}
{-0.001}
{-0.001}
{-0.001}
{-0.0009960785}
{-0.001}
{-0.001}
{-0.001}
{-0.0009960785}
{-0.001}
{-0.001}
{-0.001}
{-0.0009960785}
{-0.001}
{-0.001}
{-0.001}
{-0.0009921569}
{-0.0009960785}
{-0.001}
{-0.001}
{-0.001}
{-0.001}
{-0.001}
{-0.001}
{-0.001}
{-0.001}
{-0.001}
{-0.001}
{-0.001}
{-0.001}
{-0.001}
{-0.001}
{-0.001}
{-0.001}
{-0.001}
{-0.001}
{-0.001}
{-0.001}
{-0.001}
{-0.001}
{-0.001}
{-0.001}
{-0.001}
{-0.001}
{-0.001}
{-0.001}
{-0.001}
{-0.001}
{-0.001}
{-0.001}
{-0.001}
{-0.001}
{-0.001}
{-0.001}
{-0.001}
{-0.001}
{-0.001}
{-0.001}
{-0.001}
{-0.001}
{-0.001}
{-0.001}
{-0.001}
{-0.001}
{-0.001}
{-0.001}
{-0.001}
{-0.001}
{-0.001}
{-0.001}
{-0.001}
{-0.001}
{-0.001}
{-0.001}
{-0.001}
{-0.001}
{-0.001}
{-0.001}
{-0.001}
{-0.001}
{-0.001}
{-0.001}
{-0.001}
{-0.001}
{-0.001}
{-0.001}
{-0.001}
{-0.001}
{-0.001}
{-0.001}
{-0.001}
{-0.001}
{-0.001}
{-0.001}
{-0.001}
{-0.001}
{-0.001}
{-0.001}
{-0.001}
{-0.001}
{-0.001}
{-0.001}
{-0.001}
{-0.001}
{-0.001}
{-0.001}
{-0.001}
{-0.001}
{-0.001}
{-0.001}
{-0.001}
{-0.001}
{-0.001}
{-0.001}
{-0.001}
{-0.001}
{-0.001}
{-0.001}
{-0.001}
{-0.001}
{-0.001}
{-0.001}
{-0.001}
{-0.001}
{-0.001}
{-0.001}
{-0.001}
{-0.001}
{-0.001}
{-0.001}
{-0.001}
{-0.001}
{-0.001}
{-0.001}
{-0.001}
{-0.001}
{-0.001}
{-0.001}
{-0.001}
{-0.001}
{-0.001}
{-0.001}
{-0.001}
{-0.001}
{-0.001}
{-0.001}
{-0.001}
{-0.001}
{-0.001}
{-0.001}
{-0.001}
{-0.001}
{-0.001}
{-0.001}
{-0.001}
{-0.001}
{-0.001}
{-0.001}
{-0.001}
{-0.001}
{-0.001}
{-0.001}
{-0.001}
{-0.0009960785}
{-0.0009960785}
{-0.0009882353}
{-0.001}
{-0.0009960785}
{-0.0009960785}
{-0.0009882353}
{-0.001}
{-0.001}
{-0.001}
{-0.0009921569}
{-0.001}
{-0.001}
{-0.001}
{-0.001}
{-0.001}
{-0.001}
{-0.001}
{-0.001}
{-0.001}
{-0.001}
{-0.001}
{-0.001}
{-0.001}
{-0.0009921569}
{-0.0009960785}
{-0.001}
{-0.001}
{-0.00081960787}
{-0.00082352944}
{-0.00083921576}
{-0.001}
{-0.00037647062}
{-0.0003803922}
{-0.00040000002}
{-0.001}
{-0.00029803923}
{-0.0003019608}
{-0.00032156866}
{-0.001}
{-0.00034901962}
{-0.00034509806}
{-0.0003686275}
{-0.001}
{-0.0003411765}
{-0.00033725493}
{-0.00036078435}
{-0.001}
{-0.0003294118}
{-0.00032549023}
{-0.00034509806}
{-0.001}
{-0.0003176471}
{-0.00031372553}
{-0.00033333336}
{-0.001}
{-0.00032156866}
{-0.0003176471}
{-0.00033725493}
{-0.001}
{-0.00034901962}
{-0.00034509806}
{-0.00036470592}
{-0.001}
{-0.00032156866}
{-0.00032549023}
{-0.00034509806}
{-0.001}
{-0.00032549023}
{-0.00032549023}
{-0.00035686276}
{-0.001}
{-0.00033725493}
{-0.00033725493}
{-0.0003686275}
{-0.001}
{-0.00032156866}
{-0.00032549023}
{-0.00034509806}
{-0.001}
{-0.00028627453}
{-0.0002901961}
{-0.00030980396}
{-0.001}
{-0.0003294118}
{-0.00033333336}
{-0.0003529412}
{-0.001}
{-0.00034901962}
{-0.00034509806}
{-0.0003686275}
{-0.001}
{-0.00047450984}
{-0.00047058825}
{-0.0004941177}
{-0.001}
{-0.00034901962}
{-0.00034509806}
{-0.0003686275}
{-0.001}
{-0.00034901962}
{-0.00034509806}
{-0.0003686275}
{-0.001}
{-0.0003058824}
{-0.0003019608}
{-0.00032549023}
{-0.001}
{-0.0003176471}
{-0.00031372553}
{-0.00033725493}
{-0.001}
{-0.0002901961}
{-0.00028627453}
{-0.00030980396}
{-0.001}
{-0.0002784314}
{-0.00027450983}
{-0.00029803923}
{-0.001}
{-0.0002784314}
{-0.00027450983}
{-0.00029803923}
{-0.001}
{-0.00028627453}
{-0.00028235296}
{-0.0003058824}
{-0.001}
{-0.00029411766}
{-0.0002901961}
{-0.00030980396}
{-0.001}
{-0.00028235296}
{-0.0002784314}
{-0.00029803923}
{-0.001}
{-0.00028627453}
{-0.00028627453}
{-0.00029411766}
{-0.001}
{-0.00029411766}
{-0.00029411766}
{-0.0003019608}
{-0.001}
{-0.0002784314}
{-0.0002784314}
{-0.00028627453}
{-0.001}
{-0.0002666667}
{-0.0002666667}
{-0.00027450983}
{-0.001}
{-0.0002666667}
{-0.0002666667}
{-0.00027450983}
{-0.001}
{-0.00026274513}
{-0.00026274513}
{-0.00027058827}
{-0.001}
{-0.00026274513}
{-0.0002666667}
{-0.00027450983}
{-0.001}
{-0.00026274513}
{-0.0002666667}
{-0.00027450983}
{-0.001}
{-0.000254902}
{-0.00026274513}
{-0.00025882357}
{-0.001}
{-0.00025098043}
{-0.00025882357}
{-0.000254902}
{-0.001}
{-0.000254902}
{-0.00026274513}
{-0.00025882357}
{-0.001}
{-0.00026274513}
{-0.00027058827}
{-0.0002666667}
{-0.001}
{-0.00026274513}
{-0.00027058827}
{-0.0002666667}
{-0.001}
{-0.000254902}
{-0.00025882357}
{-0.0002666667}
{-0.001}
{-0.00026274513}
{-0.0002666667}
{-0.00027450983}
{-0.001}
{-0.000254902}
{-0.00025882357}
{-0.0002666667}
{-0.001}
{-0.0002666667}
{-0.00027058827}
{-0.0002784314}
{-0.001}
{-0.00027058827}
{-0.00027450983}
{-0.00028235296}
{-0.001}
{-0.0007686275}
{-0.0007725491}
{-0.0007803922}
{-0.001}
{-0.0009882353}
{-0.0009921569}
{-0.001}
{-0.001}
{-0.0009882353}
{-0.0009921569}
{-0.001}
{-0.001}
{-0.0009960785}
{-0.001}
{-0.001}
{-0.001}
{-0.001}
{-0.001}
{-0.001}
{-0.001}
{-0.001}
{-0.001}
{-0.001}
{-0.001}
{-0.001}
{-0.001}
{-0.001}
{-0.001}
{-0.0009960785}
{-0.0009960785}
{-0.0009960785}
{-0.001}
{-0.001}
{-0.0009921569}
{-0.0009960785}
{-0.001}
{-0.001}
{-0.0009960785}
{-0.001}
{-0.001}
{-0.001}
{-0.001}
{-0.0009921569}
{-0.001}
{-0.001}
{-0.001}
{-0.0009921569}
{-0.001}
{-0.001}
{-0.001}
{-0.001}
{-0.001}
{-0.001}
{-0.001}
{-0.001}
{-0.001}
{-0.001}
{-0.001}
{-0.001}
{-0.001}
{-0.001}
{-0.001}
{-0.001}
{-0.001}
{-0.001}
{-0.001}
{-0.001}
{-0.001}
{-0.001}
{-0.001}
{-0.001}
{-0.001}
{-0.001}
{-0.001}
{-0.001}
{-0.001}
{-0.001}
{-0.001}
{-0.001}
{-0.001}
{-0.001}
{-0.001}
{-0.001}
{-0.001}
{-0.001}
{-0.001}
{-0.001}
{-0.001}
{-0.001}
{-0.001}
{-0.001}
{-0.001}
{-0.001}
{-0.001}
{-0.001}
{-0.001}
{-0.001}
{-0.001}
{-0.001}
{-0.001}
{-0.001}
{-0.001}
{-0.001}
{-0.001}
{-0.001}
{-0.001}
{-0.001}
{-0.001}
{-0.001}
{-0.001}
{-0.001}
{-0.001}
{-0.001}
{-0.001}
{-0.001}
{-0.001}
{-0.001}
{-0.001}
{-0.001}
{-0.001}
{-0.001}
{-0.001}
{-0.001}
{-0.001}
{-0.001}
{-0.001}
{-0.001}
{-0.001}
{-0.001}
{-0.001}
{-0.001}
{-0.001}
{-0.001}
{-0.001}
{-0.001}
{-0.001}
{-0.001}
{-0.001}
{-0.001}
{-0.001}
{-0.001}
{-0.001}
{-0.001}
{-0.001}
{-0.001}
{-0.001}
{-0.001}
{-0.001}
{-0.001}
{-0.001}
{-0.001}
{-0.001}
{-0.001}
{-0.001}
{-0.001}
{-0.001}
{-0.001}
{-0.001}
{-0.001}
{-0.001}
{-0.001}
{-0.001}
{-0.001}
{-0.001}
{-0.001}
{-0.001}
{-0.001}
{-0.001}
{-0.001}
{-0.001}
{-0.001}
{-0.001}
{-0.001}
{-0.001}
{-0.001}
{-0.001}
{-0.001}
{-0.001}
{-0.001}
{-0.001}
{-0.001}
{-0.001}
{-0.001}
{-0.001}
{-0.001}
{-0.001}
{-0.001}
{-0.001}
{-0.001}
{-0.001}
{-0.001}
{-0.001}
{-0.001}
{-0.001}
{-0.0009921569}
{-0.001}
{-0.0009921569}
{-0.0009921569}
{-0.0009843138}
{-0.001}
{-0.001}
{-0.001}
{-0.001}
{-0.001}
{-0.001}
{-0.001}
{-0.001}
{-0.001}
{-0.0009882353}
{-0.0009882353}
{-0.0009960785}
{-0.001}
{-0.0009960785}
{-0.0009960785}
{-0.001}
{-0.001}
{-0.0009921569}
{-0.0009960785}
{-0.001}
{-0.001}
{-0.00080000004}
{-0.0008039216}
{-0.00081960787}
{-0.001}
{-0.00033725493}
{-0.0003411765}
{-0.00035686276}
{-0.001}
{-0.0002901961}
{-0.00029411766}
{-0.00030980396}
{-0.001}
{-0.00033725493}
{-0.00033333336}
{-0.0003529412}
{-0.001}
{-0.0003058824}
{-0.0003019608}
{-0.00032156866}
{-0.001}
{-0.00032156866}
{-0.0003176471}
{-0.00033725493}
{-0.001}
{-0.0003411765}
{-0.00033725493}
{-0.00035686276}
{-0.001}
{-0.00032549023}
{-0.00032549023}
{-0.00033333336}
{-0.001}
{-0.00033333336}
{-0.0003294118}
{-0.00034901962}
{-0.001}
{-0.0003411765}
{-0.00033725493}
{-0.00035686276}
{-0.001}
{-0.0003176471}
{-0.00031372553}
{-0.00033725493}
{-0.001}
{-0.00032549023}
{-0.00032156866}
{-0.00034509806}
{-0.001}
{-0.0003019608}
{-0.00029803923}
{-0.0003176471}
{-0.001}
{-0.00027058827}
{-0.0002666667}
{-0.00028627453}
{-0.001}
{-0.0003019608}
{-0.00029803923}
{-0.0003176471}
{-0.001}
{-0.00030980396}
{-0.0003058824}
{-0.0003294118}
{-0.001}
{-0.00032549023}
{-0.00032156866}
{-0.00034509806}
{-0.001}
{-0.00032156866}
{-0.0003176471}
{-0.0003411765}
{-0.001}
{-0.00032549023}
{-0.00032156866}
{-0.00034509806}
{-0.001}
{-0.0003058824}
{-0.0003058824}
{-0.00033725493}
{-0.001}
{-0.00033725493}
{-0.00033725493}
{-0.0003686275}
{-0.001}
{-0.00033725493}
{-0.00033725493}
{-0.0003686275}
{-0.001}
{-0.0003058824}
{-0.0003058824}
{-0.00033725493}
{-0.001}
{-0.00028627453}
{-0.00028627453}
{-0.0003176471}
{-0.001}
{-0.00028235296}
{-0.00028627453}
{-0.0003058824}
{-0.001}
{-0.00028627453}
{-0.00028235296}
{-0.0003019608}
{-0.001}
{-0.00028235296}
{-0.0002784314}
{-0.00029803923}
{-0.001}
{-0.0002784314}
{-0.00027450983}
{-0.00029411766}
{-0.001}
{-0.00027450983}
{-0.00027058827}
{-0.0002901961}
{-0.001}
{-0.0002666667}
{-0.00026274513}
{-0.00028235296}
{-0.001}
{-0.00025882357}
{-0.000254902}
{-0.00027450983}
{-0.001}
{-0.00025882357}
{-0.00026274513}
{-0.00027058827}
{-0.001}
{-0.0002666667}
{-0.00027058827}
{-0.0002784314}
{-0.001}
{-0.00027450983}
{-0.0002784314}
{-0.00028627453}
{-0.001}
{-0.00027058827}
{-0.00027450983}
{-0.00028235296}
{-0.001}
{-0.00027058827}
{-0.00027450983}
{-0.00028235296}
{-0.001}
{-0.000254902}
{-0.00025882357}
{-0.0002666667}
{-0.001}
{-0.000254902}
{-0.00025882357}
{-0.0002666667}
{-0.001}
{-0.00026274513}
{-0.0002666667}
{-0.00027450983}
{-0.001}
{-0.00025882357}
{-0.00026274513}
{-0.00027058827}
{-0.001}
{-0.000254902}
{-0.00025882357}
{-0.0002666667}
{-0.001}
{-0.0002666667}
{-0.00027058827}
{-0.00028627453}
{-0.001}
{-0.00028235296}
{-0.00028627453}
{-0.0003019608}
{-0.001}
{-0.00025882357}
{-0.00026274513}
{-0.0002784314}
{-0.001}
{-0.00029411766}
{-0.00029803923}
{-0.00031372553}
{-0.001}
{-0.00058431376}
{-0.0005882353}
{-0.00059607846}
{-0.001}
{-0.0009568628}
{-0.0009607844}
{-0.0009686275}
{-0.001}
{-0.0009960785}
{-0.001}
{-0.001}
{-0.001}
{-0.0009882353}
{-0.0009921569}
{-0.001}
{-0.001}
{-0.0009960785}
{-0.001}
{-0.001}
{-0.001}
{-0.0009960785}
{-0.001}
{-0.001}
{-0.001}
{-0.001}
{-0.001}
{-0.001}
{-0.001}
{-0.001}
{-0.001}
{-0.001}
{-0.001}
{-0.001}
{-0.001}
{-0.001}
{-0.001}
{-0.001}
{-0.001}
{-0.001}
{-0.001}
{-0.001}
{-0.001}
{-0.0009921569}
{-0.001}
{-0.001}
{-0.001}
{-0.0009921569}
{-0.001}
{-0.001}
{-0.001}
{-0.001}
{-0.001}
{-0.001}
{-0.001}
{-0.001}
{-0.001}
{-0.001}
{-0.001}
{-0.001}
{-0.001}
{-0.001}
{-0.001}
{-0.001}
{-0.001}
{-0.001}
{-0.001}
{-0.001}
{-0.001}
{-0.001}
{-0.001}
{-0.001}
{-0.001}
{-0.001}
{-0.001}
{-0.001}
{-0.001}
{-0.001}
{-0.001}
{-0.001}
{-0.001}
{-0.001}
{-0.001}
{-0.001}
{-0.001}
{-0.001}
{-0.001}
{-0.001}
{-0.001}
{-0.001}
{-0.001}
{-0.001}
{-0.001}
{-0.001}
{-0.001}
{-0.001}
{-0.001}
{-0.001}
{-0.001}
{-0.001}
{-0.001}
{-0.001}
{-0.001}
{-0.001}
{-0.001}
{-0.001}
{-0.001}
{-0.001}
{-0.001}
{-0.001}
{-0.001}
{-0.001}
{-0.001}
{-0.001}
{-0.001}
{-0.001}
{-0.001}
{-0.001}
{-0.001}
{-0.001}
{-0.001}
{-0.001}
{-0.001}
{-0.001}
{-0.001}
{-0.001}
{-0.001}
{-0.001}
{-0.001}
{-0.001}
{-0.001}
{-0.001}
{-0.001}
{-0.001}
{-0.001}
{-0.001}
{-0.001}
{-0.001}
{-0.001}
{-0.001}
{-0.001}
{-0.001}
{-0.001}
{-0.001}
{-0.001}
{-0.001}
{-0.001}
{-0.001}
{-0.001}
{-0.001}
{-0.001}
{-0.001}
{-0.001}
{-0.001}
{-0.001}
{-0.001}
{-0.001}
{-0.001}
{-0.001}
{-0.001}
{-0.001}
{-0.001}
{-0.001}
{-0.001}
{-0.001}
{-0.001}
{-0.001}
{-0.001}
{-0.001}
{-0.001}
{-0.001}
{-0.001}
{-0.001}
{-0.001}
{-0.001}
{-0.001}
{-0.001}
{-0.001}
{-0.001}
{-0.001}
{-0.001}
{-0.001}
{-0.001}
{-0.001}
{-0.001}
{-0.001}
{-0.001}
{-0.001}
{-0.001}
{-0.001}
{-0.001}
{-0.001}
{-0.001}
{-0.001}
{-0.001}
{-0.0009921569}
{-0.001}
{-0.001}
{-0.001}
{-0.0009921569}
{-0.001}
{-0.001}
{-0.001}
{-0.001}
{-0.001}
{-0.0009960785}
{-0.0009960785}
{-0.0009960785}
{-0.001}
{-0.001}
{-0.001}
{-0.001}
{-0.001}
{-0.001}
{-0.001}
{-0.001}
{-0.001}
{-0.0009960785}
{-0.001}
{-0.001}
{-0.001}
{-0.0008078432}
{-0.00081176474}
{-0.000827451}
{-0.001}
{-0.0003294118}
{-0.00033333336}
{-0.00034901962}
{-0.001}
{-0.0002784314}
{-0.00028235296}
{-0.00029803923}
{-0.001}
{-0.0003294118}
{-0.00032549023}
{-0.00034509806}
{-0.001}
{-0.00032549023}
{-0.00032156866}
{-0.0003411765}
{-0.001}
{-0.0003294118}
{-0.00032549023}
{-0.00034509806}
{-0.001}
{-0.0003294118}
{-0.00032549023}
{-0.00034509806}
{-0.001}
{-0.00032549023}
{-0.00032549023}
{-0.00033333336}
{-0.001}
{-0.00031372553}
{-0.00031372553}
{-0.00032156866}
{-0.001}
{-0.00033333336}
{-0.0003294118}
{-0.00034901962}
{-0.001}
{-0.00031372553}
{-0.00030980396}
{-0.0003294118}
{-0.001}
{-0.0003176471}
{-0.00031372553}
{-0.00033333336}
{-0.001}
{-0.0003176471}
{-0.00031372553}
{-0.00033333336}
{-0.001}
{-0.0003019608}
{-0.00029803923}
{-0.0003176471}
{-0.001}
{-0.00030980396}
{-0.0003058824}
{-0.00032549023}
{-0.001}
{-0.00032549023}
{-0.00032156866}
{-0.00034509806}
{-0.001}
{-0.0003058824}
{-0.0003019608}
{-0.00032549023}
{-0.001}
{-0.0003019608}
{-0.00029803923}
{-0.00032156866}
{-0.001}
{-0.00030980396}
{-0.0003058824}
{-0.0003294118}
{-0.001}
{-0.00036470592}
{-0.00036470592}
{-0.00039607845}
{-0.001}
{-0.00037254905}
{-0.00037254905}
{-0.0004039216}
{-0.001}
{-0.00041176472}
{-0.00041176472}
{-0.00044313728}
{-0.001}
{-0.0003411765}
{-0.0003529412}
{-0.0003803922}
{-0.001}
{-0.0002901961}
{-0.0003019608}
{-0.0003294118}
{-0.001}
{-0.00028235296}
{-0.00029411766}
{-0.00032156866}
{-0.001}
{-0.0002784314}
{-0.00028235296}
{-0.0003019608}
{-0.001}
{-0.00028627453}
{-0.00028235296}
{-0.0003019608}
{-0.001}
{-0.0002784314}
{-0.00027450983}
{-0.00029411766}
{-0.001}
{-0.0002666667}
{-0.00026274513}
{-0.00028235296}
{-0.001}
{-0.0002666667}
{-0.00026274513}
{-0.00028235296}
{-0.001}
{-0.0002666667}
{-0.00026274513}
{-0.00028235296}
{-0.001}
{-0.00026274513}
{-0.0002666667}
{-0.00027450983}
{-0.001}
{-0.0002666667}
{-0.00027058827}
{-0.0002784314}
{-0.001}
{-0.0002784314}
{-0.00028235296}
{-0.0002901961}
{-0.001}
{-0.00028235296}
{-0.00028627453}
{-0.00029411766}
{-0.001}
{-0.00029411766}
{-0.00029803923}
{-0.0003058824}
{-0.001}
{-0.0002666667}
{-0.00027058827}
{-0.0002784314}
{-0.001}
{-0.00025098043}
{-0.000254902}
{-0.00026274513}
{-0.001}
{-0.00026274513}
{-0.0002666667}
{-0.00027450983}
{-0.001}
{-0.00025882357}
{-0.00026274513}
{-0.00027058827}
{-0.001}
{-0.00027450983}
{-0.0002784314}
{-0.00028627453}
{-0.001}
{-0.00028627453}
{-0.0002901961}
{-0.0003058824}
{-0.001}
{-0.00025882357}
{-0.00026274513}
{-0.0002784314}
{-0.001}
{-0.00027450983}
{-0.0002784314}
{-0.00029411766}
{-0.001}
{-0.000254902}
{-0.00025882357}
{-0.00027450983}
{-0.001}
{-0.0002901961}
{-0.00029411766}
{-0.0003019608}
{-0.001}
{-0.00089803926}
{-0.0009019608}
{-0.00090980396}
{-0.001}
{-0.0009921569}
{-0.0009960785}
{-0.001}
{-0.001}
{-0.0009960785}
{-0.001}
{-0.001}
{-0.001}
{-0.0009960785}
{-0.001}
{-0.001}
{-0.001}
{-0.0009921569}
{-0.001}
{-0.0009960785}
{-0.001}
{-0.0009960785}
{-0.0009960785}
{-0.0009960785}
{-0.001}
{-0.001}
{-0.001}
{-0.001}
{-0.001}
{-0.001}
{-0.001}
{-0.001}
{-0.001}
{-0.001}
{-0.001}
{-0.001}
{-0.001}
{-0.001}
{-0.001}
{-0.0009921569}
{-0.001}
{-0.001}
{-0.001}
{-0.0009921569}
{-0.001}
{-0.001}
{-0.001}
{-0.001}
{-0.001}
{-0.001}
{-0.001}
{-0.001}
{-0.001}
{-0.001}
{-0.001}
{-0.001}
{-0.001}
{-0.001}
{-0.001}
{-0.001}
{-0.001}
{-0.001}
{-0.001}
{-0.001}
{-0.001}
{-0.001}
{-0.001}
{-0.001}
{-0.001}
{-0.001}
{-0.001}
{-0.001}
{-0.001}
{-0.001}
{-0.001}
{-0.001}
{-0.001}
{-0.001}
{-0.001}
{-0.001}
{-0.001}
{-0.001}
{-0.001}
{-0.001}
{-0.001}
{-0.001}
{-0.001}
{-0.001}
{-0.001}
{-0.001}
{-0.001}
{-0.001}
{-0.001}
{-0.001}
{-0.001}
{-0.001}
{-0.001}
{-0.001}
{-0.001}
{-0.001}
{-0.001}
{-0.001}
{-0.001}
{-0.001}
{-0.001}
{-0.001}
{-0.001}
{-0.001}
{-0.001}
{-0.001}
{-0.001}
{-0.001}
{-0.001}
{-0.001}
{-0.001}
{-0.001}
{-0.001}
{-0.001}
{-0.001}
{-0.001}
{-0.001}
{-0.001}
{-0.001}
{-0.001}
{-0.001}
{-0.001}
{-0.001}
{-0.001}
{-0.001}
{-0.001}
{-0.001}
{-0.001}
{-0.001}
{-0.001}
{-0.001}
{-0.001}
{-0.001}
{-0.001}
{-0.001}
{-0.001}
{-0.001}
{-0.001}
{-0.001}
{-0.001}
{-0.001}
{-0.001}
{-0.001}
{-0.001}
{-0.001}
{-0.001}
{-0.001}
{-0.001}
{-0.001}
{-0.001}
{-0.001}
{-0.001}
{-0.001}
{-0.001}
{-0.001}
{-0.001}
{-0.001}
{-0.001}
{-0.001}
{-0.001}
{-0.001}
{-0.001}
{-0.001}
{-0.001}
{-0.001}
{-0.001}
{-0.001}
{-0.001}
{-0.001}
{-0.001}
{-0.001}
{-0.001}
{-0.001}
{-0.001}
{-0.001}
{-0.001}
{-0.001}
{-0.001}
{-0.001}
{-0.001}
{-0.001}
{-0.001}
{-0.001}
{-0.001}
{-0.001}
{-0.0009921569}
{-0.0009921569}
{-0.0009843138}
{-0.001}
{-0.001}
{-0.001}
{-0.0009921569}
{-0.001}
{-0.001}
{-0.001}
{-0.001}
{-0.001}
{-0.001}
{-0.001}
{-0.001}
{-0.001}
{-0.001}
{-0.001}
{-0.001}
{-0.001}
{-0.001}
{-0.001}
{-0.001}
{-0.001}
{-0.0009254902}
{-0.0009254902}
{-0.00093333336}
{-0.001}
{-0.0006235295}
{-0.0006235295}
{-0.0006313726}
{-0.001}
{-0.0003058824}
{-0.0003019608}
{-0.00032156866}
{-0.001}
{-0.00029803923}
{-0.00029411766}
{-0.00031372553}
{-0.001}
{-0.00031372553}
{-0.00030980396}
{-0.0003294118}
{-0.001}
{-0.00033333336}
{-0.0003294118}
{-0.00034901962}
{-0.001}
{-0.00033333336}
{-0.00033333336}
{-0.0003411765}
{-0.001}
{-0.00032156866}
{-0.00032156866}
{-0.0003294118}
{-0.001}
{-0.00032156866}
{-0.00032156866}
{-0.0003294118}
{-0.001}
{-0.00028627453}
{-0.00028627453}
{-0.00029411766}
{-0.001}
{-0.00029411766}
{-0.00028627453}
{-0.00029803923}
{-0.001}
{-0.00029411766}
{-0.00028627453}
{-0.00029803923}
{-0.001}
{-0.00029803923}
{-0.0002901961}
{-0.0003019608}
{-0.001}
{-0.00031372553}
{-0.0003058824}
{-0.0003176471}
{-0.001}
{-0.0003019608}
{-0.00029411766}
{-0.00031372553}
{-0.001}
{-0.00034901962}
{-0.0003411765}
{-0.00036078435}
{-0.001}
{-0.0003294118}
{-0.00032549023}
{-0.00034509806}
{-0.001}
{-0.0003529412}
{-0.00034901962}
{-0.0003686275}
{-0.001}
{-0.00030980396}
{-0.00031372553}
{-0.00033333336}
{-0.001}
{-0.00032549023}
{-0.0003294118}
{-0.00034901962}
{-0.001}
{-0.00038431375}
{-0.00038431375}
{-0.00041568629}
{-0.001}
{-0.00037254905}
{-0.00038431375}
{-0.00041176472}
{-0.001}
{-0.00039607845}
{-0.00040784315}
{-0.00044313728}
{-0.001}
{-0.00032156866}
{-0.00033725493}
{-0.00037254905}
{-0.001}
{-0.00027058827}
{-0.00028627453}
{-0.00032156866}
{-0.001}
{-0.0002666667}
{-0.0002784314}
{-0.0003058824}
{-0.001}
{-0.0002901961}
{-0.00029411766}
{-0.00031372553}
{-0.001}
{-0.00028235296}
{-0.00028627453}
{-0.0003019608}
{-0.001}
{-0.00027058827}
{-0.00027450983}
{-0.0002901961}
{-0.001}
{-0.00027450983}
{-0.0002784314}
{-0.00029411766}
{-0.001}
{-0.00028235296}
{-0.00028627453}
{-0.0003019608}
{-0.001}
{-0.00027450983}
{-0.0002784314}
{-0.00029411766}
{-0.001}
{-0.00026274513}
{-0.0002666667}
{-0.00028235296}
{-0.001}
{-0.0002666667}
{-0.00027058827}
{-0.00028627453}
{-0.001}
{-0.00028235296}
{-0.00028627453}
{-0.0003019608}
{-0.001}
{-0.00028627453}
{-0.0002901961}
{-0.0003058824}
{-0.001}
{-0.00029803923}
{-0.0003019608}
{-0.00030980396}
{-0.001}
{-0.00027058827}
{-0.00027450983}
{-0.00028235296}
{-0.001}
{-0.00025098043}
{-0.000254902}
{-0.00026274513}
{-0.001}
{-0.00025882357}
{-0.00026274513}
{-0.00027058827}
{-0.001}
{-0.00026274513}
{-0.0002666667}
{-0.00027450983}
{-0.001}
{-0.00028235296}
{-0.00028627453}
{-0.00029411766}
{-0.001}
{-0.00024313727}
{-0.00024705884}
{-0.00026274513}
{-0.001}
{-0.00027450983}
{-0.0002784314}
{-0.00029411766}
{-0.001}
{-0.0002901961}
{-0.00029411766}
{-0.00030980396}
{-0.001}
{-0.00025882357}
{-0.00026274513}
{-0.0002784314}
{-0.001}
{-0.00027450983}
{-0.0002784314}
{-0.00029411766}
{-0.001}
{-0.0006196079}
{-0.0006235295}
{-0.00063921575}
{-0.001}
{-0.0009490197}
{-0.00095294125}
{-0.0009607844}
{-0.001}
{-0.0009921569}
{-0.0009960785}
{-0.001}
{-0.001}
{-0.0009960785}
{-0.001}
{-0.001}
{-0.001}
{-0.0009960785}
{-0.001}
{-0.001}
{-0.001}
{-0.0009960785}
{-0.0009960785}
{-0.0009960785}
{-0.001}
{-0.001}
{-0.001}
{-0.001}
{-0.001}
{-0.001}
{-0.001}
{-0.0009921569}
{-0.001}
{-0.001}
{-0.001}
{-0.0009921569}
{-0.001}
{-0.0009960785}
{-0.0009960785}
{-0.0009882353}
{-0.001}
{-0.0009960785}
{-0.0009960785}
{-0.0009882353}
{-0.001}
{-0.001}
{-0.001}
{-0.001}
{-0.001}
{-0.001}
{-0.001}
{-0.001}
{-0.001}
{-0.001}
{-0.001}
{-0.001}
{-0.001}
{-0.001}
{-0.001}
{-0.001}
{-0.001}
{-0.001}
{-0.001}
{-0.001}
{-0.001}
{-0.001}
{-0.001}
{-0.001}
{-0.001}
{-0.001}
{-0.001}
{-0.001}
{-0.001}
{-0.001}
{-0.001}
{-0.001}
{-0.001}
{-0.001}
{-0.001}
{-0.001}
{-0.001}
{-0.001}
{-0.001}
{-0.001}
{-0.001}
{-0.001}
{-0.001}
{-0.001}
{-0.001}
{-0.001}
{-0.001}
{-0.001}
{-0.001}
{-0.001}
{-0.001}
{-0.001}
{-0.001}
{-0.001}
{-0.001}
{-0.001}
{-0.001}
{-0.001}
{-0.001}
{-0.001}
{-0.001}
{-0.001}
{-0.001}
{-0.001}
{-0.001}
{-0.001}
{-0.001}
{-0.001}
{-0.001}
{-0.001}
{-0.001}
{-0.001}
{-0.001}
{-0.001}
{-0.001}
{-0.001}
{-0.001}
{-0.001}
{-0.001}
{-0.001}
{-0.001}
{-0.001}
{-0.001}
{-0.001}
{-0.001}
{-0.001}
{-0.001}
{-0.001}
{-0.001}
{-0.001}
{-0.001}
{-0.001}
{-0.001}
{-0.001}
{-0.001}
{-0.001}
{-0.001}
{-0.001}
{-0.001}
{-0.001}
{-0.001}
{-0.001}
{-0.001}
{-0.001}
{-0.001}
{-0.001}
{-0.001}
{-0.001}
{-0.001}
{-0.001}
{-0.001}
{-0.001}
{-0.001}
{-0.001}
{-0.001}
{-0.001}
{-0.001}
{-0.001}
{-0.001}
{-0.001}
{-0.001}
{-0.001}
{-0.001}
{-0.001}
{-0.001}
{-0.001}
{-0.001}
{-0.001}
{-0.001}
{-0.001}
{-0.001}
{-0.001}
{-0.001}
{-0.001}
{-0.001}
{-0.001}
{-0.001}
{-0.001}
{-0.001}
{-0.001}
{-0.001}
{-0.001}
{-0.001}
{-0.001}
{-0.001}
{-0.001}
{-0.001}
