-- Efficiency --
95.3831
-- Weights --
{0.70117044}
{-0.5872622}
{-0.8456876}
{0.5172899}
{0.8609779}
{-0.13225938}
{-0.048714217}
{-0.5785699}
{0.48434317}
{-0.604414}
{0.59290963}
{0.6510997}
{0.885128}
{0.6527495}
{0.3932237}
{-0.6522207}
{0.4607793}
{-0.3893462}
{-0.025027545}
{-0.41859916}
{-0.050455038}
{0.25645152}
{0.55908173}
{-0.60455513}
{0.08688691}
{-0.15840067}
{-0.26263264}
{0.37199664}
{-0.80503726}
{0.82104844}
{-0.44871816}
{-0.04885306}
{-0.687351}
{0.2793204}
{0.20025232}
{0.80553305}
{0.36577046}
{0.0007557168}
{0.6009177}
{0.95901895}
{-0.5384617}
{-0.61757165}
{0.13621914}
{0.8026225}
{0.9262841}
{-0.44574374}
{-0.7857814}
{-0.07377404}
{-0.29024947}
{0.68596363}
{0.64763963}
{-0.086233385}
{-0.90382075}
{0.8312906}
{-0.06734652}
{-0.3601058}
{-0.64602685}
{0.9775116}
{-0.2926307}
{-0.70622987}
{-0.048365295}
{0.84807163}
{-0.8904092}
{-0.39962643}
{-0.6519027}
{-0.5856961}
{0.5725389}
{-0.07916648}
{0.7897043}
{-0.6529599}
{-0.6417926}
{0.49542204}
{0.8505416}
{0.34630552}
{0.11261314}
{0.64226454}
{0.42374027}
{-0.34596536}
{0.81369007}
{-0.8748438}
{0.673712}
{0.43501988}
{-0.7828374}
{-0.8860527}
{0.27161443}
{-0.052410662}
{0.9766274}
{-0.5332192}
{-0.5420065}
{-0.75544864}
{0.8767584}
{-0.0047797495}
{-0.023808882}
{0.22430353}
{0.3634667}
{-0.71008265}
{0.8644202}
{-0.29524022}
{-0.24562153}
{-0.55068946}
{0.48595273}
{0.39078316}
{0.034547396}
{0.7717069}
{0.25628436}
{0.95853484}
{-0.4861055}
{-0.82020503}
{0.4521848}
{-0.2790749}
{-0.37985292}
{-0.6319743}
{0.50714207}
{-0.10877245}
{-0.03178013}
{0.865658}
{0.57454205}
{-0.34095648}
{-0.14475119}
{-0.50039005}
{-0.66696405}
{-0.0153267905}
{0.7365041}
{0.102620944}
{-0.7958002}
{0.778636}
{-0.92327625}
{-0.14298671}
{0.82613754}
{0.20543835}
{-0.18641506}
{-0.92227507}
{-0.47386968}
{-0.7255547}
{0.21824168}
{0.31351915}
{0.6922529}
{0.5006592}
{0.2965933}
{0.6953375}
{-0.24726021}
{-0.504337}
{-0.5167438}
{-0.81751347}
{-0.7508831}
{0.27874205}
{0.19168855}
{0.8481999}
{0.5665004}
{0.47666848}
{0.5798829}
{-0.27374625}
{-0.38390172}
{0.9345333}
{0.08120721}
{-0.7161462}
{-0.88534284}
{-0.36859858}
{0.6554487}
{-0.25992772}
{0.3944837}
{0.86765176}
{0.38600868}
{0.77664423}
{0.70123744}
{0.16897152}
{-0.08585417}
{0.74659276}
{-0.09574792}
{-0.5298016}
{0.45641062}
{-0.50339836}
{0.40278518}
{-0.6877734}
{-0.40952525}
{-0.1486807}
{-0.772074}
{-0.47392204}
{-0.3953715}
{-0.88912743}
{-0.82116985}
{-0.036754735}
{-0.28403986}
{-0.9633234}
{0.28591645}
{0.6571976}
{-0.7619796}
{0.93012446}
{0.52940273}
{0.66333526}
{-0.8362172}
{0.8252273}
{-0.07319018}
{-0.70887935}
{-0.14483206}
{0.9717912}
{-0.71503663}
{-0.5113829}
{0.042980544}
{-0.5893213}
{0.022287203}
{0.78092855}
{0.3056765}
{-0.8605704}
{-0.7927573}
{-0.69341505}
{-0.25645563}
{-0.48267326}
{0.1380461}
{0.031089213}
{0.067499466}
{-0.088519014}
{1.0237055}
{0.3350707}
{-0.07333826}
{-0.39082712}
{-0.49636048}
{-0.20703825}
{0.7724802}
{-0.20075224}
{0.5356662}
{0.5890971}
{1.0074184}
{-0.36503688}
{0.018055512}
{0.4022767}
{0.33591932}
{0.442525}
{-0.3235284}
{0.8657244}
{-0.49789673}
{0.76448303}
{-0.4264928}
{-0.4067909}
{0.033400666}
{0.29398552}
{-0.010238335}
{0.96273744}
{-0.79226756}
{0.30642438}
{0.62184024}
{0.7130398}
{-0.5434566}
{0.05272479}
{-0.25822008}
{0.30191937}
{0.8065345}
{-0.40388632}
{0.42391026}
{0.6859802}
{-0.2217656}
{-0.08506305}
{-0.07837936}
{0.51845616}
{-0.25569478}
{0.37824902}
{-0.24549949}
{0.33728918}
{-0.053896084}
{-0.0051539307}
{0.12224415}
{-0.57429737}
{-0.96731144}
{0.4673345}
{-0.76550794}
{0.90546715}
{-0.8736363}
{0.7355189}
{0.4785074}
{-0.2760148}
{-0.4997373}
{0.9445284}
{0.87370014}
{-0.25700846}
{-0.4231395}
{0.85865974}
{1.0055225}
{1.019611}
{-0.2057886}
{0.9542797}
{-0.085972995}
{0.6939003}
{0.22943549}
{-0.47737244}
{0.18605864}
{0.84582186}
{-0.3683096}
{0.15415101}
{-0.16761553}
{0.37961215}
{0.5176451}
{0.31243306}
{0.111824304}
{-0.30243382}
{-0.65703106}
{0.2439996}
{-0.7520101}
{0.57975256}
{-0.8311112}
{-0.011920821}
{-0.025318787}
{0.22482178}
{0.700662}
{0.75945914}
{-0.69230914}
{0.26280314}
{-0.60799927}
{0.05142492}
{-0.44351542}
{-0.8488809}
{0.27656516}
{0.057496354}
{0.8311112}
{-0.60893834}
{-0.5851209}
{-0.29775268}
{0.39961493}
{0.91914725}
{-0.055082563}
{-0.06302794}
{0.3041638}
{0.8944096}
{-0.48076305}
{0.7017512}
{0.8917341}
{-0.3945428}
{-0.43063158}
{-0.5018492}
{0.91570544}
{0.6142556}
{-0.51350385}
{-0.0408228}
{0.038748816}
{-0.9492794}
{0.7370531}
{-0.2066024}
{-0.82090545}
{0.41473198}
{-0.78744465}
{0.18036377}
{-0.9621484}
{-0.10721628}
{0.14128517}
{0.41822636}
{-0.13596213}
{-0.28873208}
{-0.27282652}
{0.634717}
{0.38268816}
{-0.015154822}
{-0.80625933}
{0.36564216}
{-0.4498111}
{0.6522501}
{-0.042157065}
{-0.58240426}
{0.66176534}
{0.80336386}
{-0.3647861}
{-0.39077806}
{-0.3316592}
{-0.105610624}
{1.0103779}
{0.6637086}
{0.9856138}
{0.5656028}
{0.85472476}
{0.04636545}
{0.18820083}
{-0.45117784}
{0.37176347}
{-0.16691087}
{-0.3797022}
{0.22821277}
{-0.030930929}
{-0.7070332}
{-0.63213944}
{-0.70363456}
{0.23670788}
{0.5096941}
{0.981112}
{0.096770495}
{-0.1912389}
{0.95311654}
{0.9990649}
{0.28947544}
{0.22425719}
{-0.4675118}
{0.001201465}
{-0.2444794}
{0.82307565}
{0.1978071}
{-0.065419644}
{-0.89639235}
{0.096200764}
{-0.8534589}
{0.9811554}
{0.47684953}
{-0.3430681}
{-0.0020644588}
{-0.81254935}
{0.9311952}
{-0.9242441}
{0.07044381}
{-0.2529899}
{0.049898483}
{0.032140616}
{0.40537667}
{0.62967825}
{0.37218565}
{-0.905877}
{-0.73887265}
{0.44179428}
{0.27631894}
{0.46662745}
{0.9836667}
{-0.68055534}
{0.8370231}
{-0.49932545}
{0.16156808}
{-0.6997881}
{0.98278797}
{0.08754266}
{0.7118367}
{0.73527193}
{-0.19869997}
{-0.14843988}
{-0.35802767}
{0.90956473}
{0.45731512}
{-0.4889742}
{-0.749726}
{0.48444426}
{1.0031335}
{0.022870732}
{0.94405663}
{-0.10401102}
{-0.8274342}
{-0.21602352}
{-0.39185673}
{0.3428613}
{-0.44862518}
{-0.36782822}
{0.37079093}
{0.33204496}
{-0.1707242}
{-0.96897554}
{-0.9182692}
{0.039909676}
{-0.67018306}
{0.024893653}
{0.8741473}
{-0.22632396}
{-0.5901891}
{0.5041184}
{-0.48788276}
{0.16032135}
{-0.98644954}
{-0.712484}
{0.94297636}
{0.029792383}
{0.1332924}
{-0.13231584}
{0.5575911}
{0.21455967}
{-0.4875294}
{-0.18576981}
{0.6156987}
{0.7183325}
{0.62775373}
{-0.35528296}
{0.628662}
{-0.13681662}
{0.7505994}
{-0.59287226}
{-0.78083664}
{0.054884985}
{0.2985235}
{0.30698293}
{0.33435956}
{-0.021171972}
{0.44182795}
{0.2918041}
{-0.28736222}
{0.7494681}
{0.69605374}
{-0.2435102}
{-0.1603072}
{-0.3613118}
{0.113095164}
{-0.8164652}
{-0.09775283}
{0.011609389}
{0.57145345}
{-0.9317115}
{0.581703}
{0.020540072}
{0.6106084}
{-0.13235581}
{-0.5197725}
{-0.66336536}
{0.44548196}
{-0.9568896}
{0.07476742}
{-0.037099764}
{-0.21510486}
{0.38734636}
{-0.88320917}
{0.8392322}
{0.8801066}
{-0.8766573}
{0.71027845}
{-0.28366864}
{0.6887905}
{-0.30621624}
{0.7252388}
{0.78075385}
{-0.9261693}
{-0.061459456}
{-0.23671181}
{-0.2610575}
{0.06279908}
{0.88657063}
{0.28163394}
{0.62692857}
{0.063560866}
{-0.27675456}
{-0.2432372}
{0.3808571}
{-0.31726515}
{-0.5039406}
{-0.86391145}
{0.45751202}
{0.16674185}
{0.347678}
{-0.7493223}
{-0.22936499}
{0.49261913}
{0.81977075}
{-0.863927}
{-0.87744117}
{-0.26582158}
{0.052392885}
{-0.28174543}
{-0.117393166}
{-0.95816416}
{-0.24477693}
{0.30805808}
{-0.25461853}
{-0.837463}
{0.12985587}
{0.6875113}
{-0.9482603}
{0.55431634}
{-0.022230929}
{-0.8639164}
{0.68758154}
{-0.05768512}
{-0.70928806}
{-0.8207818}
{0.19768393}
{-0.58640856}
{-0.0002383343}
{0.028293733}
{0.24941385}
{-0.7348566}
{0.103955545}
{-0.12425229}
{0.6832628}
{-0.1602612}
{0.9664253}
{-0.0066164033}
{-0.2789365}
{0.94273525}
{0.030783163}
{0.19510381}
{0.38464582}
{-0.48358285}
{-1.0064173}
{0.6140925}
{0.048483685}
{0.86345047}
{-1.0038558}
{0.8272688}
{-0.79073286}
{-0.8494643}
{-0.057599034}
{0.9324774}
{0.6690147}
{0.8734424}
{-0.33046827}
{0.5873715}
{-0.06815836}
{-0.83047336}
{-0.54903775}
{0.46510577}
{0.94022727}
{-0.3424579}
{-0.50324655}
{0.4582679}
{-0.5074358}
{0.919762}
{0.51639026}
{-0.27157247}
{0.90570116}
{0.41227272}
{-0.22650202}
{-0.55578464}
{-0.87857103}
{0.36411628}
{-0.9575952}
{-0.8412865}
{-0.6606376}
{-0.21388288}
{-0.8731614}
{-0.48422667}
{-0.1846739}
{0.85102856}
{-0.24491975}
{0.75146604}
{-0.8914387}
{0.47336942}
{-0.77662736}
{-0.56330127}
{-0.1482352}
{0.7228558}
{-0.7634192}
{-0.59291124}
{0.1426352}
{-0.34224886}
{-0.4447553}
{0.9399006}
{0.8122947}
{0.31365633}
{-0.5174325}
{-0.47309583}
{0.7908571}
{0.23907948}
{-0.44993794}
{-0.5012935}
{0.24503887}
{-0.6008889}
{-0.8834012}
{0.9444255}
{0.95413756}
{0.9773756}
{-0.53254694}
{0.249175}
{0.73091817}
{0.61062324}
{-0.95144796}
{0.97505265}
{0.6274178}
{-0.4821037}
{0.06942724}
{0.6727552}
{-0.48973137}
{-0.568184}
{0.34564355}
{0.7712446}
{-0.7095294}
{-0.43493}
{-0.6105027}
{0.34966546}
{-0.21198094}
{-0.28999692}
{-0.6497388}
{0.05707298}
{-0.03896229}
{-0.69984424}
{-0.5702385}
{0.07781207}
{-0.3717147}
{0.3721637}
{-0.08896194}
{-0.09985643}
{-0.36810148}
{-0.10987655}
{-0.4345176}
{-0.53121257}
{0.3959347}
{0.9554074}
{-0.6483782}
{0.26485717}
{-0.6669924}
{0.99247396}
{0.2957783}
{0.021141462}
{-0.085363835}
{-0.5461483}
{0.6941684}
{0.8074941}
{0.2827791}
{0.047372345}
{0.34852526}
{0.9147694}
{-0.8483672}
{0.79226357}
{0.94540215}
{0.5461871}
{0.73653746}
{-0.33112746}
{-0.5030944}
{0.9403253}
{-0.6466453}
{-0.053635094}
{-0.86325085}
{0.5436738}
{0.861665}
{-0.14233933}
{0.14300066}
{-0.28156495}
{-0.41030777}
{-0.36443567}
{-0.11434585}
{0.78120744}
{-0.06064078}
{-0.9942551}
{0.020151708}
{-0.8070733}
{0.1951071}
{0.95688987}
{0.706382}
{0.22583269}
{0.2823826}
{-0.7949806}
{-0.60782164}
{-0.21277595}
{0.8922031}
{-0.83934474}
{0.8996666}
{-0.8654557}
{-0.49060306}
{0.60662144}
{-0.9633614}
{0.92864174}
{-0.2693354}
{-0.6826728}
{-0.7199145}
{-0.93254524}
{0.42819107}
{0.12272981}
{-0.095781595}
{0.33621633}
{0.9219296}
{-0.08821161}
{-0.0061012646}
{-0.5729368}
{-0.3953544}
{-0.048174754}
{-0.22423057}
{-0.4755748}
{0.52017576}
{0.49093634}
{-0.45101756}
{-0.8388026}
{0.5721066}
{-0.12238641}
{0.050206006}
{0.22858676}
{-0.4839029}
{-0.49488404}
{0.646305}
{-0.032385062}
{0.54227185}
{-0.45082855}
{-0.08905056}
{0.2801457}
{0.15338409}
{-0.7869126}
{-0.68677473}
{0.001461587}
{-0.7936127}
{-0.7885057}
{0.36893076}
{-0.5745459}
{0.08524087}
{0.08445553}
{0.76749045}
{0.05308628}
{0.39502943}
{0.939585}
{-0.40120244}
{-0.737137}
{0.50756407}
{-0.17389731}
{-0.38362202}
{0.25486508}
{0.52853227}
{-0.4324769}
{0.431341}
{0.41866484}
{0.8949597}
{-0.058509093}
{-0.2051321}
{0.6513497}
{-0.15665686}
{-0.88943833}
{-0.67715454}
{-0.84317374}
{0.024456335}
{-0.60461545}
{0.17483808}
{0.17040557}
{0.8278203}
{-0.77397937}
{0.86510587}
{-0.11848645}
{0.19570339}
{-0.48524952}
{0.6936021}
{-0.40040818}
{0.18464458}
{-0.3039526}
{-0.96639055}
{-0.15175858}
{-0.7714691}
{-0.10126242}
{-0.90275604}
{-0.2451834}
{0.022578789}
{0.7393485}
{-0.047219418}
{0.8421622}
{0.44439185}
{0.7802109}
{-0.696311}
{-0.18304504}
{0.20970547}
{-0.19191094}
{0.6798131}
{0.73638695}
{-0.7387068}
{0.2693549}
{-0.10553519}
{0.05363683}
{-0.8507297}
{0.63956916}
{0.08956401}
{0.79092306}
{0.68627834}
{0.30776182}
{0.20755737}
{0.57193285}
{0.31934178}
{-0.511307}
{-0.8493527}
{-0.48555288}
{-0.21406186}
{-0.17847009}
{-0.6910447}
{-0.72736824}
{-0.5175252}
{-0.6826033}
{0.7296667}
{0.4263144}
{0.15412772}
{-0.34316176}
{0.04062097}
{-0.7543329}
{-0.23914874}
{0.4288546}
{-0.1079693}
{0.36112002}
{-0.17952383}
{-0.20114781}
{0.28288007}
{-0.47686923}
{-0.2001456}
{-0.6463104}
{0.37055376}
{0.2178747}
{0.2680186}
{0.95573825}
{0.14440568}
{0.25156313}
{0.14364348}
{-0.25175625}
{-0.553516}
{-0.15022826}
{0.5405204}
{0.3047353}
{-0.9411719}
{0.26995146}
{0.15798724}
{-0.44186142}
{0.84809333}
{0.73662513}
{0.05031641}
{-0.9532654}
{-0.944601}
{0.6858264}
{-0.4450544}
{0.82174534}
{1.0079902}
{0.4076915}
{0.9342632}
{-0.8626828}
{-0.9133205}
{-0.4040869}
{-0.15001333}
{-0.2944594}
{-0.015789943}
{-0.8462756}
{-0.16523015}
{-0.2359056}
{0.48194122}
{0.8903263}
{0.5040973}
{1.0169003}
{-0.6672837}
{-0.68111175}
{-0.5107012}
{-0.11356752}
{0.7042007}
{-0.21678236}
{-0.8217068}
{0.56980014}
{0.2083963}
{0.9295268}
{0.74256897}
{0.96118814}
{0.5629515}
{0.736769}
{0.08354763}
{-0.551849}
{0.6558323}
{0.16723904}
{0.7376642}
{0.044071615}
{-0.08731032}
{0.6127672}
{0.10206893}
{-0.37996516}
{0.046058696}
{-0.11419676}
{0.21238077}
{0.39378107}
{-0.32868916}
{0.835342}
{0.064220265}
{-0.6507385}
{0.3371561}
{-0.77098745}
{-0.5703957}
{0.311973}
{-0.19089165}
{-0.64188415}
{0.61289334}
{0.94998413}
{0.5310522}
{-0.7465105}
{0.46633112}
{-0.19908895}
{-0.92175347}
{0.6096207}
{0.5553465}
{0.7683149}
{-1.0420297}
{0.24318719}
{0.24398243}
{-0.32439232}
{-0.7328413}
{0.57963866}
{-0.5417354}
{0.088393144}
{0.15727209}
{-0.6009574}
{-0.052997302}
{0.05802588}
{-0.77658737}
{0.7020202}
{-0.6598275}
{0.54420394}
{0.21455936}
{0.1655288}
{0.2591921}
{0.568096}
{0.06292929}
{-0.39579168}
{0.6691835}
{0.12296878}
{-0.7825718}
{0.54643756}
{-0.09099838}
{0.7651793}
{-0.5059062}
{-0.5820903}
{0.6101062}
{-0.71665674}
{0.4976427}
{-0.9722419}
{0.79774165}
{0.14234772}
{-0.60793316}
{0.16920322}
{0.9375541}
{0.9945913}
{0.47758394}
{0.9089436}
{0.29157746}
{-0.34777954}
{0.7618074}
{-1.0283782}
{-0.015788004}
{-0.53594965}
{-0.7198446}
{0.84342706}
{0.25959194}
{0.24673419}
{0.065217346}
{-0.10728068}
{-0.3890103}
{-0.6367033}
{-0.5281306}
{-0.58061886}
{-0.30506933}
{0.85053396}
{0.56299824}
{-0.5906349}
{0.24311411}
{0.95485866}
{-0.40730685}
{-0.6050991}
{-0.9369898}
{-0.48804632}
{0.7076382}
{-0.30747637}
{0.30901086}
{0.9832912}
{-0.6095144}
{-0.90194684}
{-0.58678603}
{-0.4307037}
{0.5073637}
{-0.38819173}
{0.5836878}
{-0.8388451}
{-0.96853894}
{0.19384643}
{0.6643102}
{0.15943305}
{-0.26131895}
{0.043504927}
{-0.023852035}
{-0.3396161}
{0.8392402}
{0.6042413}
{-0.5565295}
{0.20928878}
{0.19042712}
{-0.1053388}
{-0.7811284}
{0.8349923}
{-0.49206886}
{0.58201534}
{-0.9290538}
{-0.9476392}
{0.6942706}
{0.0075718346}
{0.57072663}
{0.72747296}
{-0.46314424}
{-0.30715016}
{-0.37058246}
{0.8637651}
{0.43667}
{-0.029445289}
{-0.014269039}
{0.6536945}
{0.7345198}
{-0.15602447}
{-0.48654464}
{-0.12358448}
{-0.4031573}
{0.5136654}
{-0.7802818}
{-0.7177412}
{-0.8333757}
{0.90014404}
{-0.17082274}
{-0.92999196}
{0.37589866}
{-0.013461581}
{0.86258364}
{0.32984304}
{-0.63487154}
{0.056457806}
{-0.62339973}
{0.07789761}
{0.47873104}
{-0.20299156}
{0.57640314}
{-0.14963223}
{0.32881245}
{-0.7071719}
{0.33890665}
{0.81625986}
{0.8815184}
{-0.589}
{0.80023074}
{-0.5917619}
{-0.3537735}
{0.032488834}
{0.10155514}
{-0.48257422}
{-0.20071456}
{-0.4100539}
{0.8363838}
{-0.20995472}
{0.112736516}
{0.056393523}
{0.17767131}
{0.9178637}
{0.4913726}
{0.07430196}
{-0.85616565}
{0.3538278}
{0.72786206}
{0.2535302}
{-0.02269952}
{0.67726433}
{-0.7047381}
{-0.49698862}
{-0.48044103}
{0.6572498}
{0.057558786}
{0.65812707}
{-0.58792925}
{0.49883297}
{0.29247442}
{0.47373286}
{-0.5170002}
{-0.93050694}
{-0.8672952}
{-1.025544}
{-0.5423391}
{-0.40414914}
{-0.70308256}
{-0.032177467}
{-0.8298185}
{0.94854385}
{-0.66412127}
{0.044564087}
{0.89878297}
{0.6061658}
{-0.18298085}
{-0.47711894}
{0.47690475}
{-0.36818498}
{-0.3590845}
{0.3744176}
{-0.62687016}
{0.5421458}
{-0.90537834}
{0.29170454}
{0.5338235}
{-0.86977595}
{-0.63705087}
{0.6865962}
{-0.57855797}
{-0.38597134}
{0.77136195}
{0.71027076}
{-0.49897072}
{0.9258239}
{-0.59653246}
{-0.046317637}
{-0.3512069}
{-0.68350464}
{-0.22724369}
{0.20359202}
{-0.3887514}
{0.7479515}
{-0.7855004}
{-1.0033504}
{0.45838892}
{-0.3552956}
{-0.15291192}
{-0.7733417}
{0.056755617}
{-0.9902562}
{-0.6230254}
{0.7289634}
{0.6443944}
{0.9169282}
{0.6729801}
{0.5290452}
{-0.41340482}
{0.3965465}
{-0.41511908}
{-0.64527863}
{0.87808824}
{0.5267808}
{-0.08277236}
{-0.15068565}
{0.3159188}
{0.6572342}
{0.9619964}
{-0.9936057}
{0.08712199}
{-0.658301}
{-0.14644307}
{0.08806456}
{0.0661071}
{0.610089}
{0.79189473}
{0.096140675}
{-0.28156102}
{0.5162094}
{0.66284126}
{-0.34694582}
{0.40940893}
{0.54856807}
{-0.6715167}
{-0.82297856}
{-0.36282933}
{0.83390933}
{-0.40894914}
{0.03717272}
{0.36966264}
{-0.29933196}
{0.80629617}
{-0.15944931}
{-0.2899648}
{-0.47238708}
{-0.096746765}
{0.7119917}
{0.2193824}
{0.5101417}
{0.6934588}
{-0.64994997}
{-0.27423894}
{0.4368229}
{0.7180985}
{0.6145312}
{0.3398224}
{0.8095763}
{-0.47325045}
{-0.14391163}
{-0.14833581}
{0.91803765}
{0.46550944}
{0.8985253}
{-0.4703561}
{0.349803}
{-0.13198237}
{0.7203314}
{-0.3973981}
{-0.7307235}
{0.44681686}
{0.923265}
{-0.48407054}
{-0.62320477}
{-0.9958073}
{0.65540093}
{-0.7552645}
{0.27675867}
{-0.84209037}
{0.3006096}
{0.5034326}
{0.13782373}
{-1.0203573}
{0.84084326}
{-0.07213375}
{0.70458835}
{-0.07202065}
{-0.25817847}
{-0.75420976}
{-0.0023458027}
{0.3235143}
{-0.9908314}
{-0.23545802}
{0.09376878}
{-0.8128489}
{0.75786895}
{-0.4247886}
{-0.63378906}
{0.66554147}
{-0.9577835}
{0.46141374}
{0.7861427}
{-0.21540046}
{-0.63300055}
{-0.20193398}
{-0.89364797}
{-0.6116978}
{-0.4125334}
{-0.20236504}
{0.72651285}
{-0.69765997}
{-0.31166834}
{-0.4705714}
{-0.05810427}
{0.7438863}
{-0.9220746}
{0.065785}
{-0.26019973}
{-0.36897665}
{0.6864806}
{-0.8199372}
{-0.75933176}
{0.5809871}
{-0.5261908}
{0.96766114}
{-0.5264115}
{-1.0268449}
{-0.74428844}
{0.7163248}
{-0.9365733}
{-0.2639022}
{0.23937793}
{-0.40505087}
{0.2646461}
{-0.8253721}
{-0.945419}
{-0.016258404}
{0.1425421}
{0.024873568}
{0.9196653}
{-0.73786163}
{-0.13665241}
{-0.98160607}
{-0.2871871}
{0.08941367}
{-0.8038187}
{0.94752467}
{0.70150405}
{0.4693066}
{0.69650114}
{0.11927883}
{-1.0164378}
{0.5603647}
{-0.10243172}
{0.6201449}
{-0.91736776}
{0.90752864}
{0.9878254}
{0.49434146}
{-0.17968258}
{-0.1081614}
{-0.5551216}
{-0.35439208}
{-1.0276947}
{0.48265135}
{-0.10590972}
{0.47461495}
{-0.5527149}
{0.8306751}
{0.39093298}
{0.80588025}
{0.26021448}
{-0.6308327}
{-0.9495626}
{-0.79338676}
{0.8246601}
{-0.31884062}
{0.4314714}
{-0.24604222}
{0.1169993}
{0.91477346}
{-0.7235112}
{0.9575411}
{0.6149293}
{-0.53557205}
{-0.6176072}
{0.46481732}
{0.46644986}
{-0.0537271}
{0.82172155}
{-0.014898236}
{-0.4485873}
{-0.726073}
{0.6140281}
{-0.54584837}
{0.36693746}
{-0.87662244}
{0.9069258}
{-0.64063764}
{0.7025564}
{0.10418537}
{0.6418333}
{0.97535986}
{-0.950868}
{-0.6331525}
{-0.06859922}
{0.12284362}
{-0.87751836}
{1.01582}
{0.49093223}
{-0.8988678}
{0.21287759}
{0.565994}
{0.30506936}
{0.121406704}
{0.621076}
{0.71424556}
{0.39709505}
{0.32924375}
{0.3233107}
{-0.70528173}
{-0.78866506}
{-0.06550474}
{0.39745584}
{-0.017305776}
{-0.20746246}
{-0.12411573}
{0.5623592}
{0.5847528}
{0.6230345}
{-0.09426854}
{-0.46439934}
{0.18068135}
{-0.08108473}
{-0.41601494}
{-0.18149611}
{0.51622236}
{0.8782457}
{-0.41775072}
{-0.079435244}
{0.64525795}
{-0.43713287}
{0.03483673}
{0.6098114}
{0.7314234}
{0.77647316}
{-0.8714129}
{0.4010315}
{-0.014069006}
{0.3912215}
{-1.0399055}
{-0.369496}
{-0.31717837}
{0.93121725}
{-0.2576536}
{-0.8319453}
{-0.14592612}
{0.3584909}
{-0.97189456}
{-0.84428555}
{-0.32180583}
{0.97919244}
{-0.36883196}
{0.42709577}
{-0.22443831}
{-0.6286717}
{0.629811}
{0.28410804}
{0.24450481}
{0.79553854}
{0.6593336}
{-0.070097364}
{-0.7365663}
{-0.41779736}
{0.0785593}
{-0.63726246}
{-0.09937069}
{0.09315554}
{-0.90094084}
{-0.5675027}
{0.061117247}
{-0.13901421}
{-0.15331039}
{-0.7019389}
{0.21917474}
{-0.58244807}
{-0.013066145}
{-0.83668846}
{0.3566407}
{0.5989691}
{0.38901454}
{0.32804477}
{0.41634572}
{0.9291516}
{-0.62303513}
{-0.87176937}
{0.13229257}
{0.66791403}
{-0.87442344}
{-0.08962732}
{-0.21670783}
{0.4196595}
{0.7790529}
{0.39615384}
{0.47534192}
{0.23078187}
{-0.8563739}
{0.6162919}
{1.0201912}
{0.8890633}
{-0.6032092}
{-0.39064884}
{0.25157464}
{-0.7949538}
{-0.81678486}
{0.3332814}
{-0.67463803}
{0.5102738}
{0.6969365}
{-0.059995875}
{-0.35934937}
{0.041536156}
{0.6564755}
{0.6787828}
{0.4795729}
{0.2759967}
{0.39113888}
{0.69507813}
{1.0023999}
{0.67390025}
{-0.7718133}
{-0.4173937}
{-0.724839}
{0.22407272}
{-0.013673518}
{-0.16833976}
{0.35651863}
{0.062155575}
{-0.14693345}
{-0.87853855}
{0.27554405}
{-0.49471664}
{-0.64640266}
{0.050288107}
{-0.023989126}
{0.2547819}
{0.06451489}
{0.2551427}
{-0.7859411}
{0.23503548}
{0.70283014}
{0.8630278}
{-0.69524884}
{-0.06055769}
{0.60441566}
{0.5292743}
{0.03515823}
{-0.4656493}
{0.5479647}
{0.66923845}
{0.3444816}
{-0.5673083}
{-0.1819555}
{0.542984}
{-0.42911065}
{-0.15576275}
{-0.74840313}
{-0.44566816}
{-0.91592383}
{0.59921795}
{0.94980437}
{0.56072766}
{-0.1469785}
{-0.0582681}
{0.35854694}
{-0.73387456}
{-0.5018418}
{-0.6881566}
{-0.62779444}
{0.4093691}
{0.8268752}
{-0.73805094}
{0.08213207}
{0.2198343}
{-0.96063185}
{-0.9149398}
{-1.0023065}
{-0.49558356}
{-0.30242383}
{-0.19678901}
{0.87650716}
{-0.509032}
{0.20128119}
{-0.5745439}
{-0.3647603}
{-0.93795747}
{-0.24982798}
{-0.6947936}
{-0.76880056}
{-0.9141994}
{0.060569122}
{-0.014027904}
{0.7983458}
{-0.39112204}
{0.53462553}
{-0.29380414}
{0.76286465}
{-0.5122935}
{0.8092613}
{0.22188067}
{0.50531757}
{-0.05075851}
{-0.5739815}
{-0.94585824}
{-1.0131394}
{-0.29194328}
{0.45547593}
{-0.21280819}
{-0.9501064}
{-0.9444913}
{0.20904958}
{-0.7265866}
{-0.9093614}
{-0.50669277}
{-0.06482455}
{-0.19153664}
{0.5709245}
{-0.15185674}
{-0.48096055}
{0.68872577}
{-0.071940966}
{-0.6456694}
{-0.55374837}
{-0.7457097}
{0.3471344}
{-0.6116513}
{-0.28622735}
{0.92763305}
{0.23297024}
{0.80706125}
{-0.24955642}
{-0.38416043}
{0.4425166}
{-0.0019955272}
{-0.7169955}
{-0.22671807}
{0.5570461}
{-0.6360509}
{0.44124925}
{-0.24525645}
{-0.2674279}
{-0.1790361}
{0.52601624}
{-0.8066987}
{-0.55969924}
{0.9461923}
{-0.39328754}
{-0.5838892}
{0.9548265}
{-0.57947105}
{-0.8528819}
{0.16414993}
{-0.49916205}
{-0.2899165}
{0.028534487}
{0.24795635}
{-0.9957867}
{-0.9482502}
{-0.23723447}
{-0.5114021}
{-0.41204134}
{-0.9070101}
{0.69852614}
{-0.28553522}
{-0.08894081}
{-0.22891657}
{0.9873557}
{0.3213044}
{-0.79595554}
{0.82649064}
{0.9885814}
{-0.967774}
{0.31166106}
{-0.9570707}
{-0.5935638}
{-0.20153926}
{0.30821908}
{0.32422775}
{0.40617263}
{-0.6491851}
{-0.6820571}
{0.69264925}
{0.71057796}
{0.53151083}
{-0.4859643}
{0.769056}
{-0.7622466}
{-0.86815274}
{-0.50201005}
{0.39849848}
{-0.54700613}
{0.010082889}
{-0.69185627}
{0.9369506}
{0.12581328}
{0.5240048}
{0.68616354}
{-0.31103724}
{-0.8217783}
{0.90724844}
{0.38934398}
{-0.58105344}
{-0.43317544}
{-0.8733776}
{-0.4554832}
{0.8670191}
{0.75468373}
{-0.34167942}
{0.66463673}
{0.060667723}
{0.5686631}
{0.5661599}
{-0.23873292}
{0.44862348}
{-0.8487427}
{-0.5287902}
{-0.50532407}
{-0.11053326}
{-0.29514015}
{-0.8387546}
{0.6306793}
{-0.40200204}
{0.89825916}
{-0.8285535}
{0.8820677}
{-0.004542787}
{-0.26849544}
{0.991372}
{-0.6386779}
{-0.7302512}
{-0.71123433}
{0.35183847}
{-0.8532122}
{0.8093919}
{0.02503617}
{0.0047891005}
{0.039108265}
{0.4857142}
{0.65710807}
{-0.011215438}
{0.7943782}
{0.13623385}
{-0.1342138}
{0.17090024}
{-0.15200879}
{0.44774288}
{1.0063529}
{-0.7415887}
{0.09392777}
{-0.4628952}
{-0.7290337}
{-0.715481}
{-0.91418546}
{-0.16518919}
{0.9275098}
{-0.084464416}
{-0.22322549}
{-0.42830482}
{-0.3250872}
{0.06838261}
{-0.95919883}
{0.038493145}
{0.9432254}
{0.071911536}
{0.96014476}
{-0.22701365}
{0.15410912}
{0.43121663}
{-0.58661896}
{-0.13073586}
{-0.24260437}
{0.3452409}
{-0.7327592}
{0.5399684}
{0.15618026}
{0.8515615}
{0.38123026}
{0.85041136}
{-0.023850128}
{0.4556489}
{0.19846047}
{0.09533037}
{0.6486666}
{-0.14800055}
{-0.6071045}
{0.6761761}
{-0.7535713}
{-0.08924678}
{0.46292922}
{-1.0321348}
{-0.21294844}
{-0.31256878}
{0.91677386}
{-0.8001837}
{0.8807039}
{0.26792893}
{-0.27449468}
{0.33298206}
{0.45706713}
{0.31140265}
{-0.54897296}
{0.9230805}
{-0.84873056}
{0.1001056}
{0.7999109}
{-0.42604557}
{-0.95218325}
{0.5751242}
{-0.7660168}
{0.92680335}
{0.9787307}
{-0.49382132}
{-0.37428787}
{-0.76004994}
{-0.3530308}
{-0.6519018}
{0.78035885}
{0.3997734}
{0.7836888}
{-0.75053054}
{-0.9362397}
{-0.7010531}
{0.19257629}
{0.89390266}
{-0.9988448}
{-0.0134286275}
{-0.2184707}
{-0.2780394}
{-0.07480703}
{-0.74243945}
{-0.9547491}
{0.24916767}
{0.0037584067}
{0.7943911}
{0.53285646}
{-0.4490048}
{0.39817193}
{0.8101654}
{-0.8039551}
{0.7111364}
{0.40442637}
{0.91015565}
{0.58200336}
{-0.0017716312}
{-0.6282484}
{0.5535885}
{0.4622947}
{0.7495116}
{-0.13014175}
{0.2545345}
{0.7965193}
{-0.25684124}
{-0.94244295}
{0.92452097}
{-0.31194413}
{0.32860622}
{-0.9771017}
{-0.9612578}
{0.16170824}
{-0.5509243}
{0.17529562}
{-0.23789215}
{-0.60273314}
{0.775918}
{0.50351936}
{0.78131646}
{0.5956328}
{-0.45124984}
{-0.68162173}
{0.47303867}
{-0.91785645}
{0.6915033}
{-0.247094}
{0.37413558}
{0.18528593}
{0.22273876}
{0.12545939}
{-0.0708556}
{0.9780514}
{0.5574993}
{0.52416384}
{0.8427596}
{-0.17864525}
{-0.4000321}
{-0.15805994}
{-0.9145691}
{-0.46261132}
{0.352255}
{0.6028883}
{-0.61349434}
{0.9665916}
{0.8220457}
{-0.9957533}
{-0.56413966}
{-0.794235}
{-0.5939445}
{0.019596023}
{-0.20862925}
{-0.10687967}
{-0.15514107}
{0.24901205}
{0.69776356}
{0.97895336}
{0.94947857}
{0.38240764}
{0.8770342}
{0.81553483}
{0.08578016}
{0.770907}
{-0.79498875}
{-0.12940943}
{0.6380132}
{0.6835314}
{-0.6781916}
{0.8396332}
{0.11479058}
{0.020144941}
{-0.5981973}
{0.95003295}
{-0.6209293}
{0.7721155}
{0.6201355}
{0.4178697}
{-0.31425864}
{-0.09888971}
{-0.099661626}
{-0.9526315}
{0.59995}
{0.37422112}
{0.13385054}
{0.9428847}
{0.24481075}
{-0.030297846}
{0.5849064}
{0.821666}
{0.03573237}
{-0.34717813}
{-0.1926836}
{-0.53006625}
{0.52110314}
{0.32181942}
{-0.98515534}
{-0.92773485}
{0.858414}
{0.81311715}
{0.5938265}
{0.73446226}
{0.7788866}
{-0.72193444}
{-0.3279065}
{0.8945148}
{0.9048818}
{0.35812393}
{0.83825016}
{0.5295546}
{-0.6300617}
{-0.39913964}
{-0.9292156}
{-0.97306633}
{0.16141105}
{-0.033202365}
{-0.61413}
{-0.5914552}
{0.45644096}
{-0.68726367}
{-0.23533207}
{-0.32934558}
{0.7763057}
{0.23516616}
{-0.5004107}
{-0.12755954}
{-0.9191785}
{-0.583418}
{-0.07345596}
{0.7987621}
{0.5658652}
{-0.6856929}
{-0.8848793}
{-0.716223}
{0.3252474}
{-0.17317668}
{0.784359}
{0.33868158}
{0.8360195}
{-0.04258417}
{0.7819494}
{0.89802575}
{-0.81254685}
{0.642984}
{-0.36545926}
{0.5076883}
{0.7507348}
{-0.8888718}
{-0.33534735}
{0.0030959388}
{-0.9312308}
{-0.16383252}
{-0.027985021}
{-0.26419342}
{-0.48543683}
{0.47811663}
{0.9540811}
{0.26087105}
{0.8742099}
{0.40035784}
{0.7409263}
{0.90876627}
{-0.7674211}
{-0.97518796}
{-0.8068297}
{-0.6305413}
{-0.3368937}
{-0.9345985}
{-0.6819604}
{-0.7691252}
{-0.11354387}
{0.5713006}
{-0.17013629}
{0.89864707}
{-0.63611186}
{-0.1287154}
{-0.23819962}
{-0.0725126}
{0.20902751}
{0.5124637}
{0.579196}
{0.16859615}
{-0.7593894}
{0.71013117}
{0.14440562}
{-0.70712066}
{0.5439706}
{0.89320654}
{0.05314775}
{0.37968242}
{0.17817977}
{-0.50289327}
{0.75420415}
{0.33870423}
{-0.85596645}
{-0.24469607}
{0.26018664}
{0.79708695}
{-0.817708}
{0.65981287}
{0.09988125}
{0.78770804}
{-0.64575595}
{-0.70832545}
{0.08147593}
{-0.4771663}
{0.79045665}
{-0.12724285}
{0.055447027}
{0.4515301}
{0.9979242}
{0.43568632}
{0.8101993}
{-0.41313684}
{-0.040758356}
{0.6295805}
{-0.53576833}
{-0.75833344}
{0.09702635}
{0.27929023}
{-0.7349163}
{0.6062889}
{0.55279434}
{-0.52606493}
{0.32545844}
{-0.24393332}
{-0.289632}
{0.4852844}
{-0.15803388}
{-0.4145211}
{-0.8713569}
{0.86476165}
{0.21621025}
{-0.0008925651}
{0.98714966}
{-0.671913}
{0.9360234}
{-0.16439784}
{0.83367467}
{-0.91377443}
{0.57703936}
{0.33710706}
{-0.6104669}
{0.0892653}
{0.037368584}
{0.1768688}
{0.66849476}
{0.088308126}
{-0.73394454}
{0.951385}
{-0.33498442}
{-0.92001796}
{-0.7807361}
{-0.46761858}
{0.31986743}
{-0.8287501}
{0.60224795}
{0.009914949}
{-0.6498006}
{-0.5145024}
{0.14595985}
{0.61457324}
{-0.5548776}
{0.21954693}
{-0.94020915}
{0.98084474}
{-0.7133369}
{0.43226212}
{0.030324284}
{0.91363645}
{-0.8537632}
{-0.4154471}
{0.44261673}
{-0.066191405}
{0.42728823}
{-0.3576351}
{0.4249137}
{-0.4443282}
{-0.48867443}
{0.953051}
{0.7513523}
{0.8770926}
{0.37999785}
{0.9546107}
{-0.4394346}
{0.6752877}
{-0.643931}
{-0.8236751}
{0.79553026}
{-0.77680993}
{0.85335237}
{0.7288646}
{-0.77809423}
{-0.3123852}
{-0.76128787}
{0.13293172}
{0.15098225}
{1.0046005}
{0.99741226}
{-0.26481965}
{-0.7876839}
{-0.4282421}
{-0.71428174}
{-0.5166466}
{0.97174186}
{-0.79192424}
{0.95883596}
{0.40396744}
{0.7254578}
{-0.7710469}
{0.12092727}
{-0.6068857}
{0.52418}
{-0.035982057}
{0.6741173}
{0.17232755}
{0.7072314}
{-0.3562554}
{0.7889823}
{-0.25471246}
{-0.79966897}
{-0.66715956}
{-0.8851948}
{-0.44130152}
{0.876941}
{0.3466705}
{0.5086714}
{-0.6650805}
{0.17736839}
{-0.76633334}
{0.73507375}
{-0.070512965}
{-0.84647465}
{-0.67942023}
{-0.058684062}
{-0.72979254}
{0.5398981}
{0.61152554}
{-0.44265878}
{-0.12272241}
{-0.20190321}
{-0.052484937}
{-0.1302354}
{-0.023437407}
{0.16336757}
{-0.6023843}
{0.95204407}
{0.5087616}
{-0.49836922}
{-0.3850652}
{0.09414638}
{0.43319002}
{0.6310075}
{-0.18457186}
{0.41148478}
{0.42601243}
{-0.24576208}
{-0.96694183}
{0.032856528}
{0.69340456}
{-0.6870349}
{0.4418}
{-0.72362214}
{-0.42297998}
{-0.7080751}
{0.8870611}
{-0.7609589}
{-0.64985836}
{-0.9379339}
{-0.6721282}
{-0.67001593}
{-0.110036895}
{0.01951114}
{0.94014287}
{0.10360295}
{0.8121565}
{-0.4243412}
{-0.49639267}
{0.45440626}
{-0.40463072}
{0.48502797}
{0.62222767}
{0.50992817}
{0.5649642}
{-0.5772538}
{0.22125328}
{0.15066543}
{-0.94219774}
{-0.36710164}
{0.96191573}
{-0.932464}
{-0.41097143}
{0.50194836}
{-0.7555182}
{-0.34087268}
{-0.674321}
{-0.26188302}
{0.28891647}
{0.5646831}
{-0.22712044}
{-0.21592994}
{-0.15974605}
{0.3974213}
{0.40501657}
{0.89117295}
{0.45559132}
{0.8677921}
{0.61616105}
{-0.17813921}
{-0.34040582}
{0.03965314}
{-0.8065308}
{-0.38878998}
{0.14382206}
{-0.4327423}
{-0.083294176}
{0.6382793}
{-0.15867293}
{0.94330305}
{0.1880603}
{0.04970602}
{0.4764272}
{-0.752933}
{-0.57149726}
{0.7256432}
{-0.3715242}
{-0.779912}
{-0.26977876}
{0.7118368}
{-0.00097005116}
{0.54284066}
{0.37188444}
{-0.78651226}
{0.34393036}
{0.25341856}
{-0.49094722}
{-0.13580672}
{1.0137742}
{0.3143213}
{0.74348515}
{-0.56512785}
{0.66997814}
{-0.78861994}
{-0.23578139}
{-0.9314711}
{0.23210466}
{-0.65442896}
{0.9216127}
{0.43254665}
{-0.5030887}
{-0.9648792}
{0.44079688}
{-0.2386587}
{0.4469918}
{-0.86098534}
{0.30557424}
{-0.5815919}
{-0.90696955}
{-0.699709}
{-0.46117207}
{-0.8232917}
{-0.84766555}
{0.9655541}
{-0.5137207}
{-0.47778547}
{-0.046052154}
{-0.6054919}
{0.09725266}
{0.52781796}
{0.11539987}
{0.235082}
{0.9738242}
{0.36248633}
{0.32961953}
{0.51180357}
{0.47120073}
{0.8458846}
{-0.6098411}
{0.67752415}
{-0.22731003}
{0.54789835}
{0.41707623}
{-0.3714891}
{0.74298215}
{-0.019173142}
{0.05408652}
{-0.5150544}
{-0.016018888}
{-0.32305017}
{0.063678816}
{0.72805697}
{0.8338954}
{-0.27919653}
{-0.32892668}
{-0.48305422}
{0.33819827}
{0.6068194}
{-0.18528402}
{-0.958787}
{-0.9809501}
{-0.27135986}
{0.054960564}
{-0.077174254}
{-0.9398978}
{-0.71233696}
{0.34438288}
{-0.18813069}
{-0.07261572}
{0.5738547}
{0.6676774}
{0.1983338}
{-0.23010187}
{-0.97238696}
{-0.95454025}
{0.01734738}
{-0.6563756}
{0.46834782}
{-0.24695766}
{0.9376413}
{-0.13940184}
{0.65301394}
{0.96840715}
{-0.5281701}
{-0.39353743}
{-0.9329107}
{-0.3074478}
{-0.7139824}
{-0.51294243}
{-0.97873074}
{0.78344226}
{0.8718849}
{-0.61367935}
{-0.69408524}
{0.042176798}
{-0.5297393}
{0.43511587}
{-0.36357993}
{-0.34648025}
{0.5597789}
{0.61598915}
{0.82153845}
{-0.03934233}
{-0.3156828}
{-0.8343728}
{0.698348}
{0.22200692}
{-0.9481039}
{-0.53585035}
{-0.65017617}
{0.798975}
{0.9080073}
{0.4266083}
{-0.1040927}
{0.8440614}
{0.12134215}
{0.0628318}
{-0.56103146}
{0.75595427}
{-0.820548}
{0.15275303}
{-0.3146432}
{-0.2985505}
{-0.46144465}
{0.08427724}
{0.21664953}
{0.58789086}
{0.14327657}
{0.4966893}
{0.0790307}
{-0.8276837}
{-0.7611789}
{-0.72044075}
{0.11753757}
{-0.406278}
{0.1676902}
{-0.12887752}
{0.2747231}
{0.25162327}
{-0.0060638553}
{0.513848}
{0.35028395}
{0.30401957}
{0.4012812}
{0.7789999}
{-0.74784386}
{-0.72597337}
{0.67282814}
{0.6556486}
{-0.37407196}
{-0.29592693}
{0.26408148}
{-0.8801977}
{-0.5893381}
{-0.005952999}
{1.0113398}
{0.12698251}
{-0.10551828}
{-0.8348191}
{-0.23242058}
{0.5873485}
{-0.193204}
{-0.4650277}
{-0.26693615}
{0.8405122}
{0.906833}
{-0.73781943}
{-0.35977542}
{0.7019032}
{-0.6489957}
{-0.47969833}
{-0.97720236}
{-0.41611347}
{-0.9663147}
{-0.060185872}
{0.5839344}
{0.1194101}
{0.8279342}
{-0.82338405}
{0.6450434}
{0.35193083}
{0.2110002}
{0.18747437}
{-0.559201}
{-0.5520054}
{-0.1590762}
{-0.40517795}
{0.39211234}
{0.3440995}
{-0.8032222}
{-0.1943034}
{-0.094495736}
{-0.4440078}
{0.105605684}
{-0.8622992}
{0.41765305}
{-0.03152052}
{-0.35675454}
{-0.75934196}
{-0.7820921}
{-0.91361815}
{-0.30980423}
{0.93583393}
{-0.28707227}
{-0.26817513}
{0.034211338}
{-0.66707706}
{0.24144879}
{0.0677613}
{-0.09723198}
{0.16130364}
{-0.4089569}
{-0.6861164}
{0.5056635}
{-0.6534951}
{0.7394195}
{0.09632603}
{0.5767404}
{-0.7914927}
{-0.8613644}
{0.93758434}
{0.6663617}
{0.0003631853}
{0.42112}
{0.6405689}
{-0.49511385}
{0.25782096}
{0.91106987}
{-0.6480174}
{-0.9239811}
{-0.5494571}
{0.0899772}
{0.84518427}
{0.18847974}
{-0.067264766}
{1.0059997}
{0.14874308}
{-0.92034787}
{0.46429098}
{-0.83951396}
{-0.10421286}
{-0.9965143}
{-0.14757216}
{0.7141115}
{-0.039227765}
{0.9675773}
{-0.66993904}
{-0.29298267}
{-0.5195598}
{-0.846075}
{-0.583941}
{-0.73437583}
{0.07849019}
{-0.28317425}
{0.997344}
{-0.9229514}
{0.25779784}
{0.6695196}
{0.4008633}
{-0.72069454}
{0.7520983}
{-0.74773544}
{-0.31384456}
{-0.7754844}
{-0.699561}
{-0.7958643}
{-0.2974981}
{0.21302295}
{0.9295982}
{0.12878463}
{0.06770832}
{-0.21938567}
{0.8241595}
{0.08220368}
{-0.38769424}
{0.54912645}
{-0.16537274}
{-0.68077534}
{-0.017359182}
{-0.36819953}
{0.9880063}
{0.09863996}
{-0.76755357}
{-0.07708221}
{0.06696343}
{0.92090523}
{-0.48659518}
{-0.70554316}
{0.64009565}
{0.258946}
{0.035681084}
{-0.57338566}
{0.09071106}
{-0.3298872}
{0.94215894}
{-0.37768742}
{-0.32834756}
{0.30115065}
{-0.14796841}
{0.65626514}
{-0.28550246}
{-0.8406993}
{-0.7549937}
{0.19966507}
{0.11072392}
{0.65946317}
{0.72513247}
{-0.044408027}
{-0.7364858}
{0.21102354}
{-0.3107642}
{-0.8627451}
{-0.12719046}
{-0.7887429}
{-0.81866693}
{0.8067903}
{-0.5407997}
{0.4270077}
{-0.38290322}
{0.74139756}
{0.88976276}
{0.15634465}
{-0.7616916}
{0.1587951}
{0.13512337}
{-0.037837956}
{-0.2553302}
{-0.44706005}
{0.4457972}
{-0.86738575}
{-0.29687917}
{-0.7018565}
{-0.4523424}
{0.4297233}
{0.5421736}
{-0.093058534}
{-0.5490573}
{0.40386766}
{-0.01000683}
{-0.10114207}
{0.27666003}
{0.73088735}
{0.62236905}
{0.7476608}
{-0.19287549}
{-0.6064657}
{-0.21358144}
{0.7105043}
{-0.25194123}
{0.80857486}
{-0.8673823}
{-0.75950724}
{-0.6276483}
{-0.62503755}
{-0.88986254}
{0.59410584}
{-0.3609691}
{-0.4329192}
{-0.8346634}
{-0.9363898}
{-0.21255864}
{-0.47397476}
{-0.7834201}
{-0.7857996}
{0.77765185}
{-0.5746255}
{0.752177}
{0.13756904}
{-0.40815562}
{-0.6498221}
{0.4497584}
{-0.9279395}
{0.1126118}
{-0.12556651}
{-0.7017882}
{0.008425355}
{-0.20529601}
{-0.016225534}
{-0.49628204}
{-0.24304405}
{0.56431806}
{0.3727457}
{-0.35906208}
{-0.24160703}
{-0.3868523}
{-0.03611489}
{-0.68633175}
{-0.933475}
{-0.38210413}
{0.17281717}
{0.60524654}
{0.6106114}
{0.2442141}
{0.4263863}
{0.013773038}
{0.88020885}
{0.47674128}
{0.92347574}
{0.64888215}
{-0.5055471}
{0.52360356}
{0.8161158}
{0.5140127}
{-0.9718567}
{0.39341608}
{0.5772088}
{-0.9403455}
{0.30409813}
{-0.3103833}
{0.38575467}
{-0.17016208}
{0.31213152}
{0.13666105}
{-0.9311942}
{0.5802238}
{-0.6852443}
{0.7133972}
{0.20577107}
{0.963696}
{0.037219066}
{-0.6068142}
{-0.78832096}
{0.15620911}
{0.3536064}
{0.77124083}
{0.908937}
{0.2940241}
{-0.5212635}
{-0.23009975}
{-0.7196611}
{-0.7177222}
{0.60439193}
{-0.9863639}
{-0.94225293}
{0.047000006}
{0.5187456}
{-0.34463173}
{0.1468516}
{-0.10831661}
{-0.6650944}
{-0.5874132}
{0.0011785583}
{-0.6301477}
{-0.93989134}
{0.004682447}
{0.38165918}
{0.78193355}
{-0.28229165}
{0.85278386}
{-0.1457856}
{0.6303892}
{0.9133499}
{-0.7967685}
{0.72775704}
{0.9271424}
{-0.043338593}
{-0.73682994}
{0.593343}
{-0.6313422}
{0.5779737}
{-0.58760405}
{0.5326343}
{-0.48290035}
{-0.93104166}
{-0.5731993}
{0.27075344}
{0.82408834}
{0.09582142}
{0.116259575}
{0.88162404}
{0.52709293}
{0.53610504}
{-0.21098259}
{0.8157007}
{0.30663908}
{0.7592163}
{-0.34465072}
{0.5027915}
{-0.96030474}
{0.36668715}
{-0.7303451}
{-0.5042203}
{-0.97400117}
{-0.3234716}
{0.66064125}
{-0.95250446}
{0.023289992}
{0.6312972}
{0.81708384}
{0.941056}
{0.40229094}
{0.34862465}
{-0.07933968}
{0.34567562}
{-0.314206}
{-0.9463521}
{0.8851903}
{0.5968979}
{0.11866}
{-0.56759244}
{-0.6890285}
{-0.3585797}
{-0.75331974}
{-0.45794675}
{-0.8682901}
{-0.9951548}
{0.85027885}
{-0.25208777}
{0.9297572}
{0.6466032}
{0.3779}
{0.23302422}
{0.8594008}
{-0.0024725369}
{0.71276665}
{0.33965826}
{0.38307363}
{-0.1094707}
{-0.28491962}
{-0.8940318}
{-0.27234927}
{-0.17881925}
{0.22309077}
{-0.7488349}
{0.5715214}
{-0.67726725}
{-0.93005776}
{0.59537154}
{0.00780736}
{0.48045048}
{0.28869474}
{0.0033586556}
{0.7457541}
{-0.80087256}
{-0.08771321}
{-0.667566}
{0.30921733}
{-0.5039773}
{0.4822923}
{0.8095816}
{-0.18359362}
{0.80655986}
{-0.36160076}
{0.97863984}
{-0.18155937}
{-0.5012907}
{-0.20588434}
{-0.8538968}
{-0.5197956}
{0.39358196}
{-0.028799936}
{0.16494313}
{0.02405805}
{0.8746272}
{0.27109134}
{-0.7486942}
{0.59365857}
{0.21334551}
{-0.528939}
{0.46947205}
{-0.92355645}
{0.42127872}
{0.6821749}
{-0.7904141}
{-0.032579463}
{0.2031828}
{0.6506705}
{0.026070997}
{-0.7358932}
{-0.10602191}
{-0.047805727}
{0.17797317}
{0.72407037}
{-0.93727607}
{-0.17806232}
{-0.69407266}
{-0.17216039}
{-0.6689999}
{0.196859}
{0.04849707}
{-0.92784}
{0.59522986}
{0.7011776}
{0.5962649}
{-0.32041988}
{0.36440855}
{-0.150478}
{-0.45697388}
{0.85908663}
{-0.73901063}
{0.588326}
{0.6505326}
{-0.6075071}
{-0.45435524}
{0.2786368}
{0.30934662}
{-0.63142705}
{-0.24903688}
{0.14543019}
{-0.55715096}
{0.46922758}
{-0.74746925}
{-0.93955135}
{-0.6326634}
{0.707701}
{0.49387166}
{0.065121956}
{-0.84556663}
{-0.49621165}
{-0.7491757}
{-0.15548289}
{0.68249744}
{0.25838864}
{-0.42330056}
{-0.70673275}
{-0.7122525}
{-0.30691335}
{0.54730165}
{-0.26488698}
{-0.8984025}
{-0.89337283}
{0.27634186}
{-0.2621659}
{0.5048312}
{-0.2071229}
{-0.8974727}
{0.85451317}
{0.91492087}
{-0.42318413}
{0.15486766}
{-0.46469843}
{0.7327407}
{0.49237162}
{0.93620384}
{0.5253372}
{-0.6524911}
{0.77468807}
{0.8351195}
{0.82884383}
{0.41290236}
{-0.90382695}
{0.49938497}
{-0.32301342}
{0.30496883}
{-0.67173517}
{0.6579225}
{-0.9298291}
{0.4369391}
{-0.14949504}
{-0.18370853}
{-0.31627405}
{-0.9754901}
{-0.42781273}
{0.477077}
{0.39187515}
{-0.7951442}
{0.5631484}
{0.78767484}
{0.20561278}
{-0.65828925}
{-0.24654455}
{0.79718506}
{0.64800906}
{0.8421918}
{-0.73536986}
{-0.90253425}
{0.9066565}
{0.37323725}
{-0.9321601}
{0.14456482}
{-0.5204289}
{-0.5792219}
{-0.780704}
{-0.6915863}
{0.49960124}
{-0.6716337}
{-0.71552664}
{-0.52743673}
{0.010251119}
{0.13104516}
{-0.058178633}
{-0.8629529}
{0.27518237}
{-0.78286016}
{0.33890817}
{-0.015110666}
{0.34329093}
{-0.14040452}
{-0.11120073}
{-0.95188934}
{0.12797336}
{-0.5958547}
{0.3301354}
{0.39514318}
{-0.77984405}
{-0.5117071}
{-0.25352764}
{0.48380312}
{-0.0012649749}
{0.29991314}
{0.37097672}
{0.20969193}
{-0.52244663}
{-0.21984668}
{0.39313367}
{0.60905683}
{-0.6715143}
{0.24571297}
{-0.7758439}
{-0.7619944}
{0.455346}
{0.72292125}
{0.04449112}
{-0.7320915}
{0.06565315}
{0.91086847}
{-0.5088475}
{-0.68948984}
{-0.6649301}
{-0.71082175}
{-0.26051968}
{-0.17292415}
{0.73663807}
{-0.62960654}
{-0.12449435}
{-0.583767}
{-0.42461288}
{-0.9241588}
{-0.6693673}
{-0.5971868}
{0.66088843}
{0.8714525}
{-0.60909915}
{0.8101974}
{-0.7896795}
{-0.21258648}
{-0.85172164}
{0.021390842}
{0.2891351}
{0.50967413}
{0.33002612}
{0.84705704}
{-0.42852366}
{-0.21371259}
{0.04290058}
{0.6741128}
{-0.769897}
{-0.13216169}
{0.92414665}
{0.041162368}
{0.30882823}
{-0.50261253}
{-0.9611789}
{0.38625163}
{-0.32574904}
{-0.2780576}
{-0.3068462}
{0.87760216}
{-0.110296905}
{-0.98038405}
{0.4306257}
{0.19788848}
{-0.050147716}
{-0.14070731}
{-0.091905735}
{-0.81700134}
{0.2397753}
{-0.50624216}
{-0.34711343}
{-0.25011727}
{0.23691857}
{-0.8273767}
{-0.15365861}
{-0.92639107}
{-0.94119453}
{-0.70312315}
{0.27720386}
{-0.9876901}
{-0.4959809}
{0.7152552}
{0.33550724}
{-0.889736}
{0.7806299}
{-0.9711115}
{0.5837909}
{0.1826173}
{-0.92237043}
{0.1959784}
{0.04301556}
{0.02006227}
{-0.14249098}
{0.8305489}
{0.41051376}
{-0.2683282}
{0.76007843}
{0.23452736}
{-0.93702227}
{0.31065404}
{0.74870133}
{0.8149469}
{-0.50293833}
{0.2029954}
{0.09234241}
{-0.5767173}
{-0.84671867}
{0.9103688}
{-0.76683354}
{-0.24301909}
{0.97457725}
{0.96756816}
{-0.71098113}
{0.020931983}
{-0.3584273}
{0.40355685}
{0.7668152}
{0.16917466}
{0.20223309}
{0.46476176}
{-0.6140883}
{0.14548309}
{-0.66021615}
{-0.04391946}
{0.27097166}
{-0.9593362}
{-0.52483165}
{-0.5664742}
{-0.10071561}
{0.15287815}
{-0.31726038}
{0.776045}
{-0.2621938}
{-0.58100504}
{-0.52820957}
{0.27613252}
{-0.70194674}
{0.6879317}
{0.81126416}
{-0.21985725}
{1.0120988}
{0.12427906}
{-0.07705203}
{-0.7079836}
{0.9869828}
{-0.43441945}
{-0.17727861}
{-0.1316966}
{0.48359025}
{-0.31603467}
{0.7197244}
{0.38321456}
{0.7102976}
{-0.4320239}
{-0.38508034}
{0.2276321}
{-0.1554302}
{-0.89706755}
{-0.52552706}
{-0.40724903}
{0.6758671}
{-0.56972396}
{0.9112081}
{0.89020103}
{-0.3456949}
{-0.83019584}
{-0.66876596}
{-0.90008026}
{0.21545446}
{0.5353837}
{-0.44070777}
{0.4501476}
{0.70508933}
{0.22877152}
{0.4504134}
{-0.28763804}
{-0.95614386}
{-0.89616084}
{0.6170665}
{0.6415395}
{-0.6322794}
{0.25753728}
{-0.9214879}
{-0.94278497}
{0.24021661}
{0.073671564}
{0.3126049}
{0.8763438}
{0.04806812}
{-0.8664913}
{-0.024055665}
{-0.35790217}
{0.2781769}
{-0.67746866}
{-0.14465731}
{0.90910566}
{0.26628053}
{-0.6481187}
{-0.6836724}
{-0.39399824}
{0.77653}
{0.8596239}
{-0.1873866}
{0.047762763}
{-0.50193787}
{-0.93866265}
{0.1817032}
{-0.07737346}
{-0.9125993}
{0.051242106}
{0.01730507}
{-0.81762785}
{0.45306337}
{0.50245005}
{0.3755686}
{0.095375866}
{0.7763896}
{-0.8572152}
{0.16238776}
{0.58784026}
{-0.7871494}
{0.19470699}
{-0.3815765}
{-0.8056451}
{0.92921734}
{-0.27678406}
{0.45790017}
{0.28038314}
{0.4336952}
{0.15810724}
{0.16510773}
{-0.7177215}
{0.08778432}
{-0.8785628}
{-0.26151782}
{-0.29762357}
{0.83638144}
{0.18271291}
{-0.7716872}
{-0.7700296}
{0.3297149}
{-0.9699213}
{0.33663476}
{0.67733425}
{0.85906935}
{-0.067053124}
{0.96351963}
{0.076164946}
{-0.6404047}
{-0.49594122}
{-0.94931966}
{0.61823696}
{0.7756865}
{0.6044331}
{0.9240936}
{0.8295588}
{-0.61804223}
{-0.36257553}
{-0.47246963}
{-0.44112706}
{-0.34851015}
{-0.9876359}
{-0.5850335}
{0.70095325}
{-0.25835788}
{-0.76999485}
{-0.12375676}
{-0.6987503}
{-0.7299609}
{-0.46829268}
{-0.34060228}
{0.39428395}
{-0.23460495}
{-0.76171005}
{0.89111096}
{0.27861723}
{-0.5424855}
{0.95238197}
{0.5520346}
{-0.8871597}
{0.81033015}
{0.58368826}
{0.39082766}
{-1.0013336}
{-0.40100968}
{-0.19234672}
{0.4413688}
{0.7401592}
{-0.9135423}
{0.30496702}
{0.17155285}
{-0.08315996}
{0.7309389}
{-0.08877787}
{-0.87311506}
{-0.58280843}
{-0.90607905}
{0.6139863}
{0.6307721}
{-0.4986362}
{0.17685807}
{-0.73488796}
{0.9792349}
{0.87752825}
{-0.010901138}
{-0.9348733}
{0.16337842}
{0.97733635}
{-0.510983}
{-0.39247072}
{-0.68731946}
{-0.062433865}
{0.25764883}
{0.19054385}
{-0.08433098}
{0.8887119}
{0.4100443}
{0.8657871}
{-0.9895757}
{-0.38438007}
{-0.19143021}
{-0.1831678}
{0.53292656}
{0.55307484}
{0.0030613681}
{-0.25630626}
{0.22403586}
{-0.60331964}
{-0.7028296}
{0.15183468}
{-0.063592}
{0.7252631}
{0.15245664}
{-0.70293856}
{0.020749522}
{-0.044592574}
{0.4849342}
{-0.4959116}
{-0.02195375}
{-0.5236941}
{-0.17173207}
{0.9095973}
{-0.07261538}
{0.87595624}
{0.5098295}
{0.5610363}
{0.14896418}
{0.77454776}
{0.91431856}
{0.42330796}
{0.43895233}
{-0.6387648}
{-0.96844864}
{0.030254835}
{0.60518277}
{0.8874028}
{0.7023668}
{-0.09440217}
{0.20397034}
{-0.6840744}
{-0.4710437}
{0.06363834}
{0.85360414}
{-0.68886983}
{0.21995318}
{-0.23149088}
{-0.28898585}
{-0.89923215}
{-0.066179484}
{0.11417593}
{-0.5360606}
{0.68993974}
{0.38275492}
{0.09460841}
{-0.5227659}
{-0.95960057}
{0.9645276}
{0.36113247}
{-0.6108778}
{0.6179127}
{0.16441691}
{0.54016715}
{0.06013086}
{-0.47040334}
{-0.39961493}
{0.6492605}
{0.10087734}
{0.39864576}
{0.2779833}
{0.27689618}
{0.77100396}
{0.09249585}
{0.586535}
{0.44405994}
{-0.3499767}
{-0.3533697}
{0.9126687}
{-0.2995411}
{-0.2533946}
{0.113170445}
{-0.7012985}
{-0.9237431}
{0.18377586}
{-0.030307237}
{-0.58448815}
{-0.2677721}
{0.106097005}
{0.76905435}
{0.81323576}
{-0.6572675}
{-0.112202704}
{0.6077994}
{-0.12181081}
{-0.6783476}
{-0.43235904}
{-0.6640107}
{-0.112589054}
{-0.14230756}
{-0.5955542}
{0.5524328}
{0.40027487}
{0.48675752}
{0.27146575}
{0.39624724}
{-0.70303965}
{0.7183578}
{-0.1826786}
{0.75648224}
{-0.15282786}
{-0.20893778}
{0.30604813}
{-0.008457529}
{-0.83198166}
{0.6462057}
{-0.4512063}
{-0.8358371}
{0.29813135}
{0.71963185}
{0.43170518}
{0.21651939}
{-0.5873623}
{-0.7982126}
{0.16771543}
{-0.74420524}
{-0.70868254}
{0.9575947}
{0.75563836}
{-0.31054226}
{-0.18518412}
{0.71930885}
{0.5561315}
{0.0076280357}
{0.53900146}
{0.23781802}
{0.98743385}
{0.24250187}
{0.98003674}
{-0.4641968}
{-0.1267002}
{0.2872786}
{0.6595042}
{0.52117807}
{-0.7434781}
{-0.73955613}
{0.25372112}
{-0.8447645}
{0.055530995}
{-0.81135833}
{-0.0014545177}
{0.32139266}
{0.4335016}
{-0.16011934}
{-0.41339886}
{-0.408564}
{-0.21504927}
{-0.6038456}
{-0.8017907}
{0.16279453}
{-0.6662247}
{0.56719875}
{0.9397514}
{-0.96390074}
{0.9286623}
{-0.47600624}
{0.39453542}
{-0.42757934}
{-0.15568422}
{-0.30461082}
{0.6680677}
{-0.1474642}
{0.26820996}
{-0.95615304}
{0.4996394}
{-0.4272966}
{-0.9245398}
{-0.65695035}
{0.996871}
{-0.15195791}
{0.39270803}
{0.765282}
{0.4525696}
{-0.867509}
{0.42117292}
{-0.2300384}
{-0.015544817}
{0.9842765}
{-0.54831743}
{-0.13332157}
{-0.40155494}
{0.32620224}
{0.8447061}
{0.83968407}
{-0.91965365}
{-0.97675306}
{0.48536587}
{0.5751656}
{0.09032515}
{-0.22094835}
{-0.8683304}
{0.29626703}
{-0.8206177}
{-0.5177317}
{-0.9900784}
{0.47290358}
{-0.75286365}
{0.7434196}
{0.63035506}
{-0.91955096}
{0.34997904}
{-0.42504752}
{-0.5256816}
{-0.71141887}
{0.18587196}
{-0.27611676}
{-0.025787646}
{-0.4495809}
{0.29590595}
{0.54029787}
{0.9378908}
{0.7411984}
{-0.35335672}
{-0.32724473}
{0.97619754}
{-0.69922614}
{-0.92807007}
{-0.49616992}
{-0.89866614}
{0.80339456}
{-0.022437021}
{-0.11552613}
{0.2602271}
{-0.97020596}
{-0.8321078}
{0.46089536}
{0.11948269}
{-0.3225053}
{0.27891552}
{0.99749565}
{0.36729756}
{-0.013272069}
{-0.8287988}
{0.3524841}
{0.49068087}
{-0.93901986}
{0.04222496}
{-0.33145094}
{-0.53515434}
{-0.65474665}
{-0.1167833}
{-0.012505682}
{0.7545326}
{-0.3938621}
{-0.24029887}
{-0.7324215}
{0.32520598}
{0.08122475}
{-0.29715884}
{0.14714472}
{0.04375391}
{-0.83800834}
{-0.7537236}
{-0.8413124}
{-0.21424836}
{0.5246117}
{-0.048000753}
{-0.076537944}
{0.71599925}
{0.9027679}
{0.43827975}
{-0.59796566}
{-0.82167405}
{-0.6921099}
{0.6265271}
{0.63039607}
{0.9727438}
{0.86637247}
{-0.39586556}
{-0.9351176}
{0.20854175}
{0.021368353}
{-0.90693307}
{-0.21338761}
{-0.505779}
{-0.011614929}
{0.22756827}
{0.04848869}
{-0.47709763}
{0.37001863}
{-0.3183707}
{-0.1943832}
{-0.9333596}
{-0.17994364}
{-0.3997203}
{0.08951845}
{-0.636828}
{0.34197438}
{0.62650514}
{0.789065}
{-0.7593462}
{-0.05359647}
{-0.18443525}
{-0.3845475}
{0.63140607}
{0.5637579}
{0.37635005}
{-0.10803561}
{0.28837034}
{0.4020376}
{0.5674162}
{0.9837099}
{0.14421785}
{0.53486496}
{0.44789183}
{0.46553245}
{-0.37446767}
{-0.53468925}
{-0.03519623}
{-0.4195918}
{0.9947734}
{0.14268811}
{0.7512424}
{0.86603624}
{-0.8612166}
{0.8867698}
{-0.05978795}
{-0.43478453}
{-0.7644268}
{0.34663865}
{-0.28093374}
{-0.53192407}
{0.26311383}
{-0.33220786}
{0.8527963}
{-0.8445836}
{0.41504043}
{-0.54762477}
{-0.18836868}
{-0.91256267}
{0.23785922}
{-0.9204258}
{0.8646929}
{-0.9745289}
{0.7682136}
{0.07090469}
{0.6644914}
{-0.8008256}
{-0.91910315}
{0.49354643}
{-0.23124325}
{-0.67623156}
{0.6050324}
{0.4197087}
{-0.7765472}
{-0.035274725}
{-0.4763141}
{-0.45301014}
{-0.2760898}
{-0.00040891883}
{-0.8853125}
{-0.7982255}
{0.5761883}
{0.7550978}
{0.32861125}
{0.9508772}
{-0.23809326}
{0.88166094}
{0.66377205}
{-0.8665968}
{-0.80075574}
{0.59121597}
{0.3947642}
{0.09561631}
{0.9696183}
{-0.009097051}
{0.5125875}
{0.33316442}
{0.14697061}
{0.7662426}
{-0.8143567}
{0.12801124}
{0.706877}
{-0.9235115}
{0.32449377}
{0.8354808}
{1.020714}
{-0.37273034}
{0.44830045}
{0.38636082}
{0.44676745}
{-0.05112073}
{-0.4832093}
{0.771167}
{-0.9041934}
{0.64181983}
{-0.9804318}
{-0.3064173}
{0.2766465}
{-0.791823}
{0.077398725}
{0.36196455}
{-0.35450208}
{0.2602273}
{-0.7544288}
{0.89145267}
{-0.3892063}
{-0.043573115}
{-0.8841748}
{0.71035177}
{0.17412508}
{0.7510703}
{-0.20020251}
{-0.5512388}
{-0.94455695}
{-0.5915361}
{-0.054170765}
{-0.23911396}
{0.7083247}
{0.7649037}
{-0.096808605}
{0.57480574}
{0.45120847}
{-0.73884416}
{-0.76565915}
{0.99722695}
{-0.52864337}
{-0.8144836}
{0.84598505}
{-0.23022608}
{0.6829493}
{0.034302052}
{0.15123062}
{0.90190333}
{0.9266083}
{0.9019295}
{0.04968164}
{0.9864993}
{-0.2591778}
{-0.17202486}
{-0.07021051}
{-0.49296027}
{-0.049515907}
{-0.028218027}
{0.69190747}
{0.91582054}
{-0.7406218}
{-0.83477545}
{0.89584833}
{-0.72144175}
{-0.44162285}
{-0.9649176}
{-0.39511707}
{-0.8764481}
{-0.6813526}
{0.76729184}
{0.56120414}
{0.5249308}
{-0.00083653675}
{-0.32988214}
{0.8616637}
{-0.038007516}
{0.39143884}
{-0.65368414}
{0.26573655}
{0.5661887}
{-0.30223858}
{-0.7576986}
{0.86072534}
{-0.2888778}
{0.006152942}
{-0.18645915}
{0.4822225}
{-0.7742611}
{-0.20984042}
{-0.15537211}
{-0.17411792}
{-0.12018495}
{-0.96627426}
{-0.6023164}
{-0.19750492}
{0.7204435}
{0.69633985}
{1.0174627}
{-0.31878486}
{0.47783753}
{0.64180326}
{-0.06971514}
{0.10184462}
{-0.4913281}
{-0.68439126}
{-0.016165089}
{-0.27060756}
{-0.5900237}
{1.0168607}
{-0.94490343}
{-0.68814516}
{0.057682782}
{0.43304265}
{0.5362532}
{0.14953999}
{-0.46862802}
{0.47545707}
{0.2924057}
{0.8705632}
{0.84626997}
{0.22719467}
{0.50073946}
{-0.6840369}
{-0.9226429}
{-0.5320637}
{0.63339263}
{-0.5479089}
{-0.40447843}
{-0.94992924}
{0.92360324}
{-0.56914616}
{-0.6016425}
{0.20603025}
{0.69856095}
{0.33202025}
{0.3728279}
{0.80236435}
{0.2920145}
{0.5538435}
{-0.62421536}
{-0.439139}
{-0.42650405}
{0.67059606}
{-0.00020696362}
{0.061924532}
{-0.582968}
{0.40165162}
{0.09909142}
{0.06208642}
{-0.5065959}
{-0.5419436}
{-0.42051157}
{0.0070203086}
{-0.86773574}
{-0.8408588}
{-0.15772061}
{0.42112958}
{0.025125962}
{0.48619226}
{0.9556477}
{0.31632054}
{-0.6430516}
{0.6900634}
{-0.8774787}
{0.42520964}
{0.76848173}
{0.09973892}
{-0.08088223}
{-0.5401902}
{-0.62113416}
{-0.59305274}
{-0.4470167}
{0.55528855}
{-0.5669494}
{0.49723455}
{-0.89522743}
{-0.06079742}
{0.840479}
{0.57654613}
{0.07362203}
{0.19099462}
{-0.5759024}
{-0.9616157}
{-0.42949876}
{0.5190602}
{-0.6724198}
{0.27433062}
{0.59742546}
{0.84626985}
{0.32760036}
{-0.1250028}
{0.65218985}
{0.14633738}
{-0.8077279}
{-0.91809696}
{-0.2836317}
{0.96232104}
{-0.8395132}
{0.16258515}
{-0.48897204}
{-0.5675802}
{0.6910399}
{-0.19268739}
{-0.75766426}
{0.8609245}
{0.17481376}
{-0.37692124}
{0.95423484}
{0.10915163}
{-0.94275403}
{-0.7986369}
{0.5796474}
{-0.11715689}
{-0.5796176}
{-0.9134592}
{0.39114514}
{-0.23530853}
{0.1633672}
{0.44057393}
{0.9549927}
{0.7974398}
{-0.8160007}
{0.4539398}
{0.49343783}
{0.7034321}
{-0.24180152}
{-0.64730436}
{-0.44220397}
{0.3604046}
{0.8733031}
{0.969169}
{-0.17567144}
{-0.405661}
{0.5905454}
{0.9840574}
{-0.5580004}
{-0.044062786}
{-0.9175945}
{-0.4996437}
{-0.2977849}
{0.50962496}
{0.91054285}
{-0.08089381}
{0.94282496}
{-0.34292877}
{0.80467707}
{-0.2639674}
{0.3462675}
{-0.5299361}
{0.12997402}
{0.42056516}
{-0.77850264}
{-0.9281342}
{-0.18819788}
{-0.3386291}
{-0.5777503}
{-0.6962848}
{-0.22227895}
{0.78560245}
{-0.15179478}
{-0.4498595}
{-0.7774656}
{0.8713525}
{-0.075389355}
{-0.38959754}
{0.8003803}
{-0.71387535}
{0.8328039}
{-0.83169436}
{-0.3568108}
{-0.24899594}
{0.51716316}
{0.8777888}
{-0.6546337}
{-0.71351457}
{-0.5519388}
{0.761307}
{-0.57752883}
{-0.21744522}
{0.64226305}
{-0.86282825}
{-0.30601072}
{-0.63260293}
{0.49554682}
{-0.24639761}
{-0.558207}
{-0.17592943}
{-0.3067989}
{-0.36341465}
{-0.23422109}
{0.2579909}
{-0.14791308}
{0.77630854}
{-0.15247317}
{-0.5991019}
{-0.062709995}
{-0.7006748}
{-0.7018774}
{-0.3101125}
{-0.83813006}
{0.25693643}
{-0.487149}
{0.27208677}
{-0.19591355}
{-0.22438467}
{0.07833297}
{0.08357552}
{-0.66824776}
{-0.8121443}
{0.098334566}
{0.34681812}
{-0.64236164}
{-0.03251569}
{0.32648185}
{0.12334329}
{-0.4166505}
{0.3219539}
{0.23507904}
{0.67156875}
{-0.03369994}
{0.0677355}
{0.07446922}
{0.040136136}
{0.038378295}
{-0.6169343}
{-0.42454213}
{0.9293622}
{0.75683606}
{0.84711933}
{-0.86435974}
{0.015507109}
{0.60021996}
{-0.8662503}
{-0.664497}
{-0.18579417}
{-0.568701}
{-0.9047046}
{0.04954475}
{0.34321806}
{0.94293976}
{-0.4806592}
{-0.16527325}
{-0.024847616}
{-0.84707373}
{-0.5651362}
{0.48201835}
{0.8976675}
{0.20126474}
{0.26370347}
{-0.08955527}
{-0.67496157}
{-0.34905306}
{0.030329779}
{1.0102108}
{-0.9482055}
{0.595117}
{0.41806543}
{-0.91235656}
{0.8635455}
{-0.7383994}
{0.17591012}
{0.9305085}
{0.44646826}
{-0.38438398}
{0.16915429}
{0.20723876}
{0.6165131}
{-0.37782213}
{-0.44949782}
{0.32007426}
{0.8039862}
{0.91818166}
{0.081883706}
{-0.49340686}
{-0.89200974}
{-0.07476855}
{0.056511}
{0.053173777}
{-0.028846307}
{0.72362864}
{0.15219128}
{-0.2041488}
{-0.34771314}
{0.5590761}
{-0.37528193}
{-0.6163631}
{0.43087444}
{0.6113012}
{0.81661296}
{-0.7388854}
{0.85279876}
{-0.963881}
{-0.803823}
{0.38862178}
{-0.66676724}
{-0.4884327}
{-0.34465086}
{-0.82330644}
{-0.9462907}
{-0.5797642}
{0.17256439}
{-0.18208353}
{-0.1846179}
{-0.3339865}
{0.9641156}
{0.22610015}
{0.10724737}
{-0.67492145}
{0.7296014}
{0.8737017}
{0.26444826}
{0.814894}
{-0.77402854}
{0.07128031}
{0.59047884}
{0.46623006}
{0.8698237}
{0.85141146}
{0.36307386}
{0.014836673}
{-0.54367375}
